{"learner":{"attributes":{"scikit_learn":"{\"_estimator_type\": \"regressor\"}"},"feature_names":["solar_generation","cyc_hour1","cyc_hour2","exp_solar","direct_solar","diffuse_solar","direct_solar_6h","diffuse_solar_6h","direct_solar_12h","diffuse_solar_12h","direct_solar_24h","diffuse_solar_24h"],"feature_types":["float","float","float","float","float","float","float","float","float","float","float","float"],"gradient_booster":{"model":{"gbtree_model_param":{"num_parallel_tree":"1","num_trees":"89"},"iteration_indptr":[0,1,2,3,4,5,6,7,8,9,10,11,12,13,14,15,16,17,18,19,20,21,22,23,24,25,26,27,28,29,30,31,32,33,34,35,36,37,38,39,40,41,42,43,44,45,46,47,48,49,50,51,52,53,54,55,56,57,58,59,60,61,62,63,64,65,66,67,68,69,70,71,72,73,74,75,76,77,78,79,80,81,82,83,84,85,86,87,88,89],"tree_info":[0,0,0,0,0,0,0,0,0,0,0,0,0,0,0,0,0,0,0,0,0,0,0,0,0,0,0,0,0,0,0,0,0,0,0,0,0,0,0,0,0,0,0,0,0,0,0,0,0,0,0,0,0,0,0,0,0,0,0,0,0,0,0,0,0,0,0,0,0,0,0,0,0,0,0,0,0,0,0,0,0,0,0,0,0,0,0,0,0],"trees":[{"base_weights":[1.8332441E-9,-2.314905E-2,1.4447733E0,-3.0421276E-2,3.0637228E-1,2.3890613E-1,7.4703306E-1,-9.448738E-3,-2.1684535E-2,4.2028956E-2,6.163955E-1,2.339335E-1,-8.107702E-3,1.9885279E-1,-9.375278E-3,3.546543E-1,-8.933487E-3,-7.09424E-3,1.6332808E-1,2.2225158E-1,-6.3059903E-3],"categories":[],"categories_nodes":[],"categories_segments":[],"categories_sizes":[],"default_left":[0,0,0,0,0,0,0,0,0,0,0,0,0,0,0,0,0,0,0,0,0],"id":0,"left_children":[1,3,5,7,9,11,-1,-1,13,15,-1,-1,-1,17,-1,19,-1,-1,-1,-1,-1],"loss_changes":[3.6053852E1,2.5518508E0,2.0834232E1,9.070933E-3,1.0543002E1,1.31559E0,0E0,0E0,2.5305465E-1,4.8198506E-1,0E0,0E0,0E0,3.9732593E-1,0E0,5.958904E-1,0E0,0E0,0E0,0E0,0E0],"parents":[2147483647,0,0,1,1,2,2,3,3,4,4,5,5,8,8,9,9,13,13,15,15],"right_children":[2,4,6,8,10,12,-1,-1,14,16,-1,-1,-1,18,-1,20,-1,-1,-1,-1,-1],"split_conditions":[5.6920165E-1,9.117501E2,5.871238E2,9.659258E-1,1.2270627E2,1.5132071E0,7.4703306E-1,-9.448738E-3,4.3165867E1,9.317191E2,6.163955E-1,2.339335E-1,-8.107702E-3,4.1657166E1,-9.375278E-3,9.659258E-1,-8.933487E-3,-7.09424E-3,1.6332808E-1,2.2225158E-1,-6.3059903E-3],"split_indices":[0,6,6,1,7,0,0,0,9,6,0,0,0,9,0,1,0,0,0,0,0],"split_type":[0,0,0,0,0,0,0,0,0,0,0,0,0,0,0,0,0,0,0,0,0],"sum_hessian":[1.076E3,1.06E3,1.6E1,1.038E3,2.2E1,8E0,8E0,9.22E2,1.16E2,2E1,2E0,2E0,6E0,4E0,1.12E2,3E0,1.7E1,3E0,1E0,1E0,2E0],"tree_param":{"num_deleted":"0","num_feature":"12","num_nodes":"21","size_leaf_vector":"1"}},{"base_weights":[1.795428E-3,-1.529876E-2,1.0685682E0,-2.1162642E-2,2.5026092E-1,-6.0228645E-3,1.6641994E0,-6.6171875E-3,-1.3923974E-2,3.9277986E-2,4.9311638E-1,5.478242E-1,1.8714678E-1,1.7044371E-1,-6.587585E-3,-6.4899153E-3,3.0355814E-1,-5.4980353E-3,1.3882886E-1,-4.519293E-3,1.8891384E-1],"categories":[],"categories_nodes":[],"categories_segments":[],"categories_sizes":[],"default_left":[0,0,0,0,0,0,0,0,0,0,0,0,0,0,0,0,0,0,0,0,0],"id":1,"left_children":[1,3,5,7,9,-1,11,-1,13,15,-1,-1,-1,17,-1,-1,19,-1,-1,-1,-1],"loss_changes":[1.9656103E1,1.6574969E0,1.105673E1,6.4215064E-3,6.6973543E0,0E0,7.1343994E-1,0E0,1.770581E-1,3.4461606E-1,0E0,0E0,0E0,2.843871E-1,0E0,0E0,4.2516693E-1,0E0,0E0,0E0,0E0],"parents":[2147483647,0,0,1,1,2,2,3,3,4,4,6,6,8,8,9,9,13,13,16,16],"right_children":[2,4,6,8,10,-1,12,-1,14,16,-1,-1,-1,18,-1,-1,20,-1,-1,-1,-1],"split_conditions":[5.6920165E-1,9.117501E2,2.5881904E-1,9.659258E-1,1.2270627E2,-6.0228645E-3,-1.8369701E-16,-6.6171875E-3,4.3165867E1,1.361471E2,4.9311638E-1,5.478242E-1,1.8714678E-1,4.1657166E1,-6.587585E-3,-6.4899153E-3,8.660254E-1,-5.4980353E-3,1.3882886E-1,-4.519293E-3,1.8891384E-1],"split_indices":[0,6,1,1,7,0,2,0,9,11,0,0,0,9,0,0,1,0,0,0,0],"split_type":[0,0,0,0,0,0,0,0,0,0,0,0,0,0,0,0,0,0,0,0,0],"sum_hessian":[1.076E3,1.06E3,1.6E1,1.038E3,2.2E1,6E0,1E1,9.22E2,1.16E2,2E1,2E0,8E0,2E0,4E0,1.12E2,1.7E1,3E0,3E0,1E0,2E0,1E0],"tree_param":{"num_deleted":"0","num_feature":"12","num_nodes":"21","size_leaf_vector":"1"}},{"base_weights":[2.6682161E-3,-9.96347E-3,7.9087704E-1,-1.46982325E-2,2.0435748E-1,-4.474127E-3,1.2317551E0,-4.634182E-3,-8.663505E-3,3.596624E-2,3.944931E-1,4.0173778E-1,1.4971742E-1,1.4597677E-1,-4.628798E-3,-4.6511055E-3,2.5858933E-1,-4.2609777E-3,1.1800453E-1,-3.6154343E-3,1.6057676E-1],"categories":[],"categories_nodes":[],"categories_segments":[],"categories_sizes":[],"default_left":[0,0,0,0,0,0,0,0,0,0,0,0,0,0,0,0,0,0,0,0,0],"id":2,"left_children":[1,3,5,7,9,-1,11,-1,13,15,-1,-1,-1,17,-1,-1,19,-1,-1,-1,-1],"loss_changes":[1.073093E1,1.0796627E0,6.0577135E0,4.5627207E-3,4.2541323E0,0E0,1.9706917E-1,0E0,1.2466573E-1,2.4463536E-1,0E0,0E0,0E0,2.0370683E-1,0E0,0E0,3.0595955E-1,0E0,0E0,0E0,0E0],"parents":[2147483647,0,0,1,1,2,2,3,3,4,4,6,6,8,8,9,9,13,13,16,16],"right_children":[2,4,6,8,10,-1,12,-1,14,16,-1,-1,-1,18,-1,-1,20,-1,-1,-1,-1],"split_conditions":[5.6920165E-1,9.117501E2,2.5881904E-1,9.659258E-1,1.2270627E2,-4.474127E-3,-1.8369701E-16,-4.634182E-3,4.3165867E1,1.361471E2,3.944931E-1,4.0173778E-1,1.4971742E-1,4.1657166E1,-4.628798E-3,-4.6511055E-3,8.660254E-1,-4.2609777E-3,1.1800453E-1,-3.6154343E-3,1.6057676E-1],"split_indices":[0,6,1,1,7,0,2,0,9,11,0,0,0,9,0,0,1,0,0,0,0],"split_type":[0,0,0,0,0,0,0,0,0,0,0,0,0,0,0,0,0,0,0,0,0],"sum_hessian":[1.076E3,1.06E3,1.6E1,1.038E3,2.2E1,6E0,1E1,9.22E2,1.16E2,2E1,2E0,8E0,2E0,4E0,1.12E2,1.7E1,3E0,3E0,1E0,2E0,1E0],"tree_param":{"num_deleted":"0","num_feature":"12","num_nodes":"21","size_leaf_vector":"1"}},{"base_weights":[2.9803459E-3,-6.3605895E-3,5.8578926E-1,-1.0188204E-2,1.6682428E-1,-3.3236374E-3,9.1236085E-1,-3.2502327E-3,-5.2445317E-3,3.2429237E-2,3.155945E-1,1.7289723E-1,3.2890123E-1,1.0030386E-1,-3.2442776E-3,2.2044227E-1,-3.3459186E-3,1.3649024E-1,-2.8165882E-3],"categories":[],"categories_nodes":[],"categories_segments":[],"categories_sizes":[],"default_left":[0,0,0,0,0,0,0,0,0,0,0,0,0,0,0,0,0,0,0],"id":3,"left_children":[1,3,5,7,9,-1,11,-1,13,15,-1,-1,-1,-1,-1,17,-1,-1,-1],"loss_changes":[5.866893E0,7.0502055E-1,3.3237505E0,3.260851E-3,2.7019825E0,0E0,4.820633E-2,0E0,2.3436983E-1,1.7453344E-1,0E0,0E0,0E0,0E0,0E0,2.1987607E-1,0E0,0E0,0E0],"parents":[2147483647,0,0,1,1,2,2,3,3,4,4,6,6,8,8,9,9,15,15],"right_children":[2,4,6,8,10,-1,12,-1,14,16,-1,-1,-1,-1,-1,18,-1,-1,-1],"split_conditions":[5.6920165E-1,9.117501E2,2.5881904E-1,7.0367645E2,1.2270627E2,-3.3236374E-3,1.5132071E0,-3.2502327E-3,7.06235E2,9.317191E2,3.155945E-1,1.7289723E-1,3.2890123E-1,1.0030386E-1,-3.2442776E-3,9.659258E-1,-3.3459186E-3,1.3649024E-1,-2.8165882E-3],"split_indices":[0,6,1,6,7,0,0,0,6,6,0,0,0,0,0,1,0,0,0],"split_type":[0,0,0,0,0,0,0,0,0,0,0,0,0,0,0,0,0,0,0],"sum_hessian":[1.076E3,1.06E3,1.6E1,1.038E3,2.2E1,6E0,1E1,9.17E2,1.21E2,2E1,2E0,5E0,5E0,1E0,1.2E2,3E0,1.7E1,1E0,2E0],"tree_param":{"num_deleted":"0","num_feature":"12","num_nodes":"19","size_leaf_vector":"1"}},{"base_weights":[3.0502228E-3,-3.943711E-3,4.3937457E-1,-7.0414543E-3,1.3616492E-1,-2.4689878E-3,6.842707E-1,-2.2762248E-3,-2.875602E-3,2.8906548E-2,2.524756E-1,1.3556014E-1,2.6183444E-1,8.5258275E-2,-2.2790378E-3,-2.402926E-3,1.8780327E-1,-2.2231636E-3,1.1601671E-1],"categories":[],"categories_nodes":[],"categories_segments":[],"categories_sizes":[],"default_left":[0,0,0,0,0,0,0,0,0,0,0,0,0,0,0,0,0,0,0],"id":4,"left_children":[1,3,5,7,9,-1,11,-1,13,15,-1,-1,-1,-1,-1,-1,17,-1,-1],"loss_changes":[3.2883315E0,4.6145463E-1,1.8691137E0,2.341278E-3,1.715904E0,0E0,8.7534904E-2,0E0,1.6750695E-1,1.24687724E-1,0E0,0E0,0E0,0E0,0E0,0E0,1.5819283E-1,0E0,0E0],"parents":[2147483647,0,0,1,1,2,2,3,3,4,4,6,6,8,8,9,9,16,16],"right_children":[2,4,6,8,10,-1,12,-1,14,16,-1,-1,-1,-1,-1,-1,18,-1,-1],"split_conditions":[5.6920165E-1,9.117501E2,2.5881904E-1,7.0367645E2,1.2270627E2,-2.4689878E-3,1.6538339E0,-2.2762248E-3,7.06235E2,1.361471E2,2.524756E-1,1.3556014E-1,2.6183444E-1,8.5258275E-2,-2.2790378E-3,-2.402926E-3,8.660254E-1,-2.2231636E-3,1.1601671E-1],"split_indices":[0,6,1,6,7,0,0,0,6,11,0,0,0,0,0,0,1,0,0],"split_type":[0,0,0,0,0,0,0,0,0,0,0,0,0,0,0,0,0,0,0],"sum_hessian":[1.076E3,1.06E3,1.6E1,1.038E3,2.2E1,6E0,1E1,9.17E2,1.21E2,2E1,2E0,6E0,4E0,1E0,1.2E2,1.7E1,3E0,2E0,1E0],"tree_param":{"num_deleted":"0","num_feature":"12","num_nodes":"19","size_leaf_vector":"1"}},{"base_weights":[2.9146322E-3,-2.3415876E-3,3.3079314E-1,-4.8513436E-3,1.1113572E-1,2.6234051E-2,5.413611E-1,-1.594101E-3,-1.3327633E-3,2.5538899E-2,2.0198049E-1,3.790023E-2,-1.8341052E-3,4.549034E-2,5.678158E-1,7.246953E-2,-1.6009769E-3,1.599253E-1,-1.7230714E-3,1.7933196E-1,4.9223464E-2,9.861421E-2,-1.7726854E-3],"categories":[],"categories_nodes":[],"categories_segments":[],"categories_sizes":[],"default_left":[0,0,0,0,0,0,0,0,0,0,0,0,0,0,0,0,0,0,0,0,0,0,0],"id":5,"left_children":[1,3,5,7,9,11,13,-1,15,17,-1,-1,-1,-1,19,-1,-1,21,-1,-1,-1,-1,-1],"loss_changes":[1.8568782E0,3.0271235E-1,1.0760146E0,1.6830936E-3,1.0894909E0,2.6676446E-2,1.7000198E-2,0E0,1.1993668E-1,8.920125E-2,0E0,0E0,0E0,0E0,1.07729435E-2,0E0,0E0,1.13906145E-1,0E0,0E0,0E0,0E0,0E0],"parents":[2147483647,0,0,1,1,2,2,3,3,4,4,5,5,6,6,8,8,9,9,14,14,17,17],"right_children":[2,4,6,8,10,12,14,-1,16,18,-1,-1,-1,-1,20,-1,-1,22,-1,-1,-1,-1,-1],"split_conditions":[5.6920165E-1,9.117501E2,7.9002686E1,7.0367645E2,1.2270627E2,1.5132071E0,9.763429E1,-1.594101E-3,7.06235E2,9.317191E2,2.0198049E-1,3.790023E-2,-1.8341052E-3,4.549034E-2,-1.8369701E-16,7.246953E-2,-1.6009769E-3,9.659258E-1,-1.7230714E-3,1.7933196E-1,4.9223464E-2,9.861421E-2,-1.7726854E-3],"split_indices":[0,6,7,6,7,0,7,0,6,6,0,0,0,0,2,0,0,1,0,0,0,0,0],"split_type":[0,0,0,0,0,0,0,0,0,0,0,0,0,0,0,0,0,0,0,0,0,0,0],"sum_hessian":[1.076E3,1.06E3,1.6E1,1.038E3,2.2E1,7E0,9E0,9.17E2,1.21E2,2E1,2E0,1E0,6E0,1E0,8E0,1E0,1.2E2,3E0,1.7E1,7E0,1E0,1E0,2E0],"tree_param":{"num_deleted":"0","num_feature":"12","num_nodes":"23","size_leaf_vector":"1"}},{"base_weights":[2.6683623E-3,-1.293802E-3,2.4979706E-1,-3.3292663E-3,9.071234E-2,-1.3624781E-3,3.8894013E-1,-1.1163916E-3,-3.5204444E-4,2.2406679E-2,1.6158436E-1,2.3987135E-1,1.5595451E-1,6.1599106E-2,-1.1246533E-3,1.3615808E-1,-1.2348677E-3,7.938436E-2,1.3711846E-2,8.382207E-2,-1.4181484E-3],"categories":[],"categories_nodes":[],"categories_segments":[],"categories_sizes":[],"default_left":[0,0,0,0,0,0,0,0,0,0,0,0,0,0,0,0,0,0,0,0,0],"id":6,"left_children":[1,3,5,7,9,-1,11,-1,13,15,-1,17,-1,-1,-1,19,-1,-1,-1,-1,-1],"loss_changes":[1.0548834E0,1.99001E-1,6.033871E-1,1.2113973E-3,6.9159925E-1,0E0,8.996093E-2,0E0,8.600649E-2,6.391783E-2,0E0,2.1535337E-2,0E0,0E0,0E0,8.204739E-2,0E0,0E0,0E0,0E0,0E0],"parents":[2147483647,0,0,1,1,2,2,3,3,4,4,6,6,8,8,9,9,11,11,15,15],"right_children":[2,4,6,8,10,-1,12,-1,14,16,-1,18,-1,-1,-1,20,-1,-1,-1,-1,-1],"split_conditions":[5.6920165E-1,9.117501E2,2.5881904E-1,7.0367645E2,1.2270627E2,-1.3624781E-3,1.6538339E0,-1.1163916E-3,7.06235E2,9.317191E2,1.6158436E-1,7.617481E2,1.5595451E-1,6.1599106E-2,-1.1246533E-3,9.659258E-1,-1.2348677E-3,7.938436E-2,1.3711846E-2,8.382207E-2,-1.4181484E-3],"split_indices":[0,6,1,6,7,0,0,0,6,6,0,10,0,0,0,1,0,0,0,0,0],"split_type":[0,0,0,0,0,0,0,0,0,0,0,0,0,0,0,0,0,0,0,0,0],"sum_hessian":[1.076E3,1.06E3,1.6E1,1.038E3,2.2E1,6E0,1E1,9.17E2,1.21E2,2E1,2E0,6E0,4E0,1E0,1.2E2,3E0,1.7E1,5E0,1E0,1E0,2E0],"tree_param":{"num_deleted":"0","num_feature":"12","num_nodes":"21","size_leaf_vector":"1"}},{"base_weights":[2.3783452E-3,-6.2091916E-4,1.8942782E-1,-2.2733563E-3,7.405313E-2,1.3970915E-2,3.1085056E-1,-7.8183896E-4,2.4926141E-4,1.9549865E-2,1.2926748E-1,2.030754E-2,-1.0121266E-3,1.8884705E-1,1.1852541E-1,5.2359242E-2,-7.900456E-4,1.15911625E-1,-8.849885E-4,6.332292E-2,1.1655057E-2,7.1248755E-2,-1.1345185E-3],"categories":[],"categories_nodes":[],"categories_segments":[],"categories_sizes":[],"default_left":[0,0,0,0,0,0,0,0,0,0,0,0,0,0,0,0,0,0,0,0,0,0,0],"id":7,"left_children":[1,3,5,7,9,11,13,-1,15,17,-1,-1,-1,19,-1,-1,-1,21,-1,-1,-1,-1,-1],"loss_changes":[6.043263E-1,1.3108957E-1,3.578329E-1,8.728481E-4,4.3889993E-1,7.682544E-3,2.815795E-2,0E0,6.175359E-2,4.5872517E-2,0E0,0E0,0E0,1.1805624E-2,0E0,0E0,0E0,5.910944E-2,0E0,0E0,0E0,0E0,0E0],"parents":[2147483647,0,0,1,1,2,2,3,3,4,4,5,5,6,6,8,8,9,9,13,13,17,17],"right_children":[2,4,6,8,10,12,14,-1,16,18,-1,-1,-1,20,-1,-1,-1,22,-1,-1,-1,-1,-1],"split_conditions":[5.6920165E-1,9.117501E2,7.9002686E1,7.0367645E2,1.2270627E2,1.5132071E0,1.6538339E0,-7.8183896E-4,7.06235E2,9.317191E2,1.2926748E-1,2.030754E-2,-1.0121266E-3,7.617481E2,1.1852541E-1,5.2359242E-2,-7.900456E-4,9.659258E-1,-8.849885E-4,6.332292E-2,1.1655057E-2,7.1248755E-2,-1.1345185E-3],"split_indices":[0,6,7,6,7,0,0,0,6,6,0,0,0,10,0,0,0,1,0,0,0,0,0],"split_type":[0,0,0,0,0,0,0,0,0,0,0,0,0,0,0,0,0,0,0,0,0,0,0],"sum_hessian":[1.076E3,1.06E3,1.6E1,1.038E3,2.2E1,7E0,9E0,9.17E2,1.21E2,2E1,2E0,1E0,6E0,5E0,4E0,1E0,1.2E2,3E0,1.7E1,4E0,1E0,1E0,2E0],"tree_param":{"num_deleted":"0","num_feature":"12","num_nodes":"23","size_leaf_vector":"1"}},{"base_weights":[2.0938872E-3,-1.9969128E-4,1.45117E-1,-1.5424683E-3,6.0467485E-2,2.3622649E-2,2.5048724E-1,-5.4754276E-4,5.971815E-4,1.6981537E-2,1.0341399E-1,2.3014737E-2,-7.518655E-4,3.1143057E-1,9.645045E-2,4.4505358E-2,-5.549907E-4,9.866669E-2,-2.1141393E-3,1.0394147E-1,2.0433856E-2,1.142083E-1,6.4765336E-3,6.0561437E-2,-9.076149E-4,-5.241573E-4,-1.0099453E-3,9.906793E-3,4.1486945E-2],"categories":[],"categories_nodes":[],"categories_segments":[],"categories_sizes":[],"default_left":[0,0,0,0,0,0,0,0,0,0,0,0,0,0,0,0,0,0,0,0,0,0,0,0,0,0,0,0,0],"id":8,"left_children":[1,3,5,7,9,11,13,-1,15,17,-1,-1,-1,19,21,-1,-1,23,25,-1,-1,27,-1,-1,-1,-1,-1,-1,-1],"loss_changes":[3.5332242E-1,8.652497E-2,2.1171498E-1,6.2950165E-4,2.7844232E-1,1.267764E-2,5.4450035E-2,0E0,4.4386752E-2,3.296509E-2,0E0,0E0,0E0,2.7557373E-2,2.851978E-3,0E0,0E0,4.259116E-2,2.3899338E-6,0E0,0E0,1.2985244E-3,0E0,0E0,0E0,0E0,0E0,0E0,0E0],"parents":[2147483647,0,0,1,1,2,2,3,3,4,4,5,5,6,6,8,8,9,9,13,13,14,14,17,17,18,18,21,21],"right_children":[2,4,6,8,10,12,14,-1,16,18,-1,-1,-1,20,22,-1,-1,24,26,-1,-1,28,-1,-1,-1,-1,-1,-1,-1],"split_conditions":[5.6920165E-1,9.117501E2,9.763429E1,7.0367645E2,1.2270627E2,1.5132071E0,7.617481E2,-5.4754276E-4,7.06235E2,9.317191E2,1.0341399E-1,2.3014737E-2,-7.518655E-4,-1.8369701E-16,2.7974024E0,4.4505358E-2,-5.549907E-4,9.659258E-1,1.499E2,1.0394147E-1,2.0433856E-2,1.3373424E0,6.4765336E-3,6.0561437E-2,-9.076149E-4,-5.241573E-4,-1.0099453E-3,9.906793E-3,4.1486945E-2],"split_indices":[0,6,7,6,7,0,10,0,6,6,0,0,0,2,0,0,0,1,5,0,0,0,0,0,0,0,0,0,0],"split_type":[0,0,0,0,0,0,0,0,0,0,0,0,0,0,0,0,0,0,0,0,0,0,0,0,0,0,0,0,0],"sum_hessian":[1.076E3,1.06E3,1.6E1,1.038E3,2.2E1,8E0,8E0,9.17E2,1.21E2,2E1,2E0,2E0,6E0,5E0,3E0,1E0,1.2E2,3E0,1.7E1,4E0,1E0,2E0,1E0,1E0,2E0,1.5E1,2E0,1E0,1E0],"tree_param":{"num_deleted":"0","num_feature":"12","num_nodes":"29","size_leaf_vector":"1"}},{"base_weights":[1.8458926E-3,5.337011E-5,1.136118E-1,-1.0379541E-3,4.9350437E-2,1.9009495E-2,1.9559057E-1,-3.8345886E-4,7.78276E-4,1.4654682E-2,8.273117E-2,1.841178E-2,-5.5852864E-4,2.3873062E-1,8.198285E-2,3.7829556E-2,-3.898695E-4,8.398014E-2,-1.5651253E-3,1.1467546E-1,9.7368196E-2,9.707705E-2,5.5050375E-3,5.1477227E-2,-7.260919E-4,-3.7673803E-4,-8.079562E-4,4.5063116E-2,1.2106062E-3,8.4207775E-3,3.5263896E-2],"categories":[],"categories_nodes":[],"categories_segments":[],"categories_sizes":[],"default_left":[0,0,0,0,0,0,0,0,0,0,0,0,0,0,0,0,0,0,0,0,0,0,0,0,0,0,0,0,0,0,0],"id":9,"left_children":[1,3,5,7,9,11,13,-1,15,17,-1,-1,-1,19,21,-1,-1,23,25,27,-1,29,-1,-1,-1,-1,-1,-1,-1,-1,-1],"loss_changes":[2.1576326E-1,5.713205E-2,1.281234E-1,4.5434653E-4,1.7664248E-1,8.071803E-3,2.4537563E-2,0E0,3.1932127E-2,2.3744797E-2,0E0,0E0,0E0,2.666682E-2,2.0605642E-3,0E0,0E0,3.069368E-2,2.8989307E-6,1.512019E-2,0E0,9.38179E-4,0E0,0E0,0E0,0E0,0E0,0E0,0E0,0E0,0E0],"parents":[2147483647,0,0,1,1,2,2,3,3,4,4,5,5,6,6,8,8,9,9,13,13,14,14,17,17,18,18,19,19,21,21],"right_children":[2,4,6,8,10,12,14,-1,16,18,-1,-1,-1,20,22,-1,-1,24,26,28,-1,30,-1,-1,-1,-1,-1,-1,-1,-1,-1],"split_conditions":[5.6920165E-1,9.117501E2,9.763429E1,7.0367645E2,1.2270627E2,1.5132071E0,7.617481E2,-3.8345886E-4,7.06235E2,9.317191E2,8.273117E-2,1.841178E-2,-5.5852864E-4,1.6538339E0,2.7974024E0,3.7829556E-2,-3.898695E-4,9.659258E-1,1.499E2,1.4696382E0,9.7368196E-2,1.3373424E0,5.5050375E-3,5.1477227E-2,-7.260919E-4,-3.7673803E-4,-8.079562E-4,4.5063116E-2,1.2106062E-3,8.4207775E-3,3.5263896E-2],"split_indices":[0,6,7,6,7,0,10,0,6,6,0,0,0,0,0,0,0,1,5,0,0,0,0,0,0,0,0,0,0,0,0],"split_type":[0,0,0,0,0,0,0,0,0,0,0,0,0,0,0,0,0,0,0,0,0,0,0,0,0,0,0,0,0,0,0],"sum_hessian":[1.076E3,1.06E3,1.6E1,1.038E3,2.2E1,8E0,8E0,9.17E2,1.21E2,2E1,2E0,2E0,6E0,5E0,3E0,1E0,1.2E2,3E0,1.7E1,3E0,2E0,2E0,1E0,1E0,2E0,1.5E1,2E0,2E0,1E0,1E0,1E0],"tree_param":{"num_deleted":"0","num_feature":"12","num_nodes":"31","size_leaf_vector":"1"}},{"base_weights":[1.6449925E-3,1.9697615E-4,9.1921486E-2,-6.9090264E-4,4.029737E-2,1.4966336E-2,1.5866314E-1,-8.95155E-4,8.516757E-4,1.5795746E-1,-1.1614041E-3,1.4437819E-2,-4.1490697E-4,1.9153774E-1,6.968546E-2,-2.6370602E-4,-1.0839157E-3,3.215512E-2,-2.7387525E-4,7.151652E-2,-5.808735E-4,-2.7078047E-4,-6.463649E-4,9.2570245E-2,7.7894546E-2,8.251556E-2,4.6792747E-3,-9.453817E-4,-2.9205662E-4,4.346645E-2,8.050466E-3,7.1576717E-3,2.997433E-2],"categories":[],"categories_nodes":[],"categories_segments":[],"categories_sizes":[],"default_left":[0,0,0,0,0,0,0,0,0,0,0,0,0,0,0,0,0,0,0,0,0,0,0,0,0,0,0,0,0,0,0,0,0],"id":10,"left_children":[1,3,5,7,9,11,13,15,17,19,21,-1,-1,23,25,-1,27,-1,-1,-1,-1,-1,-1,29,-1,31,-1,-1,-1,-1,-1,-1,-1],"loss_changes":[1.4076933E-1,3.7803993E-2,8.49393E-2,3.2812555E-4,1.1237845E-1,4.945822E-3,1.2978569E-2,1.8431456E-6,2.2989053E-2,7.762398E-2,2.6818143E-6,0E0,0E0,1.6408786E-2,1.4887694E-3,0E0,1.2451339E-5,0E0,0E0,0E0,0E0,0E0,0E0,9.868491E-3,0E0,6.778296E-4,0E0,0E0,0E0,0E0,0E0,0E0,0E0],"parents":[2147483647,0,0,1,1,2,2,3,3,4,4,5,5,6,6,7,7,8,8,9,9,10,10,13,13,14,14,16,16,23,23,25,25],"right_children":[2,4,6,8,10,12,14,16,18,20,22,-1,-1,24,26,-1,28,-1,-1,-1,-1,-1,-1,30,-1,32,-1,-1,-1,-1,-1,-1,-1],"split_conditions":[5.6920165E-1,9.117501E2,5.871238E2,7.0367645E2,9.317191E2,1.5132071E0,7.617481E2,9.659258E-1,7.06235E2,9.118E1,1.499E2,1.4437819E-2,-4.1490697E-4,1.6538339E0,2.7974024E0,-2.6370602E-4,1.0654911E2,3.215512E-2,-2.7387525E-4,7.151652E-2,-5.808735E-4,-2.7078047E-4,-6.463649E-4,1.0092591E0,7.7894546E-2,1.3373424E0,4.6792747E-3,-9.453817E-4,-2.9205662E-4,4.346645E-2,8.050466E-3,7.1576717E-3,2.997433E-2],"split_indices":[0,6,6,6,6,0,10,1,6,5,5,0,0,0,0,0,6,0,0,0,0,0,0,0,0,0,0,0,0,0,0,0,0],"split_type":[0,0,0,0,0,0,0,0,0,0,0,0,0,0,0,0,0,0,0,0,0,0,0,0,0,0,0,0,0,0,0,0,0],"sum_hessian":[1.076E3,1.06E3,1.6E1,1.038E3,2.2E1,8E0,8E0,9.17E2,1.21E2,5E0,1.7E1,2E0,6E0,5E0,3E0,8.5E2,6.7E1,1E0,1.2E2,3E0,2E0,1.5E1,2E0,3E0,2E0,2E0,1E0,2E0,6.5E1,1E0,2E0,1E0,1E0],"tree_param":{"num_deleted":"0","num_feature":"12","num_nodes":"33","size_leaf_vector":"1"}},{"base_weights":[1.4167174E-3,2.3250974E-4,7.524187E-2,-4.5439208E-4,3.1252444E-2,1.2034542E-2,1.3008898E-1,-6.282437E-4,8.5749483E-4,9.523331E-3,5.1881626E-2,1.155026E-2,-3.082166E-4,1.7573458E-1,2.339313E-2,-1.8468716E-4,-7.769386E-4,2.7331853E-2,-1.9239172E-4,5.38852E-2,-8.6393533E-4,8.170644E-2,6.867285E-2,-7.563053E-4,-2.0576715E-4,3.302817E-2,-4.6469877E-4,-1.9462347E-4,-5.1709195E-4,3.6946464E-2,-1.785636E-4],"categories":[],"categories_nodes":[],"categories_segments":[],"categories_sizes":[],"default_left":[0,0,0,0,0,0,0,0,0,0,0,0,0,0,0,0,0,0,0,0,0,0,0,0,0,0,0,0,0,0,0],"id":11,"left_children":[1,3,5,7,9,11,13,15,17,19,-1,-1,-1,21,-1,-1,23,-1,-1,25,27,29,-1,-1,-1,-1,-1,-1,-1,-1,-1],"loss_changes":[9.413849E-2,2.2621615E-2,5.7369016E-2,2.3750728E-4,6.916355E-2,3.1508668E-3,7.704839E-3,1.2443052E-6,1.6560728E-2,9.723323E-3,0E0,0E0,0E0,1.2963787E-3,0E0,0E0,9.068925E-6,0E0,0E0,1.2634069E-2,2.211802E-6,1.0307128E-2,0E0,0E0,0E0,0E0,0E0,0E0,0E0,0E0,0E0],"parents":[2147483647,0,0,1,1,2,2,3,3,4,4,5,5,6,6,7,7,8,8,9,9,13,13,16,16,19,19,20,20,21,21],"right_children":[2,4,6,8,10,12,14,16,18,20,-1,-1,-1,22,-1,-1,24,-1,-1,26,28,30,-1,-1,-1,-1,-1,-1,-1,-1,-1],"split_conditions":[5.6920165E-1,9.117501E2,5.871238E2,7.0367645E2,1.2270627E2,1.5132071E0,7.06235E2,9.659258E-1,7.06235E2,9.317191E2,5.1881626E-2,1.155026E-2,-3.082166E-4,1.6538339E0,2.339313E-2,-1.8468716E-4,1.0654911E2,2.7331853E-2,-1.9239172E-4,9.659258E-1,1.499E2,1.0092591E0,6.867285E-2,-7.563053E-4,-2.0576715E-4,3.302817E-2,-4.6469877E-4,-1.9462347E-4,-5.1709195E-4,3.6946464E-2,-1.785636E-4],"split_indices":[0,6,6,6,7,0,6,1,6,6,0,0,0,0,0,0,6,0,0,1,5,0,0,0,0,0,0,0,0,0,0],"split_type":[0,0,0,0,0,0,0,0,0,0,0,0,0,0,0,0,0,0,0,0,0,0,0,0,0,0,0,0,0,0,0],"sum_hessian":[1.076E3,1.06E3,1.6E1,1.038E3,2.2E1,8E0,8E0,9.17E2,1.21E2,2E1,2E0,2E0,6E0,3E0,5E0,8.5E2,6.7E1,1E0,1.2E2,3E0,1.7E1,2E0,1E0,2E0,6.5E1,1E0,2E0,1.5E1,2E0,1E0,1E0],"tree_param":{"num_deleted":"0","num_feature":"12","num_nodes":"31","size_leaf_vector":"1"}},{"base_weights":[1.2236445E-3,2.661746E-4,6.090905E-2,-2.9305738E-4,2.55173E-2,9.391116E-3,1.0565931E-1,-1.3230594E-4,8.227012E-4,9.97492E-2,-6.442945E-4,8.986247E-3,-2.289609E-4,1.3069707E-1,4.1687846E-2,2.323208E-2,-1.3515119E-4,4.516596E-2,-3.7175903E-4,-1.3988561E-4,-4.1367352E-4,4.4366516E-2,6.711084E-3,5.454286E-2,4.68421E-4,2.5750638E-3,2.1969223E-2],"categories":[],"categories_nodes":[],"categories_segments":[],"categories_sizes":[],"default_left":[0,0,0,0,0,0,0,0,0,0,0,0,0,0,0,0,0,0,0,0,0,0,0,0,0,0,0],"id":12,"left_children":[1,3,5,7,9,11,13,-1,15,17,19,-1,-1,21,23,-1,-1,-1,-1,-1,-1,-1,-1,25,-1,-1,-1],"loss_changes":[6.1531078E-2,1.499011E-2,3.8200244E-2,1.718917E-4,4.4730842E-2,1.9020939E-3,8.966833E-3,0E0,1.1935972E-2,3.0970246E-2,1.7108682E-6,0E0,0E0,7.865369E-3,1.9781403E-3,0E0,0E0,0E0,0E0,0E0,0E0,0E0,0E0,1.9480679E-3,0E0,0E0,0E0],"parents":[2147483647,0,0,1,1,2,2,3,3,4,4,5,5,6,6,8,8,9,9,10,10,13,13,14,14,23,23],"right_children":[2,4,6,8,10,12,14,-1,16,18,20,-1,-1,22,24,-1,-1,-1,-1,-1,-1,-1,-1,26,-1,-1,-1],"split_conditions":[5.6920165E-1,9.117501E2,9.763429E1,7.0367645E2,9.317191E2,1.5132071E0,7.617481E2,-1.3230594E-4,7.06235E2,9.118E1,1.499E2,8.986247E-3,-2.289609E-4,-1.8369701E-16,2.7974024E0,2.323208E-2,-1.3515119E-4,4.516596E-2,-3.7175903E-4,-1.3988561E-4,-4.1367352E-4,4.4366516E-2,6.711084E-3,1.3373424E0,4.68421E-4,2.5750638E-3,2.1969223E-2],"split_indices":[0,6,7,6,6,0,10,0,6,5,5,0,0,2,0,0,0,0,0,0,0,0,0,0,0,0,0],"split_type":[0,0,0,0,0,0,0,0,0,0,0,0,0,0,0,0,0,0,0,0,0,0,0,0,0,0,0],"sum_hessian":[1.076E3,1.06E3,1.6E1,1.038E3,2.2E1,8E0,8E0,9.17E2,1.21E2,5E0,1.7E1,2E0,6E0,5E0,3E0,1E0,1.2E2,3E0,2E0,1.5E1,2E0,4E0,1E0,2E0,1E0,1E0,1E0],"tree_param":{"num_deleted":"0","num_feature":"12","num_nodes":"27","size_leaf_vector":"1"}},{"base_weights":[9.977323E-4,2.4966348E-4,4.7627334E-2,-1.8303757E-4,1.978561E-2,7.5468156E-3,8.241592E-2,-9.265739E-5,7.6520967E-4,6.207043E-3,3.247211E-2,7.189E-3,-1.7008523E-4,3.444791E-2,1.1390076E-1,1.9747265E-2,-9.494093E-5,3.475489E-2,-4.817594E-4,-1.0262172E-2,6.767535E-2,4.6927165E-2,3.341071E-2,2.1299047E-2,-2.974072E-4,-1.0054278E-4,-3.309388E-4,2.18879E-3,-6.806767E-3,2.4749495E-2,5.704415E-3,3.9814712E-4,1.4636672E-2],"categories":[],"categories_nodes":[],"categories_segments":[],"categories_sizes":[],"default_left":[0,0,0,0,0,0,0,0,0,0,0,0,0,0,0,0,0,0,0,0,0,0,0,0,0,0,0,0,0,0,0,0,0],"id":13,"left_children":[1,3,5,7,9,11,13,-1,15,17,-1,-1,-1,19,21,-1,-1,23,25,27,29,-1,31,-1,-1,-1,-1,-1,-1,-1,-1,-1,-1],"loss_changes":[3.7556183E-2,8.972492E-3,2.3081884E-2,1.2419824E-4,2.6953187E-2,1.2123841E-3,9.668745E-3,0E0,8.606336E-3,4.026713E-3,0E0,0E0,0E0,8.122506E-3,1.1887208E-2,0E0,0E0,5.252436E-3,1.2701539E-6,8.2012743E-4,5.952008E-4,0E0,1.4154112E-3,0E0,0E0,0E0,0E0,0E0,0E0,0E0,0E0,0E0,0E0],"parents":[2147483647,0,0,1,1,2,2,3,3,4,4,5,5,6,6,8,8,9,9,13,13,14,14,17,17,18,18,19,19,20,20,22,22],"right_children":[2,4,6,8,10,12,14,-1,16,18,-1,-1,-1,20,22,-1,-1,24,26,28,30,-1,32,-1,-1,-1,-1,-1,-1,-1,-1,-1,-1],"split_conditions":[5.6920165E-1,9.117501E2,9.763429E1,7.0367645E2,1.2270627E2,1.5132071E0,1.6538339E0,-9.265739E-5,7.06235E2,9.317191E2,3.247211E-2,7.189E-3,-1.7008523E-4,7.0710677E-1,2.7974024E0,1.9747265E-2,-9.494093E-5,9.659258E-1,1.499E2,1.3373424E0,1.0092591E0,4.6927165E-2,2.8158495E0,2.1299047E-2,-2.974072E-4,-1.0054278E-4,-3.309388E-4,2.18879E-3,-6.806767E-3,2.4749495E-2,5.704415E-3,3.9814712E-4,1.4636672E-2],"split_indices":[0,6,7,6,7,0,0,0,6,6,0,0,0,1,0,0,0,1,5,0,0,0,0,0,0,0,0,0,0,0,0,0,0],"split_type":[0,0,0,0,0,0,0,0,0,0,0,0,0,0,0,0,0,0,0,0,0,0,0,0,0,0,0,0,0,0,0,0,0],"sum_hessian":[1.076E3,1.06E3,1.6E1,1.038E3,2.2E1,8E0,8E0,9.17E2,1.21E2,2E1,2E0,2E0,6E0,4E0,4E0,1E0,1.2E2,3E0,1.7E1,2E0,2E0,2E0,2E0,1E0,2E0,1.5E1,2E0,1E0,1E0,1E0,1E0,1E0,1E0],"tree_param":{"num_deleted":"0","num_feature":"12","num_nodes":"33","size_leaf_vector":"1"}},{"base_weights":[8.538617E-4,2.4319229E-4,3.8916588E-2,-1.0930081E-4,1.615611E-2,6.062642E-3,6.744647E-2,-2.163015E-4,6.9673144E-4,6.301537E-2,-1.0836084E-4,5.7511926E-3,-1.2634904E-4,2.9280758E-2,9.212289E-2,-6.193642E-5,-3.363501E-4,1.6785175E-2,-6.669404E-5,2.853536E-2,-2.3792578E-4,-8.722782E-3,5.7524044E-2,4.4677842E-2,1.2207163E-2,-5.600516E-4,-7.8505866E-5,1.8604875E-3,-5.7857395E-3,2.1037066E-2,4.8487545E-3],"categories":[],"categories_nodes":[],"categories_segments":[],"categories_sizes":[],"default_left":[0,0,0,0,0,0,0,0,0,0,0,0,0,0,0,0,0,0,0,0,0,0,0,0,0,0,0,0,0,0,0],"id":14,"left_children":[1,3,5,7,9,11,13,15,17,19,-1,-1,-1,21,23,-1,25,-1,-1,-1,-1,27,29,-1,-1,-1,-1,-1,-1,-1,-1],"loss_changes":[2.5024047E-2,5.9531205E-3,1.5525525E-2,8.976031E-5,1.7824512E-2,7.729815E-4,5.7787113E-3,1.01572E-6,6.2076924E-3,1.2365902E-2,0E0,0E0,0E0,5.8684945E-3,8.5477345E-3,0E0,7.281984E-6,0E0,0E0,0E0,0E0,5.9254357E-4,4.3003168E-4,0E0,0E0,0E0,0E0,0E0,0E0,0E0,0E0],"parents":[2147483647,0,0,1,1,2,2,3,3,4,4,5,5,6,6,7,7,8,8,9,9,13,13,14,14,16,16,21,21,22,22],"right_children":[2,4,6,8,10,12,14,16,18,20,-1,-1,-1,22,24,-1,26,-1,-1,-1,-1,28,30,-1,-1,-1,-1,-1,-1,-1,-1],"split_conditions":[5.6920165E-1,9.117501E2,9.763429E1,7.0367645E2,9.317191E2,1.5132071E0,1.6538339E0,9.659258E-1,7.06235E2,9.118E1,-1.0836084E-4,5.7511926E-3,-1.2634904E-4,7.0710677E-1,2.3073266E0,-6.193642E-5,1.0654911E2,1.6785175E-2,-6.669404E-5,2.853536E-2,-2.3792578E-4,1.3373424E0,1.0092591E0,4.4677842E-2,1.2207163E-2,-5.600516E-4,-7.8505866E-5,1.8604875E-3,-5.7857395E-3,2.1037066E-2,4.8487545E-3],"split_indices":[0,6,7,6,6,0,0,1,6,5,0,0,0,1,0,0,6,0,0,0,0,0,0,0,0,0,0,0,0,0,0],"split_type":[0,0,0,0,0,0,0,0,0,0,0,0,0,0,0,0,0,0,0,0,0,0,0,0,0,0,0,0,0,0,0],"sum_hessian":[1.076E3,1.06E3,1.6E1,1.038E3,2.2E1,8E0,8E0,9.17E2,1.21E2,5E0,1.7E1,2E0,6E0,4E0,4E0,8.5E2,6.7E1,1E0,1.2E2,3E0,2E0,2E0,2E0,1E0,3E0,2E0,6.5E1,1E0,1E0,1E0,1E0],"tree_param":{"num_deleted":"0","num_feature":"12","num_nodes":"31","size_leaf_vector":"1"}},{"base_weights":[7.1718084E-4,2.1190007E-4,3.2210458E-2,-6.109381E-5,1.2534889E-2,4.8688455E-3,5.597313E-2,-4.565224E-5,6.24749E-4,4.8826993E-2,-2.5886198E-4,4.6009663E-3,-9.385928E-5,7.2968125E-2,1.648736E-2,1.4267404E-2,-4.6851183E-5,2.2114903E-2,-1.9034061E-4,-4.1788633E-5,-2.4307889E-4,2.8475106E-2,3.2390833E-2,2.5300184E-2,-1.4926672E-3,1.4668631E-2,-4.9178842E-3,1.5814306E-3,9.803653E-3],"categories":[],"categories_nodes":[],"categories_segments":[],"categories_sizes":[],"default_left":[0,0,0,0,0,0,0,0,0,0,0,0,0,0,0,0,0,0,0,0,0,0,0,0,0,0,0,0,0],"id":15,"left_children":[1,3,5,7,9,11,13,-1,15,17,19,-1,-1,21,23,-1,-1,-1,-1,-1,-1,25,-1,27,-1,-1,-1,-1,-1],"loss_changes":[1.7131422E-2,3.5700768E-3,1.0772541E-2,6.499805E-5,1.0691818E-2,4.929638E-4,4.8364922E-3,0E0,4.4788616E-3,7.433152E-3,1.0738578E-6,0E0,0E0,6.2694475E-3,8.824782E-4,0E0,0E0,0E0,0E0,0E0,0E0,4.4664224E-3,0E0,2.7109135E-4,0E0,0E0,0E0,0E0,0E0],"parents":[2147483647,0,0,1,1,2,2,3,3,4,4,5,5,6,6,8,8,9,9,10,10,13,13,14,14,21,21,23,23],"right_children":[2,4,6,8,10,12,14,-1,16,18,20,-1,-1,22,24,-1,-1,-1,-1,-1,-1,26,-1,28,-1,-1,-1,-1,-1],"split_conditions":[5.6920165E-1,9.117501E2,9.763429E1,7.0367645E2,9.317191E2,1.5132071E0,7.617481E2,-4.565224E-5,7.06235E2,9.118E1,1.499E2,4.6009663E-3,-9.385928E-5,1.6538339E0,2.7974024E0,1.4267404E-2,-4.6851183E-5,2.2114903E-2,-1.9034061E-4,-4.1788633E-5,-2.4307889E-4,1.4696382E0,3.2390833E-2,1.3373424E0,-1.4926672E-3,1.4668631E-2,-4.9178842E-3,1.5814306E-3,9.803653E-3],"split_indices":[0,6,7,6,6,0,10,0,6,5,5,0,0,0,0,0,0,0,0,0,0,0,0,0,0,0,0,0,0],"split_type":[0,0,0,0,0,0,0,0,0,0,0,0,0,0,0,0,0,0,0,0,0,0,0,0,0,0,0,0,0],"sum_hessian":[1.076E3,1.06E3,1.6E1,1.038E3,2.2E1,8E0,8E0,9.17E2,1.21E2,5E0,1.7E1,2E0,6E0,5E0,3E0,1E0,1.2E2,3E0,2E0,1.5E1,2E0,3E0,2E0,2E0,1E0,2E0,1E0,1E0,1E0],"tree_param":{"num_deleted":"0","num_feature":"12","num_nodes":"29","size_leaf_vector":"1"}},{"base_weights":[5.877792E-4,1.8208538E-4,2.5873274E-2,-2.9122872E-5,9.715272E-3,3.590539E-3,4.5281198E-2,-3.1971485E-5,5.538859E-4,3.7832964E-2,-5.9108806E-5,3.3941746E-3,-6.972404E-5,7.4364245E-2,1.8345634E-2,1.2127287E-2,-3.2911987E-5,1.713904E-2,-1.5227249E-4,2.5557756E-2,3.311756E-2,2.4635077E-3,2.1359682E-2,1.5681196E-2,-4.180205E-3,8.333123E-3,2.988458E-3],"categories":[],"categories_nodes":[],"categories_segments":[],"categories_sizes":[],"default_left":[0,0,0,0,0,0,0,0,0,0,0,0,0,0,0,0,0,0,0,0,0,0,0,0,0,0,0],"id":16,"left_children":[1,3,5,7,9,11,13,-1,15,17,-1,-1,-1,19,21,-1,-1,-1,-1,23,-1,-1,25,-1,-1,-1,-1],"loss_changes":[1.1043338E-2,2.1365937E-3,7.1892636E-3,4.6973295E-5,6.417808E-3,2.6836438E-4,5.686054E-3,0E0,3.2322742E-3,4.4681802E-3,0E0,0E0,0E0,4.212156E-3,7.8659505E-6,0E0,0E0,0E0,0E0,3.8931589E-3,0E0,0E0,1.5883823E-5,0E0,0E0,0E0,0E0],"parents":[2147483647,0,0,1,1,2,2,3,3,4,4,5,5,6,6,8,8,9,9,13,13,14,14,19,19,22,22],"right_children":[2,4,6,8,10,12,14,-1,16,18,-1,-1,-1,20,22,-1,-1,-1,-1,24,-1,-1,26,-1,-1,-1,-1],"split_conditions":[5.6920165E-1,9.117501E2,5.871238E2,7.0367645E2,9.317191E2,1.5132071E0,7.06235E2,-3.1971485E-5,7.06235E2,9.118E1,-5.9108806E-5,3.3941746E-3,-6.972404E-5,1.6538339E0,1.3373424E0,1.2127287E-2,-3.2911987E-5,1.713904E-2,-1.5227249E-4,1.0092591E0,3.311756E-2,2.4635077E-3,2.7974024E0,1.5681196E-2,-4.180205E-3,8.333123E-3,2.988458E-3],"split_indices":[0,6,6,6,6,0,6,0,6,5,0,0,0,0,0,0,0,0,0,0,0,0,0,0,0,0,0],"split_type":[0,0,0,0,0,0,0,0,0,0,0,0,0,0,0,0,0,0,0,0,0,0,0,0,0,0,0],"sum_hessian":[1.076E3,1.06E3,1.6E1,1.038E3,2.2E1,8E0,8E0,9.17E2,1.21E2,5E0,1.7E1,2E0,6E0,3E0,5E0,1E0,1.2E2,3E0,2E0,2E0,1E0,2E0,3E0,1E0,1E0,1E0,2E0],"tree_param":{"num_deleted":"0","num_feature":"12","num_nodes":"27","size_leaf_vector":"1"}},{"base_weights":[4.9567746E-4,1.5478324E-4,2.1742329E-2,-8.776372E-6,7.536681E-3,2.8827714E-3,3.8186073E-2,-2.2390484E-5,4.8685438E-4,2.3402602E-3,1.2419821E-2,2.7153492E-3,-5.1795E-5,6.320959E-2,1.5139381E-2,1.0308195E-2,-2.3119988E-5,1.2921785E-2,-4.2361316E-5,2.1724066E-2,2.8149927E-2,1.970792E-3,1.7782092E-2,7.935799E-3,-1.21818004E-4,1.3329006E-2,-3.553176E-3,7.083142E-3,2.3907423E-3],"categories":[],"categories_nodes":[],"categories_segments":[],"categories_sizes":[],"default_left":[0,0,0,0,0,0,0,0,0,0,0,0,0,0,0,0,0,0,0,0,0,0,0,0,0,0,0,0,0],"id":17,"left_children":[1,3,5,7,9,11,13,-1,15,17,-1,-1,-1,19,21,-1,-1,23,-1,25,-1,-1,27,-1,-1,-1,-1,-1,-1],"loss_changes":[7.7971956E-3,1.2810965E-3,5.1619885E-3,3.395089E-5,3.950308E-3,1.7118602E-4,4.23343E-3,0E0,2.3331095E-3,5.532359E-4,0E0,0E0,0E0,3.043292E-3,1.9073253E-5,0E0,0E0,7.320911E-4,0E0,2.8128047E-3,0E0,0E0,4.0619285E-5,0E0,0E0,0E0,0E0,0E0,0E0],"parents":[2147483647,0,0,1,1,2,2,3,3,4,4,5,5,6,6,8,8,9,9,13,13,14,14,17,17,19,19,22,22],"right_children":[2,4,6,8,10,12,14,-1,16,18,-1,-1,-1,20,22,-1,-1,24,-1,26,-1,-1,28,-1,-1,-1,-1,-1,-1],"split_conditions":[5.6920165E-1,9.117501E2,5.871238E2,7.0367645E2,1.2270627E2,1.5132071E0,7.06235E2,-2.2390484E-5,7.06235E2,9.317191E2,1.2419821E-2,2.7153492E-3,-5.1795E-5,1.6538339E0,1.3373424E0,1.0308195E-2,-2.3119988E-5,9.659258E-1,-4.2361316E-5,1.0092591E0,2.8149927E-2,1.970792E-3,2.7974024E0,7.935799E-3,-1.21818004E-4,1.3329006E-2,-3.553176E-3,7.083142E-3,2.3907423E-3],"split_indices":[0,6,6,6,7,0,6,0,6,6,0,0,0,0,0,0,0,1,0,0,0,0,0,0,0,0,0,0,0],"split_type":[0,0,0,0,0,0,0,0,0,0,0,0,0,0,0,0,0,0,0,0,0,0,0,0,0,0,0,0,0],"sum_hessian":[1.076E3,1.06E3,1.6E1,1.038E3,2.2E1,8E0,8E0,9.17E2,1.21E2,2E1,2E0,2E0,6E0,3E0,5E0,1E0,1.2E2,3E0,1.7E1,2E0,1E0,2E0,3E0,1E0,2E0,1E0,1E0,1E0,2E0],"tree_param":{"num_deleted":"0","num_feature":"12","num_nodes":"29","size_leaf_vector":"1"}},{"base_weights":[4.2356475E-4,1.3705135E-4,1.8280456E-2,3.7340492E-6,6.1535565E-3,2.3138905E-3,3.221586E-2,-1.5680656E-5,4.2510233E-4,2.3892222E-2,-3.035894E-5,2.1722794E-3,-3.8476286E-5,5.3728163E-2,1.2505014E-2,8.761972E-3,-1.6241314E-5,1.0824591E-2,-9.7454395E-5,1.8465439E-2,2.3927452E-2,1.5766383E-3,1.4815927E-2,1.1329651E-2,-3.0202032E-3,6.0206656E-3,1.912594E-3],"categories":[],"categories_nodes":[],"categories_segments":[],"categories_sizes":[],"default_left":[0,0,0,0,0,0,0,0,0,0,0,0,0,0,0,0,0,0,0,0,0,0,0,0,0,0,0],"id":18,"left_children":[1,3,5,7,9,11,13,-1,15,17,-1,-1,-1,19,21,-1,-1,-1,-1,23,-1,-1,25,-1,-1,-1,-1],"loss_changes":[5.507684E-3,8.510095E-4,3.707965E-3,2.4540383E-5,2.5542905E-3,1.09221604E-4,3.1443601E-3,0E0,1.6843557E-3,1.7829209E-3,0E0,0E0,0E0,2.1987855E-3,2.2653956E-5,0E0,0E0,0E0,0E0,2.032252E-3,0E0,0E0,4.940736E-5,0E0,0E0,0E0,0E0],"parents":[2147483647,0,0,1,1,2,2,3,3,4,4,5,5,6,6,8,8,9,9,13,13,14,14,19,19,22,22],"right_children":[2,4,6,8,10,12,14,-1,16,18,-1,-1,-1,20,22,-1,-1,-1,-1,24,-1,-1,26,-1,-1,-1,-1],"split_conditions":[5.6920165E-1,9.117501E2,5.871238E2,7.0367645E2,9.317191E2,1.5132071E0,7.06235E2,-1.5680656E-5,7.06235E2,9.118E1,-3.035894E-5,2.1722794E-3,-3.8476286E-5,1.6538339E0,1.3373424E0,8.761972E-3,-1.6241314E-5,1.0824591E-2,-9.7454395E-5,1.0092591E0,2.3927452E-2,1.5766383E-3,2.7974024E0,1.1329651E-2,-3.0202032E-3,6.0206656E-3,1.912594E-3],"split_indices":[0,6,6,6,6,0,6,0,6,5,0,0,0,0,0,0,0,0,0,0,0,0,0,0,0,0,0],"split_type":[0,0,0,0,0,0,0,0,0,0,0,0,0,0,0,0,0,0,0,0,0,0,0,0,0,0,0],"sum_hessian":[1.076E3,1.06E3,1.6E1,1.038E3,2.2E1,8E0,8E0,9.17E2,1.21E2,5E0,1.7E1,2E0,6E0,3E0,5E0,1E0,1.2E2,3E0,2E0,2E0,1E0,2E0,3E0,1E0,1E0,1E0,2E0],"tree_param":{"num_deleted":"0","num_feature":"12","num_nodes":"27","size_leaf_vector":"1"}},{"base_weights":[3.5527642E-4,1.142457E-4,1.5377532E-2,1.10161645E-5,4.77256E-3,1.8568231E-3,2.7189625E-2,-1.0981584E-5,3.692577E-4,1.5266632E-3,7.7708964E-3,1.737833E-3,-2.8582384E-5,4.566896E-2,1.0338466E-2,7.447672E-3,-1.1409187E-5,8.34134E-3,-2.1757238E-5,1.5695652E-2,2.0338334E-2,6.1959745E-3,4.6576383E-3,5.12175E-3,-7.7963516E-5,9.630203E-3,-2.5671602E-3,3.5047533E-3,-2.3625256E-3],"categories":[],"categories_nodes":[],"categories_segments":[],"categories_sizes":[],"default_left":[0,0,0,0,0,0,0,0,0,0,0,0,0,0,0,0,0,0,0,0,0,0,0,0,0,0,0,0,0],"id":19,"left_children":[1,3,5,7,9,11,13,-1,15,17,-1,-1,-1,19,21,-1,-1,23,-1,25,-1,27,-1,-1,-1,-1,-1,-1,-1],"loss_changes":[3.8978723E-3,5.1015645E-4,2.6645474E-3,1.7738836E-5,1.5379604E-3,6.9702204E-5,2.3304368E-3,0E0,1.2161583E-3,2.294618E-4,0E0,0E0,0E0,1.5886175E-3,3.272714E-5,0E0,0E0,3.048312E-4,0E0,1.468298E-3,0E0,4.7800757E-4,0E0,0E0,0E0,0E0,0E0,0E0,0E0],"parents":[2147483647,0,0,1,1,2,2,3,3,4,4,5,5,6,6,8,8,9,9,13,13,14,14,17,17,19,19,21,21],"right_children":[2,4,6,8,10,12,14,-1,16,18,-1,-1,-1,20,22,-1,-1,24,-1,26,-1,28,-1,-1,-1,-1,-1,-1,-1],"split_conditions":[5.6920165E-1,9.117501E2,5.871238E2,7.0367645E2,1.2270627E2,1.5132071E0,7.06235E2,-1.0981584E-5,7.06235E2,9.317191E2,7.7708964E-3,1.737833E-3,-2.8582384E-5,1.6538339E0,2.8158495E0,7.447672E-3,-1.1409187E-5,9.659258E-1,-2.1757238E-5,1.0092591E0,2.0338334E-2,2.7974024E0,4.6576383E-3,5.12175E-3,-7.7963516E-5,9.630203E-3,-2.5671602E-3,3.5047533E-3,-2.3625256E-3],"split_indices":[0,6,6,6,7,0,6,0,6,6,0,0,0,0,0,0,0,1,0,0,0,0,0,0,0,0,0,0,0],"split_type":[0,0,0,0,0,0,0,0,0,0,0,0,0,0,0,0,0,0,0,0,0,0,0,0,0,0,0,0,0],"sum_hessian":[1.076E3,1.06E3,1.6E1,1.038E3,2.2E1,8E0,8E0,9.17E2,1.21E2,2E1,2E0,2E0,6E0,3E0,5E0,1E0,1.2E2,3E0,1.7E1,2E0,1E0,4E0,1E0,1E0,2E0,1E0,1E0,3E0,1E0],"tree_param":{"num_deleted":"0","num_feature":"12","num_nodes":"29","size_leaf_vector":"1"}},{"base_weights":[2.9988037E-4,9.902756E-5,1.2817818E-2,1.4857836E-5,3.8969978E-3,1.489693E-3,2.2721741E-2,-7.690697E-6,3.19433E-4,1.5094418E-2,-1.5592686E-5,4.6342216E-3,-2.1232627E-5,3.8818598E-2,8.2035465E-3,6.3305143E-3,-8.014717E-6,6.8392665E-3,-6.237081E-5,4.1822792E-4,1.6671718E-3,1.3341268E-2,1.728759E-2,1.8678507E-3,1.0904431E-2,8.1856735E-3,-2.1821023E-3,9.236813E-4,-8.314848E-5,4.5918347E-3,1.3005496E-3],"categories":[],"categories_nodes":[],"categories_segments":[],"categories_sizes":[],"default_left":[0,0,0,0,0,0,0,0,0,0,0,0,0,0,0,0,0,0,0,0,0,0,0,0,0,0,0,0,0,0,0],"id":20,"left_children":[1,3,5,7,9,11,13,-1,15,17,-1,19,-1,21,23,-1,-1,-1,-1,-1,-1,25,-1,27,29,-1,-1,-1,-1,-1,-1],"loss_changes":[2.7065917E-3,3.3911632E-4,1.8734303E-3,1.2822499E-5,1.0178059E-3,4.449042E-5,1.7848257E-3,0E0,8.782024E-4,7.1199494E-4,0E0,1.2247838E-6,0E0,1.1477829E-3,8.230409E-5,0E0,0E0,0E0,0E0,0E0,0E0,1.0608498E-3,0E0,8.646751E-6,4.9308816E-5,0E0,0E0,0E0,0E0,0E0,0E0],"parents":[2147483647,0,0,1,1,2,2,3,3,4,4,5,5,6,6,8,8,9,9,11,11,13,13,14,14,21,21,23,23,24,24],"right_children":[2,4,6,8,10,12,14,-1,16,18,-1,20,-1,22,24,-1,-1,-1,-1,-1,-1,26,-1,28,30,-1,-1,-1,-1,-1,-1],"split_conditions":[5.6920165E-1,9.117501E2,5.871238E2,7.0367645E2,9.317191E2,1.5132071E0,7.06235E2,-7.690697E-6,7.06235E2,9.118E1,-1.5592686E-5,1.4696382E0,-2.1232627E-5,1.6538339E0,1.3373424E0,6.3305143E-3,-8.014717E-6,6.8392665E-3,-6.237081E-5,4.1822792E-4,1.6671718E-3,1.0092591E0,1.728759E-2,1.1203837E0,2.7974024E0,8.1856735E-3,-2.1821023E-3,9.236813E-4,-8.314848E-5,4.5918347E-3,1.3005496E-3],"split_indices":[0,6,6,6,6,0,6,0,6,5,0,0,0,0,0,0,0,0,0,0,0,0,0,0,0,0,0,0,0,0,0],"split_type":[0,0,0,0,0,0,0,0,0,0,0,0,0,0,0,0,0,0,0,0,0,0,0,0,0,0,0,0,0,0,0],"sum_hessian":[1.076E3,1.06E3,1.6E1,1.038E3,2.2E1,8E0,8E0,9.17E2,1.21E2,5E0,1.7E1,2E0,6E0,3E0,5E0,1E0,1.2E2,3E0,2E0,1E0,1E0,2E0,1E0,2E0,3E0,1E0,1E0,1E0,1E0,1E0,2E0],"tree_param":{"num_deleted":"0","num_feature":"12","num_nodes":"31","size_leaf_vector":"1"}},{"base_weights":[2.5185166E-4,8.1643615E-5,1.086002E-2,1.6478283E-5,3.021867E-3,1.2721448E-3,1.9241227E-2,-5.3860012E-6,2.7542704E-4,1.1695571E-2,-1.11747595E-5,1.1817337E-3,-1.577281E-5,3.299582E-2,6.8646274E-3,5.3809406E-3,-5.6301724E-6,5.3004296E-3,-4.989665E-5,1.1340062E-2,1.4694464E-2,3.2190322E-3,3.7638904E-3,6.9578295E-3,-1.8548012E-3,2.308756E-3,-2.2032382E-3],"categories":[],"categories_nodes":[],"categories_segments":[],"categories_sizes":[],"default_left":[0,0,0,0,0,0,0,0,0,0,0,0,0,0,0,0,0,0,0,0,0,0,0,0,0,0,0],"id":21,"left_children":[1,3,5,7,9,11,13,-1,15,17,-1,-1,-1,19,21,-1,-1,-1,-1,23,-1,25,-1,-1,-1,-1,-1],"loss_changes":[1.9437397E-3,2.0323848E-4,1.3416079E-3,9.268696E-6,6.107146E-4,3.200399E-5,1.3056118E-3,0E0,6.342215E-4,4.2801147E-4,0E0,0E0,0E0,8.292785E-4,8.389153E-5,0E0,0E0,0E0,0E0,7.6646835E-4,0E0,2.929662E-4,0E0,0E0,0E0,0E0,0E0],"parents":[2147483647,0,0,1,1,2,2,3,3,4,4,5,5,6,6,8,8,9,9,13,13,14,14,19,19,21,21],"right_children":[2,4,6,8,10,12,14,-1,16,18,-1,-1,-1,20,22,-1,-1,-1,-1,24,-1,26,-1,-1,-1,-1,-1],"split_conditions":[5.6920165E-1,9.117501E2,5.871238E2,7.0367645E2,9.317191E2,1.5132071E0,7.06235E2,-5.3860012E-6,7.06235E2,9.118E1,-1.11747595E-5,1.1817337E-3,-1.577281E-5,1.6538339E0,2.8158495E0,5.3809406E-3,-5.6301724E-6,5.3004296E-3,-4.989665E-5,1.0092591E0,1.4694464E-2,2.7974024E0,3.7638904E-3,6.9578295E-3,-1.8548012E-3,2.308756E-3,-2.2032382E-3],"split_indices":[0,6,6,6,6,0,6,0,6,5,0,0,0,0,0,0,0,0,0,0,0,0,0,0,0,0,0],"split_type":[0,0,0,0,0,0,0,0,0,0,0,0,0,0,0,0,0,0,0,0,0,0,0,0,0,0,0],"sum_hessian":[1.076E3,1.06E3,1.6E1,1.038E3,2.2E1,8E0,8E0,9.17E2,1.21E2,5E0,1.7E1,2E0,6E0,3E0,5E0,1E0,1.2E2,3E0,2E0,2E0,1E0,4E0,1E0,1E0,1E0,3E0,1E0],"tree_param":{"num_deleted":"0","num_feature":"12","num_nodes":"27","size_leaf_vector":"1"}},{"base_weights":[2.0920407E-4,6.714966E-5,9.062764E-3,1.670311E-5,2.3430982E-3,1.0200553E-3,1.60985E-2,-3.7719608E-6,2.3685845E-4,9.061962E-3,-8.008578E-6,3.430811E-5,1.2398423E-3,2.8046489E-2,5.45009E-3,4.573792E-3,-3.955081E-6,4.1078213E-3,-3.991732E-5,9.639104E-3,1.2490297E-2,4.8478443E-5,8.138776E-3,5.914164E-3,-1.5765667E-3,4.3880942E-4,-4.1699412E-4,3.5567165E-3,8.8436605E-4],"categories":[],"categories_nodes":[],"categories_segments":[],"categories_sizes":[],"default_left":[0,0,0,0,0,0,0,0,0,0,0,0,0,0,0,0,0,0,0,0,0,0,0,0,0,0,0,0,0],"id":22,"left_children":[1,3,5,7,9,11,13,-1,15,17,-1,-1,-1,19,21,-1,-1,-1,-1,23,-1,25,27,-1,-1,-1,-1,-1,-1],"loss_changes":[1.3539206E-3,1.21778256E-4,9.4554713E-4,6.6996836E-6,3.664553E-4,2.49002E-5,9.921878E-4,0E0,4.5805605E-4,2.5730225E-4,0E0,0E0,0E0,5.991482E-4,8.6744854E-5,0E0,0E0,0E0,0E0,5.5377174E-4,0E0,8.13601E-6,4.222768E-5,0E0,0E0,0E0,0E0,0E0,0E0],"parents":[2147483647,0,0,1,1,2,2,3,3,4,4,5,5,6,6,8,8,9,9,13,13,14,14,19,19,21,21,22,22],"right_children":[2,4,6,8,10,12,14,-1,16,18,-1,-1,-1,20,22,-1,-1,-1,-1,24,-1,26,28,-1,-1,-1,-1,-1,-1],"split_conditions":[5.6920165E-1,9.117501E2,5.871238E2,7.0367645E2,9.317191E2,7.0710677E-1,7.06235E2,-3.7719608E-6,7.06235E2,9.118E1,-8.008578E-6,3.430811E-5,1.2398423E-3,1.6538339E0,1.3373424E0,4.573792E-3,-3.955081E-6,4.1078213E-3,-3.991732E-5,1.0092591E0,1.2490297E-2,1.1203837E0,2.7974024E0,5.914164E-3,-1.5765667E-3,4.3880942E-4,-4.1699412E-4,3.5567165E-3,8.8436605E-4],"split_indices":[0,6,6,6,6,2,6,0,6,5,0,0,0,0,0,0,0,0,0,0,0,0,0,0,0,0,0,0,0],"split_type":[0,0,0,0,0,0,0,0,0,0,0,0,0,0,0,0,0,0,0,0,0,0,0,0,0,0,0,0,0],"sum_hessian":[1.076E3,1.06E3,1.6E1,1.038E3,2.2E1,8E0,8E0,9.17E2,1.21E2,5E0,1.7E1,7E0,1E0,3E0,5E0,1E0,1.2E2,3E0,2E0,2E0,1E0,2E0,3E0,1E0,1E0,1E0,1E0,1E0,2E0],"tree_param":{"num_deleted":"0","num_feature":"12","num_nodes":"29","size_leaf_vector":"1"}},{"base_weights":[1.7540393E-4,5.5134955E-5,7.671285E-3,1.6086822E-5,1.8166947E-3,8.5560227E-4,1.3634603E-2,-2.6416055E-6,2.0325836E-4,5.767653E-4,2.9671907E-3,2.5301324E-5,1.0538578E-3,2.3839533E-2,4.5588813E-3,3.887719E-3,-2.778363E-6,3.11411E-3,-5.7394805E-6,8.1932545E-3,1.0616756E-2,1.3817787E-3,3.0666592E-3,1.9163669E-3,-3.1933858E-5,5.027032E-3,-1.3400675E-3,1.5208662E-3,-2.0053983E-3],"categories":[],"categories_nodes":[],"categories_segments":[],"categories_sizes":[],"default_left":[0,0,0,0,0,0,0,0,0,0,0,0,0,0,0,0,0,0,0,0,0,0,0,0,0,0,0,0,0],"id":23,"left_children":[1,3,5,7,9,11,13,-1,15,17,-1,-1,-1,19,21,-1,-1,23,-1,25,-1,27,-1,-1,-1,-1,-1,-1,-1],"loss_changes":[9.7051606E-4,7.2952316E-5,6.7928364E-4,4.842601E-6,2.2455113E-4,1.8148767E-5,7.2487234E-4,0E0,3.3084472E-4,3.1811494E-5,0E0,0E0,0E0,4.3288362E-4,9.383279E-5,0E0,0E0,4.2853528E-5,0E0,4.0009688E-4,0E0,1.8262431E-4,0E0,0E0,0E0,0E0,0E0,0E0,0E0],"parents":[2147483647,0,0,1,1,2,2,3,3,4,4,5,5,6,6,8,8,9,9,13,13,14,14,17,17,19,19,21,21],"right_children":[2,4,6,8,10,12,14,-1,16,18,-1,-1,-1,20,22,-1,-1,24,-1,26,-1,28,-1,-1,-1,-1,-1,-1,-1],"split_conditions":[5.6920165E-1,9.117501E2,5.871238E2,7.0367645E2,1.2270627E2,7.0710677E-1,7.06235E2,-2.6416055E-6,7.06235E2,9.317191E2,2.9671907E-3,2.5301324E-5,1.0538578E-3,1.6538339E0,2.8158495E0,3.887719E-3,-2.778363E-6,9.659258E-1,-5.7394805E-6,1.0092591E0,1.0616756E-2,2.7974024E0,3.0666592E-3,1.9163669E-3,-3.1933858E-5,5.027032E-3,-1.3400675E-3,1.5208662E-3,-2.0053983E-3],"split_indices":[0,6,6,6,7,2,6,0,6,6,0,0,0,0,0,0,0,1,0,0,0,0,0,0,0,0,0,0,0],"split_type":[0,0,0,0,0,0,0,0,0,0,0,0,0,0,0,0,0,0,0,0,0,0,0,0,0,0,0,0,0],"sum_hessian":[1.076E3,1.06E3,1.6E1,1.038E3,2.2E1,8E0,8E0,9.17E2,1.21E2,2E1,2E0,7E0,1E0,3E0,5E0,1E0,1.2E2,3E0,1.7E1,2E0,1E0,4E0,1E0,1E0,2E0,1E0,1E0,3E0,1E0],"tree_param":{"num_deleted":"0","num_feature":"12","num_nodes":"29","size_leaf_vector":"1"}},{"base_weights":[1.4756748E-4,4.682089E-5,6.4266594E-3,1.4997297E-5,1.4823814E-3,7.0071686E-4,1.1438529E-2,-1.8499869E-6,1.7412419E-4,5.7235947E-3,-4.113294E-6,1.2545375E-5,8.9578633E-4,1.6593456E-2,8.4650517E-4,3.3045532E-3,-1.951743E-6,2.594778E-3,-2.5547084E-5,5.505383E-3,7.7539207E-3,4.916668E-3,-1.7045975E-3,4.2729736E-3,-6.4649584E-4,-5.825758E-4,2.7950765E-3],"categories":[],"categories_nodes":[],"categories_segments":[],"categories_sizes":[],"default_left":[0,0,0,0,0,0,0,0,0,0,0,0,0,0,0,0,0,0,0,0,0,0,0,0,0,0,0],"id":24,"left_children":[1,3,5,7,9,11,13,-1,15,17,-1,-1,-1,19,21,-1,-1,-1,-1,23,-1,25,-1,-1,-1,-1,-1],"loss_changes":[6.810062E-4,4.8449223E-5,4.798452E-4,3.5001644E-6,1.4601916E-4,1.3426799E-5,4.773637E-4,0E0,2.389744E-4,1.0270333E-4,0E0,0E0,0E0,4.7328975E-4,1.3422464E-4,0E0,0E0,0E0,0E0,2.9843498E-4,0E0,1.0863126E-4,0E0,0E0,0E0,0E0,0E0],"parents":[2147483647,0,0,1,1,2,2,3,3,4,4,5,5,6,6,8,8,9,9,13,13,14,14,19,19,21,21],"right_children":[2,4,6,8,10,12,14,-1,16,18,-1,-1,-1,20,22,-1,-1,-1,-1,24,-1,26,-1,-1,-1,-1,-1],"split_conditions":[5.6920165E-1,9.117501E2,9.763429E1,7.0367645E2,9.317191E2,-2.5881904E-1,7.617481E2,-1.8499869E-6,7.06235E2,9.118E1,-4.113294E-6,1.2545375E-5,8.9578633E-4,1.6538339E0,2.7974024E0,3.3045532E-3,-1.951743E-6,2.594778E-3,-2.5547084E-5,1.0092591E0,7.7539207E-3,1.3373424E0,-1.7045975E-3,4.2729736E-3,-6.4649584E-4,-5.825758E-4,2.7950765E-3],"split_indices":[0,6,7,6,6,2,10,0,6,5,0,0,0,0,0,0,0,0,0,0,0,0,0,0,0,0,0],"split_type":[0,0,0,0,0,0,0,0,0,0,0,0,0,0,0,0,0,0,0,0,0,0,0,0,0,0,0],"sum_hessian":[1.076E3,1.06E3,1.6E1,1.038E3,2.2E1,8E0,8E0,9.17E2,1.21E2,5E0,1.7E1,7E0,1E0,5E0,3E0,1E0,1.2E2,3E0,2E0,3E0,2E0,2E0,1E0,1E0,2E0,1E0,1E0],"tree_param":{"num_deleted":"0","num_feature":"12","num_nodes":"27","size_leaf_vector":"1"}},{"base_weights":[1.2062576E-4,3.8303282E-5,5.251421E-3,1.3674916E-5,1.1491976E-3,2.9208972E-3,1.5153567E-2,-1.2955952E-6,1.4895704E-4,4.434736E-3,-2.94786E-6,8.137727E-3,2.8407492E-4,-1.0420561E-3,7.861162E-3,2.808863E-3,-1.3710595E-6,2.0109594E-3,-2.0437667E-5,3.383732E-3,6.851315E-4,2.209166E-3,-1.6883622E-3,-1.5503186E-4,2.3758293E-3,-1.4488936E-3,-2.8252967E-5],"categories":[],"categories_nodes":[],"categories_segments":[],"categories_sizes":[],"default_left":[0,0,0,0,0,0,0,0,0,0,0,0,0,0,0,0,0,0,0,0,0,0,0,0,0,0,0],"id":25,"left_children":[1,3,5,7,9,11,13,-1,15,17,-1,19,21,-1,-1,-1,-1,-1,-1,-1,-1,23,25,-1,-1,-1,-1],"loss_changes":[4.5470192E-4,2.9012725E-5,3.4805018E-4,2.5297854E-6,8.7627974E-5,2.0402606E-4,7.0852455E-4,0E0,1.7262247E-4,6.1744075E-5,0E0,6.618857E-5,4.5498207E-5,0E0,0E0,0E0,0E0,0E0,0E0,0E0,0E0,9.748755E-5,2.959189E-5,0E0,0E0,0E0,0E0],"parents":[2147483647,0,0,1,1,2,2,3,3,4,4,5,5,6,6,8,8,9,9,11,11,12,12,21,21,22,22],"right_children":[2,4,6,8,10,12,14,-1,16,18,-1,20,22,-1,-1,-1,-1,-1,-1,-1,-1,24,26,-1,-1,-1,-1],"split_conditions":[5.6920165E-1,9.117501E2,2.848E2,7.0367645E2,9.317191E2,2.0581E2,1.6538339E0,-1.2955952E-6,7.06235E2,9.118E1,-2.94786E-6,-1.8369701E-16,2.7974024E0,-1.0420561E-3,7.861162E-3,2.808863E-3,-1.3710595E-6,2.0109594E-3,-2.0437667E-5,3.383732E-3,6.851315E-4,2.458844E0,2.8158495E0,-1.5503186E-4,2.3758293E-3,-1.4488936E-3,-2.8252967E-5],"split_indices":[0,6,5,6,6,4,0,0,6,5,0,2,0,0,0,0,0,0,0,0,0,0,0,0,0,0,0],"split_type":[0,0,0,0,0,0,0,0,0,0,0,0,0,0,0,0,0,0,0,0,0,0,0,0,0,0,0],"sum_hessian":[1.076E3,1.06E3,1.6E1,1.038E3,2.2E1,1.4E1,2E0,9.17E2,1.21E2,5E0,1.7E1,4E0,1E1,1E0,1E0,1E0,1.2E2,3E0,2E0,2E0,2E0,5E0,5E0,4E0,1E0,1E0,4E0],"tree_param":{"num_deleted":"0","num_feature":"12","num_nodes":"27","size_leaf_vector":"1"}},{"base_weights":[9.9689154E-5,3.1330335E-5,4.3602195E-3,1.2273355E-5,8.908465E-4,2.3654695E-3,1.2880564E-2,-9.0734005E-7,1.2728259E-4,2.839686E-4,1.4526129E-3,3.1244876E-3,1.0465804E-3,-8.8573695E-4,6.681991E-3,2.3875416E-3,-9.631407E-7,1.5225247E-3,-2.1126323E-6,2.122536E-3,-3.325946E-4,9.3804003E-4,-1.6350134E-5,1.5074003E-4,2.019453E-3,-1.2315632E-3,2.9411292E-4],"categories":[],"categories_nodes":[],"categories_segments":[],"categories_sizes":[],"default_left":[0,0,0,0,0,0,0,0,0,0,0,0,0,0,0,0,0,0,0,0,0,0,0,0,0,0,0],"id":26,"left_children":[1,3,5,7,9,11,13,-1,15,17,-1,-1,19,-1,-1,-1,-1,21,-1,23,25,-1,-1,-1,-1,-1,-1],"loss_changes":[3.1353408E-4,1.7368016E-5,2.584627E-4,1.8283921E-6,5.3776563E-5,1.4834566E-4,5.119072E-4,0E0,1.246993E-4,7.579816E-6,0E0,0E0,2.1480975E-5,0E0,0E0,0E0,0E0,1.0290343E-5,0E0,5.63525E-5,3.8698E-5,0E0,0E0,0E0,0E0,0E0,0E0],"parents":[2147483647,0,0,1,1,2,2,3,3,4,4,5,5,6,6,8,8,9,9,12,12,17,17,19,19,20,20],"right_children":[2,4,6,8,10,12,14,-1,16,18,-1,-1,20,-1,-1,-1,-1,22,-1,24,26,-1,-1,-1,-1,-1,-1],"split_conditions":[5.6920165E-1,9.117501E2,2.848E2,7.0367645E2,1.2270627E2,1.0092591E0,1.6538339E0,-9.0734005E-7,7.06235E2,9.317191E2,1.4526129E-3,3.1244876E-3,2.7974024E0,-8.8573695E-4,6.681991E-3,2.3875416E-3,-9.631407E-7,9.659258E-1,-2.1126323E-6,2.458844E0,2.8158495E0,9.3804003E-4,-1.6350134E-5,1.5074003E-4,2.019453E-3,-1.2315632E-3,2.9411292E-4],"split_indices":[0,6,5,6,7,0,0,0,6,6,0,0,0,0,0,0,0,1,0,0,0,0,0,0,0,0,0],"split_type":[0,0,0,0,0,0,0,0,0,0,0,0,0,0,0,0,0,0,0,0,0,0,0,0,0,0,0],"sum_hessian":[1.076E3,1.06E3,1.6E1,1.038E3,2.2E1,1.4E1,2E0,9.17E2,1.21E2,2E1,2E0,1E0,1.3E1,1E0,1E0,1E0,1.2E2,3E0,1.7E1,7E0,6E0,1E0,2E0,6E0,1E0,1E0,5E0],"tree_param":{"num_deleted":"0","num_feature":"12","num_nodes":"27","size_leaf_vector":"1"}},{"base_weights":[8.362788E-5,2.6415419E-5,3.6494392E-3,1.0887488E-5,7.267243E-4,1.9463312E-3,1.0948499E-2,-6.3543445E-7,1.0866008E-4,2.8009168E-3,-1.5140525E-6,5.766225E-3,3.3076765E-5,-7.528782E-4,5.679703E-3,2.0294131E-3,-6.765863E-7,1.2702227E-3,-1.3080108E-5,2.3651363E-3,5.179763E-4,1.4794862E-3,-1.4188455E-3,-1.5400187E-4,1.7165423E-3,-1.0468126E-3,-9.205937E-5],"categories":[],"categories_nodes":[],"categories_segments":[],"categories_sizes":[],"default_left":[0,0,0,0,0,0,0,0,0,0,0,0,0,0,0,0,0,0,0,0,0,0,0,0,0,0,0],"id":27,"left_children":[1,3,5,7,9,11,13,-1,15,17,-1,19,21,-1,-1,-1,-1,-1,-1,-1,-1,23,25,-1,-1,-1,-1],"loss_changes":[2.1962111E-4,1.152977E-5,1.9001908E-4,1.3214138E-6,3.4924324E-5,1.09435714E-4,3.698544E-4,0E0,9.0082765E-5,2.4644472E-5,0E0,2.9158866E-5,2.5199977E-5,0E0,0E0,0E0,0E0,0E0,0E0,0E0,0E0,5.3662472E-5,1.27435715E-5,0E0,0E0,0E0,0E0],"parents":[2147483647,0,0,1,1,2,2,3,3,4,4,5,5,6,6,8,8,9,9,11,11,12,12,21,21,22,22],"right_children":[2,4,6,8,10,12,14,-1,16,18,-1,20,22,-1,-1,-1,-1,-1,-1,-1,-1,24,26,-1,-1,-1,-1],"split_conditions":[5.6920165E-1,9.117501E2,2.848E2,7.0367645E2,9.317191E2,2.0581E2,1.6538339E0,-6.3543445E-7,7.06235E2,9.118E1,-1.5140525E-6,-1.8369701E-16,2.7974024E0,-7.528782E-4,5.679703E-3,2.0294131E-3,-6.765863E-7,1.2702227E-3,-1.3080108E-5,2.3651363E-3,5.179763E-4,2.458844E0,2.8158495E0,-1.5400187E-4,1.7165423E-3,-1.0468126E-3,-9.205937E-5],"split_indices":[0,6,5,6,6,4,0,0,6,5,0,2,0,0,0,0,0,0,0,0,0,0,0,0,0,0,0],"split_type":[0,0,0,0,0,0,0,0,0,0,0,0,0,0,0,0,0,0,0,0,0,0,0,0,0,0,0],"sum_hessian":[1.076E3,1.06E3,1.6E1,1.038E3,2.2E1,1.4E1,2E0,9.17E2,1.21E2,5E0,1.7E1,4E0,1E1,1E0,1E0,1E0,1.2E2,3E0,2E0,2E0,2E0,5E0,5E0,4E0,1E0,1E0,4E0],"tree_param":{"num_deleted":"0","num_feature":"12","num_nodes":"27","size_leaf_vector":"1"}},{"base_weights":[6.923357E-5,2.1585636E-5,3.0389524E-3,2.8719633E-6,5.632954E-4,1.5828917E-3,9.306272E-3,2.1701497E-3,-1.085071E-6,2.3010494E-3,6.0021767E-4,-6.3993933E-4,4.827762E-3,9.844154E-4,-1.0464085E-5,1.4900223E-3,-5.0244725E-4,9.39933E-5,1.4590502E-3,-8.897782E-4,1.2073618E-4],"categories":[],"categories_nodes":[],"categories_segments":[],"categories_sizes":[],"default_left":[0,0,0,0,0,0,0,0,0,0,0,0,0,0,0,0,0,0,0,0,0],"id":28,"left_children":[1,3,5,-1,7,9,11,13,-1,-1,15,-1,-1,-1,-1,17,19,-1,-1,-1,-1],"loss_changes":[1.5233093E-4,6.8987974E-6,1.4040434E-4,0E0,2.0959593E-5,8.5123305E-5,2.6722002E-4,1.4816296E-5,0E0,0E0,1.4484845E-5,0E0,0E0,0E0,0E0,3.023309E-5,1.679809E-5,0E0,0E0,0E0,0E0],"parents":[2147483647,0,0,1,1,2,2,4,4,5,5,6,6,7,7,10,10,15,15,16,16],"right_children":[2,4,6,-1,8,10,12,14,-1,-1,16,-1,-1,-1,-1,18,20,-1,-1,-1,-1],"split_conditions":[5.6920165E-1,9.117501E2,2.848E2,2.8719633E-6,9.317191E2,1.0092591E0,1.6538339E0,9.118E1,-1.085071E-6,2.3010494E-3,2.7974024E0,-6.3993933E-4,4.827762E-3,9.844154E-4,-1.0464085E-5,2.458844E0,2.8158495E0,9.39933E-5,1.4590502E-3,-8.897782E-4,1.2073618E-4],"split_indices":[0,6,5,0,6,0,0,5,0,0,0,0,0,0,0,0,0,0,0,0,0],"split_type":[0,0,0,0,0,0,0,0,0,0,0,0,0,0,0,0,0,0,0,0,0],"sum_hessian":[1.076E3,1.06E3,1.6E1,1.038E3,2.2E1,1.4E1,2E0,5E0,1.7E1,1E0,1.3E1,1E0,1E0,3E0,2E0,7E0,6E0,6E0,1E0,1E0,5E0],"tree_param":{"num_deleted":"0","num_feature":"12","num_nodes":"21","size_leaf_vector":"1"}},{"base_weights":[5.612264E-5,1.6029553E-5,2.5551016E-3,2.0112066E-6,4.3660335E-4,1.3137157E-3,7.910331E-3,1.3955077E-4,7.111311E-4,1.9559027E-3,4.7617036E-4,-5.43952E-4,4.103601E-3,7.443061E-4,-7.7763497E-7,-1.767076E-4,1.6866922E-3,4.5914054E-4,-8.371268E-6,2.954418E-4,-3.3455528E-4,1.3448E-4,7.0886617E-4],"categories":[],"categories_nodes":[],"categories_segments":[],"categories_sizes":[],"default_left":[0,0,0,0,0,0,0,0,0,0,0,0,0,0,0,0,0,0,0,0,0,0,0],"id":29,"left_children":[1,3,5,-1,7,9,11,13,-1,-1,15,-1,-1,17,-1,19,21,-1,-1,-1,-1,-1,-1],"loss_changes":[1.078656E-4,4.1583935E-6,1.0262249E-4,0E0,1.2881561E-5,6.229893E-5,1.930672E-4,1.8071242E-6,0E0,0E0,1.1362574E-5,0E0,0E0,2.4710375E-6,0E0,1.1998774E-5,3.1278823E-6,0E0,0E0,0E0,0E0,0E0,0E0],"parents":[2147483647,0,0,1,1,2,2,4,4,5,5,6,6,7,7,10,10,13,13,15,15,16,16],"right_children":[2,4,6,-1,8,10,12,14,-1,-1,16,-1,-1,18,-1,20,22,-1,-1,-1,-1,-1,-1],"split_conditions":[5.6920165E-1,9.117501E2,2.848E2,2.0112066E-6,1.2270627E2,1.0092591E0,1.6538339E0,9.317191E2,7.111311E-4,1.9559027E-3,-7.0710677E-1,-5.43952E-4,4.103601E-3,9.659258E-1,-7.7763497E-7,2.7974024E0,1.4696382E0,4.5914054E-4,-8.371268E-6,2.954418E-4,-3.3455528E-4,1.3448E-4,7.0886617E-4],"split_indices":[0,6,5,0,7,0,0,6,0,0,2,0,0,1,0,0,0,0,0,0,0,0,0],"split_type":[0,0,0,0,0,0,0,0,0,0,0,0,0,0,0,0,0,0,0,0,0,0,0],"sum_hessian":[1.076E3,1.06E3,1.6E1,1.038E3,2.2E1,1.4E1,2E0,2E1,2E0,1E0,1.3E1,1E0,1E0,3E0,1.7E1,9E0,4E0,1E0,2E0,4E0,5E0,2E0,2E0],"tree_param":{"num_deleted":"0","num_feature":"12","num_nodes":"23","size_leaf_vector":"1"}},{"base_weights":[4.6233472E-5,1.2316749E-5,2.1603163E-3,1.4084209E-6,3.560974E-4,1.1036142E-3,6.723722E-3,1.370613E-3,-5.5730504E-7,1.6625047E-3,3.9077498E-4,-4.623771E-4,3.488052E-3,6.217987E-4,-6.697014E-6,-1.2760385E-4,1.3493777E-3,2.2454072E-4,-2.5091917E-4,1.07586384E-4,5.6710246E-4],"categories":[],"categories_nodes":[],"categories_segments":[],"categories_sizes":[],"default_left":[0,0,0,0,0,0,0,0,0,0,0,0,0,0,0,0,0,0,0,0,0],"id":30,"left_children":[1,3,5,-1,7,9,11,13,-1,-1,15,-1,-1,-1,-1,17,19,-1,-1,-1,-1],"loss_changes":[7.719727E-5,2.778467E-6,7.455633E-5,0E0,8.355019E-6,4.528889E-5,1.3949245E-4,5.9137274E-6,0E0,0E0,7.129057E-6,0E0,0E0,0E0,0E0,6.8355644E-6,2.0019006E-6,0E0,0E0,0E0,0E0],"parents":[2147483647,0,0,1,1,2,2,4,4,5,5,6,6,7,7,10,10,15,15,16,16],"right_children":[2,4,6,-1,8,10,12,14,-1,-1,16,-1,-1,-1,-1,18,20,-1,-1,-1,-1],"split_conditions":[5.6920165E-1,9.117501E2,2.848E2,1.4084209E-6,9.317191E2,1.0092591E0,1.6538339E0,9.118E1,-5.5730504E-7,1.6625047E-3,-7.0710677E-1,-4.623771E-4,3.488052E-3,6.217987E-4,-6.697014E-6,2.7974024E0,1.4696382E0,2.2454072E-4,-2.5091917E-4,1.07586384E-4,5.6710246E-4],"split_indices":[0,6,5,0,6,0,0,5,0,0,2,0,0,0,0,0,0,0,0,0,0],"split_type":[0,0,0,0,0,0,0,0,0,0,0,0,0,0,0,0,0,0,0,0,0],"sum_hessian":[1.076E3,1.06E3,1.6E1,1.038E3,2.2E1,1.4E1,2E0,5E0,1.7E1,1E0,1.3E1,1E0,1E0,3E0,2E0,9E0,4E0,4E0,5E0,2E0,2E0],"tree_param":{"num_deleted":"0","num_feature":"12","num_nodes":"21","size_leaf_vector":"1"}},{"base_weights":[3.788996E-5,9.202252E-6,1.8261117E-3,-2.330433E-6,1.173244E-4,9.265669E-4,5.7151318E-3,1.7240525E-3,3.7769445E-5,1.4131308E-3,3.198308E-4,-3.9303306E-4,2.9648424E-3,-2.3471666E-6,2.7598787E-4,-9.938875E-4,6.216079E-4,3.1858427E-4,-3.9940355E-7,1.1630059E-4,-5.6355004E-4,4.519516E-4,-6.7703055E-5],"categories":[],"categories_nodes":[],"categories_segments":[],"categories_sizes":[],"default_left":[0,0,0,0,0,0,0,0,0,0,0,0,0,0,0,0,0,0,0,0,0,0,0],"id":31,"left_children":[1,3,5,-1,7,9,11,-1,13,-1,15,-1,-1,-1,17,19,21,-1,-1,-1,-1,-1,-1],"loss_changes":[5.523328E-5,1.9477104E-6,5.417646E-5,0E0,6.427421E-5,3.2930602E-5,1.0078436E-4,0E0,1.5553071E-6,0E0,6.1681085E-6,0E0,0E0,0E0,5.014533E-6,4.3946607E-6,9.3371045E-6,0E0,0E0,0E0,0E0,0E0,0E0],"parents":[2147483647,0,0,1,1,2,2,4,4,5,5,6,6,8,8,10,10,14,14,15,15,16,16],"right_children":[2,4,6,-1,8,10,12,-1,14,-1,16,-1,-1,-1,18,20,22,-1,-1,-1,-1,-1,-1],"split_conditions":[5.6920165E-1,7.0367645E2,2.848E2,-2.330433E-6,7.06235E2,1.0092591E0,1.6538339E0,1.7240525E-3,9.117501E2,1.4131308E-3,1.3373424E0,-3.9303306E-4,2.9648424E-3,-2.3471666E-6,9.317191E2,1.1203837E0,2.7974024E0,3.1858427E-4,-3.9940355E-7,1.1630059E-4,-5.6355004E-4,4.519516E-4,-6.7703055E-5],"split_indices":[0,6,5,0,6,0,0,0,6,0,0,0,0,0,6,0,0,0,0,0,0,0,0],"split_type":[0,0,0,0,0,0,0,0,0,0,0,0,0,0,0,0,0,0,0,0,0,0,0],"sum_hessian":[1.076E3,1.06E3,1.6E1,9.17E2,1.43E2,1.4E1,2E0,1E0,1.42E2,1E0,1.3E1,1E0,1E0,1.2E2,2.2E1,2E0,1.1E1,5E0,1.7E1,1E0,1E0,5E0,6E0],"tree_param":{"num_deleted":"0","num_feature":"12","num_nodes":"23","size_leaf_vector":"1"}},{"base_weights":[3.205684E-5,1.279541E-5,1.8975013E-3,8.362197E-6,6.8291597E-4,2.520132E-3,4.0716343E-4,-1.6320647E-6,9.6294505E-5,1.2011648E-3,-5.3789216E-4,1.3112845E-3,-1.6764342E-4,1.4654518E-3,8.594539E-6,-5.420447E-4,5.482733E-4,-2.0507089E-4,1.0943771E-3,-6.5835717E-4,1.6077718E-4,2.559662E-4,-5.498529E-5],"categories":[],"categories_nodes":[],"categories_segments":[],"categories_sizes":[],"default_left":[0,0,0,0,0,0,0,0,0,0,0,0,0,0,0,0,0,0,0,0,0,0,0],"id":32,"left_children":[1,3,5,7,9,-1,11,-1,13,-1,15,17,19,-1,-1,-1,21,-1,-1,-1,-1,-1,-1],"loss_changes":[3.867355E-5,3.1641196E-6,1.0318699E-4,1.2882361E-6,3.0533494E-5,0E0,5.416778E-6,0E0,4.650541E-5,0E0,9.260193E-6,2.1138625E-5,1.1158427E-5,0E0,0E0,0E0,1.0487279E-6,0E0,0E0,0E0,0E0,0E0,0E0],"parents":[2147483647,0,0,1,1,2,2,3,3,4,4,6,6,8,8,10,10,11,11,12,12,16,16],"right_children":[2,4,6,8,10,-1,12,-1,14,-1,16,18,20,-1,-1,-1,22,-1,-1,-1,-1,-1,-1],"split_conditions":[1.6538339E0,5.6920165E-1,2.3073266E0,7.0367645E2,1.0092591E0,2.520132E-3,2.7974024E0,-1.6320647E-6,7.06235E2,1.2011648E-3,-7.0710677E-1,2.458844E0,2.8158495E0,1.4654518E-3,8.594539E-6,-5.420447E-4,9.763429E1,-2.0507089E-4,1.0943771E-3,-6.5835717E-4,1.6077718E-4,2.559662E-4,-5.498529E-5],"split_indices":[0,0,0,6,0,0,0,0,6,0,2,0,0,0,0,0,7,0,0,0,0,0,0],"split_type":[0,0,0,0,0,0,0,0,0,0,0,0,0,0,0,0,0,0,0,0,0,0,0],"sum_hessian":[1.076E3,1.066E3,1E1,1.06E3,6E0,1E0,9E0,9.17E2,1.43E2,1E0,5E0,3E0,6E0,1E0,1.42E2,2E0,3E0,2E0,1E0,1E0,5E0,2E0,1E0],"tree_param":{"num_deleted":"0","num_feature":"12","num_nodes":"23","size_leaf_vector":"1"}},{"base_weights":[2.7309476E-5,1.114302E-5,1.5929729E-3,2.172403E-6,6.00934E-4,2.1421195E-3,3.2419057E-4,1.0209918E-3,-4.3334565E-4,-5.657124E-5,1.1404753E-3,-4.336119E-4,1.3020338E-4,9.302259E-4,-5.4653484E-4,-5.5961614E-4,3.136754E-4],"categories":[],"categories_nodes":[],"categories_segments":[],"categories_sizes":[],"default_left":[0,0,0,0,0,0,0,0,0,0,0,0,0,0,0,0,0],"id":33,"left_children":[1,3,5,-1,7,-1,9,-1,11,-1,13,-1,-1,-1,15,-1,-1],"loss_changes":[2.7242439E-5,2.4510014E-6,7.510838E-5,0E0,2.1763863E-5,0E0,4.400653E-6,0E0,5.894041E-6,0E0,1.4922702E-5,0E0,0E0,0E0,8.24973E-6,0E0,0E0],"parents":[2147483647,0,0,1,1,2,2,4,4,6,6,8,8,10,10,14,14],"right_children":[2,4,6,-1,8,-1,10,-1,12,-1,14,-1,-1,-1,16,-1,-1],"split_conditions":[1.6538339E0,5.6920165E-1,2.3073266E0,2.172403E-6,1.0092591E0,2.1421195E-3,2.5881904E-1,1.0209918E-3,-7.0710677E-1,-5.657124E-5,2.7974024E0,-4.336119E-4,1.3020338E-4,9.302259E-4,2.8158495E0,-5.5961614E-4,3.136754E-4],"split_indices":[0,0,0,0,0,0,1,0,2,0,0,0,0,0,0,0,0],"split_type":[0,0,0,0,0,0,0,0,0,0,0,0,0,0,0,0,0],"sum_hessian":[1.076E3,1.066E3,1E1,1.06E3,6E0,1E0,9E0,1E0,5E0,6E0,3E0,2E0,3E0,1E0,2E0,1E0,1E0],"tree_param":{"num_deleted":"0","num_feature":"12","num_nodes":"17","size_leaf_vector":"1"}},{"base_weights":[2.2356851E-5,8.475062E-6,1.366858E-3,1.5213262E-6,5.232096E-4,1.8207908E-3,2.8968335E-4,8.6785556E-4,-3.5387278E-4,-4.2024345E-5,9.6935034E-4,1.787305E-4,-2.9329062E-4,7.906795E-4,-4.6459833E-4,-4.7568083E-4,2.6661158E-4],"categories":[],"categories_nodes":[],"categories_segments":[],"categories_sizes":[],"default_left":[0,0,0,0,0,0,0,0,0,0,0,0,0,0,0,0,0],"id":34,"left_children":[1,3,5,-1,7,-1,9,-1,11,-1,13,-1,-1,-1,15,-1,-1],"loss_changes":[2.0089634E-5,1.8668834E-6,5.3960724E-5,0E0,1.5572301E-5,0E0,3.0567548E-6,0E0,4.1365474E-6,0E0,1.078175E-5,0E0,0E0,0E0,5.9603117E-6,0E0,0E0],"parents":[2147483647,0,0,1,1,2,2,4,4,6,6,8,8,10,10,14,14],"right_children":[2,4,6,-1,8,-1,10,-1,12,-1,14,-1,-1,-1,16,-1,-1],"split_conditions":[1.6538339E0,5.6920165E-1,2.3073266E0,1.5213262E-6,1.0092591E0,1.8207908E-3,2.5881904E-1,8.6785556E-4,9.763429E1,-4.2024345E-5,2.7974024E0,1.787305E-4,-2.9329062E-4,7.906795E-4,2.8158495E0,-4.7568083E-4,2.6661158E-4],"split_indices":[0,0,0,0,0,0,1,0,7,0,0,0,0,0,0,0,0],"split_type":[0,0,0,0,0,0,0,0,0,0,0,0,0,0,0,0,0],"sum_hessian":[1.076E3,1.066E3,1E1,1.06E3,6E0,1E0,9E0,1E0,5E0,6E0,3E0,2E0,3E0,1E0,2E0,1E0,1E0],"tree_param":{"num_deleted":"0","num_feature":"12","num_nodes":"17","size_leaf_vector":"1"}},{"base_weights":[1.8542341E-5,1.0653939E-6,9.5306814E-4,4.5615478E-4,3.1199455E-3,7.37679E-4,1.3746154E-4,-1.4369488E-4,1.5476705E-3,-2.980558E-4,5.0135655E-4,-2.5257393E-4,9.609461E-5,6.720901E-4,-2.0132062E-5],"categories":[],"categories_nodes":[],"categories_segments":[],"categories_sizes":[],"default_left":[0,0,0,0,0,0,0,0,0,0,0,0,0,0,0],"id":35,"left_children":[1,-1,3,5,7,-1,9,-1,-1,11,13,-1,-1,-1,-1],"loss_changes":[1.5084849E-5,0E0,1.6881575E-5,9.236055E-6,2.4485194E-5,0E0,2.3681882E-6,0E0,0E0,2.623817E-6,8.058547E-6,0E0,0E0,0E0,0E0],"parents":[2147483647,0,0,2,2,3,3,4,4,6,6,9,9,10,10],"right_children":[2,-1,4,6,8,-1,10,-1,-1,12,14,-1,-1,-1,-1],"split_conditions":[5.6920165E-1,1.0653939E-6,2.848E2,1.0092591E0,1.6538339E0,7.37679E-4,2.458844E0,-1.4369488E-4,1.5476705E-3,-7.0710677E-1,2.7974024E0,-2.5257393E-4,9.609461E-5,6.720901E-4,-2.0132062E-5],"split_indices":[0,0,5,0,0,0,0,0,0,2,0,0,0,0,0],"split_type":[0,0,0,0,0,0,0,0,0,0,0,0,0,0,0],"sum_hessian":[1.076E3,1.06E3,1.6E1,1.4E1,2E0,1E0,1.3E1,1E0,1E0,6E0,7E0,3E0,3E0,1E0,6E0],"tree_param":{"num_deleted":"0","num_feature":"12","num_nodes":"15","size_leaf_vector":"1"}},{"base_weights":[1.5429325E-5,4.9916116E-6,1.0264848E-3,-2.5018471E-6,8.848109E-5,1.3155341E-3,2.521105E-4,1.2479664E-3,3.6348756E-6,7.1756763E-4,-4.988079E-5,4.5809334E-6,-2.5076867E-4,-9.38228E-5,5.712748E-4,-4.0133E-4,1.1631839E-4],"categories":[],"categories_nodes":[],"categories_segments":[],"categories_sizes":[],"default_left":[0,0,0,0,0,0,0,0,0,0,0,0,0,0,0,0,0],"id":36,"left_children":[1,3,5,-1,7,-1,9,-1,11,13,15,-1,-1,-1,-1,-1,-1],"loss_changes":[1.1360572E-5,1.188316E-6,2.7503662E-5,0E0,5.0765066E-5,0E0,1.4414328E-6,0E0,1.4291029E-6,5.4861403E-6,4.46382E-6,0E0,0E0,0E0,0E0,0E0,0E0],"parents":[2147483647,0,0,1,1,2,2,4,4,6,6,8,8,9,9,10,10],"right_children":[2,4,6,-1,8,-1,10,-1,12,14,16,-1,-1,-1,-1,-1,-1],"split_conditions":[1.6538339E0,7.0367645E2,2.3073266E0,-2.5018471E-6,7.06235E2,1.3155341E-3,2.7974024E0,1.2479664E-3,1.1203837E0,2.458844E0,2.8158495E0,4.5809334E-6,-2.5076867E-4,-9.38228E-5,5.712748E-4,-4.0133E-4,1.1631839E-4],"split_indices":[0,6,0,0,6,0,0,0,0,0,0,0,0,0,0,0,0],"split_type":[0,0,0,0,0,0,0,0,0,0,0,0,0,0,0,0,0],"sum_hessian":[1.076E3,1.066E3,1E1,9.2E2,1.46E2,1E0,9E0,2E0,1.44E2,3E0,6E0,1.43E2,1E0,2E0,1E0,1E0,5E0],"tree_param":{"num_deleted":"0","num_feature":"12","num_nodes":"17","size_leaf_vector":"1"}},{"base_weights":[1.3128567E-5,1.3292492E-6,8.556155E-4,1.1181951E-3,1.9571363E-4,6.216663E-4,-7.564698E-5,-7.5058226E-5,4.8558714E-4,-3.4114125E-4,8.72373E-5],"categories":[],"categories_nodes":[],"categories_segments":[],"categories_sizes":[],"default_left":[0,0,0,0,0,0,0,0,0,0,0],"id":37,"left_children":[1,-1,3,-1,5,7,9,-1,-1,-1,-1],"loss_changes":[7.888173E-6,0E0,2.0115964E-5,0E0,1.202895E-6,3.8818007E-6,3.053462E-6,0E0,0E0,0E0,0E0],"parents":[2147483647,0,0,2,2,4,4,5,5,6,6],"right_children":[2,-1,4,-1,6,8,10,-1,-1,-1,-1],"split_conditions":[1.6538339E0,1.3292492E-6,2.3073266E0,1.1181951E-3,2.7974024E0,2.458844E0,2.8158495E0,-7.5058226E-5,4.8558714E-4,-3.4114125E-4,8.72373E-5],"split_indices":[0,0,0,0,0,0,0,0,0,0,0],"split_type":[0,0,0,0,0,0,0,0,0,0,0],"sum_hessian":[1.076E3,1.066E3,1E1,1E0,9E0,3E0,6E0,2E0,1E0,1E0,5E0],"tree_param":{"num_deleted":"0","num_feature":"12","num_nodes":"11","size_leaf_vector":"1"}},{"base_weights":[1.0374366E-5,9.3069764E-7,7.148192E-4,9.504676E-4,4.5796824E-5],"categories":[],"categories_nodes":[],"categories_segments":[],"categories_sizes":[],"default_left":[0,0,0,0,0],"id":38,"left_children":[1,-1,3,-1,-1],"loss_changes":[5.5149862E-6,0E0,1.468771E-5,0E0,0E0],"parents":[2147483647,0,0,2,2],"right_children":[2,-1,4,-1,-1],"split_conditions":[1.6538339E0,9.3069764E-7,2.3073266E0,9.504676E-4,4.5796824E-5],"split_indices":[0,0,0,0,0],"split_type":[0,0,0,0,0],"sum_hessian":[1.076E3,1.066E3,1E1,1E0,9E0],"tree_param":{"num_deleted":"0","num_feature":"12","num_nodes":"5","size_leaf_vector":"1"}},{"base_weights":[8.1877015E-6,1.806459E-7,4.8113352E-4,2.4050626E-4,1.523892E-3,1.0414124E-3,-4.3621858E-5,-1.2212992E-4,8.078814E-4,4.088581E-4,-3.6656857E-5],"categories":[],"categories_nodes":[],"categories_segments":[],"categories_sizes":[],"default_left":[0,0,0,0,0,0,0,0,0,0,0],"id":39,"left_children":[1,-1,3,5,7,9,-1,-1,-1,-1,-1],"loss_changes":[3.8635058E-6,0E0,3.8990697E-6,4.787622E-6,7.868548E-6,2.0367138E-6,0E0,0E0,0E0,0E0,0E0],"parents":[2147483647,0,0,2,2,3,3,4,4,5,5],"right_children":[2,-1,4,6,8,10,-1,-1,-1,-1,-1],"split_conditions":[5.6920165E-1,1.806459E-7,2.848E2,2.0581E2,1.6538339E0,1.3493042E2,-4.3621858E-5,-1.2212992E-4,8.078814E-4,4.088581E-4,-3.6656857E-5],"split_indices":[0,0,5,4,0,7,0,0,0,0,0],"split_type":[0,0,0,0,0,0,0,0,0,0,0],"sum_hessian":[1.076E3,1.06E3,1.6E1,1.4E1,2E0,4E0,1E1,1E0,1E0,3E0,1E0],"tree_param":{"num_deleted":"0","num_feature":"12","num_nodes":"11","size_leaf_vector":"1"}},{"base_weights":[6.672994E-6,4.3703398E-7,5.120391E-4,6.866813E-4,1.0545552E-4,5.361568E-4,-1.557246E-4,-6.0481576E-5,4.1241647E-4,-2.9028655E-4,4.2258576E-5],"categories":[],"categories_nodes":[],"categories_segments":[],"categories_sizes":[],"default_left":[0,0,0,0,0,0,0,0,0,0,0],"id":40,"left_children":[1,-1,3,-1,5,7,9,-1,-1,-1,-1],"loss_changes":[2.8383313E-6,0E0,7.705654E-6,0E0,1.208399E-6,2.751796E-6,1.8218852E-6,0E0,0E0,0E0,0E0],"parents":[2147483647,0,0,2,2,4,4,5,5,6,6],"right_children":[2,-1,4,-1,6,8,10,-1,-1,-1,-1],"split_conditions":[1.6538339E0,4.3703398E-7,2.3073266E0,6.866813E-4,2.7974024E0,2.458844E0,2.8158495E0,-6.0481576E-5,4.1241647E-4,-2.9028655E-4,4.2258576E-5],"split_indices":[0,0,0,0,0,0,0,0,0,0,0],"split_type":[0,0,0,0,0,0,0,0,0,0,0],"sum_hessian":[1.076E3,1.066E3,1E1,1E0,9E0,3E0,6E0,2E0,1E0,1E0,5E0],"tree_param":{"num_deleted":"0","num_feature":"12","num_nodes":"11","size_leaf_vector":"1"}},{"base_weights":[5.40534E-6,3.0593478E-7,4.3031303E-4,5.836845E-4,2.526641E-5],"categories":[],"categories_nodes":[],"categories_segments":[],"categories_sizes":[],"default_left":[0,0,0,0,0],"id":41,"left_children":[1,-1,3,-1,-1],"loss_changes":[2.0065045E-6,0E0,5.604904E-6,0E0,0E0],"parents":[2147483647,0,0,2,2],"right_children":[2,-1,4,-1,-1],"split_conditions":[1.6538339E0,3.0593478E-7,2.3073266E0,5.836845E-4,2.526641E-5],"split_indices":[0,0,0,0,0],"split_type":[0,0,0,0,0],"sum_hessian":[1.076E3,1.066E3,1E1,1E0,9E0],"tree_param":{"num_deleted":"0","num_feature":"12","num_nodes":"5","size_leaf_vector":"1"}},{"base_weights":[4.3496366E-6,-9.62789E-8,2.9559206E-4,5.62508E-4,-1.6607474E-4,1.5752656E-4,1.0169804E-3,-2.5051832E-4,2.5379952E-5,3.7804843E-4,-2.3627281E-4,-5.3438544E-5,5.619288E-4,8.641482E-5,-1.7113388E-4],"categories":[],"categories_nodes":[],"categories_segments":[],"categories_sizes":[],"default_left":[0,0,0,0,0,0,0,0,0,0,0,0,0,0,0],"id":42,"left_children":[1,-1,3,5,7,9,11,-1,-1,-1,13,-1,-1,-1,-1],"loss_changes":[1.4651025E-6,0E0,2.1882643E-6,1.8643802E-6,1.2445311E-6,3.33726E-6,5.4494085E-6,0E0,0E0,0E0,1.215604E-6,0E0,0E0,0E0,0E0],"parents":[2147483647,0,0,2,2,3,3,4,4,5,5,6,6,10,10],"right_children":[2,-1,4,6,8,10,12,-1,-1,-1,14,-1,-1,-1,-1],"split_conditions":[5.6920165E-1,-9.62789E-8,2.7974024E0,1.6538339E0,2.8158495E0,1.0092591E0,2.5881904E-1,-2.5051832E-4,2.5379952E-5,3.7804843E-4,9.763429E1,-5.3438544E-5,5.619288E-4,8.641482E-5,-1.7113388E-4],"split_indices":[0,0,0,0,0,0,1,0,0,0,7,0,0,0,0],"split_type":[0,0,0,0,0,0,0,0,0,0,0,0,0,0,0],"sum_hessian":[1.076E3,1.06E3,1.6E1,1E1,6E0,6E0,4E0,1E0,5E0,1E0,5E0,2E0,2E0,2E0,3E0],"tree_param":{"num_deleted":"0","num_feature":"12","num_nodes":"15","size_leaf_vector":"1"}},{"base_weights":[3.5802348E-6],"categories":[],"categories_nodes":[],"categories_segments":[],"categories_sizes":[],"default_left":[0],"id":43,"left_children":[-1],"loss_changes":[0E0],"parents":[2147483647],"right_children":[-1],"split_conditions":[1.0740705E-6],"split_indices":[0],"split_type":[0],"sum_hessian":[1.076E3],"tree_param":{"num_deleted":"0","num_feature":"12","num_nodes":"1","size_leaf_vector":"1"}},{"base_weights":[2.5060701E-6],"categories":[],"categories_nodes":[],"categories_segments":[],"categories_sizes":[],"default_left":[0],"id":44,"left_children":[-1],"loss_changes":[0E0],"parents":[2147483647],"right_children":[-1],"split_conditions":[7.5182106E-7],"split_indices":[0],"split_type":[0],"sum_hessian":[1.076E3],"tree_param":{"num_deleted":"0","num_feature":"12","num_nodes":"1","size_leaf_vector":"1"}},{"base_weights":[1.7554224E-6],"categories":[],"categories_nodes":[],"categories_segments":[],"categories_sizes":[],"default_left":[0],"id":45,"left_children":[-1],"loss_changes":[0E0],"parents":[2147483647],"right_children":[-1],"split_conditions":[5.2662676E-7],"split_indices":[0],"split_type":[0],"sum_hessian":[1.076E3],"tree_param":{"num_deleted":"0","num_feature":"12","num_nodes":"1","size_leaf_vector":"1"}},{"base_weights":[1.229932E-6],"categories":[],"categories_nodes":[],"categories_segments":[],"categories_sizes":[],"default_left":[0],"id":46,"left_children":[-1],"loss_changes":[0E0],"parents":[2147483647],"right_children":[-1],"split_conditions":[3.689796E-7],"split_indices":[0],"split_type":[0],"sum_hessian":[1.076E3],"tree_param":{"num_deleted":"0","num_feature":"12","num_nodes":"1","size_leaf_vector":"1"}},{"base_weights":[8.6033566E-7],"categories":[],"categories_nodes":[],"categories_segments":[],"categories_sizes":[],"default_left":[0],"id":47,"left_children":[-1],"loss_changes":[0E0],"parents":[2147483647],"right_children":[-1],"split_conditions":[2.581007E-7],"split_indices":[0],"split_type":[0],"sum_hessian":[1.076E3],"tree_param":{"num_deleted":"0","num_feature":"12","num_nodes":"1","size_leaf_vector":"1"}},{"base_weights":[6.0273044E-7],"categories":[],"categories_nodes":[],"categories_segments":[],"categories_sizes":[],"default_left":[0],"id":48,"left_children":[-1],"loss_changes":[0E0],"parents":[2147483647],"right_children":[-1],"split_conditions":[1.8081914E-7],"split_indices":[0],"split_type":[0],"sum_hessian":[1.076E3],"tree_param":{"num_deleted":"0","num_feature":"12","num_nodes":"1","size_leaf_vector":"1"}},{"base_weights":[4.2132996E-7],"categories":[],"categories_nodes":[],"categories_segments":[],"categories_sizes":[],"default_left":[0],"id":49,"left_children":[-1],"loss_changes":[0E0],"parents":[2147483647],"right_children":[-1],"split_conditions":[1.2639899E-7],"split_indices":[0],"split_type":[0],"sum_hessian":[1.076E3],"tree_param":{"num_deleted":"0","num_feature":"12","num_nodes":"1","size_leaf_vector":"1"}},{"base_weights":[2.9403512E-7],"categories":[],"categories_nodes":[],"categories_segments":[],"categories_sizes":[],"default_left":[0],"id":50,"left_children":[-1],"loss_changes":[0E0],"parents":[2147483647],"right_children":[-1],"split_conditions":[8.821054E-8],"split_indices":[0],"split_type":[0],"sum_hessian":[1.076E3],"tree_param":{"num_deleted":"0","num_feature":"12","num_nodes":"1","size_leaf_vector":"1"}},{"base_weights":[2.0661021E-7],"categories":[],"categories_nodes":[],"categories_segments":[],"categories_sizes":[],"default_left":[0],"id":51,"left_children":[-1],"loss_changes":[0E0],"parents":[2147483647],"right_children":[-1],"split_conditions":[6.1983066E-8],"split_indices":[0],"split_type":[0],"sum_hessian":[1.076E3],"tree_param":{"num_deleted":"0","num_feature":"12","num_nodes":"1","size_leaf_vector":"1"}},{"base_weights":[1.4504771E-7],"categories":[],"categories_nodes":[],"categories_segments":[],"categories_sizes":[],"default_left":[0],"id":52,"left_children":[-1],"loss_changes":[0E0],"parents":[2147483647],"right_children":[-1],"split_conditions":[4.3514312E-8],"split_indices":[0],"split_type":[0],"sum_hessian":[1.076E3],"tree_param":{"num_deleted":"0","num_feature":"12","num_nodes":"1","size_leaf_vector":"1"}},{"base_weights":[1.02139204E-7],"categories":[],"categories_nodes":[],"categories_segments":[],"categories_sizes":[],"default_left":[0],"id":53,"left_children":[-1],"loss_changes":[0E0],"parents":[2147483647],"right_children":[-1],"split_conditions":[3.064176E-8],"split_indices":[0],"split_type":[0],"sum_hessian":[1.076E3],"tree_param":{"num_deleted":"0","num_feature":"12","num_nodes":"1","size_leaf_vector":"1"}},{"base_weights":[7.1924006E-8],"categories":[],"categories_nodes":[],"categories_segments":[],"categories_sizes":[],"default_left":[0],"id":54,"left_children":[-1],"loss_changes":[0E0],"parents":[2147483647],"right_children":[-1],"split_conditions":[2.1577202E-8],"split_indices":[0],"split_type":[0],"sum_hessian":[1.076E3],"tree_param":{"num_deleted":"0","num_feature":"12","num_nodes":"1","size_leaf_vector":"1"}},{"base_weights":[5.0646857E-8],"categories":[],"categories_nodes":[],"categories_segments":[],"categories_sizes":[],"default_left":[0],"id":55,"left_children":[-1],"loss_changes":[0E0],"parents":[2147483647],"right_children":[-1],"split_conditions":[1.5194058E-8],"split_indices":[0],"split_type":[0],"sum_hessian":[1.076E3],"tree_param":{"num_deleted":"0","num_feature":"12","num_nodes":"1","size_leaf_vector":"1"}},{"base_weights":[3.566451E-8],"categories":[],"categories_nodes":[],"categories_segments":[],"categories_sizes":[],"default_left":[0],"id":56,"left_children":[-1],"loss_changes":[0E0],"parents":[2147483647],"right_children":[-1],"split_conditions":[1.0699353E-8],"split_indices":[0],"split_type":[0],"sum_hessian":[1.076E3],"tree_param":{"num_deleted":"0","num_feature":"12","num_nodes":"1","size_leaf_vector":"1"}},{"base_weights":[2.5113943E-8],"categories":[],"categories_nodes":[],"categories_segments":[],"categories_sizes":[],"default_left":[0],"id":57,"left_children":[-1],"loss_changes":[0E0],"parents":[2147483647],"right_children":[-1],"split_conditions":[7.534183E-9],"split_indices":[0],"split_type":[0],"sum_hessian":[1.076E3],"tree_param":{"num_deleted":"0","num_feature":"12","num_nodes":"1","size_leaf_vector":"1"}},{"base_weights":[1.7685112E-8],"categories":[],"categories_nodes":[],"categories_segments":[],"categories_sizes":[],"default_left":[0],"id":58,"left_children":[-1],"loss_changes":[0E0],"parents":[2147483647],"right_children":[-1],"split_conditions":[5.305534E-9],"split_indices":[0],"split_type":[0],"sum_hessian":[1.076E3],"tree_param":{"num_deleted":"0","num_feature":"12","num_nodes":"1","size_leaf_vector":"1"}},{"base_weights":[1.2453609E-8],"categories":[],"categories_nodes":[],"categories_segments":[],"categories_sizes":[],"default_left":[0],"id":59,"left_children":[-1],"loss_changes":[0E0],"parents":[2147483647],"right_children":[-1],"split_conditions":[3.736083E-9],"split_indices":[0],"split_type":[0],"sum_hessian":[1.076E3],"tree_param":{"num_deleted":"0","num_feature":"12","num_nodes":"1","size_leaf_vector":"1"}},{"base_weights":[8.769728E-9],"categories":[],"categories_nodes":[],"categories_segments":[],"categories_sizes":[],"default_left":[0],"id":60,"left_children":[-1],"loss_changes":[0E0],"parents":[2147483647],"right_children":[-1],"split_conditions":[2.6309186E-9],"split_indices":[0],"split_type":[0],"sum_hessian":[1.076E3],"tree_param":{"num_deleted":"0","num_feature":"12","num_nodes":"1","size_leaf_vector":"1"}},{"base_weights":[6.175747E-9],"categories":[],"categories_nodes":[],"categories_segments":[],"categories_sizes":[],"default_left":[0],"id":61,"left_children":[-1],"loss_changes":[0E0],"parents":[2147483647],"right_children":[-1],"split_conditions":[1.8527242E-9],"split_indices":[0],"split_type":[0],"sum_hessian":[1.076E3],"tree_param":{"num_deleted":"0","num_feature":"12","num_nodes":"1","size_leaf_vector":"1"}},{"base_weights":[4.348801E-9],"categories":[],"categories_nodes":[],"categories_segments":[],"categories_sizes":[],"default_left":[0],"id":62,"left_children":[-1],"loss_changes":[0E0],"parents":[2147483647],"right_children":[-1],"split_conditions":[1.3046403E-9],"split_indices":[0],"split_type":[0],"sum_hessian":[1.076E3],"tree_param":{"num_deleted":"0","num_feature":"12","num_nodes":"1","size_leaf_vector":"1"}},{"base_weights":[3.0620364E-9],"categories":[],"categories_nodes":[],"categories_segments":[],"categories_sizes":[],"default_left":[0],"id":63,"left_children":[-1],"loss_changes":[0E0],"parents":[2147483647],"right_children":[-1],"split_conditions":[9.1861097E-10],"split_indices":[0],"split_type":[0],"sum_hessian":[1.076E3],"tree_param":{"num_deleted":"0","num_feature":"12","num_nodes":"1","size_leaf_vector":"1"}},{"base_weights":[2.1560411E-9],"categories":[],"categories_nodes":[],"categories_segments":[],"categories_sizes":[],"default_left":[0],"id":64,"left_children":[-1],"loss_changes":[0E0],"parents":[2147483647],"right_children":[-1],"split_conditions":[6.468124E-10],"split_indices":[0],"split_type":[0],"sum_hessian":[1.076E3],"tree_param":{"num_deleted":"0","num_feature":"12","num_nodes":"1","size_leaf_vector":"1"}},{"base_weights":[1.5181164E-9],"categories":[],"categories_nodes":[],"categories_segments":[],"categories_sizes":[],"default_left":[0],"id":65,"left_children":[-1],"loss_changes":[0E0],"parents":[2147483647],"right_children":[-1],"split_conditions":[4.5543494E-10],"split_indices":[0],"split_type":[0],"sum_hessian":[1.076E3],"tree_param":{"num_deleted":"0","num_feature":"12","num_nodes":"1","size_leaf_vector":"1"}},{"base_weights":[1.0686977E-9],"categories":[],"categories_nodes":[],"categories_segments":[],"categories_sizes":[],"default_left":[0],"id":66,"left_children":[-1],"loss_changes":[0E0],"parents":[2147483647],"right_children":[-1],"split_conditions":[3.2060932E-10],"split_indices":[0],"split_type":[0],"sum_hessian":[1.076E3],"tree_param":{"num_deleted":"0","num_feature":"12","num_nodes":"1","size_leaf_vector":"1"}},{"base_weights":[7.5284456E-10],"categories":[],"categories_nodes":[],"categories_segments":[],"categories_sizes":[],"default_left":[0],"id":67,"left_children":[-1],"loss_changes":[0E0],"parents":[2147483647],"right_children":[-1],"split_conditions":[2.2585338E-10],"split_indices":[0],"split_type":[0],"sum_hessian":[1.076E3],"tree_param":{"num_deleted":"0","num_feature":"12","num_nodes":"1","size_leaf_vector":"1"}},{"base_weights":[5.3001165E-10],"categories":[],"categories_nodes":[],"categories_segments":[],"categories_sizes":[],"default_left":[0],"id":68,"left_children":[-1],"loss_changes":[0E0],"parents":[2147483647],"right_children":[-1],"split_conditions":[1.590035E-10],"split_indices":[0],"split_type":[0],"sum_hessian":[1.076E3],"tree_param":{"num_deleted":"0","num_feature":"12","num_nodes":"1","size_leaf_vector":"1"}},{"base_weights":[3.7268508E-10],"categories":[],"categories_nodes":[],"categories_segments":[],"categories_sizes":[],"default_left":[0],"id":69,"left_children":[-1],"loss_changes":[0E0],"parents":[2147483647],"right_children":[-1],"split_conditions":[1.1180553E-10],"split_indices":[0],"split_type":[0],"sum_hessian":[1.076E3],"tree_param":{"num_deleted":"0","num_feature":"12","num_nodes":"1","size_leaf_vector":"1"}},{"base_weights":[2.6271307E-10],"categories":[],"categories_nodes":[],"categories_segments":[],"categories_sizes":[],"default_left":[0],"id":70,"left_children":[-1],"loss_changes":[0E0],"parents":[2147483647],"right_children":[-1],"split_conditions":[7.881393E-11],"split_indices":[0],"split_type":[0],"sum_hessian":[1.076E3],"tree_param":{"num_deleted":"0","num_feature":"12","num_nodes":"1","size_leaf_vector":"1"}},{"base_weights":[1.8513242E-10],"categories":[],"categories_nodes":[],"categories_segments":[],"categories_sizes":[],"default_left":[0],"id":71,"left_children":[-1],"loss_changes":[0E0],"parents":[2147483647],"right_children":[-1],"split_conditions":[5.553973E-11],"split_indices":[0],"split_type":[0],"sum_hessian":[1.076E3],"tree_param":{"num_deleted":"0","num_feature":"12","num_nodes":"1","size_leaf_vector":"1"}},{"base_weights":[1.3051375E-10],"categories":[],"categories_nodes":[],"categories_segments":[],"categories_sizes":[],"default_left":[0],"id":72,"left_children":[-1],"loss_changes":[0E0],"parents":[2147483647],"right_children":[-1],"split_conditions":[3.9154128E-11],"split_indices":[0],"split_type":[0],"sum_hessian":[1.076E3],"tree_param":{"num_deleted":"0","num_feature":"12","num_nodes":"1","size_leaf_vector":"1"}},{"base_weights":[9.2085284E-11],"categories":[],"categories_nodes":[],"categories_segments":[],"categories_sizes":[],"default_left":[0],"id":73,"left_children":[-1],"loss_changes":[0E0],"parents":[2147483647],"right_children":[-1],"split_conditions":[2.7625586E-11],"split_indices":[0],"split_type":[0],"sum_hessian":[1.076E3],"tree_param":{"num_deleted":"0","num_feature":"12","num_nodes":"1","size_leaf_vector":"1"}},{"base_weights":[6.459861E-11],"categories":[],"categories_nodes":[],"categories_segments":[],"categories_sizes":[],"default_left":[0],"id":74,"left_children":[-1],"loss_changes":[0E0],"parents":[2147483647],"right_children":[-1],"split_conditions":[1.9379585E-11],"split_indices":[0],"split_type":[0],"sum_hessian":[1.076E3],"tree_param":{"num_deleted":"0","num_feature":"12","num_nodes":"1","size_leaf_vector":"1"}},{"base_weights":[4.5433355E-11],"categories":[],"categories_nodes":[],"categories_segments":[],"categories_sizes":[],"default_left":[0],"id":75,"left_children":[-1],"loss_changes":[0E0],"parents":[2147483647],"right_children":[-1],"split_conditions":[1.3630007E-11],"split_indices":[0],"split_type":[0],"sum_hessian":[1.076E3],"tree_param":{"num_deleted":"0","num_feature":"12","num_nodes":"1","size_leaf_vector":"1"}},{"base_weights":[3.1896496E-11],"categories":[],"categories_nodes":[],"categories_segments":[],"categories_sizes":[],"default_left":[0],"id":76,"left_children":[-1],"loss_changes":[0E0],"parents":[2147483647],"right_children":[-1],"split_conditions":[9.568949E-12],"split_indices":[0],"split_type":[0],"sum_hessian":[1.076E3],"tree_param":{"num_deleted":"0","num_feature":"12","num_nodes":"1","size_leaf_vector":"1"}},{"base_weights":[2.2498382E-11],"categories":[],"categories_nodes":[],"categories_segments":[],"categories_sizes":[],"default_left":[0],"id":77,"left_children":[-1],"loss_changes":[0E0],"parents":[2147483647],"right_children":[-1],"split_conditions":[6.7495146E-12],"split_indices":[0],"split_type":[0],"sum_hessian":[1.076E3],"tree_param":{"num_deleted":"0","num_feature":"12","num_nodes":"1","size_leaf_vector":"1"}},{"base_weights":[1.5743464E-11],"categories":[],"categories_nodes":[],"categories_segments":[],"categories_sizes":[],"default_left":[0],"id":78,"left_children":[-1],"loss_changes":[0E0],"parents":[2147483647],"right_children":[-1],"split_conditions":[4.7230392E-12],"split_indices":[0],"split_type":[0],"sum_hessian":[1.076E3],"tree_param":{"num_deleted":"0","num_feature":"12","num_nodes":"1","size_leaf_vector":"1"}},{"base_weights":[1.1245813E-11],"categories":[],"categories_nodes":[],"categories_segments":[],"categories_sizes":[],"default_left":[0],"id":79,"left_children":[-1],"loss_changes":[0E0],"parents":[2147483647],"right_children":[-1],"split_conditions":[3.3737442E-12],"split_indices":[0],"split_type":[0],"sum_hessian":[1.076E3],"tree_param":{"num_deleted":"0","num_feature":"12","num_nodes":"1","size_leaf_vector":"1"}},{"base_weights":[8.2707435E-12],"categories":[],"categories_nodes":[],"categories_segments":[],"categories_sizes":[],"default_left":[0],"id":80,"left_children":[-1],"loss_changes":[0E0],"parents":[2147483647],"right_children":[-1],"split_conditions":[2.4812231E-12],"split_indices":[0],"split_type":[0],"sum_hessian":[1.076E3],"tree_param":{"num_deleted":"0","num_feature":"12","num_nodes":"1","size_leaf_vector":"1"}},{"base_weights":[6.0134744E-12],"categories":[],"categories_nodes":[],"categories_segments":[],"categories_sizes":[],"default_left":[0],"id":81,"left_children":[-1],"loss_changes":[0E0],"parents":[2147483647],"right_children":[-1],"split_conditions":[1.8040424E-12],"split_indices":[0],"split_type":[0],"sum_hessian":[1.076E3],"tree_param":{"num_deleted":"0","num_feature":"12","num_nodes":"1","size_leaf_vector":"1"}},{"base_weights":[4.5778745E-12],"categories":[],"categories_nodes":[],"categories_segments":[],"categories_sizes":[],"default_left":[0],"id":82,"left_children":[-1],"loss_changes":[0E0],"parents":[2147483647],"right_children":[-1],"split_conditions":[1.3733625E-12],"split_indices":[0],"split_type":[0],"sum_hessian":[1.076E3],"tree_param":{"num_deleted":"0","num_feature":"12","num_nodes":"1","size_leaf_vector":"1"}},{"base_weights":[3.5011746E-12],"categories":[],"categories_nodes":[],"categories_segments":[],"categories_sizes":[],"default_left":[0],"id":83,"left_children":[-1],"loss_changes":[0E0],"parents":[2147483647],"right_children":[-1],"split_conditions":[1.0503524E-12],"split_indices":[0],"split_type":[0],"sum_hessian":[1.076E3],"tree_param":{"num_deleted":"0","num_feature":"12","num_nodes":"1","size_leaf_vector":"1"}},{"base_weights":[2.7833747E-12],"categories":[],"categories_nodes":[],"categories_segments":[],"categories_sizes":[],"default_left":[0],"id":84,"left_children":[-1],"loss_changes":[0E0],"parents":[2147483647],"right_children":[-1],"split_conditions":[8.3501245E-13],"split_indices":[0],"split_type":[0],"sum_hessian":[1.076E3],"tree_param":{"num_deleted":"0","num_feature":"12","num_nodes":"1","size_leaf_vector":"1"}},{"base_weights":[2.0655747E-12],"categories":[],"categories_nodes":[],"categories_segments":[],"categories_sizes":[],"default_left":[0],"id":85,"left_children":[-1],"loss_changes":[0E0],"parents":[2147483647],"right_children":[-1],"split_conditions":[6.1967244E-13],"split_indices":[0],"split_type":[0],"sum_hessian":[1.076E3],"tree_param":{"num_deleted":"0","num_feature":"12","num_nodes":"1","size_leaf_vector":"1"}},{"base_weights":[1.7066748E-12],"categories":[],"categories_nodes":[],"categories_segments":[],"categories_sizes":[],"default_left":[0],"id":86,"left_children":[-1],"loss_changes":[0E0],"parents":[2147483647],"right_children":[-1],"split_conditions":[5.120025E-13],"split_indices":[0],"split_type":[0],"sum_hessian":[1.076E3],"tree_param":{"num_deleted":"0","num_feature":"12","num_nodes":"1","size_leaf_vector":"1"}},{"base_weights":[1.3477749E-12],"categories":[],"categories_nodes":[],"categories_segments":[],"categories_sizes":[],"default_left":[0],"id":87,"left_children":[-1],"loss_changes":[0E0],"parents":[2147483647],"right_children":[-1],"split_conditions":[4.0433246E-13],"split_indices":[0],"split_type":[0],"sum_hessian":[1.076E3],"tree_param":{"num_deleted":"0","num_feature":"12","num_nodes":"1","size_leaf_vector":"1"}},{"base_weights":[9.888749E-13],"categories":[],"categories_nodes":[],"categories_segments":[],"categories_sizes":[],"default_left":[0],"id":88,"left_children":[-1],"loss_changes":[0E0],"parents":[2147483647],"right_children":[-1],"split_conditions":[2.966625E-13],"split_indices":[0],"split_type":[0],"sum_hessian":[1.076E3],"tree_param":{"num_deleted":"0","num_feature":"12","num_nodes":"1","size_leaf_vector":"1"}}]},"name":"gbtree"},"learner_model_param":{"base_score":"3.152995E-2","boost_from_average":"1","num_class":"0","num_feature":"12","num_target":"1"},"objective":{"name":"reg:squarederror","reg_loss_param":{"scale_pos_weight":"1"}}},"version":[2,0,0]}