{"learner":{"attributes":{"scikit_learn":"{\"_estimator_type\": \"regressor\"}"},"feature_names":["solar_generation","cyc_hour1","cyc_hour2","exp_solar","direct_solar","diffuse_solar","direct_solar_6h","diffuse_solar_6h","direct_solar_12h","diffuse_solar_12h","direct_solar_24h","diffuse_solar_24h"],"feature_types":["float","float","float","float","float","float","float","float","float","float","float","float"],"gradient_booster":{"model":{"gbtree_model_param":{"num_parallel_tree":"1","num_trees":"89"},"iteration_indptr":[0,1,2,3,4,5,6,7,8,9,10,11,12,13,14,15,16,17,18,19,20,21,22,23,24,25,26,27,28,29,30,31,32,33,34,35,36,37,38,39,40,41,42,43,44,45,46,47,48,49,50,51,52,53,54,55,56,57,58,59,60,61,62,63,64,65,66,67,68,69,70,71,72,73,74,75,76,77,78,79,80,81,82,83,84,85,86,87,88,89],"tree_info":[0,0,0,0,0,0,0,0,0,0,0,0,0,0,0,0,0,0,0,0,0,0,0,0,0,0,0,0,0,0,0,0,0,0,0,0,0,0,0,0,0,0,0,0,0,0,0,0,0,0,0,0,0,0,0,0,0,0,0,0,0,0,0,0,0,0,0,0,0,0,0,0,0,0,0,0,0,0,0,0,0,0,0,0,0,0,0,0,0],"trees":[{"base_weights":[6.9025397E-10,-1.9299714E-2,1.01806E0,-2.2838838E-2,1.3368681E-1,7.073929E-2,2.4301984E0,-7.975178E-3,5.801419E-2,7.4281806E-1,-7.584103E-3,-7.2575146E-3,3.952399E-1,7.9109746E-1,1.4739724E-1,-7.8058606E-3,5.759298E-1,3.7673122E-1,-5.3221774E-3,-3.991633E-3,1.818496E-1],"categories":[],"categories_nodes":[],"categories_segments":[],"categories_sizes":[],"default_left":[0,0,0,0,0,0,0,0,0,0,0,0,0,0,0,0,0,0,0,0,0],"id":0,"left_children":[1,3,5,7,9,11,13,-1,15,17,-1,-1,19,-1,-1,-1,-1,-1,-1,-1,-1],"loss_changes":[2.1121887E1,5.742707E-1,2.6583048E1,3.140335E-1,2.3427432E0,4.1002876E-1,1.9119453E0,0E0,7.2466483E0,1.9729307E0,0E0,0E0,2.66583E-1,0E0,0E0,0E0,0E0,0E0,0E0,0E0,0E0],"parents":[2147483647,0,0,1,1,2,2,3,3,4,4,5,5,6,6,8,8,9,9,12,12],"right_children":[2,4,6,8,10,12,14,-1,16,18,-1,-1,20,-1,-1,-1,-1,-1,-1,-1,-1],"split_conditions":[6.040274E-2,9.117501E2,7.0710677E-1,8.5433185E2,9.185963E2,-7.0710677E-1,7.0710677E-1,-7.975178E-3,1.9685556E2,2.2371386E-3,-7.584103E-3,-7.2575146E-3,1.0092591E0,7.9109746E-1,1.4739724E-1,-7.8058606E-3,5.759298E-1,3.7673122E-1,-5.3221774E-3,-3.991633E-3,1.818496E-1],"split_indices":[0,6,1,8,6,2,2,0,7,3,0,0,0,0,0,0,0,0,0,0,0],"split_type":[0,0,0,0,0,0,0,0,0,0,0,0,0,0,0,0,0,0,0,0,0],"sum_hessian":[1.073E3,1.054E3,1.9E1,1.031E3,2.3E1,1.2E1,7E0,9.86E2,4.5E1,4E0,1.9E1,1E1,2E0,6E0,1E0,4.4E1,1E0,2E0,2E0,1E0,1E0],"tree_param":{"num_deleted":"0","num_feature":"12","num_nodes":"21","size_leaf_vector":"1"}},{"base_weights":[1.8929876E-3,-1.2633995E-2,7.680967E-1,-1.5444407E-2,1.0874013E-1,6.2640615E-2,1.8184507E0,-5.5850483E-3,5.296045E-2,5.942544E-1,-5.422634E-3,-5.2781925E-3,3.3595392E-1,5.8767235E-1,1.2528765E-1,-5.516141E-3,4.895403E-1,3.0138496E-1,-4.2577423E-3,-3.392888E-3,1.5457216E-1],"categories":[],"categories_nodes":[],"categories_segments":[],"categories_sizes":[],"default_left":[0,0,0,0,0,0,0,0,0,0,0,0,0,0,0,0,0,0,0,0,0],"id":1,"left_children":[1,3,5,7,9,11,13,-1,15,17,-1,-1,19,-1,-1,-1,-1,-1,-1,-1,-1],"loss_changes":[1.1963999E1,3.6155182E-1,1.4705663E1,2.2493921E-1,1.4884399E0,2.9099008E-1,7.5595665E-1,0E0,5.211742E0,1.2626756E0,0E0,0E0,1.926063E-1,0E0,0E0,0E0,0E0,0E0,0E0,0E0,0E0],"parents":[2147483647,0,0,1,1,2,2,3,3,4,4,5,5,6,6,8,8,9,9,12,12],"right_children":[2,4,6,8,10,12,14,-1,16,18,-1,-1,20,-1,-1,-1,-1,-1,-1,-1,-1],"split_conditions":[6.040274E-2,9.117501E2,7.0710677E-1,8.5433185E2,9.185963E2,-7.0710677E-1,7.0710677E-1,-5.5850483E-3,1.9685556E2,2.2371386E-3,-5.422634E-3,-5.2781925E-3,1.0092591E0,5.8767235E-1,1.2528765E-1,-5.516141E-3,4.895403E-1,3.0138496E-1,-4.2577423E-3,-3.392888E-3,1.5457216E-1],"split_indices":[0,6,1,8,6,2,2,0,7,3,0,0,0,0,0,0,0,0,0,0,0],"split_type":[0,0,0,0,0,0,0,0,0,0,0,0,0,0,0,0,0,0,0,0,0],"sum_hessian":[1.073E3,1.054E3,1.9E1,1.031E3,2.3E1,1.2E1,7E0,9.86E2,4.5E1,4E0,1.9E1,1E1,2E0,6E0,1E0,4.4E1,1E0,2E0,2E0,1E0,1E0],"tree_param":{"num_deleted":"0","num_feature":"12","num_nodes":"21","size_leaf_vector":"1"}},{"base_weights":[2.8418554E-3,-8.113802E-3,5.8061075E-1,-1.0347481E-2,8.8272445E-2,5.507159E-2,1.3620355E0,-3.9112316E-3,4.759458E-2,4.7540352E-1,-3.877183E-3,-3.838685E-3,2.8556082E-1,1.6654542E-1,4.615415E-1,-3.8980732E-3,4.1610926E-1,2.4110796E-1,-3.4061936E-3,-2.883955E-3,1.3138632E-1],"categories":[],"categories_nodes":[],"categories_segments":[],"categories_sizes":[],"default_left":[0,0,0,0,0,0,0,0,0,0,0,0,0,0,0,0,0,0,0,0,0],"id":2,"left_children":[1,3,5,7,9,11,13,-1,15,17,-1,-1,19,-1,-1,-1,-1,-1,-1,-1,-1],"loss_changes":[6.802957E0,2.2805057E-1,8.138377E0,1.6146973E-1,9.4637454E-1,2.0700848E-1,2.8482246E-1,0E0,3.7511053E0,8.0811226E-1,0E0,0E0,1.3915801E-1,0E0,0E0,0E0,0E0,0E0,0E0,0E0,0E0],"parents":[2147483647,0,0,1,1,2,2,3,3,4,4,5,5,6,6,8,8,9,9,12,12],"right_children":[2,4,6,8,10,12,14,-1,16,18,-1,-1,20,-1,-1,-1,-1,-1,-1,-1,-1],"split_conditions":[6.040274E-2,9.117501E2,7.0710677E-1,8.5433185E2,9.185963E2,-7.0710677E-1,5.579055E-1,-3.9112316E-3,1.9685556E2,2.2371386E-3,-3.877183E-3,-3.838685E-3,1.0092591E0,1.6654542E-1,4.615415E-1,-3.8980732E-3,4.1610926E-1,2.4110796E-1,-3.4061936E-3,-2.883955E-3,1.3138632E-1],"split_indices":[0,6,1,8,6,2,0,0,7,3,0,0,0,0,0,0,0,0,0,0,0],"split_type":[0,0,0,0,0,0,0,0,0,0,0,0,0,0,0,0,0,0,0,0,0],"sum_hessian":[1.073E3,1.054E3,1.9E1,1.031E3,2.3E1,1.2E1,7E0,9.86E2,4.5E1,4E0,1.9E1,1E1,2E0,2E0,5E0,4.4E1,1E0,2E0,2E0,1E0,1E0],"tree_param":{"num_deleted":"0","num_feature":"12","num_nodes":"21","size_leaf_vector":"1"}},{"base_weights":[3.288065E-3,-5.071013E-3,4.4406503E-1,-6.847597E-3,7.1533404E-2,4.8139624E-2,1.0319357E0,-2.7390507E-3,4.2277317E-2,3.803228E-1,-2.7721857E-3,-2.791771E-3,2.4272668E-1,3.3051717E-1,8.151269E-2,-2.7546382E-3,3.5369286E-1,1.9288637E-1,-2.7249549E-3,-2.4513614E-3,1.1167837E-1],"categories":[],"categories_nodes":[],"categories_segments":[],"categories_sizes":[],"default_left":[0,0,0,0,0,0,0,0,0,0,0,0,0,0,0,0,0,0,0,0,0],"id":3,"left_children":[1,3,5,7,9,11,13,-1,15,17,-1,-1,19,-1,-1,-1,-1,-1,-1,-1,-1],"loss_changes":[3.9593928E0,1.4406922E-1,4.6053815E0,1.16105355E-1,6.021263E-1,1.4757484E-1,1.250906E-1,0E0,2.7015445E0,5.1719195E-1,0E0,0E0,1.0054164E-1,0E0,0E0,0E0,0E0,0E0,0E0,0E0,0E0],"parents":[2147483647,0,0,1,1,2,2,3,3,4,4,5,5,6,6,8,8,9,9,12,12],"right_children":[2,4,6,8,10,12,14,-1,16,18,-1,-1,20,-1,-1,-1,-1,-1,-1,-1,-1],"split_conditions":[6.040274E-2,9.117501E2,7.0710677E-1,8.5433185E2,9.185963E2,-7.0710677E-1,7.0710677E-1,-2.7390507E-3,1.9685556E2,2.2371386E-3,-2.7721857E-3,-2.791771E-3,1.0092591E0,3.3051717E-1,8.151269E-2,-2.7546382E-3,3.5369286E-1,1.9288637E-1,-2.7249549E-3,-2.4513614E-3,1.1167837E-1],"split_indices":[0,6,1,8,6,2,2,0,7,3,0,0,0,0,0,0,0,0,0,0,0],"split_type":[0,0,0,0,0,0,0,0,0,0,0,0,0,0,0,0,0,0,0,0,0],"sum_hessian":[1.073E3,1.054E3,1.9E1,1.031E3,2.3E1,1.2E1,7E0,9.86E2,4.5E1,4E0,1.9E1,1E1,2E0,6E0,1E0,4.4E1,1E0,2E0,2E0,1E0,1E0],"tree_param":{"num_deleted":"0","num_feature":"12","num_nodes":"21","size_leaf_vector":"1"}},{"base_weights":[3.2830734E-3,-3.0420425E-3,3.3676878E-1,-4.455916E-3,5.788127E-2,4.1885063E-2,7.738587E-1,-1.9181682E-3,3.7223216E-2,3.0425826E-1,-1.9821129E-3,-2.030379E-3,2.0631768E-1,1.15405776E-1,2.7912757E-1,-1.9466112E-3,3.0063894E-1,1.543091E-1,-2.179964E-3,-2.0836573E-3,9.492662E-2],"categories":[],"categories_nodes":[],"categories_segments":[],"categories_sizes":[],"default_left":[0,0,0,0,0,0,0,0,0,0,0,0,0,0,0,0,0,0,0,0,0],"id":4,"left_children":[1,3,5,7,9,11,13,-1,15,17,-1,-1,19,-1,-1,-1,-1,-1,-1,-1,-1],"loss_changes":[2.2664511E0,9.113335E-2,2.5454006E0,8.359598E-2,3.833327E-1,1.0539815E-1,1.2952995E-1,0E0,1.9466869E0,3.3100292E-1,0E0,0E0,7.264136E-2,0E0,0E0,0E0,0E0,0E0,0E0,0E0,0E0],"parents":[2147483647,0,0,1,1,2,2,3,3,4,4,5,5,6,6,8,8,9,9,12,12],"right_children":[2,4,6,8,10,12,14,-1,16,18,-1,-1,20,-1,-1,-1,-1,-1,-1,-1,-1],"split_conditions":[6.040274E-2,9.117501E2,7.0710677E-1,8.5433185E2,9.185963E2,-7.0710677E-1,1.1203837E0,-1.9181682E-3,1.9685556E2,2.2371386E-3,-1.9821129E-3,-2.030379E-3,1.0092591E0,1.15405776E-1,2.7912757E-1,-1.9466112E-3,3.0063894E-1,1.543091E-1,-2.179964E-3,-2.0836573E-3,9.492662E-2],"split_indices":[0,6,1,8,6,2,0,0,7,3,0,0,0,0,0,0,0,0,0,0,0],"split_type":[0,0,0,0,0,0,0,0,0,0,0,0,0,0,0,0,0,0,0,0,0],"sum_hessian":[1.073E3,1.054E3,1.9E1,1.031E3,2.3E1,1.2E1,7E0,9.86E2,4.5E1,4E0,1.9E1,1E1,2E0,3E0,4E0,4.4E1,1E0,2E0,2E0,1E0,1E0],"tree_param":{"num_deleted":"0","num_feature":"12","num_nodes":"21","size_leaf_vector":"1"}},{"base_weights":[3.1661838E-3,-1.7058079E-3,2.6000544E-1,-2.8315694E-3,4.677301E-2,3.630513E-2,5.910177E-1,-1.3433008E-3,3.2549556E-2,2.4340658E-1,-1.4172107E-3,-1.4766393E-3,1.7537004E-1,6.895221E-2,2.0193101E-1,-1.3756051E-3,2.5554308E-1,1.5214442E-1,5.0684217E-2,-1.7711086E-3,8.068763E-2,-1.7439713E-3,3.3026487E-2],"categories":[],"categories_nodes":[],"categories_segments":[],"categories_sizes":[],"default_left":[0,0,0,0,0,0,0,0,0,0,0,0,0,0,0,0,0,0,0,0,0,0,0],"id":5,"left_children":[1,3,5,7,9,11,13,-1,15,17,-1,-1,19,-1,-1,-1,-1,-1,21,-1,-1,-1,-1],"loss_changes":[1.3443599E0,5.7709683E-2,1.4594944E0,6.0250312E-2,2.44175E-1,7.539563E-2,8.24728E-2,0E0,1.4033717E0,2.2843993E-1,0E0,0E0,5.2483372E-2,0E0,0E0,0E0,0E0,0E0,1.40646845E-2,0E0,0E0,0E0,0E0],"parents":[2147483647,0,0,1,1,2,2,3,3,4,4,5,5,6,6,8,8,9,9,12,12,18,18],"right_children":[2,4,6,8,10,12,14,-1,16,18,-1,-1,20,-1,-1,-1,-1,-1,22,-1,-1,-1,-1],"split_conditions":[6.040274E-2,9.117501E2,7.0710677E-1,8.5433185E2,9.185963E2,-7.0710677E-1,5.579055E-1,-1.3433008E-3,1.9685556E2,9.659258E-1,-1.4172107E-3,-1.4766393E-3,1.0092591E0,6.895221E-2,2.0193101E-1,-1.3756051E-3,2.5554308E-1,1.5214442E-1,1E0,-1.7711086E-3,8.068763E-2,-1.7439713E-3,3.3026487E-2],"split_indices":[0,6,1,8,6,2,0,0,7,1,0,0,0,0,0,0,0,0,1,0,0,0,0],"split_type":[0,0,0,0,0,0,0,0,0,0,0,0,0,0,0,0,0,0,0,0,0,0,0],"sum_hessian":[1.073E3,1.054E3,1.9E1,1.031E3,2.3E1,1.2E1,7E0,9.86E2,4.5E1,4E0,1.9E1,1E1,2E0,2E0,5E0,4.4E1,1E0,1E0,3E0,1E0,1E0,2E0,1E0],"tree_param":{"num_deleted":"0","num_feature":"12","num_nodes":"23","size_leaf_vector":"1"}},{"base_weights":[2.945525E-3,-7.8190054E-4,1.9941995E-1,-1.7371137E-3,4.0324844E-2,-1.0739194E-3,4.027776E-1,-9.4071875E-4,2.8310072E-2,2.0707E-1,-1.0133056E-3,1.6853091E-1,1.5925607E-1,-9.720944E-4,2.1721162E-1,1.2932275E-1,4.329959E-2,-1.5054424E-3,6.395181E-2,-1.3951769E-3,2.807252E-2],"categories":[],"categories_nodes":[],"categories_segments":[],"categories_sizes":[],"default_left":[0,0,0,0,0,0,0,0,0,0,0,0,0,0,0,0,0,0,0,0,0],"id":6,"left_children":[1,3,5,7,9,-1,11,-1,13,15,-1,17,-1,-1,-1,-1,19,-1,-1,-1,-1],"loss_changes":[7.8669316E-1,4.1495368E-2,8.2707256E-1,4.345801E-2,1.7559187E-1,0E0,2.1054852E-1,0E0,1.0120695E0,1.6476223E-1,0E0,3.980744E-2,0E0,0E0,0E0,0E0,1.007805E-2,0E0,0E0,0E0,0E0],"parents":[2147483647,0,0,1,1,2,2,3,3,4,4,6,6,8,8,9,9,11,11,16,16],"right_children":[2,4,6,8,10,-1,12,-1,14,16,-1,18,-1,-1,-1,-1,20,-1,-1,-1,-1],"split_conditions":[6.040274E-2,9.117501E2,-7.0710677E-1,8.5433185E2,9.185963E2,-1.0739194E-3,1.1203837E0,-9.4071875E-4,1.9685556E2,9.659258E-1,-1.0133056E-3,5E-1,1.5925607E-1,-9.720944E-4,2.1721162E-1,1.2932275E-1,1E0,-1.5054424E-3,6.395181E-2,-1.3951769E-3,2.807252E-2],"split_indices":[0,6,2,8,6,0,0,0,7,1,0,1,0,0,0,0,1,0,0,0,0],"split_type":[0,0,0,0,0,0,0,0,0,0,0,0,0,0,0,0,0,0,0,0,0],"sum_hessian":[1.073E3,1.054E3,1.9E1,1.031E3,2.3E1,1E1,9E0,9.86E2,4.5E1,4E0,1.9E1,4E0,5E0,4.4E1,1E0,1E0,3E0,1E0,3E0,2E0,1E0],"tree_param":{"num_deleted":"0","num_feature":"12","num_nodes":"21","size_leaf_vector":"1"}},{"base_weights":[2.6120674E-3,-1.9634889E-4,1.5062542E-1,-1.0073568E-3,3.4685176E-2,2.0061929E-2,3.439629E-1,-6.5878907E-4,2.4517907E-2,1.7614901E-1,-7.245135E-4,-7.8103226E-4,9.648097E-2,4.956267E-2,4.1817355E-1,-6.869467E-4,1.8462986E-1,1.0992433E-1,3.6979057E-2,-1.279626E-3,4.4696063E-2,1.6300423E-1,1.5360849E-1,-1.1161416E-3,2.3861649E-2,-3.166745E-2,1.0079127E-1],"categories":[],"categories_nodes":[],"categories_segments":[],"categories_sizes":[],"default_left":[0,0,0,0,0,0,0,0,0,0,0,0,0,0,0,0,0,0,0,0,0,0,0,0,0,0,0],"id":7,"left_children":[1,3,5,7,9,11,13,-1,15,17,-1,-1,19,-1,21,-1,-1,-1,23,-1,-1,-1,25,-1,-1,-1,-1],"loss_changes":[4.464732E-1,2.988004E-2,4.9795586E-1,3.1364206E-2,1.2638555E-1,2.2768036E-2,3.703761E-2,0E0,7.3009926E-1,1.1884649E-1,0E0,0E0,1.6504837E-2,0E0,8.212042E-2,0E0,0E0,0E0,7.224572E-3,0E0,0E0,0E0,1.7725122E-1,0E0,0E0,0E0,0E0],"parents":[2147483647,0,0,1,1,2,2,3,3,4,4,5,5,6,6,8,8,9,9,12,12,14,14,18,18,22,22],"right_children":[2,4,6,8,10,12,14,-1,16,18,-1,-1,20,-1,22,-1,-1,-1,24,-1,-1,-1,26,-1,-1,-1,-1],"split_conditions":[6.040274E-2,9.117501E2,7.0710677E-1,8.5433185E2,9.185963E2,-7.0710677E-1,1.1203837E0,-6.5878907E-4,1.9685556E2,9.659258E-1,-7.245135E-4,-7.8103226E-4,1.0092591E0,4.956267E-2,2.4549305E0,-6.869467E-4,1.8462986E-1,1.0992433E-1,1E0,-1.279626E-3,4.4696063E-2,1.6300423E-1,4.0250163E0,-1.1161416E-3,2.3861649E-2,-3.166745E-2,1.0079127E-1],"split_indices":[0,6,1,8,6,2,0,0,7,1,0,0,0,0,0,0,0,0,1,0,0,0,0,0,0,0,0],"split_type":[0,0,0,0,0,0,0,0,0,0,0,0,0,0,0,0,0,0,0,0,0,0,0,0,0,0,0],"sum_hessian":[1.073E3,1.054E3,1.9E1,1.031E3,2.3E1,1.2E1,7E0,9.86E2,4.5E1,4E0,1.9E1,1E1,2E0,3E0,4E0,4.4E1,1E0,1E0,3E0,1E0,1E0,2E0,2E0,2E0,1E0,1E0,1E0],"tree_param":{"num_deleted":"0","num_feature":"12","num_nodes":"27","size_leaf_vector":"1"}},{"base_weights":[2.4239365E-3,1.6135143E-4,1.2165411E-1,-5.2754895E-4,2.9777344E-2,1.7322995E-2,2.759854E-1,-4.6135258E-4,2.1161292E-2,1.4983828E-1,-5.180271E-4,-5.680234E-4,8.200882E-2,1.7051153E-1,3.94938E-1,-4.8544226E-4,1.5693538E-1,9.343568E-2,3.1571716E-2,-1.0876822E-3,3.799165E-2,9.038373E-2,8.567259E-2,2.4083378E-2,1.5363872E-1,-8.929132E-4,2.02824E-2,4.7352564E-2,-2.6917327E-2],"categories":[],"categories_nodes":[],"categories_segments":[],"categories_sizes":[],"default_left":[0,0,0,0,0,0,0,0,0,0,0,0,0,0,0,0,0,0,0,0,0,0,0,0,0,0,0,0,0],"id":8,"left_children":[1,3,5,7,9,11,13,-1,15,17,-1,-1,19,21,23,-1,-1,-1,25,-1,-1,27,-1,-1,-1,-1,-1,-1,-1],"loss_changes":[2.8971165E-1,2.1540314E-2,3.1725022E-1,2.2645812E-2,9.1036625E-2,1.6314656E-2,3.3029616E-2,0E0,5.268237E-1,8.573456E-2,0E0,0E0,1.1924738E-2,2.9507473E-2,6.951338E-2,0E0,0E0,0E0,5.181166E-3,0E0,0E0,7.491108E-2,0E0,0E0,0E0,0E0,0E0,0E0,0E0],"parents":[2147483647,0,0,1,1,2,2,3,3,4,4,5,5,6,6,8,8,9,9,12,12,13,13,14,14,18,18,21,21],"right_children":[2,4,6,8,10,12,14,-1,16,18,-1,-1,20,22,24,-1,-1,-1,26,-1,-1,28,-1,-1,-1,-1,-1,-1,-1],"split_conditions":[6.040274E-2,9.117501E2,7.0710677E-1,8.5433185E2,9.185963E2,-7.0710677E-1,8.307743E1,-4.6135258E-4,1.9685556E2,9.659258E-1,-5.180271E-4,-5.680234E-4,1.0092591E0,4.0250163E0,1.1927145E-1,-4.8544226E-4,1.5693538E-1,9.343568E-2,1E0,-1.0876822E-3,3.799165E-2,2.4549305E0,8.567259E-2,2.4083378E-2,1.5363872E-1,-8.929132E-4,2.02824E-2,4.7352564E-2,-2.6917327E-2],"split_indices":[0,6,1,8,6,2,9,0,7,1,0,0,0,0,0,0,0,0,1,0,0,0,0,0,0,0,0,0,0],"split_type":[0,0,0,0,0,0,0,0,0,0,0,0,0,0,0,0,0,0,0,0,0,0,0,0,0,0,0,0,0],"sum_hessian":[1.073E3,1.054E3,1.9E1,1.031E3,2.3E1,1.2E1,7E0,9.86E2,4.5E1,4E0,1.9E1,1E1,2E0,5E0,2E0,4.4E1,1E0,1E0,3E0,1E0,1E0,4E0,1E0,1E0,1E0,2E0,1E0,3E0,1E0],"tree_param":{"num_deleted":"0","num_feature":"12","num_nodes":"29","size_leaf_vector":"1"}},{"base_weights":[2.244671E-3,3.6725475E-4,1.0116615E-1,-2.1813255E-4,2.5523607E-2,1.4921169E-2,2.2866848E-1,-3.2308704E-4,1.821399E-2,1.2745184E-1,-3.703894E-4,-4.1310795E-4,6.97075E-2,2.9501926E-2,2.8719777E-1,-3.430459E-4,1.3339506E-1,7.9420336E-2,2.6947577E-2,-9.245298E-4,3.2292902E-2,1.305929E-1,1.413424E-1,-7.143305E-4,1.7240042E-2,7.989168E-3,7.282169E-2],"categories":[],"categories_nodes":[],"categories_segments":[],"categories_sizes":[],"default_left":[0,0,0,0,0,0,0,0,0,0,0,0,0,0,0,0,0,0,0,0,0,0,0,0,0,0,0],"id":9,"left_children":[1,3,5,7,9,11,13,-1,15,17,-1,-1,19,-1,21,-1,-1,-1,23,-1,-1,-1,25,-1,-1,-1,-1],"loss_changes":[1.994227E-1,1.5541718E-2,2.1651675E-1,1.6356124E-2,6.561544E-2,1.1703926E-2,3.2781422E-2,0E0,3.8022593E-1,6.1853476E-2,0E0,0E0,8.615625E-3,0E0,4.6486855E-2,0E0,0E0,0E0,3.7171887E-3,0E0,0E0,0E0,4.0061273E-2,0E0,0E0,0E0,0E0],"parents":[2147483647,0,0,1,1,2,2,3,3,4,4,5,5,6,6,8,8,9,9,12,12,14,14,18,18,22,22],"right_children":[2,4,6,8,10,12,14,-1,16,18,-1,-1,20,-1,22,-1,-1,-1,24,-1,-1,-1,26,-1,-1,-1,-1],"split_conditions":[6.040274E-2,9.117501E2,7.0710677E-1,8.5433185E2,9.185963E2,-7.0710677E-1,1.1203837E0,-3.2308704E-4,1.9685556E2,9.659258E-1,-3.703894E-4,-4.1310795E-4,1.0092591E0,2.9501926E-2,1.4696382E0,-3.430459E-4,1.3339506E-1,7.9420336E-2,1E0,-9.245298E-4,3.2292902E-2,1.305929E-1,4.0250163E0,-7.143305E-4,1.7240042E-2,7.989168E-3,7.282169E-2],"split_indices":[0,6,1,8,6,2,0,0,7,1,0,0,0,0,0,0,0,0,1,0,0,0,0,0,0,0,0],"split_type":[0,0,0,0,0,0,0,0,0,0,0,0,0,0,0,0,0,0,0,0,0,0,0,0,0,0,0],"sum_hessian":[1.073E3,1.054E3,1.9E1,1.031E3,2.3E1,1.2E1,7E0,9.86E2,4.5E1,4E0,1.9E1,1E1,2E0,3E0,4E0,4.4E1,1E0,1E0,3E0,1E0,1E0,1E0,3E0,2E0,1E0,2E0,1E0],"tree_param":{"num_deleted":"0","num_feature":"12","num_nodes":"27","size_leaf_vector":"1"}},{"base_weights":[2.0369736E-3,4.7348088E-4,8.440937E-2,-2.4079382E-5,2.1848844E-2,1.2825997E-2,1.9018117E-1,-2.2625912E-4,1.564223E-2,1.0840549E-1,-2.648284E-4,-3.0044216E-4,5.925139E-2,2.2863995E-2,2.4331923E-1,-2.4241908E-4,1.1338581E-1,6.750729E-2,2.2994729E-2,-7.8585034E-4,2.7448976E-2,9.644606E-2,8.404517E-2,-5.714645E-4,1.4654035E-2,-2.407812E-2,6.1898448E-2],"categories":[],"categories_nodes":[],"categories_segments":[],"categories_sizes":[],"default_left":[0,0,0,0,0,0,0,0,0,0,0,0,0,0,0,0,0,0,0,0,0,0,0,0,0,0,0],"id":10,"left_children":[1,3,5,7,9,11,13,-1,15,17,-1,-1,19,-1,21,-1,-1,-1,23,-1,-1,-1,25,-1,-1,-1,-1],"loss_changes":[1.3827902E-1,1.1221012E-2,1.4899078E-1,1.18160695E-2,4.7317415E-2,8.404633E-3,2.9904097E-2,0E0,2.7447063E-1,4.462813E-2,0E0,0E0,6.2247925E-3,0E0,3.5230964E-2,0E0,0E0,0E0,2.6678713E-3,0E0,0E0,0E0,7.6835304E-2,0E0,0E0,0E0,0E0],"parents":[2147483647,0,0,1,1,2,2,3,3,4,4,5,5,6,6,8,8,9,9,12,12,14,14,18,18,22,22],"right_children":[2,4,6,8,10,12,14,-1,16,18,-1,-1,20,-1,22,-1,-1,-1,24,-1,-1,-1,26,-1,-1,-1,-1],"split_conditions":[6.040274E-2,9.117501E2,7.0710677E-1,8.5433185E2,9.185963E2,-7.0710677E-1,1.1203837E0,-2.2625912E-4,1.9685556E2,9.659258E-1,-2.648284E-4,-3.0044216E-4,1.0092591E0,2.2863995E-2,2.4549305E0,-2.4241908E-4,1.1338581E-1,6.750729E-2,1E0,-7.8585034E-4,2.7448976E-2,9.644606E-2,4.0250163E0,-5.714645E-4,1.4654035E-2,-2.407812E-2,6.1898448E-2],"split_indices":[0,6,1,8,6,2,0,0,7,1,0,0,0,0,0,0,0,0,1,0,0,0,0,0,0,0,0],"split_type":[0,0,0,0,0,0,0,0,0,0,0,0,0,0,0,0,0,0,0,0,0,0,0,0,0,0,0],"sum_hessian":[1.073E3,1.054E3,1.9E1,1.031E3,2.3E1,1.2E1,7E0,9.86E2,4.5E1,4E0,1.9E1,1E1,2E0,3E0,4E0,4.4E1,1E0,1E0,3E0,1E0,1E0,2E0,2E0,2E0,1E0,1E0,1E0],"tree_param":{"num_deleted":"0","num_feature":"12","num_nodes":"27","size_leaf_vector":"1"}},{"base_weights":[1.77759E-3,5.1555235E-4,6.82612E-2,9.256016E-5,1.8682735E-2,-2.185034E-4,1.3732357E-1,-1.5845014E-4,1.3409196E-2,9.220182E-2,-1.893523E-4,4.6361584E-2,1.9023798E-1,-1.7130948E-4,9.6377924E-2,5.7381198E-2,1.9616952E-2,-6.679727E-4,1.7719582E-2,9.653707E-2,9.9569485E-2,-4.5717155E-4,1.2455929E-2,1.1031721E-2,5.261368E-2],"categories":[],"categories_nodes":[],"categories_segments":[],"categories_sizes":[],"default_left":[0,0,0,0,0,0,0,0,0,0,0,0,0,0,0,0,0,0,0,0,0,0,0,0,0],"id":11,"left_children":[1,3,5,7,9,-1,11,-1,13,15,-1,17,19,-1,-1,-1,21,-1,-1,-1,23,-1,-1,-1,-1],"loss_changes":[9.0078585E-2,8.105499E-3,9.539167E-2,8.537594E-3,3.413678E-2,0E0,3.9312273E-2,0E0,1.9815922E-1,3.2202344E-2,0E0,3.2177558E-3,3.952536E-2,0E0,0E0,0E0,1.9154487E-3,0E0,0E0,0E0,1.7353948E-2,0E0,0E0,0E0,0E0],"parents":[2147483647,0,0,1,1,2,2,3,3,4,4,6,6,8,8,9,9,11,11,12,12,16,16,20,20],"right_children":[2,4,6,8,10,-1,12,-1,14,16,-1,18,20,-1,-1,-1,22,-1,-1,-1,24,-1,-1,-1,-1],"split_conditions":[6.040274E-2,9.117501E2,-7.0710677E-1,8.5433185E2,9.185963E2,-2.185034E-4,1.1203837E0,-1.5845014E-4,1.9685556E2,9.659258E-1,-1.893523E-4,5E-1,1.4696382E0,-1.7130948E-4,9.6377924E-2,5.7381198E-2,1E0,-6.679727E-4,1.7719582E-2,9.653707E-2,4.0250163E0,-4.5717155E-4,1.2455929E-2,1.1031721E-2,5.261368E-2],"split_indices":[0,6,2,8,6,0,0,0,7,1,0,1,0,0,0,0,1,0,0,0,0,0,0,0,0],"split_type":[0,0,0,0,0,0,0,0,0,0,0,0,0,0,0,0,0,0,0,0,0,0,0,0,0],"sum_hessian":[1.073E3,1.054E3,1.9E1,1.031E3,2.3E1,1E1,9E0,9.86E2,4.5E1,4E0,1.9E1,4E0,5E0,4.4E1,1E0,1E0,3E0,1E0,3E0,1E0,4E0,2E0,1E0,3E0,1E0],"tree_param":{"num_deleted":"0","num_feature":"12","num_nodes":"25","size_leaf_vector":"1"}},{"base_weights":[1.5629859E-3,5.1751116E-4,5.663363E-2,1.5786213E-4,1.5960857E-2,-1.5891154E-4,1.1384993E-1,-1.10963265E-4,1.1477888E-2,7.841727E-2,-1.3538689E-4,3.5863463E-2,1.5986367E-1,-1.210587E-4,8.192125E-2,4.8774023E-2,1.6731553E-2,-5.6777685E-4,1.3732688E-2,8.20565E-2,8.242774E-2,-3.6573724E-4,1.0587538E-2,8.549595E-3,4.472162E-2],"categories":[],"categories_nodes":[],"categories_segments":[],"categories_sizes":[],"default_left":[0,0,0,0,0,0,0,0,0,0,0,0,0,0,0,0,0,0,0,0,0,0,0,0,0],"id":12,"left_children":[1,3,5,7,9,-1,11,-1,13,15,-1,17,19,-1,-1,-1,21,-1,-1,-1,23,-1,-1,-1,-1],"loss_changes":[6.180621E-2,5.857145E-3,6.54738E-2,6.16944E-3,2.463644E-2,0E0,3.0151218E-2,0E0,1.4308254E-1,2.3237996E-2,0E0,1.9578543E-3,3.0261502E-2,0E0,0E0,0E0,1.3757003E-3,0E0,0E0,0E0,1.3721984E-2,0E0,0E0,0E0,0E0],"parents":[2147483647,0,0,1,1,2,2,3,3,4,4,6,6,8,8,9,9,11,11,12,12,16,16,20,20],"right_children":[2,4,6,8,10,-1,12,-1,14,16,-1,18,20,-1,-1,-1,22,-1,-1,-1,24,-1,-1,-1,-1],"split_conditions":[6.040274E-2,9.117501E2,-7.0710677E-1,8.5433185E2,9.185963E2,-1.5891154E-4,1.1203837E0,-1.10963265E-4,1.9685556E2,9.659258E-1,-1.3538689E-4,5E-1,1.4696382E0,-1.210587E-4,8.192125E-2,4.8774023E-2,1E0,-5.6777685E-4,1.3732688E-2,8.20565E-2,4.0250163E0,-3.6573724E-4,1.0587538E-2,8.549595E-3,4.472162E-2],"split_indices":[0,6,2,8,6,0,0,0,7,1,0,1,0,0,0,0,1,0,0,0,0,0,0,0,0],"split_type":[0,0,0,0,0,0,0,0,0,0,0,0,0,0,0,0,0,0,0,0,0,0,0,0,0],"sum_hessian":[1.073E3,1.054E3,1.9E1,1.031E3,2.3E1,1E1,9E0,9.86E2,4.5E1,4E0,1.9E1,4E0,5E0,4.4E1,1E0,1E0,3E0,1E0,3E0,1E0,4E0,2E0,1E0,3E0,1E0],"tree_param":{"num_deleted":"0","num_feature":"12","num_nodes":"25","size_leaf_vector":"1"}},{"base_weights":[1.3630687E-3,4.9548E-4,4.7060218E-2,1.8965964E-4,1.3625112E-2,2.159854E-2,1.435073E-1,-7.7708006E-5,9.812784E-3,6.669123E-2,-9.6801625E-5,7.109542E-3,3.8013376E-2,1.090424E-2,6.974802E-2,-8.554814E-5,6.9633044E-2,4.1457906E-2,1.42675275E-2,1.798511E-2,-2.3403598E-2,-2.9258977E-4,8.999402E-3,-1.15572024E-4,1.6440857E-2],"categories":[],"categories_nodes":[],"categories_segments":[],"categories_sizes":[],"default_left":[0,0,0,0,0,0,0,0,0,0,0,0,0,0,0,0,0,0,0,0,0,0,0,0,0],"id":13,"left_children":[1,3,5,7,9,11,13,-1,15,17,-1,19,-1,-1,-1,-1,-1,-1,21,23,-1,-1,-1,-1,-1],"loss_changes":[4.2556845E-2,4.2335675E-3,4.6014547E-2,4.4584745E-3,1.7785233E-2,2.4989765E-2,2.9692397E-2,0E0,1.0332452E-1,1.6770264E-2,0E0,1.6214974E-2,0E0,0E0,0E0,0E0,0E0,0E0,9.883647E-4,1.0166436E-2,0E0,0E0,0E0,0E0,0E0],"parents":[2147483647,0,0,1,1,2,2,3,3,4,4,5,5,6,6,8,8,9,9,11,11,18,18,19,19],"right_children":[2,4,6,8,10,12,14,-1,16,18,-1,20,-1,-1,-1,-1,-1,-1,22,24,-1,-1,-1,-1,-1],"split_conditions":[6.040274E-2,9.117501E2,8.660254E-1,8.5433185E2,9.185963E2,4.0250163E0,1.1203837E0,-7.7708006E-5,1.9685556E2,9.659258E-1,-9.6801625E-5,3.8661427E0,3.8013376E-2,1.090424E-2,6.974802E-2,-8.554814E-5,6.9633044E-2,4.1457906E-2,1E0,-7.0710677E-1,-2.3403598E-2,-2.9258977E-4,8.999402E-3,-1.15572024E-4,1.6440857E-2],"split_indices":[0,6,1,8,6,0,0,0,7,1,0,0,0,0,0,0,0,0,1,2,0,0,0,0,0],"split_type":[0,0,0,0,0,0,0,0,0,0,0,0,0,0,0,0,0,0,0,0,0,0,0,0,0],"sum_hessian":[1.073E3,1.054E3,1.9E1,1.031E3,2.3E1,1.6E1,3E0,9.86E2,4.5E1,4E0,1.9E1,1.5E1,1E0,2E0,1E0,4.4E1,1E0,1E0,3E0,1.4E1,1E0,2E0,1E0,1E1,4E0],"tree_param":{"num_deleted":"0","num_feature":"12","num_nodes":"25","size_leaf_vector":"1"}},{"base_weights":[1.1693484E-3,4.9523887E-4,4.3053962E-2,9.9959485E-5,8.140452E-3,1.4477102E-2,5.1476087E-2,-5.4419215E-5,1.3318973E-2,-6.011209E-4,1.1318961E-1,1.2482045E-4,3.2311358E-2,5.6716815E-2,-6.857031E-5,-6.122914E-5,-2.948739E-3,5.9188094E-2,5.8171153E-3,1.03359865E-2,-1.989305E-2,3.523922E-2,3.649196E-3,-8.405237E-5,1.3744975E-2],"categories":[],"categories_nodes":[],"categories_segments":[],"categories_sizes":[],"default_left":[0,0,0,0,0,0,0,0,0,0,0,0,0,0,0,0,0,0,0,0,0,0,0,0,0],"id":14,"left_children":[1,3,5,7,9,11,-1,-1,13,15,17,19,-1,21,-1,-1,-1,-1,-1,23,-1,-1,-1,-1,-1],"loss_changes":[3.0302867E-2,3.1964572E-3,5.9958097E-2,3.7477112E-3,4.7819372E-2,2.0056948E-2,0E0,0E0,1.2359578E-2,1.775171E-4,2.772997E-2,1.0182682E-2,0E0,1.21034775E-2,0E0,0E0,0E0,0E0,0E0,4.9095163E-3,0E0,0E0,0E0,0E0,0E0],"parents":[2147483647,0,0,1,1,2,2,3,3,4,4,5,5,8,8,9,9,10,10,11,11,13,13,19,19],"right_children":[2,4,6,8,10,12,-1,-1,14,16,18,20,-1,22,-1,-1,-1,-1,-1,24,-1,-1,-1,-1,-1],"split_conditions":[1.0092591E0,8.5433185E2,-2.5881904E-1,9.117501E2,1.9685556E2,4.0250163E0,5.1476087E-2,-5.4419215E-5,9.185963E2,6.040274E-2,6.040274E-2,3.8661427E0,3.2311358E-2,9.659258E-1,-6.857031E-5,-6.122914E-5,-2.948739E-3,5.9188094E-2,5.8171153E-3,7.0710677E-1,-1.989305E-2,3.523922E-2,3.649196E-3,-8.405237E-5,1.3744975E-2],"split_indices":[0,8,2,6,7,0,0,0,6,0,0,0,0,1,0,0,0,0,0,1,0,0,0,0,0],"split_type":[0,0,0,0,0,0,0,0,0,0,0,0,0,0,0,0,0,0,0,0,0,0,0,0,0],"sum_hessian":[1.073E3,1.057E3,1.6E1,1.006E3,5.1E1,1.4E1,2E0,9.86E2,2E1,4.8E1,3E0,1.3E1,1E0,4E0,1.6E1,4.7E1,1E0,1E0,2E0,1.2E1,1E0,1E0,3E0,1E1,2E0],"tree_param":{"num_deleted":"0","num_feature":"12","num_nodes":"25","size_leaf_vector":"1"}},{"base_weights":[9.845732E-4,4.70801E-4,3.72255E-2,2.2514137E-4,1.0632103E-2,5.1564433E-2,1.5329974E-2,-3.8139482E-5,7.32352E-3,4.4855997E-2,-5.000097E-5,2.4247721E-3,2.7464641E-2,-5.0181616E-4,9.5484E-2,8.234545E-2,5.524912E-3,1.2020787E-2,-1.6909111E-2,-4.2493473E-5,-2.5064284E-3,5.0309874E-2,4.6536867E-3,2.9953338E-2,7.102114E-3,-9.6391106E-4,4.760814E-3,-6.0517716E-5,1.4626671E-2],"categories":[],"categories_nodes":[],"categories_segments":[],"categories_sizes":[],"default_left":[0,0,0,0,0,0,0,0,0,0,0,0,0,0,0,0,0,0,0,0,0,0,0,0,0,0,0,0,0],"id":15,"left_children":[1,3,5,7,9,-1,11,-1,13,15,-1,17,-1,19,21,23,25,27,-1,-1,-1,-1,-1,-1,-1,-1,-1,-1,-1],"loss_changes":[1.9979903E-2,2.643601E-3,4.15905E-2,2.5915182E-3,9.246878E-3,0E0,1.3548687E-2,0E0,3.3852298E-2,8.392054E-3,0E0,8.011292E-3,0E0,1.289232E-4,2.0499412E-2,7.1640126E-4,4.1254662E-4,5.397731E-3,0E0,0E0,0E0,0E0,0E0,0E0,0E0,0E0,0E0,0E0,0E0],"parents":[2147483647,0,0,1,1,2,2,3,3,4,4,6,6,8,8,9,9,11,11,13,13,14,14,15,15,16,16,17,17],"right_children":[2,4,6,8,10,-1,12,-1,14,16,-1,18,-1,20,22,24,26,28,-1,-1,-1,-1,-1,-1,-1,-1,-1,-1,-1],"split_conditions":[1.3373424E0,9.117501E2,1.4696382E0,8.5433185E2,9.185963E2,5.1564433E-2,4.0250163E0,-3.8139482E-5,1.9685556E2,2.2371386E-3,-5.000097E-5,3.8661427E0,2.7464641E-2,6.040274E-2,6.040274E-2,9.659258E-1,6.040274E-2,-7.0710677E-1,-1.6909111E-2,-4.2493473E-5,-2.5064284E-3,5.0309874E-2,4.6536867E-3,2.9953338E-2,7.102114E-3,-9.6391106E-4,4.760814E-3,-6.0517716E-5,1.4626671E-2],"split_indices":[0,6,0,8,6,0,0,0,7,3,0,0,0,0,0,1,0,2,0,0,0,0,0,0,0,0,0,0,0],"split_type":[0,0,0,0,0,0,0,0,0,0,0,0,0,0,0,0,0,0,0,0,0,0,0,0,0,0,0,0,0],"sum_hessian":[1.073E3,1.059E3,1.4E1,1.035E3,2.4E1,1E0,1.3E1,9.87E2,4.8E1,5E0,1.9E1,1.2E1,1E0,4.5E1,3E0,2E0,3E0,1.1E1,1E0,4.4E1,1E0,1E0,2E0,1E0,1E0,2E0,1E0,9E0,2E0],"tree_param":{"num_deleted":"0","num_feature":"12","num_nodes":"29","size_leaf_vector":"1"}},{"base_weights":[8.473624E-4,4.1746543E-4,3.1170256E-2,2.0815544E-4,9.0745725E-3,4.3829765E-2,1.2525388E-2,-2.6709216E-5,6.196151E-3,3.820795E-2,-3.575069E-5,1.517112E-3,2.3344947E-2,-4.0668264E-4,8.05797E-2,6.999365E-2,4.816682E-3,9.628395E-3,-1.4372743E-2,-3.0028723E-5,-2.130464E-3,4.276339E-2,3.722954E-3,2.5460351E-2,6.0367943E-3,-7.711289E-4,4.0467028E-3,-4.417793E-5,1.1701334E-2],"categories":[],"categories_nodes":[],"categories_segments":[],"categories_sizes":[],"default_left":[0,0,0,0,0,0,0,0,0,0,0,0,0,0,0,0,0,0,0,0,0,0,0,0,0,0,0,0,0],"id":16,"left_children":[1,3,5,7,9,-1,11,-1,13,15,-1,17,-1,19,21,23,25,27,-1,-1,-1,-1,-1,-1,-1,-1,-1,-1,-1],"loss_changes":[1.3987351E-2,1.9188513E-3,3.0312577E-2,1.8441649E-3,6.7006713E-3,0E0,9.944337E-3,0E0,2.4098739E-2,6.031053E-3,0E0,5.673122E-3,0E0,9.370681E-5,1.5127603E-2,5.176049E-4,2.909263E-4,3.4517855E-3,0E0,0E0,0E0,0E0,0E0,0E0,0E0,0E0,0E0,0E0,0E0],"parents":[2147483647,0,0,1,1,2,2,3,3,4,4,6,6,8,8,9,9,11,11,13,13,14,14,15,15,16,16,17,17],"right_children":[2,4,6,8,10,-1,12,-1,14,16,-1,18,-1,20,22,24,26,28,-1,-1,-1,-1,-1,-1,-1,-1,-1,-1,-1],"split_conditions":[1.3373424E0,9.117501E2,1.4696382E0,8.5433185E2,9.185963E2,4.3829765E-2,4.0250163E0,-2.6709216E-5,1.9685556E2,2.2371386E-3,-3.575069E-5,3.8661427E0,2.3344947E-2,6.040274E-2,6.040274E-2,9.659258E-1,6.040274E-2,-7.0710677E-1,-1.4372743E-2,-3.0028723E-5,-2.130464E-3,4.276339E-2,3.722954E-3,2.5460351E-2,6.0367943E-3,-7.711289E-4,4.0467028E-3,-4.417793E-5,1.1701334E-2],"split_indices":[0,6,0,8,6,0,0,0,7,3,0,0,0,0,0,1,0,2,0,0,0,0,0,0,0,0,0,0,0],"split_type":[0,0,0,0,0,0,0,0,0,0,0,0,0,0,0,0,0,0,0,0,0,0,0,0,0,0,0,0,0],"sum_hessian":[1.073E3,1.059E3,1.4E1,1.035E3,2.4E1,1E0,1.3E1,9.87E2,4.8E1,5E0,1.9E1,1.2E1,1E0,4.5E1,3E0,2E0,3E0,1.1E1,1E0,4.4E1,1E0,1E0,2E0,1E0,1E0,2E0,1E0,9E0,2E0],"tree_param":{"num_deleted":"0","num_feature":"12","num_nodes":"29","size_leaf_vector":"1"}},{"base_weights":[7.2676217E-4,3.6678833E-4,2.611646E-2,1.8846862E-4,7.741686E-3,3.7255313E-2,1.0241298E-2,-1.870456E-5,5.241915E-3,3.2541044E-2,-2.5561743E-5,8.530917E-4,1.9843198E-2,-3.3164507E-4,6.802738E-2,5.9494656E-2,4.1905767E-3,7.711304E-3,-1.22168185E-2,-2.1220298E-5,-1.8108945E-3,3.634887E-2,2.9783729E-3,2.1641314E-2,5.1312805E-3,-6.1690307E-4,3.4397007E-3,-3.224989E-5,9.361065E-3],"categories":[],"categories_nodes":[],"categories_segments":[],"categories_sizes":[],"default_left":[0,0,0,0,0,0,0,0,0,0,0,0,0,0,0,0,0,0,0,0,0,0,0,0,0,0,0,0,0],"id":17,"left_children":[1,3,5,7,9,-1,11,-1,13,15,-1,17,-1,19,21,23,25,27,-1,-1,-1,-1,-1,-1,-1,-1,-1,-1,-1],"loss_changes":[9.806381E-3,1.392536E-3,2.208085E-2,1.3134475E-3,4.8553203E-3,0E0,7.2911377E-3,0E0,1.716955E-2,4.3355688E-3,0E0,4.020791E-3,0E0,6.8039866E-5,1.1145685E-2,3.7396885E-4,2.0536501E-4,2.2075293E-3,0E0,0E0,0E0,0E0,0E0,0E0,0E0,0E0,0E0,0E0,0E0],"parents":[2147483647,0,0,1,1,2,2,3,3,4,4,6,6,8,8,9,9,11,11,13,13,14,14,15,15,16,16,17,17],"right_children":[2,4,6,8,10,-1,12,-1,14,16,-1,18,-1,20,22,24,26,28,-1,-1,-1,-1,-1,-1,-1,-1,-1,-1,-1],"split_conditions":[1.3373424E0,9.117501E2,1.4696382E0,8.5433185E2,9.185963E2,3.7255313E-2,4.0250163E0,-1.870456E-5,1.9685556E2,2.2371386E-3,-2.5561743E-5,3.8661427E0,1.9843198E-2,6.040274E-2,6.040274E-2,9.659258E-1,6.040274E-2,-7.0710677E-1,-1.22168185E-2,-2.1220298E-5,-1.8108945E-3,3.634887E-2,2.9783729E-3,2.1641314E-2,5.1312805E-3,-6.1690307E-4,3.4397007E-3,-3.224989E-5,9.361065E-3],"split_indices":[0,6,0,8,6,0,0,0,7,3,0,0,0,0,0,1,0,2,0,0,0,0,0,0,0,0,0,0,0],"split_type":[0,0,0,0,0,0,0,0,0,0,0,0,0,0,0,0,0,0,0,0,0,0,0,0,0,0,0,0,0],"sum_hessian":[1.073E3,1.059E3,1.4E1,1.035E3,2.4E1,1E0,1.3E1,9.87E2,4.8E1,5E0,1.9E1,1.2E1,1E0,4.5E1,3E0,2E0,3E0,1.1E1,1E0,4.4E1,1E0,1E0,2E0,1E0,1E0,2E0,1E0,9E0,2E0],"tree_param":{"num_deleted":"0","num_feature":"12","num_nodes":"29","size_leaf_vector":"1"}},{"base_weights":[6.2163593E-4,3.2000328E-4,2.1895569E-2,1.6810231E-4,6.6019786E-3,3.166702E-2,8.380005E-3,-1.3098872E-5,4.43455E-3,2.7711319E-2,-1.8276647E-5,3.7501467E-4,1.6866732E-2,5.7625923E-2,-2.871901E-4,5.0570488E-2,3.639112E-3,6.17532E-3,-1.0384298E-2,2.3055483E-2,-7.668244E-6,-1.9660067E-5,-1.5392603E-3,1.8395126E-2,4.361594E-3,-4.9352244E-4,2.923751E-3,-2.3542418E-5,7.4888594E-3],"categories":[],"categories_nodes":[],"categories_segments":[],"categories_sizes":[],"default_left":[0,0,0,0,0,0,0,0,0,0,0,0,0,0,0,0,0,0,0,0,0,0,0,0,0,0,0,0,0],"id":18,"left_children":[1,3,5,7,9,-1,11,-1,13,15,-1,17,-1,19,21,23,25,27,-1,-1,-1,-1,-1,-1,-1,-1,-1,-1,-1],"loss_changes":[6.8847574E-3,1.0103825E-3,1.6076349E-2,9.3620433E-4,3.5179239E-3,0E0,5.3406106E-3,0E0,1.2323186E-2,3.117593E-3,0E0,2.8520897E-3,0E0,4.4355206E-3,4.905087E-5,2.701911E-4,1.4510893E-4,1.4118803E-3,0E0,0E0,0E0,0E0,0E0,0E0,0E0,0E0,0E0,0E0,0E0],"parents":[2147483647,0,0,1,1,2,2,3,3,4,4,6,6,8,8,9,9,11,11,13,13,14,14,15,15,16,16,17,17],"right_children":[2,4,6,8,10,-1,12,-1,14,16,-1,18,-1,20,22,24,26,28,-1,-1,-1,-1,-1,-1,-1,-1,-1,-1,-1],"split_conditions":[1.3373424E0,9.117501E2,1.4696382E0,8.5433185E2,9.185963E2,3.166702E-2,4.0250163E0,-1.3098872E-5,8.5504266E2,2.2371386E-3,-1.8276647E-5,3.8661427E0,1.6866732E-2,4.6650375E2,5.579055E-1,9.659258E-1,6.040274E-2,-7.0710677E-1,-1.0384298E-2,2.3055483E-2,-7.668244E-6,-1.9660067E-5,-1.5392603E-3,1.8395126E-2,4.361594E-3,-4.9352244E-4,2.923751E-3,-2.3542418E-5,7.4888594E-3],"split_indices":[0,6,0,8,6,0,0,0,8,3,0,0,0,6,0,1,0,2,0,0,0,0,0,0,0,0,0,0,0],"split_type":[0,0,0,0,0,0,0,0,0,0,0,0,0,0,0,0,0,0,0,0,0,0,0,0,0,0,0,0,0],"sum_hessian":[1.073E3,1.059E3,1.4E1,1.035E3,2.4E1,1E0,1.3E1,9.87E2,4.8E1,5E0,1.9E1,1.2E1,1E0,3E0,4.5E1,2E0,3E0,1.1E1,1E0,2E0,1E0,4.4E1,1E0,1E0,1E0,2E0,1E0,9E0,2E0],"tree_param":{"num_deleted":"0","num_feature":"12","num_nodes":"29","size_leaf_vector":"1"}},{"base_weights":[5.210474E-4,2.6800632E-4,1.8367883E-2,1.3840102E-4,5.628129E-3,2.691697E-2,6.8622697E-3,-9.173188E-6,3.542731E-3,2.3595735E-2,-1.3067803E-5,3.7967755E-5,1.4336729E-2,4.6100065E-2,-2.3492244E-4,4.2984884E-2,3.1549414E-3,4.9448255E-3,-8.82665E-3,1.8444372E-2,-6.518007E-6,-1.3893051E-5,-1.3083713E-3,1.5635848E-2,3.7073495E-3,-3.9481797E-4,2.485192E-3,-1.7185966E-5,5.991078E-3],"categories":[],"categories_nodes":[],"categories_segments":[],"categories_sizes":[],"default_left":[0,0,0,0,0,0,0,0,0,0,0,0,0,0,0,0,0,0,0,0,0,0,0,0,0,0,0,0,0],"id":19,"left_children":[1,3,5,7,9,-1,11,-1,13,15,-1,17,-1,19,21,23,25,27,-1,-1,-1,-1,-1,-1,-1,-1,-1,-1,-1],"loss_changes":[4.845243E-3,7.356033E-4,1.16991E-2,5.9607555E-4,2.5486946E-3,0E0,3.908344E-3,0E0,7.8884065E-3,2.2423621E-3,0E0,2.0247246E-3,0E0,2.8389646E-3,3.559862E-5,1.9521499E-4,1.0262983E-4,9.030509E-4,0E0,0E0,0E0,0E0,0E0,0E0,0E0,0E0,0E0,0E0,0E0],"parents":[2147483647,0,0,1,1,2,2,3,3,4,4,6,6,8,8,9,9,11,11,13,13,14,14,15,15,16,16,17,17],"right_children":[2,4,6,8,10,-1,12,-1,14,16,-1,18,-1,20,22,24,26,28,-1,-1,-1,-1,-1,-1,-1,-1,-1,-1,-1],"split_conditions":[1.3373424E0,9.117501E2,1.4696382E0,8.5433185E2,9.185963E2,2.691697E-2,4.0250163E0,-9.173188E-6,8.5504266E2,2.2371386E-3,-1.3067803E-5,3.8661427E0,1.4336729E-2,4.6650375E2,5.579055E-1,9.659258E-1,6.040274E-2,-7.0710677E-1,-8.82665E-3,1.8444372E-2,-6.518007E-6,-1.3893051E-5,-1.3083713E-3,1.5635848E-2,3.7073495E-3,-3.9481797E-4,2.485192E-3,-1.7185966E-5,5.991078E-3],"split_indices":[0,6,0,8,6,0,0,0,8,3,0,0,0,6,0,1,0,2,0,0,0,0,0,0,0,0,0,0,0],"split_type":[0,0,0,0,0,0,0,0,0,0,0,0,0,0,0,0,0,0,0,0,0,0,0,0,0,0,0,0,0],"sum_hessian":[1.073E3,1.059E3,1.4E1,1.035E3,2.4E1,1E0,1.3E1,9.87E2,4.8E1,5E0,1.9E1,1.2E1,1E0,3E0,4.5E1,2E0,3E0,1.1E1,1E0,2E0,1E0,4.4E1,1E0,1E0,1E0,2E0,1E0,9E0,2E0],"tree_param":{"num_deleted":"0","num_feature":"12","num_nodes":"29","size_leaf_vector":"1"}},{"base_weights":[4.3636083E-4,2.2395073E-4,1.5417583E-2,1.13392896E-4,4.7965096E-3,2.2879422E-2,5.6238766E-3,-6.424017E-6,2.8292136E-3,2.0089272E-2,-9.343478E-6,-1.9285355E-4,1.2186206E-2,3.6879543E-2,-1.931894E-4,3.653717E-2,2.7310317E-3,3.9592083E-3,-7.5026397E-3,1.6444018E-2,-2.5382997E-3,-9.817393E-6,-1.1121156E-3,1.3290489E-2,3.1512382E-3,-3.1585438E-4,2.1124007E-3,-1.25457545E-5,4.792869E-3],"categories":[],"categories_nodes":[],"categories_segments":[],"categories_sizes":[],"default_left":[0,0,0,0,0,0,0,0,0,0,0,0,0,0,0,0,0,0,0,0,0,0,0,0,0,0,0,0,0],"id":20,"left_children":[1,3,5,7,9,-1,11,-1,13,15,-1,17,-1,19,21,23,25,27,-1,-1,-1,-1,-1,-1,-1,-1,-1,-1,-1],"loss_changes":[3.4141901E-3,5.3532026E-4,8.509885E-3,3.7935024E-4,1.8463301E-3,0E0,2.857772E-3,0E0,5.049902E-3,1.6132549E-3,0E0,1.4385005E-3,0E0,3.716297E-3,2.5815838E-5,1.410474E-4,7.265214E-5,5.776334E-4,0E0,0E0,0E0,0E0,0E0,0E0,0E0,0E0,0E0,0E0,0E0],"parents":[2147483647,0,0,1,1,2,2,3,3,4,4,6,6,8,8,9,9,11,11,13,13,14,14,15,15,16,16,17,17],"right_children":[2,4,6,8,10,-1,12,-1,14,16,-1,18,-1,20,22,24,26,28,-1,-1,-1,-1,-1,-1,-1,-1,-1,-1,-1],"split_conditions":[1.3373424E0,9.117501E2,1.4696382E0,8.5433185E2,9.185963E2,2.2879422E-2,4.0250163E0,-6.424017E-6,8.5504266E2,2.2371386E-3,-9.343478E-6,3.8661427E0,1.2186206E-2,6.040274E-2,5.579055E-1,9.659258E-1,6.040274E-2,-7.0710677E-1,-7.5026397E-3,1.6444018E-2,-2.5382997E-3,-9.817393E-6,-1.1121156E-3,1.3290489E-2,3.1512382E-3,-3.1585438E-4,2.1124007E-3,-1.25457545E-5,4.792869E-3],"split_indices":[0,6,0,8,6,0,0,0,8,3,0,0,0,0,0,1,0,2,0,0,0,0,0,0,0,0,0,0,0],"split_type":[0,0,0,0,0,0,0,0,0,0,0,0,0,0,0,0,0,0,0,0,0,0,0,0,0,0,0,0,0],"sum_hessian":[1.073E3,1.059E3,1.4E1,1.035E3,2.4E1,1E0,1.3E1,9.87E2,4.8E1,5E0,1.9E1,1.2E1,1E0,3E0,4.5E1,2E0,3E0,1.1E1,1E0,2E0,1E0,4.4E1,1E0,1E0,1E0,2E0,1E0,9E0,2E0],"tree_param":{"num_deleted":"0","num_feature":"12","num_nodes":"29","size_leaf_vector":"1"}},{"base_weights":[3.6443715E-4,1.8601668E-4,1.2948522E-2,9.17083E-5,4.086715E-3,1.9447519E-2,4.612694E-3,-4.4987623E-6,2.2413412E-3,1.710221E-2,-6.6805874E-6,-3.4441284E-4,1.0358263E-2,-5.0252693E-4,3.323549E-2,3.1056603E-2,2.3608617E-3,3.169806E-3,-6.377256E-3,-4.423524E-5,-2.4721432E-3,2.2204973E-2,-1.5091181E-3,1.1296928E-2,2.6785433E-3,-2.5268353E-4,1.7955423E-3,-9.158401E-6,3.8342953E-3],"categories":[],"categories_nodes":[],"categories_segments":[],"categories_sizes":[],"default_left":[0,0,0,0,0,0,0,0,0,0,0,0,0,0,0,0,0,0,0,0,0,0,0,0,0,0,0,0,0],"id":21,"left_children":[1,3,5,7,9,-1,11,-1,13,15,-1,17,-1,19,21,23,25,27,-1,-1,-1,-1,-1,-1,-1,-1,-1,-1,-1],"loss_changes":[2.4089988E-3,3.8956592E-4,6.18749E-3,2.376659E-4,1.3373923E-3,0E0,2.0879668E-3,0E0,4.1838507E-3,1.1609189E-3,0E0,1.0227943E-3,0E0,1.2517278E-4,6.6144294E-3,1.01910904E-4,5.147745E-5,3.6949792E-4,0E0,0E0,0E0,0E0,0E0,0E0,0E0,0E0,0E0,0E0,0E0],"parents":[2147483647,0,0,1,1,2,2,3,3,4,4,6,6,8,8,9,9,11,11,13,13,14,14,15,15,16,16,17,17],"right_children":[2,4,6,8,10,-1,12,-1,14,16,-1,18,-1,20,22,24,26,28,-1,-1,-1,-1,-1,-1,-1,-1,-1,-1,-1],"split_conditions":[1.3373424E0,9.117501E2,1.4696382E0,8.5433185E2,9.185963E2,1.9447519E-2,4.0250163E0,-4.4987623E-6,1.9685556E2,2.2371386E-3,-6.6805874E-6,3.8661427E0,1.0358263E-2,7.269484E2,6.040274E-2,9.659258E-1,6.040274E-2,-7.0710677E-1,-6.377256E-3,-4.423524E-5,-2.4721432E-3,2.2204973E-2,-1.5091181E-3,1.1296928E-2,2.6785433E-3,-2.5268353E-4,1.7955423E-3,-9.158401E-6,3.8342953E-3],"split_indices":[0,6,0,8,6,0,0,0,7,3,0,0,0,6,0,1,0,2,0,0,0,0,0,0,0,0,0,0,0],"split_type":[0,0,0,0,0,0,0,0,0,0,0,0,0,0,0,0,0,0,0,0,0,0,0,0,0,0,0,0,0],"sum_hessian":[1.073E3,1.059E3,1.4E1,1.035E3,2.4E1,1E0,1.3E1,9.87E2,4.8E1,5E0,1.9E1,1.2E1,1E0,4.5E1,3E0,2E0,3E0,1.1E1,1E0,4.4E1,1E0,1E0,2E0,1E0,1E0,2E0,1E0,9E0,2E0],"tree_param":{"num_deleted":"0","num_feature":"12","num_nodes":"29","size_leaf_vector":"1"}},{"base_weights":[3.1184749E-4,1.6199161E-4,1.0880872E-2,8.173934E-5,3.481166E-3,1.6530383E-2,3.7864666E-3,-3.1504994E-6,1.939951E-3,1.4557932E-2,-4.7766193E-6,-4.3740124E-4,8.804512E-3,-4.0647274E-4,2.8438836E-2,2.6398102E-2,2.0383208E-3,2.5376335E-3,-5.420673E-3,-3.1259573E-5,-2.1013217E-3,1.8874241E-2,-1.2072921E-3,9.60238E-3,2.2767663E-3,-2.0214681E-4,1.5262128E-3,-6.685633E-6,3.067446E-3],"categories":[],"categories_nodes":[],"categories_segments":[],"categories_sizes":[],"default_left":[0,0,0,0,0,0,0,0,0,0,0,0,0,0,0,0,0,0,0,0,0,0,0,0,0,0,0,0,0],"id":22,"left_children":[1,3,5,7,9,-1,11,-1,13,15,-1,17,-1,19,21,23,25,27,-1,-1,-1,-1,-1,-1,-1,-1,-1,-1,-1],"loss_changes":[1.6992711E-3,2.8206903E-4,4.497123E-3,1.775942E-4,9.686424E-4,0E0,1.5244187E-3,0E0,3.0582626E-3,8.355981E-4,0E0,7.2775886E-4,0E0,9.101185E-5,4.7298917E-3,7.362873E-5,3.6505884E-5,2.3637075E-4,0E0,0E0,0E0,0E0,0E0,0E0,0E0,0E0,0E0,0E0,0E0],"parents":[2147483647,0,0,1,1,2,2,3,3,4,4,6,6,8,8,9,9,11,11,13,13,14,14,15,15,16,16,17,17],"right_children":[2,4,6,8,10,-1,12,-1,14,16,-1,18,-1,20,22,24,26,28,-1,-1,-1,-1,-1,-1,-1,-1,-1,-1,-1],"split_conditions":[1.3373424E0,9.117501E2,1.4696382E0,8.5433185E2,9.185963E2,1.6530383E-2,4.0250163E0,-3.1504994E-6,1.9685556E2,2.2371386E-3,-4.7766193E-6,3.8661427E0,8.804512E-3,7.269484E2,6.040274E-2,9.659258E-1,6.040274E-2,-7.0710677E-1,-5.420673E-3,-3.1259573E-5,-2.1013217E-3,1.8874241E-2,-1.2072921E-3,9.60238E-3,2.2767663E-3,-2.0214681E-4,1.5262128E-3,-6.685633E-6,3.067446E-3],"split_indices":[0,6,0,8,6,0,0,0,7,3,0,0,0,6,0,1,0,2,0,0,0,0,0,0,0,0,0,0,0],"split_type":[0,0,0,0,0,0,0,0,0,0,0,0,0,0,0,0,0,0,0,0,0,0,0,0,0,0,0,0,0],"sum_hessian":[1.073E3,1.059E3,1.4E1,1.035E3,2.4E1,1E0,1.3E1,9.87E2,4.8E1,5E0,1.9E1,1.2E1,1E0,4.5E1,3E0,2E0,3E0,1.1E1,1E0,4.4E1,1E0,1E0,2E0,1E0,1E0,2E0,1E0,9E0,2E0],"tree_param":{"num_deleted":"0","num_feature":"12","num_nodes":"29","size_leaf_vector":"1"}},{"base_weights":[2.6643564E-4,2.201861E-4,7.4838283E-3,1.326875E-4,5.99227E-3,7.237973E-5,2.7279316E-3,1.4693636E-4,1.4050842E-2,-2.1768572E-6,1.6749975E-3,1.3139609E-2,-3.415283E-6,2.351513E-3,-4.6075704E-3,-9.926742E-5,7.2971913E-3,8.162034E-3,8.463367E-4,-7.279767E-6,2.489108E-3],"categories":[],"categories_nodes":[],"categories_segments":[],"categories_sizes":[],"default_left":[0,0,0,0,0,0,0,0,0,0,0,0,0,0,0,0,0,0,0,0,0],"id":23,"left_children":[1,3,-1,5,7,9,11,13,-1,-1,15,17,-1,19,-1,-1,-1,-1,-1,-1,-1],"loss_changes":[1.2203952E-3,5.4112286E-4,0E0,1.6539375E-4,3.8130542E-3,1.32105E-4,6.8465056E-4,5.4886186E-4,0E0,0E0,2.2341833E-3,6.490059E-4,0E0,1.9795449E-4,0E0,0E0,0E0,0E0,0E0,0E0,0E0],"parents":[2147483647,0,0,1,1,3,3,4,4,5,5,6,6,7,7,10,10,11,11,13,13],"right_children":[2,4,-1,6,8,10,12,14,-1,-1,16,18,-1,20,-1,-1,-1,-1,-1,-1,-1],"split_conditions":[4.0250163E0,1.0092591E0,7.4838283E-3,9.117501E2,1.288492E2,8.5433185E2,9.185963E2,3.8661427E0,1.4050842E-2,-2.1768572E-6,1.9685556E2,9.659258E-1,-3.415283E-6,-7.0710677E-1,-4.6075704E-3,-9.926742E-5,7.2971913E-3,8.162034E-3,8.463367E-4,-7.279767E-6,2.489108E-3],"split_indices":[0,0,0,6,7,8,6,0,0,0,7,1,0,2,0,0,0,0,0,0,0],"split_type":[0,0,0,0,0,0,0,0,0,0,0,0,0,0,0,0,0,0,0,0,0],"sum_hessian":[1.073E3,1.072E3,1E0,1.057E3,1.5E1,1.034E3,2.3E1,1.4E1,1E0,9.86E2,4.8E1,4E0,1.9E1,1.3E1,1E0,4.5E1,3E0,1E0,3E0,1E1,3E0],"tree_param":{"num_deleted":"0","num_feature":"12","num_nodes":"21","size_leaf_vector":"1"}},{"base_weights":[2.19661E-4,1.8034245E-4,6.3612703E-3,1.0819366E-4,4.9399105E-3,1.3729741E-4,-2.2784912E-3,-3.884996E-5,1.1943198E-2,4.951633E-5,1.9384862E-3,1.8233362E-3,-3.9164186E-3,-1.5244616E-6,7.8397745E-4,-2.9193716E-5,1.4948524E-2,-5.294376E-6,1.9290627E-3],"categories":[],"categories_nodes":[],"categories_segments":[],"categories_sizes":[],"default_left":[0,0,0,0,0,0,0,0,0,0,0,0,0,0,0,0,0,0,0],"id":24,"left_children":[1,3,-1,5,7,9,-1,11,-1,13,15,17,-1,-1,-1,-1,-1,-1,-1],"loss_changes":[8.823151E-4,3.6793062E-4,0E0,2.3823683E-4,2.779356E-3,1.667104E-4,0E0,3.87373E-4,0E0,1.4096794E-4,4.7820667E-3,1.18849974E-4,0E0,0E0,0E0,0E0,0E0,0E0,0E0],"parents":[2147483647,0,0,1,1,3,3,4,4,5,5,7,7,9,9,10,10,11,11],"right_children":[2,4,-1,6,8,10,-1,12,-1,14,16,18,-1,-1,-1,-1,-1,-1,-1],"split_conditions":[4.0250163E0,1.0092591E0,6.3612703E-3,6.040274E-2,1.288492E2,8.5433185E2,-2.2784912E-3,3.8661427E0,1.1943198E-2,9.117501E2,1.9685556E2,-7.0710677E-1,-3.9164186E-3,-1.5244616E-6,7.8397745E-4,-2.9193716E-5,1.4948524E-2,-5.294376E-6,1.9290627E-3],"split_indices":[0,0,0,0,7,8,0,0,0,6,7,2,0,0,0,0,0,0,0],"split_type":[0,0,0,0,0,0,0,0,0,0,0,0,0,0,0,0,0,0,0],"sum_hessian":[1.073E3,1.072E3,1E0,1.057E3,1.5E1,1.054E3,3E0,1.4E1,1E0,1.006E3,4.8E1,1.3E1,1E0,9.86E2,2E1,4.7E1,1E0,1E1,3E0],"tree_param":{"num_deleted":"0","num_feature":"12","num_nodes":"19","size_leaf_vector":"1"}},{"base_weights":[1.8144933E-4,1.4802362E-4,5.4070833E-3,3.2601558E-5,2.3687389E-3,5.439132E-5,-3.3289434E-3,-1.4586988E-4,2.6538158E-2,-2.6732994E-7,2.4508026E-3,-1.7668541E-3,9.6487565E-5,-4.5145155E-4,1.0177535E-2,-7.80976E-5,3.0527161E-3,5.4128544E-5,-5.773103E-4],"categories":[],"categories_nodes":[],"categories_segments":[],"categories_sizes":[],"default_left":[0,0,0,0,0,0,0,0,0,0,0,0,0,0,0,0,0,0,0],"id":25,"left_children":[1,3,-1,5,7,9,-1,11,13,-1,15,-1,17,-1,-1,-1,-1,-1,-1],"loss_changes":[6.378513E-4,2.7495367E-4,0E0,2.48196E-4,3.2250327E-3,1.3513118E-4,0E0,6.877699E-5,1.0868141E-3,0E0,4.843435E-4,0E0,8.4895655E-6,0E0,0E0,0E0,0E0,0E0,0E0],"parents":[2147483647,0,0,1,1,3,3,4,4,5,5,7,7,8,8,10,10,12,12],"right_children":[2,4,-1,6,8,10,-1,12,14,-1,16,-1,18,-1,-1,-1,-1,-1,-1],"split_conditions":[4.0250163E0,8.5433185E2,5.4070833E-3,3.8661427E0,1.9685556E2,9.117501E2,-3.3289434E-3,8.5504266E2,8.660254E-1,-2.6732994E-7,1.0828701E2,-1.7668541E-3,6.040274E-2,-4.5145155E-4,1.0177535E-2,-7.80976E-5,3.0527161E-3,5.4128544E-5,-5.773103E-4],"split_indices":[0,8,0,0,7,6,0,8,1,0,11,0,0,0,0,0,0,0,0],"split_type":[0,0,0,0,0,0,0,0,0,0,0,0,0,0,0,0,0,0,0],"sum_hessian":[1.073E3,1.072E3,1E0,1.02E3,5.2E1,1.019E3,1E0,4.8E1,4E0,9.97E2,2.2E1,1E0,4.7E1,1E0,3E0,1.7E1,5E0,4.6E1,1E0],"tree_param":{"num_deleted":"0","num_feature":"12","num_nodes":"19","size_leaf_vector":"1"}},{"base_weights":[1.3864241E-4,1.1021605E-4,4.596019E-3,1.279158E-4,-2.8295876E-3,6.322785E-5,5.392632E-3,9.3486604E-5,-5.2678073E-3,8.62509E-3,1.0503015E-3,8.377274E-6,4.3168568E-4,-4.0295366E-3,-2.8459608E-4,-1.4133136E-6,1.2650728E-3],"categories":[],"categories_nodes":[],"categories_segments":[],"categories_sizes":[],"default_left":[0,0,0,0,0,0,0,0,0,0,0,0,0,0,0,0,0],"id":26,"left_children":[1,3,-1,5,-1,7,9,11,13,-1,15,-1,-1,-1,-1,-1,-1],"loss_changes":[4.6179886E-4,1.8242987E-4,0E0,3.6474332E-4,0E0,1.7148154E-4,1.2883509E-3,9.3023365E-5,1.9882679E-4,0E0,4.01096E-5,0E0,0E0,0E0,0E0,0E0,0E0],"parents":[2147483647,0,0,1,1,3,3,5,5,6,6,7,7,8,8,10,10],"right_children":[2,4,-1,6,-1,8,10,12,14,-1,16,-1,-1,-1,-1,-1,-1],"split_conditions":[4.0250163E0,3.8661427E0,4.596019E-3,1.3373424E0,-2.8295876E-3,6.040274E-2,1.4696382E0,8.5433185E2,1.1927145E-1,8.62509E-3,-7.0710677E-1,8.377274E-6,4.3168568E-4,-4.0295366E-3,-2.8459608E-4,-1.4133136E-6,1.2650728E-3],"split_indices":[0,0,0,0,0,0,0,8,0,0,2,0,0,0,0,0,0],"split_type":[0,0,0,0,0,0,0,0,0,0,0,0,0,0,0,0,0],"sum_hessian":[1.073E3,1.072E3,1E0,1.071E3,1E0,1.059E3,1.2E1,1.054E3,5E0,1E0,1.1E1,1.006E3,4.8E1,1E0,4E0,9E0,2E0],"tree_param":{"num_deleted":"0","num_feature":"12","num_nodes":"17","size_leaf_vector":"1"}},{"base_weights":[1.0429474E-4,8.011969E-5,3.9066197E-3,9.515185E-5,-2.4051548E-3,4.0604697E-5,4.5355237E-3,6.585772E-5,-4.4064857E-3,7.331336E-3,8.4051996E-4,5.866607E-6,3.0482237E-4,-3.4251094E-3,-2.162911E-4,3.9955197E-5,1.2931824E-3],"categories":[],"categories_nodes":[],"categories_segments":[],"categories_sizes":[],"default_left":[0,0,0,0,0,0,0,0,0,0,0,0,0,0,0,0,0],"id":27,"left_children":[1,3,-1,5,-1,7,9,11,13,-1,15,-1,-1,-1,-1,-1,-1],"loss_changes":[3.3435383E-4,1.3136842E-4,0E0,2.594646E-4,0E0,1.1933081E-4,9.3546574E-4,4.6397265E-5,1.4679352E-4,0E0,2.8880115E-5,0E0,0E0,0E0,0E0,0E0,0E0],"parents":[2147483647,0,0,1,1,3,3,5,5,6,6,7,7,8,8,10,10],"right_children":[2,4,-1,6,-1,8,10,12,14,-1,16,-1,-1,-1,-1,-1,-1],"split_conditions":[4.0250163E0,3.8661427E0,3.9066197E-3,1.3373424E0,-2.4051548E-3,6.040274E-2,1.4696382E0,8.5433185E2,1.1927145E-1,7.331336E-3,7.0710677E-1,5.866607E-6,3.0482237E-4,-3.4251094E-3,-2.162911E-4,3.9955197E-5,1.2931824E-3],"split_indices":[0,0,0,0,0,0,0,8,0,0,1,0,0,0,0,0,0],"split_type":[0,0,0,0,0,0,0,0,0,0,0,0,0,0,0,0,0],"sum_hessian":[1.073E3,1.072E3,1E0,1.071E3,1E0,1.059E3,1.2E1,1.054E3,5E0,1E0,1.1E1,1.006E3,4.8E1,1E0,4E0,1E1,1E0],"tree_param":{"num_deleted":"0","num_feature":"12","num_nodes":"17","size_leaf_vector":"1"}},{"base_weights":[7.937024E-5,5.8812893E-5,3.3206106E-3,7.158156E-5,-2.0443797E-3,2.5280857E-5,3.8413634E-3,4.6394718E-5,-3.6914533E-3,6.23163E-3,6.9946045E-4,-7.2747944E-6,1.9981884E-4,-2.9113414E-3,-1.6438667E-4,2.9058872E-5,1.0992051E-3],"categories":[],"categories_nodes":[],"categories_segments":[],"categories_sizes":[],"default_left":[0,0,0,0,0,0,0,0,0,0,0,0,0,0,0,0,0],"id":28,"left_children":[1,3,-1,5,-1,7,9,11,13,-1,15,-1,-1,-1,-1,-1,-1],"loss_changes":[2.4197796E-4,9.46589E-5,0E0,1.8701357E-4,0E0,8.3354345E-5,6.7700224E-4,4.619967E-5,1.0809382E-4,0E0,2.1082304E-5,0E0,0E0,0E0,0E0,0E0,0E0],"parents":[2147483647,0,0,1,1,3,3,5,5,6,6,7,7,8,8,10,10],"right_children":[2,4,-1,6,-1,8,10,12,14,-1,16,-1,-1,-1,-1,-1,-1],"split_conditions":[4.0250163E0,3.8661427E0,3.3206106E-3,1.3373424E0,-2.0443797E-3,6.040274E-2,1.4696382E0,2.4863153E2,1.1927145E-1,6.23163E-3,7.0710677E-1,-7.2747944E-6,1.9981884E-4,-2.9113414E-3,-1.6438667E-4,2.9058872E-5,1.0992051E-3],"split_indices":[0,0,0,0,0,0,0,7,0,0,1,0,0,0,0,0,0],"split_type":[0,0,0,0,0,0,0,0,0,0,0,0,0,0,0,0,0],"sum_hessian":[1.073E3,1.072E3,1E0,1.071E3,1E0,1.059E3,1.2E1,1.054E3,5E0,1E0,1.1E1,9.47E2,1.07E2,1E0,4E0,1E1,1E0],"tree_param":{"num_deleted":"0","num_feature":"12","num_nodes":"17","size_leaf_vector":"1"}},{"base_weights":[6.0915852E-5,4.343608E-5,2.8225065E-3,5.428328E-5,-1.7377139E-3,1.4976625E-5,3.2551116E-3,3.2658936E-5,-3.0966594E-3,5.296898E-3,5.836499E-4,-1.706151E-5,1.1795519E-4,-2.474642E-3,-1.2494068E-4,-1.9665516E-5,7.659316E-4],"categories":[],"categories_nodes":[],"categories_segments":[],"categories_sizes":[],"default_left":[0,0,0,0,0,0,0,0,0,0,0,0,0,0,0,0,0],"id":29,"left_children":[1,3,-1,5,-1,7,9,11,13,-1,15,-1,-1,-1,-1,-1,-1],"loss_changes":[1.7507336E-4,6.8237736E-5,0E0,1.3482371E-4,0E0,5.8423313E-5,4.898347E-4,3.4075685E-5,7.9417034E-5,0E0,1.5510244E-5,0E0,0E0,0E0,0E0,0E0,0E0],"parents":[2147483647,0,0,1,1,3,3,5,5,6,6,7,7,8,8,10,10],"right_children":[2,4,-1,6,-1,8,10,12,14,-1,16,-1,-1,-1,-1,-1,-1],"split_conditions":[4.0250163E0,3.8661427E0,2.8225065E-3,1.3373424E0,-1.7377139E-3,6.040274E-2,1.4696382E0,8.660254E-1,1.1927145E-1,5.296898E-3,-7.0710677E-1,-1.706151E-5,1.1795519E-4,-2.474642E-3,-1.2494068E-4,-1.9665516E-5,7.659316E-4],"split_indices":[0,0,0,0,0,0,0,1,0,0,2,0,0,0,0,0,0],"split_type":[0,0,0,0,0,0,0,0,0,0,0,0,0,0,0,0,0],"sum_hessian":[1.073E3,1.072E3,1E0,1.071E3,1E0,1.059E3,1.2E1,1.054E3,5E0,1E0,1.1E1,8.45E2,2.09E2,1E0,4E0,9E0,2E0],"tree_param":{"num_deleted":"0","num_feature":"12","num_nodes":"17","size_leaf_vector":"1"}},{"base_weights":[4.695131E-5,3.208891E-5,2.3991466E-3,5.621044E-6,1.7802708E-3,2.2956827E-5,-4.568097E-3,-1.020916E-4,4.502356E-3,-2.5824763E-6,1.1201904E-3,-2.10346E-3,-4.2493225E-4,5.9396797E-4,-1.477039E-3,-1.2145175E-5,2.4321202E-4,2.9125889E-3,-3.2487864E-4,2.2118998E-5,7.4307923E-4],"categories":[],"categories_nodes":[],"categories_segments":[],"categories_sizes":[],"default_left":[0,0,0,0,0,0,0,0,0,0,0,0,0,0,0,0,0,0,0,0,0],"id":30,"left_children":[1,3,-1,5,7,9,11,13,-1,15,17,-1,-1,19,-1,-1,-1,-1,-1,-1,-1],"loss_changes":[1.266463E-4,4.963839E-5,0E0,8.3992614E-5,3.9991786E-4,2.9566716E-5,2.087206E-5,5.32638E-5,0E0,3.1844043E-5,4.6462624E-4,0E0,0E0,1.3531617E-5,0E0,0E0,0E0,0E0,0E0,0E0,0E0],"parents":[2147483647,0,0,1,1,3,3,4,4,5,5,6,6,7,7,9,9,10,10,13,13],"right_children":[2,4,-1,6,8,10,12,14,-1,16,18,-1,-1,20,-1,-1,-1,-1,-1,-1,-1],"split_conditions":[4.0250163E0,1.0092591E0,2.3991466E-3,6.040274E-2,1.288492E2,9.117501E2,1.1927145E-1,3.8661427E0,4.502356E-3,8.5433185E2,9.185963E2,-2.10346E-3,-4.2493225E-4,7.0710677E-1,-1.477039E-3,-1.2145175E-5,2.4321202E-4,2.9125889E-3,-3.2487864E-4,2.2118998E-5,7.4307923E-4],"split_indices":[0,0,0,0,7,6,0,0,0,8,6,0,0,1,0,0,0,0,0,0,0],"split_type":[0,0,0,0,0,0,0,0,0,0,0,0,0,0,0,0,0,0,0,0,0],"sum_hessian":[1.073E3,1.072E3,1E0,1.057E3,1.5E1,1.054E3,3E0,1.4E1,1E0,1.031E3,2.3E1,1E0,2E0,1.3E1,1E0,9.86E2,4.5E1,4E0,1.9E1,1.1E1,2E0],"tree_param":{"num_deleted":"0","num_feature":"12","num_nodes":"21","size_leaf_vector":"1"}},{"base_weights":[3.8899445E-5,2.6265518E-5,2.0392658E-3,6.7366454E-5,-2.5021052E-4,-6.5363465E-6,1.51448455E-2,1.663052E-6,-1.2554885E-3,2.17067E-2,-1.6653861E-3,-8.2187635E-6,3.7874866E-4,1.0984934E-2,1.3593913E-3],"categories":[],"categories_nodes":[],"categories_segments":[],"categories_sizes":[],"default_left":[0,0,0,0,0,0,0,0,0,0,0,0,0,0,0],"id":31,"left_children":[1,3,-1,5,-1,7,9,11,-1,13,-1,-1,-1,-1,-1],"loss_changes":[9.152853E-5,3.7996564E-5,0E0,1.1422237E-3,0E0,3.4987002E-5,7.9952506E-4,3.74058E-5,0E0,8.584028E-4,0E0,0E0,0E0,0E0,0E0],"parents":[2147483647,0,0,1,1,3,3,5,5,6,6,7,7,9,9],"right_children":[2,4,-1,6,-1,8,10,12,-1,14,-1,-1,-1,-1,-1],"split_conditions":[4.0250163E0,8.5504266E2,2.0392658E-3,8.5433185E2,-2.5021052E-4,3.8661427E0,4.6650375E2,9.117501E2,-1.2554885E-3,6.040274E-2,-1.6653861E-3,-8.2187635E-6,3.7874866E-4,1.0984934E-2,1.3593913E-3],"split_indices":[0,8,0,8,0,0,6,6,0,0,0,0,0,0,0],"split_type":[0,0,0,0,0,0,0,0,0,0,0,0,0,0,0],"sum_hessian":[1.073E3,1.072E3,1E0,1.024E3,4.8E1,1.02E3,4E0,1.019E3,1E0,3E0,1E0,9.97E2,2.2E1,1E0,2E0],"tree_param":{"num_deleted":"0","num_feature":"12","num_nodes":"15","size_leaf_vector":"1"}},{"base_weights":[3.8014532E-5,7.400132E-6,2.198898E-3,2.1318725E-5,-2.441186E-3,3.6231282E-3,6.30663E-4,4.178232E-5,-1.0397614E-3,-1.9918443E-3,-2.7363093E-4,-2.0974061E-4,1.7333865E-3,7.66352E-6,7.0755463E-3,-2.1699113E-4,-7.7757606E-4,-2.8989784E-4,1.5308236E-4,3.6564854E-4,-1.0671616E-3,-6.0421826E-6,1.8122303E-4,4.6931864E-3,-1.1554132E-3,1.2789653E-6,6.511331E-4],"categories":[],"categories_nodes":[],"categories_segments":[],"categories_sizes":[],"default_left":[0,0,0,0,0,0,0,0,0,0,0,0,0,0,0,0,0,0,0,0,0,0,0,0,0,0,0],"id":32,"left_children":[1,3,5,7,9,-1,11,13,15,-1,17,19,-1,21,23,-1,-1,-1,-1,25,-1,-1,-1,-1,-1,-1,-1],"loss_changes":[7.103329E-5,3.617777E-5,2.2475336E-4,2.29512E-5,5.278344E-5,0E0,6.1773106E-5,2.4856877E-4,7.949104E-6,0E0,3.2081293E-6,2.633992E-5,0E0,1.7125565E-5,5.2838254E-4,0E0,0E0,0E0,0E0,7.817464E-6,0E0,0E0,0E0,0E0,0E0,0E0,0E0],"parents":[2147483647,0,0,1,1,2,2,3,3,4,4,6,6,7,7,8,8,10,10,11,11,13,13,14,14,19,19],"right_children":[2,4,6,8,10,-1,12,14,16,-1,18,20,-1,22,24,-1,-1,-1,-1,26,-1,-1,-1,-1,-1,-1,-1],"split_conditions":[1.3373424E0,6.040274E-2,1.4696382E0,9.185963E2,1.1927145E-1,3.6231282E-3,4.0250163E0,9.117501E2,1.4999E2,-1.9918443E-3,1.0092591E0,3.8661427E0,1.7333865E-3,8.5433185E2,2.2371386E-3,-2.1699113E-4,-7.7757606E-4,-2.8989784E-4,1.5308236E-4,7.0710677E-1,-1.0671616E-3,-6.0421826E-6,1.8122303E-4,4.6931864E-3,-1.1554132E-3,1.2789653E-6,6.511331E-4],"split_indices":[0,0,0,6,0,0,0,6,5,0,0,0,0,8,3,0,0,0,0,1,0,0,0,0,0,0,0],"split_type":[0,0,0,0,0,0,0,0,0,0,0,0,0,0,0,0,0,0,0,0,0,0,0,0,0,0,0],"sum_hessian":[1.073E3,1.059E3,1.4E1,1.054E3,5E0,1E0,1.3E1,1.035E3,1.9E1,1E0,4E0,1.2E1,1E0,1.031E3,4E0,1.7E1,2E0,2E0,2E0,1.1E1,1E0,9.86E2,4.5E1,2E0,2E0,1E1,1E0],"tree_param":{"num_deleted":"0","num_feature":"12","num_nodes":"27","size_leaf_vector":"1"}},{"base_weights":[3.1760632E-5,5.7363623E-6,1.8686916E-3,4.1007854E-5,-7.22845E-4,3.0796768E-3,5.35657E-4,3.357572E-7,1.0290293E-2,-2.2914147E-4,-2.132847E-5,-1.7872381E-4,1.4733911E-3,1.5715636E-5,-8.980498E-4,1.7482795E-2,-1.6930819E-3,3.1031994E-4,-9.0708735E-4,-4.065594E-6,1.4497491E-3,-1.8092478E-4,-6.220608E-4,9.310019E-3,-1.4427616E-3,9.292741E-7,5.534649E-4],"categories":[],"categories_nodes":[],"categories_segments":[],"categories_sizes":[],"default_left":[0,0,0,0,0,0,0,0,0,0,0,0,0,0,0,0,0,0,0,0,0,0,0,0,0,0,0],"id":33,"left_children":[1,3,5,7,9,-1,11,13,15,-1,-1,17,-1,19,21,23,-1,25,-1,-1,-1,-1,-1,-1,-1,-1,-1],"loss_changes":[5.1331626E-5,2.7269683E-5,1.624015E-4,4.2185877E-4,1.2537839E-6,0E0,4.4640055E-5,1.3955528E-5,5.5708434E-4,0E0,0E0,1.9024943E-5,0E0,1.4005436E-4,4.6438945E-6,1.055456E-3,0E0,5.65171E-6,0E0,0E0,0E0,0E0,0E0,0E0,0E0,0E0,0E0],"parents":[2147483647,0,0,1,1,2,2,3,3,4,4,6,6,7,7,8,8,11,11,13,13,14,14,15,15,17,17],"right_children":[2,4,6,8,10,-1,12,14,16,-1,-1,18,-1,20,22,24,-1,26,-1,-1,-1,-1,-1,-1,-1,-1,-1],"split_conditions":[1.3373424E0,8.5504266E2,1.4696382E0,8.5433185E2,7.269484E2,3.0796768E-3,4.0250163E0,9.185963E2,6.040274E-2,-2.2914147E-4,-2.132847E-5,3.8661427E0,1.4733911E-3,9.117501E2,1.4999E2,4.6650375E2,-1.6930819E-3,7.0710677E-1,-9.0708735E-4,-4.065594E-6,1.4497491E-3,-1.8092478E-4,-6.220608E-4,9.310019E-3,-1.4427616E-3,9.292741E-7,5.534649E-4],"split_indices":[0,8,0,8,6,0,0,6,0,0,0,0,0,6,5,6,0,1,0,0,0,0,0,0,0,0,0],"split_type":[0,0,0,0,0,0,0,0,0,0,0,0,0,0,0,0,0,0,0,0,0,0,0,0,0,0,0],"sum_hessian":[1.073E3,1.059E3,1.4E1,1.011E3,4.8E1,1E0,1.3E1,1.008E3,3E0,4.5E1,3E0,1.2E1,1E0,9.92E2,1.6E1,2E0,1E0,1.1E1,1E0,9.87E2,5E0,1.4E1,2E0,1E0,1E0,1E1,1E0],"tree_param":{"num_deleted":"0","num_feature":"12","num_nodes":"27","size_leaf_vector":"1"}},{"base_weights":[3.225713E-5,1.0210002E-5,1.5881036E-3,2.1325865E-5,-1.9460309E-3,2.617693E-3,4.5501906E-4,4.527449E-5,-1.479777E-4,-1.4391304E-3,-1.2491898E-4,-1.5222411E-4,1.252377E-3,1.0931694E-6,1.48603795E-2,2.634294E-4,-7.7100995E-4,2.574747E-5,-4.0806306E-5,7.913519E-3,-1.2263474E-3,6.7517107E-7,4.704595E-4],"categories":[],"categories_nodes":[],"categories_segments":[],"categories_sizes":[],"default_left":[0,0,0,0,0,0,0,0,0,0,0,0,0,0,0,0,0,0,0,0,0,0,0],"id":34,"left_children":[1,3,5,7,9,-1,11,13,-1,-1,-1,15,-1,17,19,21,-1,-1,-1,-1,-1,-1,-1],"loss_changes":[3.682407E-5,2.3091525E-5,1.173412E-4,1.3023729E-5,2.416907E-5,0E0,3.2257052E-5,6.604256E-4,0E0,0E0,0E0,1.3741643E-5,0E0,1.171092E-5,7.625673E-4,4.0858067E-6,0E0,0E0,0E0,0E0,0E0,0E0,0E0],"parents":[2147483647,0,0,1,1,2,2,3,3,4,4,6,6,7,7,11,11,13,13,14,14,15,15],"right_children":[2,4,6,8,10,-1,12,14,-1,-1,-1,16,-1,18,20,22,-1,-1,-1,-1,-1,-1,-1],"split_conditions":[1.3373424E0,6.040274E-2,1.4696382E0,8.5504266E2,1.1927145E-1,2.617693E-3,4.0250163E0,8.5433185E2,-1.479777E-4,-1.4391304E-3,-1.2491898E-4,3.8661427E0,1.252377E-3,9.8874596E1,4.6650375E2,7.0710677E-1,-7.7100995E-4,2.574747E-5,-4.0806306E-5,7.913519E-3,-1.2263474E-3,6.7517107E-7,4.704595E-4],"split_indices":[0,0,0,8,0,0,0,8,0,0,0,0,0,7,6,1,0,0,0,0,0,0,0],"split_type":[0,0,0,0,0,0,0,0,0,0,0,0,0,0,0,0,0,0,0,0,0,0,0],"sum_hessian":[1.073E3,1.059E3,1.4E1,1.054E3,5E0,1E0,1.3E1,1.008E3,4.6E1,1E0,4E0,1.2E1,1E0,1.006E3,2E0,1.1E1,1E0,6.22E2,3.84E2,1E0,1E0,1E1,1E0],"tree_param":{"num_deleted":"0","num_feature":"12","num_nodes":"23","size_leaf_vector":"1"}},{"base_weights":[3.0522297E-5,1.1826214E-5,1.3496772E-3,2.1112015E-5,-1.6228983E-3,2.2250176E-3,3.8655056E-4,7.502274E-7,4.391367E-4,-1.2232661E-3,-9.493694E-5,-1.2961996E-4,1.0645152E-3,3.2248932E-5,-2.3456993E-4,-4.859479E-4,6.7264796E-3,2.2366342E-4,-6.5535307E-4,1.442756E-6,6.111709E-4,-4.0647774E-5,-1.2061192E-3,-1.0423952E-3,-1.0452893E-4,-1.8887413E-5,3.3135415E-4],"categories":[],"categories_nodes":[],"categories_segments":[],"categories_sizes":[],"default_left":[0,0,0,0,0,0,0,0,0,0,0,0,0,0,0,0,0,0,0,0,0,0,0,0,0,0,0],"id":35,"left_children":[1,3,5,7,9,-1,11,13,15,-1,-1,17,-1,19,21,23,-1,25,-1,-1,-1,-1,-1,-1,-1,-1,-1],"loss_changes":[2.647213E-5,1.6124774E-5,8.478309E-5,8.979546E-6,1.7950822E-5,0E0,2.3308574E-5,7.4717304E-6,1.007342E-3,0E0,0E0,9.926057E-6,0E0,4.889973E-5,4.4090946E-5,1.8517374E-5,0E0,3.0991855E-6,0E0,0E0,0E0,0E0,0E0,0E0,0E0,0E0,0E0],"parents":[2147483647,0,0,1,1,2,2,3,3,4,4,6,6,7,7,8,8,11,11,13,13,14,14,15,15,17,17],"right_children":[2,4,6,8,10,-1,12,14,16,-1,-1,18,-1,20,22,24,-1,26,-1,-1,-1,-1,-1,-1,-1,-1,-1],"split_conditions":[1.3373424E0,6.040274E-2,1.4696382E0,8.5433185E2,1.1927145E-1,2.2250176E-3,4.0250163E0,9.659258E-1,1.9685556E2,-1.2232661E-3,-9.493694E-5,3.8661427E0,1.0645152E-3,8.894535E2,8.462E1,8.5504266E2,6.7264796E-3,-7.0710677E-1,-6.5535307E-4,1.442756E-6,6.111709E-4,-4.0647774E-5,-1.2061192E-3,-1.0423952E-3,-1.0452893E-4,-1.8887413E-5,3.3135415E-4],"split_indices":[0,0,0,8,0,0,0,1,7,0,0,0,0,6,5,8,0,2,0,0,0,0,0,0,0,0,0],"split_type":[0,0,0,0,0,0,0,0,0,0,0,0,0,0,0,0,0,0,0,0,0,0,0,0,0,0,0],"sum_hessian":[1.073E3,1.059E3,1.4E1,1.054E3,5E0,1E0,1.3E1,1.006E3,4.8E1,1E0,4E0,1.2E1,1E0,8.88E2,1.18E2,4.7E1,1E0,1.1E1,1E0,8.77E2,1.1E1,1.16E2,2E0,1E0,4.6E1,9E0,2E0],"tree_param":{"num_deleted":"0","num_feature":"12","num_nodes":"27","size_leaf_vector":"1"}},{"base_weights":[2.7486585E-5,1.0997684E-5,1.117128E-3,1.9466075E-5,-1.7780325E-3,3.5103457E-4,1.8912792E-3,3.568581E-5,-8.2168943E-4,-1.0397673E-3,-1.4687858E-4,-5.4765E-5,9.048343E-4,1.3940713E-5,5.6424355E-3,-1.2422791E-3,-5.0881343E-5,2.2668444E-4,-5.570412E-4,-1.7319957E-6,1.3111824E-4,4.832804E-3,-9.648953E-4,-2.6370402E-4,-6.117216E-4,1.5307576E-5,3.5018922E-4],"categories":[],"categories_nodes":[],"categories_segments":[],"categories_sizes":[],"default_left":[0,0,0,0,0,0,0,0,0,0,0,0,0,0,0,0,0,0,0,0,0,0,0,0,0,0,0],"id":36,"left_children":[1,3,5,7,9,11,-1,13,15,-1,-1,17,-1,19,21,23,-1,25,-1,-1,-1,-1,-1,-1,-1,-1,-1],"loss_changes":[1.928426E-5,1.6078684E-5,6.136828E-5,1.4423024E-5,9.176614E-6,1.6387501E-5,0E0,1.2622976E-4,5.274507E-6,0E0,0E0,7.521468E-6,0E0,8.619191E-6,4.2270796E-4,1.6809972E-6,0E0,2.0883933E-6,0E0,0E0,0E0,0E0,0E0,0E0,0E0,0E0,0E0],"parents":[2147483647,0,0,1,1,2,2,3,3,4,4,5,5,7,7,8,8,11,11,13,13,14,14,15,15,17,17],"right_children":[2,4,6,8,10,12,-1,14,16,-1,-1,18,-1,20,22,24,-1,26,-1,-1,-1,-1,-1,-1,-1,-1,-1],"split_conditions":[1.1203837E0,6.040274E-2,8.660254E-1,9.185963E2,1.1927145E-1,4.0250163E0,1.8912792E-3,9.1501776E2,6.8902814E2,-1.0397673E-3,-1.4687858E-4,3.8661427E0,9.048343E-4,8.5433185E2,9.659258E-1,1.4999E2,-5.0881343E-5,7.0710677E-1,-5.570412E-4,-1.7319957E-6,1.3111824E-4,4.832804E-3,-9.648953E-4,-2.6370402E-4,-6.117216E-4,1.5307576E-5,3.5018922E-4],"split_indices":[0,0,1,6,0,0,0,6,8,0,0,0,0,8,1,5,0,1,0,0,0,0,0,0,0,0,0],"split_type":[0,0,0,0,0,0,0,0,0,0,0,0,0,0,0,0,0,0,0,0,0,0,0,0,0,0,0],"sum_hessian":[1.073E3,1.058E3,1.5E1,1.054E3,4E0,1.4E1,1E0,1.035E3,1.9E1,1E0,3E0,1.3E1,1E0,1.032E3,3E0,1.1E1,8E0,1.2E1,1E0,9.87E2,4.5E1,1E0,2E0,9E0,2E0,1.1E1,1E0],"tree_param":{"num_deleted":"0","num_feature":"12","num_nodes":"27","size_leaf_vector":"1"}},{"base_weights":[2.342036E-5,9.477791E-6,9.447804E-4,1.653724E-5,-1.4819618E-3,2.9327295E-4,1.6076089E-3,2.883856E-5,-6.21498E-4,-8.838058E-4,-1.138328E-4,-5.2023974E-5,7.6911453E-4,9.883795E-6,4.916697E-3,-4.1867705E-4,-4.8937724E-4,1.8679434E-4,-4.7349933E-4,8.470617E-6,-1.2097552E-4,4.1078925E-3,-7.7191624E-4,-1.6451915E-4,5.173273E-5,1.1099214E-5,2.976537E-4],"categories":[],"categories_nodes":[],"categories_segments":[],"categories_sizes":[],"default_left":[0,0,0,0,0,0,0,0,0,0,0,0,0,0,0,0,0,0,0,0,0,0,0,0,0,0,0],"id":37,"left_children":[1,3,5,7,9,11,-1,13,15,-1,-1,17,-1,19,21,23,-1,25,-1,-1,-1,-1,-1,-1,-1,-1,-1],"loss_changes":[1.3787785E-5,1.1174447E-5,4.443962E-5,8.298275E-6,6.9529106E-6,1.1893025E-5,0E0,9.593494E-5,3.4130362E-6,0E0,0E0,5.3979643E-6,0E0,7.843278E-6,2.9816132E-4,1.474808E-6,0E0,1.531666E-6,0E0,0E0,0E0,0E0,0E0,0E0,0E0,0E0,0E0],"parents":[2147483647,0,0,1,1,2,2,3,3,4,4,5,5,7,7,8,8,11,11,13,13,14,14,15,15,17,17],"right_children":[2,4,6,8,10,12,-1,14,16,-1,-1,18,-1,20,22,24,-1,26,-1,-1,-1,-1,-1,-1,-1,-1,-1],"split_conditions":[1.1203837E0,6.040274E-2,8.660254E-1,9.185963E2,1.1927145E-1,4.0250163E0,1.6076089E-3,9.1501776E2,1.4999E2,-8.838058E-4,-1.138328E-4,3.8661427E0,7.6911453E-4,8.5504266E2,9.659258E-1,7.644493E2,-4.8937724E-4,7.0710677E-1,-4.7349933E-4,8.470617E-6,-1.2097552E-4,4.1078925E-3,-7.7191624E-4,-1.6451915E-4,5.173273E-5,1.1099214E-5,2.976537E-4],"split_indices":[0,0,1,6,0,0,0,6,5,0,0,0,0,8,1,8,0,1,0,0,0,0,0,0,0,0,0],"split_type":[0,0,0,0,0,0,0,0,0,0,0,0,0,0,0,0,0,0,0,0,0,0,0,0,0,0,0],"sum_hessian":[1.073E3,1.058E3,1.5E1,1.054E3,4E0,1.4E1,1E0,1.035E3,1.9E1,1E0,3E0,1.3E1,1E0,1.032E3,3E0,1.7E1,2E0,1.2E1,1E0,9.89E2,4.3E1,1E0,2E0,1.4E1,3E0,1.1E1,1E0],"tree_param":{"num_deleted":"0","num_feature":"12","num_nodes":"27","size_leaf_vector":"1"}},{"base_weights":[1.9965653E-5,8.167429E-6,7.996128E-4,1.4060564E-5,-1.2369176E-3,2.455887E-4,1.3664961E-3,-5.0546496E-6,4.0661078E-4,-7.5123314E-4,-8.822755E-5,-4.8175807E-5,6.5374374E-4,4.790791E-6,-5.786886E-4,-3.7610525E-4,5.696547E-3,1.545155E-4,-4.0247443E-4,-3.7515165E-6,1.2827001E-3,-1.1845377E-4,-3.9150182E-4,-9.0697425E-4,-7.66376E-5,8.047249E-6,2.5302172E-4],"categories":[],"categories_nodes":[],"categories_segments":[],"categories_sizes":[],"default_left":[0,0,0,0,0,0,0,0,0,0,0,0,0,0,0,0,0,0,0,0,0,0,0,0,0,0,0],"id":38,"left_children":[1,3,5,7,9,11,-1,13,15,-1,-1,17,-1,19,21,23,-1,25,-1,-1,-1,-1,-1,-1,-1,-1,-1],"loss_changes":[9.872606E-6,7.787756E-6,3.217043E-5,7.918439E-6,5.2372716E-6,8.625138E-6,0E0,5.6899853E-6,7.198141E-4,0E0,0E0,3.877564E-6,0E0,7.325707E-5,1.7547018E-6,1.4557383E-5,0E0,1.1209253E-6,0E0,0E0,0E0,0E0,0E0,0E0,0E0,0E0,0E0],"parents":[2147483647,0,0,1,1,2,2,3,3,4,4,5,5,7,7,8,8,11,11,13,13,14,14,15,15,17,17],"right_children":[2,4,6,8,10,12,-1,14,16,-1,-1,18,-1,20,22,24,-1,26,-1,-1,-1,-1,-1,-1,-1,-1,-1],"split_conditions":[1.1203837E0,6.040274E-2,8.660254E-1,8.5433185E2,1.1927145E-1,4.0250163E0,1.3664961E-3,9.185963E2,1.9685556E2,-7.5123314E-4,-8.822755E-5,3.8661427E0,6.5374374E-4,9.1501776E2,1.4999E2,8.5504266E2,5.696547E-3,7.0710677E-1,-4.0247443E-4,-3.7515165E-6,1.2827001E-3,-1.1845377E-4,-3.9150182E-4,-9.0697425E-4,-7.66376E-5,8.047249E-6,2.5302172E-4],"split_indices":[0,0,1,8,0,0,0,6,7,0,0,0,0,6,5,8,0,1,0,0,0,0,0,0,0,0,0],"split_type":[0,0,0,0,0,0,0,0,0,0,0,0,0,0,0,0,0,0,0,0,0,0,0,0,0,0,0],"sum_hessian":[1.073E3,1.058E3,1.5E1,1.054E3,4E0,1.4E1,1E0,1.006E3,4.8E1,1E0,3E0,1.3E1,1E0,9.9E2,1.6E1,4.7E1,1E0,1.2E1,1E0,9.87E2,3E0,1.4E1,2E0,1E0,4.6E1,1.1E1,1E0],"tree_param":{"num_deleted":"0","num_feature":"12","num_nodes":"27","size_leaf_vector":"1"}},{"base_weights":[2.0047766E-5,1.062312E-7,4.042025E-4,-3.5220173E-6,5.556822E-4,-2.926323E-4,7.1523427E-3,1.9382394E-5,-5.980618E-5,-7.7092816E-4,-5.7496636E-5,4.842067E-3,8.703172E-4,2.8961096E-5,-4.338533E-4,-1.4206966E-3,1.1615038E-3,3.714025E-6,7.467535E-4,-4.6252633E-5,-3.558349E-4,-6.3854456E-4,-7.6889995E-7],"categories":[],"categories_nodes":[],"categories_segments":[],"categories_sizes":[],"default_left":[0,0,0,0,0,0,0,0,0,0,0,0,0,0,0,0,0,0,0,0,0,0,0],"id":39,"left_children":[1,3,5,7,-1,9,11,13,-1,-1,-1,-1,15,17,19,21,-1,-1,-1,-1,-1,-1,-1],"loss_changes":[8.227479E-6,6.874491E-6,2.5131696E-4,4.583472E-6,0E0,1.07744145E-5,2.6826336E-4,3.9849547E-6,0E0,0E0,0E0,0E0,3.300513E-5,3.656041E-5,3.8145647E-6,3.0057467E-6,0E0,0E0,0E0,0E0,0E0,0E0,0E0],"parents":[2147483647,0,0,1,1,2,2,3,3,5,5,6,6,7,7,12,12,13,13,14,14,15,15],"right_children":[2,4,6,8,-1,10,12,14,-1,-1,-1,-1,16,18,20,22,-1,-1,-1,-1,-1,-1,-1],"split_conditions":[8.5433185E2,4.0250163E0,1.9685556E2,2.4863153E2,5.556822E-4,8.5504266E2,6.040274E-2,9.185963E2,-5.980618E-5,-7.7092816E-4,-5.7496636E-5,4.842067E-3,5.579055E-1,9.117501E2,2.4549305E0,1.1927145E-1,1.1615038E-3,3.714025E-6,7.467535E-4,-4.6252633E-5,-3.558349E-4,-6.3854456E-4,-7.6889995E-7],"split_indices":[8,0,7,7,0,8,0,6,0,0,0,0,0,6,3,0,0,0,0,0,0,0,0],"split_type":[0,0,0,0,0,0,0,0,0,0,0,0,0,0,0,0,0,0,0,0,0,0,0],"sum_hessian":[1.073E3,1.021E3,5.2E1,1.02E3,1E0,4.8E1,4E0,9.14E2,1.06E2,1E0,4.7E1,1E0,3E0,8.96E2,1.8E1,2E0,1E0,8.91E2,5E0,1.4E1,4E0,1E0,1E0],"tree_param":{"num_deleted":"0","num_feature":"12","num_nodes":"23","size_leaf_vector":"1"}},{"base_weights":[1.9042598E-5,9.003588E-7,3.6852047E-4,-2.1827889E-6,4.7231914E-4,-2.2174921E-4,6.079459E-3,1.719317E-5,-1.4919379E-4,-6.552889E-4,-4.0606996E-5,4.1157603E-3,7.3972344E-4,1.5765655E-6,9.415911E-4,-1.92816E-5,-1.0234237E-3,-1.2076298E-3,9.872676E-4,3.5379082E-6,-3.6583686E-5,2.0313503E-3,-1.4283774E-4,-5.427718E-4,-6.616116E-7],"categories":[],"categories_nodes":[],"categories_segments":[],"categories_sizes":[],"default_left":[0,0,0,0,0,0,0,0,0,0,0,0,0,0,0,0,0,0,0,0,0,0,0,0,0],"id":40,"left_children":[1,3,5,7,-1,9,11,13,15,-1,-1,-1,17,19,21,-1,-1,23,-1,-1,-1,-1,-1,-1,-1],"loss_changes":[6.8091626E-6,4.9614882E-6,1.800108E-4,2.9108621E-6,0E0,8.012265E-6,1.9382259E-4,1.3034186E-5,3.2747717E-5,0E0,0E0,0E0,2.3846284E-5,1.1233202E-6,1.2719425E-4,0E0,0E0,2.1715946E-6,0E0,0E0,0E0,0E0,0E0,0E0,0E0],"parents":[2147483647,0,0,1,1,2,2,3,3,5,5,6,6,7,7,8,8,12,12,13,13,14,14,17,17],"right_children":[2,4,6,8,-1,10,12,14,16,-1,-1,-1,18,20,22,-1,-1,24,-1,-1,-1,-1,-1,-1,-1],"split_conditions":[8.5433185E2,4.0250163E0,1.9685556E2,9.659258E-1,4.7231914E-4,8.5504266E2,6.040274E-2,8.894535E2,8.462E1,-6.552889E-4,-4.0606996E-5,4.1157603E-3,5.579055E-1,2.4664215E2,9.185963E2,-1.92816E-5,-1.0234237E-3,1.1927145E-1,9.872676E-4,3.5379082E-6,-3.6583686E-5,2.0313503E-3,-1.4283774E-4,-5.427718E-4,-6.616116E-7],"split_indices":[8,0,7,1,0,8,0,6,5,0,0,0,0,7,6,0,0,0,0,0,0,0,0,0,0],"split_type":[0,0,0,0,0,0,0,0,0,0,0,0,0,0,0,0,0,0,0,0,0,0,0,0,0],"sum_hessian":[1.073E3,1.021E3,5.2E1,1.02E3,1E0,4.8E1,4E0,9.02E2,1.18E2,1E0,4.7E1,1E0,3E0,8.88E2,1.4E1,1.16E2,2E0,2E0,1E0,8.21E2,6.7E1,2E0,1.2E1,1E0,1E0],"tree_param":{"num_deleted":"0","num_feature":"12","num_nodes":"25","size_leaf_vector":"1"}},{"base_weights":[1.8124138E-5,1.8876717E-6,3.3087024E-4,-7.319162E-7,4.0147305E-4,-1.694264E-4,5.1676035E-3,1.4089956E-5,-1.1319762E-4,-5.5699557E-4,-2.8678689E-5,3.4983875E-3,6.288588E-4,3.1991453E-7,7.850144E-4,-1.3546481E-5,-8.1873895E-4,-1.0264317E-3,8.392096E-4,1.625085E-3,-1.03283826E-4,-4.6133998E-4,-5.543232E-7],"categories":[],"categories_nodes":[],"categories_segments":[],"categories_sizes":[],"default_left":[0,0,0,0,0,0,0,0,0,0,0,0,0,0,0,0,0,0,0,0,0,0,0],"id":41,"left_children":[1,3,5,7,-1,9,11,13,15,-1,-1,-1,17,-1,19,-1,-1,21,-1,-1,-1,-1,-1],"loss_changes":[5.453031E-6,3.5786966E-6,1.2912501E-4,1.7035532E-6,0E0,5.9264016E-6,1.4003264E-4,9.065457E-6,2.1058175E-5,0E0,0E0,0E0,1.7229338E-5,0E0,8.032718E-5,0E0,0E0,1.5689773E-6,0E0,0E0,0E0,0E0,0E0],"parents":[2147483647,0,0,1,1,2,2,3,3,5,5,6,6,7,7,8,8,12,12,14,14,17,17],"right_children":[2,4,6,8,-1,10,12,14,16,-1,-1,-1,18,-1,20,-1,-1,22,-1,-1,-1,-1,-1],"split_conditions":[8.5433185E2,4.0250163E0,1.9685556E2,9.659258E-1,4.0147305E-4,8.5504266E2,6.040274E-2,8.894535E2,8.462E1,-5.5699557E-4,-2.8678689E-5,3.4983875E-3,5.579055E-1,3.1991453E-7,9.185963E2,-1.3546481E-5,-8.1873895E-4,1.1927145E-1,8.392096E-4,1.625085E-3,-1.03283826E-4,-4.6133998E-4,-5.543232E-7],"split_indices":[8,0,7,1,0,8,0,6,5,0,0,0,0,0,6,0,0,0,0,0,0,0,0],"split_type":[0,0,0,0,0,0,0,0,0,0,0,0,0,0,0,0,0,0,0,0,0,0,0],"sum_hessian":[1.073E3,1.021E3,5.2E1,1.02E3,1E0,4.8E1,4E0,9.02E2,1.18E2,1E0,4.7E1,1E0,3E0,8.88E2,1.4E1,1.16E2,2E0,2E0,1E0,2E0,1.2E1,1E0,1E0],"tree_param":{"num_deleted":"0","num_feature":"12","num_nodes":"23","size_leaf_vector":"1"}},{"base_weights":[1.6766373E-5,2.3891207E-6,2.9368687E-4,1.6326268E-7,3.4124852E-4,-1.3055102E-4,4.392481E-3,1.809446E-6,-2.5184156E-4,-4.7344624E-4,-2.0254327E-5,2.97364E-3,5.3453445E-4,-4.425825E-6,2.7228732E-4,-8.7245303E-4,7.133246E-4,2.3109903E-6,-3.1649488E-5,6.811428E-4,-2.231475E-4,-3.92139E-4,-4.6491624E-7],"categories":[],"categories_nodes":[],"categories_segments":[],"categories_sizes":[],"default_left":[0,0,0,0,0,0,0,0,0,0,0,0,0,0,0,0,0,0,0,0,0,0,0],"id":42,"left_children":[1,3,5,7,-1,9,11,13,-1,-1,-1,-1,15,17,19,21,-1,-1,-1,-1,-1,-1,-1],"loss_changes":[4.275275E-6,2.5819836E-6,9.273322E-5,1.4127382E-6,0E0,4.3647988E-6,1.01174235E-4,1.7214379E-6,0E0,0E0,0E0,0E0,1.244799E-5,1.2242815E-6,4.8387665E-5,1.1336588E-6,0E0,0E0,0E0,0E0,0E0,0E0,0E0],"parents":[2147483647,0,0,1,1,2,2,3,3,5,5,6,6,7,7,12,12,13,13,14,14,15,15],"right_children":[2,4,6,8,-1,10,12,14,-1,-1,-1,-1,16,18,20,22,-1,-1,-1,-1,-1,-1,-1],"split_conditions":[8.5433185E2,4.0250163E0,1.9685556E2,3.8661427E0,3.4124852E-4,8.5504266E2,6.040274E-2,9.117501E2,-2.5184156E-4,-4.7344624E-4,-2.0254327E-5,2.97364E-3,5.579055E-1,2.4863153E2,2.2371386E-3,1.1927145E-1,7.133246E-4,2.3109903E-6,-3.1649488E-5,6.811428E-4,-2.231475E-4,-3.92139E-4,-4.6491624E-7],"split_indices":[8,0,7,0,0,8,0,6,0,0,0,0,0,7,3,0,0,0,0,0,0,0,0],"split_type":[0,0,0,0,0,0,0,0,0,0,0,0,0,0,0,0,0,0,0,0,0,0,0],"sum_hessian":[1.073E3,1.021E3,5.2E1,1.02E3,1E0,4.8E1,4E0,1.019E3,1E0,1E0,4.7E1,1E0,3E0,9.97E2,2.2E1,2E0,1E0,8.91E2,1.06E2,7E0,1.5E1,1E0,1E0],"tree_param":{"num_deleted":"0","num_feature":"12","num_nodes":"23","size_leaf_vector":"1"}},{"base_weights":[1.4826674E-5,2.1793276E-6,2.5842592E-4,2.8742375E-7,2.9007197E-4,-1.01461235E-4,3.733635E-3,1.2207569E-5,-9.016786E-5,-4.024293E-4,-1.4304616E-5,2.5276067E-3,4.543662E-4,2.764485E-7,6.802817E-4,-1.1862458E-5,-6.1036163E-4,-2.2246838E-4,6.063223E-4,1.1223507E-3,-1.19011245E-4],"categories":[],"categories_nodes":[],"categories_segments":[],"categories_sizes":[],"default_left":[0,0,0,0,0,0,0,0,0,0,0,0,0,0,0,0,0,0,0,0,0],"id":43,"left_children":[1,3,5,7,-1,9,11,13,15,-1,-1,-1,17,-1,19,-1,-1,-1,-1,-1,-1],"loss_changes":[3.308306E-6,1.8650469E-6,6.666503E-5,1.1019838E-6,0E0,3.203581E-6,7.3098854E-5,6.8079335E-6,1.1633479E-5,0E0,0E0,0E0,8.9934265E-6,0E0,5.0932118E-5,0E0,0E0,0E0,0E0,0E0,0E0],"parents":[2147483647,0,0,1,1,2,2,3,3,5,5,6,6,7,7,8,8,12,12,14,14],"right_children":[2,4,6,8,-1,10,12,14,16,-1,-1,-1,18,-1,20,-1,-1,-1,-1,-1,-1],"split_conditions":[8.5433185E2,4.0250163E0,1.9685556E2,9.659258E-1,2.9007197E-4,8.5504266E2,6.040274E-2,8.894535E2,8.462E1,-4.024293E-4,-1.4304616E-5,2.5276067E-3,5.579055E-1,2.764485E-7,2.2371386E-3,-1.1862458E-5,-6.1036163E-4,-2.2246838E-4,6.063223E-4,1.1223507E-3,-1.19011245E-4],"split_indices":[8,0,7,1,0,8,0,6,5,0,0,0,0,0,3,0,0,0,0,0,0],"split_type":[0,0,0,0,0,0,0,0,0,0,0,0,0,0,0,0,0,0,0,0,0],"sum_hessian":[1.073E3,1.021E3,5.2E1,1.02E3,1E0,4.8E1,4E0,9.02E2,1.18E2,1E0,4.7E1,1E0,3E0,8.88E2,1.4E1,1.16E2,2E0,2E0,1E0,3E0,1.1E1],"tree_param":{"num_deleted":"0","num_feature":"12","num_nodes":"21","size_leaf_vector":"1"}},{"base_weights":[1.3326368E-5,2.182545E-6,2.2796149E-4,5.7483174E-7,2.4654868E-4,-7.9527636E-5,3.1957626E-3,5.5443966E-6,-2.9324798E-4,-3.420649E-4,-1.0102635E-5,2.1484494E-3,4.1395426E-4,-4.7682786E-7,1.0228507E-3,-3.099116E-4,1.0108467E-4,-1.7797947E-4,5.1534176E-4,2.368319E-3,-4.3144193E-4,1.2520283E-4,-1.2754358E-4],"categories":[],"categories_nodes":[],"categories_segments":[],"categories_sizes":[],"default_left":[0,0,0,0,0,0,0,0,0,0,0,0,0,0,0,0,0,0,0,0,0,0,0],"id":44,"left_children":[1,3,5,7,-1,9,11,13,15,-1,-1,-1,17,-1,19,-1,21,-1,-1,-1,-1,-1,-1],"loss_changes":[2.5683557E-6,1.3462744E-6,4.862018E-5,1.492461E-6,0E0,2.3447124E-6,5.2195046E-5,7.2951952E-6,5.063725E-6,0E0,0E0,0E0,6.272171E-6,0E0,1.2972891E-4,0E0,2.1745248E-6,0E0,0E0,0E0,0E0,0E0,0E0],"parents":[2147483647,0,0,1,1,2,2,3,3,5,5,6,6,7,7,8,8,12,12,14,14,16,16],"right_children":[2,4,6,8,-1,10,12,14,16,-1,-1,-1,18,-1,20,-1,22,-1,-1,-1,-1,-1,-1],"split_conditions":[8.5433185E2,4.0250163E0,1.9685556E2,9.317191E2,2.4654868E-4,8.5504266E2,6.040274E-2,9.1501776E2,2.2371386E-3,-3.420649E-4,-1.0102635E-5,2.1484494E-3,5.579055E-1,-4.7682786E-7,2.2371386E-3,-3.099116E-4,2.4549305E0,-1.7797947E-4,5.1534176E-4,2.368319E-3,-4.3144193E-4,1.2520283E-4,-1.2754358E-4],"split_indices":[8,0,7,6,0,8,0,6,3,0,0,0,0,0,3,0,3,0,0,0,0,0,0],"split_type":[0,0,0,0,0,0,0,0,0,0,0,0,0,0,0,0,0,0,0,0,0,0,0],"sum_hessian":[1.073E3,1.021E3,5.2E1,1.02E3,1E0,4.8E1,4E0,1.004E3,1.6E1,1E0,4.7E1,1E0,3E0,9.98E2,6E0,5E0,1.1E1,2E0,1E0,1E0,5E0,7E0,4E0],"tree_param":{"num_deleted":"0","num_feature":"12","num_nodes":"23","size_leaf_vector":"1"}},{"base_weights":[1.3056981E-5,3.3584736E-6,1.998271E-4,-4.804259E-7,2.0122307E-4,-6.285644E-5,2.7341605E-3,9.80398E-4,-5.9343054E-4,-2.9075515E-4,-7.1349864E-6,1.826191E-3,3.7404895E-4,2.0130873E-3,-5.628397E-5,-1.049067E-3,-1.59055E-5,-2.7326346E-4,3.3179525E-4,-5.7266955E-4,8.5701526E-5,-4.554745E-4,2.4777295E-5],"categories":[],"categories_nodes":[],"categories_segments":[],"categories_sizes":[],"default_left":[0,0,0,0,0,0,0,0,0,0,0,0,0,0,0,0,0,0,0,0,0,0,0],"id":45,"left_children":[1,3,5,-1,7,9,11,13,15,-1,-1,-1,17,-1,19,21,-1,-1,-1,-1,-1,-1,-1],"loss_changes":[1.944763E-6,1.0033E-6,3.5455425E-5,0E0,1.6061153E-5,1.7121898E-6,3.7292004E-5,7.7598685E-5,3.14539E-6,0E0,0E0,0E0,4.76935E-6,0E0,8.147463E-6,3.842064E-6,0E0,0E0,0E0,0E0,0E0,0E0,0E0],"parents":[2147483647,0,0,1,1,2,2,4,4,5,5,6,6,7,7,8,8,12,12,14,14,15,15],"right_children":[2,4,6,-1,8,10,12,14,16,-1,-1,-1,18,-1,20,22,-1,-1,-1,-1,-1,-1,-1],"split_conditions":[8.5433185E2,9.117501E2,1.9685556E2,-4.804259E-7,1.6608086E1,8.5504266E2,6.040274E-2,2.2371386E-3,1.0184259E2,-2.9075515E-4,-7.1349864E-6,1.826191E-3,1.1927145E-1,2.0130873E-3,9.204E1,1.1321E2,-1.59055E-5,-2.7326346E-4,3.3179525E-4,-5.7266955E-4,8.5701526E-5,-4.554745E-4,2.4777295E-5],"split_indices":[8,6,7,0,8,8,0,3,7,0,0,0,0,0,5,4,0,0,0,0,0,0,0],"split_type":[0,0,0,0,0,0,0,0,0,0,0,0,0,0,0,0,0,0,0,0,0,0,0],"sum_hessian":[1.073E3,1.021E3,5.2E1,9.97E2,2.4E1,4.8E1,4E0,1.2E1,1.2E1,1E0,4.7E1,1E0,3E0,1E0,1.1E1,6E0,6E0,1E0,2E0,1E0,1E1,4E0,2E0],"tree_param":{"num_deleted":"0","num_feature":"12","num_nodes":"23","size_leaf_vector":"1"}},{"base_weights":[1.1622283E-5,1.0221406E-6,1.6981584E-4,-5.0078896E-5,2.2908212E-3,-2.4714187E-4,-5.039084E-6,1.552248E-3,2.7644634E-4,-1.4824868E-4,3.8824082E-4],"categories":[],"categories_nodes":[],"categories_segments":[],"categories_sizes":[],"default_left":[0,0,0,0,0,0,0,0,0,0,0],"id":46,"left_children":[1,-1,3,5,7,-1,-1,-1,9,-1,-1],"loss_changes":[1.3951741E-6,0E0,2.483381E-5,1.2479691E-6,2.761025E-5,0E0,0E0,0E0,3.7764748E-6,0E0,0E0],"parents":[2147483647,0,0,2,2,3,3,4,4,8,8],"right_children":[2,-1,4,6,8,-1,-1,-1,10,-1,-1],"split_conditions":[8.5433185E2,1.0221406E-6,1.9685556E2,8.5504266E2,6.040274E-2,-2.4714187E-4,-5.039084E-6,1.552248E-3,5.579055E-1,-1.4824868E-4,3.8824082E-4],"split_indices":[8,0,7,8,0,0,0,0,0,0,0],"split_type":[0,0,0,0,0,0,0,0,0,0,0],"sum_hessian":[1.073E3,1.021E3,5.2E1,4.8E1,4E0,1E0,4.7E1,1E0,3E0,2E0,1E0],"tree_param":{"num_deleted":"0","num_feature":"12","num_nodes":"11","size_leaf_vector":"1"}},{"base_weights":[9.57081E-6,1.2569121E-6,2.1044383E-4,-1.431418E-4,1.1123007E-3,-4.7271518E-4,4.302935E-5,1.7109991E-3,-3.5832214E-4,-3.4640598E-4,5.231403E-5,-3.3061596E-4,1.4249684E-4],"categories":[],"categories_nodes":[],"categories_segments":[],"categories_sizes":[],"default_left":[0,0,0,0,0,0,0,0,0,0,0,0,0],"id":47,"left_children":[1,-1,3,5,7,9,-1,-1,11,-1,-1,-1,-1],"loss_changes":[1.1600248E-6,0E0,9.087958E-6,2.0511857E-6,5.6057004E-5,4.614358E-6,0E0,0E0,4.8617812E-6,0E0,0E0,0E0,0E0],"parents":[2147483647,0,0,2,2,3,3,4,4,5,5,8,8],"right_children":[2,-1,4,6,8,10,-1,-1,12,-1,-1,-1,-1],"split_conditions":[9.117501E2,1.2569121E-6,1.0828701E2,1.0184259E2,2.2371386E-3,9.669036E2,4.302935E-5,1.7109991E-3,1.1203837E0,-3.4640598E-4,5.231403E-5,-3.3061596E-4,1.4249684E-4],"split_indices":[6,0,11,7,3,6,0,0,0,0,0,0,0],"split_type":[0,0,0,0,0,0,0,0,0,0,0,0,0],"sum_hessian":[1.073E3,1.046E3,2.7E1,2E1,7E0,9E0,1.1E1,1E0,6E0,4E0,5E0,3E0,3E0],"tree_param":{"num_deleted":"0","num_feature":"12","num_nodes":"13","size_leaf_vector":"1"}},{"base_weights":[7.884727E-6,2.457589E-7,1.4398071E-4,-1.3310851E-5,1.9610166E-3,1.3192177E-3,2.5257468E-4,-2.1021366E-4,2.4117231E-4],"categories":[],"categories_nodes":[],"categories_segments":[],"categories_sizes":[],"default_left":[0,0,0,0,0,0,0,0,0],"id":48,"left_children":[1,-1,3,-1,5,-1,7,-1,-1],"loss_changes":[1.0326302E-6,0E0,1.8225683E-5,0E0,1.970136E-5,0E0,2.6656223E-6,0E0,0E0],"parents":[2147483647,0,0,2,2,4,4,6,6],"right_children":[2,-1,4,-1,6,-1,8,-1,-1],"split_conditions":[8.5433185E2,2.457589E-7,1.9685556E2,-1.3310851E-5,6.040274E-2,1.3192177E-3,1.1927145E-1,-2.1021366E-4,2.4117231E-4],"split_indices":[8,0,7,0,0,0,0,0,0],"split_type":[0,0,0,0,0,0,0,0,0],"sum_hessian":[1.073E3,1.021E3,5.2E1,4.8E1,4E0,1E0,3E0,1E0,2E0],"tree_param":{"num_deleted":"0","num_feature":"12","num_nodes":"9","size_leaf_vector":"1"}},{"base_weights":[6.7643614E-6,5.256128E-7,1.939477E-4,-3.5332105E-5,1.2557012E-3,-3.5781966E-4,5.4604527E-5,1.4543296E-3,-8.5425604E-4,-2.633275E-4,4.0529747E-5,-5.0140337E-5,-4.3734314E-4],"categories":[],"categories_nodes":[],"categories_segments":[],"categories_sizes":[],"default_left":[0,0,0,0,0,0,0,0,0,0,0,0,0],"id":49,"left_children":[1,-1,3,5,7,9,-1,-1,11,-1,-1,-1,-1],"loss_changes":[1.0073111E-6,0E0,6.860648E-6,1.7473308E-6,4.2036736E-5,2.6814603E-6,0E0,0E0,1.4152108E-6,0E0,0E0,0E0,0E0],"parents":[2147483647,0,0,2,2,3,3,4,4,5,5,8,8],"right_children":[2,-1,4,6,8,10,-1,-1,12,-1,-1,-1,-1],"split_conditions":[9.117501E2,5.256128E-7,1.4785962E2,1.0184259E2,2.2371386E-3,9.669036E2,5.4604527E-5,1.4543296E-3,6.040274E-2,-2.633275E-4,4.0529747E-5,-5.0140337E-5,-4.3734314E-4],"split_indices":[6,0,11,7,3,6,0,0,0,0,0,0,0],"split_type":[0,0,0,0,0,0,0,0,0,0,0,0,0],"sum_hessian":[1.073E3,1.046E3,2.7E1,2.3E1,4E0,9E0,1.4E1,1E0,3E0,4E0,5E0,2E0,1E0],"tree_param":{"num_deleted":"0","num_feature":"12","num_nodes":"13","size_leaf_vector":"1"}},{"base_weights":[5.479318E-6],"categories":[],"categories_nodes":[],"categories_segments":[],"categories_sizes":[],"default_left":[0],"id":50,"left_children":[-1],"loss_changes":[0E0],"parents":[2147483647],"right_children":[-1],"split_conditions":[1.6437955E-6],"split_indices":[0],"split_type":[0],"sum_hessian":[1.073E3],"tree_param":{"num_deleted":"0","num_feature":"12","num_nodes":"1","size_leaf_vector":"1"}},{"base_weights":[3.837017E-6],"categories":[],"categories_nodes":[],"categories_segments":[],"categories_sizes":[],"default_left":[0],"id":51,"left_children":[-1],"loss_changes":[0E0],"parents":[2147483647],"right_children":[-1],"split_conditions":[1.1511052E-6],"split_indices":[0],"split_type":[0],"sum_hessian":[1.073E3],"tree_param":{"num_deleted":"0","num_feature":"12","num_nodes":"1","size_leaf_vector":"1"}},{"base_weights":[2.6867858E-6],"categories":[],"categories_nodes":[],"categories_segments":[],"categories_sizes":[],"default_left":[0],"id":52,"left_children":[-1],"loss_changes":[0E0],"parents":[2147483647],"right_children":[-1],"split_conditions":[8.0603576E-7],"split_indices":[0],"split_type":[0],"sum_hessian":[1.073E3],"tree_param":{"num_deleted":"0","num_feature":"12","num_nodes":"1","size_leaf_vector":"1"}},{"base_weights":[1.8818753E-6],"categories":[],"categories_nodes":[],"categories_segments":[],"categories_sizes":[],"default_left":[0],"id":53,"left_children":[-1],"loss_changes":[0E0],"parents":[2147483647],"right_children":[-1],"split_conditions":[5.645626E-7],"split_indices":[0],"split_type":[0],"sum_hessian":[1.073E3],"tree_param":{"num_deleted":"0","num_feature":"12","num_nodes":"1","size_leaf_vector":"1"}},{"base_weights":[1.3184041E-6],"categories":[],"categories_nodes":[],"categories_segments":[],"categories_sizes":[],"default_left":[0],"id":54,"left_children":[-1],"loss_changes":[0E0],"parents":[2147483647],"right_children":[-1],"split_conditions":[3.9552125E-7],"split_indices":[0],"split_type":[0],"sum_hessian":[1.073E3],"tree_param":{"num_deleted":"0","num_feature":"12","num_nodes":"1","size_leaf_vector":"1"}},{"base_weights":[9.227513E-7],"categories":[],"categories_nodes":[],"categories_segments":[],"categories_sizes":[],"default_left":[0],"id":55,"left_children":[-1],"loss_changes":[0E0],"parents":[2147483647],"right_children":[-1],"split_conditions":[2.768254E-7],"split_indices":[0],"split_type":[0],"sum_hessian":[1.073E3],"tree_param":{"num_deleted":"0","num_feature":"12","num_nodes":"1","size_leaf_vector":"1"}},{"base_weights":[6.4635475E-7],"categories":[],"categories_nodes":[],"categories_segments":[],"categories_sizes":[],"default_left":[0],"id":56,"left_children":[-1],"loss_changes":[0E0],"parents":[2147483647],"right_children":[-1],"split_conditions":[1.9390643E-7],"split_indices":[0],"split_type":[0],"sum_hessian":[1.073E3],"tree_param":{"num_deleted":"0","num_feature":"12","num_nodes":"1","size_leaf_vector":"1"}},{"base_weights":[4.5239526E-7],"categories":[],"categories_nodes":[],"categories_segments":[],"categories_sizes":[],"default_left":[0],"id":57,"left_children":[-1],"loss_changes":[0E0],"parents":[2147483647],"right_children":[-1],"split_conditions":[1.3571858E-7],"split_indices":[0],"split_type":[0],"sum_hessian":[1.073E3],"tree_param":{"num_deleted":"0","num_feature":"12","num_nodes":"1","size_leaf_vector":"1"}},{"base_weights":[3.1630591E-7],"categories":[],"categories_nodes":[],"categories_segments":[],"categories_sizes":[],"default_left":[0],"id":58,"left_children":[-1],"loss_changes":[0E0],"parents":[2147483647],"right_children":[-1],"split_conditions":[9.489178E-8],"split_indices":[0],"split_type":[0],"sum_hessian":[1.073E3],"tree_param":{"num_deleted":"0","num_feature":"12","num_nodes":"1","size_leaf_vector":"1"}},{"base_weights":[2.2214101E-7],"categories":[],"categories_nodes":[],"categories_segments":[],"categories_sizes":[],"default_left":[0],"id":59,"left_children":[-1],"loss_changes":[0E0],"parents":[2147483647],"right_children":[-1],"split_conditions":[6.664231E-8],"split_indices":[0],"split_type":[0],"sum_hessian":[1.073E3],"tree_param":{"num_deleted":"0","num_feature":"12","num_nodes":"1","size_leaf_vector":"1"}},{"base_weights":[1.5591053E-7],"categories":[],"categories_nodes":[],"categories_segments":[],"categories_sizes":[],"default_left":[0],"id":60,"left_children":[-1],"loss_changes":[0E0],"parents":[2147483647],"right_children":[-1],"split_conditions":[4.677316E-8],"split_indices":[0],"split_type":[0],"sum_hessian":[1.073E3],"tree_param":{"num_deleted":"0","num_feature":"12","num_nodes":"1","size_leaf_vector":"1"}},{"base_weights":[1.0965993E-7],"categories":[],"categories_nodes":[],"categories_segments":[],"categories_sizes":[],"default_left":[0],"id":61,"left_children":[-1],"loss_changes":[0E0],"parents":[2147483647],"right_children":[-1],"split_conditions":[3.289798E-8],"split_indices":[0],"split_type":[0],"sum_hessian":[1.073E3],"tree_param":{"num_deleted":"0","num_feature":"12","num_nodes":"1","size_leaf_vector":"1"}},{"base_weights":[7.712959E-8],"categories":[],"categories_nodes":[],"categories_segments":[],"categories_sizes":[],"default_left":[0],"id":62,"left_children":[-1],"loss_changes":[0E0],"parents":[2147483647],"right_children":[-1],"split_conditions":[2.313888E-8],"split_indices":[0],"split_type":[0],"sum_hessian":[1.073E3],"tree_param":{"num_deleted":"0","num_feature":"12","num_nodes":"1","size_leaf_vector":"1"}},{"base_weights":[5.4249664E-8],"categories":[],"categories_nodes":[],"categories_segments":[],"categories_sizes":[],"default_left":[0],"id":63,"left_children":[-1],"loss_changes":[0E0],"parents":[2147483647],"right_children":[-1],"split_conditions":[1.62749E-8],"split_indices":[0],"split_type":[0],"sum_hessian":[1.073E3],"tree_param":{"num_deleted":"0","num_feature":"12","num_nodes":"1","size_leaf_vector":"1"}},{"base_weights":[3.8156585E-8],"categories":[],"categories_nodes":[],"categories_segments":[],"categories_sizes":[],"default_left":[0],"id":64,"left_children":[-1],"loss_changes":[0E0],"parents":[2147483647],"right_children":[-1],"split_conditions":[1.1446976E-8],"split_indices":[0],"split_type":[0],"sum_hessian":[1.073E3],"tree_param":{"num_deleted":"0","num_feature":"12","num_nodes":"1","size_leaf_vector":"1"}},{"base_weights":[2.683724E-8],"categories":[],"categories_nodes":[],"categories_segments":[],"categories_sizes":[],"default_left":[0],"id":65,"left_children":[-1],"loss_changes":[0E0],"parents":[2147483647],"right_children":[-1],"split_conditions":[8.051172E-9],"split_indices":[0],"split_type":[0],"sum_hessian":[1.073E3],"tree_param":{"num_deleted":"0","num_feature":"12","num_nodes":"1","size_leaf_vector":"1"}},{"base_weights":[1.8876209E-8],"categories":[],"categories_nodes":[],"categories_segments":[],"categories_sizes":[],"default_left":[0],"id":66,"left_children":[-1],"loss_changes":[0E0],"parents":[2147483647],"right_children":[-1],"split_conditions":[5.662863E-9],"split_indices":[0],"split_type":[0],"sum_hessian":[1.073E3],"tree_param":{"num_deleted":"0","num_feature":"12","num_nodes":"1","size_leaf_vector":"1"}},{"base_weights":[1.327691E-8],"categories":[],"categories_nodes":[],"categories_segments":[],"categories_sizes":[],"default_left":[0],"id":67,"left_children":[-1],"loss_changes":[0E0],"parents":[2147483647],"right_children":[-1],"split_conditions":[3.9830734E-9],"split_indices":[0],"split_type":[0],"sum_hessian":[1.073E3],"tree_param":{"num_deleted":"0","num_feature":"12","num_nodes":"1","size_leaf_vector":"1"}},{"base_weights":[9.338849E-9],"categories":[],"categories_nodes":[],"categories_segments":[],"categories_sizes":[],"default_left":[0],"id":68,"left_children":[-1],"loss_changes":[0E0],"parents":[2147483647],"right_children":[-1],"split_conditions":[2.8016547E-9],"split_indices":[0],"split_type":[0],"sum_hessian":[1.073E3],"tree_param":{"num_deleted":"0","num_feature":"12","num_nodes":"1","size_leaf_vector":"1"}},{"base_weights":[6.568746E-9],"categories":[],"categories_nodes":[],"categories_segments":[],"categories_sizes":[],"default_left":[0],"id":69,"left_children":[-1],"loss_changes":[0E0],"parents":[2147483647],"right_children":[-1],"split_conditions":[1.9706239E-9],"split_indices":[0],"split_type":[0],"sum_hessian":[1.073E3],"tree_param":{"num_deleted":"0","num_feature":"12","num_nodes":"1","size_leaf_vector":"1"}},{"base_weights":[4.619792E-9],"categories":[],"categories_nodes":[],"categories_segments":[],"categories_sizes":[],"default_left":[0],"id":70,"left_children":[-1],"loss_changes":[0E0],"parents":[2147483647],"right_children":[-1],"split_conditions":[1.3859377E-9],"split_indices":[0],"split_type":[0],"sum_hessian":[1.073E3],"tree_param":{"num_deleted":"0","num_feature":"12","num_nodes":"1","size_leaf_vector":"1"}},{"base_weights":[3.2495004E-9],"categories":[],"categories_nodes":[],"categories_segments":[],"categories_sizes":[],"default_left":[0],"id":71,"left_children":[-1],"loss_changes":[0E0],"parents":[2147483647],"right_children":[-1],"split_conditions":[9.748502E-10],"split_indices":[0],"split_type":[0],"sum_hessian":[1.073E3],"tree_param":{"num_deleted":"0","num_feature":"12","num_nodes":"1","size_leaf_vector":"1"}},{"base_weights":[2.285443E-9],"categories":[],"categories_nodes":[],"categories_segments":[],"categories_sizes":[],"default_left":[0],"id":72,"left_children":[-1],"loss_changes":[0E0],"parents":[2147483647],"right_children":[-1],"split_conditions":[6.856329E-10],"split_indices":[0],"split_type":[0],"sum_hessian":[1.073E3],"tree_param":{"num_deleted":"0","num_feature":"12","num_nodes":"1","size_leaf_vector":"1"}},{"base_weights":[1.6076475E-9],"categories":[],"categories_nodes":[],"categories_segments":[],"categories_sizes":[],"default_left":[0],"id":73,"left_children":[-1],"loss_changes":[0E0],"parents":[2147483647],"right_children":[-1],"split_conditions":[4.8229426E-10],"split_indices":[0],"split_type":[0],"sum_hessian":[1.073E3],"tree_param":{"num_deleted":"0","num_feature":"12","num_nodes":"1","size_leaf_vector":"1"}},{"base_weights":[1.1310024E-9],"categories":[],"categories_nodes":[],"categories_segments":[],"categories_sizes":[],"default_left":[0],"id":74,"left_children":[-1],"loss_changes":[0E0],"parents":[2147483647],"right_children":[-1],"split_conditions":[3.3930073E-10],"split_indices":[0],"split_type":[0],"sum_hessian":[1.073E3],"tree_param":{"num_deleted":"0","num_feature":"12","num_nodes":"1","size_leaf_vector":"1"}},{"base_weights":[7.954429E-10],"categories":[],"categories_nodes":[],"categories_segments":[],"categories_sizes":[],"default_left":[0],"id":75,"left_children":[-1],"loss_changes":[0E0],"parents":[2147483647],"right_children":[-1],"split_conditions":[2.3863286E-10],"split_indices":[0],"split_type":[0],"sum_hessian":[1.073E3],"tree_param":{"num_deleted":"0","num_feature":"12","num_nodes":"1","size_leaf_vector":"1"}},{"base_weights":[5.5964283E-10],"categories":[],"categories_nodes":[],"categories_segments":[],"categories_sizes":[],"default_left":[0],"id":76,"left_children":[-1],"loss_changes":[0E0],"parents":[2147483647],"right_children":[-1],"split_conditions":[1.6789285E-10],"split_indices":[0],"split_type":[0],"sum_hessian":[1.073E3],"tree_param":{"num_deleted":"0","num_feature":"12","num_nodes":"1","size_leaf_vector":"1"}},{"base_weights":[3.9323791E-10],"categories":[],"categories_nodes":[],"categories_segments":[],"categories_sizes":[],"default_left":[0],"id":77,"left_children":[-1],"loss_changes":[0E0],"parents":[2147483647],"right_children":[-1],"split_conditions":[1.1797138E-10],"split_indices":[0],"split_type":[0],"sum_hessian":[1.073E3],"tree_param":{"num_deleted":"0","num_feature":"12","num_nodes":"1","size_leaf_vector":"1"}},{"base_weights":[2.7685856E-10],"categories":[],"categories_nodes":[],"categories_segments":[],"categories_sizes":[],"default_left":[0],"id":78,"left_children":[-1],"loss_changes":[0E0],"parents":[2147483647],"right_children":[-1],"split_conditions":[8.3057575E-11],"split_indices":[0],"split_type":[0],"sum_hessian":[1.073E3],"tree_param":{"num_deleted":"0","num_feature":"12","num_nodes":"1","size_leaf_vector":"1"}},{"base_weights":[1.9508153E-10],"categories":[],"categories_nodes":[],"categories_segments":[],"categories_sizes":[],"default_left":[0],"id":79,"left_children":[-1],"loss_changes":[0E0],"parents":[2147483647],"right_children":[-1],"split_conditions":[5.852446E-11],"split_indices":[0],"split_type":[0],"sum_hessian":[1.073E3],"tree_param":{"num_deleted":"0","num_feature":"12","num_nodes":"1","size_leaf_vector":"1"}},{"base_weights":[1.3745437E-10],"categories":[],"categories_nodes":[],"categories_segments":[],"categories_sizes":[],"default_left":[0],"id":80,"left_children":[-1],"loss_changes":[0E0],"parents":[2147483647],"right_children":[-1],"split_conditions":[4.1236313E-11],"split_indices":[0],"split_type":[0],"sum_hessian":[1.073E3],"tree_param":{"num_deleted":"0","num_feature":"12","num_nodes":"1","size_leaf_vector":"1"}},{"base_weights":[9.674517E-11],"categories":[],"categories_nodes":[],"categories_segments":[],"categories_sizes":[],"default_left":[0],"id":81,"left_children":[-1],"loss_changes":[0E0],"parents":[2147483647],"right_children":[-1],"split_conditions":[2.9023551E-11],"split_indices":[0],"split_type":[0],"sum_hessian":[1.073E3],"tree_param":{"num_deleted":"0","num_feature":"12","num_nodes":"1","size_leaf_vector":"1"}},{"base_weights":[6.821041E-11],"categories":[],"categories_nodes":[],"categories_segments":[],"categories_sizes":[],"default_left":[0],"id":82,"left_children":[-1],"loss_changes":[0E0],"parents":[2147483647],"right_children":[-1],"split_conditions":[2.0463124E-11],"split_indices":[0],"split_type":[0],"sum_hessian":[1.073E3],"tree_param":{"num_deleted":"0","num_feature":"12","num_nodes":"1","size_leaf_vector":"1"}},{"base_weights":[4.8277316E-11],"categories":[],"categories_nodes":[],"categories_segments":[],"categories_sizes":[],"default_left":[0],"id":83,"left_children":[-1],"loss_changes":[0E0],"parents":[2147483647],"right_children":[-1],"split_conditions":[1.4483195E-11],"split_indices":[0],"split_type":[0],"sum_hessian":[1.073E3],"tree_param":{"num_deleted":"0","num_feature":"12","num_nodes":"1","size_leaf_vector":"1"}},{"base_weights":[3.410478E-11],"categories":[],"categories_nodes":[],"categories_segments":[],"categories_sizes":[],"default_left":[0],"id":84,"left_children":[-1],"loss_changes":[0E0],"parents":[2147483647],"right_children":[-1],"split_conditions":[1.0231435E-11],"split_indices":[0],"split_type":[0],"sum_hessian":[1.073E3],"tree_param":{"num_deleted":"0","num_feature":"12","num_nodes":"1","size_leaf_vector":"1"}},{"base_weights":[2.4317128E-11],"categories":[],"categories_nodes":[],"categories_segments":[],"categories_sizes":[],"default_left":[0],"id":85,"left_children":[-1],"loss_changes":[0E0],"parents":[2147483647],"right_children":[-1],"split_conditions":[7.2951385E-12],"split_indices":[0],"split_type":[0],"sum_hessian":[1.073E3],"tree_param":{"num_deleted":"0","num_feature":"12","num_nodes":"1","size_leaf_vector":"1"}},{"base_weights":[1.6980198E-11],"categories":[],"categories_nodes":[],"categories_segments":[],"categories_sizes":[],"default_left":[0],"id":86,"left_children":[-1],"loss_changes":[0E0],"parents":[2147483647],"right_children":[-1],"split_conditions":[5.0940597E-12],"split_indices":[0],"split_type":[0],"sum_hessian":[1.073E3],"tree_param":{"num_deleted":"0","num_feature":"12","num_nodes":"1","size_leaf_vector":"1"}},{"base_weights":[1.19690854E-11],"categories":[],"categories_nodes":[],"categories_segments":[],"categories_sizes":[],"default_left":[0],"id":87,"left_children":[-1],"loss_changes":[0E0],"parents":[2147483647],"right_children":[-1],"split_conditions":[3.5907258E-12],"split_indices":[0],"split_type":[0],"sum_hessian":[1.073E3],"tree_param":{"num_deleted":"0","num_feature":"12","num_nodes":"1","size_leaf_vector":"1"}},{"base_weights":[8.879853E-12],"categories":[],"categories_nodes":[],"categories_segments":[],"categories_sizes":[],"default_left":[0],"id":88,"left_children":[-1],"loss_changes":[0E0],"parents":[2147483647],"right_children":[-1],"split_conditions":[2.6639559E-12],"split_indices":[0],"split_type":[0],"sum_hessian":[1.073E3],"tree_param":{"num_deleted":"0","num_feature":"12","num_nodes":"1","size_leaf_vector":"1"}}]},"name":"gbtree"},"learner_model_param":{"base_score":"2.6610887E-2","boost_from_average":"1","num_class":"0","num_feature":"12","num_target":"1"},"objective":{"name":"reg:squarederror","reg_loss_param":{"scale_pos_weight":"1"}}},"version":[2,0,0]}