{"learner":{"attributes":{"scikit_learn":"{\"_estimator_type\": \"regressor\"}"},"feature_names":["solar_generation","cyc_hour1","cyc_hour2","exp_solar","direct_solar","diffuse_solar","direct_solar_6h","diffuse_solar_6h","direct_solar_12h","diffuse_solar_12h","direct_solar_24h","diffuse_solar_24h"],"feature_types":["float","float","float","float","float","float","float","float","float","float","float","float"],"gradient_booster":{"model":{"gbtree_model_param":{"num_parallel_tree":"1","num_trees":"89"},"iteration_indptr":[0,1,2,3,4,5,6,7,8,9,10,11,12,13,14,15,16,17,18,19,20,21,22,23,24,25,26,27,28,29,30,31,32,33,34,35,36,37,38,39,40,41,42,43,44,45,46,47,48,49,50,51,52,53,54,55,56,57,58,59,60,61,62,63,64,65,66,67,68,69,70,71,72,73,74,75,76,77,78,79,80,81,82,83,84,85,86,87,88,89],"tree_info":[0,0,0,0,0,0,0,0,0,0,0,0,0,0,0,0,0,0,0,0,0,0,0,0,0,0,0,0,0,0,0,0,0,0,0,0,0,0,0,0,0,0,0,0,0,0,0,0,0,0,0,0,0,0,0,0,0,0,0,0,0,0,0,0,0,0,0,0,0,0,0,0,0,0,0,0,0,0,0,0,0,0,0,0,0,0,0,0,0],"trees":[{"base_weights":[-2.9005542E-10,-1.1215991E-2,6.53643E-1,-1.4828896E-2,2.7784544E-1,7.194898E-1,-4.8411745E-3,-5.208359E-3,5.22008E-2,9.4209945E-1,-4.6922155E-3,3.913889E-1,-5.072665E-3,-2.6067863E-3,3.7857765E-1],"categories":[],"categories_nodes":[],"categories_segments":[],"categories_sizes":[],"default_left":[0,0,0,0,0,0,0,0,0,0,0,0,0,0,0],"id":0,"left_children":[1,3,5,7,9,-1,-1,-1,11,13,-1,-1,-1,-1,-1],"loss_changes":[7.8224483E0,1.099645E0,2.1072351E1,1.7692587E-1,2.549077E0,0E0,0E0,0E0,3.3111482E0,1.2273135E0,0E0,0E0,0E0,0E0,0E0],"parents":[2147483647,0,0,1,1,2,2,3,3,4,4,8,8,9,9],"right_children":[2,4,6,8,10,-1,-1,-1,12,14,-1,-1,-1,-1,-1],"split_conditions":[6.040274E-2,9.879093E2,1.5132071E0,8.5433185E2,1.0645039E3,7.194898E-1,-4.8411745E-3,-5.208359E-3,8.5470795E2,1.2246469E-16,-4.6922155E-3,3.913889E-1,-5.072665E-3,-2.6067863E-3,3.7857765E-1],"split_indices":[0,8,0,8,8,0,0,0,8,1,0,0,0,0,0],"split_type":[0,0,0,0,0,0,0,0,0,0,0,0,0,0,0],"sum_hessian":[1.065E3,1.048E3,1.7E1,1.036E3,1.2E1,4E0,1.3E1,9.99E2,3.7E1,3E0,9E0,1E0,3.6E1,1E0,2E0],"tree_param":{"num_deleted":"0","num_feature":"12","num_nodes":"15","size_leaf_vector":"1"}},{"base_weights":[1.3762054E-3,-7.1339514E-3,4.972528E-1,-1.0012717E-2,2.2305171E-1,5.4681224E-1,-3.4925614E-3,-3.6474136E-3,4.6706777E-2,7.534624E-1,-3.4253171E-3,3.3268055E-1,-3.5919955E-3,-2.2157682E-3,3.0286214E-1],"categories":[],"categories_nodes":[],"categories_segments":[],"categories_sizes":[],"default_left":[0,0,0,0,0,0,0,0,0,0,0,0,0,0,0],"id":1,"left_children":[1,3,5,7,9,-1,-1,-1,11,13,-1,-1,-1,-1,-1],"loss_changes":[4.502054E0,6.973537E-1,1.2162521E1,1.2675202E-1,1.6253488E0,0E0,0E0,0E0,2.3818805E0,7.8680253E-1,0E0,0E0,0E0,0E0,0E0],"parents":[2147483647,0,0,1,1,2,2,3,3,4,4,8,8,9,9],"right_children":[2,4,6,8,10,-1,-1,-1,12,14,-1,-1,-1,-1,-1],"split_conditions":[6.040274E-2,9.879093E2,1.5132071E0,8.5433185E2,1.0645039E3,5.4681224E-1,-3.4925614E-3,-3.6474136E-3,8.5470795E2,1.2246469E-16,-3.4253171E-3,3.3268055E-1,-3.5919955E-3,-2.2157682E-3,3.0286214E-1],"split_indices":[0,8,0,8,8,0,0,0,8,1,0,0,0,0,0],"split_type":[0,0,0,0,0,0,0,0,0,0,0,0,0,0,0],"sum_hessian":[1.065E3,1.048E3,1.7E1,1.036E3,1.2E1,4E0,1.3E1,9.99E2,3.7E1,3E0,9E0,1E0,3.6E1,1E0,2E0],"tree_param":{"num_deleted":"0","num_feature":"12","num_nodes":"15","size_leaf_vector":"1"}},{"base_weights":[2.0571353E-3,-4.4001886E-3,3.7826136E-1,-6.6950717E-3,1.7899935E-1,4.1557726E-1,-2.5196336E-3,-2.5542837E-3,4.1354965E-2,6.0258526E-1,-2.5004814E-3,2.8277847E-1,-2.543521E-3,-1.8834029E-3,2.422897E-1],"categories":[],"categories_nodes":[],"categories_segments":[],"categories_sizes":[],"default_left":[0,0,0,0,0,0,0,0,0,0,0,0,0,0,0],"id":2,"left_children":[1,3,5,7,9,-1,-1,-1,11,13,-1,-1,-1,-1,-1],"loss_changes":[2.591269E0,4.4270208E-1,7.0202084E0,9.0999335E-2,1.0366006E0,0E0,0E0,0E0,1.7146409E0,5.0445294E-1,0E0,0E0,0E0,0E0,0E0],"parents":[2147483647,0,0,1,1,2,2,3,3,4,4,8,8,9,9],"right_children":[2,4,6,8,10,-1,-1,-1,12,14,-1,-1,-1,-1,-1],"split_conditions":[6.040274E-2,9.879093E2,1.5132071E0,8.5433185E2,1.0645039E3,4.1557726E-1,-2.5196336E-3,-2.5542837E-3,8.5470795E2,1.2246469E-16,-2.5004814E-3,2.8277847E-1,-2.543521E-3,-1.8834029E-3,2.422897E-1],"split_indices":[0,8,0,8,8,0,0,0,8,1,0,0,0,0,0],"split_type":[0,0,0,0,0,0,0,0,0,0,0,0,0,0,0],"sum_hessian":[1.065E3,1.048E3,1.7E1,1.036E3,1.2E1,4E0,1.3E1,9.99E2,3.7E1,3E0,9E0,1E0,3.6E1,1E0,2E0],"tree_param":{"num_deleted":"0","num_feature":"12","num_nodes":"15","size_leaf_vector":"1"}},{"base_weights":[2.3111429E-3,-2.5886293E-3,2.8773057E-1,-4.4187773E-3,1.436E-1,3.158387E-1,-1.8177356E-3,-1.7887648E-3,3.6323078E-2,4.1715115E-2,2.049328E-1,2.4036168E-1,-1.8010878E-3,1.8714213E-1,-1.8253514E-3,-1.6008924E-3,8.5814856E-2],"categories":[],"categories_nodes":[],"categories_segments":[],"categories_sizes":[],"default_left":[0,0,0,0,0,0,0,0,0,0,0,0,0,0,0,0,0],"id":3,"left_children":[1,3,5,7,9,-1,-1,-1,11,13,-1,-1,-1,15,-1,-1,-1],"loss_changes":[1.4915353E0,2.8129113E-1,4.052207E0,6.5439865E-2,6.8608594E-1,0E0,0E0,0E0,1.2350585E0,8.455494E-2,0E0,0E0,0E0,5.8639064E-2,0E0,0E0,0E0],"parents":[2147483647,0,0,1,1,2,2,3,3,4,4,8,8,9,9,13,13],"right_children":[2,4,6,8,10,-1,-1,-1,12,14,-1,-1,-1,16,-1,-1,-1],"split_conditions":[6.040274E-2,9.879093E2,1.5132071E0,8.5433185E2,7.0710677E-1,3.158387E-1,-1.8177356E-3,-1.7887648E-3,8.5470795E2,1.0645039E3,2.049328E-1,2.4036168E-1,-1.8010878E-3,1.2246469E-16,-1.8253514E-3,-1.6008924E-3,8.5814856E-2],"split_indices":[0,8,0,8,1,0,0,0,8,8,0,0,0,1,0,0,0],"split_type":[0,0,0,0,0,0,0,0,0,0,0,0,0,0,0,0,0],"sum_hessian":[1.065E3,1.048E3,1.7E1,1.036E3,1.2E1,4E0,1.3E1,9.99E2,3.7E1,1.1E1,1E0,1E0,3.6E1,2E0,9E0,1E0,1E0],"tree_param":{"num_deleted":"0","num_feature":"12","num_nodes":"17","size_leaf_vector":"1"}},{"base_weights":[2.4040232E-3,-1.3124284E-3,2.18857E-1,-2.8648204E-3,1.2262164E-1,8.0012465E-1,-1.3113662E-3,-1.2526719E-3,3.1704064E-2,3.6066294E-2,1.7419288E-1,6.5975085E-2,2.670592E-1,2.0430742E-1,-1.2753649E-3,1.590708E-1,-1.3325065E-3,-1.3607586E-3,7.294262E-2],"categories":[],"categories_nodes":[],"categories_segments":[],"categories_sizes":[],"default_left":[0,0,0,0,0,0,0,0,0,0,0,0,0,0,0,0,0,0,0],"id":4,"left_children":[1,3,5,7,9,11,-1,-1,13,15,-1,-1,-1,-1,-1,17,-1,-1,-1],"loss_changes":[8.578171E-1,2.0217286E-1,2.3390937E0,4.7120165E-2,4.9443278E-1,6.553507E-2,0E0,0E0,8.9006245E-1,6.0498513E-2,0E0,0E0,0E0,0E0,0E0,4.236672E-2,0E0,0E0,0E0],"parents":[2147483647,0,0,1,1,2,2,3,3,4,4,5,5,8,8,9,9,15,15],"right_children":[2,4,6,8,10,12,-1,-1,14,16,-1,-1,-1,-1,-1,18,-1,-1,-1],"split_conditions":[6.040274E-2,9.879093E2,1.5132071E0,8.5433185E2,7.0710677E-1,7.0710677E-1,-1.3113662E-3,-1.2526719E-3,8.5470795E2,1.0645039E3,1.7419288E-1,6.5975085E-2,2.670592E-1,2.0430742E-1,-1.2753649E-3,1.2246469E-16,-1.3325065E-3,-1.3607586E-3,7.294262E-2],"split_indices":[0,8,0,8,1,1,0,0,8,8,0,0,0,0,0,1,0,0,0],"split_type":[0,0,0,0,0,0,0,0,0,0,0,0,0,0,0,0,0,0,0],"sum_hessian":[1.065E3,1.048E3,1.7E1,1.036E3,1.2E1,4E0,1.3E1,9.99E2,3.7E1,1.1E1,1E0,1E0,3E0,1E0,3.6E1,2E0,9E0,1E0,1E0],"tree_param":{"num_deleted":"0","num_feature":"12","num_nodes":"19","size_leaf_vector":"1"}},{"base_weights":[2.4125949E-3,-4.9332186E-4,1.7162892E-1,-1.8107943E-3,1.0463839E-1,6.26694E-1,-9.4605715E-4,-8.772462E-4,2.7535794E-2,3.1100519E-2,1.4806393E-1,5.6078807E-2,2.0697086E-1,1.736613E-1,-9.030962E-4,1.3521019E-1,-9.7272976E-4,-1.1566448E-3,6.2001232E-2],"categories":[],"categories_nodes":[],"categories_segments":[],"categories_sizes":[],"default_left":[0,0,0,0,0,0,0,0,0,0,0,0,0,0,0,0,0,0,0],"id":5,"left_children":[1,3,5,7,9,11,-1,-1,13,15,-1,-1,-1,-1,-1,17,-1,-1,-1],"loss_changes":[5.242673E-1,1.454845E-1,1.4336494E0,3.3962734E-2,3.5644355E-1,1.0021806E-2,0E0,0E0,6.417062E-1,4.3343607E-2,0E0,0E0,0E0,0E0,0E0,3.0609954E-2,0E0,0E0,0E0],"parents":[2147483647,0,0,1,1,2,2,3,3,4,4,5,5,8,8,9,9,15,15],"right_children":[2,4,6,8,10,12,-1,-1,14,16,-1,-1,-1,-1,-1,18,-1,-1,-1],"split_conditions":[6.040274E-2,9.879093E2,1.5132071E0,8.5433185E2,7.0710677E-1,7.0710677E-1,-9.4605715E-4,-8.772462E-4,8.5470795E2,1.0645039E3,1.4806393E-1,5.6078807E-2,2.0697086E-1,1.736613E-1,-9.030962E-4,1.2246469E-16,-9.7272976E-4,-1.1566448E-3,6.2001232E-2],"split_indices":[0,8,0,8,1,1,0,0,8,8,0,0,0,0,0,1,0,0,0],"split_type":[0,0,0,0,0,0,0,0,0,0,0,0,0,0,0,0,0,0,0],"sum_hessian":[1.065E3,1.048E3,1.7E1,1.036E3,1.2E1,4E0,1.3E1,9.99E2,3.7E1,1.1E1,1E0,1E0,3E0,1E0,3.6E1,2E0,9E0,1E0,1E0],"tree_param":{"num_deleted":"0","num_feature":"12","num_nodes":"19","size_leaf_vector":"1"}},{"base_weights":[2.2909928E-3,-1.7375302E-3,7.932177E-2,-6.158954E-4,2.0941554E-2,5.20078E-3,5.6565964E-1,-5.676466E-4,4.766697E-2,-6.389963E-4,2.6759684E-2,1.9809042E-1,-3.2862666E-4,1.14928655E-1,-7.100927E-4,-9.83148E-4,5.2701045E-2],"categories":[],"categories_nodes":[],"categories_segments":[],"categories_sizes":[],"default_left":[0,0,0,0,0,0,0,0,0,0,0,0,0,0,0,0,0],"id":6,"left_children":[1,3,5,-1,7,9,11,-1,-1,-1,13,-1,-1,15,-1,-1,-1],"loss_changes":[3.3093923E-1,7.297363E-3,1.907594E0,0E0,4.4398855E-2,7.4850335E-3,3.76194E-1,0E0,0E0,0E0,3.1088846E-2,0E0,0E0,2.2115692E-2,0E0,0E0,0E0],"parents":[2147483647,0,0,1,1,2,2,4,4,5,5,6,6,10,10,13,13],"right_children":[2,4,6,-1,8,10,12,-1,-1,-1,14,-1,-1,16,-1,-1,-1],"split_conditions":[8.5433185E2,8.250973E2,1.9344315E2,-6.158954E-4,6.040274E-2,9.879093E2,9.659258E-1,-5.676466E-4,4.766697E-2,-6.389963E-4,1.0645039E3,1.9809042E-1,-3.2862666E-4,1.2246469E-16,-7.100927E-4,-9.83148E-4,5.2701045E-2],"split_indices":[8,8,7,0,0,8,1,0,0,0,8,0,0,1,0,0,0],"split_type":[0,0,0,0,0,0,0,0,0,0,0,0,0,0,0,0,0],"sum_hessian":[1.065E3,1.013E3,5.2E1,1E3,1.3E1,4.6E1,6E0,1.2E1,1E0,3.5E1,1.1E1,5E0,1E0,2E0,9E0,1E0,1E0],"tree_param":{"num_deleted":"0","num_feature":"12","num_nodes":"17","size_leaf_vector":"1"}},{"base_weights":[1.8800686E-3,-1.1704295E-3,6.0206957E-2,-4.3131132E-4,1.8023321E-2,4.712224E-3,4.2421344E-1,-4.104521E-4,4.0516913E-2,-4.526224E-4,2.2982433E-2,1.4856783E-1,-2.7933266E-4,9.7689375E-2,-5.183677E-4,-8.3567586E-4,4.4795897E-2],"categories":[],"categories_nodes":[],"categories_segments":[],"categories_sizes":[],"default_left":[0,0,0,0,0,0,0,0,0,0,0,0,0,0,0,0,0],"id":7,"left_children":[1,3,5,-1,7,9,11,-1,-1,-1,13,-1,-1,15,-1,-1,-1],"loss_changes":[1.8973966E-1,5.227738E-3,1.0686246E0,0E0,3.1957023E-2,5.3766165E-3,2.1179545E-1,0E0,0E0,0E0,2.2321193E-2,0E0,0E0,1.5978592E-2,0E0,0E0,0E0],"parents":[2147483647,0,0,1,1,2,2,4,4,5,5,6,6,10,10,13,13],"right_children":[2,4,6,-1,8,10,12,-1,-1,-1,14,-1,-1,16,-1,-1,-1],"split_conditions":[8.5433185E2,8.250973E2,1.9344315E2,-4.3131132E-4,6.040274E-2,9.879093E2,9.659258E-1,-4.104521E-4,4.0516913E-2,-4.526224E-4,1.0645039E3,1.4856783E-1,-2.7933266E-4,1.2246469E-16,-5.183677E-4,-8.3567586E-4,4.4795897E-2],"split_indices":[8,8,7,0,0,8,1,0,0,0,8,0,0,1,0,0,0],"split_type":[0,0,0,0,0,0,0,0,0,0,0,0,0,0,0,0,0],"sum_hessian":[1.065E3,1.013E3,5.2E1,1E3,1.3E1,4.6E1,6E0,1.2E1,1E0,3.5E1,1.1E1,5E0,1E0,2E0,9E0,1E0,1E0],"tree_param":{"num_deleted":"0","num_feature":"12","num_nodes":"17","size_leaf_vector":"1"}},{"base_weights":[1.5327017E-3,-7.801732E-4,4.5753878E-2,-3.020472E-4,1.5481076E-2,1.3170615E-1,1.3377473E-2,-2.9678844E-4,3.4439385E-2,4.213222E-3,1.1771306E-1,-3.2060753E-4,1.970786E-2,1.6359594E-1,-2.9903413E-3,2.4910795E-2,-3.7840844E-4,7.385561E-2,-2.3743276E-4],"categories":[],"categories_nodes":[],"categories_segments":[],"categories_sizes":[],"default_left":[0,0,0,0,0,0,0,0,0,0,0,0,0,0,0,0,0,0,0],"id":8,"left_children":[1,3,5,-1,7,-1,9,-1,-1,11,13,-1,15,17,-1,-1,-1,-1,-1],"loss_changes":[1.09064095E-1,3.7528086E-3,6.6895264E-1,0E0,2.301457E-2,0E0,4.7311928E-2,0E0,0E0,3.8676043E-3,2.5064163E-2,0E0,1.6040035E-2,4.092481E-2,0E0,0E0,0E0,0E0,0E0],"parents":[2147483647,0,0,1,1,2,2,4,4,6,6,9,9,10,10,12,12,13,13],"right_children":[2,4,6,-1,8,-1,10,-1,-1,12,14,-1,16,18,-1,-1,-1,-1,-1],"split_conditions":[8.5433185E2,8.250973E2,8.5470795E2,-3.020472E-4,6.040274E-2,1.3170615E-1,1.9344315E2,-2.9678844E-4,3.4439385E-2,9.879093E2,6.040274E-2,-3.2060753E-4,1.0645039E3,8.660254E-1,-2.9903413E-3,2.4910795E-2,-3.7840844E-4,7.385561E-2,-2.3743276E-4],"split_indices":[8,8,8,0,0,0,7,0,0,8,0,0,8,1,0,0,0,0,0],"split_type":[0,0,0,0,0,0,0,0,0,0,0,0,0,0,0,0,0,0,0],"sum_hessian":[1.065E3,1.013E3,5.2E1,1E3,1.3E1,3E0,4.9E1,1.2E1,1E0,4.6E1,3E0,3.5E1,1.1E1,2E0,1E0,2E0,9E0,1E0,1E0],"tree_param":{"num_deleted":"0","num_feature":"12","num_nodes":"19","size_leaf_vector":"1"}},{"base_weights":[1.3171558E-3,-5.1274785E-4,3.6302157E-2,-2.1152354E-4,1.3275514E-2,1.02072254E-1,1.1261021E-2,-2.1460088E-4,2.9273488E-2,3.4643991E-3,1.0005607E-1,-2.2709697E-4,1.5839865E-2,1.3905655E-1,-2.5418045E-3,1.9928632E-2,-2.7623813E-4,6.2777266E-2,-2.0181785E-4],"categories":[],"categories_nodes":[],"categories_segments":[],"categories_sizes":[],"default_left":[0,0,0,0,0,0,0,0,0,0,0,0,0,0,0,0,0,0,0],"id":9,"left_children":[1,3,5,-1,7,-1,9,-1,-1,11,13,-1,15,17,-1,-1,-1,-1,-1],"loss_changes":[6.826306E-2,2.6983914E-3,3.9954996E-1,0E0,1.6582347E-2,0E0,3.4268435E-2,0E0,0E0,2.4673487E-3,1.810887E-2,0E0,1.023601E-2,2.9568177E-2,0E0,0E0,0E0,0E0,0E0],"parents":[2147483647,0,0,1,1,2,2,4,4,6,6,9,9,10,10,12,12,13,13],"right_children":[2,4,6,-1,8,-1,10,-1,-1,12,14,-1,16,18,-1,-1,-1,-1,-1],"split_conditions":[8.5433185E2,8.250973E2,8.5470795E2,-2.1152354E-4,6.040274E-2,1.02072254E-1,1.9344315E2,-2.1460088E-4,2.9273488E-2,9.879093E2,6.040274E-2,-2.2709697E-4,1.0645039E3,8.660254E-1,-2.5418045E-3,1.9928632E-2,-2.7623813E-4,6.2777266E-2,-2.0181785E-4],"split_indices":[8,8,8,0,0,0,7,0,0,8,0,0,8,1,0,0,0,0,0],"split_type":[0,0,0,0,0,0,0,0,0,0,0,0,0,0,0,0,0,0,0],"sum_hessian":[1.065E3,1.013E3,5.2E1,1E3,1.3E1,3E0,4.9E1,1.2E1,1E0,4.6E1,3E0,3.5E1,1.1E1,2E0,1E0,2E0,9E0,1E0,1E0],"tree_param":{"num_deleted":"0","num_feature":"12","num_nodes":"19","size_leaf_vector":"1"}},{"base_weights":[1.1193623E-3,-3.304744E-4,2.8836628E-2,-4.9376616E-4,1.1368494E-2,7.9106E-2,9.471893E-3,-1.4656867E-4,-2.477246E-4,-1.5517294E-4,2.488246E-2,2.8383848E-3,8.504765E-2,-1.6086036E-4,1.272561E-2,1.1819806E-1,-2.1605373E-3,-2.0271046E-3,1.2405807E-2,5.3360675E-2,-1.7154517E-4],"categories":[],"categories_nodes":[],"categories_segments":[],"categories_sizes":[],"default_left":[0,0,0,0,0,0,0,0,0,0,0,0,0,0,0,0,0,0,0,0,0],"id":10,"left_children":[1,3,5,7,9,-1,11,-1,-1,-1,-1,13,15,-1,17,19,-1,-1,-1,-1,-1],"loss_changes":[4.2847283E-2,1.9427034E-3,2.3853624E-1,1.3259269E-6,1.1952677E-2,0E0,2.4825223E-2,0E0,0E0,0E0,0E0,1.5749923E-3,1.3083665E-2,0E0,6.972189E-3,2.1363009E-2,0E0,0E0,0E0,0E0,0E0],"parents":[2147483647,0,0,1,1,2,2,3,3,4,4,6,6,11,11,12,12,14,14,15,15],"right_children":[2,4,6,8,10,-1,12,-1,-1,-1,-1,14,16,-1,18,20,-1,-1,-1,-1,-1],"split_conditions":[8.5433185E2,8.250973E2,8.5470795E2,6.040274E-2,6.040274E-2,7.9106E-2,1.9344315E2,-1.4656867E-4,-2.477246E-4,-1.5517294E-4,2.488246E-2,9.879093E2,6.040274E-2,-1.6086036E-4,8.9678116E1,8.660254E-1,-2.1605373E-3,-2.0271046E-3,1.2405807E-2,5.3360675E-2,-1.7154517E-4],"split_indices":[8,8,8,0,0,0,7,0,0,0,0,8,0,0,9,1,0,0,0,0,0],"split_type":[0,0,0,0,0,0,0,0,0,0,0,0,0,0,0,0,0,0,0,0,0],"sum_hessian":[1.065E3,1.013E3,5.2E1,1E3,1.3E1,3E0,4.9E1,9.87E2,1.3E1,1.2E1,1E0,4.6E1,3E0,3.5E1,1.1E1,2E0,1E0,7E0,4E0,1E0,1E0],"tree_param":{"num_deleted":"0","num_feature":"12","num_nodes":"21","size_leaf_vector":"1"}},{"base_weights":[9.380426E-4,-2.0733515E-4,2.2833796E-2,-1.0380907E-4,9.724173E-3,2.2042715E-3,1.5808435E-1,-1.1220197E-4,2.1150077E-2,6.632684E-3,-3.5943666E-3,5.5378128E-2,-1.4581339E-4,-1.1187106E-4,3.121439E-2,-1.5422526E-2,-1.5375853E-3,2.9489744E-2,-5.587174E-4,-7.132173E-3,1.920358E-4,-4.7214635E-5,-2.0022006E-3],"categories":[],"categories_nodes":[],"categories_segments":[],"categories_sizes":[],"default_left":[0,0,0,0,0,0,0,0,0,0,0,0,0,0,0,0,0,0,0,0,0,0,0],"id":11,"left_children":[1,3,5,-1,7,9,11,-1,-1,13,15,-1,-1,-1,17,19,21,-1,-1,-1,-1,-1,-1],"loss_changes":[2.673885E-2,1.4001006E-3,1.4752972E-1,0E0,8.618557E-3,1.2307419E-3,2.9514983E-2,0E0,0E0,4.661291E-3,4.871733E-4,0E0,0E0,0E0,1.3496758E-2,4.1765388E-4,1.336463E-4,0E0,0E0,0E0,0E0,0E0,0E0],"parents":[2147483647,0,0,1,1,2,2,4,4,5,5,6,6,9,9,10,10,14,14,15,15,16,16],"right_children":[2,4,6,-1,8,10,12,-1,-1,14,16,-1,-1,-1,18,20,22,-1,-1,-1,-1,-1,-1],"split_conditions":[8.5433185E2,8.250973E2,1.9344315E2,-1.0380907E-4,6.040274E-2,2.3231823E-3,9.659258E-1,-1.1220197E-4,2.1150077E-2,9.805122E2,8.4776405E1,5.5378128E-2,-1.4581339E-4,-1.1187106E-4,1.0645039E3,1.2246469E-16,1.709847E2,2.9489744E-2,-5.587174E-4,-7.132173E-3,1.920358E-4,-4.7214635E-5,-2.0022006E-3],"split_indices":[8,8,7,0,0,3,1,0,0,8,9,0,0,0,8,1,7,0,0,0,0,0,0],"split_type":[0,0,0,0,0,0,0,0,0,0,0,0,0,0,0,0,0,0,0,0,0,0,0],"sum_hessian":[1.065E3,1.013E3,5.2E1,1E3,1.3E1,4.6E1,6E0,1.2E1,1E0,2.6E1,2E1,5E0,1E0,2.1E1,5E0,2E0,1.8E1,1E0,4E0,1E0,1E0,1.5E1,3E0],"tree_param":{"num_deleted":"0","num_feature":"12","num_nodes":"23","size_leaf_vector":"1"}},{"base_weights":[7.4668194E-4,-7.269746E-5,1.5735306E-2,3.478081E-3,1.18549325E-1,1.5056689E-3,1.797756E-2,1.3844526E-1,-1.2394138E-4,-2.5465642E-4,8.421497E-3,5.9792597E-2,4.8847035E-2,-8.8516455E-5,7.9047015E-5,1.26692895E-2,-7.690477E-4,3.7049856E-2,-1.0143185E-2],"categories":[],"categories_nodes":[],"categories_segments":[],"categories_sizes":[],"default_left":[0,0,0,0,0,0,0,0,0,0,0,0,0,0,0,0,0,0,0],"id":12,"left_children":[1,-1,3,5,7,9,-1,11,-1,13,15,17,-1,-1,-1,-1,-1,-1,-1],"loss_changes":[1.5806038E-2,0E0,8.2761824E-2,6.589991E-3,1.6625285E-2,7.204169E-4,0E0,1.76882E-3,0E0,1.0824942E-6,4.5650187E-3,2.206511E-2,0E0,0E0,0E0,0E0,0E0,0E0,0E0],"parents":[2147483647,0,0,2,2,3,3,4,4,5,5,7,7,9,9,10,10,11,11],"right_children":[2,-1,4,6,8,10,-1,12,-1,14,16,18,-1,-1,-1,-1,-1,-1,-1],"split_conditions":[8.250973E2,-7.269746E-5,1.9344315E2,6.040274E-2,9.659258E-1,9.879093E2,1.797756E-2,8.660254E-1,-1.2394138E-4,1.709847E2,1.0645039E3,6.040274E-2,4.8847035E-2,-8.8516455E-5,7.9047015E-5,1.26692895E-2,-7.690477E-4,3.7049856E-2,-1.0143185E-2],"split_indices":[8,0,7,0,1,8,0,1,0,7,8,0,0,0,0,0,0,0,0],"split_type":[0,0,0,0,0,0,0,0,0,0,0,0,0,0,0,0,0,0,0],"sum_hessian":[1.065E3,1E3,6.5E1,5.9E1,6E0,5.8E1,1E0,5E0,1E0,4.7E1,1.1E1,2E0,3E0,4.4E1,3E0,2E0,9E0,1E0,1E0],"tree_param":{"num_deleted":"0","num_feature":"12","num_nodes":"19","size_leaf_vector":"1"}},{"base_weights":[6.2157586E-4,-5.0910014E-5,1.2613176E-2,2.932463E-3,9.378883E-2,1.2555062E-3,1.5280939E-2,1.0953736E-1,-1.0535017E-4,3.8935917E-3,-3.042958E-3,4.302621E-2,5.6740522E-2,-5.976957E-5,7.521916E-3,-3.8574103E-3,-2.7833844E-4,-2.9838802E-3,3.8520135E-2],"categories":[],"categories_nodes":[],"categories_segments":[],"categories_sizes":[],"default_left":[0,0,0,0,0,0,0,0,0,0,0,0,0,0,0,0,0,0,0],"id":13,"left_children":[1,-1,3,5,7,9,-1,11,-1,13,15,-1,17,-1,-1,-1,-1,-1,-1],"loss_changes":[1.0117058E-2,0E0,5.1590294E-2,4.766087E-3,1.0416426E-2,6.808913E-4,0E0,2.5958344E-3,0E0,3.2122957E-3,4.6556164E-4,0E0,2.0392187E-2,0E0,0E0,0E0,0E0,0E0,0E0],"parents":[2147483647,0,0,2,2,3,3,4,4,5,5,7,7,9,9,10,10,12,12],"right_children":[2,-1,4,6,8,10,-1,12,-1,14,16,-1,18,-1,-1,-1,-1,-1,-1],"split_conditions":[8.250973E2,-5.0910014E-5,1.9344315E2,6.040274E-2,9.659258E-1,2.3231823E-3,1.5280939E-2,6.040274E-2,-1.0535017E-4,9.805122E2,8.4776405E1,4.302621E-2,2.2139712E-1,-5.976957E-5,7.521916E-3,-3.8574103E-3,-2.7833844E-4,-2.9838802E-3,3.8520135E-2],"split_indices":[8,0,7,0,1,3,0,0,0,8,9,0,0,0,0,0,0,0,0],"split_type":[0,0,0,0,0,0,0,0,0,0,0,0,0,0,0,0,0,0,0],"sum_hessian":[1.065E3,1E3,6.5E1,5.9E1,6E0,5.8E1,1E0,5E0,1E0,3.6E1,2.2E1,2E0,3E0,3.1E1,5E0,3E0,1.9E1,2E0,1E0],"tree_param":{"num_deleted":"0","num_feature":"12","num_nodes":"19","size_leaf_vector":"1"}},{"base_weights":[5.261101E-4,-3.5652265E-5,1.0299896E-2,2.3628469E-3,7.686033E-2,9.3523477E-4,1.2988795E-2,3.196428E-2,2.795798E-2,-2.6290289E-3,4.0247394E-3,5.544202E-2,-8.174121E-3,-3.124241E-5,-4.266805E-3,2.2037603E-2,-1.7540983E-4,2.5038458E-2,-8.954765E-5],"categories":[],"categories_nodes":[],"categories_segments":[],"categories_sizes":[],"default_left":[0,0,0,0,0,0,0,0,0,0,0,0,0,0,0,0,0,0,0],"id":14,"left_children":[1,-1,3,5,7,9,-1,-1,11,13,15,17,-1,-1,-1,-1,-1,-1,-1],"loss_changes":[6.720875E-3,0E0,3.4685753E-2,3.4657062E-3,7.1835853E-3,6.602779E-4,0E0,0E0,7.5796647E-3,8.181536E-4,1.0284599E-2,4.7103763E-3,0E0,0E0,0E0,0E0,0E0,0E0,0E0],"parents":[2147483647,0,0,2,2,3,3,4,4,5,5,8,8,9,9,10,10,11,11],"right_children":[2,-1,4,6,8,10,-1,-1,12,14,16,18,-1,-1,-1,-1,-1,-1,-1],"split_conditions":[8.250973E2,-3.5652265E-5,1.9344315E2,6.040274E-2,2.4911935E2,4.3896034E1,1.2988795E-2,3.196428E-2,6.040274E-2,9.879093E2,1.5002875E2,8.660254E-1,-8.174121E-3,-3.124241E-5,-4.266805E-3,2.2037603E-2,-1.7540983E-4,2.5038458E-2,-8.954765E-5],"split_indices":[8,0,7,0,7,7,0,0,0,8,6,1,0,0,0,0,0,0,0],"split_type":[0,0,0,0,0,0,0,0,0,0,0,0,0,0,0,0,0,0,0],"sum_hessian":[1.065E3,1E3,6.5E1,5.9E1,6E0,5.8E1,1E0,3E0,3E0,2.7E1,3.1E1,2E0,1E0,2.3E1,4E0,1E0,3E1,1E0,1E0],"tree_param":{"num_deleted":"0","num_feature":"12","num_nodes":"19","size_leaf_vector":"1"}},{"base_weights":[4.426263E-4,-8.322423E-5,8.41132E-3,-2.380181E-5,-1.0543213E-4,2.1632079E-3,6.076495E-2,9.523613E-4,1.1040473E-2,7.097701E-2,-7.6115495E-5,-1.993822E-3,3.5005102E-3,2.872069E-2,3.4663796E-2,-2.2260218E-5,-3.2427718E-3,1.873196E-2,-1.244844E-4,-4.766131E-3,2.7947474E-2],"categories":[],"categories_nodes":[],"categories_segments":[],"categories_sizes":[],"default_left":[0,0,0,0,0,0,0,0,0,0,0,0,0,0,0,0,0,0,0,0,0],"id":15,"left_children":[1,3,5,-1,-1,7,9,11,-1,13,-1,15,17,-1,19,-1,-1,-1,-1,-1,-1],"loss_changes":[4.4676047E-3,1.0151443E-6,2.14579E-2,0E0,0E0,2.4814566E-3,4.3798946E-3,4.499109E-4,0E0,2.0758323E-3,0E0,4.730213E-4,7.4106953E-3,0E0,1.3307802E-2,0E0,0E0,0E0,0E0,0E0,0E0],"parents":[2147483647,0,0,1,1,2,2,5,5,6,6,7,7,9,9,11,11,12,12,14,14],"right_children":[2,4,6,-1,-1,8,10,12,-1,14,-1,16,18,-1,20,-1,-1,-1,-1,-1,-1],"split_conditions":[8.250973E2,6.040274E-2,1.9344315E2,-2.380181E-5,-1.0543213E-4,6.040274E-2,9.659258E-1,4.3896034E1,1.1040473E-2,6.040274E-2,-7.6115495E-5,9.879093E2,1.5002875E2,2.872069E-2,2.2139712E-1,-2.2260218E-5,-3.2427718E-3,1.873196E-2,-1.244844E-4,-4.766131E-3,2.7947474E-2],"split_indices":[8,0,7,0,0,0,1,7,0,0,0,8,6,0,0,0,0,0,0,0,0],"split_type":[0,0,0,0,0,0,0,0,0,0,0,0,0,0,0,0,0,0,0,0,0],"sum_hessian":[1.065E3,1E3,6.5E1,9.87E2,1.3E1,5.9E1,6E0,5.8E1,1E0,5E0,1E0,2.7E1,3.1E1,2E0,3E0,2.3E1,4E0,1E0,3E1,2E0,1E0],"tree_param":{"num_deleted":"0","num_feature":"12","num_nodes":"21","size_leaf_vector":"1"}},{"base_weights":[3.830842E-4,-1.751582E-5,7.0729125E-3,1.9539613E-3,4.993922E-2,9.2669437E-4,9.384406E-3,2.0879675E-2,1.7794723E-2,-1.5122836E-3,3.031841E-3,3.7577543E-2,-6.2330607E-3,-1.5860405E-5,-2.4645065E-3,1.5922166E-2,-8.834377E-5,1.6974593E-2,-6.469818E-5],"categories":[],"categories_nodes":[],"categories_segments":[],"categories_sizes":[],"default_left":[0,0,0,0,0,0,0,0,0,0,0,0,0,0,0,0,0,0,0],"id":16,"left_children":[1,-1,3,5,7,9,-1,-1,11,13,15,17,-1,-1,-1,-1,-1,-1,-1],"loss_changes":[3.148695E-3,0E0,1.4384835E-2,1.778635E-3,3.1851642E-3,3.0751497E-4,0E0,0E0,3.8329633E-3,2.7346393E-4,5.342216E-3,2.1669175E-3,0E0,0E0,0E0,0E0,0E0,0E0,0E0],"parents":[2147483647,0,0,2,2,3,3,4,4,5,5,8,8,9,9,10,10,11,11],"right_children":[2,-1,4,6,8,10,-1,-1,12,14,16,18,-1,-1,-1,-1,-1,-1,-1],"split_conditions":[8.250973E2,-1.751582E-5,1.9344315E2,6.040274E-2,2.4911935E2,4.3896034E1,9.384406E-3,2.0879675E-2,6.040274E-2,9.879093E2,1.5002875E2,8.660254E-1,-6.2330607E-3,-1.5860405E-5,-2.4645065E-3,1.5922166E-2,-8.834377E-5,1.6974593E-2,-6.469818E-5],"split_indices":[8,0,7,0,7,7,0,0,0,8,6,1,0,0,0,0,0,0,0],"split_type":[0,0,0,0,0,0,0,0,0,0,0,0,0,0,0,0,0,0,0],"sum_hessian":[1.065E3,1E3,6.5E1,5.9E1,6E0,5.8E1,1E0,3E0,3E0,2.7E1,3.1E1,2E0,1E0,2.3E1,4E0,1E0,3E1,1E0,1E0],"tree_param":{"num_deleted":"0","num_feature":"12","num_nodes":"19","size_leaf_vector":"1"}},{"base_weights":[3.1907493E-4,1.4537403E-4,1.1709112E-2,1.959616E-4,-5.277562E-3,1.9066762E-2,-7.1182345E-5,6.7484114E-5,1.0429437E-2,-3.3218952E-5,2.715789E-3,3.679035E-2,-1.1578712E-3,-1.1452904E-5,1.3841415E-4,1.4358294E-2,6.0632603E-5,-5.8880155E-3,1.8641485E-2,7.381595E-4,-2.1601827E-3],"categories":[],"categories_nodes":[],"categories_segments":[],"categories_sizes":[],"default_left":[0,0,0,0,0,0,0,0,0,0,0,0,0,0,0,0,0,0,0,0,0],"id":17,"left_children":[1,3,5,7,-1,-1,-1,9,11,13,15,17,19,-1,-1,-1,-1,-1,-1,-1,-1],"loss_changes":[2.107336E-3,9.4649324E-4,9.925183E-3,1.3784912E-3,0E0,0E0,0E0,2.7665024E-4,4.013475E-3,2.469537E-6,4.3025888E-3,6.9397935E-3,2.3636791E-4,0E0,0E0,0E0,0E0,0E0,0E0,0E0,0E0],"parents":[2147483647,0,0,1,1,2,2,3,3,7,7,8,8,9,9,10,10,11,11,12,12],"right_children":[2,4,6,8,-1,-1,-1,10,12,14,16,18,20,-1,-1,-1,-1,-1,-1,-1,-1],"split_conditions":[2.2139712E-1,6.040274E-2,1.5132071E0,9.879093E2,-5.277562E-3,1.9066762E-2,-7.1182345E-5,8.5433185E2,1.0645039E3,8.3790656E2,8.5470795E2,1.2246469E-16,8.9678116E1,-1.1452904E-5,1.3841415E-4,1.4358294E-2,6.0632603E-5,-5.8880155E-3,1.8641485E-2,7.381595E-4,-2.1601827E-3],"split_indices":[0,0,0,8,0,0,0,8,8,8,8,1,9,0,0,0,0,0,0,0,0],"split_type":[0,0,0,0,0,0,0,0,0,0,0,0,0,0,0,0,0,0,0,0,0],"sum_hessian":[1.065E3,1.05E3,1.5E1,1.048E3,2E0,2E0,1.3E1,1.036E3,1.2E1,9.99E2,3.7E1,3E0,9E0,9.9E2,9E0,1E0,3.6E1,1E0,2E0,6E0,3E0],"tree_param":{"num_deleted":"0","num_feature":"12","num_nodes":"21","size_leaf_vector":"1"}},{"base_weights":[2.604964E-4,1.2136215E-4,9.383596E-3,1.6184173E-4,-4.2220354E-3,1.5253401E-2,-5.1352978E-5,6.126578E-5,8.172258E-3,-2.3126306E-5,2.280498E-3,2.8941618E-2,-9.527121E-4,-8.0205E-6,1.0104234E-4,1.2204552E-2,4.2934436E-5,-5.0048134E-3,1.491319E-2,-9.5474615E-4,1.5932777E-3],"categories":[],"categories_nodes":[],"categories_segments":[],"categories_sizes":[],"default_left":[0,0,0,0,0,0,0,0,0,0,0,0,0,0,0,0,0,0,0,0,0],"id":18,"left_children":[1,3,5,7,-1,-1,-1,9,11,13,15,17,19,-1,-1,-1,-1,-1,-1,-1,-1],"loss_changes":[1.3519729E-3,6.061823E-4,6.347121E-3,8.446316E-4,0E0,0E0,0E0,1.9426797E-4,2.4913303E-3,1.3078959E-6,3.1131564E-3,4.6195975E-3,1.5656698E-4,0E0,0E0,0E0,0E0,0E0,0E0,0E0,0E0],"parents":[2147483647,0,0,1,1,2,2,3,3,7,7,8,8,9,9,10,10,11,11,12,12],"right_children":[2,4,6,8,-1,-1,-1,10,12,14,16,18,20,-1,-1,-1,-1,-1,-1,-1,-1],"split_conditions":[2.2139712E-1,6.040274E-2,1.5132071E0,9.879093E2,-4.2220354E-3,1.5253401E-2,-5.1352978E-5,8.5433185E2,1.0645039E3,8.3790656E2,8.5470795E2,1.2246469E-16,1E0,-8.0205E-6,1.0104234E-4,1.2204552E-2,4.2934436E-5,-5.0048134E-3,1.491319E-2,-9.5474615E-4,1.5932777E-3],"split_indices":[0,0,0,8,0,0,0,8,8,8,8,1,2,0,0,0,0,0,0,0,0],"split_type":[0,0,0,0,0,0,0,0,0,0,0,0,0,0,0,0,0,0,0,0,0],"sum_hessian":[1.065E3,1.05E3,1.5E1,1.048E3,2E0,2E0,1.3E1,1.036E3,1.2E1,9.99E2,3.7E1,3E0,9E0,9.9E2,9E0,1E0,3.6E1,1E0,2E0,7E0,2E0],"tree_param":{"num_deleted":"0","num_feature":"12","num_nodes":"21","size_leaf_vector":"1"}},{"base_weights":[2.1411822E-4,1.0196434E-6,4.287096E-3,-6.028599E-6,1.5106674E-3,1.232797E-2,1.2568637E-3,1.7624219E-4,2.8287293E-3,1.8094726E-3,-3.8731457E-3,-4.7270532E-5,1.341467E-3,5.6382216E-4,2.0721506E-2,3.3399698E-5,5.702605E-4,-1.3339812E-3,3.798519E-4,9.395206E-3,-7.0528506E-5],"categories":[],"categories_nodes":[],"categories_segments":[],"categories_sizes":[],"default_left":[0,0,0,0,0,0,0,0,0,0,0,0,0,0,0,0,0,0,0,0,0],"id":19,"left_children":[1,3,5,-1,7,-1,9,11,-1,13,-1,-1,15,17,19,-1,-1,-1,-1,-1,-1],"loss_changes":[9.252259E-4,3.2352793E-5,5.8595026E-3,0E0,1.4626993E-4,0E0,4.1481134E-4,5.2679106E-6,0E0,1.1426482E-3,0E0,0E0,1.852788E-6,1.7102678E-4,6.735214E-4,0E0,0E0,0E0,0E0,0E0,0E0],"parents":[2147483647,0,0,1,1,2,2,4,4,6,6,7,7,9,9,12,12,13,13,14,14],"right_children":[2,4,6,-1,8,-1,10,12,-1,14,-1,-1,16,18,20,-1,-1,-1,-1,-1,-1],"split_conditions":[8.5433185E2,8.250973E2,8.5470795E2,-6.028599E-6,6.040274E-2,1.232797E-2,6.040274E-2,2.3231823E-3,2.8287293E-3,1.9344315E2,-3.8731457E-3,-4.7270532E-5,5E-1,8.4776405E1,8.660254E-1,3.3399698E-5,5.702605E-4,-1.3339812E-3,3.798519E-4,9.395206E-3,-7.0528506E-5],"split_indices":[8,8,8,0,0,0,0,3,0,7,0,0,1,9,1,0,0,0,0,0,0],"split_type":[0,0,0,0,0,0,0,0,0,0,0,0,0,0,0,0,0,0,0,0,0],"sum_hessian":[1.065E3,1.013E3,5.2E1,1E3,1.3E1,3E0,4.9E1,1.2E1,1E0,4.8E1,1E0,1E1,2E0,4.6E1,2E0,1E0,1E0,5E0,4.1E1,1E0,1E0],"tree_param":{"num_deleted":"0","num_feature":"12","num_nodes":"21","size_leaf_vector":"1"}},{"base_weights":[1.6883644E-4,7.113179E-5,6.5762587E-3,1.1152583E-4,-4.2231083E-3,9.585898E-4,1.3626195E-2,3.9062666E-5,5.8832774E-3,2.4044039E-3,-3.5368106E-5,-3.0828362E-6,1.3364239E-3,2.0626016E-2,-6.0214545E-4,8.524668E-3,-4.9029848E-5,-4.053994E-3,1.0953069E-2,6.2467495E-4,-1.5447905E-3],"categories":[],"categories_nodes":[],"categories_segments":[],"categories_sizes":[],"default_left":[0,0,0,0,0,0,0,0,0,0,0,0,0,0,0,0,0,0,0,0,0],"id":20,"left_children":[1,3,5,7,-1,9,-1,11,13,-1,-1,-1,15,17,19,-1,-1,-1,-1,-1,-1],"loss_changes":[6.668855E-4,6.022178E-4,3.4478987E-3,4.3850325E-4,0E0,1.1488133E-4,0E0,6.6392335E-5,1.2553874E-3,0E0,0E0,0E0,1.5480074E-3,2.6624796E-3,1.3278578E-4,0E0,0E0,0E0,0E0,0E0,0E0],"parents":[2147483647,0,0,1,1,2,2,3,3,5,5,7,7,8,8,12,12,13,13,14,14],"right_children":[2,4,6,8,-1,10,-1,12,14,-1,-1,-1,16,18,20,-1,-1,-1,-1,-1,-1],"split_conditions":[2.2139712E-1,6.040274E-2,8.660254E-1,9.879093E2,-4.2231083E-3,1.3373424E0,1.3626195E-2,8.5433185E2,1.0645039E3,2.4044039E-3,-3.5368106E-5,-3.0828362E-6,8.5470795E2,1.2246469E-16,8.9678116E1,8.524668E-3,-4.9029848E-5,-4.053994E-3,1.0953069E-2,6.2467495E-4,-1.5447905E-3],"split_indices":[0,0,1,8,0,0,0,8,8,0,0,0,8,1,9,0,0,0,0,0,0],"split_type":[0,0,0,0,0,0,0,0,0,0,0,0,0,0,0,0,0,0,0,0,0],"sum_hessian":[1.065E3,1.05E3,1.5E1,1.048E3,2E0,1.4E1,1E0,1.036E3,1.2E1,1E0,1.3E1,9.99E2,3.7E1,3E0,9E0,1E0,3.6E1,1E0,2E0,6E0,3E0],"tree_param":{"num_deleted":"0","num_feature":"12","num_nodes":"21","size_leaf_vector":"1"}},{"base_weights":[1.427857E-4,5.952445E-5,5.6030857E-3,9.1844675E-5,-3.378487E-3,8.2894537E-4,1.158228E-2,3.5514135E-5,4.5782235E-3,2.0437362E-3,-2.5515563E-5,-2.1589103E-6,1.1585401E-3,1.616301E-2,-5.135133E-4,7.24597E-3,-3.4718436E-5,-3.445895E-3,8.762467E-3,4.640443E-4,-1.1972126E-3],"categories":[],"categories_nodes":[],"categories_segments":[],"categories_sizes":[],"default_left":[0,0,0,0,0,0,0,0,0,0,0,0,0,0,0,0,0,0,0,0,0],"id":21,"left_children":[1,3,5,7,-1,9,-1,11,13,-1,-1,-1,15,17,19,-1,-1,-1,-1,-1,-1],"loss_changes":[4.8430363E-4,3.8559732E-4,2.4890872E-3,2.649408E-4,0E0,8.2613056E-5,0E0,4.9748047E-5,7.7512674E-4,0E0,0E0,0E0,1.1162487E-3,1.7782602E-3,7.781449E-5,0E0,0E0,0E0,0E0,0E0,0E0],"parents":[2147483647,0,0,1,1,2,2,3,3,5,5,7,7,8,8,12,12,13,13,14,14],"right_children":[2,4,6,8,-1,10,-1,12,14,-1,-1,-1,16,18,20,-1,-1,-1,-1,-1,-1],"split_conditions":[2.2139712E-1,6.040274E-2,8.660254E-1,9.879093E2,-3.378487E-3,1.3373424E0,1.158228E-2,8.5433185E2,1.0645039E3,2.0437362E-3,-2.5515563E-5,-2.1589103E-6,8.5470795E2,1.2246469E-16,8.9678116E1,7.24597E-3,-3.4718436E-5,-3.445895E-3,8.762467E-3,4.640443E-4,-1.1972126E-3],"split_indices":[0,0,1,8,0,0,0,8,8,0,0,0,8,1,9,0,0,0,0,0,0],"split_type":[0,0,0,0,0,0,0,0,0,0,0,0,0,0,0,0,0,0,0,0,0],"sum_hessian":[1.065E3,1.05E3,1.5E1,1.048E3,2E0,1.4E1,1E0,1.036E3,1.2E1,1E0,1.3E1,9.99E2,3.7E1,3E0,9E0,1E0,3.6E1,1E0,2E0,6E0,3E0],"tree_param":{"num_deleted":"0","num_feature":"12","num_nodes":"21","size_leaf_vector":"1"}},{"base_weights":[1.206013E-4,4.9672697E-5,4.7721863E-3,7.5532975E-5,-2.7028085E-3,7.1481057E-4,9.844923E-3,3.181172E-5,3.5573333E-3,1.7371775E-3,-1.8407656E-5,-1.5118849E-6,1.0007466E-3,1.2643274E-2,-4.3277614E-4,6.1590676E-3,-2.4584408E-5,-2.9290107E-3,7.009983E-3,-5.3013145E-4,9.809077E-4],"categories":[],"categories_nodes":[],"categories_segments":[],"categories_sizes":[],"default_left":[0,0,0,0,0,0,0,0,0,0,0,0,0,0,0,0,0,0,0,0,0],"id":22,"left_children":[1,3,5,7,-1,9,-1,11,13,-1,-1,-1,15,17,19,-1,-1,-1,-1,-1,-1],"loss_changes":[3.5146874E-4,2.4689734E-4,1.7971178E-3,1.595747E-4,0E0,5.9450293E-5,0E0,3.703273E-5,4.7677237E-4,0E0,0E0,0E0,8.051719E-4,1.1892326E-3,5.5180983E-5,0E0,0E0,0E0,0E0,0E0,0E0],"parents":[2147483647,0,0,1,1,2,2,3,3,5,5,7,7,8,8,12,12,13,13,14,14],"right_children":[2,4,6,8,-1,10,-1,12,14,-1,-1,-1,16,18,20,-1,-1,-1,-1,-1,-1],"split_conditions":[2.2139712E-1,6.040274E-2,8.660254E-1,9.879093E2,-2.7028085E-3,1.3373424E0,9.844923E-3,8.5433185E2,1.0645039E3,1.7371775E-3,-1.8407656E-5,-1.5118849E-6,8.5470795E2,1.2246469E-16,1E0,6.1590676E-3,-2.4584408E-5,-2.9290107E-3,7.009983E-3,-5.3013145E-4,9.809077E-4],"split_indices":[0,0,1,8,0,0,0,8,8,0,0,0,8,1,2,0,0,0,0,0,0],"split_type":[0,0,0,0,0,0,0,0,0,0,0,0,0,0,0,0,0,0,0,0,0],"sum_hessian":[1.065E3,1.05E3,1.5E1,1.048E3,2E0,1.4E1,1E0,1.036E3,1.2E1,1E0,1.3E1,9.99E2,3.7E1,3E0,9E0,1E0,3.6E1,1E0,2E0,7E0,2E0],"tree_param":{"num_deleted":"0","num_feature":"12","num_nodes":"21","size_leaf_vector":"1"}},{"base_weights":[1.02737395E-4,4.2346262E-5,4.063259E-3,6.303964E-5,-2.1622658E-3,6.14956E-4,8.368171E-3,2.8182352E-5,2.8387294E-3,1.4766097E-3,-1.3279809E-5,-1.0587731E-6,8.619564E-4,9.870535E-3,-2.5786564E-4,5.2352073E-3,-1.740842E-5,-2.489659E-3,5.607987E-3,-7.1204966E-4,4.644419E-4],"categories":[],"categories_nodes":[],"categories_segments":[],"categories_sizes":[],"default_left":[0,0,0,0,0,0,0,0,0,0,0,0,0,0,0,0,0,0,0,0,0],"id":23,"left_children":[1,3,5,7,-1,9,-1,11,13,-1,-1,-1,15,17,19,-1,-1,-1,-1,-1,-1],"loss_changes":[2.547942E-4,1.581305E-4,1.2976509E-3,1.0141391E-4,0E0,4.280768E-5,0E0,2.742164E-5,2.8561577E-4,0E0,0E0,0E0,5.8094494E-4,7.963495E-4,4.1882955E-5,0E0,0E0,0E0,0E0,0E0,0E0],"parents":[2147483647,0,0,1,1,2,2,3,3,5,5,7,7,8,8,12,12,13,13,14,14],"right_children":[2,4,6,8,-1,10,-1,12,14,-1,-1,-1,16,18,20,-1,-1,-1,-1,-1,-1],"split_conditions":[2.2139712E-1,6.040274E-2,8.660254E-1,9.879093E2,-2.1622658E-3,1.3373424E0,8.368171E-3,8.5433185E2,1.0645039E3,1.4766097E-3,-1.3279809E-5,-1.0587731E-6,8.5470795E2,1.2246469E-16,2.3231823E-3,5.2352073E-3,-1.740842E-5,-2.489659E-3,5.607987E-3,-7.1204966E-4,4.644419E-4],"split_indices":[0,0,1,8,0,0,0,8,8,0,0,0,8,1,3,0,0,0,0,0,0],"split_type":[0,0,0,0,0,0,0,0,0,0,0,0,0,0,0,0,0,0,0,0,0],"sum_hessian":[1.065E3,1.05E3,1.5E1,1.048E3,2E0,1.4E1,1E0,1.036E3,1.2E1,1E0,1.3E1,9.99E2,3.7E1,3E0,9E0,1E0,3.6E1,1E0,2E0,4E0,5E0],"tree_param":{"num_deleted":"0","num_feature":"12","num_nodes":"21","size_leaf_vector":"1"}},{"base_weights":[8.6697175E-5,3.527991E-5,3.45875E-3,5.1837378E-5,-1.7298221E-3,5.280301E-4,7.1129324E-3,-7.414588E-7,1.1369787E-3,1.2551309E-3,-9.5804335E-6,1.3937154E-4,1.2574619E-2,3.0466443E-4,-1.822107E-4,5.05724E-3,-4.108806E-5],"categories":[],"categories_nodes":[],"categories_segments":[],"categories_sizes":[],"default_left":[0,0,0,0,0,0,0,0,0,0,0,0,0,0,0,0,0],"id":24,"left_children":[1,3,5,7,-1,9,-1,-1,11,-1,-1,13,15,-1,-1,-1,-1],"loss_changes":[1.8470288E-4,1.0125345E-4,9.370818E-4,6.182336E-5,0E0,3.083989E-5,0E0,0E0,5.68761E-4,0E0,0E0,3.136781E-5,2.2007577E-4,0E0,0E0,0E0,0E0],"parents":[2147483647,0,0,1,1,2,2,3,3,5,5,8,8,11,11,12,12],"right_children":[2,4,6,8,-1,10,-1,-1,12,-1,-1,14,16,-1,-1,-1,-1],"split_conditions":[2.2139712E-1,6.040274E-2,8.660254E-1,8.5433185E2,-1.7298221E-3,1.3373424E0,7.1129324E-3,-7.414588E-7,1.9344315E2,1.2551309E-3,-9.5804335E-6,1.1974343E2,9.659258E-1,3.0466443E-4,-1.822107E-4,5.05724E-3,-4.108806E-5],"split_indices":[0,0,1,8,0,0,0,0,7,0,0,9,1,0,0,0,0],"split_type":[0,0,0,0,0,0,0,0,0,0,0,0,0,0,0,0,0],"sum_hessian":[1.065E3,1.05E3,1.5E1,1.048E3,2E0,1.4E1,1E0,9.99E2,4.9E1,1E0,1.3E1,4.6E1,3E0,2.1E1,2.5E1,2E0,1E0],"tree_param":{"num_deleted":"0","num_feature":"12","num_nodes":"17","size_leaf_vector":"1"}},{"base_weights":[7.172569E-5,2.7938207E-5,2.943533E-3,4.1183815E-5,-1.3838769E-3,4.5266413E-4,6.0459855E-3,-5.1924354E-7,8.986527E-4,1.0668755E-3,-6.911598E-6,1.00164725E-4,1.0056224E-2,-4.8002214E-4,1.313125E-4,4.045773E-3,-3.492485E-5],"categories":[],"categories_nodes":[],"categories_segments":[],"categories_sizes":[],"default_left":[0,0,0,0,0,0,0,0,0,0,0,0,0,0,0,0,0],"id":25,"left_children":[1,3,5,7,-1,9,-1,-1,11,-1,-1,13,15,-1,-1,-1,-1],"loss_changes":[1.3396643E-4,6.479603E-5,6.767531E-4,3.8602615E-5,0E0,2.2227709E-5,0E0,0E0,3.646032E-4,0E0,0E0,2.7673881E-5,1.4112584E-4,0E0,0E0,0E0,0E0],"parents":[2147483647,0,0,1,1,2,2,3,3,5,5,8,8,11,11,12,12],"right_children":[2,4,6,8,-1,10,-1,-1,12,-1,-1,14,16,-1,-1,-1,-1],"split_conditions":[2.2139712E-1,6.040274E-2,8.660254E-1,8.5433185E2,-1.3838769E-3,1.3373424E0,6.0459855E-3,-5.1924354E-7,1.9344315E2,1.0668755E-3,-6.911598E-6,8.549235E1,9.659258E-1,-4.8002214E-4,1.313125E-4,4.045773E-3,-3.492485E-5],"split_indices":[0,0,1,8,0,0,0,0,7,0,0,9,1,0,0,0,0],"split_type":[0,0,0,0,0,0,0,0,0,0,0,0,0,0,0,0,0],"sum_hessian":[1.065E3,1.05E3,1.5E1,1.048E3,2E0,1.4E1,1E0,9.99E2,4.9E1,1E0,1.3E1,4.6E1,3E0,7E0,3.9E1,2E0,1E0],"tree_param":{"num_deleted":"0","num_feature":"12","num_nodes":"17","size_leaf_vector":"1"}},{"base_weights":[5.9010443E-5,2.1723816E-5,2.5045876E-3,3.231929E-5,-1.1071205E-3,3.8752597E-4,5.139077E-3,1.4061182E-5,1.4862685E-3,9.06837E-4,-4.9862247E-6,-1.0533831E-6,3.8427918E-4,3.016643E-3,-8.133705E-4,-1.5360647E-5,2.036522E-3,2.2149622E-4,3.5282315E-3],"categories":[],"categories_nodes":[],"categories_segments":[],"categories_sizes":[],"default_left":[0,0,0,0,0,0,0,0,0,0,0,0,0,0,0,0,0,0,0],"id":26,"left_children":[1,3,5,7,-1,9,-1,11,13,-1,-1,-1,15,17,-1,-1,-1,-1,-1],"loss_changes":[9.715127E-5,4.1456922E-5,4.887766E-4,2.7826234E-5,0E0,1.602574E-5,0E0,6.747699E-6,9.16876E-5,0E0,0E0,0E0,1.3142484E-4,1.9053619E-4,0E0,0E0,0E0,0E0,0E0],"parents":[2147483647,0,0,1,1,2,2,3,3,5,5,7,7,8,8,12,12,13,13],"right_children":[2,4,6,8,-1,10,-1,12,14,-1,-1,-1,16,18,-1,-1,-1,-1,-1],"split_conditions":[2.2139712E-1,6.040274E-2,8.660254E-1,9.879093E2,-1.1071205E-3,1.3373424E0,5.139077E-3,8.3790656E2,1.1799507E2,9.06837E-4,-4.9862247E-6,-1.0533831E-6,1.9344315E2,8.9678116E1,-8.133705E-4,-1.5360647E-5,2.036522E-3,2.2149622E-4,3.5282315E-3],"split_indices":[0,0,1,8,0,0,0,8,9,0,0,0,7,9,0,0,0,0,0],"split_type":[0,0,0,0,0,0,0,0,0,0,0,0,0,0,0,0,0,0,0],"sum_hessian":[1.065E3,1.05E3,1.5E1,1.048E3,2E0,1.4E1,1E0,1.036E3,1.2E1,1E0,1.3E1,9.9E2,4.6E1,9E0,3E0,4.4E1,2E0,8E0,1E0],"tree_param":{"num_deleted":"0","num_feature":"12","num_nodes":"19","size_leaf_vector":"1"}},{"base_weights":[5.0585237E-5,1.886936E-5,2.1307603E-3,2.7348398E-5,-8.856774E-4,3.313844E-4,4.36821E-3,1.179081E-5,1.2662616E-3,7.707954E-4,-3.5972046E-6,-7.37687E-7,3.119978E-4,-1.8326985E-3,2.8472103E-3,-1.0854857E-5,1.6292125E-3,-2.123131E-3,3.7430346E-4,3.1574967E-3,-2.5500313E-4],"categories":[],"categories_nodes":[],"categories_segments":[],"categories_sizes":[],"default_left":[0,0,0,0,0,0,0,0,0,0,0,0,0,0,0,0,0,0,0,0,0],"id":27,"left_children":[1,3,5,7,-1,9,-1,11,13,-1,-1,-1,15,17,19,-1,-1,-1,-1,-1,-1],"loss_changes":[7.028869E-5,2.655785E-5,3.5303296E-4,2.0204021E-5,0E0,1.1557567E-5,0E0,4.436928E-6,6.8908936E-5,0E0,0E0,0E0,8.396159E-5,8.960365E-5,2.644243E-4,0E0,0E0,0E0,0E0,0E0,0E0],"parents":[2147483647,0,0,1,1,2,2,3,3,5,5,7,7,8,8,12,12,13,13,14,14],"right_children":[2,4,6,8,-1,10,-1,12,14,-1,-1,-1,16,18,20,-1,-1,-1,-1,-1,-1],"split_conditions":[2.2139712E-1,6.040274E-2,8.660254E-1,9.879093E2,-8.856774E-4,1.3373424E0,4.36821E-3,8.3790656E2,1.2246469E-16,7.707954E-4,-3.5972046E-6,-7.37687E-7,1.9344315E2,1.0645039E3,2.0102615E2,-1.0854857E-5,1.6292125E-3,-2.123131E-3,3.7430346E-4,3.1574967E-3,-2.5500313E-4],"split_indices":[0,0,1,8,0,0,0,8,1,0,0,0,7,8,6,0,0,0,0,0,0],"split_type":[0,0,0,0,0,0,0,0,0,0,0,0,0,0,0,0,0,0,0,0,0],"sum_hessian":[1.065E3,1.05E3,1.5E1,1.048E3,2E0,1.4E1,1E0,1.036E3,1.2E1,1E0,1.3E1,9.9E2,4.6E1,4E0,8E0,4.4E1,2E0,1E0,3E0,2E0,6E0],"tree_param":{"num_deleted":"0","num_feature":"12","num_nodes":"21","size_leaf_vector":"1"}},{"base_weights":[4.1995954E-5,1.5002731E-5,1.8124885E-3,2.1785694E-5,-7.0853235E-4,2.8311484E-4,3.7129642E-3,9.813566E-6,9.751174E-4,6.5517426E-4,-2.5951263E-6,1.6747983E-5,-6.385011E-4,-1.6326545E-3,2.315533E-3,-5.166042E-7,1.5329754E-4,-9.47961E-5,-5.795463E-4,-1.4194589E-3,6.031316E-4,2.5259852E-3,-1.894309E-4],"categories":[],"categories_nodes":[],"categories_segments":[],"categories_sizes":[],"default_left":[0,0,0,0,0,0,0,0,0,0,0,0,0,0,0,0,0,0,0,0,0,0,0],"id":28,"left_children":[1,3,5,7,-1,9,-1,11,13,-1,-1,15,17,19,21,-1,-1,-1,-1,-1,-1,-1,-1],"loss_changes":[5.0918334E-5,1.6995247E-5,2.549983E-4,1.1963098E-5,0E0,8.3377E-6,0E0,4.672719E-6,4.922194E-5,0E0,0E0,9.376035E-6,3.9778224E-6,6.595991E-5,1.6722246E-4,0E0,0E0,0E0,0E0,0E0,0E0,0E0,0E0],"parents":[2147483647,0,0,1,1,2,2,3,3,5,5,7,7,8,8,11,11,12,12,13,13,14,14],"right_children":[2,4,6,8,-1,10,-1,12,14,-1,-1,16,18,20,22,-1,-1,-1,-1,-1,-1,-1,-1],"split_conditions":[2.2139712E-1,6.040274E-2,8.660254E-1,9.879093E2,-7.0853235E-4,1.3373424E0,3.7129642E-3,9.3645575E2,1.2246469E-16,6.5517426E-4,-2.5951263E-6,8.3790656E2,1.0969104E2,1.0913116E3,2.0102615E2,-5.166042E-7,1.5329754E-4,-9.47961E-5,-5.795463E-4,-1.4194589E-3,6.031316E-4,2.5259852E-3,-1.894309E-4],"split_indices":[0,0,1,8,0,0,0,8,1,0,0,8,7,8,6,0,0,0,0,0,0,0,0],"split_type":[0,0,0,0,0,0,0,0,0,0,0,0,0,0,0,0,0,0,0,0,0,0,0],"sum_hessian":[1.065E3,1.05E3,1.5E1,1.048E3,2E0,1.4E1,1E0,1.036E3,1.2E1,1E0,1.3E1,1.026E3,1E1,4E0,8E0,9.9E2,3.6E1,9E0,1E0,2E0,2E0,2E0,6E0],"tree_param":{"num_deleted":"0","num_feature":"12","num_nodes":"23","size_leaf_vector":"1"}},{"base_weights":[3.3764634E-5,1.0777938E-5,1.5415929E-3,1.6201884E-5,-5.6681636E-4,2.4168566E-4,3.1560303E-3,6.3665375E-6,7.995136E-4,5.568981E-4,-1.8721983E-6,1.7163453E-5,-3.695112E-4,-1.3061236E-3,1.8804772E-3,-2.1368555E-8,5.216746E-4,-7.9625665E-5,-4.926144E-4,-1.5917425E-3,3.060749E-4,2.0207763E-3,-1.4072008E-4],"categories":[],"categories_nodes":[],"categories_segments":[],"categories_sizes":[],"default_left":[0,0,0,0,0,0,0,0,0,0,0,0,0,0,0,0,0,0,0,0,0,0,0],"id":29,"left_children":[1,3,5,7,-1,9,-1,11,13,-1,-1,15,17,19,21,-1,-1,-1,-1,-1,-1,-1,-1],"loss_changes":[3.693093E-5,1.0862634E-5,1.8419708E-4,8.076554E-6,0E0,6.016266E-6,0E0,4.2148204E-6,3.204566E-5,0E0,0E0,2.9941033E-5,3.4055465E-6,5.193704E-5,1.05832296E-4,0E0,0E0,0E0,0E0,0E0,0E0,0E0,0E0],"parents":[2147483647,0,0,1,1,2,2,3,3,5,5,7,7,8,8,11,11,12,12,13,13,14,14],"right_children":[2,4,6,8,-1,10,-1,12,14,-1,-1,16,18,20,22,-1,-1,-1,-1,-1,-1,-1,-1],"split_conditions":[2.2139712E-1,6.040274E-2,8.660254E-1,9.879093E2,-5.6681636E-4,1.3373424E0,3.1560303E-3,8.7234033E2,1.2246469E-16,5.568981E-4,-1.8721983E-6,8.5433185E2,1.9344315E2,1.0645039E3,2.0102615E2,-2.1368555E-8,5.216746E-4,-7.9625665E-5,-4.926144E-4,-1.5917425E-3,3.060749E-4,2.0207763E-3,-1.4072008E-4],"split_indices":[0,0,1,8,0,0,0,8,1,0,0,8,7,8,6,0,0,0,0,0,0,0,0],"split_type":[0,0,0,0,0,0,0,0,0,0,0,0,0,0,0,0,0,0,0,0,0,0,0],"sum_hessian":[1.065E3,1.05E3,1.5E1,1.048E3,2E0,1.4E1,1E0,1.036E3,1.2E1,1E0,1.3E1,1.008E3,2.8E1,4E0,8E0,9.99E2,9E0,2.7E1,1E0,1E0,3E0,2E0,6E0],"tree_param":{"num_deleted":"0","num_feature":"12","num_nodes":"23","size_leaf_vector":"1"}},{"base_weights":[2.70947E-5,7.522377E-6,1.3110583E-3,2.878164E-6,1.6289414E-3,2.061785E-4,2.6826384E-3,7.214819E-6,-4.5347217E-4,-3.4239434E-4,1.075418E-3,4.7335625E-4,-1.3506574E-6,-1.0302427E-5,1.5067002E-4,6.811055E-7,-6.707993E-5,2.4333717E-3,2.532492E-6],"categories":[],"categories_nodes":[],"categories_segments":[],"categories_sizes":[],"default_left":[0,0,0,0,0,0,0,0,0,0,0,0,0,0,0,0,0,0,0],"id":30,"left_children":[1,3,5,7,9,11,-1,13,-1,-1,-1,-1,-1,15,17,-1,-1,-1,-1],"loss_changes":[2.6778876E-5,7.909567E-6,1.3305894E-4,6.900376E-6,2.0345375E-5,4.3418877E-6,0E0,2.6326006E-6,0E0,0E0,0E0,0E0,0E0,2.505253E-6,1.2900446E-4,0E0,0E0,0E0,0E0],"parents":[2147483647,0,0,1,1,2,2,3,3,4,4,5,5,7,7,13,13,14,14],"right_children":[2,4,6,8,10,12,-1,14,-1,-1,-1,-1,-1,16,18,-1,-1,-1,-1],"split_conditions":[2.2139712E-1,1.1297407E3,8.660254E-1,6.040274E-2,2.3231823E-3,1.3373424E0,2.6826384E-3,2.4863153E2,-4.5347217E-4,-3.4239434E-4,1.075418E-3,4.7335625E-4,-1.3506574E-6,8.387533E2,2.4911935E2,6.811055E-7,-6.707993E-5,2.4333717E-3,2.532492E-6],"split_indices":[0,8,1,0,3,0,0,7,0,0,0,0,0,8,7,0,0,0,0],"split_type":[0,0,0,0,0,0,0,0,0,0,0,0,0,0,0,0,0,0,0],"sum_hessian":[1.065E3,1.05E3,1.5E1,1.048E3,2E0,1.4E1,1E0,1.046E3,2E0,1E0,1E0,1E0,1.3E1,9.33E2,1.13E2,8.82E2,5.1E1,1E0,1.12E2],"tree_param":{"num_deleted":"0","num_feature":"12","num_nodes":"19","size_leaf_vector":"1"}},{"base_weights":[2.4410721E-5,7.7861905E-6,1.114909E-3,3.8412636E-6,1.3846001E-3,1.7579836E-4,2.2802353E-3,7.313527E-6,-3.6277773E-4,-2.910352E-4,9.141053E-4,4.0236712E-4,-9.744028E-7,-7.282752E-6,1.2683643E-4,-1.0059713E-6,-1.3851147E-4,2.0683766E-3,1.7792286E-6],"categories":[],"categories_nodes":[],"categories_segments":[],"categories_sizes":[],"default_left":[0,0,0,0,0,0,0,0,0,0,0,0,0,0,0,0,0,0,0],"id":31,"left_children":[1,3,5,7,9,11,-1,13,-1,-1,-1,-1,-1,15,17,-1,-1,-1,-1],"loss_changes":[1.931686E-5,5.703114E-6,9.611907E-5,4.4274457E-6,1.46995335E-5,3.134334E-6,0E0,1.8275091E-6,0E0,0E0,0E0,0E0,0E0,1.666257E-6,9.3240706E-5,0E0,0E0,0E0,0E0],"parents":[2147483647,0,0,1,1,2,2,3,3,4,4,5,5,7,7,13,13,14,14],"right_children":[2,4,6,8,10,12,-1,14,-1,-1,-1,-1,-1,16,18,-1,-1,-1,-1],"split_conditions":[2.2139712E-1,1.1297407E3,8.660254E-1,6.040274E-2,2.3231823E-3,1.3373424E0,2.2802353E-3,2.4863153E2,-3.6277773E-4,-2.910352E-4,9.141053E-4,4.0236712E-4,-9.744028E-7,1.0645039E3,2.4911935E2,-1.0059713E-6,-1.3851147E-4,2.0683766E-3,1.7792286E-6],"split_indices":[0,8,1,0,3,0,0,7,0,0,0,0,0,8,7,0,0,0,0],"split_type":[0,0,0,0,0,0,0,0,0,0,0,0,0,0,0,0,0,0,0],"sum_hessian":[1.065E3,1.05E3,1.5E1,1.048E3,2E0,1.4E1,1E0,1.046E3,2E0,1E0,1E0,1E0,1.3E1,9.33E2,1.13E2,9.26E2,7E0,1E0,1.12E2],"tree_param":{"num_deleted":"0","num_feature":"12","num_nodes":"19","size_leaf_vector":"1"}},{"base_weights":[2.165863E-5,7.535275E-6,9.4803283E-4,4.183836E-6,1.1769101E-3,1.498128E-4,1.9382001E-3,6.963586E-6,-2.902031E-4,-2.473799E-4,7.7698944E-4,3.4199955E-4,-7.0296204E-7,2.6392038E-6,4.1400187E-4,3.5843732E-6,-7.4781114E-5,5.425187E-4,-3.1481762E-4],"categories":[],"categories_nodes":[],"categories_segments":[],"categories_sizes":[],"default_left":[0,0,0,0,0,0,0,0,0,0,0,0,0,0,0,0,0,0,0],"id":32,"left_children":[1,3,5,7,9,11,-1,13,-1,-1,-1,-1,-1,15,17,-1,-1,-1,-1],"loss_changes":[1.393988E-5,4.1140383E-6,6.943683E-5,2.8396696E-6,1.06204125E-5,2.2626116E-6,0E0,1.8418256E-6,0E0,0E0,0E0,0E0,0E0,2.4346937E-6,2.4343735E-5,0E0,0E0,0E0,0E0],"parents":[2147483647,0,0,1,1,2,2,3,3,4,4,5,5,7,7,13,13,14,14],"right_children":[2,4,6,8,10,12,-1,14,-1,-1,-1,-1,-1,16,18,-1,-1,-1,-1],"split_conditions":[2.2139712E-1,1.1297407E3,8.660254E-1,6.040274E-2,2.3231823E-3,1.3373424E0,1.9382001E-3,9.879093E2,-2.902031E-4,-2.473799E-4,7.7698944E-4,3.4199955E-4,-7.0296204E-7,8.5470795E2,2.3231823E-3,3.5843732E-6,-7.4781114E-5,5.425187E-4,-3.1481762E-4],"split_indices":[0,8,1,0,3,0,0,8,0,0,0,0,0,8,3,0,0,0,0],"split_type":[0,0,0,0,0,0,0,0,0,0,0,0,0,0,0,0,0,0,0],"sum_hessian":[1.065E3,1.05E3,1.5E1,1.048E3,2E0,1.4E1,1E0,1.046E3,2E0,1E0,1E0,1E0,1.3E1,1.036E3,1E1,1E3,3.6E1,5E0,5E0],"tree_param":{"num_deleted":"0","num_feature":"12","num_nodes":"19","size_leaf_vector":"1"}},{"base_weights":[1.7671018E-5,5.6514164E-6,8.0610416E-4,2.8012564E-6,1.0003736E-3,1.2762922E-4,1.6474844E-3,4.705818E-6,-2.989769E-4,-2.1027292E-4,6.6044106E-4,2.9071572E-4,-5.0713686E-7,-1.4866376E-6,1.6969925E-4,-1.19759925E-5,7.198942E-4],"categories":[],"categories_nodes":[],"categories_segments":[],"categories_sizes":[],"default_left":[0,0,0,0,0,0,0,0,0,0,0,0,0,0,0,0,0],"id":33,"left_children":[1,3,5,7,9,11,-1,13,-1,-1,-1,-1,-1,-1,15,-1,-1],"loss_changes":[1.0097557E-5,2.9769062E-6,5.016313E-5,2.0013579E-6,7.673248E-6,1.6338265E-6,0E0,1.6714026E-6,0E0,0E0,0E0,0E0,0E0,0E0,2.7207312E-5,0E0,0E0],"parents":[2147483647,0,0,1,1,2,2,3,3,4,4,5,5,7,7,14,14],"right_children":[2,4,6,8,10,12,-1,14,-1,-1,-1,-1,-1,-1,16,-1,-1],"split_conditions":[2.2139712E-1,1.1297407E3,8.660254E-1,1.1927145E-1,2.3231823E-3,1.3373424E0,1.6474844E-3,8.3790656E2,-2.989769E-4,-2.1027292E-4,6.6044106E-4,2.9071572E-4,-5.0713686E-7,-1.4866376E-6,1.9344315E2,-1.19759925E-5,7.198942E-4],"split_indices":[0,8,1,0,3,0,0,8,0,0,0,0,0,0,7,0,0],"split_type":[0,0,0,0,0,0,0,0,0,0,0,0,0,0,0,0,0],"sum_hessian":[1.065E3,1.05E3,1.5E1,1.048E3,2E0,1.4E1,1E0,1.047E3,1E0,1E0,1E0,1E0,1.3E1,9.9E2,5.7E1,5.3E1,4E0],"tree_param":{"num_deleted":"0","num_feature":"12","num_nodes":"17","size_leaf_vector":"1"}},{"base_weights":[1.4992303E-5,4.772254E-6,6.853847E-4,7.3957754E-6,-2.742529E-4,1.0869325E-4,1.4003635E-3,2.3178825E-6,4.1188646E-4,2.4712086E-4,-3.65863E-7,9.226036E-6,-1.8463834E-4,1.1110145E-3,-4.3167156E-4,-5.286814E-7,1.6496301E-3,-2.8255936E-5,-5.1613594E-4,-2.387504E-5,1.7739595E-3],"categories":[],"categories_nodes":[],"categories_segments":[],"categories_sizes":[],"default_left":[0,0,0,0,0,0,0,0,0,0,0,0,0,0,0,0,0,0,0,0,0],"id":34,"left_children":[1,3,5,7,-1,9,-1,11,13,-1,-1,15,17,19,-1,-1,-1,-1,-1,-1,-1],"loss_changes":[7.3003666E-6,2.5405968E-6,3.623935E-5,2.1536496E-6,0E0,1.1798901E-6,0E0,1.3410121E-6,1.8419869E-5,0E0,0E0,6.0390776E-5,4.9778982E-6,5.7645288E-5,0E0,0E0,0E0,0E0,0E0,0E0,0E0],"parents":[2147483647,0,0,1,1,2,2,3,3,5,5,7,7,8,8,11,11,12,12,13,13],"right_children":[2,4,6,8,-1,10,-1,12,14,-1,-1,16,18,20,-1,-1,-1,-1,-1,-1,-1],"split_conditions":[2.2139712E-1,6.040274E-2,8.660254E-1,9.879093E2,-2.742529E-4,1.3373424E0,1.4003635E-3,8.5470795E2,1.1799507E2,2.4712086E-4,-3.65863E-7,8.5433185E2,1.9344315E2,8.9678116E1,-4.3167156E-4,-5.286814E-7,1.6496301E-3,-2.8255936E-5,-5.1613594E-4,-2.387504E-5,1.7739595E-3],"split_indices":[0,0,1,8,0,0,0,8,9,0,0,8,7,9,0,0,0,0,0,0,0],"split_type":[0,0,0,0,0,0,0,0,0,0,0,0,0,0,0,0,0,0,0,0,0],"sum_hessian":[1.065E3,1.05E3,1.5E1,1.048E3,2E0,1.4E1,1E0,1.036E3,1.2E1,1E0,1.3E1,1E3,3.6E1,9E0,3E0,9.99E2,1E0,3.5E1,1E0,8E0,1E0],"tree_param":{"num_deleted":"0","num_feature":"12","num_nodes":"21","size_leaf_vector":"1"}},{"base_weights":[1.4055216E-5,5.385023E-6,5.827E-4,2.9179755E-6,8.6623424E-4,2.77583E-5,1.1902929E-3,5.0192193E-6,-2.1941663E-4,-1.7515072E-4,5.6495616E-4,-8.8265205E-7,1.4334766E-4,-4.9269693E-6,6.793253E-4],"categories":[],"categories_nodes":[],"categories_segments":[],"categories_sizes":[],"default_left":[0,0,0,0,0,0,0,0,0,0,0,0,0,0,0],"id":35,"left_children":[1,3,5,7,9,-1,-1,11,-1,-1,-1,-1,13,-1,-1],"loss_changes":[5.2525193E-6,2.2295396E-6,2.6180169E-5,1.6222332E-6,5.52343E-6,0E0,0E0,1.1534692E-6,0E0,0E0,0E0,0E0,1.9353647E-5,0E0,0E0],"parents":[2147483647,0,0,1,1,2,2,3,3,4,4,7,7,12,12],"right_children":[2,4,6,8,10,-1,-1,12,-1,-1,-1,-1,14,-1,-1],"split_conditions":[2.2139712E-1,1.1297407E3,8.660254E-1,6.040274E-2,2.3231823E-3,2.77583E-5,1.1902929E-3,8.3790656E2,-2.1941663E-4,-1.7515072E-4,5.6495616E-4,-8.8265205E-7,1.9344315E2,-4.9269693E-6,6.793253E-4],"split_indices":[0,8,1,0,3,0,0,8,0,0,0,0,7,0,0],"split_type":[0,0,0,0,0,0,0,0,0,0,0,0,0,0,0],"sum_hessian":[1.065E3,1.05E3,1.5E1,1.048E3,2E0,1.4E1,1E0,1.046E3,2E0,1E0,1E0,9.9E2,5.6E1,5.3E1,3E0],"tree_param":{"num_deleted":"0","num_feature":"12","num_nodes":"15","size_leaf_vector":"1"}},{"base_weights":[1.1773101E-5,4.572431E-6,4.8403128E-4,2.4754313E-6,7.3629915E-4,1.998801E-5,1.0117651E-3,1.2470498E-6,-1.755476E-4,-1.4887811E-4,4.8021274E-4],"categories":[],"categories_nodes":[],"categories_segments":[],"categories_sizes":[],"default_left":[0,0,0,0,0,0,0,0,0,0,0],"id":36,"left_children":[1,3,5,7,9,-1,-1,-1,-1,-1,-1],"loss_changes":[3.6227998E-6,1.6108638E-6,1.9066192E-5,1.0388953E-6,3.990678E-6,0E0,0E0,0E0,0E0,0E0,0E0],"parents":[2147483647,0,0,1,1,2,2,3,3,4,4],"right_children":[2,4,6,8,10,-1,-1,-1,-1,-1,-1],"split_conditions":[2.2139712E-1,1.1297407E3,8.660254E-1,6.040274E-2,2.3231823E-3,1.998801E-5,1.0117651E-3,1.2470498E-6,-1.755476E-4,-1.4887811E-4,4.8021274E-4],"split_indices":[0,8,1,0,3,0,0,0,0,0,0],"split_type":[0,0,0,0,0,0,0,0,0,0,0],"sum_hessian":[1.065E3,1.05E3,1.5E1,1.048E3,2E0,1.4E1,1E0,1.046E3,2E0,1E0,1E0],"tree_param":{"num_deleted":"0","num_feature":"12","num_nodes":"11","size_leaf_vector":"1"}},{"base_weights":[9.356261E-6,-1.1727607E-6,2.1040735E-4,4.2365875E-5,1.6207047E-3,9.952955E-4,-8.194659E-5,1.0516047E-3,-6.69116E-4,2.2389E-4,5.847619E-4,-1.1819433E-3,1.6431816E-4,3.0962625E-4,-5.4080144E-4,2.0167888E-4,-8.973388E-5,-1.0739981E-4,-1.2896159E-3,3.131127E-4,-6.7665074E-5,2.931118E-4,-1.5377998E-4],"categories":[],"categories_nodes":[],"categories_segments":[],"categories_sizes":[],"default_left":[0,0,0,0,0,0,0,0,0,0,0,0,0,0,0,0,0,0,0,0,0,0,0],"id":37,"left_children":[1,-1,3,5,7,9,11,-1,13,15,-1,17,19,21,-1,-1,-1,-1,-1,-1,-1,-1,-1],"loss_changes":[2.8438826E-6,0E0,1.5572574E-5,7.1892237E-6,3.255397E-5,4.714556E-6,1.4822299E-5,0E0,4.995989E-6,1.3735844E-6,0E0,2.4141551E-5,1.5663509E-5,2.147124E-6,0E0,0E0,0E0,0E0,0E0,0E0,0E0,0E0,0E0],"parents":[2147483647,0,0,2,2,3,3,4,4,5,5,6,6,8,8,9,9,11,11,12,12,13,13],"right_children":[2,-1,4,6,8,10,12,-1,14,16,-1,18,20,22,-1,-1,-1,-1,-1,-1,-1,-1,-1],"split_conditions":[8.250973E2,-1.1727607E-6,1.9344315E2,6.899886E1,2.4911935E2,2.3231823E-3,8.574558E1,1.0516047E-3,8.660254E-1,-2.4492937E-16,5.847619E-4,9.659258E-1,1.1799507E2,6.040274E-2,-5.4080144E-4,2.0167888E-4,-8.973388E-5,-1.0739981E-4,-1.2896159E-3,3.131127E-4,-6.7665074E-5,2.931118E-4,-1.5377998E-4],"split_indices":[8,0,7,9,7,3,9,0,1,1,0,2,9,0,0,0,0,0,0,0,0,0,0],"split_type":[0,0,0,0,0,0,0,0,0,0,0,0,0,0,0,0,0,0,0,0,0,0,0],"sum_hessian":[1.065E3,1E3,6.5E1,5.9E1,6E0,6E0,5.3E1,3E0,3E0,4E0,2E0,9E0,4.4E1,2E0,1E0,2E0,2E0,8E0,1E0,1.3E1,3.1E1,1E0,1E0],"tree_param":{"num_deleted":"0","num_feature":"12","num_nodes":"23","size_leaf_vector":"1"}},{"base_weights":[6.7314063E-6,1.9717986E-6,3.189574E-4,4.170418E-6,-2.3024082E-4,8.43463E-6,7.022381E-4,6.718316E-7,2.8292916E-4,5.205429E-6,-4.226624E-4,-8.0964953E-4,1.3350894E-3,-6.4450717E-7,5.6014145E-5,-4.7542355E-5,-4.5968118E-4,-6.352277E-4,4.919581E-4,1.0194147E-3,-3.1849285E-4],"categories":[],"categories_nodes":[],"categories_segments":[],"categories_sizes":[],"default_left":[0,0,0,0,0,0,0,0,0,0,0,0,0,0,0,0,0,0,0,0,0],"id":38,"left_children":[1,3,5,7,-1,-1,-1,9,11,13,15,17,19,-1,-1,-1,-1,-1,-1,-1,-1],"loss_changes":[1.5835251E-6,1.7811861E-6,9.342744E-6,1.0228594E-6,0E0,0E0,0E0,1.9924382E-6,1.6025337E-5,1.3712139E-6,2.9817693E-6,2.5896154E-5,3.8218048E-5,0E0,0E0,0E0,0E0,0E0,0E0,0E0,0E0],"parents":[2147483647,0,0,1,1,2,2,3,3,7,7,8,8,9,9,10,10,11,11,12,12],"right_children":[2,4,6,8,-1,-1,-1,10,12,14,16,18,20,-1,-1,-1,-1,-1,-1,-1,-1],"split_conditions":[2.2139712E-1,6.040274E-2,8.660254E-1,9.879093E2,-2.3024082E-4,8.43463E-6,7.022381E-4,9.3645575E2,8.549235E1,8.250973E2,1.0969104E2,5.3493693E-2,1.1799507E2,-6.4450717E-7,5.6014145E-5,-4.7542355E-5,-4.5968118E-4,-6.352277E-4,4.919581E-4,1.0194147E-3,-3.1849285E-4],"split_indices":[0,0,1,8,0,0,0,8,9,8,7,3,9,0,0,0,0,0,0,0,0],"split_type":[0,0,0,0,0,0,0,0,0,0,0,0,0,0,0,0,0,0,0,0,0],"sum_hessian":[1.065E3,1.05E3,1.5E1,1.048E3,2E0,1.4E1,1E0,1.036E3,1.2E1,1.026E3,1E1,6E0,6E0,9.87E2,3.9E1,9E0,1E0,4E0,2E0,3E0,3E0],"tree_param":{"num_deleted":"0","num_feature":"12","num_nodes":"21","size_leaf_vector":"1"}},{"base_weights":[5.2621904E-6,1.2619544E-6,2.676988E-4,9.060336E-7,-1.8417837E-4,5.010605E-4,-1.5587653E-5],"categories":[],"categories_nodes":[],"categories_segments":[],"categories_sizes":[],"default_left":[0,0,0,0,0,0,0],"id":39,"left_children":[1,3,5,-1,-1,-1,-1],"loss_changes":[1.1187581E-6,1.1386164E-6,7.259913E-6,0E0,0E0,0E0,0E0],"parents":[2147483647,0,0,1,1,2,2],"right_children":[2,4,6,-1,-1,-1,-1],"split_conditions":[2.2139712E-1,6.040274E-2,1.5132071E0,9.060336E-7,-1.8417837E-4,5.010605E-4,-1.5587653E-5],"split_indices":[0,0,0,0,0,0,0],"split_type":[0,0,0,0,0,0,0],"sum_hessian":[1.065E3,1.05E3,1.5E1,1.048E3,2E0,2E0,1.3E1],"tree_param":{"num_deleted":"0","num_feature":"12","num_nodes":"7","size_leaf_vector":"1"}},{"base_weights":[3.966934E-6],"categories":[],"categories_nodes":[],"categories_segments":[],"categories_sizes":[],"default_left":[0],"id":40,"left_children":[-1],"loss_changes":[0E0],"parents":[2147483647],"right_children":[-1],"split_conditions":[1.1900802E-6],"split_indices":[0],"split_type":[0],"sum_hessian":[1.065E3],"tree_param":{"num_deleted":"0","num_feature":"12","num_nodes":"1","size_leaf_vector":"1"}},{"base_weights":[2.7779572E-6],"categories":[],"categories_nodes":[],"categories_segments":[],"categories_sizes":[],"default_left":[0],"id":41,"left_children":[-1],"loss_changes":[0E0],"parents":[2147483647],"right_children":[-1],"split_conditions":[8.333872E-7],"split_indices":[0],"split_type":[0],"sum_hessian":[1.065E3],"tree_param":{"num_deleted":"0","num_feature":"12","num_nodes":"1","size_leaf_vector":"1"}},{"base_weights":[1.9460158E-6],"categories":[],"categories_nodes":[],"categories_segments":[],"categories_sizes":[],"default_left":[0],"id":42,"left_children":[-1],"loss_changes":[0E0],"parents":[2147483647],"right_children":[-1],"split_conditions":[5.8380476E-7],"split_indices":[0],"split_type":[0],"sum_hessian":[1.065E3],"tree_param":{"num_deleted":"0","num_feature":"12","num_nodes":"1","size_leaf_vector":"1"}},{"base_weights":[1.3633494E-6],"categories":[],"categories_nodes":[],"categories_segments":[],"categories_sizes":[],"default_left":[0],"id":43,"left_children":[-1],"loss_changes":[0E0],"parents":[2147483647],"right_children":[-1],"split_conditions":[4.0900483E-7],"split_indices":[0],"split_type":[0],"sum_hessian":[1.065E3],"tree_param":{"num_deleted":"0","num_feature":"12","num_nodes":"1","size_leaf_vector":"1"}},{"base_weights":[9.543946E-7],"categories":[],"categories_nodes":[],"categories_segments":[],"categories_sizes":[],"default_left":[0],"id":44,"left_children":[-1],"loss_changes":[0E0],"parents":[2147483647],"right_children":[-1],"split_conditions":[2.863184E-7],"split_indices":[0],"split_type":[0],"sum_hessian":[1.065E3],"tree_param":{"num_deleted":"0","num_feature":"12","num_nodes":"1","size_leaf_vector":"1"}},{"base_weights":[6.68659E-7],"categories":[],"categories_nodes":[],"categories_segments":[],"categories_sizes":[],"default_left":[0],"id":45,"left_children":[-1],"loss_changes":[0E0],"parents":[2147483647],"right_children":[-1],"split_conditions":[2.0059771E-7],"split_indices":[0],"split_type":[0],"sum_hessian":[1.065E3],"tree_param":{"num_deleted":"0","num_feature":"12","num_nodes":"1","size_leaf_vector":"1"}},{"base_weights":[4.6800085E-7],"categories":[],"categories_nodes":[],"categories_segments":[],"categories_sizes":[],"default_left":[0],"id":46,"left_children":[-1],"loss_changes":[0E0],"parents":[2147483647],"right_children":[-1],"split_conditions":[1.4040026E-7],"split_indices":[0],"split_type":[0],"sum_hessian":[1.065E3],"tree_param":{"num_deleted":"0","num_feature":"12","num_nodes":"1","size_leaf_vector":"1"}},{"base_weights":[3.2720035E-7],"categories":[],"categories_nodes":[],"categories_segments":[],"categories_sizes":[],"default_left":[0],"id":47,"left_children":[-1],"loss_changes":[0E0],"parents":[2147483647],"right_children":[-1],"split_conditions":[9.816011E-8],"split_indices":[0],"split_type":[0],"sum_hessian":[1.065E3],"tree_param":{"num_deleted":"0","num_feature":"12","num_nodes":"1","size_leaf_vector":"1"}},{"base_weights":[2.2966476E-7],"categories":[],"categories_nodes":[],"categories_segments":[],"categories_sizes":[],"default_left":[0],"id":48,"left_children":[-1],"loss_changes":[0E0],"parents":[2147483647],"right_children":[-1],"split_conditions":[6.889943E-8],"split_indices":[0],"split_type":[0],"sum_hessian":[1.065E3],"tree_param":{"num_deleted":"0","num_feature":"12","num_nodes":"1","size_leaf_vector":"1"}},{"base_weights":[1.6117046E-7],"categories":[],"categories_nodes":[],"categories_segments":[],"categories_sizes":[],"default_left":[0],"id":49,"left_children":[-1],"loss_changes":[0E0],"parents":[2147483647],"right_children":[-1],"split_conditions":[4.835114E-8],"split_indices":[0],"split_type":[0],"sum_hessian":[1.065E3],"tree_param":{"num_deleted":"0","num_feature":"12","num_nodes":"1","size_leaf_vector":"1"}},{"base_weights":[1.1318182E-7],"categories":[],"categories_nodes":[],"categories_segments":[],"categories_sizes":[],"default_left":[0],"id":50,"left_children":[-1],"loss_changes":[0E0],"parents":[2147483647],"right_children":[-1],"split_conditions":[3.3954546E-8],"split_indices":[0],"split_type":[0],"sum_hessian":[1.065E3],"tree_param":{"num_deleted":"0","num_feature":"12","num_nodes":"1","size_leaf_vector":"1"}},{"base_weights":[7.9481744E-8],"categories":[],"categories_nodes":[],"categories_segments":[],"categories_sizes":[],"default_left":[0],"id":51,"left_children":[-1],"loss_changes":[0E0],"parents":[2147483647],"right_children":[-1],"split_conditions":[2.3844525E-8],"split_indices":[0],"split_type":[0],"sum_hessian":[1.065E3],"tree_param":{"num_deleted":"0","num_feature":"12","num_nodes":"1","size_leaf_vector":"1"}},{"base_weights":[5.5816482E-8],"categories":[],"categories_nodes":[],"categories_segments":[],"categories_sizes":[],"default_left":[0],"id":52,"left_children":[-1],"loss_changes":[0E0],"parents":[2147483647],"right_children":[-1],"split_conditions":[1.6744945E-8],"split_indices":[0],"split_type":[0],"sum_hessian":[1.065E3],"tree_param":{"num_deleted":"0","num_feature":"12","num_nodes":"1","size_leaf_vector":"1"}},{"base_weights":[3.9196756E-8],"categories":[],"categories_nodes":[],"categories_segments":[],"categories_sizes":[],"default_left":[0],"id":53,"left_children":[-1],"loss_changes":[0E0],"parents":[2147483647],"right_children":[-1],"split_conditions":[1.17590275E-8],"split_indices":[0],"split_type":[0],"sum_hessian":[1.065E3],"tree_param":{"num_deleted":"0","num_feature":"12","num_nodes":"1","size_leaf_vector":"1"}},{"base_weights":[2.7525878E-8],"categories":[],"categories_nodes":[],"categories_segments":[],"categories_sizes":[],"default_left":[0],"id":54,"left_children":[-1],"loss_changes":[0E0],"parents":[2147483647],"right_children":[-1],"split_conditions":[8.257764E-9],"split_indices":[0],"split_type":[0],"sum_hessian":[1.065E3],"tree_param":{"num_deleted":"0","num_feature":"12","num_nodes":"1","size_leaf_vector":"1"}},{"base_weights":[1.9330146E-8],"categories":[],"categories_nodes":[],"categories_segments":[],"categories_sizes":[],"default_left":[0],"id":55,"left_children":[-1],"loss_changes":[0E0],"parents":[2147483647],"right_children":[-1],"split_conditions":[5.7990444E-9],"split_indices":[0],"split_type":[0],"sum_hessian":[1.065E3],"tree_param":{"num_deleted":"0","num_feature":"12","num_nodes":"1","size_leaf_vector":"1"}},{"base_weights":[1.3574733E-8],"categories":[],"categories_nodes":[],"categories_segments":[],"categories_sizes":[],"default_left":[0],"id":56,"left_children":[-1],"loss_changes":[0E0],"parents":[2147483647],"right_children":[-1],"split_conditions":[4.07242E-9],"split_indices":[0],"split_type":[0],"sum_hessian":[1.065E3],"tree_param":{"num_deleted":"0","num_feature":"12","num_nodes":"1","size_leaf_vector":"1"}},{"base_weights":[9.533218E-9],"categories":[],"categories_nodes":[],"categories_segments":[],"categories_sizes":[],"default_left":[0],"id":57,"left_children":[-1],"loss_changes":[0E0],"parents":[2147483647],"right_children":[-1],"split_conditions":[2.8599654E-9],"split_indices":[0],"split_type":[0],"sum_hessian":[1.065E3],"tree_param":{"num_deleted":"0","num_feature":"12","num_nodes":"1","size_leaf_vector":"1"}},{"base_weights":[6.695065E-9],"categories":[],"categories_nodes":[],"categories_segments":[],"categories_sizes":[],"default_left":[0],"id":58,"left_children":[-1],"loss_changes":[0E0],"parents":[2147483647],"right_children":[-1],"split_conditions":[2.0085196E-9],"split_indices":[0],"split_type":[0],"sum_hessian":[1.065E3],"tree_param":{"num_deleted":"0","num_feature":"12","num_nodes":"1","size_leaf_vector":"1"}},{"base_weights":[4.7012967E-9],"categories":[],"categories_nodes":[],"categories_segments":[],"categories_sizes":[],"default_left":[0],"id":59,"left_children":[-1],"loss_changes":[0E0],"parents":[2147483647],"right_children":[-1],"split_conditions":[1.410389E-9],"split_indices":[0],"split_type":[0],"sum_hessian":[1.065E3],"tree_param":{"num_deleted":"0","num_feature":"12","num_nodes":"1","size_leaf_vector":"1"}},{"base_weights":[3.3021044E-9],"categories":[],"categories_nodes":[],"categories_segments":[],"categories_sizes":[],"default_left":[0],"id":60,"left_children":[-1],"loss_changes":[0E0],"parents":[2147483647],"right_children":[-1],"split_conditions":[9.906314E-10],"split_indices":[0],"split_type":[0],"sum_hessian":[1.065E3],"tree_param":{"num_deleted":"0","num_feature":"12","num_nodes":"1","size_leaf_vector":"1"}},{"base_weights":[2.3192657E-9],"categories":[],"categories_nodes":[],"categories_segments":[],"categories_sizes":[],"default_left":[0],"id":61,"left_children":[-1],"loss_changes":[0E0],"parents":[2147483647],"right_children":[-1],"split_conditions":[6.957797E-10],"split_indices":[0],"split_type":[0],"sum_hessian":[1.065E3],"tree_param":{"num_deleted":"0","num_feature":"12","num_nodes":"1","size_leaf_vector":"1"}},{"base_weights":[1.6290351E-9],"categories":[],"categories_nodes":[],"categories_segments":[],"categories_sizes":[],"default_left":[0],"id":62,"left_children":[-1],"loss_changes":[0E0],"parents":[2147483647],"right_children":[-1],"split_conditions":[4.8871057E-10],"split_indices":[0],"split_type":[0],"sum_hessian":[1.065E3],"tree_param":{"num_deleted":"0","num_feature":"12","num_nodes":"1","size_leaf_vector":"1"}},{"base_weights":[1.14428E-9],"categories":[],"categories_nodes":[],"categories_segments":[],"categories_sizes":[],"default_left":[0],"id":63,"left_children":[-1],"loss_changes":[0E0],"parents":[2147483647],"right_children":[-1],"split_conditions":[3.43284E-10],"split_indices":[0],"split_type":[0],"sum_hessian":[1.065E3],"tree_param":{"num_deleted":"0","num_feature":"12","num_nodes":"1","size_leaf_vector":"1"}},{"base_weights":[8.036516E-10],"categories":[],"categories_nodes":[],"categories_segments":[],"categories_sizes":[],"default_left":[0],"id":64,"left_children":[-1],"loss_changes":[0E0],"parents":[2147483647],"right_children":[-1],"split_conditions":[2.4109548E-10],"split_indices":[0],"split_type":[0],"sum_hessian":[1.065E3],"tree_param":{"num_deleted":"0","num_feature":"12","num_nodes":"1","size_leaf_vector":"1"}},{"base_weights":[5.6426425E-10],"categories":[],"categories_nodes":[],"categories_segments":[],"categories_sizes":[],"default_left":[0],"id":65,"left_children":[-1],"loss_changes":[0E0],"parents":[2147483647],"right_children":[-1],"split_conditions":[1.6927929E-10],"split_indices":[0],"split_type":[0],"sum_hessian":[1.065E3],"tree_param":{"num_deleted":"0","num_feature":"12","num_nodes":"1","size_leaf_vector":"1"}},{"base_weights":[3.9642578E-10],"categories":[],"categories_nodes":[],"categories_segments":[],"categories_sizes":[],"default_left":[0],"id":66,"left_children":[-1],"loss_changes":[0E0],"parents":[2147483647],"right_children":[-1],"split_conditions":[1.1892774E-10],"split_indices":[0],"split_type":[0],"sum_hessian":[1.065E3],"tree_param":{"num_deleted":"0","num_feature":"12","num_nodes":"1","size_leaf_vector":"1"}},{"base_weights":[2.7797392E-10],"categories":[],"categories_nodes":[],"categories_segments":[],"categories_sizes":[],"default_left":[0],"id":67,"left_children":[-1],"loss_changes":[0E0],"parents":[2147483647],"right_children":[-1],"split_conditions":[8.339218E-11],"split_indices":[0],"split_type":[0],"sum_hessian":[1.065E3],"tree_param":{"num_deleted":"0","num_feature":"12","num_nodes":"1","size_leaf_vector":"1"}},{"base_weights":[1.9588946E-10],"categories":[],"categories_nodes":[],"categories_segments":[],"categories_sizes":[],"default_left":[0],"id":68,"left_children":[-1],"loss_changes":[0E0],"parents":[2147483647],"right_children":[-1],"split_conditions":[5.876684E-11],"split_indices":[0],"split_type":[0],"sum_hessian":[1.065E3],"tree_param":{"num_deleted":"0","num_feature":"12","num_nodes":"1","size_leaf_vector":"1"}},{"base_weights":[1.3775986E-10],"categories":[],"categories_nodes":[],"categories_segments":[],"categories_sizes":[],"default_left":[0],"id":69,"left_children":[-1],"loss_changes":[0E0],"parents":[2147483647],"right_children":[-1],"split_conditions":[4.132796E-11],"split_indices":[0],"split_type":[0],"sum_hessian":[1.065E3],"tree_param":{"num_deleted":"0","num_feature":"12","num_nodes":"1","size_leaf_vector":"1"}},{"base_weights":[9.71999E-11],"categories":[],"categories_nodes":[],"categories_segments":[],"categories_sizes":[],"default_left":[0],"id":70,"left_children":[-1],"loss_changes":[0E0],"parents":[2147483647],"right_children":[-1],"split_conditions":[2.9159973E-11],"split_indices":[0],"split_type":[0],"sum_hessian":[1.065E3],"tree_param":{"num_deleted":"0","num_feature":"12","num_nodes":"1","size_leaf_vector":"1"}},{"base_weights":[6.8341784E-11],"categories":[],"categories_nodes":[],"categories_segments":[],"categories_sizes":[],"default_left":[0],"id":71,"left_children":[-1],"loss_changes":[0E0],"parents":[2147483647],"right_children":[-1],"split_conditions":[2.0502535E-11],"split_indices":[0],"split_type":[0],"sum_hessian":[1.065E3],"tree_param":{"num_deleted":"0","num_feature":"12","num_nodes":"1","size_leaf_vector":"1"}},{"base_weights":[4.8325653E-11],"categories":[],"categories_nodes":[],"categories_segments":[],"categories_sizes":[],"default_left":[0],"id":72,"left_children":[-1],"loss_changes":[0E0],"parents":[2147483647],"right_children":[-1],"split_conditions":[1.44976964E-11],"split_indices":[0],"split_type":[0],"sum_hessian":[1.065E3],"tree_param":{"num_deleted":"0","num_feature":"12","num_nodes":"1","size_leaf_vector":"1"}},{"base_weights":[3.441533E-11],"categories":[],"categories_nodes":[],"categories_segments":[],"categories_sizes":[],"default_left":[0],"id":73,"left_children":[-1],"loss_changes":[0E0],"parents":[2147483647],"right_children":[-1],"split_conditions":[1.03246E-11],"split_indices":[0],"split_type":[0],"sum_hessian":[1.065E3],"tree_param":{"num_deleted":"0","num_feature":"12","num_nodes":"1","size_leaf_vector":"1"}},{"base_weights":[2.4433499E-11],"categories":[],"categories_nodes":[],"categories_segments":[],"categories_sizes":[],"default_left":[0],"id":74,"left_children":[-1],"loss_changes":[0E0],"parents":[2147483647],"right_children":[-1],"split_conditions":[7.33005E-12],"split_indices":[0],"split_type":[0],"sum_hessian":[1.065E3],"tree_param":{"num_deleted":"0","num_feature":"12","num_nodes":"1","size_leaf_vector":"1"}},{"base_weights":[1.7410084E-11],"categories":[],"categories_nodes":[],"categories_segments":[],"categories_sizes":[],"default_left":[0],"id":75,"left_children":[-1],"loss_changes":[0E0],"parents":[2147483647],"right_children":[-1],"split_conditions":[5.223025E-12],"split_indices":[0],"split_type":[0],"sum_hessian":[1.065E3],"tree_param":{"num_deleted":"0","num_feature":"12","num_nodes":"1","size_leaf_vector":"1"}},{"base_weights":[1.2637795E-11],"categories":[],"categories_nodes":[],"categories_segments":[],"categories_sizes":[],"default_left":[0],"id":76,"left_children":[-1],"loss_changes":[0E0],"parents":[2147483647],"right_children":[-1],"split_conditions":[3.7913388E-12],"split_indices":[0],"split_type":[0],"sum_hessian":[1.065E3],"tree_param":{"num_deleted":"0","num_feature":"12","num_nodes":"1","size_leaf_vector":"1"}},{"base_weights":[9.17728E-12],"categories":[],"categories_nodes":[],"categories_segments":[],"categories_sizes":[],"default_left":[0],"id":77,"left_children":[-1],"loss_changes":[0E0],"parents":[2147483647],"right_children":[-1],"split_conditions":[2.753184E-12],"split_indices":[0],"split_type":[0],"sum_hessian":[1.065E3],"tree_param":{"num_deleted":"0","num_feature":"12","num_nodes":"1","size_leaf_vector":"1"}},{"base_weights":[6.5929835E-12],"categories":[],"categories_nodes":[],"categories_segments":[],"categories_sizes":[],"default_left":[0],"id":78,"left_children":[-1],"loss_changes":[0E0],"parents":[2147483647],"right_children":[-1],"split_conditions":[1.977895E-12],"split_indices":[0],"split_type":[0],"sum_hessian":[1.065E3],"tree_param":{"num_deleted":"0","num_feature":"12","num_nodes":"1","size_leaf_vector":"1"}},{"base_weights":[4.852487E-12],"categories":[],"categories_nodes":[],"categories_segments":[],"categories_sizes":[],"default_left":[0],"id":79,"left_children":[-1],"loss_changes":[0E0],"parents":[2147483647],"right_children":[-1],"split_conditions":[1.4557461E-12],"split_indices":[0],"split_type":[0],"sum_hessian":[1.065E3],"tree_param":{"num_deleted":"0","num_feature":"12","num_nodes":"1","size_leaf_vector":"1"}},{"base_weights":[3.5407157E-12],"categories":[],"categories_nodes":[],"categories_segments":[],"categories_sizes":[],"default_left":[0],"id":80,"left_children":[-1],"loss_changes":[0E0],"parents":[2147483647],"right_children":[-1],"split_conditions":[1.0622148E-12],"split_indices":[0],"split_type":[0],"sum_hessian":[1.065E3],"tree_param":{"num_deleted":"0","num_feature":"12","num_nodes":"1","size_leaf_vector":"1"}},{"base_weights":[2.6969163E-12],"categories":[],"categories_nodes":[],"categories_segments":[],"categories_sizes":[],"default_left":[0],"id":81,"left_children":[-1],"loss_changes":[0E0],"parents":[2147483647],"right_children":[-1],"split_conditions":[8.090749E-13],"split_indices":[0],"split_type":[0],"sum_hessian":[1.065E3],"tree_param":{"num_deleted":"0","num_feature":"12","num_nodes":"1","size_leaf_vector":"1"}},{"base_weights":[1.8548232E-12],"categories":[],"categories_nodes":[],"categories_segments":[],"categories_sizes":[],"default_left":[0],"id":82,"left_children":[-1],"loss_changes":[0E0],"parents":[2147483647],"right_children":[-1],"split_conditions":[5.56447E-13],"split_indices":[0],"split_type":[0],"sum_hessian":[1.065E3],"tree_param":{"num_deleted":"0","num_feature":"12","num_nodes":"1","size_leaf_vector":"1"}},{"base_weights":[1.3868515E-12],"categories":[],"categories_nodes":[],"categories_segments":[],"categories_sizes":[],"default_left":[0],"id":83,"left_children":[-1],"loss_changes":[0E0],"parents":[2147483647],"right_children":[-1],"split_conditions":[4.1605546E-13],"split_indices":[0],"split_type":[0],"sum_hessian":[1.065E3],"tree_param":{"num_deleted":"0","num_feature":"12","num_nodes":"1","size_leaf_vector":"1"}},{"base_weights":[1.01273E-12],"categories":[],"categories_nodes":[],"categories_segments":[],"categories_sizes":[],"default_left":[0],"id":84,"left_children":[-1],"loss_changes":[0E0],"parents":[2147483647],"right_children":[-1],"split_conditions":[3.0381904E-13],"split_indices":[0],"split_type":[0],"sum_hessian":[1.065E3],"tree_param":{"num_deleted":"0","num_feature":"12","num_nodes":"1","size_leaf_vector":"1"}},{"base_weights":[6.3860863E-13],"categories":[],"categories_nodes":[],"categories_segments":[],"categories_sizes":[],"default_left":[0],"id":85,"left_children":[-1],"loss_changes":[0E0],"parents":[2147483647],"right_children":[-1],"split_conditions":[1.915826E-13],"split_indices":[0],"split_type":[0],"sum_hessian":[1.065E3],"tree_param":{"num_deleted":"0","num_feature":"12","num_nodes":"1","size_leaf_vector":"1"}},{"base_weights":[6.3860863E-13],"categories":[],"categories_nodes":[],"categories_segments":[],"categories_sizes":[],"default_left":[0],"id":86,"left_children":[-1],"loss_changes":[0E0],"parents":[2147483647],"right_children":[-1],"split_conditions":[1.915826E-13],"split_indices":[0],"split_type":[0],"sum_hessian":[1.065E3],"tree_param":{"num_deleted":"0","num_feature":"12","num_nodes":"1","size_leaf_vector":"1"}},{"base_weights":[6.3860863E-13],"categories":[],"categories_nodes":[],"categories_segments":[],"categories_sizes":[],"default_left":[0],"id":87,"left_children":[-1],"loss_changes":[0E0],"parents":[2147483647],"right_children":[-1],"split_conditions":[1.915826E-13],"split_indices":[0],"split_type":[0],"sum_hessian":[1.065E3],"tree_param":{"num_deleted":"0","num_feature":"12","num_nodes":"1","size_leaf_vector":"1"}},{"base_weights":[6.3860863E-13],"categories":[],"categories_nodes":[],"categories_segments":[],"categories_sizes":[],"default_left":[0],"id":88,"left_children":[-1],"loss_changes":[0E0],"parents":[2147483647],"right_children":[-1],"split_conditions":[1.915826E-13],"split_indices":[0],"split_type":[0],"sum_hessian":[1.065E3],"tree_param":{"num_deleted":"0","num_feature":"12","num_nodes":"1","size_leaf_vector":"1"}}]},"name":"gbtree"},"learner_model_param":{"base_score":"1.7378574E-2","boost_from_average":"1","num_class":"0","num_feature":"12","num_target":"1"},"objective":{"name":"reg:squarederror","reg_loss_param":{"scale_pos_weight":"1"}}},"version":[2,0,0]}