{"learner":{"attributes":{"scikit_learn":"{\"_estimator_type\": \"regressor\"}"},"feature_names":["solar_generation","cyc_hour1","cyc_hour2","exp_solar","direct_solar","diffuse_solar","direct_solar_6h","diffuse_solar_6h","direct_solar_12h","diffuse_solar_12h","direct_solar_24h","diffuse_solar_24h"],"feature_types":["float","float","float","float","float","float","float","float","float","float","float","float"],"gradient_booster":{"model":{"gbtree_model_param":{"num_parallel_tree":"1","num_trees":"89"},"iteration_indptr":[0,1,2,3,4,5,6,7,8,9,10,11,12,13,14,15,16,17,18,19,20,21,22,23,24,25,26,27,28,29,30,31,32,33,34,35,36,37,38,39,40,41,42,43,44,45,46,47,48,49,50,51,52,53,54,55,56,57,58,59,60,61,62,63,64,65,66,67,68,69,70,71,72,73,74,75,76,77,78,79,80,81,82,83,84,85,86,87,88,89],"tree_info":[0,0,0,0,0,0,0,0,0,0,0,0,0,0,0,0,0,0,0,0,0,0,0,0,0,0,0,0,0,0,0,0,0,0,0,0,0,0,0,0,0,0,0,0,0,0,0,0,0,0,0,0,0,0,0,0,0,0,0,0,0,0,0,0,0,0,0,0,0,0,0,0,0,0,0,0,0,0,0,0,0,0,0,0,0,0,0,0,0],"trees":[{"base_weights":[3.3105949E-10,-1.8330814E-2,9.623677E-1,-2.3910306E-2,1.8617465E-1,-7.1208365E-3,7.333472E-1,-7.7063995E-3,2.041866E-2,5.855743E-1,-7.417538E-3,-7.5164386E-3,2.6908252E-1],"categories":[],"categories_nodes":[],"categories_segments":[],"categories_sizes":[],"default_left":[0,0,0,0,0,0,0,0,0,0,0,0,0],"id":0,"left_children":[1,3,5,7,9,-1,-1,-1,11,-1,-1,-1,-1],"loss_changes":[1.8875853E1,1.2025402E0,2.9288563E1,8.114022E-2,1.0475297E1,0E0,0E0,0E0,1.616814E0,0E0,0E0,0E0,0E0],"parents":[2147483647,0,0,1,1,2,2,3,3,4,4,8,8],"right_children":[2,4,6,8,10,-1,-1,-1,12,-1,-1,-1,-1],"split_conditions":[1.1927145E-1,9.117501E2,-1.8369701E-16,8.5127356E2,9.161268E2,-7.1208365E-3,7.333472E-1,-7.7063995E-3,1.9833914E2,5.855743E-1,-7.417538E-3,-7.5164386E-3,2.6908252E-1],"split_indices":[0,6,2,8,6,0,0,0,7,0,0,0,0],"split_type":[0,0,0,0,0,0,0,0,0,0,0,0,0],"sum_hessian":[1.068E3,1.049E3,1.9E1,1.022E3,2.7E1,1.2E1,7E0,9.83E2,3.9E1,2E0,2.5E1,3.8E1,1E0],"tree_param":{"num_deleted":"0","num_feature":"12","num_nodes":"13","size_leaf_vector":"1"}},{"base_weights":[1.4576644E-3,-1.2039172E-2,7.0996875E-1,-1.6489062E-2,1.5097071E-1,-5.148913E-3,1.8028117E0,-5.3968295E-3,2.0832216E-2,4.684595E-1,-5.2778632E-3,5.797595E-1,1.3421589E-1,-5.3193257E-3,2.2872016E-1],"categories":[],"categories_nodes":[],"categories_segments":[],"categories_sizes":[],"default_left":[0,0,0,0,0,0,0,0,0,0,0,0,0,0,0],"id":1,"left_children":[1,3,5,7,9,-1,11,-1,13,-1,-1,-1,-1,-1,-1],"loss_changes":[1.0231029E1,7.6413417E-1,1.5923759E1,5.7658315E-2,6.685009E0,0E0,5.42017E-1,0E0,1.1574111E0,0E0,0E0,0E0,0E0,0E0,0E0],"parents":[2147483647,0,0,1,1,2,2,3,3,4,4,6,6,8,8],"right_children":[2,4,6,8,10,-1,12,-1,14,-1,-1,-1,-1,-1,-1],"split_conditions":[1.1927145E-1,9.117501E2,-1.8369701E-16,8.5127356E2,9.161268E2,-5.148913E-3,1.4583724E0,-5.3968295E-3,1.9833914E2,4.684595E-1,-5.2778632E-3,5.797595E-1,1.3421589E-1,-5.3193257E-3,2.2872016E-1],"split_indices":[0,6,2,8,6,0,0,0,7,0,0,0,0,0,0],"split_type":[0,0,0,0,0,0,0,0,0,0,0,0,0,0,0],"sum_hessian":[1.068E3,1.049E3,1.9E1,1.022E3,2.7E1,1.2E1,7E0,9.83E2,3.9E1,2E0,2.5E1,6E0,1E0,3.8E1,1E0],"tree_param":{"num_deleted":"0","num_feature":"12","num_nodes":"15","size_leaf_vector":"1"}},{"base_weights":[2.320658E-3,-7.7786716E-3,5.3241944E-1,-1.132924E-2,1.222217E-1,-3.7230595E-3,1.3512151E0,-3.7794258E-3,2.016757E-2,3.747676E-1,-3.755403E-3,4.306785E-1,1.140835E-1,-3.7644461E-3,1.9441213E-1],"categories":[],"categories_nodes":[],"categories_segments":[],"categories_sizes":[],"default_left":[0,0,0,0,0,0,0,0,0,0,0,0,0,0,0],"id":2,"left_children":[1,3,5,7,9,-1,11,-1,13,-1,-1,-1,-1,-1,-1],"loss_changes":[5.7271852E0,4.8603868E-1,8.938852E0,4.1137815E-2,4.2674975E0,0E0,1.0949421E-1,0E0,8.297843E-1,0E0,0E0,0E0,0E0,0E0,0E0],"parents":[2147483647,0,0,1,1,2,2,3,3,4,4,6,6,8,8],"right_children":[2,4,6,8,10,-1,12,-1,14,-1,-1,-1,-1,-1,-1],"split_conditions":[1.1927145E-1,9.117501E2,-1.8369701E-16,8.5127356E2,9.161268E2,-3.7230595E-3,1.4583724E0,-3.7794258E-3,1.9833914E2,3.747676E-1,-3.755403E-3,4.306785E-1,1.140835E-1,-3.7644461E-3,1.9441213E-1],"split_indices":[0,6,2,8,6,0,0,0,7,0,0,0,0,0,0],"split_type":[0,0,0,0,0,0,0,0,0,0,0,0,0,0,0],"sum_hessian":[1.068E3,1.049E3,1.9E1,1.022E3,2.7E1,1.2E1,7E0,9.83E2,3.9E1,2E0,2.5E1,6E0,1E0,3.8E1,1E0],"tree_param":{"num_deleted":"0","num_feature":"12","num_nodes":"15","size_leaf_vector":"1"}},{"base_weights":[2.6524493E-3,-4.9137548E-3,3.9974555E-1,-7.7478006E-3,9.880563E-2,-2.6920584E-3,1.0139458E0,-2.64675E-3,1.8883493E-2,2.998141E-1,-2.6721135E-3,8.555278E-2,1.0773164E0,-2.6640696E-3,1.6525032E-1,3.447371E-1,9.697098E-2],"categories":[],"categories_nodes":[],"categories_segments":[],"categories_sizes":[],"default_left":[0,0,0,0,0,0,0,0,0,0,0,0,0,0,0,0,0],"id":3,"left_children":[1,3,5,7,9,-1,11,-1,13,-1,-1,-1,15,-1,-1,-1,-1],"loss_changes":[3.2137613E0,3.094083E-1,5.0298066E0,2.94455E-2,2.7249942E0,0E0,6.2235832E-2,0E0,5.95649E-1,0E0,0E0,0E0,7.5998306E-3,0E0,0E0,0E0,0E0],"parents":[2147483647,0,0,1,1,2,2,3,3,4,4,6,6,8,8,12,12],"right_children":[2,4,6,8,10,-1,12,-1,14,-1,-1,-1,16,-1,-1,-1,-1],"split_conditions":[1.1927145E-1,9.117501E2,-1.8369701E-16,8.5127356E2,9.161268E2,-2.6920584E-3,2.2139712E-1,-2.64675E-3,1.9833914E2,2.998141E-1,-2.6721135E-3,8.555278E-2,1.4583724E0,-2.6640696E-3,1.6525032E-1,3.447371E-1,9.697098E-2],"split_indices":[0,6,2,8,6,0,0,0,7,0,0,0,0,0,0,0,0],"split_type":[0,0,0,0,0,0,0,0,0,0,0,0,0,0,0,0,0],"sum_hessian":[1.068E3,1.049E3,1.9E1,1.022E3,2.7E1,1.2E1,7E0,9.83E2,3.9E1,2E0,2.5E1,1E0,6E0,3.8E1,1E0,5E0,1E0],"tree_param":{"num_deleted":"0","num_feature":"12","num_nodes":"17","size_leaf_vector":"1"}},{"base_weights":[2.775003E-3,-3.0043127E-3,3.0605033E-1,-5.267117E-3,7.977615E-2,-1.9465653E-3,7.756697E-1,-1.8535319E-3,1.72831E-2,2.3985128E-1,-1.9013115E-3,1.0609502E-1,9.5815146E-1,-1.8853414E-3,1.4046277E-1,3.1809416E-1,8.2425326E-2],"categories":[],"categories_nodes":[],"categories_segments":[],"categories_sizes":[],"default_left":[0,0,0,0,0,0,0,0,0,0,0,0,0,0,0,0,0],"id":4,"left_children":[1,3,5,7,9,-1,11,-1,13,-1,-1,-1,15,-1,-1,-1,-1],"loss_changes":[1.8745812E0,1.9710198E-1,2.940519E0,2.1129968E-2,1.7404667E0,0E0,2.7723694E-1,0E0,4.280318E-1,0E0,0E0,0E0,5.7766438E-2,0E0,0E0,0E0,0E0],"parents":[2147483647,0,0,1,1,2,2,3,3,4,4,6,6,8,8,12,12],"right_children":[2,4,6,8,10,-1,12,-1,14,-1,-1,-1,16,-1,-1,-1,-1],"split_conditions":[1.1927145E-1,9.117501E2,-1.8369701E-16,8.5127356E2,9.161268E2,-1.9465653E-3,5.6920165E-1,-1.8535319E-3,1.9833914E2,2.3985128E-1,-1.9013115E-3,1.0609502E-1,1.4583724E0,-1.8853414E-3,1.4046277E-1,3.1809416E-1,8.2425326E-2],"split_indices":[0,6,2,8,6,0,0,0,7,0,0,0,0,0,0,0,0],"split_type":[0,0,0,0,0,0,0,0,0,0,0,0,0,0,0,0,0],"sum_hessian":[1.068E3,1.049E3,1.9E1,1.022E3,2.7E1,1.2E1,7E0,9.83E2,3.9E1,2E0,2.5E1,3E0,4E0,3.8E1,1E0,3E0,1E0],"tree_param":{"num_deleted":"0","num_feature":"12","num_nodes":"17","size_leaf_vector":"1"}},{"base_weights":[2.7650853E-3,-1.7461865E-3,2.394686E-1,-3.5533318E-3,6.434152E-2,-1.4075164E-3,6.062955E-1,-1.2980375E-3,1.5562606E-2,1.9188102E-1,-1.3528563E-3,2.7407876E-1,2.2524296E-1,-1.3342416E-3,1.19393356E-1,9.557749E-2,2.108102E-2],"categories":[],"categories_nodes":[],"categories_segments":[],"categories_sizes":[],"default_left":[0,0,0,0,0,0,0,0,0,0,0,0,0,0,0,0,0],"id":5,"left_children":[1,3,5,7,9,-1,11,-1,13,-1,-1,15,-1,-1,-1,-1,-1],"loss_changes":[1.1419326E0,1.2563023E-1,1.794136E0,1.5192807E-2,1.1118908E0,0E0,1.7829967E-1,0E0,3.0785635E-1,0E0,0E0,1.3900995E-2,0E0,0E0,0E0,0E0,0E0],"parents":[2147483647,0,0,1,1,2,2,3,3,4,4,6,6,8,8,11,11],"right_children":[2,4,6,8,10,-1,12,-1,14,-1,-1,16,-1,-1,-1,-1,-1],"split_conditions":[1.1927145E-1,9.117501E2,-1.8369701E-16,8.5127356E2,9.161268E2,-1.4075164E-3,5.6920165E-1,-1.2980375E-3,1.9833914E2,1.9188102E-1,-1.3528563E-3,5.579055E-1,2.2524296E-1,-1.3342416E-3,1.19393356E-1,9.557749E-2,2.108102E-2],"split_indices":[0,6,2,8,6,0,0,0,7,0,0,0,0,0,0,0,0],"split_type":[0,0,0,0,0,0,0,0,0,0,0,0,0,0,0,0,0],"sum_hessian":[1.068E3,1.049E3,1.9E1,1.022E3,2.7E1,1.2E1,7E0,9.83E2,3.9E1,2E0,2.5E1,3E0,4E0,3.8E1,1E0,2E0,1E0],"tree_param":{"num_deleted":"0","num_feature":"12","num_nodes":"17","size_leaf_vector":"1"}},{"base_weights":[2.5415309E-3,-9.2967425E-4,1.8465273E-1,-2.3731964E-3,5.184364E-2,-1.0177427E-3,4.671446E-1,-9.09022E-4,1.3845302E-2,1.5350482E-1,-9.6260925E-4,2.2101974E-1,5.7061553E-1,-9.442325E-4,1.0148435E-1,7.6461986E-2,1.7918874E-2,2.2195652E-1,6.3351266E-2],"categories":[],"categories_nodes":[],"categories_segments":[],"categories_sizes":[],"default_left":[0,0,0,0,0,0,0,0,0,0,0,0,0,0,0,0,0,0,0],"id":6,"left_children":[1,3,5,7,9,-1,11,-1,13,-1,-1,15,17,-1,-1,-1,-1,-1,-1],"loss_changes":[6.75935E-1,8.011145E-2,1.0640097E0,1.094054E-2,7.1046776E-1,0E0,7.761681E-2,0E0,2.2158693E-1,0E0,0E0,6.6174865E-3,1.4792538E-1,0E0,0E0,0E0,0E0,0E0,0E0],"parents":[2147483647,0,0,1,1,2,2,3,3,4,4,6,6,8,8,11,11,12,12],"right_children":[2,4,6,8,10,-1,12,-1,14,-1,-1,16,18,-1,-1,-1,-1,-1,-1],"split_conditions":[1.1927145E-1,9.117501E2,-1.8369701E-16,8.5127356E2,9.161268E2,-1.0177427E-3,5.6920165E-1,-9.09022E-4,1.9833914E2,1.5350482E-1,-9.6260925E-4,5.579055E-1,1.3273248E2,-9.442325E-4,1.0148435E-1,7.6461986E-2,1.7918874E-2,2.2195652E-1,6.3351266E-2],"split_indices":[0,6,2,8,6,0,0,0,7,0,0,0,7,0,0,0,0,0,0],"split_type":[0,0,0,0,0,0,0,0,0,0,0,0,0,0,0,0,0,0,0],"sum_hessian":[1.068E3,1.049E3,1.9E1,1.022E3,2.7E1,1.2E1,7E0,9.83E2,3.9E1,2E0,2.5E1,3E0,4E0,3.8E1,1E0,2E0,1E0,2E0,2E0],"tree_param":{"num_deleted":"0","num_feature":"12","num_nodes":"19","size_leaf_vector":"1"}},{"base_weights":[2.3691973E-3,-4.1060688E-4,1.4819045E-1,-1.5638461E-3,4.173848E-2,-7.3590624E-4,3.744623E-1,-6.365925E-4,1.2205215E-2,1.2280384E-1,-6.8493345E-4,1.7830902E-1,4.5649248E-1,-6.682261E-4,8.6261705E-2,6.116958E-2,1.523105E-2,1.7756523E-1,5.068102E-2],"categories":[],"categories_nodes":[],"categories_segments":[],"categories_sizes":[],"default_left":[0,0,0,0,0,0,0,0,0,0,0,0,0,0,0,0,0,0,0],"id":7,"left_children":[1,3,5,7,9,-1,11,-1,13,-1,-1,15,17,-1,-1,-1,-1,-1,-1],"loss_changes":[4.3338484E-1,5.1103655E-2,6.826461E-1,7.887561E-3,4.540494E-1,0E0,4.732716E-2,0E0,1.5959217E-1,0E0,0E0,2.7026832E-3,9.46722E-2,0E0,0E0,0E0,0E0,0E0,0E0],"parents":[2147483647,0,0,1,1,2,2,3,3,4,4,6,6,8,8,11,11,12,12],"right_children":[2,4,6,8,10,-1,12,-1,14,-1,-1,16,18,-1,-1,-1,-1,-1,-1],"split_conditions":[1.1927145E-1,9.117501E2,-1.8369701E-16,8.5127356E2,9.161268E2,-7.3590624E-4,5.6920165E-1,-6.365925E-4,1.9833914E2,1.2280384E-1,-6.8493345E-4,5.579055E-1,1.3273248E2,-6.682261E-4,8.6261705E-2,6.116958E-2,1.523105E-2,1.7756523E-1,5.068102E-2],"split_indices":[0,6,2,8,6,0,0,0,7,0,0,0,7,0,0,0,0,0,0],"split_type":[0,0,0,0,0,0,0,0,0,0,0,0,0,0,0,0,0,0,0],"sum_hessian":[1.068E3,1.049E3,1.9E1,1.022E3,2.7E1,1.2E1,7E0,9.83E2,3.9E1,2E0,2.5E1,3E0,4E0,3.8E1,1E0,2E0,1E0,2E0,2E0],"tree_param":{"num_deleted":"0","num_feature":"12","num_nodes":"19","size_leaf_vector":"1"}},{"base_weights":[2.1364419E-3,-9.020996E-5,1.1892884E-1,-1.0116455E-3,3.3578318E-2,-5.3211686E-4,3.002044E-1,-4.4580878E-4,1.0683486E-2,9.824305E-2,-4.8735653E-4,3.701385E-1,4.132071E-2,-4.7289848E-4,7.3322445E-2,1.4339034E-1,1.4205216E-1,5.1579274E-2,1.2946379E-2],"categories":[],"categories_nodes":[],"categories_segments":[],"categories_sizes":[],"default_left":[0,0,0,0,0,0,0,0,0,0,0,0,0,0,0,0,0,0,0],"id":8,"left_children":[1,3,5,7,9,-1,11,-1,13,-1,-1,15,-1,-1,-1,17,-1,-1,-1],"loss_changes":[2.7801064E-1,3.2608517E-2,4.3814096E-1,5.691461E-3,2.902217E-1,0E0,3.9915502E-2,0E0,1.150021E-1,0E0,0E0,4.9296975E-2,0E0,0E0,0E0,1.1627488E-3,0E0,0E0,0E0],"parents":[2147483647,0,0,1,1,2,2,3,3,4,4,6,6,8,8,11,11,15,15],"right_children":[2,4,6,8,10,-1,12,-1,14,-1,-1,16,-1,-1,-1,18,-1,-1,-1],"split_conditions":[1.1927145E-1,9.117501E2,-1.8369701E-16,8.5127356E2,9.161268E2,-5.3211686E-4,1.3273248E2,-4.4580878E-4,1.9833914E2,9.824305E-2,-4.8735653E-4,5.6920165E-1,4.132071E-2,-4.7289848E-4,7.3322445E-2,5.579055E-1,1.4205216E-1,5.1579274E-2,1.2946379E-2],"split_indices":[0,6,2,8,6,0,7,0,7,0,0,0,0,0,0,0,0,0,0],"split_type":[0,0,0,0,0,0,0,0,0,0,0,0,0,0,0,0,0,0,0],"sum_hessian":[1.068E3,1.049E3,1.9E1,1.022E3,2.7E1,1.2E1,7E0,9.83E2,3.9E1,2E0,2.5E1,4E0,3E0,3.8E1,1E0,2E0,2E0,1E0,1E0],"tree_param":{"num_deleted":"0","num_feature":"12","num_nodes":"19","size_leaf_vector":"1"}},{"base_weights":[1.8860854E-3,9.89097E-5,9.56185E-2,-6.37376E-4,2.69961E-2,-3.847614E-4,2.4113038E-1,-3.122021E-4,9.29968E-3,7.8594446E-2,-3.467729E-4,3.004125E-1,3.2023538E-2,-3.346666E-4,6.232408E-2,1.21881805E-1,1.13641724E-1,4.384239E-2,1.1004425E-2],"categories":[],"categories_nodes":[],"categories_segments":[],"categories_sizes":[],"default_left":[0,0,0,0,0,0,0,0,0,0,0,0,0,0,0,0,0,0,0],"id":9,"left_children":[1,3,5,7,9,-1,11,-1,13,-1,-1,15,-1,-1,-1,17,-1,-1,-1],"loss_changes":[1.7906545E-1,2.0811422E-2,2.8231433E-1,4.109443E-3,1.8553153E-1,0E0,3.1665593E-2,0E0,8.290674E-2,0E0,0E0,2.380845E-2,0E0,0E0,0E0,8.4008276E-4,0E0,0E0,0E0],"parents":[2147483647,0,0,1,1,2,2,3,3,4,4,6,6,8,8,11,11,15,15],"right_children":[2,4,6,8,10,-1,12,-1,14,-1,-1,16,-1,-1,-1,18,-1,-1,-1],"split_conditions":[1.1927145E-1,9.117501E2,-1.8369701E-16,8.5127356E2,9.161268E2,-3.847614E-4,1.3273248E2,-3.122021E-4,1.9833914E2,7.8594446E-2,-3.467729E-4,5.6920165E-1,3.2023538E-2,-3.346666E-4,6.232408E-2,5.579055E-1,1.13641724E-1,4.384239E-2,1.1004425E-2],"split_indices":[0,6,2,8,6,0,7,0,7,0,0,0,0,0,0,0,0,0,0],"split_type":[0,0,0,0,0,0,0,0,0,0,0,0,0,0,0,0,0,0,0],"sum_hessian":[1.068E3,1.049E3,1.9E1,1.022E3,2.7E1,1.2E1,7E0,9.83E2,3.9E1,2E0,2.5E1,4E0,3E0,3.8E1,1E0,2E0,2E0,1E0,1E0],"tree_param":{"num_deleted":"0","num_feature":"12","num_nodes":"19","size_leaf_vector":"1"}},{"base_weights":[1.638363E-3,2.0249862E-4,7.693933E-2,-3.858726E-4,2.169183E-2,-2.7821207E-4,1.938553E-1,-2.1863665E-4,8.059512E-3,6.287556E-2,-2.4674225E-4,2.4398646E-1,2.4818258E-2,-2.3684096E-4,5.2975472E-2,1.0359955E-1,9.091337E-2,3.7266042E-2,9.353757E-3],"categories":[],"categories_nodes":[],"categories_segments":[],"categories_sizes":[],"default_left":[0,0,0,0,0,0,0,0,0,0,0,0,0,0,0,0,0,0,0],"id":10,"left_children":[1,3,5,7,9,-1,11,-1,13,-1,-1,15,-1,-1,-1,17,-1,-1,-1],"loss_changes":[1.1556682E-1,1.328426E-2,1.82257E-1,2.968542E-3,1.1862044E-1,0E0,2.4383307E-2,0E0,5.979053E-2,0E0,0E0,1.0059655E-2,0E0,0E0,0E0,6.069653E-4,0E0,0E0,0E0],"parents":[2147483647,0,0,1,1,2,2,3,3,4,4,6,6,8,8,11,11,15,15],"right_children":[2,4,6,8,10,-1,12,-1,14,-1,-1,16,-1,-1,-1,18,-1,-1,-1],"split_conditions":[1.1927145E-1,9.117501E2,-1.8369701E-16,8.5127356E2,9.161268E2,-2.7821207E-4,1.3273248E2,-2.1863665E-4,1.9833914E2,6.287556E-2,-2.4674225E-4,5.6920165E-1,2.4818258E-2,-2.3684096E-4,5.2975472E-2,5.579055E-1,9.091337E-2,3.7266042E-2,9.353757E-3],"split_indices":[0,6,2,8,6,0,7,0,7,0,0,0,0,0,0,0,0,0,0],"split_type":[0,0,0,0,0,0,0,0,0,0,0,0,0,0,0,0,0,0,0],"sum_hessian":[1.068E3,1.049E3,1.9E1,1.022E3,2.7E1,1.2E1,7E0,9.83E2,3.9E1,2E0,2.5E1,4E0,3E0,3.8E1,1E0,2E0,2E0,1E0,1E0],"tree_param":{"num_deleted":"0","num_feature":"12","num_nodes":"19","size_leaf_vector":"1"}},{"base_weights":[1.4061828E-3,2.5141472E-4,6.1961196E-2,-2.1877157E-4,1.7421028E-2,2.0807728E-2,2.2137314E-1,-1.531123E-4,6.960125E-3,5.0300457E-2,-1.755666E-4,-2.0116872E-4,7.248974E-2,8.805958E-2,9.319708E-2,-1.6761053E-4,4.502916E-2,7.697129E-3,2.8547741E-2,3.167614E-2,7.950676E-3],"categories":[],"categories_nodes":[],"categories_segments":[],"categories_sizes":[],"default_left":[0,0,0,0,0,0,0,0,0,0,0,0,0,0,0,0,0,0,0,0,0],"id":11,"left_children":[1,3,5,7,9,11,13,-1,15,-1,-1,-1,17,19,-1,-1,-1,-1,-1,-1,-1],"loss_changes":[7.473638E-2,8.480374E-3,1.266008E-1,2.1450862E-3,7.584898E-2,1.891931E-2,2.0254627E-2,0E0,4.3132775E-2,0E0,0E0,0E0,2.8668325E-3,4.3854862E-4,0E0,0E0,0E0,0E0,0E0,0E0,0E0],"parents":[2147483647,0,0,1,1,2,2,3,3,4,4,5,5,6,6,8,8,12,12,13,13],"right_children":[2,4,6,8,10,12,14,-1,16,-1,-1,-1,18,20,-1,-1,-1,-1,-1,-1,-1],"split_conditions":[1.1927145E-1,9.117501E2,8.660254E-1,8.5127356E2,9.161268E2,-1.8369701E-16,5.6920165E-1,-1.531123E-4,1.9833914E2,5.0300457E-2,-1.755666E-4,-2.0116872E-4,8.660254E-1,5.579055E-1,9.319708E-2,-1.6761053E-4,4.502916E-2,7.697129E-3,2.8547741E-2,3.167614E-2,7.950676E-3],"split_indices":[0,6,2,8,6,2,0,0,7,0,0,0,1,0,0,0,0,0,0,0,0],"split_type":[0,0,0,0,0,0,0,0,0,0,0,0,0,0,0,0,0,0,0,0,0],"sum_hessian":[1.068E3,1.049E3,1.9E1,1.022E3,2.7E1,1.6E1,3E0,9.83E2,3.9E1,2E0,2.5E1,1.2E1,4E0,2E0,1E0,3.8E1,1E0,2E0,2E0,1E0,1E0],"tree_param":{"num_deleted":"0","num_feature":"12","num_nodes":"21","size_leaf_vector":"1"}},{"base_weights":[1.2310081E-3,2.663079E-4,5.1816214E-2,-1.0943686E-4,1.3984901E-2,1.6685627E-2,1.8816715E-1,-1.072253E-4,5.993626E-3,4.0240385E-2,-1.2492239E-4,-1.4546046E-4,5.799179E-2,7.485064E-2,7.921751E-2,-1.18616685E-4,3.8274784E-2,6.1577084E-3,2.2838188E-2,2.6924731E-2,6.7580584E-3],"categories":[],"categories_nodes":[],"categories_segments":[],"categories_sizes":[],"default_left":[0,0,0,0,0,0,0,0,0,0,0,0,0,0,0,0,0,0,0,0,0],"id":12,"left_children":[1,3,5,7,9,11,13,-1,15,-1,-1,-1,17,19,-1,-1,-1,-1,-1,-1,-1],"loss_changes":[5.2152924E-2,5.413955E-3,9.2662066E-2,1.5503938E-3,4.850462E-2,1.2085323E-2,1.46339685E-2,0E0,3.1123802E-2,0E0,0E0,0E0,1.8347669E-3,3.1686574E-4,0E0,0E0,0E0,0E0,0E0,0E0,0E0],"parents":[2147483647,0,0,1,1,2,2,3,3,4,4,5,5,6,6,8,8,12,12,13,13],"right_children":[2,4,6,8,10,12,14,-1,16,-1,-1,-1,18,20,-1,-1,-1,-1,-1,-1,-1],"split_conditions":[1.1927145E-1,9.117501E2,8.660254E-1,8.5127356E2,9.161268E2,-1.8369701E-16,5.6920165E-1,-1.072253E-4,1.9833914E2,4.0240385E-2,-1.2492239E-4,-1.4546046E-4,8.660254E-1,5.579055E-1,7.921751E-2,-1.18616685E-4,3.8274784E-2,6.1577084E-3,2.2838188E-2,2.6924731E-2,6.7580584E-3],"split_indices":[0,6,2,8,6,2,0,0,7,0,0,0,1,0,0,0,0,0,0,0,0],"split_type":[0,0,0,0,0,0,0,0,0,0,0,0,0,0,0,0,0,0,0,0,0],"sum_hessian":[1.068E3,1.049E3,1.9E1,1.022E3,2.7E1,1.6E1,3E0,9.83E2,3.9E1,2E0,2.5E1,1.2E1,4E0,2E0,1E0,3.8E1,1E0,2E0,2E0,1E0,1E0],"tree_param":{"num_deleted":"0","num_feature":"12","num_nodes":"21","size_leaf_vector":"1"}},{"base_weights":[1.0674264E-3,2.6085804E-4,4.3358896E-2,-3.9412298E-5,1.12221325E-2,1.3377033E-2,1.5994209E-1,-7.50904E-5,5.149443E-3,3.2192327E-2,-8.8887085E-5,-1.0517911E-4,4.6393465E-2,6.362303E-2,6.733489E-2,-8.3944105E-5,3.253357E-2,4.9261693E-3,1.8270565E-2,2.2886002E-2,5.7443622E-3],"categories":[],"categories_nodes":[],"categories_segments":[],"categories_sizes":[],"default_left":[0,0,0,0,0,0,0,0,0,0,0,0,0,0,0,0,0,0,0,0,0],"id":13,"left_children":[1,3,5,7,9,11,13,-1,15,-1,-1,-1,17,19,-1,-1,-1,-1,-1,-1,-1],"loss_changes":[3.6453314E-2,3.456355E-3,6.776807E-2,1.1207297E-3,3.1020928E-2,7.721301E-3,1.0573059E-2,0E0,2.2463117E-2,0E0,0E0,0E0,1.1742534E-3,2.2892468E-4,0E0,0E0,0E0,0E0,0E0,0E0,0E0],"parents":[2147483647,0,0,1,1,2,2,3,3,4,4,5,5,6,6,8,8,12,12,13,13],"right_children":[2,4,6,8,10,12,14,-1,16,-1,-1,-1,18,20,-1,-1,-1,-1,-1,-1,-1],"split_conditions":[1.1927145E-1,9.117501E2,8.660254E-1,8.5127356E2,9.161268E2,-1.8369701E-16,5.6920165E-1,-7.50904E-5,1.9833914E2,3.2192327E-2,-8.8887085E-5,-1.0517911E-4,8.660254E-1,5.579055E-1,6.733489E-2,-8.3944105E-5,3.253357E-2,4.9261693E-3,1.8270565E-2,2.2886002E-2,5.7443622E-3],"split_indices":[0,6,2,8,6,2,0,0,7,0,0,0,1,0,0,0,0,0,0,0,0],"split_type":[0,0,0,0,0,0,0,0,0,0,0,0,0,0,0,0,0,0,0,0,0],"sum_hessian":[1.068E3,1.049E3,1.9E1,1.022E3,2.7E1,1.6E1,3E0,9.83E2,3.9E1,2E0,2.5E1,1.2E1,4E0,2E0,1E0,3.8E1,1E0,2E0,2E0,1E0,1E0],"tree_param":{"num_deleted":"0","num_feature":"12","num_nodes":"21","size_leaf_vector":"1"}},{"base_weights":[9.18887E-4,2.4400844E-4,3.6304064E-2,4.058095E-6,9.002051E-3,1.0722254E-2,1.3595074E-1,-5.2586172E-5,4.4158516E-3,2.5753882E-2,-6.3246574E-5,-7.605258E-5,3.7114788E-2,5.4079533E-2,5.723466E-2,-5.9406604E-5,2.765354E-2,1.31037E-2,1.628691E-3,1.9453097E-2,4.8826933E-3],"categories":[],"categories_nodes":[],"categories_segments":[],"categories_sizes":[],"default_left":[0,0,0,0,0,0,0,0,0,0,0,0,0,0,0,0,0,0,0,0,0],"id":14,"left_children":[1,3,5,7,9,11,13,-1,15,-1,-1,-1,17,19,-1,-1,-1,-1,-1,-1,-1],"loss_changes":[2.5519608E-2,2.2065334E-3,4.9525153E-2,8.1020704E-4,1.9840864E-2,4.9339384E-3,7.639058E-3,0E0,1.6215278E-2,0E0,0E0,0E0,8.0282986E-4,1.6540475E-4,0E0,0E0,0E0,0E0,0E0,0E0,0E0],"parents":[2147483647,0,0,1,1,2,2,3,3,4,4,5,5,6,6,8,8,12,12,13,13],"right_children":[2,4,6,8,10,12,14,-1,16,-1,-1,-1,18,20,-1,-1,-1,-1,-1,-1,-1],"split_conditions":[1.1927145E-1,9.117501E2,8.660254E-1,8.5127356E2,9.161268E2,-1.8369701E-16,5.6920165E-1,-5.2586172E-5,1.9833914E2,2.5753882E-2,-6.3246574E-5,-7.605258E-5,1.4583724E0,5.579055E-1,5.723466E-2,-5.9406604E-5,2.765354E-2,1.31037E-2,1.628691E-3,1.9453097E-2,4.8826933E-3],"split_indices":[0,6,2,8,6,2,0,0,7,0,0,0,0,0,0,0,0,0,0,0,0],"split_type":[0,0,0,0,0,0,0,0,0,0,0,0,0,0,0,0,0,0,0,0,0],"sum_hessian":[1.068E3,1.049E3,1.9E1,1.022E3,2.7E1,1.6E1,3E0,9.83E2,3.9E1,2E0,2.5E1,1.2E1,4E0,2E0,1E0,3.8E1,1E0,3E0,1E0,1E0,1E0],"tree_param":{"num_deleted":"0","num_feature":"12","num_nodes":"21","size_leaf_vector":"1"}},{"base_weights":[7.830326E-4,2.21503E-4,3.0224187E-2,2.9762963E-5,7.2189514E-3,8.3677145E-3,1.1555815E-1,-3.682635E-5,3.7809487E-3,2.0603085E-2,-4.5002365E-5,2.8454447E-3,1.4508606E-2,4.5967657E-2,4.8649445E-2,-4.2041593E-5,2.3505503E-2,-5.4991862E-5,3.5932572E-3,1.653514E-2,4.1503073E-3],"categories":[],"categories_nodes":[],"categories_segments":[],"categories_sizes":[],"default_left":[0,0,0,0,0,0,0,0,0,0,0,0,0,0,0,0,0,0,0,0,0],"id":15,"left_children":[1,3,5,7,9,11,13,-1,15,-1,-1,17,-1,19,-1,-1,-1,-1,-1,-1,-1],"loss_changes":[1.76661E-2,1.4085607E-3,3.633503E-2,5.857442E-4,1.2690984E-2,3.616997E-3,5.5191815E-3,0E0,1.1706913E-2,0E0,0E0,4.4473622E-4,0E0,1.19498E-4,0E0,0E0,0E0,0E0,0E0,0E0,0E0],"parents":[2147483647,0,0,1,1,2,2,3,3,4,4,5,5,6,6,8,8,11,11,13,13],"right_children":[2,4,6,8,10,12,14,-1,16,-1,-1,18,-1,20,-1,-1,-1,-1,-1,-1,-1],"split_conditions":[1.1927145E-1,9.117501E2,8.660254E-1,8.5127356E2,9.161268E2,2.604906E2,5.6920165E-1,-3.682635E-5,1.9833914E2,2.0603085E-2,-4.5002365E-5,-1.8369701E-16,1.4508606E-2,5.579055E-1,4.8649445E-2,-4.2041593E-5,2.3505503E-2,-5.4991862E-5,3.5932572E-3,1.653514E-2,4.1503073E-3],"split_indices":[0,6,2,8,6,7,0,0,7,0,0,2,0,0,0,0,0,0,0,0,0],"split_type":[0,0,0,0,0,0,0,0,0,0,0,0,0,0,0,0,0,0,0,0,0],"sum_hessian":[1.068E3,1.049E3,1.9E1,1.022E3,2.7E1,1.6E1,3E0,9.83E2,3.9E1,2E0,2.5E1,1.5E1,1E0,2E0,1E0,3.8E1,1E0,1.2E1,3E0,1E0,1E0],"tree_param":{"num_deleted":"0","num_feature":"12","num_nodes":"21","size_leaf_vector":"1"}},{"base_weights":[6.7100994E-4,2.0803396E-4,2.6245574E-2,5.5267923E-5,5.7874764E-3,6.6105183E-3,9.82244E-2,-2.5789677E-5,3.443524E-3,1.6482448E-2,-3.202092E-5,1.5701992E-3,1.2332297E-2,3.9072514E-2,4.135201E-2,-2.9752513E-5,4.835077E-2,-3.976335E-5,2.5276067E-3,1.4054883E-2,3.5277486E-3,1.9979686E-2,1.7781616E-3],"categories":[],"categories_nodes":[],"categories_segments":[],"categories_sizes":[],"default_left":[0,0,0,0,0,0,0,0,0,0,0,0,0,0,0,0,0,0,0,0,0,0,0],"id":16,"left_children":[1,3,5,7,9,11,13,-1,15,-1,-1,17,-1,19,-1,-1,21,-1,-1,-1,-1,-1,-1],"loss_changes":[1.2651936E-2,8.9549925E-4,2.6203547E-2,4.903162E-4,8.118143E-3,2.7174782E-3,3.987599E-3,0E0,6.5276027E-3,0E0,0E0,1.7620531E-4,0E0,8.634338E-5,0E0,0E0,1.9277134E-3,0E0,0E0,0E0,0E0,0E0,0E0],"parents":[2147483647,0,0,1,1,2,2,3,3,4,4,5,5,6,6,8,8,11,11,13,13,16,16],"right_children":[2,4,6,8,10,12,14,-1,16,-1,-1,18,-1,20,-1,-1,22,-1,-1,-1,-1,-1,-1],"split_conditions":[2.2139712E-1,9.117501E2,8.660254E-1,8.5127356E2,9.161268E2,2.604906E2,5.6920165E-1,-2.5789677E-5,1.9833914E2,1.6482448E-2,-3.202092E-5,-1.8369701E-16,1.2332297E-2,5.579055E-1,4.135201E-2,-2.9752513E-5,1.1927145E-1,-3.976335E-5,2.5276067E-3,1.4054883E-2,3.5277486E-3,1.9979686E-2,1.7781616E-3],"split_indices":[0,6,2,8,6,7,0,0,7,0,0,2,0,0,0,0,0,0,0,0,0,0,0],"split_type":[0,0,0,0,0,0,0,0,0,0,0,0,0,0,0,0,0,0,0,0,0,0,0],"sum_hessian":[1.068E3,1.05E3,1.8E1,1.023E3,2.7E1,1.5E1,3E0,9.83E2,4E1,2E0,2.5E1,1.4E1,1E0,2E0,1E0,3.8E1,2E0,1.2E1,2E0,1E0,1E0,1E0,1E0],"tree_param":{"num_deleted":"0","num_feature":"12","num_nodes":"23","size_leaf_vector":"1"}},{"base_weights":[5.743916E-4,1.8192532E-4,2.2253742E-2,5.988121E-5,4.6387557E-3,5.553622E-3,8.349079E-2,-1.8060637E-5,2.9404205E-3,1.3185978E-2,-2.2784112E-5,1.2649893E-3,1.0482467E-2,3.3211708E-2,3.5149205E-2,-2.1055625E-5,4.109816E-2,1.3304167E-4,2.5668384E-3,1.1946667E-2,2.9986026E-3,1.6982729E-2,1.5114427E-3,-2.875196E-5,4.6627523E-4],"categories":[],"categories_nodes":[],"categories_segments":[],"categories_sizes":[],"default_left":[0,0,0,0,0,0,0,0,0,0,0,0,0,0,0,0,0,0,0,0,0,0,0,0,0],"id":17,"left_children":[1,3,5,7,9,11,13,-1,15,-1,-1,17,-1,19,-1,-1,21,23,-1,-1,-1,-1,-1,-1,-1],"loss_changes":[9.091445E-3,5.7139253E-4,1.896698E-2,3.5438346E-4,5.1933113E-3,1.972344E-3,2.8810184E-3,0E0,4.712879E-3,0E0,0E0,1.2265948E-4,0E0,6.237952E-5,0E0,0E0,1.3927692E-3,4.7029976E-6,0E0,0E0,0E0,0E0,0E0,0E0,0E0],"parents":[2147483647,0,0,1,1,2,2,3,3,4,4,5,5,6,6,8,8,11,11,13,13,16,16,17,17],"right_children":[2,4,6,8,10,12,14,-1,16,-1,-1,18,-1,20,-1,-1,22,24,-1,-1,-1,-1,-1,-1,-1],"split_conditions":[2.2139712E-1,9.117501E2,8.660254E-1,8.5127356E2,9.161268E2,2.604906E2,5.6920165E-1,-1.8060637E-5,1.9833914E2,1.3185978E-2,-2.2784112E-5,1E0,1.0482467E-2,5.579055E-1,3.5149205E-2,-2.1055625E-5,1.1927145E-1,-1.8369701E-16,2.5668384E-3,1.1946667E-2,2.9986026E-3,1.6982729E-2,1.5114427E-3,-2.875196E-5,4.6627523E-4],"split_indices":[0,6,2,8,6,7,0,0,7,0,0,1,0,0,0,0,0,2,0,0,0,0,0,0,0],"split_type":[0,0,0,0,0,0,0,0,0,0,0,0,0,0,0,0,0,0,0,0,0,0,0,0,0],"sum_hessian":[1.068E3,1.05E3,1.8E1,1.023E3,2.7E1,1.5E1,3E0,9.83E2,4E1,2E0,2.5E1,1.4E1,1E0,2E0,1E0,3.8E1,2E0,1.3E1,1E0,1E0,1E0,1E0,1E0,1.2E1,1E0],"tree_param":{"num_deleted":"0","num_feature":"12","num_nodes":"25","size_leaf_vector":"1"}},{"base_weights":[4.911291E-4,1.5743184E-4,1.8924009E-2,5.993952E-5,3.717243E-3,4.730461E-3,7.09672E-2,-1.2647951E-5,2.5088622E-3,1.05487835E-2,-1.621177E-5,1.085788E-3,8.910084E-3,2.8229952E-2,2.9876841E-2,-1.4900905E-5,3.493349E-2,1.2438423E-4,2.1818161E-3,1.01546645E-2,2.5488138E-3,1.4435328E-2,1.2847424E-3,-2.0789877E-5,3.963411E-4],"categories":[],"categories_nodes":[],"categories_segments":[],"categories_sizes":[],"default_left":[0,0,0,0,0,0,0,0,0,0,0,0,0,0,0,0,0,0,0,0,0,0,0,0,0],"id":18,"left_children":[1,3,5,7,9,11,13,-1,15,-1,-1,17,-1,19,-1,-1,21,23,-1,-1,-1,-1,-1,-1,-1],"loss_changes":[6.5724417E-3,3.6453124E-4,1.3699163E-2,2.5614E-4,3.3224018E-3,1.4238611E-3,2.0815432E-3,0E0,3.403072E-3,0E0,0E0,8.831749E-5,0E0,4.5068795E-5,0E0,0E0,1.0062703E-3,3.3366373E-6,0E0,0E0,0E0,0E0,0E0,0E0,0E0],"parents":[2147483647,0,0,1,1,2,2,3,3,4,4,5,5,6,6,8,8,11,11,13,13,16,16,17,17],"right_children":[2,4,6,8,10,12,14,-1,16,-1,-1,18,-1,20,-1,-1,22,24,-1,-1,-1,-1,-1,-1,-1],"split_conditions":[2.2139712E-1,9.117501E2,8.660254E-1,8.5127356E2,9.161268E2,2.604906E2,5.6920165E-1,-1.2647951E-5,1.9833914E2,1.05487835E-2,-1.621177E-5,1E0,8.910084E-3,5.579055E-1,2.9876841E-2,-1.4900905E-5,1.1927145E-1,-1.8369701E-16,2.1818161E-3,1.01546645E-2,2.5488138E-3,1.4435328E-2,1.2847424E-3,-2.0789877E-5,3.963411E-4],"split_indices":[0,6,2,8,6,7,0,0,7,0,0,1,0,0,0,0,0,2,0,0,0,0,0,0,0],"split_type":[0,0,0,0,0,0,0,0,0,0,0,0,0,0,0,0,0,0,0,0,0,0,0,0,0],"sum_hessian":[1.068E3,1.05E3,1.8E1,1.023E3,2.7E1,1.5E1,3E0,9.83E2,4E1,2E0,2.5E1,1.4E1,1E0,2E0,1E0,3.8E1,2E0,1.3E1,1E0,1E0,1E0,1E0,1E0,1.2E1,1E0],"tree_param":{"num_deleted":"0","num_feature":"12","num_nodes":"25","size_leaf_vector":"1"}},{"base_weights":[4.1888145E-4,1.3515465E-4,1.6091406E-2,5.7282334E-5,2.97823E-3,4.0280335E-3,6.0322046E-2,-8.857422E-6,2.139255E-3,8.4390165E-3,-1.1535299E-5,9.3054393E-4,7.573557E-3,2.39954E-2,2.5395298E-2,-1.05452555E-5,2.9693445E-2,1.13891925E-4,1.8545509E-3,8.631457E-3,2.166474E-3,1.2270034E-2,1.0920167E-3,-1.503268E-5,3.3688545E-4],"categories":[],"categories_nodes":[],"categories_segments":[],"categories_sizes":[],"default_left":[0,0,0,0,0,0,0,0,0,0,0,0,0,0,0,0,0,0,0,0,0,0,0,0,0],"id":19,"left_children":[1,3,5,7,9,11,13,-1,15,-1,-1,17,-1,19,-1,-1,21,23,-1,-1,-1,-1,-1,-1,-1],"loss_changes":[4.751364E-3,2.325175E-4,9.894864E-3,1.851306E-4,2.1255827E-3,1.0280269E-3,1.5039211E-3,0E0,2.4575174E-3,0E0,0E0,6.362311E-5,0E0,3.2565556E-5,0E0,0E0,7.2703627E-4,2.3730827E-6,0E0,0E0,0E0,0E0,0E0,0E0,0E0],"parents":[2147483647,0,0,1,1,2,2,3,3,4,4,5,5,6,6,8,8,11,11,13,13,16,16,17,17],"right_children":[2,4,6,8,10,12,14,-1,16,-1,-1,18,-1,20,-1,-1,22,24,-1,-1,-1,-1,-1,-1,-1],"split_conditions":[2.2139712E-1,9.117501E2,8.660254E-1,8.5127356E2,9.161268E2,2.604906E2,5.6920165E-1,-8.857422E-6,1.9833914E2,8.4390165E-3,-1.1535299E-5,1E0,7.573557E-3,5.579055E-1,2.5395298E-2,-1.05452555E-5,1.1927145E-1,-1.8369701E-16,1.8545509E-3,8.631457E-3,2.166474E-3,1.2270034E-2,1.0920167E-3,-1.503268E-5,3.3688545E-4],"split_indices":[0,6,2,8,6,7,0,0,7,0,0,1,0,0,0,0,0,2,0,0,0,0,0,0,0],"split_type":[0,0,0,0,0,0,0,0,0,0,0,0,0,0,0,0,0,0,0,0,0,0,0,0,0],"sum_hessian":[1.068E3,1.05E3,1.8E1,1.023E3,2.7E1,1.5E1,3E0,9.83E2,4E1,2E0,2.5E1,1.4E1,1E0,2E0,1E0,3.8E1,2E0,1.3E1,1E0,1E0,1E0,1E0,1E0,1.2E1,1E0],"tree_param":{"num_deleted":"0","num_feature":"12","num_nodes":"25","size_leaf_vector":"1"}},{"base_weights":[3.5655932E-4,1.153219E-4,1.3682031E-2,5.3127562E-5,2.385739E-3,3.4289863E-3,5.1273704E-2,-6.2028953E-6,1.8231249E-3,6.7512034E-3,-8.207809E-6,7.964672E-4,6.4375163E-3,2.0396074E-2,2.158599E-2,-7.4627956E-6,2.5239429E-2,1.0271383E-4,1.5763522E-3,7.336736E-3,1.8414975E-3,1.042952E-2,9.282232E-4,-1.0869783E-5,2.8635265E-4],"categories":[],"categories_nodes":[],"categories_segments":[],"categories_sizes":[],"default_left":[0,0,0,0,0,0,0,0,0,0,0,0,0,0,0,0,0,0,0,0,0,0,0,0,0],"id":20,"left_children":[1,3,5,7,9,11,13,-1,15,-1,-1,17,-1,19,-1,-1,21,23,-1,-1,-1,-1,-1,-1,-1],"loss_changes":[3.4348322E-3,1.4828189E-4,7.1473364E-3,1.3380556E-4,1.3599421E-3,7.42313E-4,1.0865815E-3,0E0,1.774835E-3,0E0,0E0,4.5851993E-5,0E0,2.3529516E-5,0E0,0E0,5.252798E-4,1.6915386E-6,0E0,0E0,0E0,0E0,0E0,0E0,0E0],"parents":[2147483647,0,0,1,1,2,2,3,3,4,4,5,5,6,6,8,8,11,11,13,13,16,16,17,17],"right_children":[2,4,6,8,10,12,14,-1,16,-1,-1,18,-1,20,-1,-1,22,24,-1,-1,-1,-1,-1,-1,-1],"split_conditions":[2.2139712E-1,9.117501E2,8.660254E-1,8.5127356E2,9.161268E2,2.604906E2,5.6920165E-1,-6.2028953E-6,1.9833914E2,6.7512034E-3,-8.207809E-6,1E0,6.4375163E-3,5.579055E-1,2.158599E-2,-7.4627956E-6,1.1927145E-1,-1.8369701E-16,1.5763522E-3,7.336736E-3,1.8414975E-3,1.042952E-2,9.282232E-4,-1.0869783E-5,2.8635265E-4],"split_indices":[0,6,2,8,6,7,0,0,7,0,0,1,0,0,0,0,0,2,0,0,0,0,0,0,0],"split_type":[0,0,0,0,0,0,0,0,0,0,0,0,0,0,0,0,0,0,0,0,0,0,0,0,0],"sum_hessian":[1.068E3,1.05E3,1.8E1,1.023E3,2.7E1,1.5E1,3E0,9.83E2,4E1,2E0,2.5E1,1.4E1,1E0,2E0,1E0,3.8E1,2E0,1.3E1,1E0,1E0,1E0,1E0,1E0,1.2E1,1E0],"tree_param":{"num_deleted":"0","num_feature":"12","num_nodes":"25","size_leaf_vector":"1"}},{"base_weights":[3.0304366E-4,9.7934615E-5,1.16328625E-2,4.826757E-5,1.9108318E-3,2.9183696E-3,4.358262E-2,-4.3439177E-6,1.5530254E-3,5.4009436E-3,-5.8401715E-6,6.809787E-4,5.471885E-3,1.7336607E-2,1.8348098E-2,-5.281363E-6,2.1453539E-2,9.157788E-5,1.3398887E-3,6.2362077E-3,1.5652657E-3,8.865095E-3,7.889986E-4,-7.8596895E-6,2.4340153E-4],"categories":[],"categories_nodes":[],"categories_segments":[],"categories_sizes":[],"default_left":[0,0,0,0,0,0,0,0,0,0,0,0,0,0,0,0,0,0,0,0,0,0,0,0,0],"id":21,"left_children":[1,3,5,7,9,11,13,-1,15,-1,-1,17,-1,19,-1,-1,21,23,-1,-1,-1,-1,-1,-1,-1],"loss_changes":[2.4830545E-3,9.4541116E-5,5.162902E-3,9.670804E-5,8.701139E-4,5.3605315E-4,7.850663E-4,0E0,1.2818878E-3,0E0,0E0,3.305702E-5,0E0,1.7000362E-5,0E0,0E0,3.7951279E-4,1.208052E-6,0E0,0E0,0E0,0E0,0E0,0E0,0E0],"parents":[2147483647,0,0,1,1,2,2,3,3,4,4,5,5,6,6,8,8,11,11,13,13,16,16,17,17],"right_children":[2,4,6,8,10,12,14,-1,16,-1,-1,18,-1,20,-1,-1,22,24,-1,-1,-1,-1,-1,-1,-1],"split_conditions":[2.2139712E-1,9.117501E2,8.660254E-1,8.5127356E2,9.161268E2,2.604906E2,5.6920165E-1,-4.3439177E-6,1.9833914E2,5.4009436E-3,-5.8401715E-6,1E0,5.471885E-3,5.579055E-1,1.8348098E-2,-5.281363E-6,1.1927145E-1,-1.8369701E-16,1.3398887E-3,6.2362077E-3,1.5652657E-3,8.865095E-3,7.889986E-4,-7.8596895E-6,2.4340153E-4],"split_indices":[0,6,2,8,6,7,0,0,7,0,0,1,0,0,0,0,0,2,0,0,0,0,0,0,0],"split_type":[0,0,0,0,0,0,0,0,0,0,0,0,0,0,0,0,0,0,0,0,0,0,0,0,0],"sum_hessian":[1.068E3,1.05E3,1.8E1,1.023E3,2.7E1,1.5E1,3E0,9.83E2,4E1,2E0,2.5E1,1.4E1,1E0,2E0,1E0,3.8E1,2E0,1.3E1,1E0,1E0,1E0,1E0,1E0,1.2E1,1E0],"tree_param":{"num_deleted":"0","num_feature":"12","num_nodes":"25","size_leaf_vector":"1"}},{"base_weights":[2.5725338E-4,8.286414E-5,9.890193E-3,4.320577E-5,1.5302679E-3,2.4833092E-3,3.704518E-2,-3.0420667E-6,1.3224558E-3,4.320765E-3,-4.1555068E-6,5.817106E-4,4.651094E-3,1.4736096E-2,1.5595865E-2,-3.7375796E-6,1.8235525E-2,2.427817E-5,1.1389018E-3,5.3007603E-3,1.330483E-3,7.5353268E-3,6.706596E-4],"categories":[],"categories_nodes":[],"categories_segments":[],"categories_sizes":[],"default_left":[0,0,0,0,0,0,0,0,0,0,0,0,0,0,0,0,0,0,0,0,0,0,0],"id":22,"left_children":[1,3,5,7,9,11,13,-1,15,-1,-1,17,-1,19,-1,-1,21,-1,-1,-1,-1,-1,-1],"loss_changes":[1.7949736E-3,6.0263043E-5,3.7295483E-3,6.98941E-5,5.5673707E-4,3.871326E-4,5.6720944E-4,0E0,9.2590466E-4,0E0,0E0,2.3840263E-5,0E0,1.2281176E-5,0E0,0E0,2.7419534E-4,0E0,0E0,0E0,0E0,0E0,0E0],"parents":[2147483647,0,0,1,1,2,2,3,3,4,4,5,5,6,6,8,8,11,11,13,13,16,16],"right_children":[2,4,6,8,10,12,14,-1,16,-1,-1,18,-1,20,-1,-1,22,-1,-1,-1,-1,-1,-1],"split_conditions":[2.2139712E-1,9.117501E2,8.660254E-1,8.5127356E2,9.161268E2,2.604906E2,5.6920165E-1,-3.0420667E-6,1.9833914E2,4.320765E-3,-4.1555068E-6,1E0,4.651094E-3,5.579055E-1,1.5595865E-2,-3.7375796E-6,1.1927145E-1,2.427817E-5,1.1389018E-3,5.3007603E-3,1.330483E-3,7.5353268E-3,6.706596E-4],"split_indices":[0,6,2,8,6,7,0,0,7,0,0,1,0,0,0,0,0,0,0,0,0,0,0],"split_type":[0,0,0,0,0,0,0,0,0,0,0,0,0,0,0,0,0,0,0,0,0,0,0],"sum_hessian":[1.068E3,1.05E3,1.8E1,1.023E3,2.7E1,1.5E1,3E0,9.83E2,4E1,2E0,2.5E1,1.4E1,1E0,2E0,1E0,3.8E1,2E0,1.3E1,1E0,1E0,1E0,1E0,1E0],"tree_param":{"num_deleted":"0","num_feature":"12","num_nodes":"23","size_leaf_vector":"1"}},{"base_weights":[2.1801658E-4,6.991318E-5,8.3989985E-3,2.7172833E-5,1.0247935E-3,2.101706E-3,3.148842E-2,-2.130374E-6,1.431278E-3,-2.6850582E-6,1.5500188E-2,4.8473847E-4,3.953433E-3,1.2525718E-2,1.3256479E-2,3.4565928E-3,-2.9352987E-6,6.405026E-3,5.700588E-4,1.7514098E-5,9.680629E-4,4.5056464E-3,1.1309267E-3],"categories":[],"categories_nodes":[],"categories_segments":[],"categories_sizes":[],"default_left":[0,0,0,0,0,0,0,0,0,0,0,0,0,0,0,0,0,0,0,0,0,0,0],"id":23,"left_children":[1,3,5,7,9,11,13,-1,15,-1,17,19,-1,21,-1,-1,-1,-1,-1,-1,-1,-1,-1],"loss_changes":[1.2946466E-3,4.286547E-5,2.6964364E-3,4.847145E-5,6.735118E-4,2.8017504E-4,4.0980382E-4,0E0,3.4910446E-4,0E0,1.9810634E-4,1.7348606E-5,0E0,8.871255E-6,0E0,0E0,0E0,0E0,0E0,0E0,0E0,0E0,0E0],"parents":[2147483647,0,0,1,1,2,2,3,3,4,4,5,5,6,6,8,8,10,10,11,11,13,13],"right_children":[2,4,6,8,10,12,14,-1,16,-1,18,20,-1,22,-1,-1,-1,-1,-1,-1,-1,-1,-1],"split_conditions":[2.2139712E-1,8.5127356E2,8.660254E-1,9.117501E2,1.9833914E2,2.604906E2,5.6920165E-1,-2.130374E-6,9.161268E2,-2.6850582E-6,1.1927145E-1,1E0,3.953433E-3,5.579055E-1,1.3256479E-2,3.4565928E-3,-2.9352987E-6,6.405026E-3,5.700588E-4,1.7514098E-5,9.680629E-4,4.5056464E-3,1.1309267E-3],"split_indices":[0,8,2,6,7,7,0,0,6,0,0,1,0,0,0,0,0,0,0,0,0,0,0],"split_type":[0,0,0,0,0,0,0,0,0,0,0,0,0,0,0,0,0,0,0,0,0,0,0],"sum_hessian":[1.068E3,1.05E3,1.8E1,1.006E3,4.4E1,1.5E1,3E0,9.83E2,2.3E1,4.2E1,2E0,1.4E1,1E0,2E0,1E0,2E0,2.1E1,1E0,1E0,1.3E1,1E0,1E0,1E0],"tree_param":{"num_deleted":"0","num_feature":"12","num_nodes":"23","size_leaf_vector":"1"}},{"base_weights":[1.8465662E-4,5.8857357E-5,7.133623E-3,2.2448517E-5,8.7229826E-4,1.7798855E-3,2.6765168E-2,-1.4919113E-6,1.145797E-3,-1.8982737E-6,1.317517E-2,4.0502698E-4,3.3604146E-3,1.0646899E-2,1.1267996E-2,2.7652741E-3,-2.094736E-6,5.4442766E-3,4.8455002E-4,-1.7256403E-5,6.8231823E-4,3.8298012E-3,9.6130377E-4],"categories":[],"categories_nodes":[],"categories_segments":[],"categories_sizes":[],"default_left":[0,0,0,0,0,0,0,0,0,0,0,0,0,0,0,0,0,0,0,0,0,0,0],"id":24,"left_children":[1,3,5,7,9,11,13,-1,15,-1,17,19,-1,21,-1,-1,-1,-1,-1,-1,-1,-1,-1],"loss_changes":[9.3407306E-4,3.1107294E-5,1.9493017E-3,3.1025284E-5,4.865163E-4,2.0271473E-4,2.960777E-4,0E0,2.23384E-4,0E0,1.4313211E-4,1.3100915E-5,0E0,6.407936E-6,0E0,0E0,0E0,0E0,0E0,0E0,0E0,0E0,0E0],"parents":[2147483647,0,0,1,1,2,2,3,3,4,4,5,5,6,6,8,8,10,10,11,11,13,13],"right_children":[2,4,6,8,10,12,14,-1,16,-1,18,20,-1,22,-1,-1,-1,-1,-1,-1,-1,-1,-1],"split_conditions":[2.2139712E-1,8.5127356E2,8.660254E-1,9.117501E2,1.9833914E2,2.604906E2,5.6920165E-1,-1.4919113E-6,9.161268E2,-1.8982737E-6,1.1927145E-1,-1.8369701E-16,3.3604146E-3,5.579055E-1,1.1267996E-2,2.7652741E-3,-2.094736E-6,5.4442766E-3,4.8455002E-4,-1.7256403E-5,6.8231823E-4,3.8298012E-3,9.6130377E-4],"split_indices":[0,8,2,6,7,7,0,0,6,0,0,2,0,0,0,0,0,0,0,0,0,0,0],"split_type":[0,0,0,0,0,0,0,0,0,0,0,0,0,0,0,0,0,0,0,0,0,0,0],"sum_hessian":[1.068E3,1.05E3,1.8E1,1.006E3,4.4E1,1.5E1,3E0,9.83E2,2.3E1,4.2E1,2E0,1.4E1,1E0,2E0,1E0,2E0,2.1E1,1E0,1E0,1.2E1,2E0,1E0,1E0],"tree_param":{"num_deleted":"0","num_feature":"12","num_nodes":"23","size_leaf_vector":"1"}},{"base_weights":[1.5617587E-4,4.94674E-5,6.0506198E-3,1.8456642E-5,7.423199E-4,1.4975017E-3,2.2750437E-2,-1.0447927E-6,9.1719825E-4,-1.3420354E-6,1.1198918E-2,3.2785157E-4,2.8563382E-3,9.049892E-3,9.577811E-3,2.2122385E-3,-1.4948796E-6,4.6276334E-3,4.1188003E-4,2.4504525E-6,7.205129E-4,3.2553435E-3,8.171082E-4],"categories":[],"categories_nodes":[],"categories_segments":[],"categories_sizes":[],"default_left":[0,0,0,0,0,0,0,0,0,0,0,0,0,0,0,0,0,0,0,0,0,0,0],"id":25,"left_children":[1,3,5,7,9,11,13,-1,15,-1,17,19,-1,21,-1,-1,-1,-1,-1,-1,-1,-1,-1],"loss_changes":[6.7208795E-4,2.2567958E-5,1.4106198E-3,1.9858966E-5,3.5145142E-4,1.4703583E-4,2.1391571E-4,0E0,1.4294375E-4,0E0,1.03411236E-4,9.925052E-6,0E0,4.630041E-6,0E0,0E0,0E0,0E0,0E0,0E0,0E0,0E0,0E0],"parents":[2147483647,0,0,1,1,2,2,3,3,4,4,5,5,6,6,8,8,10,10,11,11,13,13],"right_children":[2,4,6,8,10,12,14,-1,16,-1,18,20,-1,22,-1,-1,-1,-1,-1,-1,-1,-1,-1],"split_conditions":[2.2139712E-1,8.5127356E2,8.660254E-1,9.117501E2,1.9833914E2,2.604906E2,5.6920165E-1,-1.0447927E-6,9.161268E2,-1.3420354E-6,1.1927145E-1,1E0,2.8563382E-3,5.579055E-1,9.577811E-3,2.2122385E-3,-1.4948796E-6,4.6276334E-3,4.1188003E-4,2.4504525E-6,7.205129E-4,3.2553435E-3,8.171082E-4],"split_indices":[0,8,2,6,7,7,0,0,6,0,0,1,0,0,0,0,0,0,0,0,0,0,0],"split_type":[0,0,0,0,0,0,0,0,0,0,0,0,0,0,0,0,0,0,0,0,0,0,0],"sum_hessian":[1.068E3,1.05E3,1.8E1,1.006E3,4.4E1,1.5E1,3E0,9.83E2,2.3E1,4.2E1,2E0,1.4E1,1E0,2E0,1E0,2E0,2.1E1,1E0,1E0,1.3E1,1E0,1E0,1E0],"tree_param":{"num_deleted":"0","num_feature":"12","num_nodes":"23","size_leaf_vector":"1"}},{"base_weights":[1.322206E-4,4.1523195E-5,5.1422594E-3,1.5113893E-5,6.31582E-4,1.2719602E-3,1.9337893E-2,-7.316734E-7,7.3414913E-4,-9.487878E-7,9.51906E-3,2.776909E-4,2.4279E-3,7.6924167E-3,8.141149E-3,1.7697812E-3,-1.0668005E-6,3.9334954E-3,3.5008194E-4,1.7666923E-6,6.124377E-4,2.7670385E-3,6.945491E-4],"categories":[],"categories_nodes":[],"categories_segments":[],"categories_sizes":[],"default_left":[0,0,0,0,0,0,0,0,0,0,0,0,0,0,0,0,0,0,0,0,0,0,0],"id":26,"left_children":[1,3,5,7,9,11,13,-1,15,-1,17,19,-1,21,-1,-1,-1,-1,-1,-1,-1,-1,-1],"loss_changes":[4.855374E-4,1.636823E-5,1.0192887E-3,1.27112235E-5,2.5388767E-4,1.0626385E-4,1.5455438E-4,0E0,9.1469046E-5,0E0,7.471675E-5,7.1789127E-6,0E0,3.3446122E-6,0E0,0E0,0E0,0E0,0E0,0E0,0E0,0E0,0E0],"parents":[2147483647,0,0,1,1,2,2,3,3,4,4,5,5,6,6,8,8,10,10,11,11,13,13],"right_children":[2,4,6,8,10,12,14,-1,16,-1,18,20,-1,22,-1,-1,-1,-1,-1,-1,-1,-1,-1],"split_conditions":[2.2139712E-1,8.5127356E2,8.660254E-1,9.117501E2,1.9833914E2,2.604906E2,5.6920165E-1,-7.316734E-7,9.161268E2,-9.487878E-7,1.1927145E-1,1E0,2.4279E-3,5.579055E-1,8.141149E-3,1.7697812E-3,-1.0668005E-6,3.9334954E-3,3.5008194E-4,1.7666923E-6,6.124377E-4,2.7670385E-3,6.945491E-4],"split_indices":[0,8,2,6,7,7,0,0,6,0,0,1,0,0,0,0,0,0,0,0,0,0,0],"split_type":[0,0,0,0,0,0,0,0,0,0,0,0,0,0,0,0,0,0,0,0,0,0,0],"sum_hessian":[1.068E3,1.05E3,1.8E1,1.006E3,4.4E1,1.5E1,3E0,9.83E2,2.3E1,4.2E1,2E0,1.4E1,1E0,2E0,1E0,2E0,2.1E1,1E0,1E0,1.3E1,1E0,1E0,1E0],"tree_param":{"num_deleted":"0","num_feature":"12","num_nodes":"23","size_leaf_vector":"1"}},{"base_weights":[1.1191417E-4,3.4823268E-5,4.370368E-3,1.2335418E-5,5.3727755E-4,1.0805038E-3,1.6437232E-2,-5.123944E-7,5.876008E-4,-6.707708E-7,8.091211E-3,2.353252E-4,2.0637275E-3,6.53855E-3,6.919992E-3,1.4158249E-3,-7.613076E-7,3.3434632E-3,2.9758216E-4,1.2740824E-6,5.2056316E-4,2.3519755E-3,5.9037213E-4],"categories":[],"categories_nodes":[],"categories_segments":[],"categories_sizes":[],"default_left":[0,0,0,0,0,0,0,0,0,0,0,0,0,0,0,0,0,0,0,0,0,0,0],"id":27,"left_children":[1,3,5,7,9,11,13,-1,15,-1,17,19,-1,21,-1,-1,-1,-1,-1,-1,-1,-1,-1],"loss_changes":[3.507877E-4,1.1868745E-5,7.3650805E-4,8.136236E-6,1.834133E-4,7.679465E-5,1.1166721E-4,0E0,5.8532212E-5,0E0,5.3981305E-5,5.1914935E-6,0E0,2.4160254E-6,0E0,0E0,0E0,0E0,0E0,0E0,0E0,0E0,0E0],"parents":[2147483647,0,0,1,1,2,2,3,3,4,4,5,5,6,6,8,8,10,10,11,11,13,13],"right_children":[2,4,6,8,10,12,14,-1,16,-1,18,20,-1,22,-1,-1,-1,-1,-1,-1,-1,-1,-1],"split_conditions":[2.2139712E-1,8.5127356E2,8.660254E-1,9.117501E2,1.9833914E2,2.604906E2,5.6920165E-1,-5.123944E-7,9.161268E2,-6.707708E-7,1.1927145E-1,1E0,2.0637275E-3,5.579055E-1,6.919992E-3,1.4158249E-3,-7.613076E-7,3.3434632E-3,2.9758216E-4,1.2740824E-6,5.2056316E-4,2.3519755E-3,5.9037213E-4],"split_indices":[0,8,2,6,7,7,0,0,6,0,0,1,0,0,0,0,0,0,0,0,0,0,0],"split_type":[0,0,0,0,0,0,0,0,0,0,0,0,0,0,0,0,0,0,0,0,0,0,0],"sum_hessian":[1.068E3,1.05E3,1.8E1,1.006E3,4.4E1,1.5E1,3E0,9.83E2,2.3E1,4.2E1,2E0,1.4E1,1E0,2E0,1E0,2E0,2.1E1,1E0,1E0,1.3E1,1E0,1E0,1E0],"tree_param":{"num_deleted":"0","num_feature":"12","num_nodes":"23","size_leaf_vector":"1"}},{"base_weights":[9.471317E-5,2.9186138E-5,3.7144078E-3,1.00397E-5,4.569923E-4,9.1795257E-4,1.3971627E-2,-3.588323E-7,4.702895E-4,-4.7421938E-7,6.8775415E-3,1.9952067E-4,1.7541648E-3,5.5577755E-3,5.8819773E-3,1.132679E-3,-5.432968E-7,2.8419436E-3,2.529502E-4,9.1836193E-7,4.4249298E-4,1.9991756E-3,5.0182344E-4],"categories":[],"categories_nodes":[],"categories_segments":[],"categories_sizes":[],"default_left":[0,0,0,0,0,0,0,0,0,0,0,0,0,0,0,0,0,0,0,0,0,0,0],"id":28,"left_children":[1,3,5,7,9,11,13,-1,15,-1,17,19,-1,21,-1,-1,-1,-1,-1,-1,-1,-1,-1],"loss_changes":[2.5344538E-4,8.6041155E-6,5.3216796E-4,5.20804E-6,1.3250395E-4,5.5494806E-5,8.067791E-5,0E0,3.745733E-5,0E0,3.9001083E-5,3.7541154E-6,0E0,1.7451675E-6,0E0,0E0,0E0,0E0,0E0,0E0,0E0,0E0,0E0],"parents":[2147483647,0,0,1,1,2,2,3,3,4,4,5,5,6,6,8,8,10,10,11,11,13,13],"right_children":[2,4,6,8,10,12,14,-1,16,-1,18,20,-1,22,-1,-1,-1,-1,-1,-1,-1,-1,-1],"split_conditions":[2.2139712E-1,8.5127356E2,8.660254E-1,9.117501E2,1.9833914E2,2.604906E2,5.6920165E-1,-3.588323E-7,9.161268E2,-4.7421938E-7,1.1927145E-1,1E0,1.7541648E-3,5.579055E-1,5.8819773E-3,1.132679E-3,-5.432968E-7,2.8419436E-3,2.529502E-4,9.1836193E-7,4.4249298E-4,1.9991756E-3,5.0182344E-4],"split_indices":[0,8,2,6,7,7,0,0,6,0,0,1,0,0,0,0,0,0,0,0,0,0,0],"split_type":[0,0,0,0,0,0,0,0,0,0,0,0,0,0,0,0,0,0,0,0,0,0,0],"sum_hessian":[1.068E3,1.05E3,1.8E1,1.006E3,4.4E1,1.5E1,3E0,9.83E2,2.3E1,4.2E1,2E0,1.4E1,1E0,2E0,1E0,2E0,2.1E1,1E0,1E0,1.3E1,1E0,1E0,1E0],"tree_param":{"num_deleted":"0","num_feature":"12","num_nodes":"23","size_leaf_vector":"1"}},{"base_weights":[8.0149926E-5,2.4451308E-5,3.1569446E-3,8.151605E-6,3.8865907E-4,7.799049E-4,1.1875868E-2,-2.5129202E-7,3.76371E-4,-3.3526206E-7,5.8459044E-3,1.6922207E-4,1.4910222E-3,4.7241054E-3,4.9996735E-3,9.0613373E-4,-3.8771634E-7,2.4156512E-3,2.1500589E-4,-1.425267E-5,3.155947E-4,1.6993047E-3,4.2654277E-4],"categories":[],"categories_nodes":[],"categories_segments":[],"categories_sizes":[],"default_left":[0,0,0,0,0,0,0,0,0,0,0,0,0,0,0,0,0,0,0,0,0,0,0],"id":29,"left_children":[1,3,5,7,9,11,13,-1,15,-1,17,19,-1,21,-1,-1,-1,-1,-1,-1,-1,-1,-1],"loss_changes":[1.8312079E-4,6.236071E-6,3.8451725E-4,3.3334995E-6,9.572633E-5,4.0100782E-5,5.828956E-5,0E0,2.3969587E-5,0E0,2.817838E-5,2.9198009E-6,0E0,1.2612654E-6,0E0,0E0,0E0,0E0,0E0,0E0,0E0,0E0,0E0],"parents":[2147483647,0,0,1,1,2,2,3,3,4,4,5,5,6,6,8,8,10,10,11,11,13,13],"right_children":[2,4,6,8,10,12,14,-1,16,-1,18,20,-1,22,-1,-1,-1,-1,-1,-1,-1,-1,-1],"split_conditions":[2.2139712E-1,8.5127356E2,8.660254E-1,9.117501E2,1.9833914E2,2.604906E2,5.6920165E-1,-2.5129202E-7,9.161268E2,-3.3526206E-7,1.1927145E-1,-1.8369701E-16,1.4910222E-3,5.579055E-1,4.9996735E-3,9.0613373E-4,-3.8771634E-7,2.4156512E-3,2.1500589E-4,-1.425267E-5,3.155947E-4,1.6993047E-3,4.2654277E-4],"split_indices":[0,8,2,6,7,7,0,0,6,0,0,2,0,0,0,0,0,0,0,0,0,0,0],"split_type":[0,0,0,0,0,0,0,0,0,0,0,0,0,0,0,0,0,0,0,0,0,0,0],"sum_hessian":[1.068E3,1.05E3,1.8E1,1.006E3,4.4E1,1.5E1,3E0,9.83E2,2.3E1,4.2E1,2E0,1.4E1,1E0,2E0,1E0,2E0,2.1E1,1E0,1E0,1.2E1,2E0,1E0,1E0],"tree_param":{"num_deleted":"0","num_feature":"12","num_nodes":"23","size_leaf_vector":"1"}},{"base_weights":[6.775465E-5,2.0479923E-5,2.6792274E-3,6.6051343E-6,3.3051177E-4,6.579517E-4,1.0094523E-2,-1.7598103E-7,3.0119118E-4,-2.3702249E-7,4.969001E-3,1.3854333E-4,1.2673617E-3,1.2046576E-3,4.249728E-3,7.248879E-4,-2.766885E-7,2.0533027E-3,1.8274784E-4,-2.4349729E-6,3.2876732E-4],"categories":[],"categories_nodes":[],"categories_segments":[],"categories_sizes":[],"default_left":[0,0,0,0,0,0,0,0,0,0,0,0,0,0,0,0,0,0,0,0,0],"id":30,"left_children":[1,3,5,7,9,11,13,-1,15,-1,17,19,-1,-1,-1,-1,-1,-1,-1,-1,-1],"loss_changes":[1.3192031E-4,4.5188262E-6,2.781371E-4,2.1335923E-6,6.915723E-5,2.9054963E-5,4.2113184E-5,0E0,1.5338244E-5,0E0,2.0359264E-5,2.1149626E-6,0E0,0E0,0E0,0E0,0E0,0E0,0E0,0E0,0E0],"parents":[2147483647,0,0,1,1,2,2,3,3,4,4,5,5,6,6,8,8,10,10,11,11],"right_children":[2,4,6,8,10,12,14,-1,16,-1,18,20,-1,-1,-1,-1,-1,-1,-1,-1,-1],"split_conditions":[2.2139712E-1,8.5127356E2,8.660254E-1,9.117501E2,1.9833914E2,2.604906E2,5.6920165E-1,-1.7598103E-7,9.161268E2,-2.3702249E-7,1.1927145E-1,1E0,1.2673617E-3,1.2046576E-3,4.249728E-3,7.248879E-4,-2.766885E-7,2.0533027E-3,1.8274784E-4,-2.4349729E-6,3.2876732E-4],"split_indices":[0,8,2,6,7,7,0,0,6,0,0,1,0,0,0,0,0,0,0,0,0],"split_type":[0,0,0,0,0,0,0,0,0,0,0,0,0,0,0,0,0,0,0,0,0],"sum_hessian":[1.068E3,1.05E3,1.8E1,1.006E3,4.4E1,1.5E1,3E0,9.83E2,2.3E1,4.2E1,2E0,1.4E1,1E0,2E0,1E0,2E0,2.1E1,1E0,1E0,1.3E1,1E0],"tree_param":{"num_deleted":"0","num_feature":"12","num_nodes":"21","size_leaf_vector":"1"}},{"base_weights":[5.679035E-5,1.7152655E-5,2.2463917E-3,5.3431827E-6,2.8104126E-4,5.601637E-4,8.429706E-3,-1.2324037E-7,2.410339E-4,-1.6756938E-7,4.2236247E-3,1.1873164E-4,1.0772467E-3,3.2123725E-3,3.6122561E-3,5.799294E-4,-1.9745497E-7,1.7453135E-3,1.5531779E-4,-1.7577476E-6,2.7945044E-4,1.2637139E-3,1.8185377E-4],"categories":[],"categories_nodes":[],"categories_segments":[],"categories_sizes":[],"default_left":[0,0,0,0,0,0,0,0,0,0,0,0,0,0,0,0,0,0,0,0,0,0,0],"id":31,"left_children":[1,3,5,7,9,11,13,-1,15,-1,17,19,-1,21,-1,-1,-1,-1,-1,-1,-1,-1,-1],"loss_changes":[9.274079E-5,3.2738194E-6,1.9338104E-4,1.3657528E-6,4.996275E-5,2.0978932E-5,3.6682555E-5,0E0,9.8162745E-6,0E0,1.4710586E-5,1.5244123E-6,0E0,5.2651776E-6,0E0,0E0,0E0,0E0,0E0,0E0,0E0,0E0,0E0],"parents":[2147483647,0,0,1,1,2,2,3,3,4,4,5,5,6,6,8,8,10,10,11,11,13,13],"right_children":[2,4,6,8,10,12,14,-1,16,-1,18,20,-1,22,-1,-1,-1,-1,-1,-1,-1,-1,-1],"split_conditions":[2.2139712E-1,8.5127356E2,8.660254E-1,9.117501E2,1.9833914E2,2.604906E2,5.6920165E-1,-1.2324037E-7,9.161268E2,-1.6756938E-7,1.1927145E-1,1E0,1.0772467E-3,5.579055E-1,3.6122561E-3,5.799294E-4,-1.9745497E-7,1.7453135E-3,1.5531779E-4,-1.7577476E-6,2.7945044E-4,1.2637139E-3,1.8185377E-4],"split_indices":[0,8,2,6,7,7,0,0,6,0,0,1,0,0,0,0,0,0,0,0,0,0,0],"split_type":[0,0,0,0,0,0,0,0,0,0,0,0,0,0,0,0,0,0,0,0,0,0,0],"sum_hessian":[1.068E3,1.05E3,1.8E1,1.006E3,4.4E1,1.5E1,3E0,9.83E2,2.3E1,4.2E1,2E0,1.4E1,1E0,2E0,1E0,2E0,2.1E1,1E0,1E0,1.3E1,1E0,1E0,1E0],"tree_param":{"num_deleted":"0","num_feature":"12","num_nodes":"23","size_leaf_vector":"1"}},{"base_weights":[4.8072685E-5,1.436684E-5,1.9100079E-3,1.2947992E-6,2.3896313E-4,4.7680616E-4,7.1653128E-3,-1.1846765E-7,3.590107E-3,1.01628604E-4,9.156704E-4,2.7305286E-3,3.07045E-3,1.483512E-3,1.3203622E-4,-1.2674379E-6,2.3753644E-4,1.0741712E-3,1.5456678E-4],"categories":[],"categories_nodes":[],"categories_segments":[],"categories_sizes":[],"default_left":[0,0,0,0,0,0,0,0,0,0,0,0,0,0,0,0,0,0,0],"id":32,"left_children":[1,3,5,-1,7,9,11,-1,13,15,-1,17,-1,-1,-1,-1,-1,-1,-1],"loss_changes":[6.7060966E-5,2.3714774E-6,1.3968986E-4,0E0,3.6096957E-5,1.51496915E-5,2.650413E-5,0E0,1.0627646E-5,1.0991811E-6,0E0,3.8045164E-6,0E0,0E0,0E0,0E0,0E0,0E0,0E0],"parents":[2147483647,0,0,1,1,2,2,4,4,5,5,6,6,8,8,9,9,11,11],"right_children":[2,4,6,-1,8,10,12,-1,14,16,-1,18,-1,-1,-1,-1,-1,-1,-1],"split_conditions":[2.2139712E-1,8.5127356E2,8.660254E-1,1.2947992E-6,1.9833914E2,2.604906E2,5.6920165E-1,-1.1846765E-7,1.1927145E-1,1E0,9.156704E-4,5.579055E-1,3.07045E-3,1.483512E-3,1.3203622E-4,-1.2674379E-6,2.3753644E-4,1.0741712E-3,1.5456678E-4],"split_indices":[0,8,2,0,7,7,0,0,0,1,0,0,0,0,0,0,0,0,0],"split_type":[0,0,0,0,0,0,0,0,0,0,0,0,0,0,0,0,0,0,0],"sum_hessian":[1.068E3,1.05E3,1.8E1,1.006E3,4.4E1,1.5E1,3E0,4.2E1,2E0,1.4E1,1E0,2E0,1E0,1E0,1E0,1.3E1,1E0,1E0,1E0],"tree_param":{"num_deleted":"0","num_feature":"12","num_nodes":"19","size_leaf_vector":"1"}},{"base_weights":[4.0262894E-5,1.1595165E-5,1.6239218E-3,9.0680635E-7,2.0317051E-4,4.0576176E-4,6.0905814E-3,-8.3753875E-8,3.0515592E-3,2.6069696E-5,7.783056E-4,2.3210049E-3,2.6098967E-3,1.260978E-3,1.1222363E-4,9.1305975E-4,1.3139249E-4],"categories":[],"categories_nodes":[],"categories_segments":[],"categories_sizes":[],"default_left":[0,0,0,0,0,0,0,0,0,0,0,0,0,0,0,0,0],"id":33,"left_children":[1,3,5,-1,7,9,11,-1,13,-1,-1,15,-1,-1,-1,-1,-1],"loss_changes":[4.851367E-5,1.7254173E-6,1.0090969E-4,0E0,2.6078522E-5,1.0940312E-5,1.9148487E-5,0E0,7.67862E-6,0E0,0E0,2.7486312E-6,0E0,0E0,0E0,0E0,0E0],"parents":[2147483647,0,0,1,1,2,2,4,4,5,5,6,6,8,8,11,11],"right_children":[2,4,6,-1,8,10,12,-1,14,-1,-1,16,-1,-1,-1,-1,-1],"split_conditions":[2.2139712E-1,8.5127356E2,8.660254E-1,9.0680635E-7,1.9833914E2,2.604906E2,5.6920165E-1,-8.3753875E-8,1.1927145E-1,2.6069696E-5,7.783056E-4,5.579055E-1,2.6098967E-3,1.260978E-3,1.1222363E-4,9.1305975E-4,1.3139249E-4],"split_indices":[0,8,2,0,7,7,0,0,0,0,0,0,0,0,0,0,0],"split_type":[0,0,0,0,0,0,0,0,0,0,0,0,0,0,0,0,0],"sum_hessian":[1.068E3,1.05E3,1.8E1,1.006E3,4.4E1,1.5E1,3E0,4.2E1,2E0,1.4E1,1E0,2E0,1E0,1E0,1E0,1E0,1E0],"tree_param":{"num_deleted":"0","num_feature":"12","num_nodes":"17","size_leaf_vector":"1"}},{"base_weights":[3.3640365E-5,9.423791E-6,1.3714286E-3,6.350066E-7,1.727311E-4,3.343162E-4,5.177021E-3,-5.921204E-8,2.5937955E-3,1.8771081E-5,6.615758E-4,1.9728343E-3,2.2184374E-3,1.0718287E-3,9.537936E-5,7.760883E-4,1.11687186E-4],"categories":[],"categories_nodes":[],"categories_segments":[],"categories_sizes":[],"default_left":[0,0,0,0,0,0,0,0,0,0,0,0,0,0,0,0,0],"id":34,"left_children":[1,3,5,-1,7,9,11,-1,13,-1,-1,15,-1,-1,-1,-1,-1],"loss_changes":[3.461909E-5,1.2537962E-6,7.3258954E-5,0E0,1.8840705E-5,7.996726E-6,1.38358955E-5,0E0,5.5480923E-6,0E0,0E0,1.985708E-6,0E0,0E0,0E0,0E0,0E0],"parents":[2147483647,0,0,1,1,2,2,4,4,5,5,6,6,8,8,11,11],"right_children":[2,4,6,-1,8,10,12,-1,14,-1,-1,16,-1,-1,-1,-1,-1],"split_conditions":[2.2139712E-1,8.5127356E2,8.660254E-1,6.350066E-7,1.9833914E2,2.604906E2,5.6920165E-1,-5.921204E-8,1.1927145E-1,1.8771081E-5,6.615758E-4,5.579055E-1,2.2184374E-3,1.0718287E-3,9.537936E-5,7.760883E-4,1.11687186E-4],"split_indices":[0,8,2,0,7,7,0,0,0,0,0,0,0,0,0,0,0],"split_type":[0,0,0,0,0,0,0,0,0,0,0,0,0,0,0,0,0],"sum_hessian":[1.068E3,1.05E3,1.8E1,1.006E3,4.4E1,1.5E1,3E0,4.2E1,2E0,1.4E1,1E0,2E0,1E0,1E0,1E0,1E0,1E0],"tree_param":{"num_deleted":"0","num_feature":"12","num_nodes":"17","size_leaf_vector":"1"}},{"base_weights":[2.8182962E-5,2.312294E-6,1.1593079E-3,2.7654023E-4,4.4005513E-3,-2.1211179E-5,1.3359487E-3,1.6769568E-3,1.8857003E-3,5.050182E-4,4.4041873E-5,6.596804E-4,9.495021E-5],"categories":[],"categories_nodes":[],"categories_segments":[],"categories_sizes":[],"default_left":[0,0,0,0,0,0,0,0,0,0,0,0,0],"id":35,"left_children":[1,-1,3,5,7,-1,9,11,-1,-1,-1,-1,-1],"loss_changes":[2.4749252E-5,0E0,5.31471E-5,5.9804315E-6,9.996373E-6,0E0,1.4055158E-6,1.4344196E-6,0E0,0E0,0E0,0E0,0E0],"parents":[2147483647,0,0,2,2,3,3,4,4,6,6,7,7],"right_children":[2,-1,4,6,8,-1,10,12,-1,-1,-1,-1,-1],"split_conditions":[2.2139712E-1,2.312294E-6,8.660254E-1,-1.8369701E-16,5.6920165E-1,-2.1211179E-5,1.4583724E0,5.579055E-1,1.8857003E-3,5.050182E-4,4.4041873E-5,6.596804E-4,9.495021E-5],"split_indices":[0,0,2,2,0,0,0,0,0,0,0,0,0],"split_type":[0,0,0,0,0,0,0,0,0,0,0,0,0],"sum_hessian":[1.068E3,1.05E3,1.8E1,1.5E1,3E0,1.2E1,3E0,2E0,1E0,2E0,1E0,1E0,1E0],"tree_param":{"num_deleted":"0","num_feature":"12","num_nodes":"13","size_leaf_vector":"1"}},{"base_weights":[2.269376E-5,1.467014E-6,9.5625396E-4,2.449035E-4,3.7404299E-3,1.7239428E-5,4.8658848E-4,1.4254252E-3,1.6028166E-3,5.6072476E-4,8.0716614E-5],"categories":[],"categories_nodes":[],"categories_segments":[],"categories_sizes":[],"default_left":[0,0,0,0,0,0,0,0,0,0,0],"id":36,"left_children":[1,-1,3,5,7,-1,-1,9,-1,-1,-1],"loss_changes":[1.7762997E-5,0E0,3.8694452E-5,4.2947327E-6,7.2216026E-6,0E0,0E0,1.0362087E-6,0E0,0E0,0E0],"parents":[2147483647,0,0,2,2,3,3,4,4,7,7],"right_children":[2,-1,4,6,8,-1,-1,10,-1,-1,-1],"split_conditions":[1.1927145E-1,1.467014E-6,8.660254E-1,2.604906E2,5.6920165E-1,1.7239428E-5,4.8658848E-4,5.579055E-1,1.6028166E-3,5.6072476E-4,8.0716614E-5],"split_indices":[0,0,2,7,0,0,0,0,0,0,0],"split_type":[0,0,0,0,0,0,0,0,0,0,0],"sum_hessian":[1.068E3,1.049E3,1.9E1,1.6E1,3E0,1.5E1,1E0,2E0,1E0,1E0,1E0],"tree_param":{"num_deleted":"0","num_feature":"12","num_nodes":"11","size_leaf_vector":"1"}},{"base_weights":[1.8457906E-5,1.0273602E-6,8.067871E-4,2.010739E-4,3.1793714E-3,1.2392727E-5,4.1359666E-4,3.6346912E-4,1.3624192E-3],"categories":[],"categories_nodes":[],"categories_segments":[],"categories_sizes":[],"default_left":[0,0,0,0,0,0,0,0,0],"id":37,"left_children":[1,-1,3,5,7,-1,-1,-1,-1],"loss_changes":[1.266622E-5,0E0,2.8102824E-5,3.1413629E-6,5.218626E-6,0E0,0E0,0E0,0E0],"parents":[2147483647,0,0,2,2,3,3,4,4],"right_children":[2,-1,4,6,8,-1,-1,-1,-1],"split_conditions":[1.1927145E-1,1.0273602E-6,8.660254E-1,2.604906E2,5.6920165E-1,1.2392727E-5,4.1359666E-4,3.6346912E-4,1.3624192E-3],"split_indices":[0,0,2,7,0,0,0,0,0],"split_type":[0,0,0,0,0,0,0,0,0],"sum_hessian":[1.068E3,1.049E3,1.9E1,1.6E1,3E0,1.5E1,1E0,2E0,1E0],"tree_param":{"num_deleted":"0","num_feature":"12","num_nodes":"9","size_leaf_vector":"1"}},{"base_weights":[1.4934369E-5,7.194746E-7,6.7233393E-4,1.6580553E-4,2.6569963E-3,-2.3543142E-5,2.3033381E-4,9.691715E-4,1.1580706E-3,4.2207242E-4,1.4054775E-5],"categories":[],"categories_nodes":[],"categories_segments":[],"categories_sizes":[],"default_left":[0,0,0,0,0,0,0,0,0,0,0],"id":38,"left_children":[1,-1,3,5,7,-1,-1,9,-1,-1,-1],"loss_changes":[8.808273E-6,0E0,1.9665213E-5,2.5601332E-6,4.3821947E-6,0E0,0E0,1.1452896E-6,0E0,0E0,0E0],"parents":[2147483647,0,0,2,2,3,3,4,4,7,7],"right_children":[2,-1,4,6,8,-1,-1,10,-1,-1,-1],"split_conditions":[1.1927145E-1,7.194746E-7,8.660254E-1,-1.8369701E-16,5.6920165E-1,-2.3543142E-5,2.3033381E-4,5.579055E-1,1.1580706E-3,4.2207242E-4,1.4054775E-5],"split_indices":[0,0,2,2,0,0,0,0,0,0,0],"split_type":[0,0,0,0,0,0,0,0,0,0,0],"sum_hessian":[1.068E3,1.049E3,1.9E1,1.6E1,3E0,1.2E1,4E0,2E0,1E0,1E0,1E0],"tree_param":{"num_deleted":"0","num_feature":"12","num_nodes":"11","size_leaf_vector":"1"}},{"base_weights":[1.2139464E-5,5.8278187E-7,5.755478E-4,-4.3123546E-6,1.8561085E-3,2.2294044E-3,-1.5556813E-6,2.471447E-4,8.6755754E-4],"categories":[],"categories_nodes":[],"categories_segments":[],"categories_sizes":[],"default_left":[0,0,0,0,0,0,0,0,0],"id":39,"left_children":[1,-1,3,-1,5,7,-1,-1,-1],"loss_changes":[6.140281E-6,0E0,1.4379876E-5,0E0,4.1804433E-6,2.2733293E-6,0E0,0E0,0E0],"parents":[2147483647,0,0,2,2,4,4,5,5],"right_children":[2,-1,4,-1,6,8,-1,-1,-1],"split_conditions":[2.2139712E-1,5.8278187E-7,2.5881904E-1,-4.3123546E-6,1.2389414E0,5.6920165E-1,-1.5556813E-6,2.471447E-4,8.6755754E-4],"split_indices":[0,0,2,0,0,0,0,0,0],"split_type":[0,0,0,0,0,0,0,0,0],"sum_hessian":[1.068E3,1.05E3,1.8E1,1.3E1,5E0,4E0,1E0,2E0,2E0],"tree_param":{"num_deleted":"0","num_feature":"12","num_nodes":"9","size_leaf_vector":"1"}},{"base_weights":[9.535648E-6,3.2923012E-7,4.5206514E-4,2.4167115E-5,1.9179583E-3,6.5898895E-4,8.5422996E-4,3.2168627E-4,-2.514124E-5],"categories":[],"categories_nodes":[],"categories_segments":[],"categories_sizes":[],"default_left":[0,0,0,0,0,0,0,0,0],"id":40,"left_children":[1,-1,3,-1,5,7,-1,-1,-1],"loss_changes":[3.9913198E-6,0E0,1.0737318E-5,0E0,2.8042932E-6,1.0108481E-6,0E0,0E0,0E0],"parents":[2147483647,0,0,2,2,4,4,5,5],"right_children":[2,-1,4,-1,6,8,-1,-1,-1],"split_conditions":[1.1927145E-1,3.2923012E-7,8.660254E-1,2.4167115E-5,5.6920165E-1,5.579055E-1,8.5422996E-4,3.2168627E-4,-2.514124E-5],"split_indices":[0,0,2,0,0,0,0,0,0],"split_type":[0,0,0,0,0,0,0,0,0],"sum_hessian":[1.068E3,1.049E3,1.9E1,1.6E1,3E0,2E0,1E0,1E0,1E0],"tree_param":{"num_deleted":"0","num_feature":"12","num_nodes":"9","size_leaf_vector":"1"}},{"base_weights":[7.774879E-6,-1.5933994E-6,2.445899E-4,1.18989345E-4,1.5019178E-3,7.921148E-6,7.2612765E-4,9.1009145E-4,1.08173495E-4],"categories":[],"categories_nodes":[],"categories_segments":[],"categories_sizes":[],"default_left":[0,0,0,0,0,0,0,0,0],"id":41,"left_children":[1,-1,3,5,7,-1,-1,-1,-1],"loss_changes":[3.314142E-6,0E0,8.66487E-6,1.1016233E-5,7.647201E-6,0E0,0E0,0E0,0E0],"parents":[2147483647,0,0,2,2,3,3,4,4],"right_children":[2,-1,4,6,8,-1,-1,-1,-1],"split_conditions":[8.250973E2,-1.5933994E-6,1.9833914E2,5.6920165E-1,1.1927145E-1,7.921148E-6,7.2612765E-4,9.1009145E-4,1.08173495E-4],"split_indices":[8,0,7,0,0,0,0,0,0],"split_type":[0,0,0,0,0,0,0,0,0],"sum_hessian":[1.068E3,1.013E3,5.5E1,5.1E1,4E0,5E1,1E0,1E0,3E0],"tree_param":{"num_deleted":"0","num_feature":"12","num_nodes":"9","size_leaf_vector":"1"}},{"base_weights":[7.0803194E-6,-1.1157839E-6,2.0250377E-4,9.740908E-5,1.2549877E-3,5.592025E-6,6.171942E-4,7.735849E-4,8.3827974E-5],"categories":[],"categories_nodes":[],"categories_segments":[],"categories_sizes":[],"default_left":[0,0,0,0,0,0,0,0,0],"id":42,"left_children":[1,-1,3,5,7,-1,-1,-1,-1],"loss_changes":[2.2568722E-6,0E0,6.071939E-6,7.989397E-6,5.7358684E-6,0E0,0E0,0E0,0E0],"parents":[2147483647,0,0,2,2,3,3,4,4],"right_children":[2,-1,4,6,8,-1,-1,-1,-1],"split_conditions":[8.250973E2,-1.1157839E-6,1.9833914E2,5.6920165E-1,1.1927145E-1,5.592025E-6,6.171942E-4,7.735849E-4,8.3827974E-5],"split_indices":[8,0,7,0,0,0,0,0,0],"split_type":[0,0,0,0,0,0,0,0,0],"sum_hessian":[1.068E3,1.013E3,5.5E1,5.1E1,4E0,5E1,1E0,1E0,3E0],"tree_param":{"num_deleted":"0","num_feature":"12","num_nodes":"9","size_leaf_vector":"1"}},{"base_weights":[6.340288E-6,3.5562428E-7,2.911525E-4,7.13673E-6,3.863454E-4],"categories":[],"categories_nodes":[],"categories_segments":[],"categories_sizes":[],"default_left":[0,0,0,0,0],"id":43,"left_children":[1,-1,3,-1,-1],"loss_changes":[1.5691296E-6,0E0,5.0323297E-6,0E0,0E0],"parents":[2147483647,0,0,2,2],"right_children":[2,-1,4,-1,-1],"split_conditions":[2.2139712E-1,3.5562428E-7,8.660254E-1,7.13673E-6,3.863454E-4],"split_indices":[0,0,2,0,0],"split_type":[0,0,0,0,0],"sum_hessian":[1.068E3,1.05E3,1.8E1,1.5E1,3E0],"tree_param":{"num_deleted":"0","num_feature":"12","num_nodes":"5","size_leaf_vector":"1"}},{"base_weights":[4.807202E-6,-9.139096E-7,1.4692704E-4,5.7559155E-5,1.0469675E-3,-6.9580216E-7,4.667044E-4,6.5749884E-4,6.38634E-5],"categories":[],"categories_nodes":[],"categories_segments":[],"categories_sizes":[],"default_left":[0,0,0,0,0,0,0,0,0],"id":44,"left_children":[1,-1,3,5,7,-1,-1,-1,-1],"loss_changes":[1.1936096E-6,0E0,4.444081E-6,4.6682835E-6,4.307334E-6,0E0,0E0,0E0,0E0],"parents":[2147483647,0,0,2,2,3,3,4,4],"right_children":[2,-1,4,6,8,-1,-1,-1,-1],"split_conditions":[8.250973E2,-9.139096E-7,1.9833914E2,5.6920165E-1,1.1927145E-1,-6.9580216E-7,4.667044E-4,6.5749884E-4,6.38634E-5],"split_indices":[8,0,7,0,0,0,0,0,0],"split_type":[0,0,0,0,0,0,0,0,0],"sum_hessian":[1.068E3,1.013E3,5.5E1,5.1E1,4E0,5E1,1E0,1E0,3E0],"tree_param":{"num_deleted":"0","num_feature":"12","num_nodes":"9","size_leaf_vector":"1"}},{"base_weights":[4.4749177E-6],"categories":[],"categories_nodes":[],"categories_segments":[],"categories_sizes":[],"default_left":[0],"id":45,"left_children":[-1],"loss_changes":[0E0],"parents":[2147483647],"right_children":[-1],"split_conditions":[1.3424753E-6],"split_indices":[0],"split_type":[0],"sum_hessian":[1.068E3],"tree_param":{"num_deleted":"0","num_feature":"12","num_nodes":"1","size_leaf_vector":"1"}},{"base_weights":[3.1330976E-6],"categories":[],"categories_nodes":[],"categories_segments":[],"categories_sizes":[],"default_left":[0],"id":46,"left_children":[-1],"loss_changes":[0E0],"parents":[2147483647],"right_children":[-1],"split_conditions":[9.399293E-7],"split_indices":[0],"split_type":[0],"sum_hessian":[1.068E3],"tree_param":{"num_deleted":"0","num_feature":"12","num_nodes":"1","size_leaf_vector":"1"}},{"base_weights":[2.1939193E-6],"categories":[],"categories_nodes":[],"categories_segments":[],"categories_sizes":[],"default_left":[0],"id":47,"left_children":[-1],"loss_changes":[0E0],"parents":[2147483647],"right_children":[-1],"split_conditions":[6.581758E-7],"split_indices":[0],"split_type":[0],"sum_hessian":[1.068E3],"tree_param":{"num_deleted":"0","num_feature":"12","num_nodes":"1","size_leaf_vector":"1"}},{"base_weights":[1.5360481E-6],"categories":[],"categories_nodes":[],"categories_segments":[],"categories_sizes":[],"default_left":[0],"id":48,"left_children":[-1],"loss_changes":[0E0],"parents":[2147483647],"right_children":[-1],"split_conditions":[4.6081445E-7],"split_indices":[0],"split_type":[0],"sum_hessian":[1.068E3],"tree_param":{"num_deleted":"0","num_feature":"12","num_nodes":"1","size_leaf_vector":"1"}},{"base_weights":[1.0755148E-6],"categories":[],"categories_nodes":[],"categories_segments":[],"categories_sizes":[],"default_left":[0],"id":49,"left_children":[-1],"loss_changes":[0E0],"parents":[2147483647],"right_children":[-1],"split_conditions":[3.2265444E-7],"split_indices":[0],"split_type":[0],"sum_hessian":[1.068E3],"tree_param":{"num_deleted":"0","num_feature":"12","num_nodes":"1","size_leaf_vector":"1"}},{"base_weights":[7.5350437E-7],"categories":[],"categories_nodes":[],"categories_segments":[],"categories_sizes":[],"default_left":[0],"id":50,"left_children":[-1],"loss_changes":[0E0],"parents":[2147483647],"right_children":[-1],"split_conditions":[2.2605131E-7],"split_indices":[0],"split_type":[0],"sum_hessian":[1.068E3],"tree_param":{"num_deleted":"0","num_feature":"12","num_nodes":"1","size_leaf_vector":"1"}},{"base_weights":[5.277719E-7],"categories":[],"categories_nodes":[],"categories_segments":[],"categories_sizes":[],"default_left":[0],"id":51,"left_children":[-1],"loss_changes":[0E0],"parents":[2147483647],"right_children":[-1],"split_conditions":[1.5833157E-7],"split_indices":[0],"split_type":[0],"sum_hessian":[1.068E3],"tree_param":{"num_deleted":"0","num_feature":"12","num_nodes":"1","size_leaf_vector":"1"}},{"base_weights":[3.6928563E-7],"categories":[],"categories_nodes":[],"categories_segments":[],"categories_sizes":[],"default_left":[0],"id":52,"left_children":[-1],"loss_changes":[0E0],"parents":[2147483647],"right_children":[-1],"split_conditions":[1.1078569E-7],"split_indices":[0],"split_type":[0],"sum_hessian":[1.068E3],"tree_param":{"num_deleted":"0","num_feature":"12","num_nodes":"1","size_leaf_vector":"1"}},{"base_weights":[2.5941705E-7],"categories":[],"categories_nodes":[],"categories_segments":[],"categories_sizes":[],"default_left":[0],"id":53,"left_children":[-1],"loss_changes":[0E0],"parents":[2147483647],"right_children":[-1],"split_conditions":[7.782512E-8],"split_indices":[0],"split_type":[0],"sum_hessian":[1.068E3],"tree_param":{"num_deleted":"0","num_feature":"12","num_nodes":"1","size_leaf_vector":"1"}},{"base_weights":[1.821694E-7],"categories":[],"categories_nodes":[],"categories_segments":[],"categories_sizes":[],"default_left":[0],"id":54,"left_children":[-1],"loss_changes":[0E0],"parents":[2147483647],"right_children":[-1],"split_conditions":[5.4650823E-8],"split_indices":[0],"split_type":[0],"sum_hessian":[1.068E3],"tree_param":{"num_deleted":"0","num_feature":"12","num_nodes":"1","size_leaf_vector":"1"}},{"base_weights":[1.280811E-7],"categories":[],"categories_nodes":[],"categories_segments":[],"categories_sizes":[],"default_left":[0],"id":55,"left_children":[-1],"loss_changes":[0E0],"parents":[2147483647],"right_children":[-1],"split_conditions":[3.8424332E-8],"split_indices":[0],"split_type":[0],"sum_hessian":[1.068E3],"tree_param":{"num_deleted":"0","num_feature":"12","num_nodes":"1","size_leaf_vector":"1"}},{"base_weights":[9.005215E-8],"categories":[],"categories_nodes":[],"categories_segments":[],"categories_sizes":[],"default_left":[0],"id":56,"left_children":[-1],"loss_changes":[0E0],"parents":[2147483647],"right_children":[-1],"split_conditions":[2.7015645E-8],"split_indices":[0],"split_type":[0],"sum_hessian":[1.068E3],"tree_param":{"num_deleted":"0","num_feature":"12","num_nodes":"1","size_leaf_vector":"1"}},{"base_weights":[6.331451E-8],"categories":[],"categories_nodes":[],"categories_segments":[],"categories_sizes":[],"default_left":[0],"id":57,"left_children":[-1],"loss_changes":[0E0],"parents":[2147483647],"right_children":[-1],"split_conditions":[1.8994353E-8],"split_indices":[0],"split_type":[0],"sum_hessian":[1.068E3],"tree_param":{"num_deleted":"0","num_feature":"12","num_nodes":"1","size_leaf_vector":"1"}},{"base_weights":[4.451518E-8],"categories":[],"categories_nodes":[],"categories_segments":[],"categories_sizes":[],"default_left":[0],"id":58,"left_children":[-1],"loss_changes":[0E0],"parents":[2147483647],"right_children":[-1],"split_conditions":[1.3354554E-8],"split_indices":[0],"split_type":[0],"sum_hessian":[1.068E3],"tree_param":{"num_deleted":"0","num_feature":"12","num_nodes":"1","size_leaf_vector":"1"}},{"base_weights":[3.1298473E-8],"categories":[],"categories_nodes":[],"categories_segments":[],"categories_sizes":[],"default_left":[0],"id":59,"left_children":[-1],"loss_changes":[0E0],"parents":[2147483647],"right_children":[-1],"split_conditions":[9.3895425E-9],"split_indices":[0],"split_type":[0],"sum_hessian":[1.068E3],"tree_param":{"num_deleted":"0","num_feature":"12","num_nodes":"1","size_leaf_vector":"1"}},{"base_weights":[2.2005509E-8],"categories":[],"categories_nodes":[],"categories_segments":[],"categories_sizes":[],"default_left":[0],"id":60,"left_children":[-1],"loss_changes":[0E0],"parents":[2147483647],"right_children":[-1],"split_conditions":[6.601653E-9],"split_indices":[0],"split_type":[0],"sum_hessian":[1.068E3],"tree_param":{"num_deleted":"0","num_feature":"12","num_nodes":"1","size_leaf_vector":"1"}},{"base_weights":[1.5471494E-8],"categories":[],"categories_nodes":[],"categories_segments":[],"categories_sizes":[],"default_left":[0],"id":61,"left_children":[-1],"loss_changes":[0E0],"parents":[2147483647],"right_children":[-1],"split_conditions":[4.6414486E-9],"split_indices":[0],"split_type":[0],"sum_hessian":[1.068E3],"tree_param":{"num_deleted":"0","num_feature":"12","num_nodes":"1","size_leaf_vector":"1"}},{"base_weights":[1.0878049E-8],"categories":[],"categories_nodes":[],"categories_segments":[],"categories_sizes":[],"default_left":[0],"id":62,"left_children":[-1],"loss_changes":[0E0],"parents":[2147483647],"right_children":[-1],"split_conditions":[3.2634146E-9],"split_indices":[0],"split_type":[0],"sum_hessian":[1.068E3],"tree_param":{"num_deleted":"0","num_feature":"12","num_nodes":"1","size_leaf_vector":"1"}},{"base_weights":[7.648319E-9],"categories":[],"categories_nodes":[],"categories_segments":[],"categories_sizes":[],"default_left":[0],"id":63,"left_children":[-1],"loss_changes":[0E0],"parents":[2147483647],"right_children":[-1],"split_conditions":[2.294496E-9],"split_indices":[0],"split_type":[0],"sum_hessian":[1.068E3],"tree_param":{"num_deleted":"0","num_feature":"12","num_nodes":"1","size_leaf_vector":"1"}},{"base_weights":[5.377348E-9],"categories":[],"categories_nodes":[],"categories_segments":[],"categories_sizes":[],"default_left":[0],"id":64,"left_children":[-1],"loss_changes":[0E0],"parents":[2147483647],"right_children":[-1],"split_conditions":[1.6132045E-9],"split_indices":[0],"split_type":[0],"sum_hessian":[1.068E3],"tree_param":{"num_deleted":"0","num_feature":"12","num_nodes":"1","size_leaf_vector":"1"}},{"base_weights":[3.780486E-9],"categories":[],"categories_nodes":[],"categories_segments":[],"categories_sizes":[],"default_left":[0],"id":65,"left_children":[-1],"loss_changes":[0E0],"parents":[2147483647],"right_children":[-1],"split_conditions":[1.1341459E-9],"split_indices":[0],"split_type":[0],"sum_hessian":[1.068E3],"tree_param":{"num_deleted":"0","num_feature":"12","num_nodes":"1","size_leaf_vector":"1"}},{"base_weights":[2.6579654E-9],"categories":[],"categories_nodes":[],"categories_segments":[],"categories_sizes":[],"default_left":[0],"id":66,"left_children":[-1],"loss_changes":[0E0],"parents":[2147483647],"right_children":[-1],"split_conditions":[7.9738965E-10],"split_indices":[0],"split_type":[0],"sum_hessian":[1.068E3],"tree_param":{"num_deleted":"0","num_feature":"12","num_nodes":"1","size_leaf_vector":"1"}},{"base_weights":[1.8685564E-9],"categories":[],"categories_nodes":[],"categories_segments":[],"categories_sizes":[],"default_left":[0],"id":67,"left_children":[-1],"loss_changes":[0E0],"parents":[2147483647],"right_children":[-1],"split_conditions":[5.605669E-10],"split_indices":[0],"split_type":[0],"sum_hessian":[1.068E3],"tree_param":{"num_deleted":"0","num_feature":"12","num_nodes":"1","size_leaf_vector":"1"}},{"base_weights":[1.3140726E-9],"categories":[],"categories_nodes":[],"categories_segments":[],"categories_sizes":[],"default_left":[0],"id":68,"left_children":[-1],"loss_changes":[0E0],"parents":[2147483647],"right_children":[-1],"split_conditions":[3.942218E-10],"split_indices":[0],"split_type":[0],"sum_hessian":[1.068E3],"tree_param":{"num_deleted":"0","num_feature":"12","num_nodes":"1","size_leaf_vector":"1"}},{"base_weights":[9.2428315E-10],"categories":[],"categories_nodes":[],"categories_segments":[],"categories_sizes":[],"default_left":[0],"id":69,"left_children":[-1],"loss_changes":[0E0],"parents":[2147483647],"right_children":[-1],"split_conditions":[2.7728495E-10],"split_indices":[0],"split_type":[0],"sum_hessian":[1.068E3],"tree_param":{"num_deleted":"0","num_feature":"12","num_nodes":"1","size_leaf_vector":"1"}},{"base_weights":[6.497927E-10],"categories":[],"categories_nodes":[],"categories_segments":[],"categories_sizes":[],"default_left":[0],"id":70,"left_children":[-1],"loss_changes":[0E0],"parents":[2147483647],"right_children":[-1],"split_conditions":[1.9493783E-10],"split_indices":[0],"split_type":[0],"sum_hessian":[1.068E3],"tree_param":{"num_deleted":"0","num_feature":"12","num_nodes":"1","size_leaf_vector":"1"}},{"base_weights":[4.5714318E-10],"categories":[],"categories_nodes":[],"categories_segments":[],"categories_sizes":[],"default_left":[0],"id":71,"left_children":[-1],"loss_changes":[0E0],"parents":[2147483647],"right_children":[-1],"split_conditions":[1.3714296E-10],"split_indices":[0],"split_type":[0],"sum_hessian":[1.068E3],"tree_param":{"num_deleted":"0","num_feature":"12","num_nodes":"1","size_leaf_vector":"1"}},{"base_weights":[3.2125327E-10],"categories":[],"categories_nodes":[],"categories_segments":[],"categories_sizes":[],"default_left":[0],"id":72,"left_children":[-1],"loss_changes":[0E0],"parents":[2147483647],"right_children":[-1],"split_conditions":[9.6375984E-11],"split_indices":[0],"split_type":[0],"sum_hessian":[1.068E3],"tree_param":{"num_deleted":"0","num_feature":"12","num_nodes":"1","size_leaf_vector":"1"}},{"base_weights":[2.2585928E-10],"categories":[],"categories_nodes":[],"categories_segments":[],"categories_sizes":[],"default_left":[0],"id":73,"left_children":[-1],"loss_changes":[0E0],"parents":[2147483647],"right_children":[-1],"split_conditions":[6.7757785E-11],"split_indices":[0],"split_type":[0],"sum_hessian":[1.068E3],"tree_param":{"num_deleted":"0","num_feature":"12","num_nodes":"1","size_leaf_vector":"1"}},{"base_weights":[1.5842054E-10],"categories":[],"categories_nodes":[],"categories_segments":[],"categories_sizes":[],"default_left":[0],"id":74,"left_children":[-1],"loss_changes":[0E0],"parents":[2147483647],"right_children":[-1],"split_conditions":[4.7526164E-11],"split_indices":[0],"split_type":[0],"sum_hessian":[1.068E3],"tree_param":{"num_deleted":"0","num_feature":"12","num_nodes":"1","size_leaf_vector":"1"}},{"base_weights":[1.11572626E-10],"categories":[],"categories_nodes":[],"categories_segments":[],"categories_sizes":[],"default_left":[0],"id":75,"left_children":[-1],"loss_changes":[0E0],"parents":[2147483647],"right_children":[-1],"split_conditions":[3.3471788E-11],"split_indices":[0],"split_type":[0],"sum_hessian":[1.068E3],"tree_param":{"num_deleted":"0","num_feature":"12","num_nodes":"1","size_leaf_vector":"1"}},{"base_weights":[7.82778E-11],"categories":[],"categories_nodes":[],"categories_segments":[],"categories_sizes":[],"default_left":[0],"id":76,"left_children":[-1],"loss_changes":[0E0],"parents":[2147483647],"right_children":[-1],"split_conditions":[2.3483342E-11],"split_indices":[0],"split_type":[0],"sum_hessian":[1.068E3],"tree_param":{"num_deleted":"0","num_feature":"12","num_nodes":"1","size_leaf_vector":"1"}},{"base_weights":[5.4894683E-11],"categories":[],"categories_nodes":[],"categories_segments":[],"categories_sizes":[],"default_left":[0],"id":77,"left_children":[-1],"loss_changes":[0E0],"parents":[2147483647],"right_children":[-1],"split_conditions":[1.6468405E-11],"split_indices":[0],"split_type":[0],"sum_hessian":[1.068E3],"tree_param":{"num_deleted":"0","num_feature":"12","num_nodes":"1","size_leaf_vector":"1"}},{"base_weights":[3.8712655E-11],"categories":[],"categories_nodes":[],"categories_segments":[],"categories_sizes":[],"default_left":[0],"id":78,"left_children":[-1],"loss_changes":[0E0],"parents":[2147483647],"right_children":[-1],"split_conditions":[1.1613797E-11],"split_indices":[0],"split_type":[0],"sum_hessian":[1.068E3],"tree_param":{"num_deleted":"0","num_feature":"12","num_nodes":"1","size_leaf_vector":"1"}},{"base_weights":[2.7021095E-11],"categories":[],"categories_nodes":[],"categories_segments":[],"categories_sizes":[],"default_left":[0],"id":79,"left_children":[-1],"loss_changes":[0E0],"parents":[2147483647],"right_children":[-1],"split_conditions":[8.106329E-12],"split_indices":[0],"split_type":[0],"sum_hessian":[1.068E3],"tree_param":{"num_deleted":"0","num_feature":"12","num_nodes":"1","size_leaf_vector":"1"}},{"base_weights":[1.8970919E-11],"categories":[],"categories_nodes":[],"categories_segments":[],"categories_sizes":[],"default_left":[0],"id":80,"left_children":[-1],"loss_changes":[0E0],"parents":[2147483647],"right_children":[-1],"split_conditions":[5.691276E-12],"split_indices":[0],"split_type":[0],"sum_hessian":[1.068E3],"tree_param":{"num_deleted":"0","num_feature":"12","num_nodes":"1","size_leaf_vector":"1"}},{"base_weights":[1.3549685E-11],"categories":[],"categories_nodes":[],"categories_segments":[],"categories_sizes":[],"default_left":[0],"id":81,"left_children":[-1],"loss_changes":[0E0],"parents":[2147483647],"right_children":[-1],"split_conditions":[4.0649055E-12],"split_indices":[0],"split_type":[0],"sum_hessian":[1.068E3],"tree_param":{"num_deleted":"0","num_feature":"12","num_nodes":"1","size_leaf_vector":"1"}},{"base_weights":[9.9083025E-12],"categories":[],"categories_nodes":[],"categories_segments":[],"categories_sizes":[],"default_left":[0],"id":82,"left_children":[-1],"loss_changes":[0E0],"parents":[2147483647],"right_children":[-1],"split_conditions":[2.972491E-12],"split_indices":[0],"split_type":[0],"sum_hessian":[1.068E3],"tree_param":{"num_deleted":"0","num_feature":"12","num_nodes":"1","size_leaf_vector":"1"}},{"base_weights":[7.1976847E-12],"categories":[],"categories_nodes":[],"categories_segments":[],"categories_sizes":[],"default_left":[0],"id":83,"left_children":[-1],"loss_changes":[0E0],"parents":[2147483647],"right_children":[-1],"split_conditions":[2.1593055E-12],"split_indices":[0],"split_type":[0],"sum_hessian":[1.068E3],"tree_param":{"num_deleted":"0","num_feature":"12","num_nodes":"1","size_leaf_vector":"1"}},{"base_weights":[5.417832E-12],"categories":[],"categories_nodes":[],"categories_segments":[],"categories_sizes":[],"default_left":[0],"id":84,"left_children":[-1],"loss_changes":[0E0],"parents":[2147483647],"right_children":[-1],"split_conditions":[1.6253497E-12],"split_indices":[0],"split_type":[0],"sum_hessian":[1.068E3],"tree_param":{"num_deleted":"0","num_feature":"12","num_nodes":"1","size_leaf_vector":"1"}},{"base_weights":[3.637979E-12],"categories":[],"categories_nodes":[],"categories_segments":[],"categories_sizes":[],"default_left":[0],"id":85,"left_children":[-1],"loss_changes":[0E0],"parents":[2147483647],"right_children":[-1],"split_conditions":[1.0913937E-12],"split_indices":[0],"split_type":[0],"sum_hessian":[1.068E3],"tree_param":{"num_deleted":"0","num_feature":"12","num_nodes":"1","size_leaf_vector":"1"}},{"base_weights":[2.7072144E-12],"categories":[],"categories_nodes":[],"categories_segments":[],"categories_sizes":[],"default_left":[0],"id":86,"left_children":[-1],"loss_changes":[0E0],"parents":[2147483647],"right_children":[-1],"split_conditions":[8.1216435E-13],"split_indices":[0],"split_type":[0],"sum_hessian":[1.068E3],"tree_param":{"num_deleted":"0","num_feature":"12","num_nodes":"1","size_leaf_vector":"1"}},{"base_weights":[1.8581258E-12],"categories":[],"categories_nodes":[],"categories_segments":[],"categories_sizes":[],"default_left":[0],"id":87,"left_children":[-1],"loss_changes":[0E0],"parents":[2147483647],"right_children":[-1],"split_conditions":[5.574378E-13],"split_indices":[0],"split_type":[0],"sum_hessian":[1.068E3],"tree_param":{"num_deleted":"0","num_feature":"12","num_nodes":"1","size_leaf_vector":"1"}},{"base_weights":[1.0090371E-12],"categories":[],"categories_nodes":[],"categories_segments":[],"categories_sizes":[],"default_left":[0],"id":88,"left_children":[-1],"loss_changes":[0E0],"parents":[2147483647],"right_children":[-1],"split_conditions":[3.0271114E-13],"split_indices":[0],"split_type":[0],"sum_hessian":[1.068E3],"tree_param":{"num_deleted":"0","num_feature":"12","num_nodes":"1","size_leaf_vector":"1"}}]},"name":"gbtree"},"learner_model_param":{"base_score":"2.5714131E-2","boost_from_average":"1","num_class":"0","num_feature":"12","num_target":"1"},"objective":{"name":"reg:squarederror","reg_loss_param":{"scale_pos_weight":"1"}}},"version":[2,0,0]}