{"learner":{"attributes":{"scikit_learn":"{\"_estimator_type\": \"regressor\"}"},"feature_names":["solar_generation","cyc_hour1","cyc_hour2","exp_solar","direct_solar","diffuse_solar","direct_solar_6h","diffuse_solar_6h","direct_solar_12h","diffuse_solar_12h","direct_solar_24h","diffuse_solar_24h"],"feature_types":["float","float","float","float","float","float","float","float","float","float","float","float"],"gradient_booster":{"model":{"gbtree_model_param":{"num_parallel_tree":"1","num_trees":"89"},"iteration_indptr":[0,1,2,3,4,5,6,7,8,9,10,11,12,13,14,15,16,17,18,19,20,21,22,23,24,25,26,27,28,29,30,31,32,33,34,35,36,37,38,39,40,41,42,43,44,45,46,47,48,49,50,51,52,53,54,55,56,57,58,59,60,61,62,63,64,65,66,67,68,69,70,71,72,73,74,75,76,77,78,79,80,81,82,83,84,85,86,87,88,89],"tree_info":[0,0,0,0,0,0,0,0,0,0,0,0,0,0,0,0,0,0,0,0,0,0,0,0,0,0,0,0,0,0,0,0,0,0,0,0,0,0,0,0,0,0,0,0,0,0,0,0,0,0,0,0,0,0,0,0,0,0,0,0,0,0,0,0,0,0,0,0,0,0,0,0,0,0,0,0,0,0,0,0,0,0,0,0,0,0,0,0,0],"trees":[{"base_weights":[4.2851206E-10,-2.1432124E-2,1.9056731E0,-2.2470064E-2,3.4027547E-2,7.536341E-1,2.3874884E0,-6.9379597E-3,7.7910023E-3,1.645852E-1,-6.5792166E-3,2.84349E-1,-3.4723643E-3,7.630027E-1,1.9447693E-1,-1.6675433E-2,8.190789E-2,-6.614027E-3,1.4418353E-2],"categories":[],"categories_nodes":[],"categories_segments":[],"categories_sizes":[],"default_left":[0,0,0,0,0,0,0,0,0,0,0,0,0,0,0,0,0,0,0],"id":0,"left_children":[1,3,5,7,9,11,13,-1,15,-1,-1,-1,-1,-1,-1,17,-1,-1,-1],"loss_changes":[4.4069195E1,6.2185198E-2,4.8615456E0,2.0999074E-2,5.879426E-1,7.539723E-1,5.1978683E-1,0E0,1.5380816E-1,0E0,0E0,0E0,0E0,0E0,0E0,8.7094605E-3,0E0,0E0,0E0],"parents":[2147483647,0,0,1,1,2,2,3,3,4,4,5,5,6,6,8,8,15,15],"right_children":[2,4,6,8,10,12,14,-1,16,-1,-1,-1,-1,-1,-1,18,-1,-1,-1],"split_conditions":[5.6920165E-1,9.161268E2,5.700905E2,9.3645575E2,9.185963E2,1.5132071E0,1E0,-6.9379597E-3,7.0710677E-1,1.645852E-1,-6.5792166E-3,2.84349E-1,-3.4723643E-3,7.630027E-1,1.9447693E-1,5.579055E-1,8.190789E-2,-6.614027E-3,1.4418353E-2],"split_indices":[0,6,6,8,6,0,1,0,1,0,0,0,0,0,0,0,0,0,0],"split_type":[0,0,0,0,0,0,0,0,0,0,0,0,0,0,0,0,0,0,0],"sum_hessian":[1.077E3,1.066E3,1.1E1,1.047E3,1.9E1,4E0,7E0,1.025E3,2.2E1,1E0,1.8E1,3E0,1E0,6E0,1E0,2.1E1,1E0,2E1,1E0],"tree_param":{"num_deleted":"0","num_feature":"12","num_nodes":"19","size_leaf_vector":"1"}},{"base_weights":[1.3721121E-3,-1.4776826E-2,1.4371675E0,-1.5650062E-2,3.1719584E-2,5.837192E-1,5.3727806E-1,-4.8586E-3,9.354232E-3,1.3989742E-1,-4.709334E-3,2.2037046E-1,-2.9515096E-3,-1.131806E-2,6.96217E-2,-4.7243047E-3,1.2255602E-2],"categories":[],"categories_nodes":[],"categories_segments":[],"categories_sizes":[],"default_left":[0,0,0,0,0,0,0,0,0,0,0,0,0,0,0,0,0],"id":1,"left_children":[1,3,5,7,9,11,-1,-1,13,-1,-1,-1,-1,15,-1,-1,-1],"loss_changes":[2.5016357E1,4.38191E-2,2.5775852E0,1.4440089E-2,4.194768E-1,4.549147E-1,0E0,0E0,1.0852076E-1,0E0,0E0,0E0,0E0,5.727385E-3,0E0,0E0,0E0],"parents":[2147483647,0,0,1,1,2,2,3,3,4,4,5,5,8,8,13,13],"right_children":[2,4,6,8,10,12,-1,-1,14,-1,-1,-1,-1,16,-1,-1,-1],"split_conditions":[5.6920165E-1,9.161268E2,5.700905E2,9.3645575E2,9.185963E2,1.5132071E0,5.3727806E-1,-4.8586E-3,7.0710677E-1,1.3989742E-1,-4.709334E-3,2.2037046E-1,-2.9515096E-3,5.579055E-1,6.96217E-2,-4.7243047E-3,1.2255602E-2],"split_indices":[0,6,6,8,6,0,0,0,1,0,0,0,0,0,0,0,0],"split_type":[0,0,0,0,0,0,0,0,0,0,0,0,0,0,0,0,0],"sum_hessian":[1.077E3,1.066E3,1.1E1,1.047E3,1.9E1,4E0,7E0,1.025E3,2.2E1,1E0,1.8E1,3E0,1E0,2.1E1,1E0,2E1,1E0],"tree_param":{"num_deleted":"0","num_feature":"12","num_nodes":"17","size_leaf_vector":"1"}},{"base_weights":[1.8530379E-3,-1.0149323E-2,1.0689086E0,-1.088606E-2,2.8963113E-2,-2.508783E-3,1.1676025E0,-3.4024406E-3,9.902441E-3,1.1891281E-1,-3.370891E-3,4.286447E-1,1.7051515E-1,-7.58031E-3,5.9178445E-2,-3.3745032E-3,1.041726E-2],"categories":[],"categories_nodes":[],"categories_segments":[],"categories_sizes":[],"default_left":[0,0,0,0,0,0,0,0,0,0,0,0,0,0,0,0,0],"id":2,"left_children":[1,3,5,7,9,-1,11,-1,13,-1,-1,-1,-1,15,-1,-1,-1],"loss_changes":[1.3816997E1,3.1061478E-2,1.2856054E0,1.0033995E-2,2.9984948E-1,0E0,9.0964603E-1,0E0,7.683299E-2,0E0,0E0,0E0,0E0,3.8044257E-3,0E0,0E0,0E0],"parents":[2147483647,0,0,1,1,2,2,3,3,4,4,6,6,8,8,13,13],"right_children":[2,4,6,8,10,-1,12,-1,14,-1,-1,-1,-1,16,-1,-1,-1],"split_conditions":[5.6920165E-1,9.161268E2,-2.4492937E-16,9.3645575E2,9.185963E2,-2.508783E-3,-1.8369701E-16,-3.4024406E-3,7.0710677E-1,1.1891281E-1,-3.370891E-3,4.286447E-1,1.7051515E-1,5.579055E-1,5.9178445E-2,-3.3745032E-3,1.041726E-2],"split_indices":[0,6,1,8,6,0,2,0,1,0,0,0,0,0,0,0,0],"split_type":[0,0,0,0,0,0,0,0,0,0,0,0,0,0,0,0,0],"sum_hessian":[1.077E3,1.066E3,1.1E1,1.047E3,1.9E1,1E0,1E1,1.025E3,2.2E1,1E0,1.8E1,6E0,4E0,2.1E1,1E0,2E1,1E0],"tree_param":{"num_deleted":"0","num_feature":"12","num_nodes":"17","size_leaf_vector":"1"}},{"base_weights":[2.0160617E-3,-6.9373655E-3,7.9795694E-1,-7.5603E-3,2.6051274E-2,-2.1324656E-3,8.717909E-1,-2.3827034E-3,9.810892E-3,1.0107589E-1,-2.4128486E-3,1.0614059E0,1.2959152E-1,-4.986092E-3,5.0301682E-2,1.1457648E0,8.328781E-2,-2.4103594E-3,8.854671E-3,9.131956E-2,3.7594756E-1],"categories":[],"categories_nodes":[],"categories_segments":[],"categories_sizes":[],"default_left":[0,0,0,0,0,0,0,0,0,0,0,0,0,0,0,0,0,0,0,0,0],"id":3,"left_children":[1,3,5,7,9,-1,11,-1,13,-1,-1,15,-1,17,-1,19,-1,-1,-1,-1,-1],"loss_changes":[7.6877937E0,2.2123557E-2,7.194905E-1,7.033035E-3,2.146853E-1,0E0,4.588623E-1,0E0,5.4561086E-2,0E0,0E0,1.4473772E-1,0E0,2.551021E-3,0E0,1.6068411E-1,0E0,0E0,0E0,0E0,0E0],"parents":[2147483647,0,0,1,1,2,2,3,3,4,4,6,6,8,8,11,11,13,13,15,15],"right_children":[2,4,6,8,10,-1,12,-1,14,-1,-1,16,-1,18,-1,20,-1,-1,-1,-1,-1],"split_conditions":[5.6920165E-1,9.161268E2,-2.4492937E-16,9.3645575E2,9.185963E2,-2.1324656E-3,-1.8369701E-16,-2.3827034E-3,7.0710677E-1,1.0107589E-1,-2.4128486E-3,1.1292E2,1.2959152E-1,5.579055E-1,5.0301682E-2,1.1192156E0,8.328781E-2,-2.4103594E-3,8.854671E-3,9.131956E-2,3.7594756E-1],"split_indices":[0,6,1,8,6,0,2,0,1,0,0,5,0,0,0,0,0,0,0,0,0],"split_type":[0,0,0,0,0,0,0,0,0,0,0,0,0,0,0,0,0,0,0,0,0],"sum_hessian":[1.077E3,1.066E3,1.1E1,1.047E3,1.9E1,1E0,1E1,1.025E3,2.2E1,1E0,1.8E1,6E0,4E0,2.1E1,1E0,5E0,1E0,2E1,1E0,1E0,4E0],"tree_param":{"num_deleted":"0","num_feature":"12","num_nodes":"21","size_leaf_vector":"1"}},{"base_weights":[2.1821526E-3,-4.7127386E-3,6.1507106E-1,-5.2403365E-3,2.3169044E-2,-1.8125959E-3,6.7208517E-1,-1.6685891E-3,9.334842E-3,8.59145E-2,-1.7270915E-3,8.216348E-1,9.848956E-2,-3.1973405E-3,4.275643E-2,9.03437E-1,4.96233E-2,-1.7216853E-3,7.526471E-3,2.9691947E-1,7.079464E-2],"categories":[],"categories_nodes":[],"categories_segments":[],"categories_sizes":[],"default_left":[0,0,0,0,0,0,0,0,0,0,0,0,0,0,0,0,0,0,0,0,0],"id":4,"left_children":[1,3,5,7,9,-1,11,-1,13,-1,-1,15,-1,17,-1,19,-1,-1,-1,-1,-1],"loss_changes":[4.5583134E0,1.5817385E-2,4.2900705E-1,4.9646962E-3,1.5392253E-1,0E0,2.9580355E-1,0E0,3.884542E-2,0E0,0E0,2.2632504E-1,0E0,1.7255801E-3,0E0,1.12027645E-1,0E0,0E0,0E0,0E0,0E0],"parents":[2147483647,0,0,1,1,2,2,3,3,4,4,6,6,8,8,11,11,13,13,15,15],"right_children":[2,4,6,8,10,-1,12,-1,14,-1,-1,16,-1,18,-1,20,-1,-1,-1,-1,-1],"split_conditions":[5.6920165E-1,9.161268E2,-2.4492937E-16,9.3645575E2,9.185963E2,-1.8125959E-3,-1.8369701E-16,-1.6685891E-3,7.0710677E-1,8.59145E-2,-1.7270915E-3,7.0647064E2,9.848956E-2,5.579055E-1,4.275643E-2,1.1292E2,4.96233E-2,-1.7216853E-3,7.526471E-3,2.9691947E-1,7.079464E-2],"split_indices":[0,6,1,8,6,0,2,0,1,0,0,6,0,0,0,5,0,0,0,0,0],"split_type":[0,0,0,0,0,0,0,0,0,0,0,0,0,0,0,0,0,0,0,0,0],"sum_hessian":[1.077E3,1.066E3,1.1E1,1.047E3,1.9E1,1E0,1E1,1.025E3,2.2E1,1E0,1.8E1,6E0,4E0,2.1E1,1E0,5E0,1E0,2E1,1E0,4E0,1E0],"tree_param":{"num_deleted":"0","num_feature":"12","num_nodes":"21","size_leaf_vector":"1"}},{"base_weights":[2.1259242E-3,-2.9665788E-3,4.9636844E-1,-3.1760677E-3,3.3083692E-2,-1.5407065E-3,5.470324E-1,-3.6234907E-3,2.0427702E-2,7.037983E-1,7.4852064E-2,-1.1685002E-3,8.645746E-3,7.302733E-2,-1.2362339E-3,7.883182E-1,4.217981E-2,-5.922854E-4,3.6342964E-2,2.6553163E-1,6.0175434E-2],"categories":[],"categories_nodes":[],"categories_segments":[],"categories_sizes":[],"default_left":[0,0,0,0,0,0,0,0,0,0,0,0,0,0,0,0,0,0,0,0,0],"id":5,"left_children":[1,3,5,7,-1,-1,9,11,13,15,-1,-1,17,-1,-1,19,-1,-1,-1,-1,-1],"loss_changes":[2.7147245E0,2.5687132E-2,2.8229952E-1,1.1342469E-2,0E0,0E0,2.9081607E-1,3.5247887E-3,1.1048771E-1,1.7477202E-1,0E0,0E0,2.771788E-2,0E0,0E0,1.06886625E-1,0E0,0E0,0E0,0E0,0E0],"parents":[2147483647,0,0,1,1,2,2,3,3,6,6,7,7,8,8,9,9,12,12,15,15],"right_children":[2,4,6,8,-1,-1,10,12,14,16,-1,-1,18,-1,-1,20,-1,-1,-1,-1,-1],"split_conditions":[1.1192156E0,5.6920165E-1,-2.4492937E-16,9.161268E2,3.3083692E-2,-1.5407065E-3,-1.8369701E-16,9.3645575E2,9.185963E2,7.0647064E2,7.4852064E-2,-1.1685002E-3,7.0710677E-1,7.302733E-2,-1.2362339E-3,1.1292E2,4.217981E-2,-5.922854E-4,3.6342964E-2,2.6553163E-1,6.0175434E-2],"split_indices":[0,0,1,6,0,0,2,8,6,6,0,0,1,0,0,5,0,0,0,0,0],"split_type":[0,0,0,0,0,0,0,0,0,0,0,0,0,0,0,0,0,0,0,0,0],"sum_hessian":[1.077E3,1.067E3,1E1,1.066E3,1E0,1E0,9E0,1.047E3,1.9E1,5E0,4E0,1.025E3,2.2E1,1E0,1.8E1,4E0,1E0,2.1E1,1E0,3E0,1E0],"tree_param":{"num_deleted":"0","num_feature":"12","num_nodes":"21","size_leaf_vector":"1"}},{"base_weights":[2.0267882E-3,-1.9460275E-3,3.8756683E-1,-2.1661106E-3,7.690551E-2,-1.3096004E-3,4.2719656E-1,-2.5471374E-3,1.7888946E-2,6.4863428E-3,2.8121138E-2,5.539733E-1,1.8962517E-1,-8.182918E-4,5.9865867E-3,6.207323E-2,-8.8488316E-4,6.169642E-1,3.585284E-2,6.426123E-2,1.3696433E-2,-1.0605508E-3,3.089152E-2,2.0578702E-1,5.114912E-2],"categories":[],"categories_nodes":[],"categories_segments":[],"categories_sizes":[],"default_left":[0,0,0,0,0,0,0,0,0,0,0,0,0,0,0,0,0,0,0,0,0,0,0,0,0],"id":6,"left_children":[1,3,5,7,9,-1,11,13,15,-1,-1,17,19,-1,21,-1,-1,23,-1,-1,-1,-1,-1,-1,-1],"loss_changes":[1.6519047E0,1.8700542E-2,1.7271876E-1,8.19142E-3,7.64871E-4,0E0,1.9613814E-1,1.6290778E-3,7.938914E-2,0E0,0E0,9.047067E-2,7.9137385E-3,0E0,2.0680338E-2,0E0,0E0,3.7060738E-2,0E0,0E0,0E0,0E0,0E0,0E0,0E0],"parents":[2147483647,0,0,1,1,2,2,3,3,4,4,6,6,7,7,8,8,11,11,12,12,14,14,17,17],"right_children":[2,4,6,8,10,-1,12,14,16,-1,-1,18,20,-1,22,-1,-1,24,-1,-1,-1,-1,-1,-1,-1],"split_conditions":[1.1192156E0,5.579055E-1,-2.4492937E-16,9.161268E2,5.6920165E-1,-1.3096004E-3,-1.8369701E-16,9.3645575E2,9.185963E2,6.4863428E-3,2.8121138E-2,7.0647064E2,1E0,-8.182918E-4,7.0710677E-1,6.207323E-2,-8.8488316E-4,1.1292E2,3.585284E-2,6.426123E-2,1.3696433E-2,-1.0605508E-3,3.089152E-2,2.0578702E-1,5.114912E-2],"split_indices":[0,0,1,6,0,0,2,8,6,0,0,6,1,0,1,0,0,5,0,0,0,0,0,0,0],"split_type":[0,0,0,0,0,0,0,0,0,0,0,0,0,0,0,0,0,0,0,0,0,0,0,0,0],"sum_hessian":[1.077E3,1.067E3,1E1,1.065E3,2E0,1E0,9E0,1.046E3,1.9E1,1E0,1E0,5E0,4E0,1.025E3,2.1E1,1E0,1.8E1,4E0,1E0,3E0,1E0,2E1,1E0,3E0,1E0],"tree_param":{"num_deleted":"0","num_feature":"12","num_nodes":"25","size_leaf_vector":"1"}},{"base_weights":[1.8772357E-3,-1.3958713E-3,2.9275456E-1,-1.7185383E-3,1.55816795E-2,-1.1131604E-3,3.2004327E-1,-5.730435E-4,6.903494E-3,5.2762244E-2,-6.3339E-4,3.9697573E-1,1.4832917E-1,-7.39618E-4,2.6257794E-2,2.3902955E-2,4.365795E-1,5.6615762E-2,1.7548824E-2,-7.5753627E-4,5.5133915E-3,1.4497867E-1,3.0474903E-2],"categories":[],"categories_nodes":[],"categories_segments":[],"categories_sizes":[],"default_left":[0,0,0,0,0,0,0,0,0,0,0,0,0,0,0,0,0,0,0,0,0,0,0],"id":7,"left_children":[1,3,5,7,9,-1,11,-1,13,-1,-1,15,17,19,-1,-1,21,-1,-1,-1,-1,-1,-1],"loss_changes":[1.0267429E0,5.871908E-3,9.826934E-2,1.7445213E-3,5.709235E-2,0E0,8.6431146E-2,0E0,1.4237489E-2,0E0,0E0,5.3178668E-2,7.1024746E-3,7.973658E-4,0E0,0E0,4.474008E-2,0E0,0E0,0E0,0E0,0E0,0E0],"parents":[2147483647,0,0,1,1,2,2,3,3,4,4,6,6,8,8,11,11,12,12,13,13,16,16],"right_children":[2,4,6,8,10,-1,12,-1,14,-1,-1,16,18,20,-1,-1,22,-1,-1,-1,-1,-1,-1],"split_conditions":[5.6920165E-1,9.161268E2,-2.4492937E-16,9.3645575E2,9.185963E2,-1.1131604E-3,-1.8369701E-16,-5.730435E-4,7.0710677E-1,5.2762244E-2,-6.3339E-4,1.1192156E0,1.2389414E0,5.579055E-1,2.6257794E-2,2.3902955E-2,7.0647064E2,5.6615762E-2,1.7548824E-2,-7.5753627E-4,5.5133915E-3,1.4497867E-1,3.0474903E-2],"split_indices":[0,6,1,8,6,0,2,0,1,0,0,0,0,0,0,0,6,0,0,0,0,0,0],"split_type":[0,0,0,0,0,0,0,0,0,0,0,0,0,0,0,0,0,0,0,0,0,0,0],"sum_hessian":[1.077E3,1.066E3,1.1E1,1.047E3,1.9E1,1E0,1E1,1.025E3,2.2E1,1E0,1.8E1,6E0,4E0,2.1E1,1E0,1E0,5E0,2E0,2E0,2E1,1E0,4E0,1E0],"tree_param":{"num_deleted":"0","num_feature":"12","num_nodes":"23","size_leaf_vector":"1"}},{"base_weights":[1.6433574E-3,-8.997252E-4,2.2762884E-1,-1.1739305E-3,1.3513617E-2,-9.461863E-4,2.4889582E-1,-4.01298E-4,6.1808657E-3,4.4847906E-2,-4.533739E-4,2.823089E-1,1.9707395E-2,-3.015574E-4,2.2319127E-2,3.2971781E-1,2.3275543E-2,-5.4109737E-4,4.6863826E-3,2.031752E-2,1.0862873E-1],"categories":[],"categories_nodes":[],"categories_segments":[],"categories_sizes":[],"default_left":[0,0,0,0,0,0,0,0,0,0,0,0,0,0,0,0,0,0,0,0,0],"id":8,"left_children":[1,3,5,7,9,-1,11,-1,13,-1,-1,15,-1,17,-1,19,-1,-1,-1,-1,-1],"loss_changes":[6.197311E-1,4.232877E-3,5.9681654E-2,1.2702658E-3,4.1087355E-2,0E0,4.8790514E-2,0E0,1.0193182E-2,0E0,0E0,6.177032E-2,0E0,5.5436464E-4,0E0,3.4856558E-2,0E0,0E0,0E0,0E0,0E0],"parents":[2147483647,0,0,1,1,2,2,3,3,4,4,6,6,8,8,11,11,13,13,15,15],"right_children":[2,4,6,8,10,-1,12,-1,14,-1,-1,16,-1,18,-1,20,-1,-1,-1,-1,-1],"split_conditions":[5.6920165E-1,9.161268E2,-2.4492937E-16,9.3645575E2,9.185963E2,-9.461863E-4,1.3557643E2,-4.01298E-4,7.0710677E-1,4.4847906E-2,-4.533739E-4,7.0647064E2,1.9707395E-2,5.579055E-1,2.2319127E-2,1.1192156E0,2.3275543E-2,-5.4109737E-4,4.6863826E-3,2.031752E-2,1.0862873E-1],"split_indices":[0,6,1,8,6,0,7,0,1,0,0,6,0,0,0,0,0,0,0,0,0],"split_type":[0,0,0,0,0,0,0,0,0,0,0,0,0,0,0,0,0,0,0,0,0],"sum_hessian":[1.077E3,1.066E3,1.1E1,1.047E3,1.9E1,1E0,1E1,1.025E3,2.2E1,1E0,1.8E1,8E0,2E0,2.1E1,1E0,6E0,2E0,2E1,1E0,1E0,5E0],"tree_param":{"num_deleted":"0","num_feature":"12","num_nodes":"21","size_leaf_vector":"1"}},{"base_weights":[1.3743208E-3,-5.637742E-4,1.7358875E-1,-7.968819E-4,1.1679258E-2,2.0521893E-1,1.0291919E-2,-2.8102592E-4,5.477232E-3,3.8120717E-2,-3.2452028E-4,2.716986E-1,8.4399536E-2,5.435622E-3,-8.0425834E-4,-2.2668222E-5,1.8971257E-2,1.7269887E-2,3.030118E-1,3.2459E-2,9.74077E-3,-3.8649808E-4,3.983425E-3,1.3127232E-1,4.799327E-2],"categories":[],"categories_nodes":[],"categories_segments":[],"categories_sizes":[],"default_left":[0,0,0,0,0,0,0,0,0,0,0,0,0,0,0,0,0,0,0,0,0,0,0,0,0],"id":9,"left_children":[1,3,5,7,9,11,13,-1,15,-1,-1,17,19,-1,-1,21,-1,-1,23,-1,-1,-1,-1,-1,-1],"loss_changes":[3.5989973E-1,3.0544663E-3,5.986917E-2,9.248211E-4,2.958722E-2,5.738911E-2,3.5318066E-4,0E0,7.307977E-3,0E0,0E0,2.278775E-2,2.665896E-3,0E0,0E0,3.8745915E-4,0E0,0E0,2.6233196E-2,0E0,0E0,0E0,0E0,0E0,0E0],"parents":[2147483647,0,0,1,1,2,2,3,3,4,4,5,5,6,6,8,8,11,11,12,12,15,15,18,18],"right_children":[2,4,6,8,10,12,14,-1,16,-1,-1,18,20,-1,-1,22,-1,-1,24,-1,-1,-1,-1,-1,-1],"split_conditions":[5.6920165E-1,9.161268E2,1.1292E2,9.3645575E2,9.185963E2,-1.8369701E-16,2.3073266E0,-2.8102592E-4,7.0710677E-1,3.8120717E-2,-3.2452028E-4,1.1192156E0,1.2389414E0,5.435622E-3,-8.0425834E-4,5.579055E-1,1.8971257E-2,1.7269887E-2,1.319662E0,3.2459E-2,9.74077E-3,-3.8649808E-4,3.983425E-3,1.3127232E-1,4.799327E-2],"split_indices":[0,6,5,8,6,2,0,0,1,0,0,0,0,0,0,0,0,0,0,0,0,0,0,0,0],"split_type":[0,0,0,0,0,0,0,0,0,0,0,0,0,0,0,0,0,0,0,0,0,0,0,0,0],"sum_hessian":[1.077E3,1.066E3,1.1E1,1.047E3,1.9E1,9E0,2E0,1.025E3,2.2E1,1E0,1.8E1,5E0,4E0,1E0,1E0,2.1E1,1E0,1E0,4E0,2E0,2E0,2E1,1E0,1E0,3E0],"tree_param":{"num_deleted":"0","num_feature":"12","num_nodes":"25","size_leaf_vector":"1"}},{"base_weights":[1.2435182E-3,-3.3833142E-4,1.4179268E-1,-5.3655094E-4,1.0065289E-2,2.2028223E-1,7.501264E-2,-1.968003E-4,4.8152874E-3,3.2402605E-2,-2.3228819E-4,2.68151E-2,1.11581475E-1,2.0834094E-2,3.7194803E-2,1.4762896E-4,1.6125567E-2,8.154595E-3,-6.836195E-4,-2.7607006E-4,3.3859112E-3],"categories":[],"categories_nodes":[],"categories_segments":[],"categories_sizes":[],"default_left":[0,0,0,0,0,0,0,0,0,0,0,0,0,0,0,0,0,0,0,0,0],"id":10,"left_children":[1,3,5,7,9,11,13,-1,15,-1,-1,-1,-1,17,-1,19,-1,-1,-1,-1,-1],"loss_changes":[2.397172E-1,2.2057686E-3,4.6374455E-2,6.7312137E-4,2.1316942E-2,6.601256E-2,1.8641934E-2,0E0,5.2457093E-3,0E0,0E0,0E0,0E0,7.9552876E-4,0E0,2.7206825E-4,0E0,0E0,0E0,0E0,0E0],"parents":[2147483647,0,0,1,1,2,2,3,3,4,4,5,5,6,6,8,8,13,13,15,15],"right_children":[2,4,6,8,10,12,14,-1,16,-1,-1,-1,-1,18,-1,20,-1,-1,-1,-1,-1],"split_conditions":[5.6920165E-1,9.161268E2,1.319662E0,9.3645575E2,9.185963E2,1.2389414E0,1.7317975E2,-1.968003E-4,7.0710677E-1,3.2402605E-2,-2.3228819E-4,2.68151E-2,1.11581475E-1,2.3073266E0,3.7194803E-2,5.579055E-1,1.6125567E-2,8.154595E-3,-6.836195E-4,-2.7607006E-4,3.3859112E-3],"split_indices":[0,6,0,8,6,0,11,0,1,0,0,0,0,0,0,0,0,0,0,0,0],"split_type":[0,0,0,0,0,0,0,0,0,0,0,0,0,0,0,0,0,0,0,0,0],"sum_hessian":[1.077E3,1.066E3,1.1E1,1.047E3,1.9E1,4E0,7E0,1.025E3,2.2E1,1E0,1.8E1,3E0,1E0,4E0,3E0,2.1E1,1E0,3E0,1E0,2E1,1E0],"tree_param":{"num_deleted":"0","num_feature":"12","num_nodes":"21","size_leaf_vector":"1"}},{"base_weights":[1.087783E-3,-1.8883862E-4,1.14510074E-1,-3.5741902E-4,8.654216E-3,1.8187685E-1,5.8092084E-2,-1.3781774E-4,4.2070234E-3,2.7542211E-2,-1.6626944E-4,6.927234E-2,9.484424E-2,2.7156623E-2,4.119605E-2,2.4469683E-4,1.3706733E-2,2.3932327E-2,5.664915E-3,-5.810766E-4,3.2328367E-2,-1.9719289E-4,2.878025E-3,1.0504611E-2,2.8340044E-3],"categories":[],"categories_nodes":[],"categories_segments":[],"categories_sizes":[],"default_left":[0,0,0,0,0,0,0,0,0,0,0,0,0,0,0,0,0,0,0,0,0,0,0,0,0],"id":11,"left_children":[1,3,5,7,9,11,13,-1,15,-1,-1,17,-1,19,-1,21,-1,-1,-1,-1,23,-1,-1,-1,-1],"loss_changes":[1.5611318E-1,1.5937403E-3,3.5042763E-2,4.897263E-4,1.5365111E-2,5.369711E-2,1.5878508E-2,0E0,3.769228E-3,0E0,0E0,6.1038695E-4,0E0,1.1158679E-3,0E0,1.9182316E-4,0E0,0E0,0E0,0E0,3.81195E-5,0E0,0E0,0E0,0E0],"parents":[2147483647,0,0,1,1,2,2,3,3,4,4,5,5,6,6,8,8,11,11,13,13,15,15,20,20],"right_children":[2,4,6,8,10,12,14,-1,16,-1,-1,18,-1,20,-1,22,-1,-1,-1,-1,24,-1,-1,-1,-1],"split_conditions":[5.6920165E-1,9.161268E2,1.319662E0,9.3645575E2,9.185963E2,1.2389414E0,3.2172143E0,-1.3781774E-4,7.0710677E-1,2.7542211E-2,-1.6626944E-4,1.1634532E0,9.484424E-2,-2.4492937E-16,4.119605E-2,5.579055E-1,1.3706733E-2,2.3932327E-2,5.664915E-3,-5.810766E-4,9.659258E-1,-1.9719289E-4,2.878025E-3,1.0504611E-2,2.8340044E-3],"split_indices":[0,6,0,8,6,0,0,0,1,0,0,0,0,1,0,0,0,0,0,0,1,0,0,0,0],"split_type":[0,0,0,0,0,0,0,0,0,0,0,0,0,0,0,0,0,0,0,0,0,0,0,0,0],"sum_hessian":[1.077E3,1.066E3,1.1E1,1.047E3,1.9E1,4E0,7E0,1.025E3,2.2E1,1E0,1.8E1,3E0,1E0,6E0,1E0,2.1E1,1E0,2E0,1E0,1E0,5E0,2E1,1E0,4E0,1E0],"tree_param":{"num_deleted":"0","num_feature":"12","num_nodes":"25","size_leaf_vector":"1"}},{"base_weights":[9.674039E-4,-4.709982E-5,9.937855E-2,-1.066855E-4,6.342414E-3,1.7847377E-1,4.7408614E-2,-2.5048872E-4,7.4267476E-3,6.81794E-2,4.8151733E-3,2.08321E-2,3.5016634E-2,-9.651273E-5,3.0823557E-3,2.3410875E-2,-1.1901392E-4,2.739501E-2,2.9498842E-3,-1.4085206E-4,1.1650721E-2,9.068674E-3,2.4089098E-3,1.821363E-3,-4.939151E-4],"categories":[],"categories_nodes":[],"categories_segments":[],"categories_sizes":[],"default_left":[0,0,0,0,0,0,0,0,0,0,0,0,0,0,0,0,0,0,0,0,0,0,0,0,0],"id":12,"left_children":[1,3,5,7,-1,9,11,13,15,-1,-1,17,-1,-1,19,-1,-1,21,23,-1,-1,-1,-1,-1,-1],"loss_changes":[1.0763055E-1,1.3506373E-3,3.6755115E-2,1.1566922E-3,0E0,2.8051347E-2,1.2305321E-2,2.495142E-4,1.1079172E-2,0E0,0E0,7.407034E-4,0E0,0E0,2.8120375E-3,0E0,0E0,3.1667994E-5,5.3034884E-5,0E0,0E0,0E0,0E0,0E0,0E0],"parents":[2147483647,0,0,1,1,2,2,3,3,5,5,6,6,7,7,8,8,11,11,14,14,17,17,18,18],"right_children":[2,4,6,8,-1,10,12,14,16,-1,-1,18,-1,-1,20,-1,-1,22,24,-1,-1,-1,-1,-1,-1],"split_conditions":[1.1192156E0,5.579055E-1,1.319662E0,9.161268E2,6.342414E-3,1.3557643E2,3.2172143E0,9.3645575E2,9.185963E2,6.81794E-2,4.8151733E-3,1.1292E2,3.5016634E-2,-9.651273E-5,7.0710677E-1,2.3410875E-2,-1.1901392E-4,9.659258E-1,2.3073266E0,-1.4085206E-4,1.1650721E-2,9.068674E-3,2.4089098E-3,1.821363E-3,-4.939151E-4],"split_indices":[0,0,0,6,0,7,0,8,6,0,0,5,0,0,1,0,0,1,0,0,0,0,0,0,0],"split_type":[0,0,0,0,0,0,0,0,0,0,0,0,0,0,0,0,0,0,0,0,0,0,0,0,0],"sum_hessian":[1.077E3,1.067E3,1E1,1.065E3,2E0,3E0,7E0,1.046E3,1.9E1,2E0,1E0,6E0,1E0,1.025E3,2.1E1,1E0,1.8E1,4E0,2E0,2E1,1E0,3E0,1E0,1E0,1E0],"tree_param":{"num_deleted":"0","num_feature":"12","num_nodes":"25","size_leaf_vector":"1"}},{"base_weights":[8.2733476E-4,-3.2743304E-5,7.7233665E-2,-1.5477429E-4,6.3633174E-3,1.22698806E-1,3.9163746E-2,-6.758713E-5,2.997588E-3,1.9899247E-2,-8.5188905E-5,1.0816715E-2,7.039068E-2,1.6411757E-2,2.9764153E-2,1.3289967E-4,9.90311E-3,6.4416006E-3,2.5074293E-3,-1.0060862E-4,1.4949595E-3,1.5481712E-3,-4.1982782E-4],"categories":[],"categories_nodes":[],"categories_segments":[],"categories_sizes":[],"default_left":[0,0,0,0,0,0,0,0,0,0,0,0,0,0,0,0,0,0,0,0,0,0,0],"id":13,"left_children":[1,3,5,7,9,11,13,-1,15,-1,-1,-1,-1,17,-1,19,-1,-1,21,-1,-1,-1,-1],"loss_changes":[7.084375E-2,8.3379704E-4,1.5964903E-2,2.3363777E-4,7.991252E-3,4.003279E-2,9.301799E-3,0E0,1.9730895E-3,0E0,0E0,0E0,0E0,4.3867563E-4,0E0,5.1637773E-5,0E0,0E0,3.8318147E-5,0E0,0E0,0E0,0E0],"parents":[2147483647,0,0,1,1,2,2,3,3,4,4,5,5,6,6,8,8,13,13,15,15,18,18],"right_children":[2,4,6,8,10,12,14,-1,16,-1,-1,-1,-1,18,-1,20,-1,-1,22,-1,-1,-1,-1],"split_conditions":[5.6920165E-1,9.161268E2,1.319662E0,9.3645575E2,9.185963E2,1.2389414E0,3.2172143E0,-6.758713E-5,7.0710677E-1,1.9899247E-2,-8.5188905E-5,1.0816715E-2,7.039068E-2,1.1292E2,2.9764153E-2,5.579055E-1,9.90311E-3,6.4416006E-3,2.3073266E0,-1.0060862E-4,1.4949595E-3,1.5481712E-3,-4.1982782E-4],"split_indices":[0,6,0,8,6,0,0,0,1,0,0,0,0,5,0,0,0,0,0,0,0,0,0],"split_type":[0,0,0,0,0,0,0,0,0,0,0,0,0,0,0,0,0,0,0,0,0,0,0],"sum_hessian":[1.077E3,1.066E3,1.1E1,1.047E3,1.9E1,4E0,7E0,1.025E3,2.2E1,1E0,1.8E1,3E0,1E0,6E0,1E0,2.1E1,1E0,4E0,2E0,2E1,1E0,1E0,1E0],"tree_param":{"num_deleted":"0","num_feature":"12","num_nodes":"23","size_leaf_vector":"1"}},{"base_weights":[7.178962E-4,3.4217315E-5,6.703164E-2,-6.897661E-5,5.4450277E-3,1.2017426E-1,3.208137E-2,-1.0581089E-4,3.842754E-3,1.6914368E-2,-6.0977327E-5,2.7272185E-2,5.9832074E-2,1.2569637E-2,2.5299527E-2,-4.7330755E-5,2.3221439E-3,9.802097E-3,2.4703862E-3,-3.5685365E-4,1.506108E-2,-7.1863295E-5,8.41764E-3,4.9894527E-3,1.0813415E-3],"categories":[],"categories_nodes":[],"categories_segments":[],"categories_sizes":[],"default_left":[0,0,0,0,0,0,0,0,0,0,0,0,0,0,0,0,0,0,0,0,0,0,0,0,0],"id":14,"left_children":[1,3,5,7,9,11,13,15,-1,-1,-1,17,-1,19,-1,-1,21,-1,-1,-1,23,-1,-1,-1,-1],"loss_changes":[4.8871316E-2,5.96707E-4,1.6575485E-2,4.989565E-4,5.7655037E-3,2.4016727E-2,7.095944E-3,1.3244788E-4,0E0,0E0,0E0,3.9437553E-5,0E0,2.5787612E-4,0E0,0E0,1.4571655E-3,0E0,0E0,0E0,4.8002927E-5,0E0,0E0,0E0,0E0],"parents":[2147483647,0,0,1,1,2,2,3,3,4,4,5,5,6,6,7,7,11,11,13,13,16,16,20,20],"right_children":[2,4,6,8,10,12,14,16,-1,-1,-1,18,-1,20,-1,-1,22,-1,-1,-1,24,-1,-1,-1,-1],"split_conditions":[1.1192156E0,9.161268E2,1.319662E0,5.579055E-1,9.185963E2,1.2389414E0,3.2172143E0,9.3645575E2,3.842754E-3,1.6914368E-2,-6.0977327E-5,1.1634532E0,5.9832074E-2,-2.4492937E-16,2.5299527E-2,-4.7330755E-5,7.0710677E-1,9.802097E-3,2.4703862E-3,-3.5685365E-4,9.659258E-1,-7.1863295E-5,8.41764E-3,4.9894527E-3,1.0813415E-3],"split_indices":[0,6,0,0,6,0,0,8,0,0,0,0,0,1,0,0,1,0,0,0,1,0,0,0,0],"split_type":[0,0,0,0,0,0,0,0,0,0,0,0,0,0,0,0,0,0,0,0,0,0,0,0,0],"sum_hessian":[1.077E3,1.067E3,1E1,1.048E3,1.9E1,3E0,7E0,1.046E3,2E0,1E0,1.8E1,2E0,1E0,6E0,1E0,1.025E3,2.1E1,1E0,1E0,1E0,5E0,2E1,1E0,4E0,1E0],"tree_param":{"num_deleted":"0","num_feature":"12","num_nodes":"25","size_leaf_vector":"1"}},{"base_weights":[6.250808E-4,5.110052E-5,5.629652E-2,-3.6709647E-5,4.654189E-3,1.02148116E-1,2.6333656E-2,-6.166192E-5,3.916991E-3,1.4377213E-2,-4.3646927E-5,2.3181358E-2,5.085726E-2,9.615043E-3,2.1504594E-2,-3.3145363E-5,2.1189323E-3,8.331782E-3,2.09983E-3,1.3108802E-2,5.87098E-4,1.4120672E-5,7.1549895E-3,4.4562314E-3,9.191394E-4,5.675197E-4,-3.033256E-4],"categories":[],"categories_nodes":[],"categories_segments":[],"categories_sizes":[],"default_left":[0,0,0,0,0,0,0,0,0,0,0,0,0,0,0,0,0,0,0,0,0,0,0,0,0,0,0],"id":15,"left_children":[1,3,5,7,9,11,13,15,-1,-1,-1,17,-1,19,-1,-1,21,-1,-1,23,25,-1,-1,-1,-1,-1,-1],"loss_changes":[3.4443866E-2,4.3185428E-4,1.24223605E-2,3.4352255E-4,4.1606007E-3,1.7352082E-2,5.3760633E-3,1.1180662E-4,0E0,0E0,0E0,2.8493116E-5,0E0,2.1309411E-4,0E0,0E0,1.0344232E-3,0E0,0E0,4.2147818E-5,8.167836E-6,0E0,0E0,0E0,0E0,0E0,0E0],"parents":[2147483647,0,0,1,1,2,2,3,3,4,4,5,5,6,6,7,7,11,11,13,13,16,16,19,19,20,20],"right_children":[2,4,6,8,10,12,14,16,-1,-1,-1,18,-1,20,-1,-1,22,-1,-1,24,26,-1,-1,-1,-1,-1,-1],"split_conditions":[1.1192156E0,9.161268E2,1.319662E0,5.6920165E-1,9.185963E2,1.2389414E0,3.2172143E0,9.3645575E2,3.916991E-3,1.4377213E-2,-4.3646927E-5,1.1634532E0,5.085726E-2,1.1292E2,2.1504594E-2,-3.3145363E-5,7.0710677E-1,8.331782E-3,2.09983E-3,9.659258E-1,2.3073266E0,1.4120672E-5,7.1549895E-3,4.4562314E-3,9.191394E-4,5.675197E-4,-3.033256E-4],"split_indices":[0,6,0,0,6,0,0,8,0,0,0,0,0,5,0,0,1,0,0,1,0,0,0,0,0,0,0],"split_type":[0,0,0,0,0,0,0,0,0,0,0,0,0,0,0,0,0,0,0,0,0,0,0,0,0,0,0],"sum_hessian":[1.077E3,1.067E3,1E1,1.048E3,1.9E1,3E0,7E0,1.047E3,1E0,1E0,1.8E1,2E0,1E0,6E0,1E0,1.025E3,2.2E1,1E0,1E0,4E0,2E0,2.1E1,1E0,3E0,1E0,1E0,1E0],"tree_param":{"num_deleted":"0","num_feature":"12","num_nodes":"27","size_leaf_vector":"1"}},{"base_weights":[5.4314034E-4,5.9540496E-5,4.7446914E-2,-1.51600925E-5,3.9746095E-3,8.682588E-2,2.1826569E-2,-3.6354228E-5,3.329444E-3,1.2220628E-2,-3.1242012E-5,1.9704143E-2,4.3228664E-2,7.5361775E-3,1.8278897E-2,-2.3211447E-5,1.7949527E-3,7.0820157E-3,1.7848492E-3,2.7937004E-3,3.8784745E-3,1.007705E-5,6.0817394E-3,1.176551E-3,-2.5782673E-4],"categories":[],"categories_nodes":[],"categories_segments":[],"categories_sizes":[],"default_left":[0,0,0,0,0,0,0,0,0,0,0,0,0,0,0,0,0,0,0,0,0,0,0,0,0],"id":16,"left_children":[1,3,5,7,9,11,13,15,-1,-1,-1,17,-1,19,-1,-1,21,-1,-1,23,-1,-1,-1,-1,-1],"loss_changes":[2.4449084E-2,3.1240535E-4,9.202816E-3,2.474817E-4,3.003005E-3,1.2536876E-2,4.0112105E-3,7.885959E-5,0E0,0E0,0E0,2.0587584E-5,0E0,1.4288476E-4,0E0,0E0,7.478677E-4,0E0,0E0,2.3976623E-5,0E0,0E0,0E0,0E0,0E0],"parents":[2147483647,0,0,1,1,2,2,3,3,4,4,5,5,6,6,7,7,11,11,13,13,16,16,19,19],"right_children":[2,4,6,8,10,12,14,16,-1,-1,-1,18,-1,20,-1,-1,22,-1,-1,24,-1,-1,-1,-1,-1],"split_conditions":[1.1192156E0,9.161268E2,1.319662E0,5.6920165E-1,9.185963E2,1.2389414E0,3.2172143E0,9.3645575E2,3.329444E-3,1.2220628E-2,-3.1242012E-5,1.1634532E0,4.3228664E-2,1.7317975E2,1.8278897E-2,-2.3211447E-5,7.0710677E-1,7.0820157E-3,1.7848492E-3,2.3073266E0,3.8784745E-3,1.007705E-5,6.0817394E-3,1.176551E-3,-2.5782673E-4],"split_indices":[0,6,0,0,6,0,0,8,0,0,0,0,0,11,0,0,1,0,0,0,0,0,0,0,0],"split_type":[0,0,0,0,0,0,0,0,0,0,0,0,0,0,0,0,0,0,0,0,0,0,0,0,0],"sum_hessian":[1.077E3,1.067E3,1E1,1.048E3,1.9E1,3E0,7E0,1.047E3,1E0,1E0,1.8E1,2E0,1E0,6E0,1E0,1.025E3,2.2E1,1E0,1E0,4E0,2E0,2.1E1,1E0,3E0,1E0],"tree_param":{"num_deleted":"0","num_feature":"12","num_nodes":"25","size_leaf_vector":"1"}},{"base_weights":[4.6995594E-4,6.1891216E-5,4.0046606E-2,-1.6530988E-6,3.3916961E-3,7.3802024E-2,1.8163072E-2,-2.4073886E-5,7.823753E-3,1.0387534E-2,-2.23627E-5,1.6748548E-2,3.674437E-2,5.960585E-3,1.5537072E-2,-1.6254799E-5,1.381184E-3,6.906722E-4,2.8300167E-3,6.0197175E-3,1.517129E-3,3.7332417E-3,2.80597E-3,-5.8244565E-5,5.1694755E-3,-2.1915273E-4,1.0978103E-3],"categories":[],"categories_nodes":[],"categories_segments":[],"categories_sizes":[],"default_left":[0,0,0,0,0,0,0,0,0,0,0,0,0,0,0,0,0,0,0,0,0,0,0,0,0,0,0],"id":17,"left_children":[1,3,5,7,9,11,13,15,17,-1,-1,19,-1,21,-1,-1,23,-1,-1,-1,-1,-1,25,-1,-1,-1,-1],"loss_changes":[1.7407043E-2,2.2598391E-4,6.7850947E-3,1.8423726E-4,2.1678302E-3,9.057889E-3,2.9739803E-3,4.4374025E-5,4.94493E-6,0E0,0E0,1.4873571E-5,0E0,1.0825394E-4,0E0,0E0,5.526778E-4,0E0,0E0,0E0,0E0,0E0,2.078134E-5,0E0,0E0,0E0,0E0],"parents":[2147483647,0,0,1,1,2,2,3,3,4,4,5,5,6,6,7,7,8,8,11,11,13,13,16,16,22,22],"right_children":[2,4,6,8,10,12,14,16,18,-1,-1,20,-1,22,-1,-1,24,-1,-1,-1,-1,-1,26,-1,-1,-1,-1],"split_conditions":[1.1192156E0,9.161268E2,1.319662E0,5.579055E-1,9.185963E2,1.2389414E0,3.2172143E0,9.3645575E2,5.6920165E-1,1.0387534E-2,-2.23627E-5,1.1634532E0,3.674437E-2,1.3357149E0,1.5537072E-2,-1.6254799E-5,7.0710677E-1,6.906722E-4,2.8300167E-3,6.0197175E-3,1.517129E-3,3.7332417E-3,-2.4492937E-16,-5.8244565E-5,5.1694755E-3,-2.1915273E-4,1.0978103E-3],"split_indices":[0,6,0,0,6,0,0,8,0,0,0,0,0,0,0,0,1,0,0,0,0,0,1,0,0,0,0],"split_type":[0,0,0,0,0,0,0,0,0,0,0,0,0,0,0,0,0,0,0,0,0,0,0,0,0,0,0],"sum_hessian":[1.077E3,1.067E3,1E1,1.048E3,1.9E1,3E0,7E0,1.046E3,2E0,1E0,1.8E1,2E0,1E0,6E0,1E0,1.025E3,2.1E1,1E0,1E0,1E0,1E0,1E0,5E0,2E1,1E0,1E0,4E0],"tree_param":{"num_deleted":"0","num_feature":"12","num_nodes":"27","size_leaf_vector":"1"}},{"base_weights":[4.063448E-4,6.109618E-5,3.3889905E-2,7.0560636E-6,2.8924455E-3,6.273171E-2,1.5232764E-2,-1.1985435E-5,6.650187E-3,8.829404E-3,-1.6006985E-5,1.4236252E-2,3.1232717E-2,4.8312373E-3,1.3206518E-2,-1.1383112E-5,1.1991585E-3,5.870719E-4,2.4055124E-3,5.1167607E-3,1.2895525E-3,3.173268E-3,2.1105902E-3,-4.160326E-5,4.3940577E-3,9.7229186E-4,-3.0035038E-5],"categories":[],"categories_nodes":[],"categories_segments":[],"categories_sizes":[],"default_left":[0,0,0,0,0,0,0,0,0,0,0,0,0,0,0,0,0,0,0,0,0,0,0,0,0,0,0],"id":18,"left_children":[1,3,5,7,9,11,13,15,17,-1,-1,19,-1,21,-1,-1,23,-1,-1,-1,-1,-1,25,-1,-1,-1,-1],"loss_changes":[1.24597745E-2,1.6339048E-4,4.963585E-3,1.3277314E-4,1.5651373E-3,6.544329E-3,2.182914E-3,3.2962344E-5,3.5726553E-6,0E0,0E0,1.0747113E-5,0E0,8.711111E-5,0E0,0E0,3.9782916E-4,0E0,0E0,0E0,0E0,0E0,1.5318145E-5,0E0,0E0,0E0,0E0],"parents":[2147483647,0,0,1,1,2,2,3,3,4,4,5,5,6,6,7,7,8,8,11,11,13,13,16,16,22,22],"right_children":[2,4,6,8,10,12,14,16,18,-1,-1,20,-1,22,-1,-1,24,-1,-1,-1,-1,-1,26,-1,-1,-1,-1],"split_conditions":[1.1192156E0,9.161268E2,1.319662E0,5.579055E-1,9.185963E2,1.2389414E0,3.2172143E0,9.3645575E2,5.6920165E-1,8.829404E-3,-1.6006985E-5,1.1634532E0,3.1232717E-2,1.3357149E0,1.3206518E-2,-1.1383112E-5,7.0710677E-1,5.870719E-4,2.4055124E-3,5.1167607E-3,1.2895525E-3,3.173268E-3,1.1292E2,-4.160326E-5,4.3940577E-3,9.7229186E-4,-3.0035038E-5],"split_indices":[0,6,0,0,6,0,0,8,0,0,0,0,0,0,0,0,1,0,0,0,0,0,5,0,0,0,0],"split_type":[0,0,0,0,0,0,0,0,0,0,0,0,0,0,0,0,0,0,0,0,0,0,0,0,0,0,0],"sum_hessian":[1.077E3,1.067E3,1E1,1.048E3,1.9E1,3E0,7E0,1.046E3,2E0,1E0,1.8E1,2E0,1E0,6E0,1E0,1.025E3,2.1E1,1E0,1E0,1E0,1E0,1E0,5E0,2E1,1E0,3E0,2E0],"tree_param":{"num_deleted":"0","num_feature":"12","num_nodes":"27","size_leaf_vector":"1"}},{"base_weights":[3.504044E-4,5.7886442E-5,2.8719386E-2,1.1930446E-5,2.465384E-3,5.3321928E-2,1.2828193E-2,-4.243601E-6,5.652696E-3,7.505E-3,-1.1457633E-5,1.2100816E-2,2.6547791E-2,3.969796E-3,1.1225546E-2,-7.9715055E-6,1.0372499E-3,4.990116E-4,2.0447017E-3,4.349256E-3,1.0961116E-3,2.6972652E-3,1.6344673E-3,-2.9716613E-5,3.7349493E-3,7.535309E-4,-2.402746E-5],"categories":[],"categories_nodes":[],"categories_segments":[],"categories_sizes":[],"default_left":[0,0,0,0,0,0,0,0,0,0,0,0,0,0,0,0,0,0,0,0,0,0,0,0,0,0,0],"id":19,"left_children":[1,3,5,7,9,11,13,15,17,-1,-1,19,-1,21,-1,-1,23,-1,-1,-1,-1,-1,25,-1,-1,-1,-1],"loss_changes":[8.944053E-3,1.18132986E-4,3.616577E-3,9.572845E-5,1.1301325E-3,4.7282698E-3,1.5941007E-3,2.4375082E-5,2.5814734E-6,0E0,0E0,7.765979E-6,0E0,6.7385925E-5,0E0,0E0,2.865331E-4,0E0,0E0,0E0,0E0,0E0,9.226287E-6,0E0,0E0,0E0,0E0],"parents":[2147483647,0,0,1,1,2,2,3,3,4,4,5,5,6,6,7,7,8,8,11,11,13,13,16,16,22,22],"right_children":[2,4,6,8,10,12,14,16,18,-1,-1,20,-1,22,-1,-1,24,-1,-1,-1,-1,-1,26,-1,-1,-1,-1],"split_conditions":[1.1192156E0,9.161268E2,1.319662E0,5.579055E-1,9.185963E2,1.2389414E0,3.2172143E0,9.3645575E2,5.6920165E-1,7.505E-3,-1.1457633E-5,1.1634532E0,2.6547791E-2,1.3357149E0,1.1225546E-2,-7.9715055E-6,7.0710677E-1,4.990116E-4,2.0447017E-3,4.349256E-3,1.0961116E-3,2.6972652E-3,1.1292E2,-2.9716613E-5,3.7349493E-3,7.535309E-4,-2.402746E-5],"split_indices":[0,6,0,0,6,0,0,8,0,0,0,0,0,0,0,0,1,0,0,0,0,0,5,0,0,0,0],"split_type":[0,0,0,0,0,0,0,0,0,0,0,0,0,0,0,0,0,0,0,0,0,0,0,0,0,0,0],"sum_hessian":[1.077E3,1.067E3,1E1,1.048E3,1.9E1,3E0,7E0,1.046E3,2E0,1E0,1.8E1,2E0,1E0,6E0,1E0,1.025E3,2.1E1,1E0,1E0,1E0,1E0,1E0,5E0,2E1,1E0,3E0,2E0],"tree_param":{"num_deleted":"0","num_feature":"12","num_nodes":"27","size_leaf_vector":"1"}},{"base_weights":[3.0129415E-4,5.3380514E-5,2.4344064E-2,1.4300791E-5,2.100443E-3,4.532361E-2,1.0811284E-2,5.607736E-7,4.8048E-3,6.379241E-3,-8.201253E-6,1.0285695E-2,2.2565603E-2,3.2683949E-3,9.541727E-3,-5.582385E-6,8.9449476E-4,4.2416007E-4,1.738E-3,3.696871E-3,9.3169214E-4,2.2926808E-3,1.2657044E-3,-2.1226151E-5,3.1747075E-3,-1.7817043E-4,5.2692177E-4],"categories":[],"categories_nodes":[],"categories_segments":[],"categories_sizes":[],"default_left":[0,0,0,0,0,0,0,0,0,0,0,0,0,0,0,0,0,0,0,0,0,0,0,0,0,0,0],"id":20,"left_children":[1,3,5,7,9,11,13,15,17,-1,-1,19,-1,21,-1,-1,23,-1,-1,-1,-1,-1,25,-1,-1,-1,-1],"loss_changes":[6.4241523E-3,8.54085E-5,2.6330217E-3,6.90441E-5,8.1610394E-4,3.4161666E-3,1.1629178E-3,1.7957587E-5,1.8651481E-6,0E0,0E0,5.6112767E-6,0E0,5.1643772E-5,0E0,0E0,2.0647506E-4,0E0,0E0,0E0,0E0,0E0,6.518201E-6,0E0,0E0,0E0,0E0],"parents":[2147483647,0,0,1,1,2,2,3,3,4,4,5,5,6,6,7,7,8,8,11,11,13,13,16,16,22,22],"right_children":[2,4,6,8,10,12,14,16,18,-1,-1,20,-1,22,-1,-1,24,-1,-1,-1,-1,-1,26,-1,-1,-1,-1],"split_conditions":[1.1192156E0,9.161268E2,1.319662E0,5.579055E-1,9.185963E2,1.2389414E0,3.2172143E0,9.3645575E2,5.6920165E-1,6.379241E-3,-8.201253E-6,1.1634532E0,2.2565603E-2,1.3357149E0,9.541727E-3,-5.582385E-6,7.0710677E-1,4.2416007E-4,1.738E-3,3.696871E-3,9.3169214E-4,2.2926808E-3,-2.4492937E-16,-2.1226151E-5,3.1747075E-3,-1.7817043E-4,5.2692177E-4],"split_indices":[0,6,0,0,6,0,0,8,0,0,0,0,0,0,0,0,1,0,0,0,0,0,1,0,0,0,0],"split_type":[0,0,0,0,0,0,0,0,0,0,0,0,0,0,0,0,0,0,0,0,0,0,0,0,0,0,0],"sum_hessian":[1.077E3,1.067E3,1E1,1.048E3,1.9E1,3E0,7E0,1.046E3,2E0,1E0,1.8E1,2E0,1E0,6E0,1E0,1.025E3,2.1E1,1E0,1E0,1E0,1E0,1E0,5E0,2E1,1E0,1E0,4E0],"tree_param":{"num_deleted":"0","num_feature":"12","num_nodes":"27","size_leaf_vector":"1"}},{"base_weights":[2.5826984E-4,4.830363E-5,2.0620601E-2,1.507249E-5,1.7888617E-3,3.8525045E-2,9.0908045E-3,3.3991166E-6,4.084056E-3,5.4223537E-3,-5.8703704E-6,8.742809E-3,1.9180764E-2,2.6652403E-3,8.110464E-3,-3.9093015E-6,7.694857E-4,3.6053584E-4,1.4772892E-3,3.1423331E-3,7.919312E-4,1.9487859E-3,9.441294E-4,-1.5161538E-5,2.698499E-3,4.6542587E-4,-5.4090156E-5],"categories":[],"categories_nodes":[],"categories_segments":[],"categories_sizes":[],"default_left":[0,0,0,0,0,0,0,0,0,0,0,0,0,0,0,0,0,0,0,0,0,0,0,0,0,0,0],"id":21,"left_children":[1,3,5,7,9,11,13,15,17,-1,-1,19,-1,21,-1,-1,23,-1,-1,-1,-1,-1,25,-1,-1,-1,-1],"loss_changes":[4.607887E-3,6.174694E-5,1.9205566E-3,4.9812315E-5,5.893827E-4,2.468187E-3,8.5035205E-4,1.3188505E-5,1.3474564E-6,0E0,0E0,4.054571E-6,0E0,4.001854E-5,0E0,0E0,1.4884719E-4,0E0,0E0,0E0,0E0,0E0,4.376853E-6,0E0,0E0,0E0,0E0],"parents":[2147483647,0,0,1,1,2,2,3,3,4,4,5,5,6,6,7,7,8,8,11,11,13,13,16,16,22,22],"right_children":[2,4,6,8,10,12,14,16,18,-1,-1,20,-1,22,-1,-1,24,-1,-1,-1,-1,-1,26,-1,-1,-1,-1],"split_conditions":[1.1192156E0,9.161268E2,1.319662E0,5.579055E-1,9.185963E2,1.2389414E0,3.2172143E0,9.3645575E2,5.6920165E-1,5.4223537E-3,-5.8703704E-6,1.1634532E0,1.9180764E-2,1.3357149E0,8.110464E-3,-3.9093015E-6,7.0710677E-1,3.6053584E-4,1.4772892E-3,3.1423331E-3,7.919312E-4,1.9487859E-3,1.1292E2,-1.5161538E-5,2.698499E-3,4.6542587E-4,-5.4090156E-5],"split_indices":[0,6,0,0,6,0,0,8,0,0,0,0,0,0,0,0,1,0,0,0,0,0,5,0,0,0,0],"split_type":[0,0,0,0,0,0,0,0,0,0,0,0,0,0,0,0,0,0,0,0,0,0,0,0,0,0,0],"sum_hessian":[1.077E3,1.067E3,1E1,1.048E3,1.9E1,3E0,7E0,1.046E3,2E0,1E0,1.8E1,2E0,1E0,6E0,1E0,1.025E3,2.1E1,1E0,1E0,1E0,1E0,1E0,5E0,2E1,1E0,3E0,2E0],"tree_param":{"num_deleted":"0","num_feature":"12","num_nodes":"27","size_leaf_vector":"1"}},{"base_weights":[2.2115943E-4,4.3113858E-5,1.748766E-2,1.4857055E-5,1.5230274E-3,3.2746285E-2,7.6723895E-3,4.9385476E-6,1.0414392E-3,4.609001E-3,-4.2019497E-6,7.431388E-3,1.6303647E-2,2.20284E-3,6.8938853E-3,-2.7376539E-6,6.606107E-4,2.6709796E-3,6.7314506E-4,1.6564608E-3,7.2946807E-4,-1.0829669E-5,2.293727E-3,-1.4333136E-4,3.1994106E-4],"categories":[],"categories_nodes":[],"categories_segments":[],"categories_sizes":[],"default_left":[0,0,0,0,0,0,0,0,0,0,0,0,0,0,0,0,0,0,0,0,0,0,0,0,0],"id":22,"left_children":[1,3,5,7,9,11,13,15,-1,-1,-1,17,-1,19,-1,-1,21,-1,-1,-1,23,-1,-1,-1,-1],"loss_changes":[3.313259E-3,4.463859E-5,1.3962011E-3,3.5947174E-5,4.2567565E-4,1.7832639E-3,6.1916874E-4,9.660846E-6,0E0,0E0,0E0,2.9291114E-6,0E0,3.0199935E-5,0E0,0E0,1.0734159E-4,0E0,0E0,0E0,2.9505813E-6,0E0,0E0,0E0,0E0],"parents":[2147483647,0,0,1,1,2,2,3,3,4,4,5,5,6,6,7,7,11,11,13,13,16,16,20,20],"right_children":[2,4,6,8,10,12,14,16,-1,-1,-1,18,-1,20,-1,-1,22,-1,-1,-1,24,-1,-1,-1,-1],"split_conditions":[1.1192156E0,9.161268E2,1.319662E0,5.579055E-1,9.185963E2,1.2389414E0,3.2172143E0,9.3645575E2,1.0414392E-3,4.609001E-3,-4.2019497E-6,1.1634532E0,1.6303647E-2,1.3357149E0,6.8938853E-3,-2.7376539E-6,7.0710677E-1,2.6709796E-3,6.7314506E-4,1.6564608E-3,-2.4492937E-16,-1.0829669E-5,2.293727E-3,-1.4333136E-4,3.1994106E-4],"split_indices":[0,6,0,0,6,0,0,8,0,0,0,0,0,0,0,0,1,0,0,0,1,0,0,0,0],"split_type":[0,0,0,0,0,0,0,0,0,0,0,0,0,0,0,0,0,0,0,0,0,0,0,0,0],"sum_hessian":[1.077E3,1.067E3,1E1,1.048E3,1.9E1,3E0,7E0,1.046E3,2E0,1E0,1.8E1,2E0,1E0,6E0,1E0,1.025E3,2.1E1,1E0,1E0,1E0,5E0,2E1,1E0,1E0,4E0],"tree_param":{"num_deleted":"0","num_feature":"12","num_nodes":"25","size_leaf_vector":"1"}},{"base_weights":[1.884861E-4,3.076704E-5,1.41966315E-2,6.585151E-6,1.2963597E-3,2.3733472E-2,6.4615263E-3,-1.9171582E-6,5.851269E-4,3.9176526E-3,-3.0077113E-6,6.5699816E-3,1.3858116E-2,1.8038355E-3,5.8598043E-3,6.2742697E-6,1.949671E-3,2.2465468E-3,5.7216885E-4,1.4079809E-3,5.400515E-4,2.8872193E-4,-6.0931674E-5],"categories":[],"categories_nodes":[],"categories_segments":[],"categories_sizes":[],"default_left":[0,0,0,0,0,0,0,0,0,0,0,0,0,0,0,0,0,0,0,0,0,0,0],"id":23,"left_children":[1,3,5,7,9,11,13,-1,15,-1,-1,17,-1,19,-1,-1,-1,-1,-1,-1,21,-1,-1],"loss_changes":[2.381244E-3,3.264638E-5,7.318673E-4,7.871045E-6,3.074576E-4,1.6239893E-3,4.518174E-4,0E0,7.660652E-5,0E0,0E0,2.848814E-6,0E0,2.3026738E-5,0E0,0E0,0E0,0E0,0E0,0E0,2.078726E-6,0E0,0E0],"parents":[2147483647,0,0,1,1,2,2,3,3,4,4,5,5,6,6,8,8,11,11,13,13,20,20],"right_children":[2,4,6,8,10,12,14,-1,16,-1,-1,18,-1,20,-1,-1,-1,-1,-1,-1,22,-1,-1],"split_conditions":[5.6920165E-1,9.161268E2,1.319662E0,9.3645575E2,9.185963E2,1.2389414E0,3.2172143E0,-1.9171582E-6,7.0710677E-1,3.9176526E-3,-3.0077113E-6,1.1634532E0,1.3858116E-2,1.3357149E0,5.8598043E-3,6.2742697E-6,1.949671E-3,2.2465468E-3,5.7216885E-4,1.4079809E-3,1.1292E2,2.8872193E-4,-6.0931674E-5],"split_indices":[0,6,0,8,6,0,0,0,1,0,0,0,0,0,0,0,0,0,0,0,5,0,0],"split_type":[0,0,0,0,0,0,0,0,0,0,0,0,0,0,0,0,0,0,0,0,0,0,0],"sum_hessian":[1.077E3,1.066E3,1.1E1,1.047E3,1.9E1,4E0,7E0,1.025E3,2.2E1,1E0,1.8E1,3E0,1E0,6E0,1E0,2.1E1,1E0,2E0,1E0,1E0,5E0,3E0,2E0],"tree_param":{"num_deleted":"0","num_feature":"12","num_nodes":"23","size_leaf_vector":"1"}},{"base_weights":[1.5980778E-4,3.1771404E-5,1.2576448E-2,1.1313843E-5,1.103182E-3,2.366516E-2,5.460036E-3,6.4741403E-6,7.624984E-4,3.3299983E-3,-2.152888E-6,5.377094E-3,1.1779404E-2,1.496397E-3,4.9808268E-3,-1.3425713E-6,4.9463013E-4,1.9333542E-3,4.8633816E-4,1.1968017E-3,4.1601682E-4,4.4775584E-6,1.6572208E-3,-1.126919E-4,1.9484283E-4],"categories":[],"categories_nodes":[],"categories_segments":[],"categories_sizes":[],"default_left":[0,0,0,0,0,0,0,0,0,0,0,0,0,0,0,0,0,0,0,0,0,0,0,0,0],"id":24,"left_children":[1,3,5,7,9,11,13,15,-1,-1,-1,17,-1,19,-1,-1,21,-1,-1,-1,23,-1,-1,-1,-1],"loss_changes":[1.7133849E-3,2.339642E-5,7.388176E-4,1.2829736E-5,2.2208053E-4,9.3001034E-4,3.2848143E-4,5.603778E-6,0E0,0E0,0E0,1.580207E-6,0E0,1.7193643E-5,0E0,0E0,5.540842E-5,0E0,0E0,0E0,1.352886E-6,0E0,0E0,0E0,0E0],"parents":[2147483647,0,0,1,1,2,2,3,3,4,4,5,5,6,6,7,7,11,11,13,13,16,16,20,20],"right_children":[2,4,6,8,10,12,14,16,-1,-1,-1,18,-1,20,-1,-1,22,-1,-1,-1,24,-1,-1,-1,-1],"split_conditions":[1.1192156E0,9.161268E2,1.319662E0,5.6920165E-1,9.185963E2,1.2389414E0,3.2172143E0,9.3645575E2,7.624984E-4,3.3299983E-3,-2.152888E-6,1.1634532E0,1.1779404E-2,1.3357149E0,4.9808268E-3,-1.3425713E-6,7.0710677E-1,1.9333542E-3,4.8633816E-4,1.1968017E-3,-2.4492937E-16,4.4775584E-6,1.6572208E-3,-1.126919E-4,1.9484283E-4],"split_indices":[0,6,0,0,6,0,0,8,0,0,0,0,0,0,0,0,1,0,0,0,1,0,0,0,0],"split_type":[0,0,0,0,0,0,0,0,0,0,0,0,0,0,0,0,0,0,0,0,0,0,0,0,0],"sum_hessian":[1.077E3,1.067E3,1E1,1.048E3,1.9E1,3E0,7E0,1.047E3,1E0,1E0,1.8E1,2E0,1E0,6E0,1E0,1.025E3,2.2E1,1E0,1E0,1E0,5E0,2.1E1,1E0,1E0,4E0],"tree_param":{"num_deleted":"0","num_feature":"12","num_nodes":"25","size_leaf_vector":"1"}},{"base_weights":[1.3617885E-4,2.7624546E-5,1.0663435E-2,1.0229378E-5,9.3861995E-4,2.0115405E-2,4.6045203E-3,5.175657E-6,5.311706E-4,2.8304996E-3,-1.5410146E-6,4.5705237E-3,1.0012507E-2,1.2302082E-3,4.2337063E-3,-9.401924E-7,3.9247138E-4,1.6433537E-3,4.1338208E-4,1.0172725E-3,9.148205E-5,-1.0807427E-5,1.4086337E-3],"categories":[],"categories_nodes":[],"categories_segments":[],"categories_sizes":[],"default_left":[0,0,0,0,0,0,0,0,0,0,0,0,0,0,0,0,0,0,0,0,0,0,0],"id":25,"left_children":[1,3,5,7,9,11,13,15,-1,-1,-1,17,-1,19,-1,-1,21,-1,-1,-1,-1,-1,-1],"loss_changes":[1.2316211E-3,1.6914906E-5,5.3733366E-4,9.323016E-6,1.6041873E-4,6.719356E-4,2.3929804E-4,3.3707743E-6,0E0,0E0,0E0,1.1419543E-6,0E0,1.2960562E-5,0E0,0E0,4.073292E-5,0E0,0E0,0E0,0E0,0E0,0E0],"parents":[2147483647,0,0,1,1,2,2,3,3,4,4,5,5,6,6,7,7,11,11,13,13,16,16],"right_children":[2,4,6,8,10,12,14,16,-1,-1,-1,18,-1,20,-1,-1,22,-1,-1,-1,-1,-1,-1],"split_conditions":[1.1192156E0,9.161268E2,1.319662E0,5.579055E-1,9.185963E2,1.2389414E0,3.2172143E0,9.3645575E2,5.311706E-4,2.8304996E-3,-1.5410146E-6,1.1634532E0,1.0012507E-2,1.3357149E0,4.2337063E-3,-9.401924E-7,7.0710677E-1,1.6433537E-3,4.1338208E-4,1.0172725E-3,9.148205E-5,-1.0807427E-5,1.4086337E-3],"split_indices":[0,6,0,0,6,0,0,8,0,0,0,0,0,0,0,0,1,0,0,0,0,0,0],"split_type":[0,0,0,0,0,0,0,0,0,0,0,0,0,0,0,0,0,0,0,0,0,0,0],"sum_hessian":[1.077E3,1.067E3,1E1,1.048E3,1.9E1,3E0,7E0,1.046E3,2E0,1E0,1.8E1,2E0,1E0,6E0,1E0,1.025E3,2.1E1,1E0,1E0,1E0,5E0,2E1,1E0],"tree_param":{"num_deleted":"0","num_feature":"12","num_nodes":"23","size_leaf_vector":"1"}},{"base_weights":[1.1588974E-4,2.3791281E-5,9.047278E-3,8.998529E-6,7.984816E-4,1.709807E-2,3.8909724E-3,5.391024E-6,5.684495E-4,2.4059238E-3,-1.103042E-6,1.1654855E-3,8.510614E-3,1.0195244E-3,3.5986663E-3,-6.584096E-7,3.435458E-4,-1.1188187E-5,7.192612E-4,-1.1004598E-6,1.1973381E-3,-1.07353335E-4,2.0631553E-4],"categories":[],"categories_nodes":[],"categories_segments":[],"categories_sizes":[],"default_left":[0,0,0,0,0,0,0,0,0,0,0,0,0,0,0,0,0,0,0,0,0,0,0],"id":26,"left_children":[1,3,5,7,9,11,13,15,-1,-1,-1,-1,-1,17,-1,-1,19,21,-1,-1,-1,-1,-1],"loss_changes":[8.8651205E-4,1.22318825E-5,3.9010763E-4,7.1262907E-6,1.15881434E-4,4.854703E-4,1.739453E-4,2.6890295E-6,0E0,0E0,0E0,0E0,0E0,9.96917E-6,0E0,0E0,2.9143937E-5,1.4574979E-6,0E0,0E0,0E0,0E0,0E0],"parents":[2147483647,0,0,1,1,2,2,3,3,4,4,5,5,6,6,7,7,13,13,16,16,17,17],"right_children":[2,4,6,8,10,12,14,16,-1,-1,-1,-1,-1,18,-1,-1,20,22,-1,-1,-1,-1,-1],"split_conditions":[1.1192156E0,9.161268E2,1.319662E0,5.6920165E-1,9.185963E2,1.2389414E0,3.2172143E0,9.3645575E2,5.684495E-4,2.4059238E-3,-1.103042E-6,1.1654855E-3,8.510614E-3,1.7317975E2,3.5986663E-3,-6.584096E-7,7.0710677E-1,2.5881904E-1,7.192612E-4,-1.1004598E-6,1.1973381E-3,-1.07353335E-4,2.0631553E-4],"split_indices":[0,6,0,0,6,0,0,8,0,0,0,0,0,11,0,0,1,2,0,0,0,0,0],"split_type":[0,0,0,0,0,0,0,0,0,0,0,0,0,0,0,0,0,0,0,0,0,0,0],"sum_hessian":[1.077E3,1.067E3,1E1,1.048E3,1.9E1,3E0,7E0,1.047E3,1E0,1E0,1.8E1,2E0,1E0,6E0,1E0,1.025E3,2.2E1,4E0,2E0,2.1E1,1E0,3E0,1E0],"tree_param":{"num_deleted":"0","num_feature":"12","num_nodes":"23","size_leaf_vector":"1"}},{"base_weights":[9.806322E-5,2.055741E-5,7.6142577E-3,7.980658E-6,6.791802E-4,1.4387667E-2,3.2757712E-3,4.9145387E-6,4.8319102E-4,2.0450414E-3,-7.895458E-7,3.1079452E-3,7.2340253E-3,8.3053584E-4,3.0588629E-3,-4.6107922E-7,2.924925E-4,1.2220324E-3,1.76543E-4,7.5677637E-4,3.8428774E-5,-7.8529786E-7,1.0177374E-3],"categories":[],"categories_nodes":[],"categories_segments":[],"categories_sizes":[],"default_left":[0,0,0,0,0,0,0,0,0,0,0,0,0,0,0,0,0,0,0,0,0,0,0],"id":27,"left_children":[1,3,5,7,9,11,13,15,-1,-1,-1,17,-1,19,-1,-1,21,-1,-1,-1,-1,-1,-1],"loss_changes":[6.2783103E-4,8.8411825E-6,2.761191E-4,5.1468014E-6,8.371206E-5,3.6387186E-4,1.2690848E-4,1.9448044E-6,0E0,0E0,0E0,4.900483E-6,0E0,7.996821E-6,0E0,0E0,2.105E-5,0E0,0E0,0E0,0E0,0E0,0E0],"parents":[2147483647,0,0,1,1,2,2,3,3,4,4,5,5,6,6,7,7,11,11,13,13,16,16],"right_children":[2,4,6,8,10,12,14,16,-1,-1,-1,18,-1,20,-1,-1,22,-1,-1,-1,-1,-1,-1],"split_conditions":[1.1192156E0,9.161268E2,1.319662E0,5.6920165E-1,9.185963E2,1.2389414E0,3.2172143E0,9.3645575E2,4.8319102E-4,2.0450414E-3,-7.895458E-7,1.1634532E0,7.2340253E-3,1.3357149E0,3.0588629E-3,-4.6107922E-7,7.0710677E-1,1.2220324E-3,1.76543E-4,7.5677637E-4,3.8428774E-5,-7.8529786E-7,1.0177374E-3],"split_indices":[0,6,0,0,6,0,0,8,0,0,0,0,0,0,0,0,1,0,0,0,0,0,0],"split_type":[0,0,0,0,0,0,0,0,0,0,0,0,0,0,0,0,0,0,0,0,0,0,0],"sum_hessian":[1.077E3,1.067E3,1E1,1.048E3,1.9E1,3E0,7E0,1.047E3,1E0,1E0,1.8E1,2E0,1E0,6E0,1E0,1.025E3,2.2E1,1E0,1E0,1E0,5E0,2.1E1,1E0],"tree_param":{"num_deleted":"0","num_feature":"12","num_nodes":"23","size_leaf_vector":"1"}},{"base_weights":[8.3514955E-5,1.7708391E-5,6.4651417E-3,7.0159967E-6,5.7763903E-4,1.2229502E-2,2.7748186E-3,4.410097E-6,4.1069987E-4,1.7382861E-3,-5.6514864E-7,2.6417573E-3,6.1489106E-3,6.9500576E-4,2.6000263E-3,-3.2289026E-7,2.489594E-4,1.0387301E-3,1.5006066E-4,6.4326526E-4,2.8830258E-5,-5.6045786E-7,8.6507504E-4],"categories":[],"categories_nodes":[],"categories_segments":[],"categories_sizes":[],"default_left":[0,0,0,0,0,0,0,0,0,0,0,0,0,0,0,0,0,0,0,0,0,0,0],"id":28,"left_children":[1,3,5,7,9,11,13,15,-1,-1,-1,17,-1,19,-1,-1,21,-1,-1,-1,-1,-1,-1],"loss_changes":[4.5259472E-4,6.3900625E-6,2.0006124E-4,3.7170655E-6,6.047425E-5,2.6289595E-4,9.2009526E-5,1.4063643E-6,0E0,0E0,0E0,3.5406538E-6,0E0,5.869518E-6,0E0,0E0,1.5204623E-5,0E0,0E0,0E0,0E0,0E0,0E0],"parents":[2147483647,0,0,1,1,2,2,3,3,4,4,5,5,6,6,7,7,11,11,13,13,16,16],"right_children":[2,4,6,8,10,12,14,16,-1,-1,-1,18,-1,20,-1,-1,22,-1,-1,-1,-1,-1,-1],"split_conditions":[1.1192156E0,9.161268E2,1.319662E0,5.6920165E-1,9.185963E2,1.2389414E0,3.2172143E0,9.3645575E2,4.1069987E-4,1.7382861E-3,-5.6514864E-7,1.1634532E0,6.1489106E-3,1.3357149E0,2.6000263E-3,-3.2289026E-7,7.0710677E-1,1.0387301E-3,1.5006066E-4,6.4326526E-4,2.8830258E-5,-5.6045786E-7,8.6507504E-4],"split_indices":[0,6,0,0,6,0,0,8,0,0,0,0,0,0,0,0,1,0,0,0,0,0,0],"split_type":[0,0,0,0,0,0,0,0,0,0,0,0,0,0,0,0,0,0,0,0,0,0,0],"sum_hessian":[1.077E3,1.067E3,1E1,1.048E3,1.9E1,3E0,7E0,1.047E3,1E0,1E0,1.8E1,2E0,1E0,6E0,1E0,1.025E3,2.2E1,1E0,1E0,1E0,5E0,2.1E1,1E0],"tree_param":{"num_deleted":"0","num_feature":"12","num_nodes":"23","size_leaf_vector":"1"}},{"base_weights":[7.1097114E-5,1.5216533E-5,5.4901303E-3,6.1264195E-6,4.912322E-4,1.039508E-2,2.3513893E-3,3.911651E-6,3.4908057E-4,1.4775397E-3,-4.045274E-7,2.245466E-3,5.2265883E-3,5.8250886E-4,2.2100331E-3,-2.2611756E-7,2.1185793E-4,8.829117E-4,1.2754799E-4,5.467773E-4,2.1619016E-5,-3.9998577E-7,7.3530973E-4],"categories":[],"categories_nodes":[],"categories_segments":[],"categories_sizes":[],"default_left":[0,0,0,0,0,0,0,0,0,0,0,0,0,0,0,0,0,0,0,0,0,0,0],"id":29,"left_children":[1,3,5,7,9,11,13,15,-1,-1,-1,17,-1,19,-1,-1,21,-1,-1,-1,-1,-1,-1],"loss_changes":[3.2635508E-4,4.618265E-6,1.4490614E-4,2.6846021E-6,4.36877E-5,1.8994507E-4,6.668175E-5,1.0168745E-6,0E0,0E0,0E0,2.5581267E-6,0E0,4.2996176E-6,0E0,0E0,1.0982832E-5,0E0,0E0,0E0,0E0,0E0,0E0],"parents":[2147483647,0,0,1,1,2,2,3,3,4,4,5,5,6,6,7,7,11,11,13,13,16,16],"right_children":[2,4,6,8,10,12,14,16,-1,-1,-1,18,-1,20,-1,-1,22,-1,-1,-1,-1,-1,-1],"split_conditions":[1.1192156E0,9.161268E2,1.319662E0,5.6920165E-1,9.185963E2,1.2389414E0,3.2172143E0,9.3645575E2,3.4908057E-4,1.4775397E-3,-4.045274E-7,1.1634532E0,5.2265883E-3,1.3357149E0,2.2100331E-3,-2.2611756E-7,7.0710677E-1,8.829117E-4,1.2754799E-4,5.467773E-4,2.1619016E-5,-3.9998577E-7,7.3530973E-4],"split_indices":[0,6,0,0,6,0,0,8,0,0,0,0,0,0,0,0,1,0,0,0,0,0,0],"split_type":[0,0,0,0,0,0,0,0,0,0,0,0,0,0,0,0,0,0,0,0,0,0,0],"sum_hessian":[1.077E3,1.067E3,1E1,1.048E3,1.9E1,3E0,7E0,1.047E3,1E0,1E0,1.8E1,2E0,1E0,6E0,1E0,1.025E3,2.2E1,1E0,1E0,1E0,5E0,2.1E1,1E0],"tree_param":{"num_deleted":"0","num_feature":"12","num_nodes":"23","size_leaf_vector":"1"}},{"base_weights":[6.050667E-5,1.30494245E-5,4.662673E-3,5.321696E-6,4.177163E-4,8.835822E-3,1.9932645E-3,9.002244E-7,2.4406762E-4,1.2558997E-3,-2.8955645E-7,1.9086599E-3,4.442597E-3,4.889576E-4,1.878512E-3,7.5048214E-4,1.0841489E-4,4.6477318E-4,1.6210768E-5],"categories":[],"categories_nodes":[],"categories_segments":[],"categories_sizes":[],"default_left":[0,0,0,0,0,0,0,0,0,0,0,0,0,0,0,0,0,0,0],"id":30,"left_children":[1,3,5,7,9,11,13,-1,-1,-1,-1,15,-1,17,-1,-1,-1,-1,-1],"loss_changes":[2.3538097E-4,3.337579E-6,1.04926134E-4,1.9653526E-6,3.1561034E-5,1.3723443E-4,4.8306665E-5,0E0,0E0,0E0,0E0,1.8483224E-6,0E0,3.144276E-6,0E0,0E0,0E0,0E0,0E0],"parents":[2147483647,0,0,1,1,2,2,3,3,4,4,5,5,6,6,11,11,13,13],"right_children":[2,4,6,8,10,12,14,-1,-1,-1,-1,16,-1,18,-1,-1,-1,-1,-1],"split_conditions":[1.1192156E0,9.161268E2,1.319662E0,5.579055E-1,9.185963E2,1.2389414E0,3.2172143E0,9.002244E-7,2.4406762E-4,1.2558997E-3,-2.8955645E-7,1.1634532E0,4.442597E-3,1.3357149E0,1.878512E-3,7.5048214E-4,1.0841489E-4,4.6477318E-4,1.6210768E-5],"split_indices":[0,6,0,0,6,0,0,0,0,0,0,0,0,0,0,0,0,0,0],"split_type":[0,0,0,0,0,0,0,0,0,0,0,0,0,0,0,0,0,0,0],"sum_hessian":[1.077E3,1.067E3,1E1,1.048E3,1.9E1,3E0,7E0,1.046E3,2E0,1E0,1.8E1,2E0,1E0,6E0,1E0,1E0,1E0,1E0,5E0],"tree_param":{"num_deleted":"0","num_feature":"12","num_nodes":"19","size_leaf_vector":"1"}},{"base_weights":[5.0853305E-5,1.0539599E-5,3.960325E-3,3.95865E-6,3.551834E-4,7.5104237E-3,1.6902346E-3,6.923489E-7,2.6010277E-4,1.0675192E-3,-2.0726146E-7,1.6223589E-3,3.776193E-3,4.1099495E-4,1.596737E-3,6.3790084E-4,9.2160706E-5,-7.210423E-5,3.2374862E-4,-1.0684375E-4,1.5960932E-4],"categories":[],"categories_nodes":[],"categories_segments":[],"categories_sizes":[],"default_left":[0,0,0,0,0,0,0,0,0,0,0,0,0,0,0,0,0,0,0,0,0],"id":31,"left_children":[1,3,5,7,9,11,13,-1,-1,-1,-1,15,-1,17,-1,-1,-1,19,-1,-1,-1],"loss_changes":[1.6985676E-4,2.420907E-6,7.5955104E-5,1.4925527E-6,2.2801287E-5,9.9151E-5,3.4984354E-5,0E0,0E0,0E0,0E0,1.335211E-6,0E0,2.337349E-6,0E0,0E0,0E0,1.0474783E-6,0E0,0E0,0E0],"parents":[2147483647,0,0,1,1,2,2,3,3,4,4,5,5,6,6,11,11,13,13,17,17],"right_children":[2,4,6,8,10,12,14,-1,-1,-1,-1,16,-1,18,-1,-1,-1,20,-1,-1,-1],"split_conditions":[1.1192156E0,9.161268E2,1.319662E0,5.6920165E-1,9.185963E2,1.2389414E0,3.2172143E0,6.923489E-7,2.6010277E-4,1.0675192E-3,-2.0726146E-7,1.1634532E0,3.776193E-3,1.7317975E2,1.596737E-3,6.3790084E-4,9.2160706E-5,2.5881904E-1,3.2374862E-4,-1.0684375E-4,1.5960932E-4],"split_indices":[0,6,0,0,6,0,0,0,0,0,0,0,0,11,0,0,0,2,0,0,0],"split_type":[0,0,0,0,0,0,0,0,0,0,0,0,0,0,0,0,0,0,0,0,0],"sum_hessian":[1.077E3,1.067E3,1E1,1.048E3,1.9E1,3E0,7E0,1.047E3,1E0,1E0,1.8E1,2E0,1E0,6E0,1E0,1E0,1E0,4E0,2E0,3E0,1E0],"tree_param":{"num_deleted":"0","num_feature":"12","num_nodes":"21","size_leaf_vector":"1"}},{"base_weights":[4.2840027E-5,8.621232E-6,3.3612794E-3,3.019634E-6,3.0199398E-4,6.383896E-3,1.4298111E-3,4.848357E-7,2.2108556E-4,9.0739137E-4,-1.4835557E-7,4.1370394E-4,3.2097818E-3,3.4146648E-4,1.3572336E-3,3.4650567E-4,4.011393E-6],"categories":[],"categories_nodes":[],"categories_segments":[],"categories_sizes":[],"default_left":[0,0,0,0,0,0,0,0,0,0,0,0,0,0,0,0,0],"id":32,"left_children":[1,3,5,7,9,11,13,-1,-1,-1,-1,-1,-1,15,-1,-1,-1],"loss_changes":[1.2238114E-4,1.7541925E-6,5.509121E-5,1.0793683E-6,1.6472864E-5,7.1637376E-5,2.539649E-5,0E0,0E0,0E0,0E0,0E0,0E0,1.853014E-6,0E0,0E0,0E0],"parents":[2147483647,0,0,1,1,2,2,3,3,4,4,5,5,6,6,13,13],"right_children":[2,4,6,8,10,12,14,-1,-1,-1,-1,-1,-1,16,-1,-1,-1],"split_conditions":[1.1192156E0,9.161268E2,1.319662E0,5.6920165E-1,9.185963E2,1.2389414E0,3.2172143E0,4.848357E-7,2.2108556E-4,9.0739137E-4,-1.4835557E-7,4.1370394E-4,3.2097818E-3,1.3357149E0,1.3572336E-3,3.4650567E-4,4.011393E-6],"split_indices":[0,6,0,0,6,0,0,0,0,0,0,0,0,0,0,0,0],"split_type":[0,0,0,0,0,0,0,0,0,0,0,0,0,0,0,0,0],"sum_hessian":[1.077E3,1.067E3,1E1,1.048E3,1.9E1,3E0,7E0,1.047E3,1E0,1E0,1.8E1,2E0,1E0,6E0,1E0,1E0,5E0],"tree_param":{"num_deleted":"0","num_feature":"12","num_nodes":"17","size_leaf_vector":"1"}},{"base_weights":[3.59808E-5,7.091851E-6,2.837564E-3,6.9751223E-7,2.5675644E-4,5.37467E-3,1.2143158E-3,7.7127817E-4,-1.0619135E-7,1.1032423E-3,2.728343E-3,2.890885E-4,1.153636E-3,4.8016908E-4,1.628995E-5,2.9454232E-4,3.0002006E-6],"categories":[],"categories_nodes":[],"categories_segments":[],"categories_sizes":[],"default_left":[0,0,0,0,0,0,0,0,0,0,0,0,0,0,0,0,0],"id":33,"left_children":[1,3,5,-1,7,9,11,-1,-1,13,-1,15,-1,-1,-1,-1,-1],"loss_changes":[8.7227585E-5,1.2704337E-6,3.877534E-5,0E0,1.1900858E-5,5.3522126E-5,1.8363524E-5,0E0,0E0,1.478074E-6,0E0,1.3434877E-6,0E0,0E0,0E0,0E0,0E0],"parents":[2147483647,0,0,1,1,2,2,4,4,5,5,6,6,9,9,11,11],"right_children":[2,4,6,-1,8,10,12,-1,-1,14,-1,16,-1,-1,-1,-1,-1],"split_conditions":[1.1192156E0,9.161268E2,1.319662E0,6.9751223E-7,9.185963E2,1.2389414E0,3.2172143E0,7.7127817E-4,-1.0619135E-7,1.1634532E0,2.728343E-3,1.3357149E0,1.153636E-3,4.8016908E-4,1.628995E-5,2.9454232E-4,3.0002006E-6],"split_indices":[0,6,0,0,6,0,0,0,0,0,0,0,0,0,0,0,0],"split_type":[0,0,0,0,0,0,0,0,0,0,0,0,0,0,0,0,0],"sum_hessian":[1.077E3,1.067E3,1E1,1.048E3,1.9E1,3E0,7E0,1E0,1.8E1,2E0,1E0,6E0,1E0,1E0,1E0,1E0,5E0],"tree_param":{"num_deleted":"0","num_feature":"12","num_nodes":"17","size_leaf_vector":"1"}},{"base_weights":[3.0239904E-5,1.3556285E-6,2.314758E-3,3.905177E-3,1.0314015E-3,1.0163486E-3,2.3190738E-3,7.3457704E-5,9.805799E-4,3.9731266E-4,1.3840199E-5],"categories":[],"categories_nodes":[],"categories_segments":[],"categories_sizes":[],"default_left":[0,0,0,0,0,0,0,0,0,0,0],"id":34,"left_children":[1,-1,3,5,7,9,-1,-1,-1,-1,-1],"loss_changes":[6.3333275E-5,0E0,2.0465086E-5,4.739321E-5,1.3276865E-5,1.13431E-6,0E0,0E0,0E0,0E0,0E0],"parents":[2147483647,0,0,2,2,3,3,4,4,5,5],"right_children":[2,-1,4,6,8,10,-1,-1,-1,-1,-1],"split_conditions":[5.6920165E-1,1.3556285E-6,1.319662E0,1.2389414E0,3.2172143E0,1.1634532E0,2.3190738E-3,7.3457704E-5,9.805799E-4,3.9731266E-4,1.3840199E-5],"split_indices":[0,0,0,0,0,0,0,0,0,0,0],"split_type":[0,0,0,0,0,0,0,0,0,0,0],"sum_hessian":[1.077E3,1.066E3,1.1E1,4E0,7E0,3E0,1E0,6E0,1E0,2E0,1E0],"tree_param":{"num_deleted":"0","num_feature":"12","num_nodes":"11","size_leaf_vector":"1"}},{"base_weights":[2.4680046E-5,1.1886E-6,2.0339703E-3,3.8859248E-3,8.537468E-4,2.4020672E-4,1.9712448E-3,1.8191294E-4,8.3348755E-4,2.3936034E-4,-1.6117248E-5],"categories":[],"categories_nodes":[],"categories_segments":[],"categories_sizes":[],"default_left":[0,0,0,0,0,0,0,0,0,0,0],"id":35,"left_children":[1,-1,3,5,7,-1,-1,9,-1,-1,-1],"loss_changes":[4.4867535E-5,0E0,2.0725329E-5,2.7872913E-5,9.838389E-6,0E0,0E0,1.0588574E-6,0E0,0E0,0E0],"parents":[2147483647,0,0,2,2,3,3,4,4,7,7],"right_children":[2,-1,4,6,8,-1,-1,10,-1,-1,-1],"split_conditions":[1.1192156E0,1.1886E-6,1.319662E0,1.2389414E0,3.2172143E0,2.4020672E-4,1.9712448E-3,1.3357149E0,8.3348755E-4,2.3936034E-4,-1.6117248E-5],"split_indices":[0,0,0,0,0,0,0,0,0,0,0],"split_type":[0,0,0,0,0,0,0,0,0,0,0],"sum_hessian":[1.077E3,1.067E3,1E1,3E0,7E0,2E0,1E0,6E0,1E0,1E0,5E0],"tree_param":{"num_deleted":"0","num_feature":"12","num_nodes":"11","size_leaf_vector":"1"}},{"base_weights":[2.030893E-5,5.930803E-7,1.6486364E-3,2.7891635E-3,7.297274E-4,2.081573E-4,1.6755582E-3,4.7774873E-5,7.084608E-4],"categories":[],"categories_nodes":[],"categories_segments":[],"categories_sizes":[],"default_left":[0,0,0,0,0,0,0,0,0],"id":36,"left_children":[1,-1,3,5,7,-1,-1,-1,-1],"loss_changes":[3.2175572E-5,0E0,1.0541156E-5,2.5417365E-5,7.0712117E-6,0E0,0E0,0E0,0E0],"parents":[2147483647,0,0,2,2,3,3,4,4],"right_children":[2,-1,4,6,8,-1,-1,-1,-1],"split_conditions":[5.6920165E-1,5.930803E-7,1.319662E0,1.2389414E0,3.2172143E0,2.081573E-4,1.6755582E-3,4.7774873E-5,7.084608E-4],"split_indices":[0,0,0,0,0,0,0,0,0],"split_type":[0,0,0,0,0,0,0,0,0],"sum_hessian":[1.077E3,1.066E3,1.1E1,4E0,7E0,3E0,1E0,6E0,1E0],"tree_param":{"num_deleted":"0","num_feature":"12","num_nodes":"9","size_leaf_vector":"1"}},{"base_weights":[1.6666045E-5,3.390812E-6,1.5930919E-3,4.1532053E-7,5.377531E-4,1.4242172E-3,6.053807E-4,2.520919E-4,-5.5485965E-5,3.5499223E-5,6.022096E-4],"categories":[],"categories_nodes":[],"categories_segments":[],"categories_sizes":[],"default_left":[0,0,0,0,0,0,0,0,0,0,0],"id":37,"left_children":[1,3,5,-1,7,-1,9,-1,-1,-1,-1],"loss_changes":[2.2554357E-5,1.1464562E-6,2.5165848E-5,0E0,1.0300457E-6,0E0,5.22516E-6,0E0,0E0,0E0,0E0],"parents":[2147483647,0,0,1,1,2,2,4,4,6,6],"right_children":[2,4,6,-1,8,-1,10,-1,-1,-1,-1],"split_conditions":[1.2389414E0,5.6920165E-1,1.319662E0,4.1532053E-7,1.1634532E0,1.4242172E-3,3.2172143E0,2.520919E-4,-5.5485965E-5,3.5499223E-5,6.022096E-4],"split_indices":[0,0,0,0,0,0,0,0,0,0,0],"split_type":[0,0,0,0,0,0,0,0,0,0,0],"sum_hessian":[1.077E3,1.069E3,8E0,1.066E3,3E0,1E0,7E0,2E0,1E0,6E0,1E0],"tree_param":{"num_deleted":"0","num_feature":"12","num_nodes":"11","size_leaf_vector":"1"}},{"base_weights":[1.3761535E-5,4.011538E-7,1.2188025E-3,2.3447871E-3,5.034599E-4,1.3086796E-4,1.2105703E-3,-4.741701E-5,3.6134722E-4],"categories":[],"categories_nodes":[],"categories_segments":[],"categories_sizes":[],"default_left":[0,0,0,0,0,0,0,0,0],"id":38,"left_children":[1,-1,3,5,7,-1,-1,-1,-1],"loss_changes":[1.6138034E-5,0E0,7.679606E-6,1.1145006E-5,3.9003253E-6,0E0,0E0,0E0,0E0],"parents":[2147483647,0,0,2,2,3,3,4,4],"right_children":[2,-1,4,6,8,-1,-1,-1,-1],"split_conditions":[1.1192156E0,4.011538E-7,1.319662E0,1.2389414E0,1.7317975E2,1.3086796E-4,1.2105703E-3,-4.741701E-5,3.6134722E-4],"split_indices":[0,0,0,0,11,0,0,0,0],"split_type":[0,0,0,0,0,0,0,0,0],"sum_hessian":[1.077E3,1.067E3,1E1,3E0,7E0,2E0,1E0,4E0,3E0],"tree_param":{"num_deleted":"0","num_feature":"12","num_nodes":"9","size_leaf_vector":"1"}},{"base_weights":[1.1168651E-5,5.7390366E-7,1.1103204E-3,1.028967E-3,3.9163805E-4,3.516937E-6,4.576564E-4],"categories":[],"categories_nodes":[],"categories_segments":[],"categories_sizes":[],"default_left":[0,0,0,0,0,0,0],"id":39,"left_children":[1,-1,3,-1,5,-1,-1],"loss_changes":[1.0964749E-5,0E0,1.36600265E-5,0E0,3.4283498E-6,0E0,0E0],"parents":[2147483647,0,0,2,2,4,4],"right_children":[2,-1,4,-1,6,-1,-1],"split_conditions":[1.2389414E0,5.7390366E-7,1.319662E0,1.028967E-3,3.2172143E0,3.516937E-6,4.576564E-4],"split_indices":[0,0,0,0,0,0,0],"split_type":[0,0,0,0,0,0,0],"sum_hessian":[1.077E3,1.069E3,8E0,1E0,7E0,6E0,1E0],"tree_param":{"num_deleted":"0","num_feature":"12","num_nodes":"7","size_leaf_vector":"1"}},{"base_weights":[9.2004975E-6,1.089115E-7,8.66401E-4,1.7191172E-3,3.317428E-4,7.3224306E-4,-6.6894296E-5,2.5998643E-6,3.8899184E-4],"categories":[],"categories_nodes":[],"categories_segments":[],"categories_sizes":[],"default_left":[0,0,0,0,0,0,0,0,0],"id":40,"left_children":[1,-1,3,5,7,-1,-1,-1,-1],"loss_changes":[8.166047E-6,0E0,4.4447243E-6,6.150649E-6,2.482647E-6,0E0,0E0,0E0,0E0],"parents":[2147483647,0,0,2,2,3,3,4,4],"right_children":[2,-1,4,6,8,-1,-1,-1,-1],"split_conditions":[1.1192156E0,1.089115E-7,1.319662E0,1.3557643E2,3.2172143E0,7.3224306E-4,-6.6894296E-5,2.5998643E-6,3.8899184E-4],"split_indices":[0,0,0,7,0,0,0,0,0],"split_type":[0,0,0,0,0,0,0,0,0],"sum_hessian":[1.077E3,1.067E3,1E1,3E0,7E0,2E0,1E0,6E0,1E0],"tree_param":{"num_deleted":"0","num_feature":"12","num_nodes":"9","size_leaf_vector":"1"}},{"base_weights":[7.4205504E-6,1.8277008E-7,8.163859E-4,7.6475146E-4,2.811413E-4,1.9264558E-6,3.3062696E-4],"categories":[],"categories_nodes":[],"categories_segments":[],"categories_sizes":[],"default_left":[0,0,0,0,0,0,0],"id":41,"left_children":[1,-1,3,-1,5,-1,-1],"loss_changes":[5.9394115E-6,0E0,7.6305E-6,0E0,1.7971695E-6,0E0,0E0],"parents":[2147483647,0,0,2,2,4,4],"right_children":[2,-1,4,-1,6,-1,-1],"split_conditions":[1.2389414E0,1.8277008E-7,1.319662E0,7.6475146E-4,3.2172143E0,1.9264558E-6,3.3062696E-4],"split_indices":[0,0,0,0,0,0,0],"split_type":[0,0,0,0,0,0,0],"sum_hessian":[1.077E3,1.069E3,8E0,1E0,7E0,6E0,1E0],"tree_param":{"num_deleted":"0","num_feature":"12","num_nodes":"7","size_leaf_vector":"1"}},{"base_weights":[6.2122012E-6,1.2792798E-7,6.933863E-4,6.5002445E-4,2.3837258E-4,1.4351764E-6,2.81024E-4],"categories":[],"categories_nodes":[],"categories_segments":[],"categories_sizes":[],"default_left":[0,0,0,0,0,0,0],"id":42,"left_children":[1,-1,3,-1,5,-1,-1],"loss_changes":[4.285654E-6,0E0,5.517105E-6,0E0,1.3005766E-6,0E0,0E0],"parents":[2147483647,0,0,2,2,4,4],"right_children":[2,-1,4,-1,6,-1,-1],"split_conditions":[1.2389414E0,1.2792798E-7,1.319662E0,6.5002445E-4,3.2172143E0,1.4351764E-6,2.81024E-4],"split_indices":[0,0,0,0,0,0,0],"split_type":[0,0,0,0,0,0,0],"sum_hessian":[1.077E3,1.069E3,8E0,1E0,7E0,6E0,1E0],"tree_param":{"num_deleted":"0","num_feature":"12","num_nodes":"7","size_leaf_vector":"1"}},{"base_weights":[5.2136475E-6,8.956467E-8,5.889849E-4,5.5253506E-4,2.0216218E-4,-3.831715E-5,1.6919375E-4],"categories":[],"categories_nodes":[],"categories_segments":[],"categories_sizes":[],"default_left":[0,0,0,0,0,0,0],"id":43,"left_children":[1,-1,3,-1,5,-1,-1],"loss_changes":[3.0929223E-6,0E0,3.98916E-6,0E0,1.0269005E-6,0E0,0E0],"parents":[2147483647,0,0,2,2,4,4],"right_children":[2,-1,4,-1,6,-1,-1],"split_conditions":[1.2389414E0,8.956467E-8,1.319662E0,5.5253506E-4,1.7317975E2,-3.831715E-5,1.6919375E-4],"split_indices":[0,0,0,0,11,0,0],"split_type":[0,0,0,0,0,0,0],"sum_hessian":[1.077E3,1.069E3,8E0,1E0,7E0,4E0,3E0],"tree_param":{"num_deleted":"0","num_feature":"12","num_nodes":"7","size_leaf_vector":"1"}},{"base_weights":[4.2831985E-6,-2.1370646E-7,4.135891E-4,5.503392E-4,-6.770728E-5,2.6355984E-4,1.3042241E-4,1.3524928E-4,-1.0207891E-4],"categories":[],"categories_nodes":[],"categories_segments":[],"categories_sizes":[],"default_left":[0,0,0,0,0,0,0,0,0],"id":44,"left_children":[1,-1,3,5,-1,-1,7,-1,-1],"loss_changes":[2.2044912E-6,0E0,1.2606872E-6,1.4013731E-6,0E0,0E0,1.0582708E-6,0E0,0E0],"parents":[2147483647,0,0,2,2,3,3,6,6],"right_children":[2,-1,4,6,-1,-1,8,-1,-1],"split_conditions":[5.579055E-1,-2.1370646E-7,1.1292E2,-1.8369701E-16,-6.770728E-5,2.6355984E-4,8.660254E-1,1.3524928E-4,-1.0207891E-4],"split_indices":[0,0,5,2,0,0,1,0,0],"split_type":[0,0,0,0,0,0,0,0,0],"sum_hessian":[1.077E3,1.065E3,1.2E1,1E1,2E0,5E0,5E0,3E0,2E0],"tree_param":{"num_deleted":"0","num_feature":"12","num_nodes":"9","size_leaf_vector":"1"}},{"base_weights":[3.2106518E-6,5.4277396E-9,3.8241374E-4,-5.2761784E-6,3.5648348E-4],"categories":[],"categories_nodes":[],"categories_segments":[],"categories_sizes":[],"default_left":[0,0,0,0,0],"id":45,"left_children":[1,-1,3,-1,-1],"loss_changes":[1.3050505E-6,0E0,2.9220178E-6,0E0,0E0],"parents":[2147483647,0,0,2,2],"right_children":[2,-1,4,-1,-1],"split_conditions":[1.2389414E0,5.4277396E-9,1.326054E2,-5.2761784E-6,3.5648348E-4],"split_indices":[0,0,7,0,0],"split_type":[0,0,0,0,0],"sum_hessian":[1.077E3,1.069E3,8E0,6E0,2E0],"tree_param":{"num_deleted":"0","num_feature":"12","num_nodes":"5","size_leaf_vector":"1"}},{"base_weights":[2.5730035E-6,-5.600379E-7,2.2613165E-4,1.6134977E-3,-1.448345E-6,6.548703E-4,7.1203714E-5],"categories":[],"categories_nodes":[],"categories_segments":[],"categories_sizes":[],"default_left":[0,0,0,0,0,0,0],"id":46,"left_children":[1,-1,3,5,-1,-1,-1],"loss_changes":[1.0703965E-6,0E0,6.736722E-6,1.8326546E-6,0E0,0E0,0E0],"parents":[2147483647,0,0,2,2,3,3],"right_children":[2,-1,4,6,-1,-1,-1],"split_conditions":[9.161268E2,-5.600379E-7,9.185963E2,5.579055E-1,-1.448345E-6,6.548703E-4,7.1203714E-5],"split_indices":[6,0,6,0,0,0,0],"split_type":[0,0,0,0,0,0,0],"sum_hessian":[1.077E3,1.057E3,2E1,2E0,1.8E1,1E0,1E0],"tree_param":{"num_deleted":"0","num_feature":"12","num_nodes":"7","size_leaf_vector":"1"}},{"base_weights":[2.472474E-6],"categories":[],"categories_nodes":[],"categories_segments":[],"categories_sizes":[],"default_left":[0],"id":47,"left_children":[-1],"loss_changes":[0E0],"parents":[2147483647],"right_children":[-1],"split_conditions":[7.4174227E-7],"split_indices":[0],"split_type":[0],"sum_hessian":[1.077E3],"tree_param":{"num_deleted":"0","num_feature":"12","num_nodes":"1","size_leaf_vector":"1"}},{"base_weights":[1.7314908E-6],"categories":[],"categories_nodes":[],"categories_segments":[],"categories_sizes":[],"default_left":[0],"id":48,"left_children":[-1],"loss_changes":[0E0],"parents":[2147483647],"right_children":[-1],"split_conditions":[5.1944727E-7],"split_indices":[0],"split_type":[0],"sum_hessian":[1.077E3],"tree_param":{"num_deleted":"0","num_feature":"12","num_nodes":"1","size_leaf_vector":"1"}},{"base_weights":[1.2129427E-6],"categories":[],"categories_nodes":[],"categories_segments":[],"categories_sizes":[],"default_left":[0],"id":49,"left_children":[-1],"loss_changes":[0E0],"parents":[2147483647],"right_children":[-1],"split_conditions":[3.6388283E-7],"split_indices":[0],"split_type":[0],"sum_hessian":[1.077E3],"tree_param":{"num_deleted":"0","num_feature":"12","num_nodes":"1","size_leaf_vector":"1"}},{"base_weights":[8.488028E-7],"categories":[],"categories_nodes":[],"categories_segments":[],"categories_sizes":[],"default_left":[0],"id":50,"left_children":[-1],"loss_changes":[0E0],"parents":[2147483647],"right_children":[-1],"split_conditions":[2.5464087E-7],"split_indices":[0],"split_type":[0],"sum_hessian":[1.077E3],"tree_param":{"num_deleted":"0","num_feature":"12","num_nodes":"1","size_leaf_vector":"1"}},{"base_weights":[5.943585E-7],"categories":[],"categories_nodes":[],"categories_segments":[],"categories_sizes":[],"default_left":[0],"id":51,"left_children":[-1],"loss_changes":[0E0],"parents":[2147483647],"right_children":[-1],"split_conditions":[1.7830754E-7],"split_indices":[0],"split_type":[0],"sum_hessian":[1.077E3],"tree_param":{"num_deleted":"0","num_feature":"12","num_nodes":"1","size_leaf_vector":"1"}},{"base_weights":[4.1637628E-7],"categories":[],"categories_nodes":[],"categories_segments":[],"categories_sizes":[],"default_left":[0],"id":52,"left_children":[-1],"loss_changes":[0E0],"parents":[2147483647],"right_children":[-1],"split_conditions":[1.2491289E-7],"split_indices":[0],"split_type":[0],"sum_hessian":[1.077E3],"tree_param":{"num_deleted":"0","num_feature":"12","num_nodes":"1","size_leaf_vector":"1"}},{"base_weights":[2.9119894E-7],"categories":[],"categories_nodes":[],"categories_segments":[],"categories_sizes":[],"default_left":[0],"id":53,"left_children":[-1],"loss_changes":[0E0],"parents":[2147483647],"right_children":[-1],"split_conditions":[8.735969E-8],"split_indices":[0],"split_type":[0],"sum_hessian":[1.077E3],"tree_param":{"num_deleted":"0","num_feature":"12","num_nodes":"1","size_leaf_vector":"1"}},{"base_weights":[2.0428264E-7],"categories":[],"categories_nodes":[],"categories_segments":[],"categories_sizes":[],"default_left":[0],"id":54,"left_children":[-1],"loss_changes":[0E0],"parents":[2147483647],"right_children":[-1],"split_conditions":[6.1284794E-8],"split_indices":[0],"split_type":[0],"sum_hessian":[1.077E3],"tree_param":{"num_deleted":"0","num_feature":"12","num_nodes":"1","size_leaf_vector":"1"}},{"base_weights":[1.4313053E-7],"categories":[],"categories_nodes":[],"categories_segments":[],"categories_sizes":[],"default_left":[0],"id":55,"left_children":[-1],"loss_changes":[0E0],"parents":[2147483647],"right_children":[-1],"split_conditions":[4.2939163E-8],"split_indices":[0],"split_type":[0],"sum_hessian":[1.077E3],"tree_param":{"num_deleted":"0","num_feature":"12","num_nodes":"1","size_leaf_vector":"1"}},{"base_weights":[1.0065234E-7],"categories":[],"categories_nodes":[],"categories_segments":[],"categories_sizes":[],"default_left":[0],"id":56,"left_children":[-1],"loss_changes":[0E0],"parents":[2147483647],"right_children":[-1],"split_conditions":[3.0195704E-8],"split_indices":[0],"split_type":[0],"sum_hessian":[1.077E3],"tree_param":{"num_deleted":"0","num_feature":"12","num_nodes":"1","size_leaf_vector":"1"}},{"base_weights":[7.0765445E-8],"categories":[],"categories_nodes":[],"categories_segments":[],"categories_sizes":[],"default_left":[0],"id":57,"left_children":[-1],"loss_changes":[0E0],"parents":[2147483647],"right_children":[-1],"split_conditions":[2.1229635E-8],"split_indices":[0],"split_type":[0],"sum_hessian":[1.077E3],"tree_param":{"num_deleted":"0","num_feature":"12","num_nodes":"1","size_leaf_vector":"1"}},{"base_weights":[4.979094E-8],"categories":[],"categories_nodes":[],"categories_segments":[],"categories_sizes":[],"default_left":[0],"id":58,"left_children":[-1],"loss_changes":[0E0],"parents":[2147483647],"right_children":[-1],"split_conditions":[1.4937283E-8],"split_indices":[0],"split_type":[0],"sum_hessian":[1.077E3],"tree_param":{"num_deleted":"0","num_feature":"12","num_nodes":"1","size_leaf_vector":"1"}},{"base_weights":[3.503356E-8],"categories":[],"categories_nodes":[],"categories_segments":[],"categories_sizes":[],"default_left":[0],"id":59,"left_children":[-1],"loss_changes":[0E0],"parents":[2147483647],"right_children":[-1],"split_conditions":[1.05100675E-8],"split_indices":[0],"split_type":[0],"sum_hessian":[1.077E3],"tree_param":{"num_deleted":"0","num_feature":"12","num_nodes":"1","size_leaf_vector":"1"}},{"base_weights":[2.4652996E-8],"categories":[],"categories_nodes":[],"categories_segments":[],"categories_sizes":[],"default_left":[0],"id":60,"left_children":[-1],"loss_changes":[0E0],"parents":[2147483647],"right_children":[-1],"split_conditions":[7.395899E-9],"split_indices":[0],"split_type":[0],"sum_hessian":[1.077E3],"tree_param":{"num_deleted":"0","num_feature":"12","num_nodes":"1","size_leaf_vector":"1"}},{"base_weights":[1.734613E-8],"categories":[],"categories_nodes":[],"categories_segments":[],"categories_sizes":[],"default_left":[0],"id":61,"left_children":[-1],"loss_changes":[0E0],"parents":[2147483647],"right_children":[-1],"split_conditions":[5.203839E-9],"split_indices":[0],"split_type":[0],"sum_hessian":[1.077E3],"tree_param":{"num_deleted":"0","num_feature":"12","num_nodes":"1","size_leaf_vector":"1"}},{"base_weights":[1.2202738E-8],"categories":[],"categories_nodes":[],"categories_segments":[],"categories_sizes":[],"default_left":[0],"id":62,"left_children":[-1],"loss_changes":[0E0],"parents":[2147483647],"right_children":[-1],"split_conditions":[3.6608216E-9],"split_indices":[0],"split_type":[0],"sum_hessian":[1.077E3],"tree_param":{"num_deleted":"0","num_feature":"12","num_nodes":"1","size_leaf_vector":"1"}},{"base_weights":[8.589575E-9],"categories":[],"categories_nodes":[],"categories_segments":[],"categories_sizes":[],"default_left":[0],"id":63,"left_children":[-1],"loss_changes":[0E0],"parents":[2147483647],"right_children":[-1],"split_conditions":[2.5768727E-9],"split_indices":[0],"split_type":[0],"sum_hessian":[1.077E3],"tree_param":{"num_deleted":"0","num_feature":"12","num_nodes":"1","size_leaf_vector":"1"}},{"base_weights":[6.0464624E-9],"categories":[],"categories_nodes":[],"categories_segments":[],"categories_sizes":[],"default_left":[0],"id":64,"left_children":[-1],"loss_changes":[0E0],"parents":[2147483647],"right_children":[-1],"split_conditions":[1.8139388E-9],"split_indices":[0],"split_type":[0],"sum_hessian":[1.077E3],"tree_param":{"num_deleted":"0","num_feature":"12","num_nodes":"1","size_leaf_vector":"1"}},{"base_weights":[4.2564494E-9],"categories":[],"categories_nodes":[],"categories_segments":[],"categories_sizes":[],"default_left":[0],"id":65,"left_children":[-1],"loss_changes":[0E0],"parents":[2147483647],"right_children":[-1],"split_conditions":[1.2769349E-9],"split_indices":[0],"split_type":[0],"sum_hessian":[1.077E3],"tree_param":{"num_deleted":"0","num_feature":"12","num_nodes":"1","size_leaf_vector":"1"}},{"base_weights":[2.9960991E-9],"categories":[],"categories_nodes":[],"categories_segments":[],"categories_sizes":[],"default_left":[0],"id":66,"left_children":[-1],"loss_changes":[0E0],"parents":[2147483647],"right_children":[-1],"split_conditions":[8.988298E-10],"split_indices":[0],"split_type":[0],"sum_hessian":[1.077E3],"tree_param":{"num_deleted":"0","num_feature":"12","num_nodes":"1","size_leaf_vector":"1"}},{"base_weights":[2.1092044E-9],"categories":[],"categories_nodes":[],"categories_segments":[],"categories_sizes":[],"default_left":[0],"id":67,"left_children":[-1],"loss_changes":[0E0],"parents":[2147483647],"right_children":[-1],"split_conditions":[6.3276134E-10],"split_indices":[0],"split_type":[0],"sum_hessian":[1.077E3],"tree_param":{"num_deleted":"0","num_feature":"12","num_nodes":"1","size_leaf_vector":"1"}},{"base_weights":[1.4844177E-9],"categories":[],"categories_nodes":[],"categories_segments":[],"categories_sizes":[],"default_left":[0],"id":68,"left_children":[-1],"loss_changes":[0E0],"parents":[2147483647],"right_children":[-1],"split_conditions":[4.4532533E-10],"split_indices":[0],"split_type":[0],"sum_hessian":[1.077E3],"tree_param":{"num_deleted":"0","num_feature":"12","num_nodes":"1","size_leaf_vector":"1"}},{"base_weights":[1.0445758E-9],"categories":[],"categories_nodes":[],"categories_segments":[],"categories_sizes":[],"default_left":[0],"id":69,"left_children":[-1],"loss_changes":[0E0],"parents":[2147483647],"right_children":[-1],"split_conditions":[3.1337274E-10],"split_indices":[0],"split_type":[0],"sum_hessian":[1.077E3],"tree_param":{"num_deleted":"0","num_feature":"12","num_nodes":"1","size_leaf_vector":"1"}},{"base_weights":[7.349207E-10],"categories":[],"categories_nodes":[],"categories_segments":[],"categories_sizes":[],"default_left":[0],"id":70,"left_children":[-1],"loss_changes":[0E0],"parents":[2147483647],"right_children":[-1],"split_conditions":[2.204762E-10],"split_indices":[0],"split_type":[0],"sum_hessian":[1.077E3],"tree_param":{"num_deleted":"0","num_feature":"12","num_nodes":"1","size_leaf_vector":"1"}},{"base_weights":[5.176282E-10],"categories":[],"categories_nodes":[],"categories_segments":[],"categories_sizes":[],"default_left":[0],"id":71,"left_children":[-1],"loss_changes":[0E0],"parents":[2147483647],"right_children":[-1],"split_conditions":[1.5528848E-10],"split_indices":[0],"split_type":[0],"sum_hessian":[1.077E3],"tree_param":{"num_deleted":"0","num_feature":"12","num_nodes":"1","size_leaf_vector":"1"}},{"base_weights":[3.640974E-10],"categories":[],"categories_nodes":[],"categories_segments":[],"categories_sizes":[],"default_left":[0],"id":72,"left_children":[-1],"loss_changes":[0E0],"parents":[2147483647],"right_children":[-1],"split_conditions":[1.0922922E-10],"split_indices":[0],"split_type":[0],"sum_hessian":[1.077E3],"tree_param":{"num_deleted":"0","num_feature":"12","num_nodes":"1","size_leaf_vector":"1"}},{"base_weights":[2.5636868E-10],"categories":[],"categories_nodes":[],"categories_segments":[],"categories_sizes":[],"default_left":[0],"id":73,"left_children":[-1],"loss_changes":[0E0],"parents":[2147483647],"right_children":[-1],"split_conditions":[7.69106E-11],"split_indices":[0],"split_type":[0],"sum_hessian":[1.077E3],"tree_param":{"num_deleted":"0","num_feature":"12","num_nodes":"1","size_leaf_vector":"1"}},{"base_weights":[1.8010779E-10],"categories":[],"categories_nodes":[],"categories_segments":[],"categories_sizes":[],"default_left":[0],"id":74,"left_children":[-1],"loss_changes":[0E0],"parents":[2147483647],"right_children":[-1],"split_conditions":[5.4032338E-11],"split_indices":[0],"split_type":[0],"sum_hessian":[1.077E3],"tree_param":{"num_deleted":"0","num_feature":"12","num_nodes":"1","size_leaf_vector":"1"}},{"base_weights":[1.271158E-10],"categories":[],"categories_nodes":[],"categories_segments":[],"categories_sizes":[],"default_left":[0],"id":75,"left_children":[-1],"loss_changes":[0E0],"parents":[2147483647],"right_children":[-1],"split_conditions":[3.8134742E-11],"split_indices":[0],"split_type":[0],"sum_hessian":[1.077E3],"tree_param":{"num_deleted":"0","num_feature":"12","num_nodes":"1","size_leaf_vector":"1"}},{"base_weights":[8.9428305E-11],"categories":[],"categories_nodes":[],"categories_segments":[],"categories_sizes":[],"default_left":[0],"id":76,"left_children":[-1],"loss_changes":[0E0],"parents":[2147483647],"right_children":[-1],"split_conditions":[2.6828493E-11],"split_indices":[0],"split_type":[0],"sum_hessian":[1.077E3],"tree_param":{"num_deleted":"0","num_feature":"12","num_nodes":"1","size_leaf_vector":"1"}},{"base_weights":[6.342924E-11],"categories":[],"categories_nodes":[],"categories_segments":[],"categories_sizes":[],"default_left":[0],"id":77,"left_children":[-1],"loss_changes":[0E0],"parents":[2147483647],"right_children":[-1],"split_conditions":[1.9028773E-11],"split_indices":[0],"split_type":[0],"sum_hessian":[1.077E3],"tree_param":{"num_deleted":"0","num_feature":"12","num_nodes":"1","size_leaf_vector":"1"}},{"base_weights":[4.4612487E-11],"categories":[],"categories_nodes":[],"categories_segments":[],"categories_sizes":[],"default_left":[0],"id":78,"left_children":[-1],"loss_changes":[0E0],"parents":[2147483647],"right_children":[-1],"split_conditions":[1.3383746E-11],"split_indices":[0],"split_type":[0],"sum_hessian":[1.077E3],"tree_param":{"num_deleted":"0","num_feature":"12","num_nodes":"1","size_leaf_vector":"1"}},{"base_weights":[3.1150617E-11],"categories":[],"categories_nodes":[],"categories_segments":[],"categories_sizes":[],"default_left":[0],"id":79,"left_children":[-1],"loss_changes":[0E0],"parents":[2147483647],"right_children":[-1],"split_conditions":[9.345185E-12],"split_indices":[0],"split_type":[0],"sum_hessian":[1.077E3],"tree_param":{"num_deleted":"0","num_feature":"12","num_nodes":"1","size_leaf_vector":"1"}},{"base_weights":[2.2140881E-11],"categories":[],"categories_nodes":[],"categories_segments":[],"categories_sizes":[],"default_left":[0],"id":80,"left_children":[-1],"loss_changes":[0E0],"parents":[2147483647],"right_children":[-1],"split_conditions":[6.6422644E-12],"split_indices":[0],"split_type":[0],"sum_hessian":[1.077E3],"tree_param":{"num_deleted":"0","num_feature":"12","num_nodes":"1","size_leaf_vector":"1"}},{"base_weights":[1.5838539E-11],"categories":[],"categories_nodes":[],"categories_segments":[],"categories_sizes":[],"default_left":[0],"id":81,"left_children":[-1],"loss_changes":[0E0],"parents":[2147483647],"right_children":[-1],"split_conditions":[4.751562E-12],"split_indices":[0],"split_type":[0],"sum_hessian":[1.077E3],"tree_param":{"num_deleted":"0","num_feature":"12","num_nodes":"1","size_leaf_vector":"1"}},{"base_weights":[1.1371215E-11],"categories":[],"categories_nodes":[],"categories_segments":[],"categories_sizes":[],"default_left":[0],"id":82,"left_children":[-1],"loss_changes":[0E0],"parents":[2147483647],"right_children":[-1],"split_conditions":[3.4113645E-12],"split_indices":[0],"split_type":[0],"sum_hessian":[1.077E3],"tree_param":{"num_deleted":"0","num_feature":"12","num_nodes":"1","size_leaf_vector":"1"}},{"base_weights":[7.783857E-12],"categories":[],"categories_nodes":[],"categories_segments":[],"categories_sizes":[],"default_left":[0],"id":83,"left_children":[-1],"loss_changes":[0E0],"parents":[2147483647],"right_children":[-1],"split_conditions":[2.3351572E-12],"split_indices":[0],"split_type":[0],"sum_hessian":[1.077E3],"tree_param":{"num_deleted":"0","num_feature":"12","num_nodes":"1","size_leaf_vector":"1"}},{"base_weights":[5.0840586E-12],"categories":[],"categories_nodes":[],"categories_segments":[],"categories_sizes":[],"default_left":[0],"id":84,"left_children":[-1],"loss_changes":[0E0],"parents":[2147483647],"right_children":[-1],"split_conditions":[1.5252177E-12],"split_indices":[0],"split_type":[0],"sum_hessian":[1.077E3],"tree_param":{"num_deleted":"0","num_feature":"12","num_nodes":"1","size_leaf_vector":"1"}},{"base_weights":[3.3317203E-12],"categories":[],"categories_nodes":[],"categories_segments":[],"categories_sizes":[],"default_left":[0],"id":85,"left_children":[-1],"loss_changes":[0E0],"parents":[2147483647],"right_children":[-1],"split_conditions":[9.995161E-13],"split_indices":[0],"split_type":[0],"sum_hessian":[1.077E3],"tree_param":{"num_deleted":"0","num_feature":"12","num_nodes":"1","size_leaf_vector":"1"}},{"base_weights":[2.4517547E-12],"categories":[],"categories_nodes":[],"categories_segments":[],"categories_sizes":[],"default_left":[0],"id":86,"left_children":[-1],"loss_changes":[0E0],"parents":[2147483647],"right_children":[-1],"split_conditions":[7.3552644E-13],"split_indices":[0],"split_type":[0],"sum_hessian":[1.077E3],"tree_param":{"num_deleted":"0","num_feature":"12","num_nodes":"1","size_leaf_vector":"1"}},{"base_weights":[1.571789E-12],"categories":[],"categories_nodes":[],"categories_segments":[],"categories_sizes":[],"default_left":[0],"id":87,"left_children":[-1],"loss_changes":[0E0],"parents":[2147483647],"right_children":[-1],"split_conditions":[4.715367E-13],"split_indices":[0],"split_type":[0],"sum_hessian":[1.077E3],"tree_param":{"num_deleted":"0","num_feature":"12","num_nodes":"1","size_leaf_vector":"1"}},{"base_weights":[6.994166E-13],"categories":[],"categories_nodes":[],"categories_segments":[],"categories_sizes":[],"default_left":[0],"id":88,"left_children":[-1],"loss_changes":[0E0],"parents":[2147483647],"right_children":[-1],"split_conditions":[2.0982498E-13],"split_indices":[0],"split_type":[0],"sum_hessian":[1.077E3],"tree_param":{"num_deleted":"0","num_feature":"12","num_nodes":"1","size_leaf_vector":"1"}}]},"name":"gbtree"},"learner_model_param":{"base_score":"2.3149094E-2","boost_from_average":"1","num_class":"0","num_feature":"12","num_target":"1"},"objective":{"name":"reg:squarederror","reg_loss_param":{"scale_pos_weight":"1"}}},"version":[2,0,0]}