{"learner":{"attributes":{"scikit_learn":"{\"_estimator_type\": \"regressor\"}"},"feature_names":["outdoor_temp","cyc_hour1","cyc_hour2","cyc_day_type1","cyc_day_type2","direct_solar","diffuse_solar","exp_outdoor_temp"],"feature_types":["float","float","float","float","float","float","float","float"],"gradient_booster":{"model":{"gbtree_model_param":{"num_parallel_tree":"1","num_trees":"95"},"iteration_indptr":[0,1,2,3,4,5,6,7,8,9,10,11,12,13,14,15,16,17,18,19,20,21,22,23,24,25,26,27,28,29,30,31,32,33,34,35,36,37,38,39,40,41,42,43,44,45,46,47,48,49,50,51,52,53,54,55,56,57,58,59,60,61,62,63,64,65,66,67,68,69,70,71,72,73,74,75,76,77,78,79,80,81,82,83,84,85,86,87,88,89,90,91,92,93,94,95],"tree_info":[0,0,0,0,0,0,0,0,0,0,0,0,0,0,0,0,0,0,0,0,0,0,0,0,0,0,0,0,0,0,0,0,0,0,0,0,0,0,0,0,0,0,0,0,0,0,0,0,0,0,0,0,0,0,0,0,0,0,0,0,0,0,0,0,0,0,0,0,0,0,0,0,0,0,0,0,0,0,0,0,0,0,0,0,0,0,0,0,0,0,0,0,0,0,0],"trees":[{"base_weights":[1.1721137E-7,-3.4265625E0,3.5628464E0,-1.990744E-1,-4.605278E0,5.1977534E0,-6.6107416E-1,-3.482281E0,3.2777834E-1,-5.3653507E0,-3.1317027E0,5.7561903E0,1.9223058E0,5.5044335E-1,-8.0001944E-1,-1.1304986E0,-2.6489925E-1,-1.4965217E-1,4.3250686E-1,-1.5257775E0,-4.4093995E0,-1.1012341E0,-6.791412E-1,1.3276141E0,2.0127065E0,-4.40827E-1,1.044259E0,-1.286233E-1,4.3189582E-1],"categories":[],"categories_nodes":[],"categories_segments":[],"categories_sizes":[],"default_left":[0,0,0,0,0,0,0,0,0,0,0,0,0,0,0,0,0,0,0,0,0,0,0,0,0,0,0,0,0],"id":0,"left_children":[1,3,5,7,9,11,13,15,17,19,21,23,25,27,-1,-1,-1,-1,-1,-1,-1,-1,-1,-1,-1,-1,-1,-1,-1],"loss_changes":[4.3827856E3,6.9526807E2,1.2188425E3,8.762974E1,1.3328052E2,2.2123438E2,1.22962326E2,1.8772125E0,4.1233498E1,1.5212451E2,1.4147583E1,1.072583E2,1.1083891E2,2.8479734E1,0E0,0E0,0E0,0E0,0E0,0E0,0E0,0E0,0E0,0E0,0E0,0E0,0E0,0E0,0E0],"parents":[2147483647,0,0,1,1,2,2,3,3,4,4,5,5,6,6,7,7,8,8,9,9,10,10,11,11,12,12,13,13],"right_children":[2,4,6,8,10,12,14,16,18,20,22,24,26,28,-1,-1,-1,-1,-1,-1,-1,-1,-1,-1,-1,-1,-1,-1,-1],"split_conditions":[1.2246469E-16,-5E-1,7.0710677E-1,3.2456E2,2.7764E2,3.4206898E1,2.4528751E1,3.6344166E1,-2.5881904E-1,3.622E1,3.632E1,2.2004E2,3.226E1,7.0710677E-1,-8.0001944E-1,-1.1304986E0,-2.6489925E-1,-1.4965217E-1,4.3250686E-1,-1.5257775E0,-4.4093995E0,-1.1012341E0,-6.791412E-1,1.3276141E0,2.0127065E0,-4.40827E-1,1.044259E0,-1.286233E-1,4.3189582E-1],"split_indices":[1,2,2,5,5,7,7,7,1,0,0,5,0,1,0,0,0,0,0,0,0,0,0,0,0,0,0,0,0],"split_type":[0,0,0,0,0,0,0,0,0,0,0,0,0,0,0,0,0,0,0,0,0,0,0,0,0,0,0,0,0],"sum_hessian":[3.57E2,1.82E2,1.75E2,4.9E1,1.33E2,1.26E2,4.9E1,6E0,4.3E1,8.6E1,4.7E1,1.07E2,1.9E1,3.1E1,1.8E1,5E0,1E0,2.5E1,1.8E1,8.5E1,1E0,2.7E1,2E1,4.7E1,6E1,6E0,1.3E1,1.5E1,1.6E1],"tree_param":{"num_deleted":"0","num_feature":"8","num_nodes":"29","size_leaf_vector":"1"}},{"base_weights":[-1.5030605E-2,-2.4468343E0,2.513578E0,-6.3228786E-1,-3.5142853E0,3.6694806E0,-4.726865E-1,-2.6575348E0,-6.845162E-2,-3.3259318E0,-3.7479894E0,4.814686E0,2.5720627E0,-1.9299436E0,4.0733135E-1,-8.983138E-1,-2.9478538E-1,-3.0747443E-1,1.8007454E-1,-1.081486E0,-6.728697E-1,1.5326219E0,7.644214E-1,1.0096966E0,6.742427E-2,-3.140337E-1,-6.2870073E-1,2.5968462E-1,-2.5800553E-1],"categories":[],"categories_nodes":[],"categories_segments":[],"categories_sizes":[],"default_left":[0,0,0,0,0,0,0,0,0,0,0,0,0,0,0,0,0,0,0,0,0,0,0,0,0,0,0,0,0],"id":1,"left_children":[1,3,5,7,9,11,13,15,17,19,-1,21,23,25,27,-1,-1,-1,-1,-1,-1,-1,-1,-1,-1,-1,-1,-1,-1],"loss_changes":[2.2075208E3,3.522378E2,6.0925684E2,7.860972E1,1.5293958E2,1.4722595E2,6.4906746E1,5.5204697E0,3.5792484E1,2.6364014E1,0E0,2.7639404E1,1.2405191E2,5.871887E-1,1.9330242E1,0E0,0E0,0E0,0E0,0E0,0E0,0E0,0E0,0E0,0E0,0E0,0E0,0E0,0E0],"parents":[2147483647,0,0,1,1,2,2,3,3,4,4,5,5,6,6,7,7,8,8,9,9,11,11,12,12,13,13,14,14],"right_children":[2,4,6,8,10,12,14,16,18,20,-1,22,24,26,28,-1,-1,-1,-1,-1,-1,-1,-1,-1,-1,-1,-1,-1,-1],"split_conditions":[1.2246469E-16,-2.5881904E-1,7.0710677E-1,3.2456E2,2.6921E2,-2.4492937E-16,5E-1,3.526E1,-5E-1,3.412E1,-3.7479894E0,2.4783E2,1.8213E2,-7.818315E-1,7.818315E-1,-8.983138E-1,-2.9478538E-1,-3.0747443E-1,1.8007454E-1,-1.081486E0,-6.728697E-1,1.5326219E0,7.644214E-1,1.0096966E0,6.742427E-2,-3.140337E-1,-6.2870073E-1,2.5968462E-1,-2.5800553E-1],"split_indices":[1,2,2,5,6,3,1,0,1,0,0,6,6,3,3,0,0,0,0,0,0,0,0,0,0,0,0,0,0],"split_type":[0,0,0,0,0,0,0,0,0,0,0,0,0,0,0,0,0,0,0,0,0,0,0,0,0,0,0,0,0],"sum_hessian":[3.57E2,1.82E2,1.75E2,6.8E1,1.14E2,1.26E2,4.9E1,1.4E1,5.4E1,1.13E2,1E0,6E1,6.6E1,1.8E1,3.1E1,1.1E1,3E0,2.2E1,3.2E1,8.8E1,2.5E1,5.2E1,8E0,4.9E1,1.7E1,4E0,1.4E1,2.3E1,8E0],"tree_param":{"num_deleted":"0","num_feature":"8","num_nodes":"29","size_leaf_vector":"1"}},{"base_weights":[-2.2783402E-2,-1.7500676E0,1.773329E0,-2.521107E0,-4.3963867E-1,2.7274249E0,-1.1671317E-1,-2.3676932E0,-7.4593277E0,-1.1657175E0,7.3299205E-1,3.401783E0,1.4422189E0,-9.847751E-1,9.8072463E-1,-7.599439E-1,-3.050297E-1,-3.185791E0,-1.7090665E-1,-4.0229607E-1,-2.1828871E-2,6.273546E-2,3.2402563E-1,6.852906E-1,1.2128073E0,-7.5399226E-1,6.1340296E-1,-4.2017356E-1,-1.2883809E-1,4.5124587E-1,-6.997802E-2],"categories":[],"categories_nodes":[],"categories_segments":[],"categories_sizes":[],"default_left":[0,0,0,0,0,0,0,0,0,0,0,0,0,0,0,0,0,0,0,0,0,0,0,0,0,0,0,0,0,0,0],"id":2,"left_children":[1,3,5,7,9,11,13,15,17,19,21,23,25,27,29,-1,-1,-1,-1,-1,-1,-1,-1,-1,-1,-1,-1,-1,-1,-1,-1],"loss_changes":[1.1137615E3,1.837934E2,3.1769586E2,6.946167E1,5.9602604E1,9.649646E1,5.8124435E1,2.268158E1,5.9263565E1,8.139568E0,4.683629E0,4.5196716E1,1.0522647E2,7.2491684E0,1.7507576E1,0E0,0E0,0E0,0E0,0E0,0E0,0E0,0E0,0E0,0E0,0E0,0E0,0E0,0E0,0E0,0E0],"parents":[2147483647,0,0,1,1,2,2,3,3,4,4,5,5,6,6,7,7,8,8,9,9,10,10,11,11,12,12,13,13,14,14],"right_children":[2,4,6,8,10,12,14,16,18,20,22,24,26,28,30,-1,-1,-1,-1,-1,-1,-1,-1,-1,-1,-1,-1,-1,-1,-1,-1],"split_conditions":[1.2246469E-16,4.4806E2,5E-1,3.68E1,-5E-1,3.246737E1,7.0710677E-1,3.1042E2,3.827E1,3.827E1,-2.5881904E-1,7.469E1,2.8E1,5E-1,7.818315E-1,-7.599439E-1,-3.050297E-1,-3.185791E0,-1.7090665E-1,-4.0229607E-1,-2.1828871E-2,6.273546E-2,3.2402563E-1,6.852906E-1,1.2128073E0,-7.5399226E-1,6.1340296E-1,-4.2017356E-1,-1.2883809E-1,4.5124587E-1,-6.997802E-2],"split_indices":[1,5,2,0,1,7,1,6,0,0,1,5,0,1,3,0,0,0,0,0,0,0,0,0,0,0,0,0,0,0,0],"split_type":[0,0,0,0,0,0,0,0,0,0,0,0,0,0,0,0,0,0,0,0,0,0,0,0,0,0,0,0,0,0,0],"sum_hessian":[3.57E2,1.82E2,1.75E2,1.14E2,6.8E1,1.16E2,5.9E1,1.12E2,2E0,4.2E1,2.6E1,7.5E1,4.1E1,3.3E1,2.6E1,9.9E1,1.3E1,1E0,1E0,3.6E1,6E0,1.1E1,1.5E1,2.9E1,4.6E1,5E0,3.6E1,1.8E1,1.5E1,1.8E1,8E0],"tree_param":{"num_deleted":"0","num_feature":"8","num_nodes":"31","size_leaf_vector":"1"}},{"base_weights":[-2.3963258E-2,-1.2494141E0,1.2503632E0,-1.7480787E0,-1.7174475E-1,1.924219E0,-8.449491E-2,-1.6218581E0,-6.340429E0,-9.2151564E-1,3.687129E-1,2.7140925E0,1.1797491E0,6.2413895E-1,-8.139334E-1,-5.90874E-1,-3.169596E-1,-2.7079222E0,-1.4527074E-1,-4.095198E-1,-1.8974645E-1,4.072916E-2,4.4160178E-1,9.8413134E-1,5.4668427E-1,4.5681074E-3,5.898531E-1,-6.565271E-2,2.5056246E-1,-4.7892532E-1,-1.20768934E-1],"categories":[],"categories_nodes":[],"categories_segments":[],"categories_sizes":[],"default_left":[0,0,0,0,0,0,0,0,0,0,0,0,0,0,0,0,0,0,0,0,0,0,0,0,0,0,0,0,0,0,0],"id":3,"left_children":[1,3,5,7,9,11,13,15,17,19,21,23,25,27,29,-1,-1,-1,-1,-1,-1,-1,-1,-1,-1,-1,-1,-1,-1,-1,-1],"loss_changes":[5.606238E2,9.804318E1,1.5847491E2,6.217285E1,2.4247723E1,6.559839E1,3.1522293E1,2.2097961E1,4.281791E1,2.341566E0,8.79554E0,2.2306213E1,5.6750427E1,5.6985283E0,9.014065E0,0E0,0E0,0E0,0E0,0E0,0E0,0E0,0E0,0E0,0E0,0E0,0E0,0E0,0E0,0E0,0E0],"parents":[2147483647,0,0,1,1,2,2,3,3,4,4,5,5,6,6,7,7,8,8,9,9,10,10,11,11,12,12,13,13,14,14],"right_children":[2,4,6,8,10,12,14,16,18,20,22,24,26,28,30,-1,-1,-1,-1,-1,-1,-1,-1,-1,-1,-1,-1,-1,-1,-1,-1],"split_conditions":[1.2246469E-16,5.606E2,5E-1,3.712E1,-7.0710677E-1,-2.4492937E-16,2.4256E1,3.04E1,3.827E1,-9.659258E-1,3.634111E1,3.058E1,1.7276E2,7.0710677E-1,2.488E1,-5.90874E-1,-3.169596E-1,-2.7079222E0,-1.4527074E-1,-4.095198E-1,-1.8974645E-1,4.072916E-2,4.4160178E-1,9.8413134E-1,5.4668427E-1,4.5681074E-3,5.898531E-1,-6.565271E-2,2.5056246E-1,-4.7892532E-1,-1.20768934E-1],"split_indices":[1,5,2,0,1,3,7,0,0,1,7,0,5,1,0,0,0,0,0,0,0,0,0,0,0,0,0,0,0,0,0],"split_type":[0,0,0,0,0,0,0,0,0,0,0,0,0,0,0,0,0,0,0,0,0,0,0,0,0,0,0,0,0,0,0],"sum_hessian":[3.57E2,1.82E2,1.75E2,1.24E2,5.8E1,1.16E2,5.9E1,1.22E2,2E0,2.4E1,3.4E1,5.5E1,6.1E1,3E1,2.9E1,7.4E1,4.8E1,1E0,1E0,8E0,1.6E1,2.9E1,5E0,3.2E1,2.3E1,2.5E1,3.6E1,6E0,2.4E1,9E0,2E1],"tree_param":{"num_deleted":"0","num_feature":"8","num_nodes":"31","size_leaf_vector":"1"}},{"base_weights":[-2.2828732E-2,-6.8543094E-1,1.2330935E0,3.8645968E-1,-1.133304E0,7.0648855E-1,2.1745005E0,-9.3679047E-1,6.7638713E-1,-1.2565972E0,-3.121075E-1,4.1128002E-2,1.6730394E0,2.2753587E0,3.7651062E-2,9.89687E-2,-3.5912627E-1,-7.838836E-3,2.639751E-1,-3.4985465E-1,-9.4253314E-1,-1.840618E-1,4.233233E-2,9.6347384E-2,-5.0547945E-1,1.2172981E-1,6.619158E-1,5.830446E-1,9.828895E-1,-2.563179E-1,2.732609E-1],"categories":[],"categories_nodes":[],"categories_segments":[],"categories_sizes":[],"default_left":[0,0,0,0,0,0,0,0,0,0,0,0,0,0,0,0,0,0,0,0,0,0,0,0,0,0,0,0,0,0,0],"id":4,"left_children":[1,3,5,7,9,11,13,15,17,19,21,23,25,27,29,-1,-1,-1,-1,-1,-1,-1,-1,-1,-1,-1,-1,-1,-1,-1,-1],"loss_changes":[2.9876453E2,1.1325462E2,5.993669E1,2.7488892E1,1.6414948E1,5.2022686E1,9.397156E0,4.6812057E0,8.316013E0,2.0880692E1,3.2286854E0,2.4225195E1,2.1409271E1,7.5845184E0,3.1150887E0,0E0,0E0,0E0,0E0,0E0,0E0,0E0,0E0,0E0,0E0,0E0,0E0,0E0,0E0,0E0,0E0],"parents":[2147483647,0,0,1,1,2,2,3,3,4,4,5,5,6,6,7,7,8,8,9,9,10,10,11,11,12,12,13,13,14,14],"right_children":[2,4,6,8,10,12,14,16,18,20,22,24,26,28,30,-1,-1,-1,-1,-1,-1,-1,-1,-1,-1,-1,-1,-1,-1,-1,-1],"split_conditions":[5E-1,-7.0710677E-1,2.4189E2,3.2783E2,6.193E2,9.659258E-1,2.0652E2,4.3388373E-1,-2.5881904E-1,3.774E1,3.5244995E1,2.8497997E1,2.377E1,1.4528E2,2.856E1,9.89687E-2,-3.5912627E-1,-7.838836E-3,2.639751E-1,-3.4985465E-1,-9.4253314E-1,-1.840618E-1,4.233233E-2,9.6347384E-2,-5.0547945E-1,1.2172981E-1,6.619158E-1,5.830446E-1,9.828895E-1,-2.563179E-1,2.732609E-1],"split_indices":[1,2,5,5,5,1,6,3,1,0,7,7,0,6,0,0,0,0,0,0,0,0,0,0,0,0,0,0,0,0,0],"split_type":[0,0,0,0,0,0,0,0,0,0,0,0,0,0,0,0,0,0,0,0,0,0,0,0,0,0,0,0,0,0,0],"sum_hessian":[3.57E2,2.34E2,1.23E2,6.9E1,1.65E2,8E1,4.3E1,1.2E1,5.7E1,1.43E2,2.2E1,4.8E1,3.2E1,4.1E1,2E0,2E0,1E1,1.3E1,4.4E1,1.38E2,5E0,1.3E1,9E0,4.2E1,6E0,1E1,2.2E1,3.3E1,8E0,1E0,1E0],"tree_param":{"num_deleted":"0","num_feature":"8","num_nodes":"31","size_leaf_vector":"1"}},{"base_weights":[-1.452941E-2,-5.9366363E-1,7.2230923E-1,-1.040109E0,-1.042777E-1,1.1691037E0,-2.694009E-2,-9.116259E-1,-2.160354E0,-3.6012712E-1,4.2667043E-1,1.8544911E0,8.442325E-1,2.4905857E-1,-6.8477356E-1,-2.8056374E-2,-3.1135428E-1,-2.3126493E-1,-4.116873E-2,-6.315006E-2,3.782777E-1,6.2027955E-1,9.984399E-2,6.212822E-2,3.746672E-1,-4.203106E-2,2.244017E-1,-4.2922634E-1,-2.399696E-2],"categories":[],"categories_nodes":[],"categories_segments":[],"categories_sizes":[],"default_left":[0,0,0,0,0,0,0,0,0,0,0,0,0,0,0,0,0,0,0,0,0,0,0,0,0,0,0,0,0],"id":5,"left_children":[1,3,5,7,9,11,13,15,-1,17,19,21,23,25,27,-1,-1,-1,-1,-1,-1,-1,-1,-1,-1,-1,-1,-1,-1],"loss_changes":[1.531976E2,4.3806854E1,5.292366E1,7.655258E1,1.3330406E1,2.0477966E1,1.10642185E1,1.0642242E1,0E0,5.9369535E0,1.7275436E1,9.364586E0,1.7531166E1,8.454163E0,8.006381E0,0E0,0E0,0E0,0E0,0E0,0E0,0E0,0E0,0E0,0E0,0E0,0E0,0E0,0E0],"parents":[2147483647,0,0,1,1,2,2,3,3,4,4,5,5,6,6,7,7,9,9,10,10,11,11,12,12,13,13,14,14],"right_children":[2,4,6,8,10,12,14,16,-1,18,20,22,24,26,28,-1,-1,-1,-1,-1,-1,-1,-1,-1,-1,-1,-1,-1,-1],"split_conditions":[2.5881904E-1,3.2456E2,5E-1,3.622E1,-2.5881904E-1,-4.3388373E-1,7.818315E-1,2.5490002E1,-2.160354E0,3.616E1,3.59E1,7.4935E2,1.8463E2,7.0710677E-1,2.466E1,-2.8056374E-2,-3.1135428E-1,-2.3126493E-1,-4.116873E-2,-6.315006E-2,3.782777E-1,6.2027955E-1,9.984399E-2,6.212822E-2,3.746672E-1,-4.203106E-2,2.244017E-1,-4.2922634E-1,-2.399696E-2],"split_indices":[1,5,2,0,1,3,3,7,0,0,0,5,5,1,0,0,0,0,0,0,0,0,0,0,0,0,0,0,0],"split_type":[0,0,0,0,0,0,0,0,0,0,0,0,0,0,0,0,0,0,0,0,0,0,0,0,0,0,0,0,0],"sum_hessian":[3.57E2,2E2,1.57E2,1.04E2,9.6E1,9.8E1,5.9E1,1.03E2,1E0,6.5E1,3.1E1,3E1,6.8E1,4.2E1,1.7E1,1.4E1,8.9E1,2.2E1,4.3E1,1.8E1,1.3E1,2.6E1,4E0,2.7E1,4.1E1,2.4E1,1.8E1,7E0,1E1],"tree_param":{"num_deleted":"0","num_feature":"8","num_nodes":"29","size_leaf_vector":"1"}},{"base_weights":[-1.4559535E-2,-3.0845472E-1,7.907425E-1,-6.057203E-1,1.6669694E-1,1.0560127E0,1.4146239E-1,-5.377824E-1,-4.027168E0,-3.0852115E-1,5.044916E-1,9.034408E-1,1.955825E0,2.765079E-1,-5.459719E-1,-8.5646234E-2,-2.3785523E-1,-1.8363008E0,2.4075223E-2,-1.24403834E-1,8.900275E-2,1.9166294E-1,-1.3466078E-1,2.993201E-1,-9.999824E-2,6.297591E-1,1.2132741E-1,-9.998501E-2,2.7303156E-1],"categories":[],"categories_nodes":[],"categories_segments":[],"categories_sizes":[],"default_left":[0,0,0,0,0,0,0,0,0,0,0,0,0,0,0,0,0,0,0,0,0,0,0,0,0,0,0,0,0],"id":6,"left_children":[1,3,5,7,9,11,13,15,17,19,21,23,25,27,-1,-1,-1,-1,-1,-1,-1,-1,-1,-1,-1,-1,-1,-1,-1],"loss_changes":[8.497334E1,3.7248726E1,1.6385147E1,3.5490505E1,1.6529312E1,7.568489E0,8.1845665E0,1.0070042E1,2.629198E1,2.885633E0,7.9738054E0,7.3296776E0,1.1528778E0,1.112146E1,0E0,0E0,0E0,0E0,0E0,0E0,0E0,0E0,0E0,0E0,0E0,0E0,0E0,0E0,0E0],"parents":[2147483647,0,0,1,1,2,2,3,3,4,4,5,5,6,6,7,7,8,8,9,9,10,10,11,11,12,12,13,13],"right_children":[2,4,6,8,10,12,14,16,18,20,22,24,26,28,-1,-1,-1,-1,-1,-1,-1,-1,-1,-1,-1,-1,-1,-1,-1],"split_conditions":[7.0710677E-1,4.5782E2,7.818315E-1,3.68E1,-5E-1,2.88E1,3.07975E1,4.3388373E-1,3.827E1,3.827E1,1E0,2.8783636E1,7.5528E2,2.498E1,-5.459719E-1,-8.5646234E-2,-2.3785523E-1,-1.8363008E0,2.4075223E-2,-1.24403834E-1,8.900275E-2,1.9166294E-1,-1.3466078E-1,2.993201E-1,-9.999824E-2,6.297591E-1,1.2132741E-1,-9.998501E-2,2.7303156E-1],"split_indices":[1,5,3,0,1,0,7,3,0,0,4,7,5,0,0,0,0,0,0,0,0,0,0,0,0,0,0,0,0],"split_type":[0,0,0,0,0,0,0,0,0,0,0,0,0,0,0,0,0,0,0,0,0,0,0,0,0,0,0,0,0],"sum_hessian":[3.57E2,2.62E2,9.5E1,1.61E2,1.01E2,6.7E1,2.8E1,1.59E2,2E0,4.2E1,5.9E1,5.9E1,8E0,2.7E1,1E0,8.1E1,7.8E1,1E0,1E0,3.6E1,6E0,5.2E1,7E0,5.5E1,4E0,7E0,1E0,1.4E1,1.3E1],"tree_param":{"num_deleted":"0","num_feature":"8","num_nodes":"29","size_leaf_vector":"1"}},{"base_weights":[-1.4484096E-2,-3.2916987E-1,3.8593566E-1,-5.7548285E-1,2.0759968E-2,6.3852024E-1,-3.7261136E-2,-4.950773E-1,-3.4926708E0,-6.486756E-1,2.0029847E-1,7.590107E-1,-8.682683E-2,1.0816649E-1,-3.8260153E-1,-2.5238448E-1,-9.46884E-2,-1.5608557E0,-1.0846138E-2,-2.9767108E-1,-1.0195271E-1,2.913853E-2,2.5631404E-1,3.8034728E-1,1.7167394E-1,3.6027145E-1,-1.1319501E-1,-1.2861787E-1,5.226762E-2,-2.901687E-1,-2.9056072E-3],"categories":[],"categories_nodes":[],"categories_segments":[],"categories_sizes":[],"default_left":[0,0,0,0,0,0,0,0,0,0,0,0,0,0,0,0,0,0,0,0,0,0,0,0,0,0,0,0,0,0,0],"id":7,"left_children":[1,3,5,7,9,11,13,15,17,19,21,23,25,27,29,-1,-1,-1,-1,-1,-1,-1,-1,-1,-1,-1,-1,-1,-1,-1,-1],"loss_changes":[4.5237328E1,1.7336596E1,1.6912886E1,2.5948719E1,1.0225843E1,8.718243E0,3.054707E0,6.9410973E0,1.7545712E1,1.5726523E0,4.438285E0,7.351883E0,6.0642166E0,1.599756E0,3.9149392E0,0E0,0E0,0E0,0E0,0E0,0E0,0E0,0E0,0E0,0E0,0E0,0E0,0E0,0E0,0E0,0E0],"parents":[2147483647,0,0,1,1,2,2,3,3,4,4,5,5,6,6,7,7,8,8,9,9,10,10,11,11,12,12,13,13,14,14],"right_children":[2,4,6,8,10,12,14,16,18,20,22,24,26,28,30,-1,-1,-1,-1,-1,-1,-1,-1,-1,-1,-1,-1,-1,-1,-1,-1],"split_conditions":[2.5881904E-1,3.495E1,5E-1,3.78E1,3.434E1,9.749279E-1,7.818315E-1,-2.2252093E-1,-4.3388373E-1,2.96E1,-2.4492937E-16,2.5083334E1,2.4608335E1,2.377E1,2.463E1,-2.5238448E-1,-9.46884E-2,-1.5608557E0,-1.0846138E-2,-2.9767108E-1,-1.0195271E-1,2.913853E-2,2.5631404E-1,3.8034728E-1,1.7167394E-1,3.6027145E-1,-1.1319501E-1,-1.2861787E-1,5.226762E-2,-2.901687E-1,-2.9056072E-3],"split_indices":[1,7,2,0,0,3,3,4,3,0,1,7,7,0,0,0,0,0,0,0,0,0,0,0,0,0,0,0,0,0,0],"split_type":[0,0,0,0,0,0,0,0,0,0,0,0,0,0,0,0,0,0,0,0,0,0,0,0,0,0,0,0,0,0,0],"sum_hessian":[3.57E2,2E2,1.57E2,1.17E2,8.3E1,9.8E1,5.9E1,1.15E2,2E0,1.7E1,6.6E1,8.4E1,1.4E1,4.2E1,1.7E1,3.8E1,7.7E1,1E0,1E0,7E0,1E1,5.8E1,8E0,2.1E1,6.3E1,2E0,1.2E1,4E0,3.8E1,6E0,1.1E1],"tree_param":{"num_deleted":"0","num_feature":"8","num_nodes":"31","size_leaf_vector":"1"}},{"base_weights":[-1.4617195E-2,-2.0281875E-1,3.4217298E-1,3.7567675E-2,-3.8745773E-1,1.4587292E-1,9.523841E-1,-8.075511E-1,1.1723611E-1,-3.2338658E-1,-1.3267274E0,3.0772743E-1,-1.4349289E0,1.2679106E0,4.4224092E-1,-8.8870056E-2,-2.7339682E-1,9.4083406E-2,-1.9732146E-2,-1.7135394E-1,-6.514155E-2,2.467615E-2,2.0780694E-1,-4.943107E-1,-1.3804436E-1,-1.8871308E-3,4.0297014E-1,-2.3534317E-1,2.6661125E-1],"categories":[],"categories_nodes":[],"categories_segments":[],"categories_sizes":[],"default_left":[0,0,0,0,0,0,0,0,0,0,0,0,0,0,0,0,0,0,0,0,0,0,0,0,0,0,0,0,0],"id":8,"left_children":[1,3,5,7,9,11,13,15,17,19,-1,21,23,25,27,-1,-1,-1,-1,-1,-1,-1,-1,-1,-1,-1,-1,-1,-1],"loss_changes":[2.4108553E1,1.0444962E1,1.4714349E1,7.0295906E0,3.295366E1,2.474826E1,4.2681904E0,2.075777E-1,3.4347954E0,3.3512115E0,0E0,7.494523E0,1.1084805E0,1.7360287E0,7.817067E0,0E0,0E0,0E0,0E0,0E0,0E0,0E0,0E0,0E0,0E0,0E0,0E0,0E0,0E0],"parents":[2147483647,0,0,1,1,2,2,3,3,4,4,5,5,6,6,7,7,8,8,9,9,11,11,12,12,13,13,14,14],"right_children":[2,4,6,8,10,12,14,16,18,20,-1,22,24,26,28,-1,-1,-1,-1,-1,-1,-1,-1,-1,-1,-1,-1,-1,-1],"split_conditions":[5E-1,-2.5881904E-1,2.679E1,2.871E1,2.6921E2,2.8608332E1,3.186E1,-7.0710677E-1,6.234898E-1,-2.2252093E-1,-1.3267274E0,2.495E1,3.2762E2,7.969E1,3.099E1,-8.8870056E-2,-2.7339682E-1,9.4083406E-2,-1.9732146E-2,-1.7135394E-1,-6.514155E-2,2.467615E-2,2.0780694E-1,-4.943107E-1,-1.3804436E-1,-1.8871308E-3,4.0297014E-1,-2.3534317E-1,2.6661125E-1],"split_indices":[1,2,0,0,6,7,7,1,4,4,0,0,5,6,0,0,0,0,0,0,0,0,0,0,0,0,0,0,0],"split_type":[0,0,0,0,0,0,0,0,0,0,0,0,0,0,0,0,0,0,0,0,0,0,0,0,0,0,0,0,0],"sum_hessian":[3.57E2,2.34E2,1.23E2,1.02E2,1.32E2,9.4E1,2.9E1,8E0,9.4E1,1.31E2,1E0,8.6E1,8E0,1.7E1,1.2E1,2E0,6E0,4.5E1,4.9E1,3.8E1,9.3E1,5.5E1,3.1E1,6E0,2E0,1E0,1.6E1,3E0,9E0],"tree_param":{"num_deleted":"0","num_feature":"8","num_nodes":"29","size_leaf_vector":"1"}},{"base_weights":[-1.5312002E-2,-2.332565E-1,1.7433406E-1,-6.538875E-1,-9.5625564E-2,1.3043137E-2,3.9054087E-1,-2.4955209E-1,-7.9382545E-1,-1.9484115E-1,1.3324142E-1,1.2769438E-1,-1.3005259E0,6.508876E-1,2.434928E-1,-1.8390484E-1,1.1457024E-1,-3.2715052E-1,-1.13062195E-1,-3.4798935E-2,-3.79858E-1,-4.784129E-3,1.896925E-1,-3.1043002E-3,1.4934583E-1,-4.8943818E-1,-2.1284582E-1,3.8686508E-1,1.2846377E-1,9.600232E-2,-2.3788363E-1],"categories":[],"categories_nodes":[],"categories_segments":[],"categories_sizes":[],"default_left":[0,0,0,0,0,0,0,0,0,0,0,0,0,0,0,0,0,0,0,0,0,0,0,0,0,0,0,0,0,0,0],"id":9,"left_children":[1,3,5,7,9,11,13,15,17,19,21,23,25,27,29,-1,-1,-1,-1,-1,-1,-1,-1,-1,-1,-1,-1,-1,-1,-1,-1],"loss_changes":[1.4837634E1,9.605409E0,6.690367E0,2.1217556E0,2.909771E0,1.6882929E1,2.9807577E0,2.9882364E0,3.300005E0,7.370995E0,2.9138303E0,5.2677116E0,6.028595E-1,3.572013E0,4.536109E0,0E0,0E0,0E0,0E0,0E0,0E0,0E0,0E0,0E0,0E0,0E0,0E0,0E0,0E0,0E0,0E0],"parents":[2147483647,0,0,1,1,2,2,3,3,4,4,5,5,6,6,7,7,8,8,9,9,10,10,11,11,12,12,13,13,14,14],"right_children":[2,4,6,8,10,12,14,16,18,20,22,24,26,28,30,-1,-1,-1,-1,-1,-1,-1,-1,-1,-1,-1,-1,-1,-1,-1,-1],"split_conditions":[-2.4492937E-16,2.871E1,1.3568E2,2.6198334E1,3.5811726E1,2.6640587E1,-4.3388373E-1,6.234898E-1,2.76828E1,3.81E1,-2.5881904E-1,9.659258E-1,2.631E1,3.1544E2,3.52835E1,-1.8390484E-1,1.1457024E-1,-3.2715052E-1,-1.13062195E-1,-3.4798935E-2,-3.79858E-1,-4.784129E-3,1.896925E-1,-3.1043002E-3,1.4934583E-1,-4.8943818E-1,-2.1284582E-1,3.8686508E-1,1.2846377E-1,9.600232E-2,-2.3788363E-1],"split_indices":[1,0,5,7,7,7,3,4,7,0,1,1,0,5,7,0,0,0,0,0,0,0,0,0,0,0,0,0,0,0,0],"split_type":[0,0,0,0,0,0,0,0,0,0,0,0,0,0,0,0,0,0,0,0,0,0,0,0,0,0,0,0,0,0,0],"sum_hessian":[3.57E2,1.66E2,1.91E2,4E1,1.26E2,1.1E2,8.1E1,1.1E1,2.9E1,8.8E1,3.8E1,1.02E2,8E0,2.8E1,5.3E1,7E0,4E0,1.6E1,1.3E1,8.3E1,5E0,3E1,8E0,7.5E1,2.7E1,4E0,4E0,6E0,2.2E1,5E1,3E0],"tree_param":{"num_deleted":"0","num_feature":"8","num_nodes":"31","size_leaf_vector":"1"}},{"base_weights":[-1.3292961E-2,-1.6770631E-1,1.21083714E-1,-5.213179E-1,-8.002565E-2,-9.264839E-2,2.2618271E-1,-3.3302116E-1,-9.2109835E-1,-1.1805871E-1,3.1965145E-1,1.0032463E-1,-6.778377E-1,1.8760036E-1,4.1549435E-1,-1.8215515E-1,3.345749E-2,-6.906491E-2,-3.1951255E-1,-1.923345E-2,-5.161341E-1,5.412598E-3,1.4046028E-1,6.506344E-2,-1.5723653E-1,-1.0929517E-1,-5.7449627E-1,1.3129342E-1,1.150629E-2],"categories":[],"categories_nodes":[],"categories_segments":[],"categories_sizes":[],"default_left":[0,0,0,0,0,0,0,0,0,0,0,0,0,0,0,0,0,0,0,0,0,0,0,0,0,0,0,0,0],"id":10,"left_children":[1,3,5,7,9,11,13,15,17,19,21,23,25,27,-1,-1,-1,-1,-1,-1,-1,-1,-1,-1,-1,-1,-1,-1,-1],"loss_changes":[7.448646E0,5.1361003E0,4.3338575E0,2.1774073E0,2.089865E0,7.295252E0,5.5076604E0,2.9927871E0,7.4928856E-1,1.0608801E1,5.2919984E-1,3.6799593E0,5.508287E0,4.6852994E0,0E0,0E0,0E0,0E0,0E0,0E0,0E0,0E0,0E0,0E0,0E0,0E0,0E0,0E0,0E0],"parents":[2147483647,0,0,1,1,2,2,3,3,4,4,5,5,6,6,7,7,8,8,9,9,10,10,11,11,12,12,13,13],"right_children":[2,4,6,8,10,12,14,16,18,20,22,24,26,28,-1,-1,-1,-1,-1,-1,-1,-1,-1,-1,-1,-1,-1,-1,-1],"split_conditions":[-2.4492937E-16,2.770478E1,2.495E1,2.6988E1,3.827E1,2.4763334E1,1E0,6.234898E-1,-5E-1,3.812E1,1.0741E2,9.749279E-1,1E0,-4.3388373E-1,4.1549435E-1,-1.8215515E-1,3.345749E-2,-6.906491E-2,-3.1951255E-1,-1.923345E-2,-5.161341E-1,5.412598E-3,1.4046028E-1,6.506344E-2,-1.5723653E-1,-1.0929517E-1,-5.7449627E-1,1.3129342E-1,1.150629E-2],"split_indices":[1,7,0,7,0,7,1,4,1,0,6,3,1,3,0,0,0,0,0,0,0,0,0,0,0,0,0,0,0],"split_type":[0,0,0,0,0,0,0,0,0,0,0,0,0,0,0,0,0,0,0,0,0,0,0,0,0,0,0,0,0],"sum_hessian":[3.57E2,1.66E2,1.91E2,3.2E1,1.34E2,6.3E1,1.28E2,2.3E1,9E0,1.23E2,1.1E1,4.8E1,1.5E1,1.25E2,3E0,1.4E1,9E0,2E0,7E0,1.2E2,3E0,4E0,7E0,4.1E1,7E0,1.3E1,2E0,4.6E1,7.9E1],"tree_param":{"num_deleted":"0","num_feature":"8","num_nodes":"29","size_leaf_vector":"1"}},{"base_weights":[-1.2501726E-2,-8.6452134E-2,1.902218E-1,-2.5135258E-1,6.75494E-3,1.1540411E-1,9.006369E-1,-9.43713E-2,-5.177671E-1,-1.9510853E-1,7.504923E-2,2.2701028E-1,-5.4594E-1,1.2798405E-1,3.796898E-1,-8.250651E-2,5.302984E-2,-3.308517E-1,-1.2853587E-1,-1.2625272E-2,-9.933194E-1,2.6213428E-2,-2.2175819E-1,-9.869633E-2,1.0735934E-1,9.75998E-2,-2.2017866E-1,-2.2031594E-2,6.588135E-2],"categories":[],"categories_nodes":[],"categories_segments":[],"categories_sizes":[],"default_left":[0,0,0,0,0,0,0,0,0,0,0,0,0,0,0,0,0,0,0,0,0,0,0,0,0,0,0,0,0],"id":11,"left_children":[1,3,5,7,9,11,13,15,17,19,21,23,25,27,-1,-1,-1,-1,-1,-1,-1,-1,-1,-1,-1,-1,-1,-1,-1],"loss_changes":[5.3833976E0,4.0439787E0,4.998619E0,3.9242363E0,2.3444974E0,6.6192207E0,2.3761535E0,3.0364604E0,1.3564196E0,2.0363785E1,1.3395035E0,5.647089E0,2.3680358E0,8.9945205E-2,0E0,0E0,0E0,0E0,0E0,0E0,0E0,0E0,0E0,0E0,0E0,0E0,0E0,0E0,0E0],"parents":[2147483647,0,0,1,1,2,2,3,3,4,4,5,5,6,6,7,7,8,8,9,9,10,10,11,11,12,12,13,13],"right_children":[2,4,6,8,10,12,14,16,18,20,22,24,26,28,-1,-1,-1,-1,-1,-1,-1,-1,-1,-1,-1,-1,-1,-1,-1],"split_conditions":[7.0710677E-1,2.871E1,2.884E1,2.6198334E1,-8.660254E-1,2.8608332E1,-7.818315E-1,2.604E1,2.6282501E1,2.6921E2,3.9925E1,2.377E1,-4.3388373E-1,2.944E1,3.796898E-1,-8.250651E-2,5.302984E-2,-3.308517E-1,-1.2853587E-1,-1.2625272E-2,-9.933194E-1,2.6213428E-2,-2.2175819E-1,-9.869633E-2,1.0735934E-1,9.75998E-2,-2.2017866E-1,-2.2031594E-2,6.588135E-2],"split_indices":[1,0,0,7,1,7,3,0,7,6,7,0,3,0,0,0,0,0,0,0,0,0,0,0,0,0,0,0,0],"split_type":[0,0,0,0,0,0,0,0,0,0,0,0,0,0,0,0,0,0,0,0,0,0,0,0,0,0,0,0,0],"sum_hessian":[3.57E2,2.62E2,9.5E1,9.4E1,1.68E2,8.7E1,8E0,6E1,3.4E1,4.2E1,1.26E2,7.5E1,1.2E1,3E0,5E0,3.6E1,2.4E1,3E0,3.1E1,4.1E1,1E0,1.25E2,1E0,1.4E1,6.1E1,2E0,1E1,1E0,2E0],"tree_param":{"num_deleted":"0","num_feature":"8","num_nodes":"29","size_leaf_vector":"1"}},{"base_weights":[-1.2608066E-2,-4.6721496E-2,2.383792E-1,-8.66027E-2,2.0849179E-1,-3.859851E-1,4.3927702E-1,-1.9109546E-1,-3.185728E-2,4.2871362E-1,-9.224701E-2,2.6315165E-1,-1.5877624E0,8.110906E-1,4.1623622E-2,-2.1584284E-2,-1.4081232E-1,-2.5071561E-2,1.0370907E-1,4.6450585E-2,2.974052E-1,-1.1174878E-1,2.3008473E-1,-4.6115115E-2,3.0275157E-1,3.9064407E-2,-6.611479E-1,3.696316E-1,1.1795094E-1,-3.8605255E-1,9.1362536E-2],"categories":[],"categories_nodes":[],"categories_segments":[],"categories_sizes":[],"default_left":[0,0,0,0,0,0,0,0,0,0,0,0,0,0,0,0,0,0,0,0,0,0,0,0,0,0,0,0,0,0,0],"id":12,"left_children":[1,3,5,7,9,11,13,15,17,19,21,23,25,27,29,-1,-1,-1,-1,-1,-1,-1,-1,-1,-1,-1,-1,-1,-1,-1,-1],"loss_changes":[3.0763464E0,3.2343714E0,5.5631914E0,1.5613291E0,2.887405E0,8.999117E0,4.8453856E0,3.0829248E0,3.5629258E0,3.6988564E0,4.8606715E0,2.6430664E0,4.520505E0,2.5067377E0,6.329617E0,0E0,0E0,0E0,0E0,0E0,0E0,0E0,0E0,0E0,0E0,0E0,0E0,0E0,0E0,0E0,0E0],"parents":[2147483647,0,0,1,1,2,2,3,3,4,4,5,5,6,6,7,7,8,8,9,9,10,10,11,11,12,12,13,13,14,14],"right_children":[2,4,6,8,10,12,14,16,18,20,22,24,26,28,30,-1,-1,-1,-1,-1,-1,-1,-1,-1,-1,-1,-1,-1,-1,-1,-1],"split_conditions":[9.659258E-1,7.2824E2,2.377E1,2.671E1,8.3309E2,2.4735714E1,2.5083334E1,2.5399332E1,5E-1,4.3388373E-1,3.571786E1,-2.4492937E-16,2.263E1,2.5881904E-1,7.469E1,-2.1584284E-2,-1.4081232E-1,-2.5071561E-2,1.0370907E-1,4.6450585E-2,2.974052E-1,-1.1174878E-1,2.3008473E-1,-4.6115115E-2,3.0275157E-1,3.9064407E-2,-6.611479E-1,3.696316E-1,1.1795094E-1,-3.8605255E-1,9.1362536E-2],"split_indices":[1,5,0,0,5,7,7,7,1,3,7,3,0,2,5,0,0,0,0,0,0,0,0,0,0,0,0,0,0,0,0],"split_type":[0,0,0,0,0,0,0,0,0,0,0,0,0,0,0,0,0,0,0,0,0,0,0,0,0,0,0,0,0,0,0],"sum_hessian":[3.57E2,3.15E2,4.2E1,2.73E2,4.2E1,1E1,3.2E1,9.3E1,1.8E2,2.4E1,1.8E1,7E0,3E0,1.6E1,1.6E1,6.6E1,2.7E1,1.59E2,2.1E1,1.7E1,7E0,1.4E1,4E0,5E0,2E0,1E0,2E0,7E0,9E0,2E0,1.4E1],"tree_param":{"num_deleted":"0","num_feature":"8","num_nodes":"31","size_leaf_vector":"1"}},{"base_weights":[-8.250639E-3,1.9929428E-1,-1.5805593E-2,1.1458288E-2,-1.8234444E-1,-4.3048456E-2,1.1470731E-1,3.0298424E-1,-2.5306383E-1,-2.5341628E-2,3.473425E-2,2.5233075E-2,3.4115106E-1,-3.5208607E-1,-3.5618674E-2],"categories":[],"categories_nodes":[],"categories_segments":[],"categories_sizes":[],"default_left":[0,0,0,0,0,0,0,0,0,0,0,0,0,0,0],"id":13,"left_children":[1,-1,3,5,7,9,11,-1,13,-1,-1,-1,-1,-1,-1],"loss_changes":[1.8295685E0,0E0,1.6139652E0,1.727035E0,4.4714894E0,1.3322169E0,3.2204957E0,0E0,5.7964754E0,0E0,0E0,0E0,0E0,0E0,0E0],"parents":[2147483647,0,0,2,2,3,3,4,4,5,5,6,6,8,8],"right_children":[2,-1,4,6,8,10,12,-1,14,-1,-1,-1,-1,-1,-1],"split_conditions":[2.3569288E1,1.9929428E-1,9.749279E-1,5E-1,2.29E1,3.5811726E1,8.1238E2,3.0298424E-1,2.435E1,-2.5341628E-2,3.473425E-2,2.5233075E-2,3.4115106E-1,-3.5208607E-1,-3.5618674E-2],"split_indices":[7,0,3,1,0,7,5,0,0,0,0,0,0,0,0],"split_type":[0,0,0,0,0,0,0,0,0,0,0,0,0,0,0],"sum_hessian":[3.57E2,3E0,3.54E2,3.05E2,4.9E1,2E2,1.05E2,2E0,4.7E1,1.59E2,4.1E1,1.03E2,2E0,5E0,4.2E1],"tree_param":{"num_deleted":"0","num_feature":"8","num_nodes":"15","size_leaf_vector":"1"}},{"base_weights":[-4.4063125E-3,-2.4884013E-2,1.4618346E-1,-5.0368723E-2,1.380856E-1,4.7712762E-2,5.128825E-1,-5.808803E-2,4.852066E-1,-3.3312398E-1,2.9097107E-1,5.2266264E-1,-8.969123E-2,2.0065825E-1,3.2113343E-1,-2.239255E-2,5.8090784E-2,1.8704644E-1,1.0554314E-2,4.1318893E-2,-3.574651E-1,1.7088448E-1,-1.4366037E-3,2.9321665E-1,-5.2923206E-2,-8.930637E-2,5.1961195E-2,-2.0316124E-2,1.2566172E-1],"categories":[],"categories_nodes":[],"categories_segments":[],"categories_sizes":[],"default_left":[0,0,0,0,0,0,0,0,0,0,0,0,0,0,0,0,0,0,0,0,0,0,0,0,0,0,0,0,0],"id":14,"left_children":[1,3,5,7,9,11,13,15,17,19,21,23,25,27,-1,-1,-1,-1,-1,-1,-1,-1,-1,-1,-1,-1,-1,-1,-1],"loss_changes":[1.1076139E0,1.3193768E0,1.5282205E0,1.160975E0,3.1946967E0,2.3309784E0,1.3519664E0,1.1437073E0,2.2698581E-1,4.6102366E0,2.7223113E0,2.7155173E0,1.5826379E0,4.383143E-1,0E0,0E0,0E0,0E0,0E0,0E0,0E0,0E0,0E0,0E0,0E0,0E0,0E0,0E0,0E0],"parents":[2147483647,0,0,1,1,2,2,3,3,4,4,5,5,6,6,7,7,8,8,9,9,10,10,11,11,12,12,13,13],"right_children":[2,4,6,8,10,12,14,16,18,20,22,24,26,28,-1,-1,-1,-1,-1,-1,-1,-1,-1,-1,-1,-1,-1,-1,-1],"split_conditions":[7.2824E2,9.659258E-1,3.572667E1,4.087E2,2.377E1,3.246737E1,-2.4492937E-16,1E0,6.234898E-1,2.4735714E1,2.5083334E1,-2.2252093E-1,4.3388373E-1,-7.818315E-1,3.2113343E-1,-2.239255E-2,5.8090784E-2,1.8704644E-1,1.0554314E-2,4.1318893E-2,-3.574651E-1,1.7088448E-1,-1.4366037E-3,2.9321665E-1,-5.2923206E-2,-8.930637E-2,5.1961195E-2,-2.0316124E-2,1.2566172E-1],"split_indices":[5,1,7,6,0,7,1,2,4,7,7,4,3,3,0,0,0,0,0,0,0,0,0,0,0,0,0,0,0],"split_type":[0,0,0,0,0,0,0,0,0,0,0,0,0,0,0,0,0,0,0,0,0,0,0,0,0,0,0,0,0],"sum_hessian":[3.57E2,3.15E2,4.2E1,2.73E2,4.2E1,3.4E1,8E0,2.7E2,3E0,1E1,3.2E1,7E0,2.7E1,6E0,2E0,2.54E2,1.6E1,2E0,1E0,7E0,3E0,1.6E1,1.6E1,4E0,3E0,1.5E1,1.2E1,3E0,3E0],"tree_param":{"num_deleted":"0","num_feature":"8","num_nodes":"29","size_leaf_vector":"1"}},{"base_weights":[-1.0843597E-3,1.4021702E-1,-6.35989E-3,-1.780755E-1,3.311905E-4,5.197506E-1,-8.65108E-3,-7.3504545E-2,2.1651204E-1,-1.532064E-1,1.4108557E-3],"categories":[],"categories_nodes":[],"categories_segments":[],"categories_sizes":[],"default_left":[0,0,0,0,0,0,0,0,0,0,0],"id":15,"left_children":[1,-1,3,-1,5,7,9,-1,-1,-1,-1],"loss_changes":[8.8775206E-1,0E0,1.3950522E0,0E0,1.6467752E0,1.1035241E0,2.328747E0,0E0,0E0,0E0,0E0],"parents":[2147483647,0,0,2,2,4,4,5,5,6,6],"right_children":[2,-1,4,-1,6,8,10,-1,-1,-1,-1],"split_conditions":[2.3569288E1,1.4021702E-1,2.3610626E1,-1.780755E-1,2.293E1,-7.818315E-1,2.377E1,-7.3504545E-2,2.1651204E-1,-1.532064E-1,1.4108557E-3],"split_indices":[7,0,7,0,0,3,0,0,0,0,0],"split_type":[0,0,0,0,0,0,0,0,0,0,0],"sum_hessian":[3.57E2,3E0,3.54E2,3E0,3.51E2,5E0,3.46E2,1E0,4E0,8E0,3.38E2],"tree_param":{"num_deleted":"0","num_feature":"8","num_nodes":"11","size_leaf_vector":"1"}},{"base_weights":[-8.8991E-4,3.146427E-2,-8.240103E-2,-1.1176679E-2,1.501454E-1,-1.9625199E-1,9.1773614E-2,-4.646864E-3,-1.8679677E-1,1.7714392E-1,-2.4881345E-1,1.9719239E-1,-2.3565912E-1,6.450337E-1,-2.1500506E-2,-8.040459E-3,8.226026E-2,7.922599E-3,1.2879685E-1,-1.8581247E-1,-4.6739995E-2,2.4189799E-1,-4.8408512E-2,-1.1480942E-1,1.5436707E-2],"categories":[],"categories_nodes":[],"categories_segments":[],"categories_sizes":[],"default_left":[0,0,0,0,0,0,0,0,0,0,0,0,0,0,0,0,0,0,0,0,0,0,0,0,0],"id":16,"left_children":[1,3,5,7,9,11,13,15,-1,17,-1,-1,19,21,23,-1,-1,-1,-1,-1,-1,-1,-1,-1,-1],"loss_changes":[9.4671947E-1,1.3022718E0,2.0406656E0,7.557473E-1,1.9452268E0,2.2403548E0,2.5833406E0,1.174949E0,0E0,2.535483E0,0E0,0E0,1.7420938E0,1.0405707E0,9.4199795E-1,0E0,0E0,0E0,0E0,0E0,0E0,0E0,0E0,0E0,0E0],"parents":[2147483647,0,0,1,1,2,2,3,3,4,4,5,5,6,6,7,7,9,9,12,12,13,13,14,14],"right_children":[2,4,6,8,10,12,14,16,-1,18,-1,-1,20,22,24,-1,-1,-1,-1,-1,-1,-1,-1,-1,-1],"split_conditions":[7.818315E-1,7.0710677E-1,1.1954E2,3.9925E1,3.186E1,2.29E1,3.28E1,3.634111E1,-1.8679677E-1,2.535E1,-2.4881345E-1,1.9719239E-1,2.435E1,9.749279E-1,2.871E1,-8.040459E-3,8.226026E-2,7.922599E-3,1.2879685E-1,-1.8581247E-1,-4.6739995E-2,2.4189799E-1,-4.8408512E-2,-1.1480942E-1,1.5436707E-2],"split_indices":[3,1,6,7,7,0,7,7,0,0,0,0,0,3,0,0,0,0,0,0,0,0,0,0,0],"split_type":[0,0,0,0,0,0,0,0,0,0,0,0,0,0,0,0,0,0,0,0,0,0,0,0,0],"sum_hessian":[3.57E2,2.56E2,1.01E2,1.89E2,6.7E1,6.1E1,4E1,1.88E2,1E0,6.6E1,1E0,2E0,5.9E1,6E0,3.4E1,1.75E2,1.3E1,4.2E1,2.4E1,9E0,5E1,5E0,1E0,5E0,2.9E1],"tree_param":{"num_deleted":"0","num_feature":"8","num_nodes":"25","size_leaf_vector":"1"}},{"base_weights":[-1.0858953E-3,-9.416466E-3,2.2071896E-1,9.993205E-3,-4.103655E-1,1.340231E-1,3.8227892E-1,-3.579645E-2,6.349879E-2,-7.3476493E-1,5.5842943E-2,2.6922226E-3,5.6976948E-2,1.4861546E-1,6.4441683E-3,-1.883809E-1,8.871034E-4,1.1490145E-2,1.1559126E-1,7.718864E-2,-2.3057443E-1,1.28501905E-2,-1.7659951E-2],"categories":[],"categories_nodes":[],"categories_segments":[],"categories_sizes":[],"default_left":[0,0,0,0,0,0,0,0,0,0,0,0,0,0,0,0,0,0,0,0,0,0,0],"id":17,"left_children":[1,3,5,7,9,11,13,15,17,-1,19,21,-1,-1,-1,-1,-1,-1,-1,-1,-1,-1,-1],"loss_changes":[6.635769E-1,2.6967728E0,1.3085139E-1,8.132238E-1,1.5345242E1,7.290271E-2,1.5259254E-1,4.109453E0,1.2259123E0,0E0,2.5229053E0,1.2405783E-2,0E0,0E0,0E0,0E0,0E0,0E0,0E0,0E0,0E0,0E0,0E0],"parents":[2147483647,0,0,1,1,2,2,3,3,4,4,5,5,6,6,7,7,8,8,10,10,11,11],"right_children":[2,4,6,8,10,12,14,16,18,-1,20,22,-1,-1,-1,-1,-1,-1,-1,-1,-1,-1,-1],"split_conditions":[3.5413E2,3.0223E2,4.087E2,2.871E1,3.1105E2,-2.2252093E-1,6.234898E-1,-5E-1,7.0710677E-1,-7.3476493E-1,3.4117E2,3.4848E2,5.6976948E-2,1.4861546E-1,6.4441683E-3,-1.883809E-1,8.871034E-4,1.1490145E-2,1.1559126E-1,7.718864E-2,-2.3057443E-1,1.28501905E-2,-1.7659951E-2],"split_indices":[6,6,6,0,6,4,4,2,1,0,6,5,0,0,0,0,0,0,0,0,0,0,0],"split_type":[0,0,0,0,0,0,0,0,0,0,0,0,0,0,0,0,0,0,0,0,0,0,0],"sum_hessian":[3.57E2,3.45E2,1.2E1,3.3E2,1.5E1,9E0,3E0,1.78E2,1.52E2,2E0,1.3E1,3E0,6E0,2E0,1E0,1E1,1.68E2,1.42E2,1E1,1.1E1,2E0,2E0,1E0],"tree_param":{"num_deleted":"0","num_feature":"8","num_nodes":"23","size_leaf_vector":"1"}},{"base_weights":[-2.8310688E-3,1.3314171E-1,-6.5869093E-3,-3.5913642E-3,-1.6050082E-1,-3.3323365E-1,1.1146265E-3,-1.3999158E-1,3.0057909E-2,-4.297234E-3,3.8597412E-2],"categories":[],"categories_nodes":[],"categories_segments":[],"categories_sizes":[],"default_left":[0,0,0,0,0,0,0,0,0,0,0],"id":18,"left_children":[1,-1,3,5,-1,7,9,-1,-1,-1,-1],"loss_changes":[6.03467E-1,0E0,5.615887E-1,5.5108064E-1,0E0,3.3586013E-1,6.9300044E-1,0E0,0E0,0E0,0E0],"parents":[2147483647,0,0,2,2,3,3,5,5,6,6],"right_children":[2,-1,4,6,-1,8,10,-1,-1,-1,-1],"split_conditions":[2.3401001E1,1.3314171E-1,3.9925E1,2.3610626E1,-1.6050082E-1,2.39E1,9.659258E-1,-1.3999158E-1,3.0057909E-2,-4.297234E-3,3.8597412E-2],"split_indices":[7,0,7,7,0,0,1,0,0,0,0],"split_type":[0,0,0,0,0,0,0,0,0,0,0],"sum_hessian":[3.57E2,2E0,3.55E2,3.54E2,1E0,4E0,3.5E2,3E0,1E0,3.13E2,3.7E1],"tree_param":{"num_deleted":"0","num_feature":"8","num_nodes":"11","size_leaf_vector":"1"}},{"base_weights":[-2.2697595E-3,6.550802E-2,-2.328743E-2,4.046639E-1,9.624532E-3,-3.1575254E-1,1.6690405E-2,-2.3566322E-1,2.262856E-1,2.3930404E-1,-5.786126E-2,-1.95393E-1,-2.8520623E-1,6.570198E-3,8.2074356E-1,9.775401E-2,-3.7225544E-1,-6.33153E-2,1.0526513E-1,-2.5319748E-2,1.3703996E-1,-1.0625281E-1,1.9128023E-1,-2.0268082E-3,7.8099445E-2,7.638645E-2,2.9294816E-1],"categories":[],"categories_nodes":[],"categories_segments":[],"categories_sizes":[],"default_left":[0,0,0,0,0,0,0,0,0,0,0,0,0,0,0,0,0,0,0,0,0,0,0,0,0,0,0],"id":19,"left_children":[1,3,5,7,9,11,13,15,-1,17,19,21,-1,23,25,-1,-1,-1,-1,-1,-1,-1,-1,-1,-1,-1,-1],"loss_changes":[5.1150763E-1,1.6071286E0,3.2089114E0,2.864222E0,1.1608541E0,2.3361177E0,1.9638064E0,3.2264428E0,0E0,9.283127E-1,8.3071876E-1,4.0615153E0,0E0,8.1336194E-1,1.5884638E-2,0E0,0E0,0E0,0E0,0E0,0E0,0E0,0E0,0E0,0E0,0E0,0E0],"parents":[2147483647,0,0,1,1,2,2,3,3,4,4,5,5,6,6,7,7,9,9,10,10,11,11,13,13,14,14],"right_children":[2,4,6,8,10,12,14,16,-1,18,20,22,-1,24,26,-1,-1,-1,-1,-1,-1,-1,-1,-1,-1,-1,-1],"split_conditions":[2.5083334E1,2.5881904E-1,2.594E1,2.377E1,-2.2252093E-1,7.334E1,9.659258E-1,2.366E1,2.262856E-1,2.377E1,2.4838274E1,6.661E1,-2.8520623E-1,1E0,2.6E1,9.775401E-2,-3.7225544E-1,-6.33153E-2,1.0526513E-1,-2.5319748E-2,1.3703996E-1,-1.0625281E-1,1.9128023E-1,-2.0268082E-3,7.8099445E-2,7.638645E-2,2.9294816E-1],"split_indices":[7,2,0,0,4,6,1,0,0,0,7,6,0,2,0,0,0,0,0,0,0,0,0,0,0,0,0],"split_type":[0,0,0,0,0,0,0,0,0,0,0,0,0,0,0,0,0,0,0,0,0,0,0,0,0,0,0],"sum_hessian":[3.57E2,8.4E1,2.73E2,1.1E1,7.3E1,3.2E1,2.41E2,4E0,7E0,1.6E1,5.7E1,2.8E1,4E0,2.39E2,2E0,3E0,1E0,3E0,1.3E1,5.5E1,2E0,2.4E1,4E0,2.28E2,1.1E1,1E0,1E0],"tree_param":{"num_deleted":"0","num_feature":"8","num_nodes":"27","size_leaf_vector":"1"}},{"base_weights":[-6.0915283E-4,5.0951983E-3,-2.2237736E-1,-3.584555E-4,6.3602066E-1,-3.841084E-1,2.291209E-1,2.2434091E-2,-6.042258E-2,2.3391266E-1,5.2296642E-2,8.734385E-2,-5.901581E-1,-4.9821856E-3,1.0808659E-1,-4.9811294E-3,6.9217734E-2,2.213648E-1,-2.5577284E-2,6.398392E-3,3.2906342E-2,-2.0896055E-2,-2.1086127E-1],"categories":[],"categories_nodes":[],"categories_segments":[],"categories_sizes":[],"default_left":[0,0,0,0,0,0,0,0,0,0,0,0,0,0,0,0,0,0,0,0,0,0,0],"id":20,"left_children":[1,3,5,7,9,11,13,15,17,-1,-1,19,21,-1,-1,-1,-1,-1,-1,-1,-1,-1,-1],"loss_changes":[4.540187E-1,1.2045252E0,7.4519885E-1,4.7777253E-1,6.310129E-2,7.3154485E-1,1.0267824E-1,2.0610397E0,1.9662E0,0E0,0E0,2.085749E-3,2.4438024E-1,0E0,0E0,0E0,0E0,0E0,0E0,0E0,0E0,0E0,0E0],"parents":[2147483647,0,0,1,1,2,2,3,3,4,4,5,5,6,6,7,7,8,8,11,11,12,12],"right_children":[2,4,6,8,10,12,14,16,18,-1,-1,20,22,-1,-1,-1,-1,-1,-1,-1,-1,-1,-1],"split_conditions":[3.792E1,3.751E1,8.1808E2,3.394E1,3.665E1,-8.660254E-1,3.844E1,3.099E1,2.0809E2,2.3391266E-1,5.2296642E-2,3.117E1,3.163E1,-4.9821856E-3,1.0808659E-1,-4.9811294E-3,6.9217734E-2,2.213648E-1,-2.5577284E-2,6.398392E-3,3.2906342E-2,-2.0896055E-2,-2.1086127E-1],"split_indices":[7,7,5,0,0,1,0,0,5,0,0,0,0,0,0,0,0,0,0,0,0,0,0],"split_type":[0,0,0,0,0,0,0,0,0,0,0,0,0,0,0,0,0,0,0,0,0,0,0],"sum_hessian":[3.57E2,3.49E2,8E0,3.47E2,2E0,6E0,2E0,2.52E2,9.5E1,1E0,1E0,2E0,4E0,1E0,1E0,2.13E2,3.9E1,2E0,9.3E1,1E0,1E0,1E0,3E0],"tree_param":{"num_deleted":"0","num_feature":"8","num_nodes":"23","size_leaf_vector":"1"}},{"base_weights":[8.503938E-4,-4.124166E-3,2.5087819E-1,3.1284096E-3,-3.1637597E-1,4.92445E-1,-7.060776E-2,-7.404306E-3,2.3534177E-1,-1.2117242E-1,4.4452287E-2,1.8573704E-1,6.048546E-2,-1.4478053E-4,-9.831341E-2,1.4692927E-2,2.2068073E-1],"categories":[],"categories_nodes":[],"categories_segments":[],"categories_sizes":[],"default_left":[0,0,0,0,0,0,0,0,0,0,0,0,0,0,0,0,0],"id":21,"left_children":[1,3,5,7,9,11,-1,13,15,-1,-1,-1,-1,-1,-1,-1,-1],"loss_changes":[4.463073E-1,7.9813945E-1,9.3811303E-1,8.4555644E-1,3.8515317E-1,5.938089E-2,0E0,7.336923E-1,1.3624415E0,0E0,0E0,0E0,0E0,0E0,0E0,0E0,0E0],"parents":[2147483647,0,0,1,1,2,2,3,3,4,4,5,5,7,7,8,8],"right_children":[2,4,6,8,10,12,-1,14,16,-1,-1,-1,-1,-1,-1,-1,-1],"split_conditions":[8.7315E2,8.4331E2,6.234898E-1,7.852E2,3.737E1,3.712E1,-7.060776E-2,3.6666668E1,1.2909E2,-1.2117242E-1,4.4452287E-2,1.8573704E-1,6.048546E-2,-1.4478053E-4,-9.831341E-2,1.4692927E-2,2.2068073E-1],"split_indices":[5,5,4,5,0,0,0,7,6,0,0,0,0,0,0,0,0],"split_type":[0,0,0,0,0,0,0,0,0,0,0,0,0,0,0,0,0],"sum_hessian":[3.57E2,3.51E2,6E0,3.44E2,7E0,4E0,2E0,3.3E2,1.4E1,6E0,1E0,2E0,2E0,3.24E2,6E0,1.1E1,3E0],"tree_param":{"num_deleted":"0","num_feature":"8","num_nodes":"17","size_leaf_vector":"1"}},{"base_weights":[1.2541444E-3,3.3169937E-1,-2.472715E-3,1.346735E-1,4.2897414E-2,-1.0164328E-1,1.3563349E-3,2.837089E-1,-3.5297507E-3,-5.85886E-2,1.2557064E-1,2.6007809E-2,-7.154742E-3],"categories":[],"categories_nodes":[],"categories_segments":[],"categories_sizes":[],"default_left":[0,0,0,0,0,0,0,0,0,0,0,0,0],"id":22,"left_children":[1,3,5,-1,-1,-1,7,9,11,-1,-1,-1,-1],"loss_changes":[4.417054E-1,2.4285078E-2,4.576483E-1,0E0,0E0,0E0,4.866202E-1,4.693353E-1,6.382105E-1,0E0,0E0,0E0,0E0],"parents":[2147483647,0,0,1,1,2,2,6,6,7,7,8,8],"right_children":[2,4,6,-1,-1,-1,8,10,12,-1,-1,-1,-1],"split_conditions":[2.3569288E1,2.338E1,2.3610626E1,1.346735E-1,4.2897414E-2,-1.0164328E-1,2.293E1,-7.818315E-1,-7.818315E-1,-5.85886E-2,1.2557064E-1,2.6007809E-2,-7.154742E-3],"split_indices":[7,0,7,0,0,0,0,3,3,0,0,0,0],"split_type":[0,0,0,0,0,0,0,0,0,0,0,0,0],"sum_hessian":[3.57E2,3E0,3.54E2,1E0,2E0,3E0,3.51E2,5E0,3.46E2,1E0,4E0,6.3E1,2.83E2],"tree_param":{"num_deleted":"0","num_feature":"8","num_nodes":"13","size_leaf_vector":"1"}},{"base_weights":[1.3298109E-3,-4.7842297E-3,1.7801666E-1,1.0832421E-2,-3.0856818E-1,7.7834606E-2,3.0270463E-1,9.799587E-4,2.517634E-1,-7.163112E-1,-2.9390693E-2,7.5969696E-3,1.18457794E-1,1.0641098E-1,1.19429015E-1,-2.2665139E-3,5.2337915E-2,1.2611774E-1,1.41504565E-2,1.3957615E-1,-8.895747E-2,-1.524353E-3,6.8447115E-3,4.1363526E-2,6.1162952E-3,5.7015613E-2,-9.130669E-3],"categories":[],"categories_nodes":[],"categories_segments":[],"categories_sizes":[],"default_left":[0,0,0,0,0,0,0,0,0,0,0,0,0,0,0,0,0,0,0,0,0,0,0,0,0,0,0],"id":23,"left_children":[1,3,5,7,9,11,13,15,17,-1,19,21,23,25,-1,-1,-1,-1,-1,-1,-1,-1,-1,-1,-1,-1,-1],"loss_changes":[3.8758853E-1,1.6495409E0,1.2633705E-1,7.85469E-1,9.797437E0,2.1926295E-2,5.126244E-2,4.7364554E-1,4.2867982E-1,0E0,2.2521431E0,8.87712E-4,6.7119002E-3,4.0122304E-2,0E0,0E0,0E0,0E0,0E0,0E0,0E0,0E0,0E0,0E0,0E0,0E0,0E0],"parents":[2147483647,0,0,1,1,2,2,3,3,4,4,5,5,6,6,7,7,8,8,10,10,11,11,12,12,13,13],"right_children":[2,4,6,8,10,12,14,16,18,-1,20,22,24,26,-1,-1,-1,-1,-1,-1,-1,-1,-1,-1,-1,-1,-1],"split_conditions":[3.6306E2,3.0223E2,3.5134E2,3.81E1,-8.660254E-1,3.394E1,-2.2252093E-1,2.6834E2,3.5874287E1,-7.163112E-1,2.8819E2,3.352E1,3.53E1,3.281E1,1.19429015E-1,-2.2665139E-3,5.2337915E-2,1.2611774E-1,1.41504565E-2,1.3957615E-1,-8.895747E-2,-1.524353E-3,6.8447115E-3,4.1363526E-2,6.1162952E-3,5.7015613E-2,-9.130669E-3],"split_indices":[6,6,5,0,1,0,4,6,7,0,5,0,0,0,0,0,0,0,0,0,0,0,0,0,0,0,0],"split_type":[0,0,0,0,0,0,0,0,0,0,0,0,0,0,0,0,0,0,0,0,0,0,0,0,0,0,0],"sum_hessian":[3.57E2,3.46E2,1.1E1,3.3E2,1.6E1,7E0,4E0,3.18E2,1.2E1,1E0,1.5E1,3E0,4E0,2E0,2E0,3.04E2,1.4E1,6E0,6E0,5E0,1E1,2E0,1E0,3E0,1E0,1E0,1E0],"tree_param":{"num_deleted":"0","num_feature":"8","num_nodes":"27","size_leaf_vector":"1"}},{"base_weights":[2.174404E-4,-6.5865405E-3,1.3708474E-1,9.268802E-3,-7.3031135E-2,-2.399133E-1,3.1416002E-1,6.4021885E-2,-3.1768218E-2,3.8042355E-1,-1.00662686E-1,6.0926057E-2,-3.691307E-1,1.05387054E-1,4.482283E-1,1.899039E-3,7.048894E-2,-6.088645E-1,-1.8836396E-3,-1.8505096E-2,1.6450617E-1,-1.3633565E-2,-1.2807542E-1,-1.807995E-2,-1.2938404E-1,-7.396889E-3,5.2971844E-2,1.8373147E-1,5.1588394E-2],"categories":[],"categories_nodes":[],"categories_segments":[],"categories_sizes":[],"default_left":[0,0,0,0,0,0,0,0,0,0,0,0,0,0,0,0,0,0,0,0,0,0,0,0,0,0,0,0,0],"id":24,"left_children":[1,3,5,7,9,11,13,15,17,19,21,-1,23,25,27,-1,-1,-1,-1,-1,-1,-1,-1,-1,-1,-1,-1,-1,-1],"loss_changes":[3.342877E-1,3.6097455E-1,1.2102408E0,6.244261E-1,8.652518E-1,4.184256E-1,2.8864062E-1,1.1720786E0,8.083894E0,3.307972E-1,1.1155434E0,0E0,6.998688E-2,5.9897028E-2,2.1224475E-1,0E0,0E0,0E0,0E0,0E0,0E0,0E0,0E0,0E0,0E0,0E0,0E0,0E0,0E0],"parents":[2147483647,0,0,1,1,2,2,3,3,4,4,5,5,6,6,7,7,8,8,9,9,10,10,12,12,13,13,14,14],"right_children":[2,4,6,8,10,12,14,16,18,20,22,-1,24,26,28,-1,-1,-1,-1,-1,-1,-1,-1,-1,-1,-1,-1,-1,-1],"split_conditions":[1E0,8.660254E-1,2.601E1,2.7749E2,2.389E1,2.416E1,2.5303637E1,2.96E1,2.7764E2,2.361E1,2.6988E1,6.0926057E-2,-4.3388373E-1,2.67E1,2.672E1,1.899039E-3,7.048894E-2,-6.088645E-1,-1.8836396E-3,-1.8505096E-2,1.6450617E-1,-1.3633565E-2,-1.2807542E-1,-1.807995E-2,-1.2938404E-1,-7.396889E-3,5.2971844E-2,1.8373147E-1,5.1588394E-2],"split_indices":[2,2,0,5,0,0,7,0,5,0,7,0,3,0,0,0,0,0,0,0,0,0,0,0,0,0,0,0,0],"split_type":[0,0,0,0,0,0,0,0,0,0,0,0,0,0,0,0,0,0,0,0,0,0,0,0,0,0,0,0,0],"sum_hessian":[3.57E2,3.41E2,1.6E1,2.76E2,6.5E1,5E0,1.1E1,1.18E2,1.58E2,3E0,6.2E1,1E0,4E0,5E0,6E0,8.9E1,2.9E1,1E0,1.57E2,1E0,2E0,5.4E1,8E0,1E0,3E0,2E0,3E0,3E0,3E0],"tree_param":{"num_deleted":"0","num_feature":"8","num_nodes":"29","size_leaf_vector":"1"}},{"base_weights":[-7.965851E-4,2.7685738E-1,-3.9228364E-3,1.1452732E-1,3.4391403E-2,-5.462963E-2,1.3504488E-2,-3.549681E-2,-1.8120804E-1,2.562798E-3,4.164178E-1,-4.935699E-3,-1.7278634E-1,3.93073E-2,-5.6288824E-3,-1.7366982E-1,2.0363618E-1],"categories":[],"categories_nodes":[],"categories_segments":[],"categories_sizes":[],"default_left":[0,0,0,0,0,0,0,0,0,0,0,0,0,0,0,0,0],"id":25,"left_children":[1,3,5,-1,-1,7,9,11,-1,13,15,-1,-1,-1,-1,-1,-1],"loss_changes":[3.1183586E-1,2.4303526E-2,3.1444547E-1,0E0,0E0,9.351071E-1,1.1671991E0,9.065776E-1,0E0,7.119985E-1,2.2209353E0,0E0,0E0,0E0,0E0,0E0,0E0],"parents":[2147483647,0,0,1,1,2,2,5,5,6,6,7,7,9,9,10,10],"right_children":[2,4,6,-1,-1,8,10,12,-1,14,16,-1,-1,-1,-1,-1,-1],"split_conditions":[2.3569288E1,2.338E1,2.55E1,1.1452732E-1,3.4391403E-2,3.0906E2,9.659258E-1,7.334E1,-1.8120804E-1,2.617E1,4.694E1,-4.935699E-3,-1.7278634E-1,3.93073E-2,-5.6288824E-3,-1.7366982E-1,2.0363618E-1],"split_indices":[7,0,0,0,0,5,1,6,0,7,6,0,0,0,0,0,0],"split_type":[0,0,0,0,0,0,0,0,0,0,0,0,0,0,0,0,0],"sum_hessian":[3.57E2,3E0,3.54E2,1E0,2E0,9E1,2.64E2,8.8E1,2E0,2.58E2,6E0,8.6E1,2E0,3.6E1,2.22E2,1E0,5E0],"tree_param":{"num_deleted":"0","num_feature":"8","num_nodes":"17","size_leaf_vector":"1"}},{"base_weights":[-9.6612005E-4,1.1080911E-2,-7.5397454E-2,2.9975588E-2,-6.948933E-2,5.842366E-1,-1.2993233E-1,1.4919763E-2,5.526472E-1,2.6461983E-1,-1.7931485E-1,2.1679116E-2,2.1924192E-1,-8.8672864E-1,-3.8911067E-2,-2.1168983E-3,4.2809755E-2,2.2610207E-1,6.403771E-2,-2.663126E-2,1.0810953E-1,-5.166905E-1,-3.153113E-2,5.2618507E-2,-3.588325E-1,1.13489345E-1,-3.1128652E-2],"categories":[],"categories_nodes":[],"categories_segments":[],"categories_sizes":[],"default_left":[0,0,0,0,0,0,0,0,0,0,0,0,0,0,0,0,0,0,0,0,0,0,0,0,0,0,0],"id":26,"left_children":[1,3,5,7,9,11,13,15,17,19,21,-1,-1,23,25,-1,-1,-1,-1,-1,-1,-1,-1,-1,-1,-1,-1],"loss_changes":[3.218457E-1,4.7248867E-1,1.8745642E0,1.9669366E0,2.212379E0,2.4734807E-1,3.2030706E0,6.889896E-1,3.16422E-1,5.395222E-1,4.9717827E0,0E0,0E0,1.8527884E0,1.2026807E0,0E0,0E0,0E0,0E0,0E0,0E0,0E0,0E0,0E0,0E0,0E0,0E0],"parents":[2147483647,0,0,1,1,2,2,3,3,4,4,5,5,6,6,7,7,8,8,9,9,10,10,13,13,14,14],"right_children":[2,4,6,8,10,12,14,16,18,20,22,-1,-1,24,26,-1,-1,-1,-1,-1,-1,-1,-1,-1,-1,-1,-1],"split_conditions":[9.749279E-1,2.0652E2,2.369E1,1.9256E2,2.7298E2,2.243E1,2.435E1,3.59E1,3.108E1,2.813E1,-8.660254E-1,2.1679116E-2,2.1924192E-1,5E-1,2.4763334E1,-2.1168983E-3,4.2809755E-2,2.2610207E-1,6.403771E-2,-2.663126E-2,1.0810953E-1,-5.166905E-1,-3.153113E-2,5.2618507E-2,-3.588325E-1,1.13489345E-1,-3.1128652E-2],"split_indices":[3,6,0,6,5,0,0,0,0,0,1,0,0,1,7,0,0,0,0,0,0,0,0,0,0,0,0],"split_type":[0,0,0,0,0,0,0,0,0,0,0,0,0,0,0,0,0,0,0,0,0,0,0,0,0,0,0],"sum_hessian":[3.57E2,3.08E2,4.9E1,2.5E2,5.8E1,3E0,4.6E1,2.44E2,6E0,1.4E1,4.4E1,1E0,2E0,4E0,4.2E1,2.09E2,3.5E1,3E0,3E0,3E0,1.1E1,1E0,4.3E1,1E0,3E0,5E0,3.7E1],"tree_param":{"num_deleted":"0","num_feature":"8","num_nodes":"27","size_leaf_vector":"1"}},{"base_weights":[-1.0082542E-3,-4.1020266E-3,2.738161E-1,4.99334E-2,-2.103527E-2,1.0737744E-1,3.2235147E-3,2.7735376E-1,1.2379646E-2,-1.0982112E-2,-2.7463704E-1,-5.77454E-2,1.6090007E-1,5.6366123E-2,-1.178269E-2,-8.503933E-2,-1.1063921E-3],"categories":[],"categories_nodes":[],"categories_segments":[],"categories_sizes":[],"default_left":[0,0,0,0,0,0,0,0,0,0,0,0,0,0,0,0,0],"id":27,"left_children":[1,3,5,7,9,-1,-1,11,13,15,-1,-1,-1,-1,-1,-1,-1],"loss_changes":[3.0551055E-1,3.258736E-1,8.466029E-2,7.22508E-1,2.4267137E0,0E0,0E0,1.5633798E0,6.782549E-1,5.335985E-1,0E0,0E0,0E0,0E0,0E0,0E0,0E0],"parents":[2147483647,0,0,1,1,2,2,3,3,4,4,7,7,8,8,9,9],"right_children":[2,4,6,8,10,-1,-1,12,14,16,-1,-1,-1,-1,-1,-1,-1],"split_conditions":[4.087E2,2.5083334E1,6.234898E-1,2.5881904E-1,1E0,1.0737744E-1,3.2235147E-3,2.377E1,-2.2252093E-1,2.53E1,-2.7463704E-1,-5.77454E-2,1.6090007E-1,5.6366123E-2,-1.178269E-2,-8.503933E-2,-1.1063921E-3],"split_indices":[6,7,4,2,1,0,0,0,4,7,0,0,0,0,0,0,0],"split_type":[0,0,0,0,0,0,0,0,0,0,0,0,0,0,0,0,0],"sum_hessian":[3.57E2,3.54E2,3E0,8.4E1,2.7E2,2E0,1E0,1.1E1,7.3E1,2.68E2,2E0,4E0,7E0,1.6E1,5.7E1,6E0,2.62E2],"tree_param":{"num_deleted":"0","num_feature":"8","num_nodes":"17","size_leaf_vector":"1"}},{"base_weights":[-9.918705E-4,2.4145412E-1,-3.7208623E-3,9.943314E-2,3.0292895E-2,-1.5932433E-2,5.4245632E-2,7.164351E-3,-1.4732699E-1,-8.140025E-1,9.675395E-2,3.232255E-2,-9.467597E-3,-9.7703956E-2,4.6529084E-2,7.271977E-2,-4.390209E-1,6.9600656E-3,1.01032004E-1],"categories":[],"categories_nodes":[],"categories_segments":[],"categories_sizes":[],"default_left":[0,0,0,0,0,0,0,0,0,0,0,0,0,0,0,0,0,0,0],"id":28,"left_children":[1,3,5,-1,-1,7,9,11,13,15,17,-1,-1,-1,-1,-1,-1,-1,-1],"loss_changes":[2.3776308E-1,1.7098248E-2,2.5215524E-1,0E0,0E0,8.9328426E-1,2.3670394E0,9.8096037E-1,2.4237916E0,2.4128113E0,1.051446E0,0E0,0E0,0E0,0E0,0E0,0E0,0E0,0E0],"parents":[2147483647,0,0,1,1,2,2,5,5,6,6,7,7,8,8,9,9,10,10],"right_children":[2,4,6,-1,-1,8,10,12,14,16,18,-1,-1,-1,-1,-1,-1,-1,-1],"split_conditions":[2.3569288E1,2.338E1,3.59E1,9.943314E-2,3.0292895E-2,5.6893E2,2.7764E2,-4.3388373E-1,4.3388373E-1,3.622E1,-2.5881904E-1,3.232255E-2,-9.467597E-3,-9.7703956E-2,4.6529084E-2,7.271977E-2,-4.390209E-1,6.9600656E-3,1.01032004E-1],"split_indices":[7,0,0,0,0,5,5,3,3,0,1,0,0,0,0,0,0,0,0],"split_type":[0,0,0,0,0,0,0,0,0,0,0,0,0,0,0,0,0,0,0],"sum_hessian":[3.57E2,3E0,3.54E2,1E0,2E0,2.93E2,6.1E1,2.5E2,4.3E1,2E0,5.9E1,6.9E1,1.81E2,2.7E1,1.6E1,1E0,1E0,4.6E1,1.3E1],"tree_param":{"num_deleted":"0","num_feature":"8","num_nodes":"19","size_leaf_vector":"1"}},{"base_weights":[-1.13208E-3,2.9050724E-3,-1.5800667E-1,-4.9481653E-3,2.7040997E-1,-2.4646378E-1,8.244753E-2,2.0364055E-3,-1.4694953E-1,4.4860977E-1,-1.0904217E-1,6.1689377E-2,-3.5946307E-1,-2.1194261E-3,1.7632313E-1,-8.823952E-2,4.421282E-2,1.5236673E-1,1.3940048E-2,-1.1979637E-1,1.14269264E-1,-2.7608871E-3,3.0521108E-2,-2.349186E-3,-1.2846704E-1],"categories":[],"categories_nodes":[],"categories_segments":[],"categories_sizes":[],"default_left":[0,0,0,0,0,0,0,0,0,0,0,0,0,0,0,0,0,0,0,0,0,0,0,0,0],"id":29,"left_children":[1,3,5,7,9,11,-1,13,15,17,19,21,23,-1,-1,-1,-1,-1,-1,-1,-1,-1,-1,-1,-1],"loss_changes":[2.2718996E-1,7.3661083E-1,4.1231787E-1,3.3850938E-1,7.251004E-1,3.0074373E-1,0E0,1.7419329E0,7.364596E-1,1.4327133E-1,7.209774E-1,9.453495E-3,1.4171702E-1,0E0,0E0,0E0,0E0,0E0,0E0,0E0,0E0,0E0,0E0,0E0,0E0],"parents":[2147483647,0,0,1,1,2,2,3,3,4,4,5,5,7,7,8,8,9,9,10,10,11,11,12,12],"right_children":[2,4,6,8,10,12,-1,14,16,18,20,22,24,-1,-1,-1,-1,-1,-1,-1,-1,-1,-1,-1,-1],"split_conditions":[3.792E1,3.6344166E1,4.018E1,8.3309E2,7.818315E-1,-8.660254E-1,8.244753E-2,8.1238E2,3.5526543E1,3.68E1,-2.5881904E-1,3.117E1,3.163E1,-2.1194261E-3,1.7632313E-1,-8.823952E-2,4.421282E-2,1.5236673E-1,1.3940048E-2,-1.1979637E-1,1.14269264E-1,-2.7608871E-3,3.0521108E-2,-2.349186E-3,-1.2846704E-1],"split_indices":[7,7,0,5,3,1,0,5,7,0,1,0,0,0,0,0,0,0,0,0,0,0,0,0,0],"split_type":[0,0,0,0,0,0,0,0,0,0,0,0,0,0,0,0,0,0,0,0,0,0,0,0,0],"sum_hessian":[3.57E2,3.49E2,8E0,3.4E2,9E0,7E0,1E0,3.25E2,1.5E1,6E0,3E0,2E0,5E0,3.21E2,4E0,1E1,5E0,5E0,1E0,2E0,1E0,1E0,1E0,1E0,4E0],"tree_param":{"num_deleted":"0","num_feature":"8","num_nodes":"25","size_leaf_vector":"1"}},{"base_weights":[-3.707409E-5,-2.606543E-3,2.2801256E-1,4.9269176E-3,-1.022453E-1,8.821964E-2,4.478073E-3,-2.8198727E-3,1.4818057E-1,-3.2516035E-1,3.0237861E-2,8.1264134E-4,-8.6399466E-2,-5.9724428E-2,6.2326282E-2,-8.061242E-2,3.2194912E-2],"categories":[],"categories_nodes":[],"categories_segments":[],"categories_sizes":[],"default_left":[0,0,0,0,0,0,0,0,0,0,0,0,0,0,0,0,0],"id":30,"left_children":[1,3,5,7,9,-1,-1,11,13,-1,15,-1,-1,-1,-1,-1,-1],"loss_changes":[2.103703E-1,2.669755E-1,5.191025E-2,3.677471E-1,3.2839851E0,0E0,0E0,4.9742767E-1,3.9305055E-1,0E0,5.5880976E-1,0E0,0E0,0E0,0E0,0E0,0E0],"parents":[2147483647,0,0,1,1,2,2,3,3,4,4,7,7,8,8,10,10],"right_children":[2,4,6,8,10,-1,-1,12,14,-1,16,-1,-1,-1,-1,-1,-1],"split_conditions":[4.087E2,3.0223E2,6.234898E-1,2.6834E2,3.1105E2,8.821964E-2,4.478073E-3,2.5099E2,1.2277E2,-3.2516035E-1,-9.659258E-1,8.1264134E-4,-8.6399466E-2,-5.9724428E-2,6.2326282E-2,-8.061242E-2,3.2194912E-2],"split_indices":[6,6,4,6,6,0,0,6,5,0,2,0,0,0,0,0,0],"split_type":[0,0,0,0,0,0,0,0,0,0,0,0,0,0,0,0,0],"sum_hessian":[3.57E2,3.54E2,3E0,3.3E2,2.4E1,2E0,1E0,3.14E2,1.6E1,2E0,2.2E1,3.09E2,5E0,2E0,1.4E1,4E0,1.8E1],"tree_param":{"num_deleted":"0","num_feature":"8","num_nodes":"17","size_leaf_vector":"1"}},{"base_weights":[-1.0421956E-3,-2.5674613E-2,2.0149637E-2,-1.07481584E-1,-1.3120213E-2,3.230837E-1,1.8303773E-3,-5.9133165E-2,1.18657745E-1,1.6766912E-1,3.3423107E-2,3.443575E-2,-1.1559472E-1,-4.1839432E-2,1.9482884E-3,6.354886E-2,-9.114032E-2,3.4723092E-2,-2.6243592E-2,-6.1382223E-2,1.5566271E-2,-8.9693695E-2,3.754546E-2],"categories":[],"categories_nodes":[],"categories_segments":[],"categories_sizes":[],"default_left":[0,0,0,0,0,0,0,0,0,0,0,0,0,0,0,0,0,0,0,0,0,0,0],"id":31,"left_children":[1,3,5,-1,7,9,11,13,15,-1,17,19,21,-1,-1,-1,-1,-1,-1,-1,-1,-1,-1],"loss_changes":[1.873955E-1,6.884423E-1,1.0704675E0,0E0,9.83239E-1,7.32684E-1,7.046307E-1,6.3354075E-1,1.7175264E0,0E0,6.9841266E-2,6.1134684E-1,1.8033805E0,0E0,0E0,0E0,0E0,0E0,0E0,0E0,0E0,0E0,0E0],"parents":[2147483647,0,0,1,1,2,2,4,4,5,5,6,6,7,7,8,8,10,10,11,11,12,12],"right_children":[2,4,6,-1,8,10,12,14,16,-1,18,20,22,-1,-1,-1,-1,-1,-1,-1,-1,-1,-1],"split_conditions":[-2.4492937E-16,2.3730907E1,2.387E1,-1.07481584E-1,7.0710677E-1,2.434E1,7.0710677E-1,3.3621E2,4.7129E2,1.6766912E-1,9.659258E-1,-9.659258E-1,2.3951E2,-4.1839432E-2,1.9482884E-3,6.354886E-2,-9.114032E-2,3.4723092E-2,-2.6243592E-2,-6.1382223E-2,1.5566271E-2,-8.9693695E-2,3.754546E-2],"split_indices":[3,7,7,0,1,0,1,5,5,0,1,2,5,0,0,0,0,0,0,0,0,0,0],"split_type":[0,0,0,0,0,0,0,0,0,0,0,0,0,0,0,0,0,0,0,0,0,0,0],"sum_hessian":[3.57E2,1.65E2,1.92E2,5E0,1.6E2,1E1,1.82E2,1.19E2,4.1E1,5E0,5E0,1.43E2,3.9E1,5.3E1,6.6E1,3.4E1,7E0,3E0,2E0,9E0,1.34E2,2.2E1,1.7E1],"tree_param":{"num_deleted":"0","num_feature":"8","num_nodes":"23","size_leaf_vector":"1"}},{"base_weights":[-9.996112E-4,-6.691013E-3,1.135568E-1,-3.266113E-2,1.9776758E-2,-1.5415542E-1,2.3794985E-1,-5.605153E-3,-1.7875622E-1,2.4990922E-1,5.1366473E-3,5.229235E-2,-2.5470963E-1,1.0369301E-1,3.190343E-1,-1.0057716E-2,3.768669E-2,-8.672315E-2,7.666397E-2,-8.775549E-2,8.356389E-3,-6.5669063E-3,-9.223266E-2,4.1429214E-2,-1.0249329E-2,1.3553753E-1,3.195548E-2],"categories":[],"categories_nodes":[],"categories_segments":[],"categories_sizes":[],"default_left":[0,0,0,0,0,0,0,0,0,0,0,0,0,0,0,0,0,0,0,0,0,0,0,0,0,0,0],"id":32,"left_children":[1,3,5,7,9,11,13,15,17,-1,19,-1,21,23,25,-1,-1,-1,-1,-1,-1,-1,-1,-1,-1,-1,-1],"loss_changes":[2.3417103E-1,2.3572685E-1,6.0280734E-1,6.8282294E-1,2.0197628E0,2.4256806E-1,9.755212E-2,5.4281145E-1,1.3675153E0,0E0,1.144184E0,0E0,5.465612E-2,3.317541E-2,1.4936757E-1,0E0,0E0,0E0,0E0,0E0,0E0,0E0,0E0,0E0,0E0,0E0,0E0],"parents":[2147483647,0,0,1,1,2,2,3,3,4,4,5,5,6,6,7,7,8,8,10,10,12,12,13,13,14,14],"right_children":[2,4,6,8,10,12,14,16,18,-1,20,-1,22,24,26,-1,-1,-1,-1,-1,-1,-1,-1,-1,-1,-1,-1],"split_conditions":[1E0,8.345E1,2.601E1,5.638E1,2.6975E1,2.416E1,2.5303637E1,2.770478E1,1E0,2.4990922E-1,2.683E1,5.229235E-2,-4.3388373E-1,2.529143E1,2.672E1,-1.0057716E-2,3.768669E-2,-8.672315E-2,7.666397E-2,-8.775549E-2,8.356389E-3,-6.5669063E-3,-9.223266E-2,4.1429214E-2,-1.0249329E-2,1.3553753E-1,3.195548E-2],"split_indices":[2,6,0,6,7,0,7,7,4,0,0,0,3,7,0,0,0,0,0,0,0,0,0,0,0,0,0],"split_type":[0,0,0,0,0,0,0,0,0,0,0,0,0,0,0,0,0,0,0,0,0,0,0,0,0,0,0],"sum_hessian":[3.57E2,3.41E2,1.6E1,1.72E2,1.69E2,5E0,1.1E1,1.46E2,2.6E1,2E0,1.67E2,1E0,4E0,5E0,6E0,1.21E2,2.5E1,2.1E1,5E0,1.1E1,1.56E2,1E0,3E0,4E0,1E0,3E0,3E0],"tree_param":{"num_deleted":"0","num_feature":"8","num_nodes":"27","size_leaf_vector":"1"}},{"base_weights":[2.5060723E-4,2.2591671E-2,-2.8172206E-2,-3.906387E-3,2.499039E-1,-2.4598622E-1,-3.6043988E-3,7.0795636E-3,-1.4754139E-1,1.3050651E-2,4.264563E-1,-5.60289E-1,-9.452788E-2,2.7412626E-1,-2.2093076E-2,-1.3952344E-3,1.5555368E-1,1.378418E-1,-4.679668E-2,1.6180252E-1,4.8164524E-2,1.1645508E-2,-2.1593113E-1,-7.5718123E-3,-8.819409E-2,1.12537436E-1,-1.5873719E-2,-8.4598646E-2,2.8652346E-4],"categories":[],"categories_nodes":[],"categories_segments":[],"categories_sizes":[],"default_left":[0,0,0,0,0,0,0,0,0,0,0,0,0,0,0,0,0,0,0,0,0,0,0,0,0,0,0,0,0],"id":33,"left_children":[1,3,5,7,9,11,13,15,-1,17,19,21,23,25,27,-1,-1,-1,-1,-1,-1,-1,-1,-1,-1,-1,-1,-1,-1],"loss_changes":[2.2796498E-1,1.2116662E0,8.44605E-1,9.736464E-1,8.725915E-1,7.086975E-1,7.4034315E-1,1.0702837E0,0E0,8.263025E-1,2.7361512E-1,5.056728E-1,1.584172E-1,3.1712258E-1,8.0895585E-1,0E0,0E0,0E0,0E0,0E0,0E0,0E0,0E0,0E0,0E0,0E0,0E0,0E0,0E0],"parents":[2147483647,0,0,1,1,2,2,3,3,4,4,5,5,6,6,7,7,9,9,10,10,11,11,12,12,13,13,14,14],"right_children":[2,4,6,8,10,12,14,16,-1,18,20,22,24,26,28,-1,-1,-1,-1,-1,-1,-1,-1,-1,-1,-1,-1,-1,-1],"split_conditions":[3.0653334E1,8.345E1,2.916E1,7.334E1,2.683E1,3.2160477E1,2.2004E2,7.09E1,-1.4754139E-1,-4.3388373E-1,1.2403E2,-2.2252093E-1,1.2423E2,-1.8369701E-16,2.8968E2,-1.3952344E-3,1.5555368E-1,1.378418E-1,-4.679668E-2,1.6180252E-1,4.8164524E-2,1.1645508E-2,-2.1593113E-1,-7.5718123E-3,-8.819409E-2,1.12537436E-1,-1.5873719E-2,-8.4598646E-2,2.8652346E-4],"split_indices":[7,6,0,6,0,7,5,6,0,3,6,4,5,2,5,0,0,0,0,0,0,0,0,0,0,0,0,0,0],"split_type":[0,0,0,0,0,0,0,0,0,0,0,0,0,0,0,0,0,0,0,0,0,0,0,0,0,0,0,0,0],"sum_hessian":[3.57E2,2E2,1.57E2,1.8E2,2E1,1.5E1,1.42E2,1.77E2,3E0,9E0,1.1E1,4E0,1.1E1,8E0,1.34E2,1.74E2,3E0,2E0,7E0,7E0,4E0,1E0,3E0,9E0,2E0,6E0,2E0,1E1,1.24E2],"tree_param":{"num_deleted":"0","num_feature":"8","num_nodes":"29","size_leaf_vector":"1"}},{"base_weights":[2.3166694E-4,4.0579E-2,-1.2285687E-2,-4.286947E-2,1.1226074E-1,-4.8327222E-1,-1.7347389E-3,-1.6774918E-1,1.549344E-1,2.3606533E-1,3.154544E-2,-2.1566392E-1,-8.038203E-3,1.0613766E-1,-5.7229265E-3,-2.6775742E-2,-1.2043401E-1,7.557368E-2,-1.0478211E-1,1.6201688E-2,2.0958586E-1,-1.2035852E-1,2.9072287E-2,-1.0502815E-2,6.885624E-3,-2.8449459E-2,1.787033E-3],"categories":[],"categories_nodes":[],"categories_segments":[],"categories_sizes":[],"default_left":[0,0,0,0,0,0,0,0,0,0,0,0,0,0,0,0,0,0,0,0,0,0,0,0,0,0,0],"id":34,"left_children":[1,3,5,7,9,11,13,15,17,19,21,-1,23,-1,25,-1,-1,-1,-1,-1,-1,-1,-1,-1,-1,-1,-1],"loss_changes":[1.8130352E-1,5.1325977E-1,1.3607649E0,1.0140576E0,4.5222765E-1,6.660335E-1,3.8344198E-1,4.2278194E-1,8.703387E-1,1.4780952E0,8.591398E-1,0E0,3.3110718E-3,0E0,2.7844837E-1,0E0,0E0,0E0,0E0,0E0,0E0,0E0,0E0,0E0,0E0,0E0,0E0],"parents":[2147483647,0,0,1,1,2,2,3,3,4,4,5,5,6,6,7,7,8,8,9,9,10,10,12,12,14,14],"right_children":[2,4,6,8,10,12,14,16,18,20,22,-1,24,-1,26,-1,-1,-1,-1,-1,-1,-1,-1,-1,-1,-1,-1],"split_conditions":[2.5083334E1,2.4077778E1,2.5245556E1,-2.4492937E-16,2.4528751E1,2.494E1,2.416E1,2.442E1,9.749279E-1,2.4431112E1,2.459909E1,-2.1566392E-1,2.668E1,1.0613766E-1,2.601E1,-2.6775742E-2,-1.2043401E-1,7.557368E-2,-1.0478211E-1,1.6201688E-2,2.0958586E-1,-1.2035852E-1,2.9072287E-2,-1.0502815E-2,6.885624E-3,-2.8449459E-2,1.787033E-3],"split_indices":[7,7,7,3,7,0,0,0,3,7,7,0,0,0,0,0,0,0,0,0,0,0,0,0,0,0,0],"split_type":[0,0,0,0,0,0,0,0,0,0,0,0,0,0,0,0,0,0,0,0,0,0,0,0,0,0,0],"sum_hessian":[3.57E2,8.4E1,2.73E2,3.9E1,4.5E1,5E0,2.68E2,2.4E1,1.5E1,1.7E1,2.8E1,3E0,2E0,2E0,2.66E2,1.9E1,5E0,1.3E1,2E0,1.3E1,4E0,3E0,2.5E1,1E0,1E0,3E1,2.36E2],"tree_param":{"num_deleted":"0","num_feature":"8","num_nodes":"27","size_leaf_vector":"1"}},{"base_weights":[-3.450869E-4,1.3270371E-2,-3.512175E-2,-3.952826E-4,3.2016233E-1,-4.631825E-1,-1.7291497E-2,-8.585054E-3,3.9934462E-1,4.3824005E-1,-1.4079158E-1,6.382688E-2,-3.0663162E-1,-1.0157058E-1,4.773157E-2,3.367274E-3,-5.7191398E-2,1.480505E-1,3.4074786E-3,2.5300027E-3,1.9552137E-1,-9.5769316E-2,3.2413103E-2,4.795504E-2,-1.9232942E-2,3.3515137E-2,-6.963029E-2,-5.86285E-3,6.514171E-2],"categories":[],"categories_nodes":[],"categories_segments":[],"categories_sizes":[],"default_left":[0,0,0,0,0,0,0,0,0,0,0,0,0,0,0,0,0,0,0,0,0,0,0,0,0,0,0,0,0],"id":35,"left_children":[1,3,5,7,9,11,13,15,17,19,21,23,-1,25,27,-1,-1,-1,-1,-1,-1,-1,-1,-1,-1,-1,-1,-1,-1],"loss_changes":[1.6997914E-1,1.0821475E0,7.628665E-1,8.153255E-1,6.604128E-1,1.243468E0,5.418964E-1,8.8208705E-1,1.7705292E-1,8.203685E-1,1.6769697E-1,4.710264E-2,0E0,1.223072E0,6.4246345E-1,0E0,0E0,0E0,0E0,0E0,0E0,0E0,0E0,0E0,0E0,0E0,0E0,0E0,0E0],"parents":[2147483647,0,0,1,1,2,2,3,3,4,4,5,5,6,6,7,7,8,8,9,9,10,10,11,11,13,13,14,14],"right_children":[2,4,6,8,10,12,14,16,18,20,22,24,-1,26,28,-1,-1,-1,-1,-1,-1,-1,-1,-1,-1,-1,-1,-1,-1],"split_conditions":[3.420688E1,3.39375E1,3.4472E1,8.1238E2,7.9664E2,3.352E1,3.559E1,5.6893E2,3.256E1,6.2245E2,3.337E1,2.738E1,-3.0663162E-1,2.8819E2,-2.5881904E-1,3.367274E-3,-5.7191398E-2,1.480505E-1,3.4074786E-3,2.5300027E-3,1.9552137E-1,-9.5769316E-2,3.2413103E-2,4.795504E-2,-1.9232942E-2,3.3515137E-2,-6.963029E-2,-5.86285E-3,6.514171E-2],"split_indices":[7,7,7,5,5,0,0,5,0,5,0,0,0,5,1,0,0,0,0,0,0,0,0,0,0,0,0,0,0],"split_type":[0,0,0,0,0,0,0,0,0,0,0,0,0,0,0,0,0,0,0,0,0,0,0,0,0,0,0,0,0],"sum_hessian":[3.57E2,2.57E2,1E2,2.47E2,1E1,3E0,9.7E1,2.43E2,4E0,8E0,2E0,2E0,1E0,4.2E1,5.5E1,2.2E2,2.3E1,3E0,1E0,3E0,5E0,1E0,1E0,1E0,1E0,1.6E1,2.6E1,4E1,1.5E1],"tree_param":{"num_deleted":"0","num_feature":"8","num_nodes":"29","size_leaf_vector":"1"}},{"base_weights":[-3.042108E-4,-5.3945323E-3,1.3520005E-1,-1.8210639E-3,-1.8573618E-1,-1.4580346E-2,1.7303675E-1,-2.7907955E-2,2.0629063E-2,2.0276928E-1,7.03125E-2,-1.6538871E-2,3.6388185E-2,2.0988851E-3,8.6388916E-2,7.099572E-2,2.0224E-2,2.5619507E-2,3.7582398E-3],"categories":[],"categories_nodes":[],"categories_segments":[],"categories_sizes":[],"default_left":[0,0,0,0,0,0,0,0,0,0,0,0,0,0,0,0,0,0,0],"id":36,"left_children":[1,3,5,7,-1,-1,9,11,13,15,17,-1,-1,-1,-1,-1,-1,-1,-1],"loss_changes":[2.4766354E-1,7.576958E-1,9.881736E-2,2.0262635E-1,0E0,0E0,1.9339561E-2,6.5652955E-1,6.758632E-1,2.0736694E-2,2.417121E-3,0E0,0E0,0E0,0E0,0E0,0E0,0E0,0E0],"parents":[2147483647,0,0,1,1,2,2,3,3,6,6,7,7,8,8,9,9,10,10],"right_children":[2,4,6,8,-1,-1,10,12,14,16,18,-1,-1,-1,-1,-1,-1,-1,-1],"split_conditions":[3.5413E2,3.4584E2,2.6714E2,-2.4492937E-16,-1.8573618E-1,-1.4580346E-2,4.039E2,1E0,3.455E1,3.5546955E1,3.281E1,-1.6538871E-2,3.6388185E-2,2.0988851E-3,8.6388916E-2,7.099572E-2,2.0224E-2,2.5619507E-2,3.7582398E-3],"split_indices":[6,6,5,1,0,0,5,4,0,7,0,0,0,0,0,0,0,0,0],"split_type":[0,0,0,0,0,0,0,0,0,0,0,0,0,0,0,0,0,0,0],"sum_hessian":[3.57E2,3.45E2,1.2E1,3.44E2,1E0,2E0,1E1,1.59E2,1.85E2,7E0,3E0,1.35E2,2.4E1,1.77E2,8E0,5E0,2E0,2E0,1E0],"tree_param":{"num_deleted":"0","num_feature":"8","num_nodes":"19","size_leaf_vector":"1"}},{"base_weights":[-1.326766E-4,1.566172E-2,-2.6970278E-2,9.656812E-3,1.376423E-1,-3.3551255E-1,-1.4802204E-2,-2.4011943E-2,5.734089E-2,-1.2528391E-1,-1.0665894E-3,2.9644152E-2,-6.331108E-2,9.07731E-3,-3.408579E-2,-1.0030274E-2,7.199091E-2,-3.3698045E-2,2.6095953E-2,7.482115E-2,-3.0380966E-2],"categories":[],"categories_nodes":[],"categories_segments":[],"categories_sizes":[],"default_left":[0,0,0,0,0,0,0,0,0,0,0,0,0,0,0,0,0,0,0,0,0],"id":37,"left_children":[1,3,5,7,-1,9,11,13,15,-1,-1,17,19,-1,-1,-1,-1,-1,-1,-1,-1],"loss_changes":[1.5217279E-1,5.969668E-1,4.9436423E-1,3.610007E-1,0E0,1.3478452E-1,2.800063E-1,6.4534855E-1,1.5497916E0,0E0,0E0,5.6335545E-1,7.612148E-1,0E0,0E0,0E0,0E0,0E0,0E0,0E0,0E0],"parents":[2147483647,0,0,1,1,2,2,3,3,5,5,6,6,7,7,8,8,11,11,12,12],"right_children":[2,4,6,8,-1,10,12,14,16,-1,-1,18,20,-1,-1,-1,-1,-1,-1,-1,-1],"split_conditions":[3.2512104E1,7.9956E2,3.2687E1,6.234898E-1,1.376423E-1,6.123234E-17,6.234898E-1,2.714E1,2.67E1,-1.2528391E-1,-1.0665894E-3,1.2183E2,2.2004E2,9.07731E-3,-3.408579E-2,-1.0030274E-2,7.199091E-2,-3.3698045E-2,2.6095953E-2,7.482115E-2,-3.0380966E-2],"split_indices":[7,5,7,4,0,2,4,0,0,0,0,6,5,0,0,0,0,0,0,0,0],"split_type":[0,0,0,0,0,0,0,0,0,0,0,0,0,0,0,0,0,0,0,0,0],"sum_hessian":[3.57E2,2.25E2,1.32E2,2.23E2,2E0,4E0,1.28E2,1.31E2,9.2E1,3E0,1E0,6.7E1,6.1E1,8.2E1,4.9E1,6.2E1,3E1,1.9E1,4.8E1,6E0,5.5E1],"tree_param":{"num_deleted":"0","num_feature":"8","num_nodes":"21","size_leaf_vector":"1"}},{"base_weights":[1.4441306E-4,-3.6548942E-3,1.09995686E-1,-1.6609667E-4,-3.0277777E-1,-1.8627802E-2,1.3758317E-1,-3.472089E-3,2.2467461E-1,-6.299528E-2,-1.533188E-1,-9.603882E-3,1.2213708E-3,4.6310805E-2,1.9071293E-1,9.493324E-4,-6.683821E-2,-2.0110989E-2,9.430847E-2,-3.4662154E-2,6.314278E-3,2.4197007E-2,-1.0416032E-3,1.1874963E-2,6.390667E-2],"categories":[],"categories_nodes":[],"categories_segments":[],"categories_sizes":[],"default_left":[0,0,0,0,0,0,0,0,0,0,0,0,0,0,0,0,0,0,0,0,0,0,0,0,0],"id":38,"left_children":[1,3,5,7,9,11,13,15,17,19,-1,-1,-1,21,23,-1,-1,-1,-1,-1,-1,-1,-1,-1,-1],"loss_changes":[1.4981645E-1,3.620717E-1,4.514365E-2,2.5648275E-1,1.6757765E-1,1.0418214E-3,3.9660707E-2,4.955875E-1,1.5188721E-1,1.5680004E-2,0E0,0E0,0E0,8.829215E-3,1.1797488E-2,0E0,0E0,0E0,0E0,0E0,0E0,0E0,0E0,0E0,0E0],"parents":[2147483647,0,0,1,1,2,2,3,3,4,4,5,5,6,6,7,7,8,8,9,9,13,13,14,14],"right_children":[2,4,6,8,10,12,14,16,18,20,-1,-1,-1,22,24,-1,-1,-1,-1,-1,-1,-1,-1,-1,-1],"split_conditions":[3.6306E2,3.4117E2,2.6714E2,3.3451E2,3.28E1,3.352E1,-2.2252093E-1,3.0223E2,2.96E1,2.813E1,-1.533188E-1,-9.603882E-3,1.2213708E-3,3.394E1,3.341E1,9.493324E-4,-6.683821E-2,-2.0110989E-2,9.430847E-2,-3.4662154E-2,6.314278E-3,2.4197007E-2,-1.0416032E-3,1.1874963E-2,6.390667E-2],"split_indices":[6,6,5,6,0,0,4,6,0,0,0,0,0,0,0,0,0,0,0,0,0,0,0,0,0],"split_type":[0,0,0,0,0,0,0,0,0,0,0,0,0,0,0,0,0,0,0,0,0,0,0,0,0],"sum_hessian":[3.57E2,3.46E2,1.1E1,3.43E2,3E0,2E0,9E0,3.39E2,4E0,2E0,1E0,1E0,1E0,4E0,5E0,3.3E2,9E0,1E0,3E0,1E0,1E0,2E0,2E0,1E0,4E0],"tree_param":{"num_deleted":"0","num_feature":"8","num_nodes":"25","size_leaf_vector":"1"}},{"base_weights":[-1.3070599E-4,-3.1479613E-3,1.3226771E-1,-2.1735333E-2,2.3408825E-2,-6.995201E-2,2.1133296E-1,9.403821E-3,-8.8402376E-2,-1.6648736E-2,1.0222871E-1,7.889271E-3,-3.9367676E-2,1.133566E-2,7.15456E-2,6.296093E-3,-2.4357316E-1,-5.0285097E-2,3.0035377E-4,1.29607115E-2,-4.552689E-2,1.0073296E-1,-2.3520879E-4],"categories":[],"categories_nodes":[],"categories_segments":[],"categories_sizes":[],"default_left":[0,0,0,0,0,0,0,0,0,0,0,0,0,0,0,0,0,0,0,0,0,0,0],"id":39,"left_children":[1,3,5,7,9,11,13,15,17,19,21,-1,-1,-1,-1,-1,-1,-1,-1,-1,-1,-1,-1],"loss_changes":[1.4343016E-1,1.7376971E-1,1.4269157E-1,4.3055403E-1,4.5951515E-1,2.1143582E-2,1.9262075E-2,1.367944E0,4.6758425E-1,7.909308E-1,1.1791248E0,0E0,0E0,0E0,0E0,0E0,0E0,0E0,0E0,0E0,0E0,0E0,0E0],"parents":[2147483647,0,0,1,1,2,2,3,3,4,4,5,5,6,6,7,7,8,8,9,9,10,10],"right_children":[2,4,6,8,10,12,14,16,18,20,22,-1,-1,-1,-1,-1,-1,-1,-1,-1,-1,-1,-1],"split_conditions":[3.859E1,4.3388373E-1,1.0741E2,5.1386E2,3.099E1,3.904E1,-7.818315E-1,3.712E1,3.59E1,2.738E1,3.377E1,7.889271E-3,-3.9367676E-2,1.133566E-2,7.15456E-2,6.296093E-3,-2.4357316E-1,-5.0285097E-2,3.0035377E-4,1.29607115E-2,-4.552689E-2,1.0073296E-1,-2.3520879E-4],"split_indices":[0,3,6,5,0,0,3,0,0,0,0,0,0,0,0,0,0,0,0,0,0,0,0],"split_type":[0,0,0,0,0,0,0,0,0,0,0,0,0,0,0,0,0,0,0,0,0,0,0],"sum_hessian":[3.57E2,3.5E2,7E0,2.06E2,1.44E2,2E0,5E0,1.41E2,6.5E1,9.6E1,4.8E1,1E0,1E0,1E0,4E0,1.4E2,1E0,3.4E1,3.1E1,6.7E1,2.9E1,1.4E1,3.4E1],"tree_param":{"num_deleted":"0","num_feature":"8","num_nodes":"23","size_leaf_vector":"1"}},{"base_weights":[-5.6038954E-4,-3.7576392E-2,1.257193E-2,-2.3372816E-2,-1.3818817E-1,1.8046933E-1,8.062244E-3,3.3780292E-3,-2.4306755E-1,2.396199E-1,2.6668462E-3,-5.142589E-3,1.2388001E-1,9.605408E-4,-1.4699319E-1,1.1330132E-1,-6.759539E-2,-8.381386E-2,2.7956578E-3],"categories":[],"categories_nodes":[],"categories_segments":[],"categories_sizes":[],"default_left":[0,0,0,0,0,0,0,0,0,0,0,0,0,0,0,0,0,0,0],"id":40,"left_children":[1,3,5,7,-1,-1,9,11,13,15,17,-1,-1,-1,-1,-1,-1,-1,-1],"loss_changes":[1.7449833E-1,5.540643E-1,6.990352E-1,5.4150695E-1,0E0,0E0,3.2918823E-1,7.046165E-1,6.0963184E-1,4.7020733E-1,4.8853314E-1,0E0,0E0,0E0,0E0,0E0,0E0,0E0,0E0],"parents":[2147483647,0,0,1,1,2,2,3,3,6,6,7,7,8,8,9,9,10,10],"right_children":[2,4,6,8,-1,-1,10,12,14,16,18,-1,-1,-1,-1,-1,-1,-1,-1],"split_conditions":[2.55E1,3.0906E2,2.551E1,2.533E1,-1.3818817E-1,1.8046933E-1,2.4525E1,2.4189E2,7.0710677E-1,2.582E1,2.569E1,-5.142589E-3,1.2388001E-1,9.605408E-4,-1.4699319E-1,1.1330132E-1,-6.759539E-2,-8.381386E-2,2.7956578E-3],"split_indices":[0,5,0,0,0,0,7,5,1,0,0,0,0,0,0,0,0,0,0],"split_type":[0,0,0,0,0,0,0,0,0,0,0,0,0,0,0,0,0,0,0],"sum_hessian":[3.57E2,9.3E1,2.64E2,9.1E1,2E0,1E0,2.63E2,8.2E1,9E0,5E0,2.58E2,7.9E1,3E0,5E0,4E0,4E0,1E0,5E0,2.53E2],"tree_param":{"num_deleted":"0","num_feature":"8","num_nodes":"19","size_leaf_vector":"1"}},{"base_weights":[-4.4951693E-4,8.0660805E-3,-3.9694075E-2,1.89403E-3,3.656662E-1,-2.1414052E-1,-6.4357365E-3,1.3848497E-2,-6.552874E-2,1.7257118E-1,1.02619175E-2,-1.6923156E-1,4.4572037E-2,-7.168007E-2,5.375708E-3,1.3115588E-1,-3.3892754E-2,4.207357E-2,-1.628863E-1,2.218587E-2,-2.2341156E-2],"categories":[],"categories_nodes":[],"categories_segments":[],"categories_sizes":[],"default_left":[0,0,0,0,0,0,0,0,0,0,0,0,0,0,0,0,0,0,0,0,0],"id":41,"left_children":[1,3,5,7,9,-1,11,13,15,-1,-1,17,19,-1,-1,-1,-1,-1,-1,-1,-1],"loss_changes":[1.199605E-1,6.504096E-1,1.430267E0,2.3545444E-1,3.2764512E-1,0E0,5.2238184E-1,2.5946277E-1,1.0988958E0,0E0,0E0,1.8110247E0,1.733908E-1,0E0,0E0,0E0,0E0,0E0,0E0,0E0,0E0],"parents":[2147483647,0,0,1,1,2,2,3,3,4,4,6,6,7,7,8,8,11,11,12,12],"right_children":[2,4,6,8,10,-1,12,14,16,-1,-1,18,20,-1,-1,-1,-1,-1,-1,-1,-1],"split_conditions":[2.0867E2,2.0261E2,2.1066E2,9.749279E-1,3.108E1,-2.1414052E-1,3.485824E1,2.29E1,2.369E1,1.7257118E-1,1.02619175E-2,6.234898E-1,-2.4492937E-16,-7.168007E-2,5.375708E-3,1.3115588E-1,-3.3892754E-2,4.207357E-2,-1.628863E-1,2.218587E-2,-2.2341156E-2],"split_indices":[6,6,6,3,0,0,7,0,0,0,0,4,1,0,0,0,0,0,0,0,0],"split_type":[0,0,0,0,0,0,0,0,0,0,0,0,0,0,0,0,0,0,0,0,0],"sum_hessian":[3.57E2,2.94E2,6.3E1,2.9E2,4E0,2E0,6.1E1,2.47E2,4.3E1,2E0,2E0,1.4E1,4.7E1,3E0,2.44E2,3E0,4E1,8E0,6E0,3.8E1,9E0],"tree_param":{"num_deleted":"0","num_feature":"8","num_nodes":"21","size_leaf_vector":"1"}},{"base_weights":[-6.5290363E-4,-1.6635384E-2,2.2939537E-2,-1.0224395E-1,7.4136504E-3,2.8189006E-1,9.7338315E-3,-2.1301621E-1,2.2606062E-2,2.9400917E-2,-8.010678E-2,1.3018952E-1,4.0280115E-2,-1.6501866E-1,2.7545238E-2,3.8805392E-3,-1.5052998E-1,1.0255886E-1,-1.8779606E-2,-1.2353315E-2,2.3531536E-2,-1.7131254E-1,-9.473488E-3,1.8578656E-2,-1.6215615E-1,9.5365815E-2,-8.182427E-4],"categories":[],"categories_nodes":[],"categories_segments":[],"categories_sizes":[],"default_left":[0,0,0,0,0,0,0,0,0,0,0,0,0,0,0,0,0,0,0,0,0,0,0,0,0,0,0],"id":42,"left_children":[1,3,5,7,9,11,13,15,17,19,21,-1,-1,23,25,-1,-1,-1,-1,-1,-1,-1,-1,-1,-1,-1,-1],"loss_changes":[1.3537116E-1,4.4134194E-1,4.9310166E-1,6.5482163E-1,3.2564348E-1,9.8881185E-2,4.3719518E-1,1.6375786E0,6.470506E-1,4.7046518E-1,7.919948E-1,0E0,0E0,1.1413234E0,1.1171213E0,0E0,0E0,0E0,0E0,0E0,0E0,0E0,0E0,0E0,0E0,0E0,0E0],"parents":[2147483647,0,0,1,1,2,2,3,3,4,4,5,5,6,6,7,7,8,8,9,9,10,10,13,13,14,14],"right_children":[2,4,6,8,10,12,14,16,18,20,22,-1,-1,24,26,-1,-1,-1,-1,-1,-1,-1,-1,-1,-1,-1,-1],"split_conditions":[4.3388373E-1,-2.2252093E-1,2.387E1,2.834E1,2.0652E2,2.407E1,2.435E1,2.569E1,3.02E1,2.6307777E1,2.1066E2,1.3018952E-1,4.0280115E-2,2.416E1,2.4763334E1,3.8805392E-3,-1.5052998E-1,1.0255886E-1,-1.8779606E-2,-1.2353315E-2,2.3531536E-2,-1.7131254E-1,-9.473488E-3,1.8578656E-2,-1.6215615E-1,9.5365815E-2,-8.182427E-4],"split_indices":[3,4,7,0,6,0,0,0,0,7,6,0,0,0,7,0,0,0,0,0,0,0,0,0,0,0,0],"split_type":[0,0,0,0,0,0,0,0,0,0,0,0,0,0,0,0,0,0,0,0,0,0,0,0,0,0,0],"sum_hessian":[3.57E2,2.13E2,1.44E2,4.6E1,1.67E2,6E0,1.38E2,2.4E1,2.2E1,1.34E2,3.3E1,2E0,4E0,1.2E1,1.26E2,1.4E1,1E1,4E0,1.8E1,5.5E1,7.9E1,2E0,3.1E1,8E0,4E0,1.1E1,1.15E2],"tree_param":{"num_deleted":"0","num_feature":"8","num_nodes":"27","size_leaf_vector":"1"}},{"base_weights":[-7.6732424E-4,-3.566328E-2,1.1613759E-2,-1.4173283E-2,-2.1476193E-1,1.5201074E-1,7.819097E-3,-1.1680097E-3,-1.1077843E-1,-1.7640114E-2,-4.083557E-1,9.318202E-2,-6.0679535E-3,-4.838698E-3,8.95031E-2,1.953003E-2,-6.470118E-2,-1.6077691E-1,1.5287018E-2,1.169685E-2,1.2966488E-1,-1.426074E-1,1.9757687E-3],"categories":[],"categories_nodes":[],"categories_segments":[],"categories_sizes":[],"default_left":[0,0,0,0,0,0,0,0,0,0,0,0,0,0,0,0,0,0,0,0,0,0,0],"id":43,"left_children":[1,3,5,7,9,-1,11,13,-1,15,17,19,21,-1,-1,-1,-1,-1,-1,-1,-1,-1,-1],"loss_changes":[1.5508798E-1,3.5874608E-1,4.9389213E-1,3.9210024E-1,3.744121E-1,0E0,3.135214E-1,3.767341E-1,0E0,1.1235068E-1,3.2027525E-1,6.6295356E-1,1.3570689E0,0E0,0E0,0E0,0E0,0E0,0E0,0E0,0E0,0E0,0E0],"parents":[2147483647,0,0,1,1,2,2,3,3,4,4,6,6,7,7,9,9,10,10,11,11,12,12],"right_children":[2,4,6,8,10,-1,12,14,-1,16,18,20,22,-1,-1,-1,-1,-1,-1,-1,-1,-1,-1],"split_conditions":[2.55E1,2.533E1,2.551E1,3.0906E2,7.0710677E-1,1.5201074E-1,2.617E1,2.4189E2,-1.1077843E-1,2.548E1,2.537E1,2.6070868E1,2.6282501E1,-4.838698E-3,8.95031E-2,1.953003E-2,-6.470118E-2,-1.6077691E-1,1.5287018E-2,1.169685E-2,1.2966488E-1,-1.426074E-1,1.9757687E-3],"split_indices":[0,0,0,5,1,0,7,5,0,0,0,7,7,0,0,0,0,0,0,0,0,0,0],"split_type":[0,0,0,0,0,0,0,0,0,0,0,0,0,0,0,0,0,0,0,0,0,0,0],"sum_hessian":[3.57E2,9.3E1,2.64E2,8.4E1,9E0,1E0,2.63E2,8.2E1,2E0,5E0,4E0,3.6E1,2.27E2,7.9E1,3E0,4E0,1E0,3E0,1E0,3.2E1,4E0,5E0,2.22E2],"tree_param":{"num_deleted":"0","num_feature":"8","num_nodes":"23","size_leaf_vector":"1"}},{"base_weights":[-7.163579E-4,2.0618173E-3,-1.0867691E-1,-3.2198443E-3,1.819603E-1,-1.723392E-1,6.0093213E-2,4.6090004E-3,-6.2247127E-2,2.7330098E-1,-2.3375988E-2,5.3037006E-2,-2.5630412E-1,-5.0880495E-3,1.1802075E-2,5.418486E-2,-4.4766635E-2,9.78467E-2,-6.574059E-3,-4.0386774E-2,4.6554565E-2,-3.2735826E-3,2.7140237E-2,-9.411335E-3,-8.850494E-2],"categories":[],"categories_nodes":[],"categories_segments":[],"categories_sizes":[],"default_left":[0,0,0,0,0,0,0,0,0,0,0,0,0,0,0,0,0,0,0,0,0,0,0,0,0],"id":44,"left_children":[1,3,5,7,9,11,-1,13,15,17,19,21,23,-1,-1,-1,-1,-1,-1,-1,-1,-1,-1,-1,-1],"loss_changes":[1.076002E-1,3.331429E-1,2.1155915E-1,1.5786827E-1,1.9394428E-1,1.6498312E-1,0E0,2.2690268E-1,8.7187326E-1,1.1637145E-1,1.003468E-1,8.168089E-3,4.299113E-2,0E0,0E0,0E0,0E0,0E0,0E0,0E0,0E0,0E0,0E0,0E0,0E0],"parents":[2147483647,0,0,1,1,2,2,3,3,4,4,5,5,7,7,8,8,9,9,10,10,11,11,12,12],"right_children":[2,4,6,8,10,12,-1,14,16,18,20,22,24,-1,-1,-1,-1,-1,-1,-1,-1,-1,-1,-1,-1],"split_conditions":[3.792E1,3.6344166E1,4.018E1,3.649E1,7.818315E-1,-8.660254E-1,6.0093213E-2,8.345E1,-2.2252093E-1,3.68E1,-2.5881904E-1,3.117E1,3.163E1,-5.0880495E-3,1.1802075E-2,5.418486E-2,-4.4766635E-2,9.78467E-2,-6.574059E-3,-4.0386774E-2,4.6554565E-2,-3.2735826E-3,2.7140237E-2,-9.411335E-3,-8.850494E-2],"split_indices":[7,7,0,0,3,1,0,6,4,0,1,0,0,0,0,0,0,0,0,0,0,0,0,0,0],"split_type":[0,0,0,0,0,0,0,0,0,0,0,0,0,0,0,0,0,0,0,0,0,0,0,0,0],"sum_hessian":[3.57E2,3.49E2,8E0,3.4E2,9E0,7E0,1E0,3.01E2,3.9E1,6E0,3E0,2E0,5E0,1.86E2,1.15E2,1E1,2.9E1,5E0,1E0,2E0,1E0,1E0,1E0,1E0,4E0],"tree_param":{"num_deleted":"0","num_feature":"8","num_nodes":"25","size_leaf_vector":"1"}},{"base_weights":[-2.2292137E-4,1.664311E-2,-1.8972669E-2,1.8150066E-3,1.7685854E-1,-1.20298766E-1,-1.2037893E-2,-5.9299693E-3,3.3245897E-1,-1.6657257E-1,3.0521664E-1,-1.2642603E-1,3.3970103E-3,1.5993748E-3,-7.081311E-2,-1.7679406E-2,1.4476986E-1,-7.517014E-2,-8.11615E-3,-1.5624238E-2,1.1456526E-1,-1.8371874E-2,-1.1155859E-1,5.528615E-2,-3.2827428E-3],"categories":[],"categories_nodes":[],"categories_segments":[],"categories_sizes":[],"default_left":[0,0,0,0,0,0,0,0,0,0,0,0,0,0,0,0,0,0,0,0,0,0,0,0,0],"id":45,"left_children":[1,3,5,7,9,-1,11,13,15,17,19,21,23,-1,-1,-1,-1,-1,-1,-1,-1,-1,-1,-1,-1],"loss_changes":[1.1352748E-1,4.4868463E-1,4.4554457E-1,4.475558E-1,7.5615525E-1,0E0,2.9704523E-1,4.443811E-1,2.6344028E-1,5.181527E-2,3.4860623E-1,2.9720923E-1,3.8850346E-1,0E0,0E0,0E0,0E0,0E0,0E0,0E0,0E0,0E0,0E0,0E0,0E0],"parents":[2147483647,0,0,1,1,2,2,3,3,4,4,6,6,7,7,8,8,9,9,10,10,11,11,12,12],"right_children":[2,4,6,8,10,-1,12,14,16,18,20,22,24,-1,-1,-1,-1,-1,-1,-1,-1,-1,-1,-1,-1],"split_conditions":[2.99E1,8.345E1,2.992316E1,3.6277E2,-2.2252093E-1,-1.20298766E-1,2.916E1,2.8803E2,-2.5881904E-1,2.679E1,2.604E1,6.234898E-1,2.977E1,1.5993748E-3,-7.081311E-2,-1.7679406E-2,1.4476986E-1,-7.517014E-2,-8.11615E-3,-1.5624238E-2,1.1456526E-1,-1.8371874E-2,-1.1155859E-1,5.528615E-2,-3.2827428E-3],"split_indices":[7,6,7,5,4,0,0,5,2,0,0,4,0,0,0,0,0,0,0,0,0,0,0,0,0],"split_type":[0,0,0,0,0,0,0,0,0,0,0,0,0,0,0,0,0,0,0,0,0,0,0,0,0],"sum_hessian":[3.57E2,1.88E2,1.69E2,1.73E2,1.5E1,2E0,1.67E2,1.7E2,3E0,4E0,1.1E1,1.9E1,1.48E2,1.63E2,7E0,1E0,2E0,2E0,2E0,2E0,9E0,1.6E1,3E0,1E1,1.38E2],"tree_param":{"num_deleted":"0","num_feature":"8","num_nodes":"25","size_leaf_vector":"1"}},{"base_weights":[-5.044571E-4,-4.087733E-3,7.16123E-2,-6.6314307E-3,1.0294056E-1,-9.921042E-2,1.5105598E-1,-4.1651456E-3,-1.2159947E-1,-3.5298664E-2,4.6471026E-2,-7.6717376E-3,-8.353558E-2,7.316208E-2,2.8855324E-1,-2.4880318E-3,3.8507022E-2,6.8820477E-3,-7.0721775E-2,8.861733E-3,-2.4746133E-2,2.2896767E-2,-1.4325285E-2,-8.627129E-3,6.2325098E-2,3.4406472E-2,1.2152224E-1],"categories":[],"categories_nodes":[],"categories_segments":[],"categories_sizes":[],"default_left":[0,0,0,0,0,0,0,0,0,0,0,0,0,0,0,0,0,0,0,0,0,0,0,0,0,0,0],"id":46,"left_children":[1,3,5,7,9,11,13,15,17,19,-1,21,-1,23,25,-1,-1,-1,-1,-1,-1,-1,-1,-1,-1,-1,-1],"loss_changes":[9.2805035E-2,9.379131E-2,2.4568966E-1,9.448074E-2,6.293432E-2,9.630898E-2,1.07411206E-1,1.8105686E-1,1.2089193E-1,1.1615376E-2,0E0,2.04766E-2,0E0,1.2942839E-1,3.4578383E-2,0E0,0E0,0E0,0E0,0E0,0E0,0E0,0E0,0E0,0E0,0E0,0E0],"parents":[2147483647,0,0,1,1,2,2,3,3,4,4,5,5,6,6,7,7,8,8,9,9,11,11,13,13,14,14],"right_children":[2,4,6,8,10,12,14,16,18,20,-1,22,-1,24,26,-1,-1,-1,-1,-1,-1,-1,-1,-1,-1,-1,-1],"split_conditions":[1E0,3.859E1,2.601E1,3.792E1,1.0741E2,2.588E1,2.5372593E1,3.6344166E1,-7.0710677E-1,3.904E1,4.6471026E-2,2.416E1,-8.353558E-2,6.234898E-1,2.677E1,-2.4880318E-3,3.8507022E-2,6.8820477E-3,-7.0721775E-2,8.861733E-3,-2.4746133E-2,2.2896767E-2,-1.4325285E-2,-8.627129E-3,6.2325098E-2,3.4406472E-2,1.2152224E-1],"split_indices":[2,0,0,7,6,0,7,7,1,0,0,0,0,4,0,0,0,0,0,0,0,0,0,0,0,0,0],"split_type":[0,0,0,0,0,0,0,0,0,0,0,0,0,0,0,0,0,0,0,0,0,0,0,0,0,0,0],"sum_hessian":[3.57E2,3.41E2,1.6E1,3.34E2,7E0,5E0,1.1E1,3.28E2,6E0,2E0,5E0,4E0,1E0,8E0,3E0,3.19E2,9E0,3E0,3E0,1E0,1E0,1E0,3E0,5E0,3E0,2E0,1E0],"tree_param":{"num_deleted":"0","num_feature":"8","num_nodes":"27","size_leaf_vector":"1"}},{"base_weights":[3.0018431E-5,1.38626285E-2,-1.7567353E-2,7.6258304E-3,9.573556E-2,-1.1899692E-1,5.1943753E-3,-1.3233896E-2,4.3525826E-2,-7.269125E-2,-1.4882469E-1,-2.4006914E-2,6.2815234E-2,2.20617E-3,-5.7826515E-2,8.408787E-2,-5.222075E-3,-3.634667E-2,3.513794E-2,-4.8328135E-2,2.7464477E-3,6.2275317E-2,-3.498955E-3],"categories":[],"categories_nodes":[],"categories_segments":[],"categories_sizes":[],"default_left":[0,0,0,0,0,0,0,0,0,0,0,0,0,0,0,0,0,0,0,0,0,0,0],"id":47,"left_children":[1,3,5,7,-1,9,11,13,15,17,-1,19,21,-1,-1,-1,-1,-1,-1,-1,-1,-1,-1],"loss_changes":[8.7387025E-2,3.8023412E-1,3.6539462E-1,1.4885111E-1,0E0,4.703137E-1,2.2024642E-1,4.6710652E-1,1.0580404E0,2.6257396E-1,0E0,3.9698017E-1,4.7683686E-1,0E0,0E0,0E0,0E0,0E0,0E0,0E0,0E0,0E0,0E0],"parents":[2147483647,0,0,1,1,2,2,3,3,5,5,6,6,7,7,8,8,9,9,11,11,12,12],"right_children":[2,4,6,8,-1,10,12,14,16,18,-1,20,22,-1,-1,-1,-1,-1,-1,-1,-1,-1,-1],"split_conditions":[3.0653334E1,3.0558334E1,3.099E1,2.6495998E1,9.573556E-2,3.058E1,4.3388373E-1,2.6198334E1,2.6975E1,4.4816E2,-1.4882469E-1,3.337E1,3.43E1,2.20617E-3,-5.7826515E-2,8.408787E-2,-5.222075E-3,-3.634667E-2,3.513794E-2,-4.8328135E-2,2.7464477E-3,6.2275317E-2,-3.498955E-3],"split_indices":[7,7,0,7,0,0,3,7,7,5,0,0,0,0,0,0,0,0,0,0,0,0,0],"split_type":[0,0,0,0,0,0,0,0,0,0,0,0,0,0,0,0,0,0,0,0,0,0,0],"sum_hessian":[3.57E2,2E2,1.57E2,1.97E2,3E0,2.8E1,1.29E2,1.25E2,7.2E1,2.6E1,2E0,8.6E1,4.3E1,1.13E2,1.2E1,1.4E1,5.8E1,2.1E1,5E0,1.6E1,7E1,1.4E1,2.9E1],"tree_param":{"num_deleted":"0","num_feature":"8","num_nodes":"23","size_leaf_vector":"1"}},{"base_weights":[-2.890126E-5,-6.808505E-2,3.3540914E-3,6.063703E-2,-2.0670013E-1,1.140873E-1,1.1334817E-3,-3.5270054E-2,3.3319902E-1,-2.9854325E-3,1.7295647E-1,-2.4113743E-2,6.913948E-2,9.887695E-3,1.2668782E-1,-1.09590344E-1,-2.401191E-4,1.0581747E-1,-1.6281338E-1],"categories":[],"categories_nodes":[],"categories_segments":[],"categories_sizes":[],"default_left":[0,0,0,0,0,0,0,0,0,0,0,0,0,0,0,0,0,0,0],"id":48,"left_children":[1,3,5,7,-1,-1,9,11,13,15,17,-1,-1,-1,-1,-1,-1,-1,-1],"loss_changes":[8.265194E-2,1.4005128E0,2.8583312E-1,4.0386134E-1,0E0,0E0,2.4185029E-1,1.6236933E-1,9.307963E-2,2.641263E-1,1.2206635E0,0E0,0E0,0E0,0E0,0E0,0E0,0E0,0E0],"parents":[2147483647,0,0,1,1,2,2,3,3,6,6,7,7,8,8,9,9,10,10],"right_children":[2,4,6,8,-1,-1,10,12,14,16,18,-1,-1,-1,-1,-1,-1,-1,-1],"split_conditions":[2.377E1,2.369E1,2.383E1,9.749279E-1,-2.0670013E-1,1.140873E-1,1E0,2.361E1,2.243E1,2.387E1,1E0,-2.4113743E-2,6.913948E-2,9.887695E-3,1.2668782E-1,-1.09590344E-1,-2.401191E-4,1.0581747E-1,-1.6281338E-1],"split_indices":[0,0,0,3,0,0,1,0,0,0,4,0,0,0,0,0,0,0,0],"split_type":[0,0,0,0,0,0,0,0,0,0,0,0,0,0,0,0,0,0,0],"sum_hessian":[3.57E2,1.6E1,3.41E2,1.4E1,2E0,1E0,3.4E2,1.1E1,3E0,3.33E2,7E0,1E1,1E0,1E0,2E0,1E0,3.32E2,6E0,1E0],"tree_param":{"num_deleted":"0","num_feature":"8","num_nodes":"19","size_leaf_vector":"1"}},{"base_weights":[-2.3744759E-4,-1.3083223E-3,5.7309724E-2,3.6011836E-3,-6.144677E-2,-1.2610743E-3,1.22636504E-1,-4.8834023E-1,-7.7616884E-3,1.1081952E-3,-3.0578958E-2,9.08721E-2,1.1479396E-2,-4.5058824E-2,-1.7469428E-1,-1.4590782E-2,4.9638752E-2],"categories":[],"categories_nodes":[],"categories_segments":[],"categories_sizes":[],"default_left":[0,0,0,0,0,0,0,0,0,0,0,0,0,0,0,0,0],"id":49,"left_children":[1,3,-1,5,7,9,11,13,15,-1,-1,-1,-1,-1,-1,-1,-1],"loss_changes":[7.3577665E-2,1.05625555E-1,0E0,1.9173099E-1,6.149906E-1,1.595E-1,1.8613616E-1,7.869005E-3,1.8505764E-1,0E0,0E0,0E0,0E0,0E0,0E0,0E0,0E0],"parents":[2147483647,0,0,1,1,3,3,4,4,5,5,6,6,7,7,8,8],"right_children":[2,4,-1,6,8,10,12,14,16,-1,-1,-1,-1,-1,-1,-1,-1],"split_conditions":[4.666E2,3.0223E2,5.7309724E-2,3.81E1,3.1105E2,8.3309E2,3.827E1,3.551E1,1E0,1.1081952E-3,-3.0578958E-2,9.08721E-2,1.1479396E-2,-4.5058824E-2,-1.7469428E-1,-1.4590782E-2,4.9638752E-2],"split_indices":[6,6,0,0,6,5,0,0,4,0,0,0,0,0,0,0,0],"split_type":[0,0,0,0,0,0,0,0,0,0,0,0,0,0,0,0,0],"sum_hessian":[3.57E2,3.56E2,1E0,3.3E2,2.6E1,3.18E2,1.2E1,2E0,2.4E1,3.04E2,1.4E1,3E0,9E0,1E0,1E0,2E1,4E0],"tree_param":{"num_deleted":"0","num_feature":"8","num_nodes":"17","size_leaf_vector":"1"}},{"base_weights":[-3.1901005E-4,1.2994003E-1,-1.785819E-3,5.610409E-2,1.4573288E-2,-1.2334585E-1,1.0137962E-3,-6.268204E-2,1.4483452E-2,1.6255733E-1,-2.2956147E-3,4.772606E-2,-6.289902E-2,-1.6753007E-2,7.832589E-2,-8.171454E-2,2.6940435E-4],"categories":[],"categories_nodes":[],"categories_segments":[],"categories_sizes":[],"default_left":[0,0,0,0,0,0,0,0,0,0,0,0,0,0,0,0,0],"id":50,"left_children":[1,3,5,-1,-1,7,9,-1,11,13,15,-1,-1,-1,-1,-1,-1],"loss_changes":[6.863336E-2,9.489901E-3,1.2093911E-1,0E0,0E0,9.7405374E-2,1.864188E-1,0E0,1.6300428E-1,1.6521144E-1,2.9523844E-1,0E0,0E0,0E0,0E0,0E0,0E0],"parents":[2147483647,0,0,1,1,2,2,5,5,6,6,8,8,9,9,10,10],"right_children":[2,4,6,-1,-1,8,10,-1,12,14,16,-1,-1,-1,-1,-1,-1],"split_conditions":[2.3569288E1,2.338E1,2.3708334E1,5.610409E-2,1.4573288E-2,-4.3388373E-1,2.3748215E1,-6.268204E-2,2.434E1,2.338E1,2.3836401E1,4.772606E-2,-6.289902E-2,-1.6753007E-2,7.832589E-2,-8.171454E-2,2.6940435E-4],"split_indices":[7,0,7,0,0,3,7,0,0,0,7,0,0,0,0,0,0],"split_type":[0,0,0,0,0,0,0,0,0,0,0,0,0,0,0,0,0],"sum_hessian":[3.57E2,3E0,3.54E2,1E0,2E0,7E0,3.47E2,4E0,3E0,6E0,3.41E2,2E0,1E0,2E0,4E0,3E0,3.38E2],"tree_param":{"num_deleted":"0","num_feature":"8","num_nodes":"17","size_leaf_vector":"1"}},{"base_weights":[-2.989043E-4,1.9312812E-2,-1.0144541E-2,3.2392282E-2,-1.678488E-1,1.2734151E-1,-1.9919684E-2,-8.765369E-2,5.456348E-2,-1.4853054E-1,-5.0369535E-2,6.479674E-2,8.963299E-2,-2.6649857E-1,-1.191064E-2,-7.102156E-3,-5.544344E-2,3.9864205E-2,2.8835167E-4,-4.7696546E-2,2.1252537E-2,-1.2813264E-2,3.5197068E-2,-1.5125728E-1,1.134553E-2,4.3208405E-2,-6.508083E-3],"categories":[],"categories_nodes":[],"categories_segments":[],"categories_sizes":[],"default_left":[0,0,0,0,0,0,0,0,0,0,0,0,0,0,0,0,0,0,0,0,0,0,0,0,0,0,0],"id":51,"left_children":[1,3,5,7,9,11,13,15,17,-1,19,21,-1,23,25,-1,-1,-1,-1,-1,-1,-1,-1,-1,-1,-1,-1],"loss_changes":[6.932208E-2,2.9919395E-1,3.2373968E-1,3.055393E-1,2.826255E-1,1.5219817E-1,4.3919477E-1,1.07515275E-1,4.028786E-1,0E0,1.03423946E-1,7.842241E-2,0E0,5.2540445E-1,3.3569285E-1,0E0,0E0,0E0,0E0,0E0,0E0,0E0,0E0,0E0,0E0,0E0,0E0],"parents":[2147483647,0,0,1,1,2,2,3,3,4,4,5,5,6,6,7,7,8,8,10,10,11,11,13,13,14,14],"right_children":[2,4,6,8,10,12,14,16,18,-1,20,22,-1,24,26,-1,-1,-1,-1,-1,-1,-1,-1,-1,-1,-1,-1],"split_conditions":[-4.3388373E-1,3.021E2,2.387E1,2.4077778E1,-8.660254E-1,2.3836401E1,2.406E1,2.422E1,2.961E1,-1.4853054E-1,-7.818315E-1,-2.4492937E-16,8.963299E-2,2.448E1,2.4528751E1,-7.102156E-3,-5.544344E-2,3.9864205E-2,2.8835167E-4,-4.7696546E-2,2.1252537E-2,-1.2813264E-2,3.5197068E-2,-1.5125728E-1,1.134553E-2,4.3208405E-2,-6.508083E-3],"split_indices":[3,6,7,7,1,7,7,0,0,0,3,3,0,0,7,0,0,0,0,0,0,0,0,0,0,0,0],"split_type":[0,0,0,0,0,0,0,0,0,0,0,0,0,0,0,0,0,0,0,0,0,0,0,0,0,0,0],"sum_hessian":[3.57E2,1.19E2,2.38E2,1.12E2,7E0,1.5E1,2.23E2,1.7E1,9.5E1,1E0,6E0,1.2E1,3E0,6E0,2.17E2,1.1E1,6E0,3.8E1,5.7E1,3E0,3E0,4E0,8E0,3E0,3E0,1.2E1,2.05E2],"tree_param":{"num_deleted":"0","num_feature":"8","num_nodes":"27","size_leaf_vector":"1"}},{"base_weights":[-7.360719E-4,-2.6460871E-2,8.391729E-3,-8.258797E-3,-1.785324E-1,2.0094554E-1,3.9159036E-3,7.7477455E-2,-3.760159E-2,5.5784225E-2,-2.86923E-1,-2.734995E-2,2.7760124E-1,-1.8901864E-1,7.6688593E-3,-4.262396E-3,5.6676235E-2,-1.946635E-2,3.4869865E-2,-3.5081864E-3,2.4652481E-2,5.9640887E-3,-1.02411084E-1,9.438758E-2,1.9425774E-2,2.0254137E-2,-1.1476346E-1,1.1259928E-1,1.4265486E-3],"categories":[],"categories_nodes":[],"categories_segments":[],"categories_sizes":[],"default_left":[0,0,0,0,0,0,0,0,0,0,0,0,0,0,0,0,0,0,0,0,0,0,0,0,0,0,0,0,0],"id":52,"left_children":[1,3,5,7,9,11,13,15,17,19,21,-1,23,25,27,-1,-1,-1,-1,-1,-1,-1,-1,-1,-1,-1,-1,-1,-1],"loss_changes":[8.428433E-2,2.5871918E-1,2.2759998E-1,2.1675128E-1,2.6998293E-1,1.5966028E-1,1.8970901E-1,2.2747429E-1,2.761862E-1,8.084139E-3,1.2371886E-1,0E0,1.9029766E-2,2.7405578E-1,2.7245682E-1,0E0,0E0,0E0,0E0,0E0,0E0,0E0,0E0,0E0,0E0,0E0,0E0,0E0,0E0],"parents":[2147483647,0,0,1,1,2,2,3,3,4,4,5,5,6,6,7,7,8,8,9,9,10,10,12,12,13,13,14,14],"right_children":[2,4,6,8,10,12,14,16,18,20,22,-1,24,26,28,-1,-1,-1,-1,-1,-1,-1,-1,-1,-1,-1,-1,-1,-1],"split_conditions":[2.55E1,2.533E1,2.561E1,-2.2252093E-1,5E-1,5E-1,2.569E1,-2.4492937E-16,1.464E1,2.534E1,2.3569288E1,-2.734995E-2,1E0,7.0710677E-1,2.571E1,-4.262396E-3,5.6676235E-2,-1.946635E-2,3.4869865E-2,-3.5081864E-3,2.4652481E-2,5.9640887E-3,-1.02411084E-1,9.438758E-2,1.9425774E-2,2.0254137E-2,-1.1476346E-1,1.1259928E-1,1.4265486E-3],"split_indices":[0,0,0,4,1,1,0,3,5,0,7,0,4,1,0,0,0,0,0,0,0,0,0,0,0,0,0,0,0],"split_type":[0,0,0,0,0,0,0,0,0,0,0,0,0,0,0,0,0,0,0,0,0,0,0,0,0,0,0,0,0],"sum_hessian":[3.57E2,9.3E1,2.64E2,8.4E1,9E0,5E0,2.59E2,2.1E1,6.3E1,3E0,6E0,1E0,4E0,4E0,2.55E2,1.2E1,9E0,5.4E1,9E0,1E0,2E0,1E0,5E0,3E0,1E0,2E0,2E0,1E0,2.54E2],"tree_param":{"num_deleted":"0","num_feature":"8","num_nodes":"29","size_leaf_vector":"1"}},{"base_weights":[-2.4025684E-4,6.576207E-2,-3.1175672E-3,-4.787922E-3,2.6097155E-1,-5.104421E-1,1.3417638E-3,-6.2198643E-2,3.2472957E-2,4.636002E-3,1.0129795E-1,-2.5619889E-2,-2.0407906E-1,1.0594736E-1,-3.1136165E-3,2.2994729E-2,-6.1393265E-2,-7.0535024E-3,8.47434E-2,-3.2109156E-2,1.4384573E-4],"categories":[],"categories_nodes":[],"categories_segments":[],"categories_sizes":[],"default_left":[0,0,0,0,0,0,0,0,0,0,0,0,0,0,0,0,0,0,0,0,0],"id":53,"left_children":[1,3,5,7,9,11,13,-1,15,-1,-1,-1,-1,17,19,-1,-1,-1,-1,-1,-1],"loss_changes":[6.81925E-2,2.0782992E-1,7.789257E-1,9.729479E-2,7.009551E-2,1.5844971E-1,1.597216E-1,0E0,1.3090992E-1,0E0,0E0,0E0,0E0,3.265904E-1,1.2289468E-1,0E0,0E0,0E0,0E0,0E0,0E0],"parents":[2147483647,0,0,1,1,2,2,3,3,4,4,5,5,6,6,8,8,13,13,14,14],"right_children":[2,4,6,8,10,12,14,-1,16,-1,-1,-1,-1,18,20,-1,-1,-1,-1,-1,-1],"split_conditions":[2.369E1,9.749279E-1,2.377E1,2.243E1,2.243E1,9.659258E-1,2.416E1,-6.2198643E-2,4.3388373E-1,4.636002E-3,1.0129795E-1,-2.5619889E-2,-2.0407906E-1,-2.4492937E-16,2.435E1,2.2994729E-2,-6.1393265E-2,-7.0535024E-3,8.47434E-2,-3.2109156E-2,1.4384573E-4],"split_indices":[0,3,0,0,0,1,0,0,3,0,0,0,0,3,0,0,0,0,0,0,0],"split_type":[0,0,0,0,0,0,0,0,0,0,0,0,0,0,0,0,0,0,0,0,0],"sum_hessian":[3.57E2,1.4E1,3.43E2,1.1E1,3E0,2E0,3.41E2,1E0,1E1,1E0,2E0,1E0,1E0,1.3E1,3.28E2,9E0,1E0,8E0,5E0,1E1,3.18E2],"tree_param":{"num_deleted":"0","num_feature":"8","num_nodes":"21","size_leaf_vector":"1"}},{"base_weights":[-6.6697766E-4,7.2311414E-3,-2.7339075E-2,2.8437542E-2,-8.685795E-3,-2.08084E-3,-2.3198022E-1,1.950856E-2,2.8026867E-1,-1.4722764E-1,8.937016E-3,1.9559479E-1,-2.900508E-2,-2.2669831E-1,2.559444E-2,1.132511E-2,-1.8044889E-2,1.0086136E-1,1.6869165E-2,-1.589468E-1,-1.9886808E-2,8.2641795E-2,1.5278958E-3,8.134869E-2,-6.1341766E-2,-4.201858E-4,-9.144488E-2,9.548522E-2,-8.204813E-2],"categories":[],"categories_nodes":[],"categories_segments":[],"categories_sizes":[],"default_left":[0,0,0,0,0,0,0,0,0,0,0,0,0,0,0,0,0,0,0,0,0,0,0,0,0,0,0,0,0],"id":54,"left_children":[1,3,5,7,9,11,13,15,17,19,21,23,25,-1,27,-1,-1,-1,-1,-1,-1,-1,-1,-1,-1,-1,-1,-1,-1],"loss_changes":[7.561376E-2,9.3745835E-2,4.2336494E-1,2.6211527E-1,3.895138E-1,3.9952093E-1,1.2333229E0,1.7083134E-1,3.1222105E-2,5.2227694E-1,1.4408611E-1,3.2753396E-1,5.020719E-1,0E0,6.9982874E-1,0E0,0E0,0E0,0E0,0E0,0E0,0E0,0E0,0E0,0E0,0E0,0E0,0E0,0E0],"parents":[2147483647,0,0,1,1,2,2,3,3,4,4,5,5,6,6,7,7,8,8,9,9,10,10,11,11,12,12,14,14],"right_children":[2,4,6,8,10,12,14,16,18,20,22,24,26,-1,28,-1,-1,-1,-1,-1,-1,-1,-1,-1,-1,-1,-1,-1,-1],"split_conditions":[8.660254E-1,2.7749E2,2.7080002E1,2.6813E2,3.23E2,-2.5881904E-1,-2.2252093E-1,9.749279E-1,3.261E1,-5E-1,2.551E1,9.749279E-1,2.6198334E1,-2.2669831E-1,6.234898E-1,1.132511E-2,-1.8044889E-2,1.0086136E-1,1.6869165E-2,-1.589468E-1,-1.9886808E-2,8.2641795E-2,1.5278958E-3,8.134869E-2,-6.1341766E-2,-4.201858E-4,-9.144488E-2,9.548522E-2,-8.204813E-2],"split_indices":[2,5,7,5,5,1,4,3,0,2,0,3,7,0,4,0,0,0,0,0,0,0,0,0,0,0,0,0,0],"split_type":[0,0,0,0,0,0,0,0,0,0,0,0,0,0,0,0,0,0,0,0,0,0,0,0,0,0,0,0,0],"sum_hessian":[3.57E2,2.76E2,8.1E1,1.18E2,1.58E2,7.3E1,8E0,1.15E2,3E0,1.7E1,1.41E2,8E0,6.5E1,2E0,6E0,9.4E1,2.1E1,2E0,1E0,2E0,1.5E1,1E0,1.4E2,7E0,1E0,6E1,5E0,3E0,3E0],"tree_param":{"num_deleted":"0","num_feature":"8","num_nodes":"29","size_leaf_vector":"1"}},{"base_weights":[-1.2182152E-3,-1.16501665E-2,1.8807465E-2,-5.7815696E-4,-8.765869E-2,-1.0381872E-2,8.963675E-2,-8.996191E-3,2.0994496E-1,-1.828568E-1,1.972987E-2,-1.5684849E-1,6.225395E-3,2.952048E-1,2.0359991E-2,-3.382775E-2,-8.824539E-4,-2.9777145E-2,9.886656E-2,-1.3762837E-2,-1.05726324E-1,5.447102E-2,-1.0758305E-2,-9.235411E-2,-9.012413E-3,4.7042776E-2,-4.5213834E-3,4.224644E-2,1.0467787E-1,-3.6344036E-2,2.8129699E-2],"categories":[],"categories_nodes":[],"categories_segments":[],"categories_sizes":[],"default_left":[0,0,0,0,0,0,0,0,0,0,0,0,0,0,0,0,0,0,0,0,0,0,0,0,0,0,0,0,0,0,0],"id":55,"left_children":[1,3,5,7,9,11,13,15,17,19,21,23,25,27,29,-1,-1,-1,-1,-1,-1,-1,-1,-1,-1,-1,-1,-1,-1,-1,-1],"loss_changes":[7.500779E-2,1.9855917E-1,2.5522816E-1,3.6873218E-1,3.1030333E-1,2.1502852E-1,5.066688E-1,1.2531857E-1,3.2858065E-1,3.5546476E-1,1.4146386E-1,1.6308105E-1,2.589181E-1,2.5506973E-2,3.0220658E-1,0E0,0E0,0E0,0E0,0E0,0E0,0E0,0E0,0E0,0E0,0E0,0E0,0E0,0E0,0E0,0E0],"parents":[2147483647,0,0,1,1,2,2,3,3,4,4,5,5,6,6,7,7,8,8,9,9,10,10,11,11,12,12,13,13,14,14],"right_children":[2,4,6,8,10,12,14,16,18,20,22,24,26,28,30,-1,-1,-1,-1,-1,-1,-1,-1,-1,-1,-1,-1,-1,-1,-1,-1],"split_conditions":[1.224E2,3.2612503E1,-5E-1,6.5937E2,8.3903E2,2.856E1,1.499E2,-2.5881904E-1,-4.3388373E-1,1.0741E2,8.666E1,3.2612503E1,2.964E1,-7.818315E-1,3.4685715E1,-3.382775E-2,-8.824539E-4,-2.9777145E-2,9.886656E-2,-1.3762837E-2,-1.05726324E-1,5.447102E-2,-1.0758305E-2,-9.235411E-2,-9.012413E-3,4.7042776E-2,-4.5213834E-3,4.224644E-2,1.0467787E-1,-3.6344036E-2,2.8129699E-2],"split_indices":[6,7,2,5,5,0,6,2,3,6,6,7,0,3,7,0,0,0,0,0,0,0,0,0,0,0,0,0,0,0,0],"split_type":[0,0,0,0,0,0,0,0,0,0,0,0,0,0,0,0,0,0,0,0,0,0,0,0,0,0,0,0,0,0,0],"sum_hessian":[3.57E2,2.35E2,1.22E2,2.06E2,2.9E1,8.7E1,3.5E1,1.99E2,7E0,1.5E1,1.4E1,8E0,7.9E1,8E0,2.7E1,1E1,1.89E2,2E0,5E0,9E0,6E0,3E0,1.1E1,3E0,5E0,9E0,7E1,3E0,5E0,9E0,1.8E1],"tree_param":{"num_deleted":"0","num_feature":"8","num_nodes":"31","size_leaf_vector":"1"}},{"base_weights":[-7.4518874E-4,-1.397378E-2,1.2414049E-2,-6.2002703E-3,-3.5251474E-1,3.4312248E-1,1.0045376E-3,-2.5742287E-2,8.2543254E-2,-1.2040978E-1,-3.0894184E-2,2.1782303E-2,1.380684E-1,-1.540316E-1,1.3363221E-2,-1.9701426E-3,-8.518501E-2,7.3264316E-2,5.5431845E-3,-7.994771E-2,-2.8093243E-2,3.2229222E-2,6.164599E-5],"categories":[],"categories_nodes":[],"categories_segments":[],"categories_sizes":[],"default_left":[0,0,0,0,0,0,0,0,0,0,0,0,0,0,0,0,0,0,0,0,0,0,0],"id":56,"left_children":[1,3,5,7,9,11,13,15,17,-1,-1,-1,-1,19,21,-1,-1,-1,-1,-1,-1,-1,-1],"loss_changes":[6.2493462E-2,4.6887994E-1,6.788353E-1,3.073489E-1,7.427186E-3,1.566565E-1,3.373658E-1,7.1605504E-1,3.2693136E-1,0E0,0E0,0E0,0E0,6.333044E-2,2.0172554E-1,0E0,0E0,0E0,0E0,0E0,0E0,0E0,0E0],"parents":[2147483647,0,0,1,1,2,2,3,3,4,4,5,5,6,6,7,7,8,8,13,13,14,14],"right_children":[2,4,6,8,10,12,14,16,18,-1,-1,-1,-1,20,22,-1,-1,-1,-1,-1,-1,-1,-1],"split_conditions":[7.047E1,6.782E1,2.6975E1,2.770478E1,3.226E1,7.106E1,2.679E1,2.6988E1,2.88E1,-1.2040978E-1,-3.0894184E-2,2.1782303E-2,1.380684E-1,8.883E1,3.186E1,-1.9701426E-3,-8.518501E-2,7.3264316E-2,5.5431845E-3,-7.994771E-2,-2.8093243E-2,3.2229222E-2,6.164599E-5],"split_indices":[6,6,7,7,0,6,0,7,0,0,0,0,0,6,7,0,0,0,0,0,0,0,0],"split_type":[0,0,0,0,0,0,0,0,0,0,0,0,0,0,0,0,0,0,0,0,0,0,0],"sum_hessian":[3.57E2,1.78E2,1.79E2,1.75E2,3E0,5E0,1.74E2,1.44E2,3.1E1,2E0,1E0,2E0,3E0,1.2E1,1.62E2,1.35E2,9E0,8E0,2.3E1,3E0,9E0,1.9E1,1.43E2],"tree_param":{"num_deleted":"0","num_feature":"8","num_nodes":"23","size_leaf_vector":"1"}},{"base_weights":[-7.3269143E-4,-1.6657169E-3,4.985361E-2,-2.205942E-2,5.18913E-3,-1.3508271E-2,-1.1746674E-1,3.1897526E-2,-1.064536E-2,6.818243E-3,-3.377812E-2,-4.147786E-3,2.5762044E-2,-8.3559036E-2,-1.7307942E-3],"categories":[],"categories_nodes":[],"categories_segments":[],"categories_sizes":[],"default_left":[0,0,0,0,0,0,0,0,0,0,0,0,0,0,0],"id":57,"left_children":[1,3,-1,5,7,9,-1,11,13,-1,-1,-1,-1,-1,-1],"loss_changes":[5.602907E-2,5.0021537E-2,0E0,2.7907637E-1,1.1368047E-1,3.2210773E-1,0E0,2.4798414E-1,2.1914397E-1,0E0,0E0,0E0,0E0,0E0,0E0],"parents":[2147483647,0,0,1,1,3,3,4,4,5,5,7,7,8,8],"right_children":[2,4,-1,6,8,10,-1,12,14,-1,-1,-1,-1,-1,-1],"split_conditions":[4.666E2,2.537E1,4.985361E-2,2.535E1,2.99E1,2.5083334E1,-1.1746674E-1,6.234898E-1,2.992316E1,6.818243E-3,-3.377812E-2,-4.147786E-3,2.5762044E-2,-8.3559036E-2,-1.7307942E-3],"split_indices":[6,0,0,0,7,7,0,4,7,0,0,0,0,0,0],"split_type":[0,0,0,0,0,0,0,0,0,0,0,0,0,0,0],"sum_hessian":[3.57E2,3.56E2,1E0,8.9E1,2.67E2,8.8E1,1E0,9.9E1,1.68E2,6.5E1,2.3E1,5.4E1,4.5E1,2E0,1.66E2],"tree_param":{"num_deleted":"0","num_feature":"8","num_nodes":"15","size_leaf_vector":"1"}},{"base_weights":[-9.5493253E-4,-1.0526428E-2,1.5123735E-2,-6.788993E-3,-6.459675E-2,1.6845298E-1,5.3461157E-3,-9.306821E-3,5.4034427E-2,-2.8080178E-2,2.7140427E-1,-1.4665356E-1,1.8182138E-2,-1.3804944E-3,-4.554634E-2,-6.4473157E-3,1.00284465E-1,-3.0612946E-4,-5.4880287E-2,3.3255765E-4,3.389219E-2],"categories":[],"categories_nodes":[],"categories_segments":[],"categories_sizes":[],"default_left":[0,0,0,0,0,0,0,0,0,0,0,0,0,0,0,0,0,0,0,0,0],"id":58,"left_children":[1,3,5,7,-1,9,11,13,-1,-1,15,17,19,-1,-1,-1,-1,-1,-1,-1,-1],"loss_changes":[5.5254288E-2,1.7075591E-1,1.9999155E-1,1.0614761E-1,0E0,2.412336E-1,2.5045252E-1,1.4682338E-1,0E0,0E0,1.17682815E-1,5.2650094E-2,1.9085054E-1,0E0,0E0,0E0,0E0,0E0,0E0,0E0,0E0],"parents":[2147483647,0,0,1,1,2,2,3,3,5,5,6,6,7,7,10,10,11,11,12,12],"right_children":[2,4,6,8,-1,10,12,14,-1,-1,16,18,20,-1,-1,-1,-1,-1,-1,-1,-1],"split_conditions":[3.163E1,7.5528E2,2.99E1,7.2824E2,-6.459675E-2,-4.3388373E-1,7.247E1,6.0873E2,5.4034427E-2,-2.8080178E-2,9.274E1,4.712E1,2.5881904E-1,-1.3804944E-3,-4.554634E-2,-6.4473157E-3,1.00284465E-1,-3.0612946E-4,-5.4880287E-2,3.3255765E-4,3.389219E-2],"split_indices":[0,5,7,5,0,3,6,5,0,0,5,5,1,0,0,0,0,0,0,0,0],"split_type":[0,0,0,0,0,0,0,0,0,0,0,0,0,0,0,0,0,0,0,0,0],"sum_hessian":[3.57E2,2.24E2,1.33E2,2.21E2,3E0,7E0,1.26E2,2.19E2,2E0,2E0,5E0,9E0,1.17E2,2.13E2,6E0,1E0,4E0,2E0,7E0,1E2,1.7E1],"tree_param":{"num_deleted":"0","num_feature":"8","num_nodes":"21","size_leaf_vector":"1"}},{"base_weights":[-7.0351065E-4,-6.1690686E-3,2.3570914E-2,-5.5111706E-4,-2.062397E-1,-1.7054146E-2,1.5159011E-1,-6.8617114E-3,9.378783E-2,-3.2031137E-1,-1.2090206E-2,1.0847165E-1,-5.8458794E-2,1.854968E-2,2.530049E-1,-6.629329E-4,-2.40847E-2,8.5252926E-2,-7.52635E-3,-2.1909524E-2,-1.3824616E-1,2.300358E-2,-4.175949E-2,5.2321184E-2,-9.570236E-3,-2.6275732E-2,2.6161604E-2,4.0614396E-2,-3.9638188E-2,1.0043689E-1,2.0123005E-2],"categories":[],"categories_nodes":[],"categories_segments":[],"categories_sizes":[],"default_left":[0,0,0,0,0,0,0,0,0,0,0,0,0,0,0,0,0,0,0,0,0,0,0,0,0,0,0,0,0,0,0],"id":59,"left_children":[1,3,5,7,9,11,13,15,17,19,21,23,25,27,29,-1,-1,-1,-1,-1,-1,-1,-1,-1,-1,-1,-1,-1,-1,-1,-1],"loss_changes":[4.7642447E-2,3.2921457E-1,3.458372E-1,1.709093E-1,1.7330301E-1,2.7140605E-1,2.1118319E-1,9.1699004E-2,4.1451564E-1,1.400708E-1,5.5806465E-2,1.2587962E-1,1.7310543E-1,1.5871826E-1,1.1439812E-1,0E0,0E0,0E0,0E0,0E0,0E0,0E0,0E0,0E0,0E0,0E0,0E0,0E0,0E0,0E0,0E0],"parents":[2147483647,0,0,1,1,2,2,3,3,4,4,5,5,6,6,7,7,8,8,9,9,10,10,11,11,12,12,13,13,14,14],"right_children":[2,4,6,8,10,12,14,16,18,20,22,24,26,28,30,-1,-1,-1,-1,-1,-1,-1,-1,-1,-1,-1,-1,-1,-1,-1,-1],"split_conditions":[3.559E1,3.535E1,-2.5881904E-1,3.462E1,9.749279E-1,-2.2252093E-1,3.572667E1,3.52835E1,3.497E1,-2.5881904E-1,6.8353E2,7.2692E2,3.626E1,6.234898E-1,3.665E1,-6.629329E-4,-2.40847E-2,8.5252926E-2,-7.52635E-3,-2.1909524E-2,-1.3824616E-1,2.300358E-2,-4.175949E-2,5.2321184E-2,-9.570236E-3,-2.6275732E-2,2.6161604E-2,4.0614396E-2,-3.9638188E-2,1.0043689E-1,2.0123005E-2],"split_indices":[0,0,1,0,3,4,7,7,0,1,5,5,7,4,0,0,0,0,0,0,0,0,0,0,0,0,0,0,0,0,0],"split_type":[0,0,0,0,0,0,0,0,0,0,0,0,0,0,0,0,0,0,0,0,0,0,0,0,0,0,0,0,0,0,0],"sum_hessian":[3.57E2,2.92E2,6.5E1,2.85E2,7E0,5E1,1.5E1,2.68E2,1.7E1,4E0,3E0,1.2E1,3.8E1,7E0,8E0,2.53E2,1.5E1,6E0,1.1E1,2E0,2E0,2E0,1E0,8E0,4E0,3.2E1,6E0,4E0,3E0,5E0,3E0],"tree_param":{"num_deleted":"0","num_feature":"8","num_nodes":"31","size_leaf_vector":"1"}},{"base_weights":[-3.8507365E-4,-1.0246584E-2,1.4171811E-2,-2.3357265E-2,4.4000898E-2,-3.3785988E-2,3.609068E-2,-8.8986926E-2,-6.0672266E-3,-3.5121154E-2,8.4816255E-2,7.4882284E-2,-9.4238475E-2,1.2586743E-1,9.155347E-3,-8.2049735E-2,-5.2059814E-3,4.8073903E-3,-1.287358E-2,3.4995154E-3,-6.78463E-2,4.143448E-2,-7.4798586E-3,2.7713014E-3,1.1344338E-1,1.7981634E-2,-5.2297212E-2,9.056696E-3,1.1757746E-1,1.0417157E-2,-5.721843E-2],"categories":[],"categories_nodes":[],"categories_segments":[],"categories_sizes":[],"default_left":[0,0,0,0,0,0,0,0,0,0,0,0,0,0,0,0,0,0,0,0,0,0,0,0,0,0,0,0,0,0,0],"id":60,"left_children":[1,3,5,7,9,11,13,15,17,19,21,23,25,27,29,-1,-1,-1,-1,-1,-1,-1,-1,-1,-1,-1,-1,-1,-1,-1,-1],"loss_changes":[5.1537137E-2,1.5322912E-1,1.5364055E-1,1.9576997E-1,1.386134E-1,3.0924305E-1,2.4066429E-1,4.7107607E-1,1.1301525E-1,1.3670386E-1,1.6722909E-1,3.3493495E-1,3.8086998E-1,5.736553E-1,4.0525904E-1,0E0,0E0,0E0,0E0,0E0,0E0,0E0,0E0,0E0,0E0,0E0,0E0,0E0,0E0,0E0,0E0],"parents":[2147483647,0,0,1,1,2,2,3,3,4,4,5,5,6,6,7,7,8,8,9,9,10,10,11,11,12,12,13,13,14,14],"right_children":[2,4,6,8,10,12,14,16,18,20,22,24,26,28,30,-1,-1,-1,-1,-1,-1,-1,-1,-1,-1,-1,-1,-1,-1,-1,-1],"split_conditions":[4.3388373E-1,8.660254E-1,2.569E1,-2.2252093E-1,2.3836401E1,2.4528751E1,2.738E1,2.728E1,5.672E2,2.3765E1,3.0444E2,2.4431112E1,1.2246469E-16,2.702E1,8.660254E-1,-8.2049735E-2,-5.2059814E-3,4.8073903E-3,-1.287358E-2,3.4995154E-3,-6.78463E-2,4.143448E-2,-7.4798586E-3,2.7713014E-3,1.1344338E-1,1.7981634E-2,-5.2297212E-2,9.056696E-3,1.1757746E-1,1.0417157E-2,-5.721843E-2],"split_indices":[3,1,0,4,7,7,0,0,5,7,5,7,1,0,2,0,0,0,0,0,0,0,0,0,0,0,0,0,0,0,0],"split_type":[0,0,0,0,0,0,0,0,0,0,0,0,0,0,0,0,0,0,0,0,0,0,0,0,0,0,0,0,0,0,0],"sum_hessian":[3.57E2,2.13E2,1.44E2,1.72E2,4.1E1,4.5E1,9.9E1,3.5E1,1.37E2,1.4E1,2.7E1,1.6E1,2.9E1,2.2E1,7.7E1,9E0,2.6E1,8.6E1,5.1E1,1.2E1,2E0,1.8E1,9E0,1.4E1,2E0,1E1,1.9E1,1.7E1,5E0,6.9E1,8E0],"tree_param":{"num_deleted":"0","num_feature":"8","num_nodes":"31",