{"learner":{"attributes":{"scikit_learn":"{\"_estimator_type\": \"regressor\"}"},"feature_names":["solar_generation","cyc_hour1","cyc_hour2","exp_solar","direct_solar","diffuse_solar","direct_solar_6h","diffuse_solar_6h","direct_solar_12h","diffuse_solar_12h","direct_solar_24h","diffuse_solar_24h"],"feature_types":["float","float","float","float","float","float","float","float","float","float","float","float"],"gradient_booster":{"model":{"gbtree_model_param":{"num_parallel_tree":"1","num_trees":"89"},"iteration_indptr":[0,1,2,3,4,5,6,7,8,9,10,11,12,13,14,15,16,17,18,19,20,21,22,23,24,25,26,27,28,29,30,31,32,33,34,35,36,37,38,39,40,41,42,43,44,45,46,47,48,49,50,51,52,53,54,55,56,57,58,59,60,61,62,63,64,65,66,67,68,69,70,71,72,73,74,75,76,77,78,79,80,81,82,83,84,85,86,87,88,89],"tree_info":[0,0,0,0,0,0,0,0,0,0,0,0,0,0,0,0,0,0,0,0,0,0,0,0,0,0,0,0,0,0,0,0,0,0,0,0,0,0,0,0,0,0,0,0,0,0,0,0,0,0,0,0,0,0,0,0,0,0,0,0,0,0,0,0,0,0,0,0,0,0,0,0,0,0,0,0,0,0,0,0,0,0,0,0,0,0,0,0,0],"trees":[{"base_weights":[6.7208844E-10,-5.2486844E-3,7.011704E-1,1.5376092E-1,7.5007254E-1,3.9382387E-2,3.6619976E-1,-4.9034776E-3,1.7213693E-1,-4.202981E-3,1.654307E-1],"categories":[],"categories_nodes":[],"categories_segments":[],"categories_sizes":[],"default_left":[0,0,0,0,0,0,0,0,0,0,0],"id":0,"left_children":[1,-1,3,5,-1,7,-1,-1,9,-1,-1],"loss_changes":[1.310159E1,0E0,2.5221104E1,2.5145788E0,0E0,1.5077466E-1,0E0,0E0,4.3135715E-1,0E0,0E0],"parents":[2147483647,0,0,2,2,3,3,5,5,8,8],"right_children":[2,-1,4,6,-1,8,-1,-1,10,-1,-1],"split_conditions":[9.4124335E2,-5.2486844E-3,1.23440895E2,1.1927145E-1,7.5007254E-1,1.1684289E2,3.6619976E-1,-4.9034776E-3,4.5745575E1,-4.202981E-3,1.654307E-1],"split_indices":[8,0,7,0,0,9,0,0,7,0,0],"split_type":[0,0,0,0,0,0,0,0,0,0,0],"sum_hessian":[1.066E3,1.041E3,2.5E1,2E1,5E0,1.9E1,1E0,1.4E1,5E0,4E0,1E0],"tree_param":{"num_deleted":"0","num_feature":"12","num_nodes":"11","size_leaf_vector":"1"}},{"base_weights":[1.1877674E-3,-3.67559E-3,5.3976524E-1,1.3251474E-1,5.6255436E-1,3.5383884E-2,3.112698E-1,-3.5305042E-3,1.4736715E-1,-3.1942658E-3,1.406161E-1],"categories":[],"categories_nodes":[],"categories_segments":[],"categories_sizes":[],"default_left":[0,0,0,0,0,0,0,0,0,0,0],"id":1,"left_children":[1,-1,3,5,-1,7,-1,-1,9,-1,-1],"loss_changes":[7.72992E0,0E0,1.3891579E1,1.8093632E0,0E0,1.0733949E-1,0E0,0E0,3.0966187E-1,0E0,0E0],"parents":[2147483647,0,0,2,2,3,3,5,5,8,8],"right_children":[2,-1,4,6,-1,8,-1,-1,10,-1,-1],"split_conditions":[9.4124335E2,-3.67559E-3,1.23440895E2,1.1927145E-1,5.6255436E-1,1.1684289E2,3.112698E-1,-3.5305042E-3,4.5745575E1,-3.1942658E-3,1.406161E-1],"split_indices":[8,0,7,0,0,9,0,0,7,0,0],"split_type":[0,0,0,0,0,0,0,0,0,0,0],"sum_hessian":[1.066E3,1.041E3,2.5E1,2E1,5E0,1.9E1,1E0,1.4E1,5E0,4E0,1E0],"tree_param":{"num_deleted":"0","num_feature":"12","num_nodes":"11","size_leaf_vector":"1"}},{"base_weights":[1.7724307E-3,-2.5739712E-3,4.1659397E-1,1.1395846E-1,4.219158E-1,3.1463284E-2,2.6457933E-1,-2.5419628E-3,1.2606063E-1,-2.4276418E-3,1.1952368E-1],"categories":[],"categories_nodes":[],"categories_segments":[],"categories_sizes":[],"default_left":[0,0,0,0,0,0,0,0,0,0,0],"id":2,"left_children":[1,-1,3,5,-1,7,-1,-1,9,-1,-1],"loss_changes":[4.585668E0,0E0,7.6279316E0,1.3026862E0,0E0,7.662587E-2,0E0,0E0,2.2244436E-1,0E0,0E0],"parents":[2147483647,0,0,2,2,3,3,5,5,8,8],"right_children":[2,-1,4,6,-1,8,-1,-1,10,-1,-1],"split_conditions":[9.4124335E2,-2.5739712E-3,1.23440895E2,1.1927145E-1,4.219158E-1,1.1684289E2,2.6457933E-1,-2.5419628E-3,4.5745575E1,-2.4276418E-3,1.1952368E-1],"split_indices":[8,0,7,0,0,9,0,0,7,0,0],"split_type":[0,0,0,0,0,0,0,0,0,0,0],"sum_hessian":[1.066E3,1.041E3,2.5E1,2E1,5E0,1.9E1,1E0,1.4E1,5E0,4E0,1E0],"tree_param":{"num_deleted":"0","num_feature":"12","num_nodes":"11","size_leaf_vector":"1"}},{"base_weights":[1.9890382E-3,-1.8025208E-3,3.2242537E-1,9.7824894E-2,3.1643683E-1,2.7752E-2,2.2489242E-1,-1.8302132E-3,1.0775845E-1,-1.8450076E-3,1.01595126E-1],"categories":[],"categories_nodes":[],"categories_segments":[],"categories_sizes":[],"default_left":[0,0,0,0,0,0,0,0,0,0,0],"id":3,"left_children":[1,-1,3,5,-1,7,-1,-1,9,-1,-1],"loss_changes":[2.7363067E0,0E0,4.1735373E0,9.3836397E-1,0E0,5.4826103E-2,0E0,0E0,1.59886E-1,0E0,0E0],"parents":[2147483647,0,0,2,2,3,3,5,5,8,8],"right_children":[2,-1,4,6,-1,8,-1,-1,10,-1,-1],"split_conditions":[9.4124335E2,-1.8025208E-3,1.23440895E2,1.1927145E-1,3.1643683E-1,1.1684289E2,2.2489242E-1,-1.8302132E-3,4.5745575E1,-1.8450076E-3,1.01595126E-1],"split_indices":[8,0,7,0,0,9,0,0,7,0,0],"split_type":[0,0,0,0,0,0,0,0,0,0,0],"sum_hessian":[1.066E3,1.041E3,2.5E1,2E1,5E0,1.9E1,1E0,1.4E1,5E0,4E0,1E0],"tree_param":{"num_deleted":"0","num_feature":"12","num_nodes":"11","size_leaf_vector":"1"}},{"base_weights":[1.9897467E-3,-1.2622835E-3,2.5028425E-1,1.1491628E-1,2.8982374E-1,2.4322396E-2,1.61747E-1,-1.3177535E-3,9.205593E-2,-1.4022058E-3,8.635586E-2],"categories":[],"categories_nodes":[],"categories_segments":[],"categories_sizes":[],"default_left":[0,0,0,0,0,0,0,0,0,0,0],"id":4,"left_children":[1,-1,3,5,-1,7,-1,-1,9,-1,-1],"loss_changes":[1.6429209E0,0E0,2.4082701E0,8.7085867E-1,0E0,3.930361E-2,0E0,0E0,1.1498198E-1,0E0,0E0],"parents":[2147483647,0,0,2,2,3,3,5,5,8,8],"right_children":[2,-1,4,6,-1,8,-1,-1,10,-1,-1],"split_conditions":[9.4124335E2,-1.2622835E-3,1.0092591E0,1.23440895E2,2.8982374E-1,1.1684289E2,1.61747E-1,-1.3177535E-3,4.5745575E1,-1.4022058E-3,8.635586E-2],"split_indices":[8,0,0,7,0,9,0,0,7,0,0],"split_type":[0,0,0,0,0,0,0,0,0,0,0],"sum_hessian":[1.066E3,1.041E3,2.5E1,2.2E1,3E0,1.9E1,3E0,1.4E1,5E0,4E0,1E0],"tree_param":{"num_deleted":"0","num_feature":"12","num_nodes":"11","size_leaf_vector":"1"}},{"base_weights":[1.893239E-3,-8.839619E-4,1.9578385E-1,9.1110215E-2,2.2461341E-1,3.0897195E-2,1.446694E-1,-1.0354464E-3,7.707894E-2,7.140415E-2,-8.7133085E-4],"categories":[],"categories_nodes":[],"categories_segments":[],"categories_sizes":[],"default_left":[0,0,0,0,0,0,0,0,0,0,0],"id":5,"left_children":[1,-1,3,5,-1,7,-1,-1,9,-1,-1],"loss_changes":[1.0018365E0,0E0,1.436585E0,5.267638E-1,0E0,3.3577956E-2,0E0,0E0,1.1654033E-1,0E0,0E0],"parents":[2147483647,0,0,2,2,3,3,5,5,8,8],"right_children":[2,-1,4,6,-1,8,-1,-1,10,-1,-1],"split_conditions":[9.4124335E2,-8.839619E-4,1.0092591E0,2.604906E2,2.2461341E-1,5.4514416E1,1.446694E-1,-1.0354464E-3,2.1441222E2,7.140415E-2,-8.7133085E-4],"split_indices":[8,0,0,7,0,7,0,0,6,0,0],"split_type":[0,0,0,0,0,0,0,0,0,0,0],"sum_hessian":[1.066E3,1.041E3,2.5E1,2.2E1,3E0,2E1,2E0,1.2E1,8E0,2E0,6E0],"tree_param":{"num_deleted":"0","num_feature":"12","num_nodes":"11","size_leaf_vector":"1"}},{"base_weights":[1.7356669E-3,-6.190278E-4,1.5392485E-1,7.308876E-2,1.7407537E-1,2.493743E-2,1.1573554E-1,-7.4870745E-4,6.1792225E-2,5.712331E-2,-6.4727425E-4],"categories":[],"categories_nodes":[],"categories_segments":[],"categories_sizes":[],"default_left":[0,0,0,0,0,0,0,0,0,0,0],"id":6,"left_children":[1,-1,3,5,-1,7,-1,-1,9,-1,-1],"loss_changes":[6.172366E-1,0E0,8.536168E-1,3.3668458E-1,0E0,2.1386094E-2,0E0,0E0,7.443716E-2,0E0,0E0],"parents":[2147483647,0,0,2,2,3,3,5,5,8,8],"right_children":[2,-1,4,6,-1,8,-1,-1,10,-1,-1],"split_conditions":[9.4124335E2,-6.190278E-4,1.0092591E0,2.604906E2,1.7407537E-1,5.4514416E1,1.1573554E-1,-7.4870745E-4,2.1441222E2,5.712331E-2,-6.4727425E-4],"split_indices":[8,0,0,7,0,7,0,0,6,0,0],"split_type":[0,0,0,0,0,0,0,0,0,0,0],"sum_hessian":[1.066E3,1.041E3,2.5E1,2.2E1,3E0,2E1,2E0,1.2E1,8E0,2E0,6E0],"tree_param":{"num_deleted":"0","num_feature":"12","num_nodes":"11","size_leaf_vector":"1"}},{"base_weights":[1.5382274E-3,-4.3349765E-4,1.2103733E-1,5.861703E-2,1.3490842E-1,2.0109879E-2,9.2588425E-2,-5.4137304E-4,4.952966E-2,4.569864E-2,-4.8083233E-4],"categories":[],"categories_nodes":[],"categories_segments":[],"categories_sizes":[],"default_left":[0,0,0,0,0,0,0,0,0,0,0],"id":7,"left_children":[1,-1,3,5,-1,7,-1,-1,9,-1,-1],"loss_changes":[3.8055193E-1,0E0,5.0702745E-1,2.1521944E-1,0E0,1.3628468E-2,0E0,0E0,4.7551483E-2,0E0,0E0],"parents":[2147483647,0,0,2,2,3,3,5,5,8,8],"right_children":[2,-1,4,6,-1,8,-1,-1,10,-1,-1],"split_conditions":[9.4124335E2,-4.3349765E-4,1.0092591E0,2.604906E2,1.3490842E-1,5.4514416E1,9.2588425E-2,-5.4137304E-4,2.1441222E2,4.569864E-2,-4.8083233E-4],"split_indices":[8,0,0,7,0,7,0,0,6,0,0],"split_type":[0,0,0,0,0,0,0,0,0,0,0],"sum_hessian":[1.066E3,1.041E3,2.5E1,2.2E1,3E0,2E1,2E0,1.2E1,8E0,2E0,6E0],"tree_param":{"num_deleted":"0","num_feature":"12","num_nodes":"11","size_leaf_vector":"1"}},{"base_weights":[1.3314356E-3,-3.035732E-4,9.519433E-2,4.6999957E-2,1.04554035E-1,1.6204363E-2,7.4070744E-2,2.1016914E-3,5.1110763E-2,-3.3676563E-4,7.569802E-3,-5.0754996E-4,4.7268562E-2],"categories":[],"categories_nodes":[],"categories_segments":[],"categories_sizes":[],"default_left":[0,0,0,0,0,0,0,0,0,0,0,0,0],"id":8,"left_children":[1,-1,3,5,-1,7,-1,9,11,-1,-1,-1,-1],"loss_changes":[2.3478647E-1,0E0,3.0104235E-1,1.3758978E-1,0E0,1.0230323E-2,0E0,1.2216037E-3,3.399194E-2,0E0,0E0,0E0,0E0],"parents":[2147483647,0,0,2,2,3,3,5,5,7,7,8,8],"right_children":[2,-1,4,6,-1,8,-1,10,12,-1,-1,-1,-1],"split_conditions":[9.4124335E2,-3.035732E-4,1.0092591E0,2.604906E2,1.04554035E-1,1.1684289E2,7.4070744E-2,1.1927145E-1,4.5745575E1,-3.3676563E-4,7.569802E-3,-5.0754996E-4,4.7268562E-2],"split_indices":[8,0,0,7,0,9,0,0,7,0,0,0,0],"split_type":[0,0,0,0,0,0,0,0,0,0,0,0,0],"sum_hessian":[1.066E3,1.041E3,2.5E1,2.2E1,3E0,2E1,2E0,1.5E1,5E0,1.4E1,1E0,4E0,1E0],"tree_param":{"num_deleted":"0","num_feature":"12","num_nodes":"13","size_leaf_vector":"1"}},{"base_weights":[1.1497329E-3,-2.1258862E-4,7.558293E-2,3.736353E-2,8.293462E-2,1.39142E-2,5.67163E-2,1.9232496E-3,4.3571033E-2,-2.4247127E-4,6.4343335E-3,-3.8573795E-4,4.0178277E-2],"categories":[],"categories_nodes":[],"categories_segments":[],"categories_sizes":[],"default_left":[0,0,0,0,0,0,0,0,0,0,0,0,0],"id":9,"left_children":[1,-1,3,5,-1,7,-1,9,11,-1,-1,-1,-1],"loss_changes":[1.4764504E-1,0E0,1.8927212E-1,7.918156E-2,0E0,7.3840884E-3,0E0,8.7063084E-4,2.4490852E-2,0E0,0E0,0E0,0E0],"parents":[2147483647,0,0,2,2,3,3,5,5,7,7,8,8],"right_children":[2,-1,4,6,-1,8,-1,10,12,-1,-1,-1,-1],"split_conditions":[9.4124335E2,-2.1258862E-4,2.604906E2,1.0092591E0,8.293462E-2,1.1684289E2,5.67163E-2,1.1927145E-1,4.5745575E1,-2.4247127E-4,6.4343335E-3,-3.8573795E-4,4.0178277E-2],"split_indices":[8,0,7,0,0,9,0,0,7,0,0,0,0],"split_type":[0,0,0,0,0,0,0,0,0,0,0,0,0],"sum_hessian":[1.066E3,1.041E3,2.5E1,2.2E1,3E0,2E1,2E0,1.5E1,5E0,1.4E1,1E0,4E0,1E0],"tree_param":{"num_deleted":"0","num_feature":"12","num_nodes":"13","size_leaf_vector":"1"}},{"base_weights":[9.785926E-4,-1.4887324E-4,6.0047872E-2,2.9444339E-2,6.630187E-2,1.1929667E-2,4.2669676E-2,1.7332594E-3,3.713181E-2,-1.745793E-4,5.4691676E-3,-2.9316085E-4,3.415153E-2],"categories":[],"categories_nodes":[],"categories_segments":[],"categories_sizes":[],"default_left":[0,0,0,0,0,0,0,0,0,0,0,0,0],"id":10,"left_children":[1,-1,3,5,-1,7,-1,9,11,-1,-1,-1,-1],"loss_changes":[9.298421E-2,0E0,1.21565856E-1,4.3738417E-2,0E0,5.3320387E-3,0E0,6.217191E-4,1.7650524E-2,0E0,0E0,0E0,0E0],"parents":[2147483647,0,0,2,2,3,3,5,5,7,7,8,8],"right_children":[2,-1,4,6,-1,8,-1,10,12,-1,-1,-1,-1],"split_conditions":[9.4124335E2,-1.4887324E-4,1.0092591E0,2.604906E2,6.630187E-2,1.1684289E2,4.2669676E-2,1.1927145E-1,4.5745575E1,-1.745793E-4,5.4691676E-3,-2.9316085E-4,3.415153E-2],"split_indices":[8,0,0,7,0,9,0,0,7,0,0,0,0],"split_type":[0,0,0,0,0,0,0,0,0,0,0,0,0],"sum_hessian":[1.066E3,1.041E3,2.5E1,2.2E1,3E0,2E1,2E0,1.5E1,5E0,1.4E1,1E0,4E0,1E0],"tree_param":{"num_deleted":"0","num_feature":"12","num_nodes":"13","size_leaf_vector":"1"}},{"base_weights":[8.236986E-4,-1.0425413E-4,4.7730606E-2,2.328896E-2,5.2901227E-2,1.0215196E-2,3.2112695E-2,1.5441985E-3,3.1635325E-2,-1.256971E-4,4.6488047E-3,-2.2280223E-4,2.9028798E-2],"categories":[],"categories_nodes":[],"categories_segments":[],"categories_sizes":[],"default_left":[0,0,0,0,0,0,0,0,0,0,0,0,0],"id":11,"left_children":[1,-1,3,5,-1,7,-1,9,11,-1,-1,-1,-1],"loss_changes":[5.8635376E-2,0E0,7.762071E-2,2.4090884E-2,0E0,3.8515602E-3,0E0,4.4473348E-4,1.272402E-2,0E0,0E0,0E0,0E0],"parents":[2147483647,0,0,2,2,3,3,5,5,7,7,8,8],"right_children":[2,-1,4,6,-1,8,-1,10,12,-1,-1,-1,-1],"split_conditions":[9.4124335E2,-1.0425413E-4,2.604906E2,1.0092591E0,5.2901227E-2,1.1684289E2,3.2112695E-2,1.1927145E-1,4.5745575E1,-1.256971E-4,4.6488047E-3,-2.2280223E-4,2.9028798E-2],"split_indices":[8,0,7,0,0,9,0,0,7,0,0,0,0],"split_type":[0,0,0,0,0,0,0,0,0,0,0,0,0],"sum_hessian":[1.066E3,1.041E3,2.5E1,2.2E1,3E0,2E1,2E0,1.5E1,5E0,1.4E1,1E0,4E0,1E0],"tree_param":{"num_deleted":"0","num_feature":"12","num_nodes":"13","size_leaf_vector":"1"}},{"base_weights":[6.874032E-4,-7.3007905E-5,3.7963077E-2,1.821944E-2,1.4199823E-1,8.737733E-3,2.355547E-2,5.023761E-2,9.842527E-3,1.3636257E-3,2.694573E-2,-9.050191E-5,3.951466E-3,-1.6932971E-4,2.4674483E-2],"categories":[],"categories_nodes":[],"categories_segments":[],"categories_sizes":[],"default_left":[0,0,0,0,0,0,0,0,0,0,0,0,0,0,0],"id":12,"left_children":[1,-1,3,5,7,9,-1,-1,-1,11,13,-1,-1,-1,-1],"loss_changes":[3.702861E-2,0E0,5.0817713E-2,1.2463843E-2,5.6260377E-3,2.7828782E-3,0E0,0E0,0E0,3.1859314E-4,9.174714E-3,0E0,0E0,0E0,0E0],"parents":[2147483647,0,0,2,2,3,3,4,4,5,5,9,9,10,10],"right_children":[2,-1,4,6,8,10,-1,-1,-1,12,14,-1,-1,-1,-1],"split_conditions":[9.4124335E2,-7.3007905E-5,1.0092591E0,2.604906E2,1.2389414E0,1.1684289E2,2.355547E-2,5.023761E-2,9.842527E-3,1.1927145E-1,4.5745575E1,-9.050191E-5,3.951466E-3,-1.6932971E-4,2.4674483E-2],"split_indices":[8,0,0,7,0,9,0,0,0,0,7,0,0,0,0],"split_type":[0,0,0,0,0,0,0,0,0,0,0,0,0,0,0],"sum_hessian":[1.066E3,1.041E3,2.5E1,2.2E1,3E0,2E1,2E0,2E0,1E0,1.5E1,5E0,1.4E1,1E0,4E0,1E0],"tree_param":{"num_deleted":"0","num_feature":"12","num_nodes":"15","size_leaf_vector":"1"}},{"base_weights":[5.860823E-4,-5.112655E-5,3.0881898E-2,1.501106E-2,1.14418745E-1,7.4671768E-3,1.8844368E-2,4.019008E-2,8.366132E-3,1.1958431E-3,2.2946203E-2,-6.516137E-5,3.3587338E-3,-1.2869058E-4,2.097331E-2],"categories":[],"categories_nodes":[],"categories_segments":[],"categories_sizes":[],"default_left":[0,0,0,0,0,0,0,0,0,0,0,0,0,0,0],"id":13,"left_children":[1,-1,3,5,7,9,-1,-1,-1,11,13,-1,-1,-1,-1],"loss_changes":[2.4459738E-2,0E0,3.275325E-2,7.825304E-3,3.030192E-3,2.011117E-3,0E0,0E0,0E0,2.2851795E-4,6.616855E-3,0E0,0E0,0E0,0E0],"parents":[2147483647,0,0,2,2,3,3,4,4,5,5,9,9,10,10],"right_children":[2,-1,4,6,8,10,-1,-1,-1,12,14,-1,-1,-1,-1],"split_conditions":[9.4124335E2,-5.112655E-5,1.0092591E0,2.604906E2,1.2389414E0,1.1684289E2,1.8844368E-2,4.019008E-2,8.366132E-3,1.1927145E-1,4.5745575E1,-6.516137E-5,3.3587338E-3,-1.2869058E-4,2.097331E-2],"split_indices":[8,0,0,7,0,9,0,0,0,0,7,0,0,0,0],"split_type":[0,0,0,0,0,0,0,0,0,0,0,0,0,0,0],"sum_hessian":[1.066E3,1.041E3,2.5E1,2.2E1,3E0,2E1,2E0,2E0,1E0,1.5E1,5E0,1.4E1,1E0,4E0,1E0],"tree_param":{"num_deleted":"0","num_feature":"12","num_nodes":"15","size_leaf_vector":"1"}},{"base_weights":[4.9600063E-4,-3.5803303E-5,2.5138056E-2,1.2268304E-2,2.7856387E-2,6.3764583E-3,1.4826537E-2,1.0429317E-3,1.9536454E-2,-4.6916186E-5,2.8549077E-3,-9.780484E-5,1.782732E-2],"categories":[],"categories_nodes":[],"categories_segments":[],"categories_sizes":[],"default_left":[0,0,0,0,0,0,0,0,0,0,0,0,0],"id":14,"left_children":[1,-1,3,5,-1,7,-1,9,11,-1,-1,-1,-1],"loss_changes":[1.618231E-2,0E0,2.1519713E-2,4.7196234E-3,0E0,1.4535979E-3,0E0,1.6408571E-4,4.7730114E-3,0E0,0E0,0E0,0E0],"parents":[2147483647,0,0,2,2,3,3,5,5,7,7,8,8],"right_children":[2,-1,4,6,-1,8,-1,10,12,-1,-1,-1,-1],"split_conditions":[9.4124335E2,-3.5803303E-5,2.604906E2,1.0092591E0,2.7856387E-2,1.1684289E2,1.4826537E-2,1.1927145E-1,4.5745575E1,-4.6916186E-5,2.8549077E-3,-9.780484E-5,1.782732E-2],"split_indices":[8,0,7,0,0,9,0,0,7,0,0,0,0],"split_type":[0,0,0,0,0,0,0,0,0,0,0,0,0],"sum_hessian":[1.066E3,1.041E3,2.5E1,2.2E1,3E0,2E1,2E0,1.5E1,5E0,1.4E1,1E0,4E0,1E0],"tree_param":{"num_deleted":"0","num_feature":"12","num_nodes":"13","size_leaf_vector":"1"}},{"base_weights":[4.0641773E-4,-2.5072623E-5,2.0028204E-2,9.1006E-3,7.785487E-2,1.9185795E-2,-3.9921724E-5,2.7883792E-2,4.8872354E-3,-4.4546206E-5,3.5322446E-2,1.27345E-2,-4.6046745E-5],"categories":[],"categories_nodes":[],"categories_segments":[],"categories_sizes":[],"default_left":[0,0,0,0,0,0,0,0,0,0,0,0,0],"id":15,"left_children":[1,-1,3,5,7,9,-1,-1,-1,-1,11,-1,-1],"loss_changes":[1.0260388E-2,0E0,1.5721053E-2,2.1443912E-3,2.202116E-3,3.437141E-3,0E0,0E0,0E0,0E0,1.5233001E-3,0E0,0E0],"parents":[2147483647,0,0,2,2,3,3,4,4,5,5,10,10],"right_children":[2,-1,4,6,8,10,-1,-1,-1,-1,12,-1,-1],"split_conditions":[9.4124335E2,-2.5072623E-5,1.0092591E0,1.0339623E3,1.2389414E0,4.5745575E1,-3.9921724E-5,2.7883792E-2,4.8872354E-3,-4.4546206E-5,5.700905E2,1.27345E-2,-4.6046745E-5],"split_indices":[8,0,0,8,0,7,0,0,0,0,6,0,0],"split_type":[0,0,0,0,0,0,0,0,0,0,0,0,0],"sum_hessian":[1.066E3,1.041E3,2.5E1,2.2E1,3E0,1E1,1.2E1,2E0,1E0,5E0,5E0,4E0,1E0],"tree_param":{"num_deleted":"0","num_feature":"12","num_nodes":"13","size_leaf_vector":"1"}},{"base_weights":[3.2699486E-4,-1.7558054E-5,1.5764942E-2,6.9184294E-3,6.269115E-2,1.4579523E-2,-2.8866476E-5,2.2307038E-2,4.154134E-3,7.2087757E-3,1.324305E-2,9.428831E-5,6.9573405E-3],"categories":[],"categories_nodes":[],"categories_segments":[],"categories_sizes":[],"default_left":[0,0,0,0,0,0,0,0,0,0,0,0,0],"id":16,"left_children":[1,-1,3,5,7,9,-1,-1,-1,11,-1,-1,-1],"loss_changes":[6.3513475E-3,0E0,1.035974E-2,1.2374206E-3,1.249563E-3,2.0787737E-3,0E0,0E0,0E0,1.0946118E-3,0E0,0E0,0E0],"parents":[2147483647,0,0,2,2,3,3,4,4,5,5,9,9],"right_children":[2,-1,4,6,8,10,-1,-1,-1,12,-1,-1,-1],"split_conditions":[9.4124335E2,-1.7558054E-5,1.0092591E0,1.0339623E3,1.2389414E0,1.0207561E3,-2.8866476E-5,2.2307038E-2,4.154134E-3,2.604906E2,1.324305E-2,9.428831E-5,6.9573405E-3],"split_indices":[8,0,0,8,0,8,0,0,0,7,0,0,0],"split_type":[0,0,0,0,0,0,0,0,0,0,0,0,0],"sum_hessian":[1.066E3,1.041E3,2.5E1,2.2E1,3E0,1E1,1.2E1,2E0,1E0,9E0,1E0,7E0,2E0],"tree_param":{"num_deleted":"0","num_feature":"12","num_nodes":"13","size_leaf_vector":"1"}},{"base_weights":[2.726729E-4,-1.2295693E-5,1.2832655E-2,5.7240305E-3,5.049908E-2,1.2050653E-2,-2.0872683E-5,5.937982E-3,2.1392478E-2,5.7513267E-3,1.1256588E-2,6.9541864E-5,5.5658817E-3],"categories":[],"categories_nodes":[],"categories_segments":[],"categories_sizes":[],"default_left":[0,0,0,0,0,0,0,0,0,0,0,0,0],"id":17,"left_children":[1,-1,3,5,7,9,-1,-1,-1,11,-1,-1,-1],"loss_changes":[4.2040213E-3,0E0,6.6726105E-3,8.438796E-4,1.144426E-3,1.5491716E-3,0E0,0E0,0E0,7.0228695E-4,0E0,0E0,0E0],"parents":[2147483647,0,0,2,2,3,3,4,4,5,5,9,9],"right_children":[2,-1,4,6,8,10,-1,-1,-1,12,-1,-1,-1],"split_conditions":[9.4124335E2,-1.2295693E-5,1.0092591E0,1.0339623E3,8.660254E-1,1.0207561E3,-2.0872683E-5,5.937982E-3,2.1392478E-2,2.604906E2,1.1256588E-2,6.9541864E-5,5.5658817E-3],"split_indices":[8,0,0,8,1,8,0,0,0,7,0,0,0],"split_type":[0,0,0,0,0,0,0,0,0,0,0,0,0],"sum_hessian":[1.066E3,1.041E3,2.5E1,2.2E1,3E0,1E1,1.2E1,2E0,1E0,9E0,1E0,7E0,2E0],"tree_param":{"num_deleted":"0","num_feature":"12","num_nodes":"13","size_leaf_vector":"1"}},{"base_weights":[2.3228527E-4,-8.610525E-6,1.0682908E-2,4.740346E-3,4.218191E-2,-2.4340792E-5,1.0007521E-2,4.750371E-3,1.8183589E-2,9.568102E-3,4.6295393E-3,6.631265E-5,4.4527054E-3],"categories":[],"categories_nodes":[],"categories_segments":[],"categories_sizes":[],"default_left":[0,0,0,0,0,0,0,0,0,0,0,0,0],"id":18,"left_children":[1,-1,3,5,7,-1,9,-1,-1,-1,11,-1,-1],"loss_changes":[2.9105244E-3,0E0,4.6668467E-3,5.8491057E-4,9.825667E-4,0E0,1.1470836E-3,0E0,0E0,0E0,4.4695078E-4,0E0,0E0],"parents":[2147483647,0,0,2,2,3,3,4,4,6,6,10,10],"right_children":[2,-1,4,6,8,-1,10,-1,-1,-1,12,-1,-1],"split_conditions":[9.4124335E2,-8.610525E-6,1.0092591E0,5.4514416E1,8.660254E-1,-2.4340792E-5,5E-1,4.750371E-3,1.8183589E-2,9.568102E-3,2.604906E2,6.631265E-5,4.4527054E-3],"split_indices":[8,0,0,7,1,0,1,0,0,0,7,0,0],"split_type":[0,0,0,0,0,0,0,0,0,0,0,0,0],"sum_hessian":[1.066E3,1.041E3,2.5E1,2.2E1,3E0,1.2E1,1E1,2E0,1E0,1E0,9E0,7E0,2E0],"tree_param":{"num_deleted":"0","num_feature":"12","num_nodes":"13","size_leaf_vector":"1"}},{"base_weights":[1.9726537E-4,-6.0298457E-6,8.900993E-3,3.929669E-3,3.5260856E-2,8.290689E-3,-1.8812041E-5,3.800297E-3,1.5456069E-2,3.6978335E-3,8.132887E-3,5.0875922E-5,3.5621645E-3],"categories":[],"categories_nodes":[],"categories_segments":[],"categories_sizes":[],"default_left":[0,0,0,0,0,0,0,0,0,0,0,0,0],"id":19,"left_children":[1,-1,3,5,7,9,-1,-1,-1,11,-1,-1,-1],"loss_changes":[2.0188196E-3,0E0,3.2685653E-3,4.0096894E-4,8.167643E-4,8.505123E-4,0E0,0E0,0E0,2.8645748E-4,0E0,0E0,0E0],"parents":[2147483647,0,0,2,2,3,3,4,4,5,5,9,9],"right_children":[2,-1,4,6,8,10,-1,-1,-1,12,-1,-1,-1],"split_conditions":[9.4124335E2,-6.0298457E-6,1.0092591E0,1.0339623E3,8.660254E-1,1.0207561E3,-1.8812041E-5,3.800297E-3,1.5456069E-2,2.604906E2,8.132887E-3,5.0875922E-5,3.5621645E-3],"split_indices":[8,0,0,8,1,8,0,0,0,7,0,0,0],"split_type":[0,0,0,0,0,0,0,0,0,0,0,0,0],"sum_hessian":[1.066E3,1.041E3,2.5E1,2.2E1,3E0,1E1,1.2E1,2E0,1E0,9E0,1E0,7E0,2E0],"tree_param":{"num_deleted":"0","num_feature":"12","num_nodes":"13","size_leaf_vector":"1"}},{"base_weights":[1.6711792E-4,-4.222628E-6,7.4223625E-3,3.260641E-3,2.949667E-2,-2.0431693E-5,6.898192E-3,3.0402185E-3,1.3137675E-2,6.912947E-3,2.97938E-3,4.8621823E-5,2.849722E-3],"categories":[],"categories_nodes":[],"categories_segments":[],"categories_sizes":[],"default_left":[0,0,0,0,0,0,0,0,0,0,0,0,0],"id":20,"left_children":[1,-1,3,5,7,-1,9,-1,-1,-1,11,-1,-1],"loss_changes":[1.4027847E-3,0E0,2.2923672E-3,2.78965E-4,6.634053E-4,0E0,6.2730553E-4,0E0,0E0,0E0,1.8214024E-4,0E0,0E0],"parents":[2147483647,0,0,2,2,3,3,4,4,6,6,10,10],"right_children":[2,-1,4,6,8,-1,10,-1,-1,-1,12,-1,-1],"split_conditions":[9.4124335E2,-4.222628E-6,1.0092591E0,5.4514416E1,8.660254E-1,-2.0431693E-5,5E-1,3.0402185E-3,1.3137675E-2,6.912947E-3,2.604906E2,4.8621823E-5,2.849722E-3],"split_indices":[8,0,0,7,1,0,1,0,0,0,7,0,0],"split_type":[0,0,0,0,0,0,0,0,0,0,0,0,0],"sum_hessian":[1.066E3,1.041E3,2.5E1,2.2E1,3E0,1.2E1,1E1,2E0,1E0,1E0,9E0,7E0,2E0],"tree_param":{"num_deleted":"0","num_feature":"12","num_nodes":"13","size_leaf_vector":"1"}},{"base_weights":[1.413164E-4,-2.9570556E-6,6.19444E-3,2.7081291E-3,2.4692118E-2,5.7251365E-3,-1.5912257E-5,2.4321557E-3,1.1167038E-2,2.3803136E-3,5.876005E-3,3.7708192E-5,2.2797587E-3],"categories":[],"categories_nodes":[],"categories_segments":[],"categories_sizes":[],"default_left":[0,0,0,0,0,0,0,0,0,0,0,0,0],"id":21,"left_children":[1,-1,3,5,7,9,-1,-1,-1,11,-1,-1,-1],"loss_changes":[9.764413E-4,0E0,1.6098355E-3,1.9190447E-4,5.295484E-4,4.6338615E-4,0E0,0E0,0E0,1.16710755E-4,0E0,0E0,0E0],"parents":[2147483647,0,0,2,2,3,3,4,4,5,5,9,9],"right_children":[2,-1,4,6,8,10,-1,-1,-1,12,-1,-1,-1],"split_conditions":[9.4124335E2,-2.9570556E-6,1.0092591E0,1.0339623E3,8.660254E-1,1.0207561E3,-1.5912257E-5,2.4321557E-3,1.1167038E-2,2.604906E2,5.876005E-3,3.7708192E-5,2.2797587E-3],"split_indices":[8,0,0,8,1,8,0,0,0,7,0,0,0],"split_type":[0,0,0,0,0,0,0,0,0,0,0,0,0],"sum_hessian":[1.066E3,1.041E3,2.5E1,2.2E1,3E0,1E1,1.2E1,2E0,1E0,9E0,1E0,7E0,2E0],"tree_param":{"num_deleted":"0","num_feature":"12","num_nodes":"13","size_leaf_vector":"1"}},{"base_weights":[1.193281E-4,-2.0707903E-6,5.173678E-3,2.2512355E-3,2.0684302E-2,-1.655419E-5,4.7723423E-3,6.4857802E-3,9.49198E-3,4.9945954E-3,1.9198464E-3,2.3818016E-3,5.3679943E-4,-9.068222E-5,1.5985788E-3],"categories":[],"categories_nodes":[],"categories_segments":[],"categories_sizes":[],"default_left":[0,0,0,0,0,0,0,0,0,0,0,0,0,0,0],"id":22,"left_children":[1,-1,3,5,7,-1,9,11,-1,-1,13,-1,-1,-1,-1],"loss_changes":[6.807969E-4,0E0,1.1319863E-3,1.3400192E-4,4.170055E-4,0E0,3.4068542E-4,6.273578E-6,0E0,0E0,7.735721E-5,0E0,0E0,0E0,0E0],"parents":[2147483647,0,0,2,2,3,3,4,4,6,6,7,7,10,10],"right_children":[2,-1,4,6,8,-1,10,12,-1,-1,14,-1,-1,-1,-1],"split_conditions":[9.4124335E2,-2.0707903E-6,1.0092591E0,5.4514416E1,8.660254E-1,-1.655419E-5,5E-1,1.1634532E0,9.49198E-3,4.9945954E-3,1.23440895E2,2.3818016E-3,5.3679943E-4,-9.068222E-5,1.5985788E-3],"split_indices":[8,0,0,7,1,0,1,0,0,0,7,0,0,0,0],"split_type":[0,0,0,0,0,0,0,0,0,0,0,0,0,0,0],"sum_hessian":[1.066E3,1.041E3,2.5E1,2.2E1,3E0,1.2E1,1E1,2E0,1E0,1E0,9E0,1E0,1E0,6E0,3E0],"tree_param":{"num_deleted":"0","num_feature":"12","num_nodes":"15","size_leaf_vector":"1"}},{"base_weights":[1.0123776E-4,-1.4501494E-6,4.348367E-3,1.8578583E-3,1.7581701E-2,-1.1969952E-5,3.931767E-3,5.512953E-3,8.068193E-3,4.2454004E-3,1.4946768E-3,2.0245314E-3,4.5629742E-4,-3.5290007E-6,1.5040875E-3],"categories":[],"categories_nodes":[],"categories_segments":[],"categories_sizes":[],"default_left":[0,0,0,0,0,0,0,0,0,0,0,0,0,0,0],"id":23,"left_children":[1,-1,3,5,7,-1,9,11,-1,-1,13,-1,-1,-1,-1],"loss_changes":[4.807043E-4,0E0,8.242368E-4,9.067974E-5,3.0128472E-4,0E0,2.5281444E-4,4.531721E-6,0E0,0E0,5.3069816E-5,0E0,0E0,0E0,0E0],"parents":[2147483647,0,0,2,2,3,3,4,4,6,6,7,7,10,10],"right_children":[2,-1,4,6,8,-1,10,12,-1,-1,14,-1,-1,-1,-1],"split_conditions":[9.4124335E2,-1.4501494E-6,1.0092591E0,5.4514416E1,8.660254E-1,-1.1969952E-5,5E-1,1.1634532E0,8.068193E-3,4.2454004E-3,2.604906E2,2.0245314E-3,4.5629742E-4,-3.5290007E-6,1.5040875E-3],"split_indices":[8,0,0,7,1,0,1,0,0,0,7,0,0,0,0],"split_type":[0,0,0,0,0,0,0,0,0,0,0,0,0,0,0],"sum_hessian":[1.066E3,1.041E3,2.5E1,2.2E1,3E0,1.2E1,1E1,2E0,1E0,1E0,9E0,1E0,1E0,7E0,2E0],"tree_param":{"num_deleted":"0","num_feature":"12","num_nodes":"15","size_leaf_vector":"1"}},{"base_weights":[8.612567E-5,-1.0155221E-6,3.6701283E-3,1.5497984E-3,1.4944494E-2,-8.655196E-6,3.2745837E-3,4.6860375E-3,6.8579796E-3,3.6085905E-3,1.1963153E-3,1.7208696E-3,3.8784745E-4,-2.6008647E-6,1.2032508E-3],"categories":[],"categories_nodes":[],"categories_segments":[],"categories_sizes":[],"default_left":[0,0,0,0,0,0,0,0,0,0,0,0,0,0,0],"id":24,"left_children":[1,-1,3,5,7,-1,9,11,-1,-1,13,-1,-1,-1,-1],"loss_changes":[3.4231323E-4,0E0,5.983788E-4,6.2719584E-5,2.176782E-4,0E0,1.857359E-4,3.2746539E-6,0E0,0E0,3.394932E-5,0E0,0E0,0E0,0E0],"parents":[2147483647,0,0,2,2,3,3,4,4,6,6,7,7,10,10],"right_children":[2,-1,4,6,8,-1,10,12,-1,-1,14,-1,-1,-1,-1],"split_conditions":[9.4124335E2,-1.0155221E-6,1.0092591E0,5.4514416E1,8.660254E-1,-8.655196E-6,5E-1,1.1634532E0,6.8579796E-3,3.6085905E-3,2.604906E2,1.7208696E-3,3.8784745E-4,-2.6008647E-6,1.2032508E-3],"split_indices":[8,0,0,7,1,0,1,0,0,0,7,0,0,0,0],"split_type":[0,0,0,0,0,0,0,0,0,0,0,0,0,0,0],"sum_hessian":[1.066E3,1.041E3,2.5E1,2.2E1,3E0,1.2E1,1E1,2E0,1E0,1E0,9E0,1E0,1E0,7E0,2E0],"tree_param":{"num_deleted":"0","num_feature":"12","num_nodes":"15","size_leaf_vector":"1"}},{"base_weights":[7.318976E-5,-7.111578E-7,3.0985984E-3,1.293577E-3,1.2702823E-2,-6.258372E-6,2.729406E-3,3.9831004E-3,5.829299E-3,3.0673028E-3,9.574783E-4,1.4627338E-3,3.296614E-4,-6.578768E-5,8.332372E-4],"categories":[],"categories_nodes":[],"categories_segments":[],"categories_sizes":[],"default_left":[0,0,0,0,0,0,0,0,0,0,0,0,0,0,0],"id":25,"left_children":[1,-1,3,5,7,-1,9,11,-1,-1,13,-1,-1,-1,-1],"loss_changes":[2.4392435E-4,0E0,4.3429952E-4,4.3465043E-5,1.5727553E-4,0E0,1.3629577E-4,2.3662142E-6,0E0,0E0,2.202605E-5,0E0,0E0,0E0,0E0],"parents":[2147483647,0,0,2,2,3,3,4,4,6,6,7,7,10,10],"right_children":[2,-1,4,6,8,-1,10,12,-1,-1,14,-1,-1,-1,-1],"split_conditions":[9.4124335E2,-7.111578E-7,1.0092591E0,5.4514416E1,8.660254E-1,-6.258372E-6,5E-1,1.1634532E0,5.829299E-3,3.0673028E-3,1.23440895E2,1.4627338E-3,3.296614E-4,-6.578768E-5,8.332372E-4],"split_indices":[8,0,0,7,1,0,1,0,0,0,7,0,0,0,0],"split_type":[0,0,0,0,0,0,0,0,0,0,0,0,0,0,0],"sum_hessian":[1.066E3,1.041E3,2.5E1,2.2E1,3E0,1.2E1,1E1,2E0,1E0,1E0,9E0,1E0,1E0,6E0,3E0],"tree_param":{"num_deleted":"0","num_feature":"12","num_nodes":"15","size_leaf_vector":"1"}},{"base_weights":[6.196324E-5,-4.980152E-7,2.6094057E-3,1.0719576E-3,1.0797381E-2,-4.5252846E-6,2.2591928E-3,3.3856232E-3,4.9548987E-3,2.6072145E-3,7.46969E-4,1.2433291E-3,2.8020144E-4,-1.8362829E-5,7.959366E-4],"categories":[],"categories_nodes":[],"categories_segments":[],"categories_sizes":[],"default_left":[0,0,0,0,0,0,0,0,0,0,0,0,0,0,0],"id":26,"left_children":[1,-1,3,5,7,-1,9,11,-1,-1,13,-1,-1,-1,-1],"loss_changes":[1.7294014E-4,0E0,3.15729E-4,2.9717285E-5,1.13631744E-4,0E0,1.004932E-4,1.7099992E-6,0E0,0E0,1.5567512E-5,0E0,0E0,0E0,0E0],"parents":[2147483647,0,0,2,2,3,3,4,4,6,6,7,7,10,10],"right_children":[2,-1,4,6,8,-1,10,12,-1,-1,14,-1,-1,-1,-1],"split_conditions":[9.4124335E2,-4.980152E-7,1.0092591E0,5.4514416E1,8.660254E-1,-4.5252846E-6,5E-1,1.1634532E0,4.9548987E-3,2.6072145E-3,2.604906E2,1.2433291E-3,2.8020144E-4,-1.8362829E-5,7.959366E-4],"split_indices":[8,0,0,7,1,0,1,0,0,0,7,0,0,0,0],"split_type":[0,0,0,0,0,0,0,0,0,0,0,0,0,0,0],"sum_hessian":[1.066E3,1.041E3,2.5E1,2.2E1,3E0,1.2E1,1E1,2E0,1E0,1E0,9E0,1E0,1E0,7E0,2E0],"tree_param":{"num_deleted":"0","num_feature":"12","num_nodes":"15","size_leaf_vector":"1"}},{"base_weights":[5.2613712E-5,-3.4875399E-7,2.2057758E-3,8.9734583E-4,9.177804E-3,-3.2721287E-6,1.8891587E-3,2.8777916E-3,4.2116763E-3,2.2161305E-3,6.0065434E-4,1.0568262E-3,2.3818018E-4,-1.3542758E-5,6.367684E-4],"categories":[],"categories_nodes":[],"categories_segments":[],"categories_sizes":[],"default_left":[0,0,0,0,0,0,0,0,0,0,0,0,0,0,0],"id":27,"left_children":[1,-1,3,5,7,-1,9,11,-1,-1,13,-1,-1,-1,-1],"loss_changes":[1.2354935E-4,0E0,2.2894701E-4,2.0739399E-5,8.209929E-5,0E0,7.348826E-5,1.2351957E-6,0E0,0E0,9.924244E-6,0E0,0E0,0E0,0E0],"parents":[2147483647,0,0,2,2,3,3,4,4,6,6,7,7,10,10],"right_children":[2,-1,4,6,8,-1,10,12,-1,-1,14,-1,-1,-1,-1],"split_conditions":[9.4124335E2,-3.4875399E-7,1.0092591E0,5.4514416E1,8.660254E-1,-3.2721287E-6,5E-1,1.1634532E0,4.2116763E-3,2.2161305E-3,2.604906E2,1.0568262E-3,2.3818018E-4,-1.3542758E-5,6.367684E-4],"split_indices":[8,0,0,7,1,0,1,0,0,0,7,0,0,0,0],"split_type":[0,0,0,0,0,0,0,0,0,0,0,0,0,0,0],"sum_hessian":[1.066E3,1.041E3,2.5E1,2.2E1,3E0,1.2E1,1E1,2E0,1E0,1E0,9E0,1E0,1E0,7E0,2E0],"tree_param":{"num_deleted":"0","num_feature":"12","num_nodes":"15","size_leaf_vector":"1"}},{"base_weights":[4.4648088E-5,-2.442282E-7,1.8649152E-3,7.5144926E-4,7.8011155E-3,-2.3660016E-6,1.5805328E-3,7.338286E-4,3.5799267E-3,1.8837155E-3,4.8277577E-4,-9.986019E-6,5.0940516E-4],"categories":[],"categories_nodes":[],"categories_segments":[],"categories_sizes":[],"default_left":[0,0,0,0,0,0,0,0,0,0,0,0,0],"id":28,"left_children":[1,-1,3,5,7,-1,9,-1,-1,-1,11,-1,-1],"loss_changes":[8.829931E-5,0E0,1.6599154E-4,1.4492182E-5,5.931771E-5,0E0,5.3704774E-5,0E0,0E0,0E0,6.3279263E-6,0E0,0E0],"parents":[2147483647,0,0,2,2,3,3,4,4,6,6,10,10],"right_children":[2,-1,4,6,8,-1,10,-1,-1,-1,12,-1,-1],"split_conditions":[9.4124335E2,-2.442282E-7,1.0092591E0,5.4514416E1,8.660254E-1,-2.3660016E-6,5E-1,7.338286E-4,3.5799267E-3,1.8837155E-3,2.604906E2,-9.986019E-6,5.0940516E-4],"split_indices":[8,0,0,7,1,0,1,0,0,0,7,0,0],"split_type":[0,0,0,0,0,0,0,0,0,0,0,0,0],"sum_hessian":[1.066E3,1.041E3,2.5E1,2.2E1,3E0,1.2E1,1E1,2E0,1E0,1E0,9E0,7E0,2E0],"tree_param":{"num_deleted":"0","num_feature":"12","num_nodes":"13","size_leaf_vector":"1"}},{"base_weights":[3.752743E-5,-1.7103007E-7,1.5629159E-3,6.295178E-4,6.5392256E-3,-1.7108023E-6,1.323004E-3,8.513689E-3,9.237528E-5,1.6011536E-3,3.878686E-4,7.882119E-4,3.0429484E-3,-3.809872E-5,3.5757423E-4],"categories":[],"categories_nodes":[],"categories_segments":[],"categories_sizes":[],"default_left":[0,0,0,0,0,0,0,0,0,0,0,0,0,0,0],"id":29,"left_children":[1,-1,3,5,7,-1,9,11,-1,-1,13,-1,-1,-1,-1],"loss_changes":[6.2008025E-5,0E0,1.1665028E-4,1.0139425E-5,4.659244E-5,0E0,3.922164E-5,2.1248998E-6,0E0,0E0,4.2911115E-6,0E0,0E0,0E0,0E0],"parents":[2147483647,0,0,2,2,3,3,4,4,6,6,7,7,10,10],"right_children":[2,-1,4,6,8,-1,10,12,-1,-1,14,-1,-1,-1,-1],"split_conditions":[9.4124335E2,-1.7103007E-7,1.0092591E0,5.4514416E1,1.2389414E0,-1.7108023E-6,5E-1,1.1634532E0,9.237528E-5,1.6011536E-3,1.23440895E2,7.882119E-4,3.0429484E-3,-3.809872E-5,3.5757423E-4],"split_indices":[8,0,0,7,0,0,1,0,0,0,7,0,0,0,0],"split_type":[0,0,0,0,0,0,0,0,0,0,0,0,0,0,0],"sum_hessian":[1.066E3,1.041E3,2.5E1,2.2E1,3E0,1.2E1,1E1,2E0,1E0,1E0,9E0,1E0,1E0,6E0,3E0],"tree_param":{"num_deleted":"0","num_feature":"12","num_nodes":"15","size_leaf_vector":"1"}},{"base_weights":[3.174464E-5,-1.1977028E-7,1.3187513E-3,5.2408903E-4,5.5583715E-3,-1.2370418E-6,1.1006957E-3,7.2366395E-3,7.8535086E-5,1.3609887E-3,3.034395E-4,6.699801E-4,2.586508E-3,-1.22024885E-5,3.3597948E-4],"categories":[],"categories_nodes":[],"categories_segments":[],"categories_sizes":[],"default_left":[0,0,0,0,0,0,0,0,0,0,0,0,0,0,0],"id":30,"left_children":[1,-1,3,5,7,-1,9,11,-1,-1,13,-1,-1,-1,-1],"loss_changes":[4.4141652E-5,0E0,8.4682644E-5,7.0096685E-6,3.366194E-5,0E0,2.8755912E-5,1.5352707E-6,0E0,0E0,2.8552204E-6,0E0,0E0,0E0,0E0],"parents":[2147483647,0,0,2,2,3,3,4,4,6,6,7,7,10,10],"right_children":[2,-1,4,6,8,-1,10,12,-1,-1,14,-1,-1,-1,-1],"split_conditions":[9.4124335E2,-1.1977028E-7,1.0092591E0,5.4514416E1,1.2389414E0,-1.2370418E-6,5E-1,1.1634532E0,7.8535086E-5,1.3609887E-3,2.604906E2,6.699801E-4,2.586508E-3,-1.22024885E-5,3.3597948E-4],"split_indices":[8,0,0,7,0,0,1,0,0,0,7,0,0,0,0],"split_type":[0,0,0,0,0,0,0,0,0,0,0,0,0,0,0],"sum_hessian":[1.066E3,1.041E3,2.5E1,2.2E1,3E0,1.2E1,1E1,2E0,1E0,1E0,9E0,1E0,1E0,7E0,2E0],"tree_param":{"num_deleted":"0","num_feature":"12","num_nodes":"15","size_leaf_vector":"1"}},{"base_weights":[2.6924607E-5,-8.387368E-8,1.1161491E-3,4.4006042E-4,4.724622E-3,-8.9447684E-7,9.2365005E-4,6.1511197E-3,6.676913E-5,1.1568367E-3,2.4479057E-4,5.6948664E-4,2.1985173E-3,-9.000953E-6,2.687931E-4],"categories":[],"categories_nodes":[],"categories_segments":[],"categories_sizes":[],"default_left":[0,0,0,0,0,0,0,0,0,0,0,0,0,0,0],"id":31,"left_children":[1,-1,3,5,7,-1,9,11,-1,-1,13,-1,-1,-1,-1],"loss_changes":[3.1617088E-5,0E0,6.135171E-5,4.930516E-6,2.43197E-5,0E0,2.0954161E-5,1.108805E-6,0E0,0E0,1.8163018E-6,0E0,0E0,0E0,0E0],"parents":[2147483647,0,0,2,2,3,3,4,4,6,6,7,7,10,10],"right_children":[2,-1,4,6,8,-1,10,12,-1,-1,14,-1,-1,-1,-1],"split_conditions":[9.4124335E2,-8.387368E-8,1.0092591E0,5.4514416E1,1.2389414E0,-8.9447684E-7,5E-1,1.1634532E0,6.676913E-5,1.1568367E-3,2.604906E2,5.6948664E-4,2.1985173E-3,-9.000953E-6,2.687931E-4],"split_indices":[8,0,0,7,0,0,1,0,0,0,7,0,0,0,0],"split_type":[0,0,0,0,0,0,0,0,0,0,0,0,0,0,0],"sum_hessian":[1.066E3,1.041E3,2.5E1,2.2E1,3E0,1.2E1,1E1,2E0,1E0,1E0,9E0,1E0,1E0,7E0,2E0],"tree_param":{"num_deleted":"0","num_feature":"12","num_nodes":"15","size_leaf_vector":"1"}},{"base_weights":[2.2830993E-5,-5.873572E-8,9.4479526E-4,3.696081E-4,4.0159225E-3,-6.467755E-7,7.7536487E-4,1.568532E-3,5.6755543E-5,9.833158E-4,1.9735759E-4,-2.2849592E-5,1.8800498E-4],"categories":[],"categories_nodes":[],"categories_segments":[],"categories_sizes":[],"default_left":[0,0,0,0,0,0,0,0,0,0,0,0,0],"id":32,"left_children":[1,-1,3,5,7,-1,9,-1,-1,-1,11,-1,-1],"loss_changes":[2.2652452E-5,0E0,4.444398E-5,3.4711247E-6,1.7570805E-5,0E0,1.5263286E-5,0E0,0E0,0E0,1.2220353E-6,0E0,0E0],"parents":[2147483647,0,0,2,2,3,3,4,4,6,6,10,10],"right_children":[2,-1,4,6,8,-1,10,-1,-1,-1,12,-1,-1],"split_conditions":[9.4124335E2,-5.873572E-8,1.0092591E0,5.4514416E1,1.2389414E0,-6.467755E-7,5E-1,1.568532E-3,5.6755543E-5,9.833158E-4,1.23440895E2,-2.2849592E-5,1.8800498E-4],"split_indices":[8,0,0,7,0,0,1,0,0,0,7,0,0],"split_type":[0,0,0,0,0,0,0,0,0,0,0,0,0],"sum_hessian":[1.066E3,1.041E3,2.5E1,2.2E1,3E0,1.2E1,1E1,2E0,1E0,1E0,9E0,6E0,3E0],"tree_param":{"num_deleted":"0","num_feature":"12","num_nodes":"13","size_leaf_vector":"1"}},{"base_weights":[1.8580246E-5,-4.1131912E-8,7.679995E-4,3.6485796E-4,3.7371318E-3,-4.6766874E-7,7.3140475E-4,1.6334654E-3,4.8244E-5,7.230521E-4,4.6390098E-5],"categories":[],"categories_nodes":[],"categories_segments":[],"categories_sizes":[],"default_left":[0,0,0,0,0,0,0,0,0,0,0],"id":33,"left_children":[1,-1,3,5,7,-1,9,-1,-1,-1,-1],"loss_changes":[1.4967068E-5,0E0,2.975797E-5,3.2245543E-6,1.744679E-5,0E0,1.1246488E-5,0E0,0E0,0E0,0E0],"parents":[2147483647,0,0,2,2,3,3,4,4,6,6],"right_children":[2,-1,4,6,8,-1,10,-1,-1,-1,-1],"split_conditions":[9.4124335E2,-4.1131912E-8,1.1634532E0,5.4514416E1,1.2389414E0,-4.6766874E-7,5E-1,1.6334654E-3,4.8244E-5,7.230521E-4,4.6390098E-5],"split_indices":[8,0,0,7,0,0,1,0,0,0,0],"split_type":[0,0,0,0,0,0,0,0,0,0,0],"sum_hessian":[1.066E3,1.041E3,2.5E1,2.3E1,2E0,1.2E1,1.1E1,1E0,1E0,2E0,9E0],"tree_param":{"num_deleted":"0","num_feature":"12","num_nodes":"11","size_leaf_vector":"1"}},{"base_weights":[1.5302758E-5,-2.8804179E-8,6.318496E-4,2.8742748E-4,3.1766098E-3,-3.3816028E-7,5.760761E-4,1.3884545E-3,4.1019917E-5,1.9281307E-3,3.3855635E-5,7.273615E-4,1.4029742E-4],"categories":[],"categories_nodes":[],"categories_segments":[],"categories_sizes":[],"default_left":[0,0,0,0,0,0,0,0,0,0,0,0,0],"id":34,"left_children":[1,-1,3,5,7,-1,9,-1,-1,11,-1,-1,-1],"loss_changes":[1.0130227E-5,0E0,2.1875217E-5,1.9996312E-6,1.2604969E-5,0E0,7.2980556E-6,0E0,0E0,1.041114E-6,0E0,0E0,0E0],"parents":[2147483647,0,0,2,2,3,3,4,4,6,6,9,9],"right_children":[2,-1,4,6,8,-1,10,-1,-1,12,-1,-1,-1],"split_conditions":[9.4124335E2,-2.8804179E-8,1.1634532E0,5.4514416E1,1.2389414E0,-3.3816028E-7,5E-1,1.3884545E-3,4.1019917E-5,1.1927145E-1,3.3855635E-5,7.273615E-4,1.4029742E-4],"split_indices":[8,0,0,7,0,0,1,0,0,0,0,0,0],"split_type":[0,0,0,0,0,0,0,0,0,0,0,0,0],"sum_hessian":[1.066E3,1.041E3,2.5E1,2.3E1,2E0,1.2E1,1.1E1,1E0,1E0,2E0,9E0,1E0,1E0],"tree_param":{"num_deleted":"0","num_feature":"12","num_nodes":"13","size_leaf_vector":"1"}},{"base_weights":[1.2896178E-5,-2.017122E-8,5.3193397E-4,1.8908059E-4,2.3703575E-3,-8.7435816E-5,3.387539E-4,1.613617E-4,1.180172E-3,2.5248886E-5,1.2087814E-3,-1.2249238E-5,4.916787E-4],"categories":[],"categories_nodes":[],"categories_segments":[],"categories_sizes":[],"default_left":[0,0,0,0,0,0,0,0,0,0,0,0,0],"id":35,"left_children":[1,-1,3,5,7,-1,9,-1,-1,-1,11,-1,-1],"loss_changes":[7.1793484E-6,0E0,1.5939862E-5,1.7529597E-6,9.344782E-6,0E0,3.885285E-6,0E0,0E0,0E0,2.2169902E-6,0E0,0E0],"parents":[2147483647,0,0,2,2,3,3,4,4,6,6,10,10],"right_children":[2,-1,4,6,8,-1,10,-1,-1,-1,12,-1,-1],"split_conditions":[9.4124335E2,-2.017122E-8,2.604906E2,9.879093E2,1.1927145E-1,-8.7435816E-5,9.260918E1,1.613617E-4,1.180172E-3,2.5248886E-5,-2.4492937E-16,-1.2249238E-5,4.916787E-4],"split_indices":[8,0,7,8,0,0,9,0,0,0,1,0,0],"split_type":[0,0,0,0,0,0,0,0,0,0,0,0,0],"sum_hessian":[1.066E3,1.041E3,2.5E1,2.2E1,3E0,5E0,1.7E1,2E0,1E0,1.4E1,3E0,1E0,2E0],"tree_param":{"num_deleted":"0","num_feature":"12","num_nodes":"13","size_leaf_vector":"1"}},{"base_weights":[1.0675511E-5,-1.412566E-8,4.3999354E-4,5.6812572E-5,2.2982757E-3,1.0031462E-3,3.1077863E-5],"categories":[],"categories_nodes":[],"categories_segments":[],"categories_sizes":[],"default_left":[0,0,0,0,0,0,0],"id":36,"left_children":[1,-1,3,-1,5,-1,-1],"loss_changes":[4.9118526E-6,0E0,1.167347E-5,0E0,6.5375225E-6,0E0,0E0],"parents":[2147483647,0,0,2,2,4,4],"right_children":[2,-1,4,-1,6,-1,-1],"split_conditions":[9.4124335E2,-1.412566E-8,1.1634532E0,5.6812572E-5,1.2389414E0,1.0031462E-3,3.1077863E-5],"split_indices":[8,0,0,0,0,0,0],"split_type":[0,0,0,0,0,0,0],"sum_hessian":[1.066E3,1.041E3,2.5E1,2.3E1,2E0,1E0,1E0],"tree_param":{"num_deleted":"0","num_feature":"12","num_nodes":"7","size_leaf_vector":"1"}},{"base_weights":[8.495773E-6,-9.892028E-9,3.499749E-4,9.727923E-5,1.7154813E-3,2.4237075E-4,-6.151912E-5,1.177311E-4,8.526922E-4,-3.0951148E-6,8.003473E-4,5.35959E-4,3.2150747E-5],"categories":[],"categories_nodes":[],"categories_segments":[],"categories_sizes":[],"default_left":[0,0,0,0,0,0,0,0,0,0,0,0,0],"id":37,"left_children":[1,-1,3,5,7,9,-1,-1,-1,-1,11,-1,-1],"loss_changes":[3.1075303E-6,0E0,8.804616E-6,1.0586516E-6,4.847934E-6,2.2641595E-6,0E0,0E0,0E0,0E0,3.2265405E-6,0E0,0E0],"parents":[2147483647,0,0,2,2,3,3,4,4,5,5,10,10],"right_children":[2,-1,4,6,8,10,-1,-1,-1,-1,12,-1,-1],"split_conditions":[9.4124335E2,-9.892028E-9,2.604906E2,3.9291183E2,1.1927145E-1,5.4514416E1,-6.151912E-5,1.177311E-4,8.526922E-4,-3.0951148E-6,1.1927145E-1,5.35959E-4,3.2150747E-5],"split_indices":[8,0,7,6,0,7,0,0,0,0,0,0,0],"split_type":[0,0,0,0,0,0,0,0,0,0,0,0,0],"sum_hessian":[1.066E3,1.041E3,2.5E1,2.2E1,3E0,1.5E1,7E0,2E0,1E0,1.1E1,4E0,1E0,3E0],"tree_param":{"num_deleted":"0","num_feature":"12","num_nodes":"13","size_leaf_vector":"1"}},{"base_weights":[7.3283036E-6,-6.927268E-9,3.0166772E-4,3.5841582E-5,1.658678E-3,7.248044E-4,2.1600725E-5],"categories":[],"categories_nodes":[],"categories_segments":[],"categories_sizes":[],"default_left":[0,0,0,0,0,0,0],"id":38,"left_children":[1,-1,3,-1,5,-1,-1],"loss_changes":[2.308787E-6,0E0,6.230115E-6,0E0,3.4309833E-6,0E0,0E0],"parents":[2147483647,0,0,2,2,4,4],"right_children":[2,-1,4,-1,6,-1,-1],"split_conditions":[9.4124335E2,-6.927268E-9,1.1634532E0,3.5841582E-5,1.2389414E0,7.248044E-4,2.1600725E-5],"split_indices":[8,0,0,0,0,0,0],"split_type":[0,0,0,0,0,0,0],"sum_hessian":[1.066E3,1.041E3,2.5E1,2.3E1,2E0,1E0,1E0],"tree_param":{"num_deleted":"0","num_feature":"12","num_nodes":"7","size_leaf_vector":"1"}},{"base_weights":[5.8631126E-6,-4.8510818E-9,2.4126118E-4,1.6895556E-5,1.2443662E-3,8.702278E-5,6.1608554E-4],"categories":[],"categories_nodes":[],"categories_segments":[],"categories_sizes":[],"default_left":[0,0,0,0,0,0,0],"id":39,"left_children":[1,-1,3,-1,5,-1,-1],"loss_changes":[1.4767019E-6,0E0,4.7533586E-6,0E0,2.493341E-6,0E0,0E0],"parents":[2147483647,0,0,2,2,4,4],"right_children":[2,-1,4,-1,6,-1,-1],"split_conditions":[9.4124335E2,-4.8510818E-9,2.604906E2,1.6895556E-5,1.1927145E-1,8.702278E-5,6.1608554E-4],"split_indices":[8,0,7,0,0,0,0],"split_type":[0,0,0,0,0,0,0],"sum_hessian":[1.066E3,1.041E3,2.5E1,2.2E1,3E0,2E0,1E0],"tree_param":{"num_deleted":"0","num_feature":"12","num_nodes":"7","size_leaf_vector":"1"}},{"base_weights":[4.7788576E-6,3.8124531E-7,2.891022E-4,6.679131E-6,5.2367453E-4],"categories":[],"categories_nodes":[],"categories_segments":[],"categories_sizes":[],"default_left":[0,0,0,0,0],"id":40,"left_children":[1,-1,3,-1,-1],"loss_changes":[1.0638772E-6,0E0,5.0135177E-6,0E0,0E0],"parents":[2147483647,0,0,2,2],"right_children":[2,-1,4,-1,-1],"split_conditions":[1.1192156E0,3.8124531E-7,2.604906E2,6.679131E-6,5.2367453E-4],"split_indices":[0,0,7,0,0],"split_type":[0,0,0,0,0],"sum_hessian":[1.066E3,1.054E3,1.2E1,1.1E1,1E0],"tree_param":{"num_deleted":"0","num_feature":"12","num_nodes":"5","size_leaf_vector":"1"}},{"base_weights":[3.842469E-6],"categories":[],"categories_nodes":[],"categories_segments":[],"categories_sizes":[],"default_left":[0],"id":41,"left_children":[-1],"loss_changes":[0E0],"parents":[2147483647],"right_children":[-1],"split_conditions":[1.1527408E-6],"split_indices":[0],"split_type":[0],"sum_hessian":[1.066E3],"tree_param":{"num_deleted":"0","num_feature":"12","num_nodes":"1","size_leaf_vector":"1"}},{"base_weights":[2.6905504E-6],"categories":[],"categories_nodes":[],"categories_segments":[],"categories_sizes":[],"default_left":[0],"id":42,"left_children":[-1],"loss_changes":[0E0],"parents":[2147483647],"right_children":[-1],"split_conditions":[8.071652E-7],"split_indices":[0],"split_type":[0],"sum_hessian":[1.066E3],"tree_param":{"num_deleted":"0","num_feature":"12","num_nodes":"1","size_leaf_vector":"1"}},{"base_weights":[1.884633E-6],"categories":[],"categories_nodes":[],"categories_segments":[],"categories_sizes":[],"default_left":[0],"id":43,"left_children":[-1],"loss_changes":[0E0],"parents":[2147483647],"right_children":[-1],"split_conditions":[5.6538994E-7],"split_indices":[0],"split_type":[0],"sum_hessian":[1.066E3],"tree_param":{"num_deleted":"0","num_feature":"12","num_nodes":"1","size_leaf_vector":"1"}},{"base_weights":[1.3202422E-6],"categories":[],"categories_nodes":[],"categories_segments":[],"categories_sizes":[],"default_left":[0],"id":44,"left_children":[-1],"loss_changes":[0E0],"parents":[2147483647],"right_children":[-1],"split_conditions":[3.9607266E-7],"split_indices":[0],"split_type":[0],"sum_hessian":[1.066E3],"tree_param":{"num_deleted":"0","num_feature":"12","num_nodes":"1","size_leaf_vector":"1"}},{"base_weights":[9.2412256E-7],"categories":[],"categories_nodes":[],"categories_segments":[],"categories_sizes":[],"default_left":[0],"id":45,"left_children":[-1],"loss_changes":[0E0],"parents":[2147483647],"right_children":[-1],"split_conditions":[2.7723678E-7],"split_indices":[0],"split_type":[0],"sum_hessian":[1.066E3],"tree_param":{"num_deleted":"0","num_feature":"12","num_nodes":"1","size_leaf_vector":"1"}},{"base_weights":[6.4740027E-7],"categories":[],"categories_nodes":[],"categories_segments":[],"categories_sizes":[],"default_left":[0],"id":46,"left_children":[-1],"loss_changes":[0E0],"parents":[2147483647],"right_children":[-1],"split_conditions":[1.9422009E-7],"split_indices":[0],"split_type":[0],"sum_hessian":[1.066E3],"tree_param":{"num_deleted":"0","num_feature":"12","num_nodes":"1","size_leaf_vector":"1"}},{"base_weights":[4.530723E-7],"categories":[],"categories_nodes":[],"categories_segments":[],"categories_sizes":[],"default_left":[0],"id":47,"left_children":[-1],"loss_changes":[0E0],"parents":[2147483647],"right_children":[-1],"split_conditions":[1.359217E-7],"split_indices":[0],"split_type":[0],"sum_hessian":[1.066E3],"tree_param":{"num_deleted":"0","num_feature":"12","num_nodes":"1","size_leaf_vector":"1"}},{"base_weights":[3.1671755E-7],"categories":[],"categories_nodes":[],"categories_segments":[],"categories_sizes":[],"default_left":[0],"id":48,"left_children":[-1],"loss_changes":[0E0],"parents":[2147483647],"right_children":[-1],"split_conditions":[9.501527E-8],"split_indices":[0],"split_type":[0],"sum_hessian":[1.066E3],"tree_param":{"num_deleted":"0","num_feature":"12","num_nodes":"1","size_leaf_vector":"1"}},{"base_weights":[2.2230286E-7],"categories":[],"categories_nodes":[],"categories_segments":[],"categories_sizes":[],"default_left":[0],"id":49,"left_children":[-1],"loss_changes":[0E0],"parents":[2147483647],"right_children":[-1],"split_conditions":[6.669086E-8],"split_indices":[0],"split_type":[0],"sum_hessian":[1.066E3],"tree_param":{"num_deleted":"0","num_feature":"12","num_nodes":"1","size_leaf_vector":"1"}},{"base_weights":[1.5600024E-7],"categories":[],"categories_nodes":[],"categories_segments":[],"categories_sizes":[],"default_left":[0],"id":50,"left_children":[-1],"loss_changes":[0E0],"parents":[2147483647],"right_children":[-1],"split_conditions":[4.6800075E-8],"split_indices":[0],"split_type":[0],"sum_hessian":[1.066E3],"tree_param":{"num_deleted":"0","num_feature":"12","num_nodes":"1","size_leaf_vector":"1"}},{"base_weights":[1.0955127E-7],"categories":[],"categories_nodes":[],"categories_segments":[],"categories_sizes":[],"default_left":[0],"id":51,"left_children":[-1],"loss_changes":[0E0],"parents":[2147483647],"right_children":[-1],"split_conditions":[3.2865383E-8],"split_indices":[0],"split_type":[0],"sum_hessian":[1.066E3],"tree_param":{"num_deleted":"0","num_feature":"12","num_nodes":"1","size_leaf_vector":"1"}},{"base_weights":[7.693226E-8],"categories":[],"categories_nodes":[],"categories_segments":[],"categories_sizes":[],"default_left":[0],"id":52,"left_children":[-1],"loss_changes":[0E0],"parents":[2147483647],"right_children":[-1],"split_conditions":[2.3079679E-8],"split_indices":[0],"split_type":[0],"sum_hessian":[1.066E3],"tree_param":{"num_deleted":"0","num_feature":"12","num_nodes":"1","size_leaf_vector":"1"}},{"base_weights":[5.4025524E-8],"categories":[],"categories_nodes":[],"categories_segments":[],"categories_sizes":[],"default_left":[0],"id":53,"left_children":[-1],"loss_changes":[0E0],"parents":[2147483647],"right_children":[-1],"split_conditions":[1.6207657E-8],"split_indices":[0],"split_type":[0],"sum_hessian":[1.066E3],"tree_param":{"num_deleted":"0","num_feature":"12","num_nodes":"1","size_leaf_vector":"1"}},{"base_weights":[3.7939333E-8],"categories":[],"categories_nodes":[],"categories_segments":[],"categories_sizes":[],"default_left":[0],"id":54,"left_children":[-1],"loss_changes":[0E0],"parents":[2147483647],"right_children":[-1],"split_conditions":[1.13818E-8],"split_indices":[0],"split_type":[0],"sum_hessian":[1.066E3],"tree_param":{"num_deleted":"0","num_feature":"12","num_nodes":"1","size_leaf_vector":"1"}},{"base_weights":[2.6642843E-8],"categories":[],"categories_nodes":[],"categories_segments":[],"categories_sizes":[],"default_left":[0],"id":55,"left_children":[-1],"loss_changes":[0E0],"parents":[2147483647],"right_children":[-1],"split_conditions":[7.9928535E-9],"split_indices":[0],"split_type":[0],"sum_hessian":[1.066E3],"tree_param":{"num_deleted":"0","num_feature":"12","num_nodes":"1","size_leaf_vector":"1"}},{"base_weights":[1.8710088E-8],"categories":[],"categories_nodes":[],"categories_segments":[],"categories_sizes":[],"default_left":[0],"id":56,"left_children":[-1],"loss_changes":[0E0],"parents":[2147483647],"right_children":[-1],"split_conditions":[5.6130265E-9],"split_indices":[0],"split_type":[0],"sum_hessian":[1.066E3],"tree_param":{"num_deleted":"0","num_feature":"12","num_nodes":"1","size_leaf_vector":"1"}},{"base_weights":[1.31392E-8],"categories":[],"categories_nodes":[],"categories_segments":[],"categories_sizes":[],"default_left":[0],"id":57,"left_children":[-1],"loss_changes":[0E0],"parents":[2147483647],"right_children":[-1],"split_conditions":[3.9417603E-9],"split_indices":[0],"split_type":[0],"sum_hessian":[1.066E3],"tree_param":{"num_deleted":"0","num_feature":"12","num_nodes":"1","size_leaf_vector":"1"}},{"base_weights":[9.227027E-9],"categories":[],"categories_nodes":[],"categories_segments":[],"categories_sizes":[],"default_left":[0],"id":58,"left_children":[-1],"loss_changes":[0E0],"parents":[2147483647],"right_children":[-1],"split_conditions":[2.7681082E-9],"split_indices":[0],"split_type":[0],"sum_hessian":[1.066E3],"tree_param":{"num_deleted":"0","num_feature":"12","num_nodes":"1","size_leaf_vector":"1"}},{"base_weights":[6.4797843E-9],"categories":[],"categories_nodes":[],"categories_segments":[],"categories_sizes":[],"default_left":[0],"id":59,"left_children":[-1],"loss_changes":[0E0],"parents":[2147483647],"right_children":[-1],"split_conditions":[1.9439355E-9],"split_indices":[0],"split_type":[0],"sum_hessian":[1.066E3],"tree_param":{"num_deleted":"0","num_feature":"12","num_nodes":"1","size_leaf_vector":"1"}},{"base_weights":[4.550267E-9],"categories":[],"categories_nodes":[],"categories_segments":[],"categories_sizes":[],"default_left":[0],"id":60,"left_children":[-1],"loss_changes":[0E0],"parents":[2147483647],"right_children":[-1],"split_conditions":[1.36508E-9],"split_indices":[0],"split_type":[0],"sum_hessian":[1.066E3],"tree_param":{"num_deleted":"0","num_feature":"12","num_nodes":"1","size_leaf_vector":"1"}},{"base_weights":[3.1953047E-9],"categories":[],"categories_nodes":[],"categories_segments":[],"categories_sizes":[],"default_left":[0],"id":61,"left_children":[-1],"loss_changes":[0E0],"parents":[2147483647],"right_children":[-1],"split_conditions":[9.585914E-10],"split_indices":[0],"split_type":[0],"sum_hessian":[1.066E3],"tree_param":{"num_deleted":"0","num_feature":"12","num_nodes":"1","size_leaf_vector":"1"}},{"base_weights":[2.2438538E-9],"categories":[],"categories_nodes":[],"categories_segments":[],"categories_sizes":[],"default_left":[0],"id":62,"left_children":[-1],"loss_changes":[0E0],"parents":[2147483647],"right_children":[-1],"split_conditions":[6.7315614E-10],"split_indices":[0],"split_type":[0],"sum_hessian":[1.066E3],"tree_param":{"num_deleted":"0","num_feature":"12","num_nodes":"1","size_leaf_vector":"1"}},{"base_weights":[1.5758875E-9],"categories":[],"categories_nodes":[],"categories_segments":[],"categories_sizes":[],"default_left":[0],"id":63,"left_children":[-1],"loss_changes":[0E0],"parents":[2147483647],"right_children":[-1],"split_conditions":[4.7276627E-10],"split_indices":[0],"split_type":[0],"sum_hessian":[1.066E3],"tree_param":{"num_deleted":"0","num_feature":"12","num_nodes":"1","size_leaf_vector":"1"}},{"base_weights":[1.1065712E-9],"categories":[],"categories_nodes":[],"categories_segments":[],"categories_sizes":[],"default_left":[0],"id":64,"left_children":[-1],"loss_changes":[0E0],"parents":[2147483647],"right_children":[-1],"split_conditions":[3.3197137E-10],"split_indices":[0],"split_type":[0],"sum_hessian":[1.066E3],"tree_param":{"num_deleted":"0","num_feature":"12","num_nodes":"1","size_leaf_vector":"1"}},{"base_weights":[7.771031E-10],"categories":[],"categories_nodes":[],"categories_segments":[],"categories_sizes":[],"default_left":[0],"id":65,"left_children":[-1],"loss_changes":[0E0],"parents":[2147483647],"right_children":[-1],"split_conditions":[2.3313093E-10],"split_indices":[0],"split_type":[0],"sum_hessian":[1.066E3],"tree_param":{"num_deleted":"0","num_feature":"12","num_nodes":"1","size_leaf_vector":"1"}},{"base_weights":[5.4557836E-10],"categories":[],"categories_nodes":[],"categories_segments":[],"categories_sizes":[],"default_left":[0],"id":66,"left_children":[-1],"loss_changes":[0E0],"parents":[2147483647],"right_children":[-1],"split_conditions":[1.6367352E-10],"split_indices":[0],"split_type":[0],"sum_hessian":[1.066E3],"tree_param":{"num_deleted":"0","num_feature":"12","num_nodes":"1","size_leaf_vector":"1"}},{"base_weights":[3.8310355E-10],"categories":[],"categories_nodes":[],"categories_segments":[],"categories_sizes":[],"default_left":[0],"id":67,"left_children":[-1],"loss_changes":[0E0],"parents":[2147483647],"right_children":[-1],"split_conditions":[1.1493107E-10],"split_indices":[0],"split_type":[0],"sum_hessian":[1.066E3],"tree_param":{"num_deleted":"0","num_feature":"12","num_nodes":"1","size_leaf_vector":"1"}},{"base_weights":[2.688959E-10],"categories":[],"categories_nodes":[],"categories_segments":[],"categories_sizes":[],"default_left":[0],"id":68,"left_children":[-1],"loss_changes":[0E0],"parents":[2147483647],"right_children":[-1],"split_conditions":[8.066878E-11],"split_indices":[0],"split_type":[0],"sum_hessian":[1.066E3],"tree_param":{"num_deleted":"0","num_feature":"12","num_nodes":"1","size_leaf_vector":"1"}},{"base_weights":[1.8893793E-10],"categories":[],"categories_nodes":[],"categories_segments":[],"categories_sizes":[],"default_left":[0],"id":69,"left_children":[-1],"loss_changes":[0E0],"parents":[2147483647],"right_children":[-1],"split_conditions":[5.6681382E-11],"split_indices":[0],"split_type":[0],"sum_hessian":[1.066E3],"tree_param":{"num_deleted":"0","num_feature":"12","num_nodes":"1","size_leaf_vector":"1"}},{"base_weights":[1.3250152E-10],"categories":[],"categories_nodes":[],"categories_segments":[],"categories_sizes":[],"default_left":[0],"id":70,"left_children":[-1],"loss_changes":[0E0],"parents":[2147483647],"right_children":[-1],"split_conditions":[3.975046E-11],"split_indices":[0],"split_type":[0],"sum_hessian":[1.066E3],"tree_param":{"num_deleted":"0","num_feature":"12","num_nodes":"1","size_leaf_vector":"1"}},{"base_weights":[9.326455E-11],"categories":[],"categories_nodes":[],"categories_segments":[],"categories_sizes":[],"default_left":[0],"id":71,"left_children":[-1],"loss_changes":[0E0],"parents":[2147483647],"right_children":[-1],"split_conditions":[2.7979365E-11],"split_indices":[0],"split_type":[0],"sum_hessian":[1.066E3],"tree_param":{"num_deleted":"0","num_feature":"12","num_nodes":"1","size_leaf_vector":"1"}},{"base_weights":[6.526626E-11],"categories":[],"categories_nodes":[],"categories_segments":[],"categories_sizes":[],"default_left":[0],"id":72,"left_children":[-1],"loss_changes":[0E0],"parents":[2147483647],"right_children":[-1],"split_conditions":[1.9579878E-11],"split_indices":[0],"split_type":[0],"sum_hessian":[1.066E3],"tree_param":{"num_deleted":"0","num_feature":"12","num_nodes":"1","size_leaf_vector":"1"}},{"base_weights":[4.5836997E-11],"categories":[],"categories_nodes":[],"categories_segments":[],"categories_sizes":[],"default_left":[0],"id":73,"left_children":[-1],"loss_changes":[0E0],"parents":[2147483647],"right_children":[-1],"split_conditions":[1.37511E-11],"split_indices":[0],"split_type":[0],"sum_hessian":[1.066E3],"tree_param":{"num_deleted":"0","num_feature":"12","num_nodes":"1","size_leaf_vector":"1"}},{"base_weights":[3.2336075E-11],"categories":[],"categories_nodes":[],"categories_segments":[],"categories_sizes":[],"default_left":[0],"id":74,"left_children":[-1],"loss_changes":[0E0],"parents":[2147483647],"right_children":[-1],"split_conditions":[9.700823E-12],"split_indices":[0],"split_type":[0],"sum_hessian":[1.066E3],"tree_param":{"num_deleted":"0","num_feature":"12","num_nodes":"1","size_leaf_vector":"1"}},{"base_weights":[2.2872045E-11],"categories":[],"categories_nodes":[],"categories_segments":[],"categories_sizes":[],"default_left":[0],"id":75,"left_children":[-1],"loss_changes":[0E0],"parents":[2147483647],"right_children":[-1],"split_conditions":[6.8616137E-12],"split_indices":[0],"split_type":[0],"sum_hessian":[1.066E3],"tree_param":{"num_deleted":"0","num_feature":"12","num_nodes":"1","size_leaf_vector":"1"}},{"base_weights":[1.616548E-11],"categories":[],"categories_nodes":[],"categories_segments":[],"categories_sizes":[],"default_left":[0],"id":76,"left_children":[-1],"loss_changes":[0E0],"parents":[2147483647],"right_children":[-1],"split_conditions":[4.849644E-12],"split_indices":[0],"split_type":[0],"sum_hessian":[1.066E3],"tree_param":{"num_deleted":"0","num_feature":"12","num_nodes":"1","size_leaf_vector":"1"}},{"base_weights":[1.1241252E-11],"categories":[],"categories_nodes":[],"categories_segments":[],"categories_sizes":[],"default_left":[0],"id":77,"left_children":[-1],"loss_changes":[0E0],"parents":[2147483647],"right_children":[-1],"split_conditions":[3.3723757E-12],"split_indices":[0],"split_type":[0],"sum_hessian":[1.066E3],"tree_param":{"num_deleted":"0","num_feature":"12","num_nodes":"1","size_leaf_vector":"1"}},{"base_weights":[8.131752E-12],"categories":[],"categories_nodes":[],"categories_segments":[],"categories_sizes":[],"default_left":[0],"id":78,"left_children":[-1],"loss_changes":[0E0],"parents":[2147483647],"right_children":[-1],"split_conditions":[2.4395258E-12],"split_indices":[0],"split_type":[0],"sum_hessian":[1.066E3],"tree_param":{"num_deleted":"0","num_feature":"12","num_nodes":"1","size_leaf_vector":"1"}},{"base_weights":[5.9095845E-12],"categories":[],"categories_nodes":[],"categories_segments":[],"categories_sizes":[],"default_left":[0],"id":79,"left_children":[-1],"loss_changes":[0E0],"parents":[2147483647],"right_children":[-1],"split_conditions":[1.7728754E-12],"split_indices":[0],"split_type":[0],"sum_hessian":[1.066E3],"tree_param":{"num_deleted":"0","num_feature":"12","num_nodes":"1","size_leaf_vector":"1"}},{"base_weights":[4.1349194E-12],"categories":[],"categories_nodes":[],"categories_segments":[],"categories_sizes":[],"default_left":[0],"id":80,"left_children":[-1],"loss_changes":[0E0],"parents":[2147483647],"right_children":[-1],"split_conditions":[1.2404758E-12],"split_indices":[0],"split_type":[0],"sum_hessian":[1.066E3],"tree_param":{"num_deleted":"0","num_feature":"12","num_nodes":"1","size_leaf_vector":"1"}},{"base_weights":[2.807756E-12],"categories":[],"categories_nodes":[],"categories_segments":[],"categories_sizes":[],"default_left":[0],"id":81,"left_children":[-1],"loss_changes":[0E0],"parents":[2147483647],"right_children":[-1],"split_conditions":[8.423268E-13],"split_indices":[0],"split_type":[0],"sum_hessian":[1.066E3],"tree_param":{"num_deleted":"0","num_feature":"12","num_nodes":"1","size_leaf_vector":"1"}},{"base_weights":[1.9204232E-12],"categories":[],"categories_nodes":[],"categories_segments":[],"categories_sizes":[],"default_left":[0],"id":82,"left_children":[-1],"loss_changes":[0E0],"parents":[2147483647],"right_children":[-1],"split_conditions":[5.76127E-13],"split_indices":[0],"split_type":[0],"sum_hessian":[1.066E3],"tree_param":{"num_deleted":"0","num_feature":"12","num_nodes":"1","size_leaf_vector":"1"}},{"base_weights":[1.4729212E-12],"categories":[],"categories_nodes":[],"categories_segments":[],"categories_sizes":[],"default_left":[0],"id":83,"left_children":[-1],"loss_changes":[0E0],"parents":[2147483647],"right_children":[-1],"split_conditions":[4.4187638E-13],"split_indices":[0],"split_type":[0],"sum_hessian":[1.066E3],"tree_param":{"num_deleted":"0","num_feature":"12","num_nodes":"1","size_leaf_vector":"1"}},{"base_weights":[1.0330905E-12],"categories":[],"categories_nodes":[],"categories_segments":[],"categories_sizes":[],"default_left":[0],"id":84,"left_children":[-1],"loss_changes":[0E0],"parents":[2147483647],"right_children":[-1],"split_conditions":[3.0992716E-13],"split_indices":[0],"split_type":[0],"sum_hessian":[1.066E3],"tree_param":{"num_deleted":"0","num_feature":"12","num_nodes":"1","size_leaf_vector":"1"}},{"base_weights":[5.932599E-13],"categories":[],"categories_nodes":[],"categories_segments":[],"categories_sizes":[],"default_left":[0],"id":85,"left_children":[-1],"loss_changes":[0E0],"parents":[2147483647],"right_children":[-1],"split_conditions":[1.7797798E-13],"split_indices":[0],"split_type":[0],"sum_hessian":[1.066E3],"tree_param":{"num_deleted":"0","num_feature":"12","num_nodes":"1","size_leaf_vector":"1"}},{"base_weights":[5.932599E-13],"categories":[],"categories_nodes":[],"categories_segments":[],"categories_sizes":[],"default_left":[0],"id":86,"left_children":[-1],"loss_changes":[0E0],"parents":[2147483647],"right_children":[-1],"split_conditions":[1.7797798E-13],"split_indices":[0],"split_type":[0],"sum_hessian":[1.066E3],"tree_param":{"num_deleted":"0","num_feature":"12","num_nodes":"1","size_leaf_vector":"1"}},{"base_weights":[5.932599E-13],"categories":[],"categories_nodes":[],"categories_segments":[],"categories_sizes":[],"default_left":[0],"id":87,"left_children":[-1],"loss_changes":[0E0],"parents":[2147483647],"right_children":[-1],"split_conditions":[1.7797798E-13],"split_indices":[0],"split_type":[0],"sum_hessian":[1.066E3],"tree_param":{"num_deleted":"0","num_feature":"12","num_nodes":"1","size_leaf_vector":"1"}},{"base_weights":[5.932599E-13],"categories":[],"categories_nodes":[],"categories_segments":[],"categories_sizes":[],"default_left":[0],"id":88,"left_children":[-1],"loss_changes":[0E0],"parents":[2147483647],"right_children":[-1],"split_conditions":[1.7797798E-13],"split_indices":[0],"split_type":[0],"sum_hessian":[1.066E3],"tree_param":{"num_deleted":"0","num_feature":"12","num_nodes":"1","size_leaf_vector":"1"}}]},"name":"gbtree"},"learner_model_param":{"base_score":"1.751242E-2","boost_from_average":"1","num_class":"0","num_feature":"12","num_target":"1"},"objective":{"name":"reg:squarederror","reg_loss_param":{"scale_pos_weight":"1"}}},"version":[2,0,0]}