{"learner":{"attributes":{"scikit_learn":"{\"_estimator_type\": \"regressor\"}"},"feature_names":["outdoor_temp","cyc_hour1","cyc_hour2","cyc_day_type1","cyc_day_type2","direct_solar","diffuse_solar","exp_outdoor_temp"],"feature_types":["float","float","float","float","float","float","float","float"],"gradient_booster":{"model":{"gbtree_model_param":{"num_parallel_tree":"1","num_trees":"95"},"iteration_indptr":[0,1,2,3,4,5,6,7,8,9,10,11,12,13,14,15,16,17,18,19,20,21,22,23,24,25,26,27,28,29,30,31,32,33,34,35,36,37,38,39,40,41,42,43,44,45,46,47,48,49,50,51,52,53,54,55,56,57,58,59,60,61,62,63,64,65,66,67,68,69,70,71,72,73,74,75,76,77,78,79,80,81,82,83,84,85,86,87,88,89,90,91,92,93,94,95],"tree_info":[0,0,0,0,0,0,0,0,0,0,0,0,0,0,0,0,0,0,0,0,0,0,0,0,0,0,0,0,0,0,0,0,0,0,0,0,0,0,0,0,0,0,0,0,0,0,0,0,0,0,0,0,0,0,0,0,0,0,0,0,0,0,0,0,0,0,0,0,0,0,0,0,0,0,0,0,0,0,0,0,0,0,0,0,0,0,0,0,0,0,0,0,0,0,0],"trees":[{"base_weights":[4.0182906E-7,-4.131549E0,4.201576E0,-4.8267307E0,-1.8044187E0,1.9737576E0,5.2987585E0,-3.5005143E0,-1.6170512E0,-2.59751E0,-7.624882E-1,5.882855E-1,2.8810644E0,2.0649273E0,3.946208E0,-1.1055546E0,-5.9938776E-1,-9.721742E-1,-3.4969842E-1,-8.6452395E-1,-1.10075414E-1,3.431503E-1,-3.01102E-1,8.989795E-1,-1.743928E-1,9.6314436E-1,1.6109658E0],"categories":[],"categories_nodes":[],"categories_segments":[],"categories_sizes":[],"default_left":[0,0,0,0,0,0,0,0,0,0,0,0,0,0,0,0,0,0,0,0,0,0,0,0,0,0,0],"id":0,"left_children":[1,3,5,7,9,11,13,15,-1,17,19,21,23,-1,25,-1,-1,-1,-1,-1,-1,-1,-1,-1,-1,-1,-1],"loss_changes":[6.1971694E3,2.8249097E2,4.2218677E2,8.425122E1,3.3552307E1,7.372803E1,2.2569849E2,4.8459473E0,0E0,1.832129E1,1.57089405E1,2.3258305E1,1.61427E1,0E0,5.189099E1,0E0,0E0,0E0,0E0,0E0,0E0,0E0,0E0,0E0,0E0,0E0,0E0],"parents":[2147483647,0,0,1,1,2,2,3,3,4,4,5,5,6,6,7,7,9,9,10,10,11,11,12,12,14,14],"right_children":[2,4,6,8,10,12,14,16,-1,18,20,22,24,-1,26,-1,-1,-1,-1,-1,-1,-1,-1,-1,-1,-1,-1],"split_conditions":[2.5881904E-1,-2.5881904E-1,7.0710677E-1,-2.5881904E-1,-2.4492937E-16,5E-1,-2.4492937E-16,8.4136E2,-1.6170512E0,3.148E1,2.504E1,1.9827E2,3.3913685E1,2.0649273E0,9.653E1,-1.1055546E0,-5.9938776E-1,-9.721742E-1,-3.4969842E-1,-8.6452395E-1,-1.10075414E-1,3.431503E-1,-3.01102E-1,8.989795E-1,-1.743928E-1,9.6314436E-1,1.6109658E0],"split_indices":[1,1,1,2,1,1,3,5,0,0,0,6,7,0,5,0,0,0,0,0,0,0,0,0,0,0,0],"split_type":[0,0,0,0,0,0,0,0,0,0,0,0,0,0,0,0,0,0,0,0,0,0,0,0,0,0,0],"sum_hessian":[3.55E2,1.79E2,1.76E2,1.37E2,4.2E1,5.9E1,1.17E2,4.3E1,9.4E1,2.3E1,1.9E1,2.4E1,3.5E1,5.2E1,6.5E1,3.7E1,6E0,1.5E1,8E0,2E0,1.7E1,1.8E1,6E0,3.4E1,1E0,4.5E1,2E1],"tree_param":{"num_deleted":"0","num_feature":"8","num_nodes":"27","size_leaf_vector":"1"}},{"base_weights":[-5.973805E-4,-2.9232976E0,2.9716434E0,-3.4027832E0,-1.3164996E0,1.8353722E0,4.1526356E0,-3.936488E0,-2.5509927E0,-1.8224318E0,-5.1256984E-1,4.1348115E-1,2.3311355E0,1.5181856E0,2.8725355E0,-7.4848455E-1,-1.2170959E0,-8.544966E-1,-4.0452552E-1,-8.091781E-2,-7.140856E-1,1.7361832E-1,-1.83242E-1,4.1412577E-1,-1.3345715E-1,9.936789E-1,4.934723E-1,9.4749826E-1,-1.0388346E-1],"categories":[],"categories_nodes":[],"categories_segments":[],"categories_sizes":[],"default_left":[0,0,0,0,0,0,0,0,0,0,0,0,0,0,0,0,0,0,0,0,0,0,0,0,0,0,0,0,0],"id":1,"left_children":[1,3,5,7,9,11,13,15,17,19,21,23,25,-1,27,-1,-1,-1,-1,-1,-1,-1,-1,-1,-1,-1,-1,-1,-1],"loss_changes":[3.1012478E3,1.3419885E2,2.2989954E2,5.269336E1,1.6555443E1,6.3888916E1,8.542175E1,4.29541E0,1.6182648E1,2.1878708E1,2.2831907E0,2.1363087E1,4.0334473E1,0E0,3.6050323E1,0E0,0E0,0E0,0E0,0E0,0E0,0E0,0E0,0E0,0E0,0E0,0E0,0E0,0E0],"parents":[2147483647,0,0,1,1,2,2,3,3,4,4,5,5,6,6,7,7,8,8,9,9,10,10,11,11,12,12,14,14],"right_children":[2,4,6,8,10,12,14,16,18,20,22,24,26,-1,28,-1,-1,-1,-1,-1,-1,-1,-1,-1,-1,-1,-1,-1,-1],"split_conditions":[2.5881904E-1,-2.5881904E-1,8.660254E-1,3.519E1,3.148E1,5E-1,4.3388373E-1,2.7115997E1,-5E-1,2.5439999E1,3.32E1,-2.4492937E-16,-2.4492937E-16,1.5181856E0,2.8640356E1,-7.4848455E-1,-1.2170959E0,-8.544966E-1,-4.0452552E-1,-8.091781E-2,-7.140856E-1,1.7361832E-1,-1.83242E-1,4.1412577E-1,-1.3345715E-1,9.936789E-1,4.934723E-1,9.4749826E-1,-1.0388346E-1],"split_indices":[1,1,1,0,0,1,3,7,1,7,0,3,3,0,7,0,0,0,0,0,0,0,0,0,0,0,0,0,0],"split_type":[0,0,0,0,0,0,0,0,0,0,0,0,0,0,0,0,0,0,0,0,0,0,0,0,0,0,0,0,0],"sum_hessian":[3.55E2,1.79E2,1.76E2,1.37E2,4.2E1,9.1E1,8.5E1,8.2E1,5.5E1,2.5E1,1.7E1,2.4E1,6.7E1,4.8E1,3.7E1,8E0,7.4E1,4.3E1,1.2E1,7E0,1.8E1,1E0,1.6E1,1.1E1,1.3E1,2.6E1,4.1E1,3.4E1,3E0],"tree_param":{"num_deleted":"0","num_feature":"8","num_nodes":"29","size_leaf_vector":"1"}},{"base_weights":[-1.3622006E-4,-2.1761644E0,2.0004065E0,-2.5831213E0,-1.4727713E0,8.236117E-1,2.6715798E0,-9.881185E-1,-2.176423E0,-1.9892335E-1,-1.6230819E0,1.2054967E0,-3.2536772E-1,3.1185782E0,1.3165009E0,-7.038631E-1,-4.3384242E-1,-1.3540669E-1,1.11674696E-1,-5.9397E-1,-2.7003637E-1,-2.9438153E-1,4.3770292E-1,-5.097887E-1,1.0013436E-1,1.0965785E0,7.7855736E-1,-1.6179246E-1,6.6777027E-1],"categories":[],"categories_nodes":[],"categories_segments":[],"categories_sizes":[],"default_left":[0,0,0,0,0,0,0,0,0,0,0,0,0,0,0,0,0,0,0,0,0,0,0,0,0,0,0,0,0],"id":2,"left_children":[1,3,5,7,9,11,13,-1,15,17,19,21,23,25,27,-1,-1,-1,-1,-1,-1,-1,-1,-1,-1,-1,-1,-1,-1],"loss_changes":[1.5541057E3,4.514447E1,1.4470868E2,2.375476E1,1.21228485E1,3.0667908E1,6.736908E1,0E0,5.4105225E0,1.3214753E0,1.3179855E1,3.0259155E1,1.686841E1,1.5232544E1,5.3518295E1,0E0,0E0,0E0,0E0,0E0,0E0,0E0,0E0,0E0,0E0,0E0,0E0,0E0,0E0],"parents":[2147483647,0,0,1,1,2,2,3,3,4,4,5,5,6,6,8,8,9,9,10,10,11,11,12,12,13,13,14,14],"right_children":[2,4,6,8,10,12,14,-1,16,18,20,22,24,26,28,-1,-1,-1,-1,-1,-1,-1,-1,-1,-1,-1,-1,-1,-1],"split_conditions":[1.2246469E-16,-5E-1,7.0710677E-1,3.092E1,2.5439999E1,3.3913685E1,7.818315E-1,-9.881185E-1,-7.0710677E-1,2.684E1,3.175E1,2.435E1,3.292E1,-4.3388373E-1,2.448E1,-7.038631E-1,-4.3384242E-1,-1.3540669E-1,1.11674696E-1,-5.9397E-1,-2.7003637E-1,-2.9438153E-1,4.3770292E-1,-5.097887E-1,1.0013436E-1,1.0965785E0,7.7855736E-1,-1.6179246E-1,6.6777027E-1],"split_indices":[1,1,1,0,7,7,3,0,1,0,0,0,0,3,0,0,0,0,0,0,0,0,0,0,0,0,0,0,0],"split_type":[0,0,0,0,0,0,0,0,0,0,0,0,0,0,0,0,0,0,0,0,0,0,0,0,0,0,0,0,0],"sum_hessian":[3.55E2,1.7E2,1.85E2,1.06E2,6.4E1,6.8E1,1.17E2,3.6E1,7E1,7E0,5.7E1,5.1E1,1.7E1,8.7E1,3E1,5.5E1,1.5E1,5E0,2E0,3.7E1,2E1,5E0,4.6E1,5E0,1.2E1,4E1,4.7E1,1E1,2E1],"tree_param":{"num_deleted":"0","num_feature":"8","num_nodes":"29","size_leaf_vector":"1"}},{"base_weights":[-2.619722E-3,-1.4702346E0,1.4898849E0,-1.714603E0,-6.517912E-1,8.4906644E-1,2.1580873E0,-2.0092459E0,-1.2860259E0,-3.5946804E-1,-1.4695071E0,1.6759738E0,4.9792153E-1,1.6089802E0,2.7785757E0,-7.939318E-1,-5.425792E-1,-4.2594808E-1,-1.7192757E-1,-7.62621E-2,-3.9820293E-1,-5.1585007E-1,-6.890755E-2,5.779457E-1,1.4343043E-1,-1.1699525E-2,4.7206026E-1,5.5143875E-1,-2.1879788E-1,9.4040686E-1,3.0203962E-1],"categories":[],"categories_nodes":[],"categories_segments":[],"categories_sizes":[],"default_left":[0,0,0,0,0,0,0,0,0,0,0,0,0,0,0,0,0,0,0,0,0,0,0,0,0,0,0,0,0,0,0],"id":3,"left_children":[1,3,5,7,9,11,13,15,17,19,21,23,25,27,29,-1,-1,-1,-1,-1,-1,-1,-1,-1,-1,-1,-1,-1,-1,-1,-1],"loss_changes":[7.8198065E2,3.488275E1,7.3958374E1,1.4842316E1,9.750362E0,2.5879005E1,2.483078E1,5.4418335E0,4.8143997E0,3.0246053E0,3.0144444E0,7.181137E0,3.8177544E1,2.7059975E1,2.1451202E1,0E0,0E0,0E0,0E0,0E0,0E0,0E0,0E0,0E0,0E0,0E0,0E0,0E0,0E0,0E0,0E0],"parents":[2147483647,0,0,1,1,2,2,3,3,4,4,5,5,6,6,7,7,8,8,9,9,10,10,11,11,12,12,13,13,14,14],"right_children":[2,4,6,8,10,12,14,16,18,20,22,24,26,28,30,-1,-1,-1,-1,-1,-1,-1,-1,-1,-1,-1,-1,-1,-1,-1,-1],"split_conditions":[2.5881904E-1,-2.5881904E-1,8.660254E-1,3.491E1,7.818315E-1,-4.3388373E-1,2.4739374E1,-2.2252093E-1,3.844E1,2.6697E2,2.4461E2,6.733E2,5.5088E2,2.4699228E1,2.8661049E1,-7.939318E-1,-5.425792E-1,-4.2594808E-1,-1.7192757E-1,-7.62621E-2,-3.9820293E-1,-5.1585007E-1,-6.890755E-2,5.779457E-1,1.4343043E-1,-1.1699525E-2,4.7206026E-1,5.5143875E-1,-2.1879788E-1,9.4040686E-1,3.0203962E-1],"split_indices":[1,1,1,0,3,3,7,4,0,6,6,5,5,7,7,0,0,0,0,0,0,0,0,0,0,0,0,0,0,0,0],"split_type":[0,0,0,0,0,0,0,0,0,0,0,0,0,0,0,0,0,0,0,0,0,0,0,0,0,0,0,0,0,0,0],"sum_hessian":[3.55E2,1.79E2,1.76E2,1.37E2,4.2E1,9.1E1,8.5E1,7.9E1,5.8E1,3.2E1,1E1,2.6E1,6.5E1,4.7E1,3.8E1,1.6E1,6.3E1,4.8E1,1E1,3E1,2E0,8E0,2E0,2.1E1,5E0,4.4E1,2.1E1,4.3E1,4E0,3.1E1,7E0],"tree_param":{"num_deleted":"0","num_feature":"8","num_nodes":"31","size_leaf_vector":"1"}},{"base_weights":[-2.498868E-3,-9.3788546E-1,1.2446996E0,-1.3267645E0,-5.037228E-1,1.7821383E0,8.2747614E-1,-1.8386307E0,-1.1128831E0,-7.798635E-1,-2.7386382E-2,1.2699698E0,2.0832987E0,2.8828855E0,5.568234E-1,-5.7639563E-1,-2.4624883E-1,-3.689915E-1,-2.2767954E-1,-3.0429004E-2,-3.9009857E-1,-8.251015E-2,2.7141446E-1,2.7816308E-1,4.863456E-1,3.1877884E-1,7.1643394E-1,1.981513E-1,9.169283E-1,-1.28704E-1,3.411567E-1],"categories":[],"categories_nodes":[],"categories_segments":[],"categories_sizes":[],"default_left":[0,0,0,0,0,0,0,0,0,0,0,0,0,0,0,0,0,0,0,0,0,0,0,0,0,0,0,0,0,0,0],"id":4,"left_children":[1,3,5,7,9,11,13,15,17,19,21,23,25,27,29,-1,-1,-1,-1,-1,-1,-1,-1,-1,-1,-1,-1,-1,-1,-1,-1],"loss_changes":[4.164815E2,3.3774384E1,3.2832825E1,9.668045E0,1.286916E1,7.534424E0,4.734934E1,9.477234E-1,2.2991333E0,2.1760357E1,8.789629E0,1.746872E0,9.907394E0,1.8379822E0,4.568738E1,0E0,0E0,0E0,0E0,0E0,0E0,0E0,0E0,0E0,0E0,0E0,0E0,0E0,0E0,0E0,0E0],"parents":[2147483647,0,0,1,1,2,2,3,3,4,4,5,5,6,6,7,7,8,8,9,9,10,10,11,11,12,12,13,13,14,14],"right_children":[2,4,6,8,10,12,14,16,18,20,22,24,26,28,30,-1,-1,-1,-1,-1,-1,-1,-1,-1,-1,-1,-1,-1,-1,-1,-1],"split_conditions":[5E-1,-5E-1,-2.4492937E-16,3.003E1,3.292E1,8.660254E-1,2.364E1,1E0,3.5611485E1,2.6268335E1,2.5881904E-1,2.929E1,2.3771578E1,7.0710677E-1,2.474E1,-5.7639563E-1,-2.4624883E-1,-3.689915E-1,-2.2767954E-1,-3.0429004E-2,-3.9009857E-1,-8.251015E-2,2.7141446E-1,2.7816308E-1,4.863456E-1,3.1877884E-1,7.1643394E-1,1.981513E-1,9.169283E-1,-1.28704E-1,3.411567E-1],"split_indices":[1,1,3,0,0,1,0,4,7,7,1,0,7,1,0,0,0,0,0,0,0,0,0,0,0,0,0,0,0,0,0],"split_type":[0,0,0,0,0,0,0,0,0,0,0,0,0,0,0,0,0,0,0,0,0,0,0,0,0,0,0,0,0,0,0],"sum_hessian":[3.55E2,2.03E2,1.52E2,1.06E2,9.7E1,6.5E1,8.7E1,2.9E1,7.7E1,6.1E1,3.6E1,2.6E1,3.9E1,9E0,7.8E1,2.6E1,3E0,5.6E1,2.1E1,2.7E1,3.4E1,2.9E1,7E0,1.5E1,1.1E1,1E1,2.9E1,1E0,8E0,2.9E1,4.9E1],"tree_param":{"num_deleted":"0","num_feature":"8","num_nodes":"31","size_leaf_vector":"1"}},{"base_weights":[2.397832E-3,-6.646125E-1,8.917292E-1,-9.419996E-1,-3.549692E-1,1.1307672E0,2.1116745E-1,-1.3456638E0,-7.746672E-1,-1.320725E0,-2.5444952E-1,9.091953E-1,1.5794296E0,-1.11095145E-1,1.5543876E0,-5.9630865E-1,-3.0655438E-1,-2.4219808E-1,-9.842164E-2,-4.184971E-2,-4.9148688E-1,-1.7291827E-2,-2.134615E-1,1.5049481E-1,3.638148E-1,2.379669E-1,5.9679586E-1,1.6014042E-1,-5.885357E-1,5.301896E-1,9.601593E-3],"categories":[],"categories_nodes":[],"categories_segments":[],"categories_sizes":[],"default_left":[0,0,0,0,0,0,0,0,0,0,0,0,0,0,0,0,0,0,0,0,0,0,0,0,0,0,0,0,0,0,0],"id":5,"left_children":[1,3,5,7,9,11,13,15,17,19,21,23,25,27,29,-1,-1,-1,-1,-1,-1,-1,-1,-1,-1,-1,-1,-1,-1,-1,-1],"loss_changes":[2.1176941E2,1.7187393E1,2.4651299E1,6.18499E0,9.177532E0,9.797424E0,1.792034E1,4.205879E0,8.728218E-1,3.1475E0,8.055361E0,9.040138E0,1.0023315E1,4.162634E1,2.5364914E0,0E0,0E0,0E0,0E0,0E0,0E0,0E0,0E0,0E0,0E0,0E0,0E0,0E0,0E0,0E0,0E0],"parents":[2147483647,0,0,1,1,2,2,3,3,4,4,5,5,6,6,7,7,8,8,9,9,10,10,11,11,12,12,13,13,14,14],"right_children":[2,4,6,8,10,12,14,16,18,20,22,24,26,28,30,-1,-1,-1,-1,-1,-1,-1,-1,-1,-1,-1,-1,-1,-1,-1,-1],"split_conditions":[5E-1,-5E-1,7.818315E-1,3.432E1,2.504E1,9.659258E-1,4.4423E2,-2.2252093E-1,3.869E1,-2.4492937E-16,1.9827E2,2.53E1,2.377E1,2.6503332E1,6.7424E2,-5.9630865E-1,-3.0655438E-1,-2.4219808E-1,-9.842164E-2,-4.184971E-2,-4.9148688E-1,-1.7291827E-2,-2.134615E-1,1.5049481E-1,3.638148E-1,2.379669E-1,5.9679586E-1,1.6014042E-1,-5.885357E-1,5.301896E-1,9.601593E-3],"split_indices":[1,1,3,5,0,1,5,4,0,3,6,0,0,7,5,0,0,0,0,0,0,0,0,0,0,0,0,0,0,0,0],"split_type":[0,0,0,0,0,0,0,0,0,0,0,0,0,0,0,0,0,0,0,0,0,0,0,0,0,0,0,0,0,0,0],"sum_hessian":[3.55E2,2.03E2,1.52E2,1.06E2,9.7E1,1.12E2,4E1,2.9E1,7.7E1,8E0,8.9E1,7.7E1,3.5E1,3.3E1,7E0,8E0,2.1E1,7.1E1,6E0,2E0,6E0,6.3E1,2.6E1,3.4E1,4.3E1,1.3E1,2.2E1,2.5E1,8E0,6E0,1E0],"tree_param":{"num_deleted":"0","num_feature":"8","num_nodes":"31","size_leaf_vector":"1"}},{"base_weights":[1.4186709E-4,-5.748495E-1,5.2876216E-1,-7.9696655E-2,-6.289917E-1,9.5668846E-1,3.224288E-1,-2.2245465E-1,4.9375415E-2,-9.9391574E-1,-4.965921E-1,1.2675148E0,3.1908163E-1,1.5240175E0,1.837933E-1,-7.044735E-2,3.2024577E-2,-1.8057694E-1,-3.9597386E-1,-1.9798134E-1,-8.131319E-2,2.1718515E-1,4.6940866E-1,-3.5756733E-2,2.439295E-1,1.2929821E-2,5.891949E-1,-4.558548E-1,9.247878E-2],"categories":[],"categories_nodes":[],"categories_segments":[],"categories_sizes":[],"default_left":[0,0,0,0,0,0,0,0,0,0,0,0,0,0,0,0,0,0,0,0,0,0,0,0,0,0,0,0,0],"id":6,"left_children":[1,3,5,7,9,11,13,-1,15,17,19,21,23,25,27,-1,-1,-1,-1,-1,-1,-1,-1,-1,-1,-1,-1,-1,-1],"loss_changes":[1.0851092E2,4.534149E0,1.6114494E1,1.5742146E0,6.9470634E0,1.1486664E1,2.0875917E1,0E0,2.8595436E-1,4.317051E0,4.057993E0,5.3287125E0,4.643687E0,8.385538E0,2.4849522E1,0E0,0E0,0E0,0E0,0E0,0E0,0E0,0E0,0E0,0E0,0E0,0E0,0E0,0E0],"parents":[2147483647,0,0,1,1,2,2,3,3,4,4,5,5,6,6,8,8,9,9,10,10,11,11,12,12,13,13,14,14],"right_children":[2,4,6,8,10,12,14,-1,16,18,20,22,24,26,28,-1,-1,-1,-1,-1,-1,-1,-1,-1,-1,-1,-1,-1,-1],"split_conditions":[1.2246469E-16,2.6268335E1,-4.3388373E-1,2.504E1,2.904E1,4.1065E2,2.364E1,-2.2245465E-1,2.5335833E1,2.7877499E1,-7.0710677E-1,2.469E1,1.5582E2,-2.4492937E-16,2.377E1,-7.044735E-2,3.2024577E-2,-1.8057694E-1,-3.9597386E-1,-1.9798134E-1,-8.131319E-2,2.1718515E-1,4.6940866E-1,-3.5756733E-2,2.439295E-1,1.2929821E-2,5.891949E-1,-4.558548E-1,9.247878E-2],"split_indices":[1,7,3,0,0,5,0,0,7,7,1,0,6,3,0,0,0,0,0,0,0,0,0,0,0,0,0,0,0],"split_type":[0,0,0,0,0,0,0,0,0,0,0,0,0,0,0,0,0,0,0,0,0,0,0,0,0,0,0,0,0],"sum_hessian":[3.55E2,1.7E2,1.85E2,1.7E1,1.53E2,5.9E1,1.26E2,2E0,1.5E1,3.9E1,1.14E2,3.9E1,2E1,1.2E1,1.14E2,2E0,1.3E1,1.9E1,2E1,6.5E1,4.9E1,1.5E1,2.4E1,1.1E1,9E0,3E0,9E0,7E0,1.07E2],"tree_param":{"num_deleted":"0","num_feature":"8","num_nodes":"29","size_leaf_vector":"1"}},{"base_weights":[1.460354E-4,-3.577073E-1,4.7728285E-1,-2.2754326E-1,-5.525546E-1,3.7650278E-1,1.2122165E0,-3.132914E-1,9.2118226E-2,-7.5722003E-1,-2.3191331E-1,-1.0760819E-1,5.793366E-1,4.2152277E-1,2.3945177E0,-1.01093814E-1,9.82863E-2,5.095898E-2,-2.893879E-1,-4.924905E-1,-1.8582255E-1,-1.3290022E-1,8.936635E-2,1.23662435E-1,-2.8367525E-1,2.4741605E-1,3.6006358E-3,3.4435844E-1,-2.4747711E-1,7.663491E-1,2.1519643E-1],"categories":[],"categories_nodes":[],"categories_segments":[],"categories_sizes":[],"default_left":[0,0,0,0,0,0,0,0,0,0,0,0,0,0,0,0,0,0,0,0,0,0,0,0,0,0,0,0,0,0,0],"id":7,"left_children":[1,3,5,7,9,11,13,15,17,19,21,23,25,27,29,-1,-1,-1,-1,-1,-1,-1,-1,-1,-1,-1,-1,-1,-1,-1,-1],"loss_changes":[6.0955944E1,5.0481396E0,1.0875793E1,3.4277463E0,5.13995E0,1.3416737E1,1.5817743E1,1.5982294E0,2.3820837E0,4.9554043E0,3.8224978E0,1.8249115E1,1.3354698E1,1.1811006E1,4.5814514E-2,0E0,0E0,0E0,0E0,0E0,0E0,0E0,0E0,0E0,0E0,0E0,0E0,0E0,0E0,0E0,0E0],"parents":[2147483647,0,0,1,1,2,2,3,3,4,4,5,5,6,6,7,7,8,8,9,9,10,10,11,11,12,12,13,13,14,14],"right_children":[2,4,6,8,10,12,14,16,18,20,22,24,26,28,30,-1,-1,-1,-1,-1,-1,-1,-1,-1,-1,-1,-1,-1,-1,-1,-1],"split_conditions":[5E-1,4.3388373E-1,1E0,-2.4492937E-16,3.292E1,2.454E1,2.4739374E1,3.951E1,3.5900627E1,-8.660254E-1,-2.5881904E-1,2.404158E1,3.0619999E1,2.4699228E1,2.471E1,-1.01093814E-1,9.82863E-2,5.095898E-2,-2.893879E-1,-4.924905E-1,-1.8582255E-1,-1.3290022E-1,8.936635E-2,1.23662435E-1,-2.8367525E-1,2.4741605E-1,3.6006358E-3,3.4435844E-1,-2.4747711E-1,7.663491E-1,2.1519643E-1],"split_indices":[1,3,1,1,0,0,7,0,7,2,1,7,7,7,0,0,0,0,0,0,0,0,0,0,0,0,0,0,0,0,0],"split_type":[0,0,0,0,0,0,0,0,0,0,0,0,0,0,0,0,0,0,0,0,0,0,0,0,0,0,0,0,0,0,0],"sum_hessian":[3.55E2,2.03E2,1.52E2,1.23E2,8E1,1.35E2,1.7E1,9.7E1,2.6E1,4.8E1,3.2E1,4E1,9.5E1,1.1E1,6E0,9.4E1,3E0,2.5E1,1E0,5E0,4.3E1,2.3E1,9E0,2.5E1,1.5E1,6.6E1,2.9E1,7E0,4E0,5E0,1E0],"tree_param":{"num_deleted":"0","num_feature":"8","num_nodes":"31","size_leaf_vector":"1"}},{"base_weights":[6.8170036E-4,-2.5511613E-1,3.4174103E-1,-3.7889227E-1,-1.22600004E-1,3.920239E-1,-6.18639E-1,-1.2515578E-1,-6.451004E-1,-1.7909253E-1,4.0374202E-1,2.4971935E-1,8.3619773E-1,-1.082148E0,5.145919E-1,-2.287111E-1,4.826969E-3,-3.5027158E-1,-1.4166945E-1,-9.192238E-2,-1.26416525E-2,1.9428371E-1,-1.1434784E-1,1.1175078E-1,-4.9357322E-1,5.2829355E-1,8.314175E-2,-8.54662E-2,-3.5538676E-1,3.0388528E-1,-7.231894E-2],"categories":[],"categories_nodes":[],"categories_segments":[],"categories_sizes":[],"default_left":[0,0,0,0,0,0,0,0,0,0,0,0,0,0,0,0,0,0,0,0,0,0,0,0,0,0,0,0,0,0,0],"id":8,"left_children":[1,3,5,7,9,11,13,15,17,19,21,23,25,27,29,-1,-1,-1,-1,-1,-1,-1,-1,-1,-1,-1,-1,-1,-1,-1,-1],"loss_changes":[3.1145418E1,3.2996244E0,7.630993E0,7.011669E0,3.0457463E0,9.019545E0,4.7589655E0,4.962475E0,4.0549088E0,1.5737925E0,2.1609852E0,2.6671871E1,1.7607193E1,1.5271044E-1,1.3739476E0,0E0,0E0,0E0,0E0,0E0,0E0,0E0,0E0,0E0,0E0,0E0,0E0,0E0,0E0,0E0,0E0],"parents":[2147483647,0,0,1,1,2,2,3,3,4,4,5,5,6,6,7,7,8,8,9,9,10,10,11,11,12,12,13,13,14,14],"right_children":[2,4,6,8,10,12,14,16,18,20,22,24,26,28,30,-1,-1,-1,-1,-1,-1,-1,-1,-1,-1,-1,-1,-1,-1,-1,-1],"split_conditions":[5E-1,3.28E1,2.1941E2,2.7971666E1,2.5881904E-1,2.701E1,3.09E1,2.504E1,-2.2252093E-1,-7.0710677E-1,7.818315E-1,2.8532726E1,3.0619999E1,2.2561E2,-7.818315E-1,-2.287111E-1,4.826969E-3,-3.5027158E-1,-1.4166945E-1,-9.192238E-2,-1.26416525E-2,1.9428371E-1,-1.1434784E-1,1.1175078E-1,-4.9357322E-1,5.2829355E-1,8.314175E-2,-8.54662E-2,-3.5538676E-1,3.0388528E-1,-7.231894E-2],"split_indices":[1,0,6,7,1,0,0,0,4,1,3,7,7,6,3,0,0,0,0,0,0,0,0,0,0,0,0,0,0,0,0],"split_type":[0,0,0,0,0,0,0,0,0,0,0,0,0,0,0,0,0,0,0,0,0,0,0,0,0,0,0,0,0,0,0],"sum_hessian":[3.55E2,2.03E2,1.52E2,1.04E2,9.9E1,1.45E2,7E0,5.4E1,5E1,9E1,9E0,1.11E2,3.4E1,5E0,2E0,9E0,4.5E1,1.1E1,3.9E1,4.6E1,4.4E1,7E0,2E0,1.05E2,6E0,1.2E1,2.2E1,1E0,4E0,1E0,1E0],"tree_param":{"num_deleted":"0","num_feature":"8","num_nodes":"31","size_leaf_vector":"1"}},{"base_weights":[-1.5457774E-3,-1.4994135E-1,2.9903123E-1,-6.7645323E-1,-1.2639761E-1,1.06905505E-1,6.44142E-1,-6.636715E-2,-6.233595E-1,-2.1486042E-1,6.680131E-2,2.4319696E-1,-1.9043308E0,9.879703E-1,-1.1408397E-1,-1.4050256E-1,1.358079E-1,-1.1108379E-1,-4.6618804E-2,6.549127E-2,-1.1258267E-1,1.0003902E-2,2.966117E-1,-6.4253473E-1,-1.4317876E-1,3.3318236E-1,5.3156435E-2,-1.21556476E-1,3.2650834E-1],"categories":[],"categories_nodes":[],"categories_segments":[],"categories_sizes":[],"default_left":[0,0,0,0,0,0,0,0,0,0,0,0,0,0,0,0,0,0,0,0,0,0,0,0,0,0,0,0,0],"id":9,"left_children":[1,3,5,7,9,11,13,15,-1,17,19,21,23,25,27,-1,-1,-1,-1,-1,-1,-1,-1,-1,-1,-1,-1,-1,-1],"loss_changes":[1.5923968E1,2.8771563E0,7.755085E0,8.411915E0,3.945264E0,2.1569931E1,1.1062096E1,1.8812072E0,0E0,1.4026785E0,4.9711666E0,1.1387548E1,6.721039E-1,2.6867523E0,5.3415074E0,0E0,0E0,0E0,0E0,0E0,0E0,0E0,0E0,0E0,0E0,0E0,0E0,0E0,0E0],"parents":[2147483647,0,0,1,1,2,2,3,3,4,4,5,5,6,6,7,7,9,9,10,10,11,11,12,12,13,13,14,14],"right_children":[2,4,6,8,10,12,14,16,-1,18,20,22,24,26,28,-1,-1,-1,-1,-1,-1,-1,-1,-1,-1,-1,-1,-1,-1],"split_conditions":[7.0710677E-1,2.435E1,2.532E1,2.414E1,-2.4492937E-16,2.6615997E1,3.0600002E1,1.2246469E-16,-6.233595E-1,-2.2252093E-1,1.9654E2,2.4739374E1,2.474E1,1E0,9.749279E-1,-1.4050256E-1,1.358079E-1,-1.1108379E-1,-4.6618804E-2,6.549127E-2,-1.1258267E-1,1.0003902E-2,2.966117E-1,-6.4253473E-1,-1.4317876E-1,3.3318236E-1,5.3156435E-2,-1.21556476E-1,3.2650834E-1],"split_indices":[1,0,0,0,1,7,7,1,0,4,6,7,0,4,3,0,0,0,0,0,0,0,0,0,0,0,0,0,0],"split_type":[0,0,0,0,0,0,0,0,0,0,0,0,0,0,0,0,0,0,0,0,0,0,0,0,0,0,0,0,0],"sum_hessian":[3.55E2,2.38E2,1.17E2,9E0,2.29E2,7.6E1,4.1E1,7E0,2E0,1.57E2,7.2E1,7.2E1,4E0,2.8E1,1.3E1,4E0,3E0,4.2E1,1.15E2,5.4E1,1.8E1,5.7E1,1.5E1,3E0,1E0,2.4E1,4E0,1.1E1,2E0],"tree_param":{"num_deleted":"0","num_feature":"8","num_nodes":"29","size_leaf_vector":"1"}},{"base_weights":[-3.105876E-3,-4.032029E-2,6.979381E-1,5.7376045E-1,-8.683173E-2,-1.7286342E-1,1.4118656E0,-1.4163348E-1,1.5894753E0,-2.108788E0,-5.4150283E-2,6.324959E-1,-5.9832424E-1,2.8410974E-1,5.6170726E-1,2.162296E-1,-4.6660778E-1,2.1566392E-3,5.2934587E-1,-7.850132E-2,-7.5154483E-1,4.2695808E-1,-2.9312795E-2,-3.540459E-2,3.6746493E-1],"categories":[],"categories_nodes":[],"categories_segments":[],"categories_sizes":[],"default_left":[0,0,0,0,0,0,0,0,0,0,0,0,0,0,0,0,0,0,0,0,0,0,0,0,0],"id":10,"left_children":[1,3,5,7,9,11,13,15,17,19,21,23,-1,-1,-1,-1,-1,-1,-1,-1,-1,-1,-1,-1,-1],"loss_changes":[9.315803E0,9.732265E0,1.1434465E1,1.7664392E1,2.0767235E1,1.4464483E1,3.6733437E-1,1.940898E1,2.756487E0,3.005106E0,2.0216778E1,3.2567072E0,0E0,0E0,0E0,0E0,0E0,0E0,0E0,0E0,0E0,0E0,0E0,0E0,0E0],"parents":[2147483647,0,0,1,1,2,2,3,3,4,4,5,5,6,6,7,7,8,8,9,9,10,10,11,11],"right_children":[2,4,6,8,10,12,14,16,18,20,22,24,-1,-1,-1,-1,-1,-1,-1,-1,-1,-1,-1,-1,-1],"split_conditions":[1E0,2.3768333E1,2.375E1,2.3660002E1,2.3808E1,2.341E1,4.3388373E-1,2.3652224E1,2.376E1,2.364E1,2.3902E1,-2.4492937E-16,-5.9832424E-1,2.8410974E-1,5.6170726E-1,2.162296E-1,-4.6660778E-1,2.1566392E-3,5.2934587E-1,-7.850132E-2,-7.5154483E-1,4.2695808E-1,-2.9312795E-2,-3.540459E-2,3.6746493E-1],"split_indices":[1,7,0,7,7,0,3,7,0,0,7,3,0,0,0,0,0,0,0,0,0,0,0,0,0],"split_type":[0,0,0,0,0,0,0,0,0,0,0,0,0,0,0,0,0,0,0,0,0,0,0,0,0],"sum_hessian":[3.55E2,3.38E2,1.7E1,2.3E1,3.15E2,8E0,9E0,1.4E1,9E0,4E0,3.11E2,6E0,2E0,6E0,3E0,9E0,5E0,1E0,8E0,1E0,3E0,8E0,3.03E2,3E0,3E0],"tree_param":{"num_deleted":"0","num_feature":"8","num_nodes":"25","size_leaf_vector":"1"}},{"base_weights":[-9.716709E-4,5.6493807E-1,-3.2780293E-2,7.949181E-2,9.938906E-1,-8.524177E-1,-5.1925126E-3,3.7705764E-1,-1.8172836E-1,1.3215724E-1,1.1681156E0,-1.5134413E0,2.43499E-1,-5.5892065E-2,5.002861E-1,-9.3277365E-2,1.8803531E-1,6.593514E-3,-6.8059616E-2,6.5842725E-2,3.8689288E-1,7.523728E-3,-6.401596E-1,-1.6353379E-1,5.0969183E-1,-5.49643E-2,3.8334657E-2,2.235448E-1,-1.232143E-1],"categories":[],"categories_nodes":[],"categories_segments":[],"categories_sizes":[],"default_left":[0,0,0,0,0,0,0,0,0,0,0,0,0,0,0,0,0,0,0,0,0,0,0,0,0,0,0,0,0],"id":11,"left_children":[1,3,5,7,9,11,13,15,17,-1,19,21,23,25,27,-1,-1,-1,-1,-1,-1,-1,-1,-1,-1,-1,-1,-1,-1],"loss_changes":[6.4268064E0,3.877428E0,7.6384215E0,8.4582406E-1,4.4952106E-1,8.337217E0,8.433795E0,1.0539203E0,6.0154453E-2,0E0,5.2395344E-1,6.73526E0,6.6651487E0,7.0157714E0,6.998157E0,0E0,0E0,0E0,0E0,0E0,0E0,0E0,0E0,0E0,0E0,0E0,0E0,0E0,0E0],"parents":[2147483647,0,0,1,1,2,2,3,3,4,4,5,5,6,6,7,7,8,8,10,10,11,11,12,12,13,13,14,14],"right_children":[2,4,6,8,10,12,14,16,18,-1,20,22,24,26,28,-1,-1,-1,-1,-1,-1,-1,-1,-1,-1,-1,-1,-1,-1],"split_conditions":[2.364E1,-2.4492937E-16,2.377E1,2.3660002E1,2.3911335E1,2.4739374E1,9.659258E-1,2.222E1,2.222E1,1.3215724E-1,7.0710677E-1,9.659258E-1,1E0,4.0523E2,2.4595E2,-9.3277365E-2,1.8803531E-1,6.593514E-3,-6.8059616E-2,6.5842725E-2,3.8689288E-1,7.523728E-3,-6.401596E-1,-1.6353379E-1,5.0969183E-1,-5.49643E-2,3.8334657E-2,2.235448E-1,-1.232143E-1],"split_indices":[0,3,0,7,7,7,1,0,0,0,1,1,1,5,5,0,0,0,0,0,0,0,0,0,0,0,0,0,0],"split_type":[0,0,0,0,0,0,0,0,0,0,0,0,0,0,0,0,0,0,0,0,0,0,0,0,0,0,0,0,0],"sum_hessian":[3.55E2,1.8E1,3.37E2,9E0,9E0,1E1,3.27E2,4E0,5E0,3E0,6E0,6E0,4E0,2.98E2,2.9E1,1E0,3E0,1E0,4E0,1E0,5E0,2E0,4E0,3E0,1E0,1.76E2,1.22E2,2.3E1,6E0],"tree_param":{"num_deleted":"0","num_feature":"8","num_nodes":"29","size_leaf_vector":"1"}},{"base_weights":[4.870972E-4,2.767385E-1,-3.734506E-2,-1.7936353E-1,6.4529276E-1,-9.814782E-1,1.6960295E-4,2.0486885E-1,-7.27491E-1,2.1043357E-1,2.6765382E-1,3.3987495E-1,-1.2766883E0,-5.7018142E-2,2.7730697E-1,-1.04565166E-1,1.5318733E-1,1.4617817E-1,-9.798661E-2,4.2096406E-2,-6.3193625E-1,-1.6123274E-1,-1.0483519E-2,4.93276E-2,3.916528E-1],"categories":[],"categories_nodes":[],"categories_segments":[],"categories_sizes":[],"default_left":[0,0,0,0,0,0,0,0,0,0,0,0,0,0,0,0,0,0,0,0,0,0,0,0,0],"id":12,"left_children":[1,3,5,7,9,11,13,15,-1,17,-1,-1,19,21,23,-1,-1,-1,-1,-1,-1,-1,-1,-1,-1],"loss_changes":[3.7309575E0,7.3439713E0,1.112168E1,1.7753496E1,2.388918E0,8.936668E0,4.8180165E0,3.2237773E0,0E0,1.6458647E0,0E0,0E0,1.3229229E1,2.653539E0,5.820729E0,0E0,0E0,0E0,0E0,0E0,0E0,0E0,0E0,0E0,0E0],"parents":[2147483647,0,0,1,1,2,2,3,3,4,4,5,5,6,6,7,7,9,9,12,12,13,13,14,14],"right_children":[2,4,6,8,10,12,14,16,-1,18,-1,-1,20,22,24,-1,-1,-1,-1,-1,-1,-1,-1,-1,-1],"split_conditions":[2.404158E1,2.405E1,2.4317501E1,7.818315E-1,-4.3388373E-1,2.385E1,8.660254E-1,2.3656668E1,-7.27491E-1,2.49E1,2.6765382E-1,3.3987495E-1,7.0710677E-1,2.448E1,1.1316E2,-1.04565166E-1,1.5318733E-1,1.4617817E-1,-9.798661E-2,4.2096406E-2,-6.3193625E-1,-1.6123274E-1,-1.0483519E-2,4.93276E-2,3.916528E-1],"split_indices":[7,0,7,3,3,0,1,7,0,0,0,0,1,0,6,0,0,0,0,0,0,0,0,0,0],"split_type":[0,0,0,0,0,0,0,0,0,0,0,0,0,0,0,0,0,0,0,0,0,0,0,0,0],"sum_hessian":[3.55E2,4.2E1,3.13E2,1.9E1,2.3E1,1.1E1,3.02E2,1.7E1,2E0,9E0,1.4E1,1E0,1E1,2.51E2,5.1E1,6E0,1.1E1,6E0,3E0,4E0,6E0,1E1,2.41E2,4.7E1,4E0],"tree_param":{"num_deleted":"0","num_feature":"8","num_nodes":"25","size_leaf_vector":"1"}},{"base_weights":[-6.251014E-4,4.028762E-1,-2.3305278E-2,3.9974213E-2,7.2549057E-1,-6.341887E-1,-2.7472798E-3,3.1499404E-1,-1.9587135E-1,2.909546E-1,2.6104662E-1,-1.1997555E0,2.844425E-1,3.9014897E-1,-1.4731892E-2,-2.994385E-2,1.8744087E-1,-1.3927461E-2,-7.769652E-2,1.06513985E-1,1.4801789E-2,-2.4618149E-2,-4.8912644E-1,-1.0625339E-1,4.2583868E-1,-9.3873E-3,1.7159806E-1],"categories":[],"categories_nodes":[],"categories_segments":[],"categories_sizes":[],"default_left":[0,0,0,0,0,0,0,0,0,0,0,0,0,0,0,0,0,0,0,0,0,0,0,0,0,0,0],"id":13,"left_children":[1,3,5,7,9,11,13,15,17,19,-1,21,23,-1,25,-1,-1,-1,-1,-1,-1,-1,-1,-1,-1,-1,-1],"loss_changes":[3.2673163E0,2.1954696E0,4.243045E0,7.103204E-1,3.754449E-1,6.0562816E0,5.1421485E0,7.0491755E-1,4.457222E-2,4.4424683E-2,0E0,3.2356806E0,4.1269765E0,0E0,3.1852E0,0E0,0E0,0E0,0E0,0E0,0E0,0E0,0E0,0E0,0E0,0E0,0E0],"parents":[2147483647,0,0,1,1,2,2,3,3,4,4,5,5,6,6,7,7,8,8,9,9,11,11,12,12,14,14],"right_children":[2,4,6,8,10,12,14,16,18,20,-1,22,24,-1,26,-1,-1,-1,-1,-1,-1,-1,-1,-1,-1,-1,-1],"split_conditions":[2.364E1,-2.4492937E-16,2.377E1,2.3660002E1,2.3911335E1,2.4739374E1,2.38E1,2.308E1,2.333E1,2.383E1,2.6104662E-1,9.659258E-1,1E0,3.9014897E-1,1E0,-2.994385E-2,1.8744087E-1,-1.3927461E-2,-7.769652E-2,1.06513985E-1,1.4801789E-2,-2.4618149E-2,-4.8912644E-1,-1.0625339E-1,4.2583868E-1,-9.3873E-3,1.7159806E-1],"split_indices":[0,3,0,7,7,7,0,0,0,7,0,1,1,0,1,0,0,0,0,0,0,0,0,0,0,0,0],"split_type":[0,0,0,0,0,0,0,0,0,0,0,0,0,0,0,0,0,0,0,0,0,0,0,0,0,0,0],"sum_hessian":[3.55E2,1.8E1,3.37E2,9E0,9E0,1E1,3.27E2,4E0,5E0,3E0,6E0,6E0,4E0,2E0,3.25E2,2E0,2E0,2E0,3E0,2E0,1E0,2E0,4E0,3E0,1E0,3.17E2,8E0],"tree_param":{"num_deleted":"0","num_feature":"8","num_nodes":"27","size_leaf_vector":"1"}},{"base_weights":[1.8283437E-3,-9.795294E-2,6.469587E-2,-2.9170468E-1,-3.4281395E-2,-8.312879E-2,1.7861903E-1,-4.4355774E-1,6.6129684E-2,-3.91836E-1,3.3209722E-3,9.2819E-3,-1.2593907E0,3.766868E-1,-6.080604E-2,-1.5566319E-1,7.699146E-2,5.141945E-2,-4.828191E-2,-1.9598858E-1,4.9103025E-2,1.5297575E-2,-6.636247E-2,1.6469412E-2,-2.3315163E-1,-5.516529E-1,-1.9795236E-1,8.690661E-2,2.4034798E-1,-3.9755994E-1,3.417914E-2],"categories":[],"categories_nodes":[],"categories_segments":[],"categories_sizes":[],"default_left":[0,0,0,0,0,0,0,0,0,0,0,0,0,0,0,0,0,0,0,0,0,0,0,0,0,0,0,0,0,0,0],"id":14,"left_children":[1,3,5,7,9,11,13,15,17,19,21,23,25,27,29,-1,-1,-1,-1,-1,-1,-1,-1,-1,-1,-1,-1,-1,-1,-1,-1],"loss_changes":[2.239526E0,1.692433E0,3.7029512E0,1.8768325E0,1.4130157E0,1.044681E1,5.903282E0,1.3988862E0,2.905205E-1,1.5593686E0,1.0388176E0,3.2714148E0,1.2185278E0,2.2790413E0,1.2744315E1,0E0,0E0,0E0,0E0,0E0,0E0,0E0,0E0,0E0,0E0,0E0,0E0,0E0,0E0,0E0,0E0],"parents":[2147483647,0,0,1,1,2,2,3,3,4,4,5,5,6,6,7,7,8,8,9,9,10,10,11,11,12,12,13,13,14,14],"right_children":[2,4,6,8,10,12,14,16,18,20,22,24,26,28,30,-1,-1,-1,-1,-1,-1,-1,-1,-1,-1,-1,-1,-1,-1,-1,-1],"split_conditions":[-2.5881904E-1,-2.2252093E-1,2.532E1,1.2998E2,2.767E1,2.656846E1,3.0874666E1,8.660254E-1,2.2965E2,9.749279E-1,9.749279E-1,2.523E1,9.659258E-1,1.141E2,2.879E1,-1.5566319E-1,7.699146E-2,5.141945E-2,-4.828191E-2,-1.9598858E-1,4.9103025E-2,1.5297575E-2,-6.636247E-2,1.6469412E-2,-2.3315163E-1,-5.516529E-1,-1.9795236E-1,8.690661E-2,2.4034798E-1,-3.9755994E-1,3.417914E-2],"split_indices":[1,4,0,6,0,7,7,2,6,3,3,0,1,6,0,0,0,0,0,0,0,0,0,0,0,0,0,0,0,0,0],"split_type":[0,0,0,0,0,0,0,0,0,0,0,0,0,0,0,0,0,0,0,0,0,0,0,0,0,0,0,0,0,0,0],"sum_hessian":[3.55E2,1.37E2,2.18E2,3.3E1,1.04E2,9.5E1,1.23E2,2.3E1,1E1,9E0,9.5E1,8.9E1,6E0,6.7E1,5.6E1,2.1E1,2E0,7E0,3E0,6E0,3E0,7.9E1,1.6E1,8.5E1,4E0,2E0,4E0,5.7E1,1E1,6E0,5E1],"tree_param":{"num_deleted":"0","num_feature":"8","num_nodes":"31","size_leaf_vector":"1"}},{"base_weights":[-2.3039326E-3,2.9000372E-1,-1.8728612E-2,1.974907E-2,5.31258E-1,-3.0872652E-1,1.5788397E-2,2.3274295E-1,-7.193802E-2,1.8367386E-1,6.5398353E-1,3.7869835E-1,-6.682181E-1,5.582013E-1,-1.6395602E-2,-2.152405E-2,1.6834451E-1,6.672859E-2,1.0111428E-2,3.8523674E-2,2.1605302E-1,-6.897392E-2,1.5307686E-1,-1.2683716E-1,-5.368974E-1,6.050606E-2,2.0698252E-1,-2.4840852E-2,2.1469668E-2],"categories":[],"categories_nodes":[],"categories_segments":[],"categories_sizes":[],"default_left":[0,0,0,0,0,0,0,0,0,0,0,0,0,0,0,0,0,0,0,0,0,0,0,0,0,0,0,0,0],"id":15,"left_children":[1,3,5,7,9,11,13,15,-1,17,19,21,23,25,27,-1,-1,-1,-1,-1,-1,-1,-1,-1,-1,-1,-1,-1,-1],"loss_changes":[1.7146086E0,1.22831E0,3.388207E0,6.086198E-1,3.0645466E-1,9.149496E0,5.298628E0,6.402371E-1,0E0,1.5751183E-2,1.5104532E-1,1.1581932E0,5.8489237E0,6.592932E-1,1.6823667E0,0E0,0E0,0E0,0E0,0E0,0E0,0E0,0E0,0E0,0E0,0E0,0E0,0E0,0E0],"parents":[2147483647,0,0,1,1,2,2,3,3,4,4,5,5,6,6,7,7,9,9,10,10,11,11,12,12,13,13,14,14],"right_children":[2,4,6,8,10,12,14,16,-1,18,20,22,24,26,28,-1,-1,-1,-1,-1,-1,-1,-1,-1,-1,-1,-1,-1,-1],"split_conditions":[2.364E1,-2.4492937E-16,2.435E1,2.333E1,-2.2252093E-1,4.3388373E-1,2.3902E1,2.308E1,-7.193802E-2,2.324E1,7.0710677E-1,2.3711668E1,2.416E1,2.3656925E1,4.0523E2,-2.152405E-2,1.6834451E-1,6.672859E-2,1.0111428E-2,3.8523674E-2,2.1605302E-1,-6.897392E-2,1.5307686E-1,-1.2683716E-1,-5.368974E-1,6.050606E-2,2.0698252E-1,-2.4840852E-2,2.1469668E-2],"split_indices":[0,3,0,0,4,3,7,0,0,0,1,7,0,7,5,0,0,0,0,0,0,0,0,0,0,0,0,0,0],"split_type":[0,0,0,0,0,0,0,0,0,0,0,0,0,0,0,0,0,0,0,0,0,0,0,0,0,0,0,0,0],"sum_hessian":[3.55E2,1.8E1,3.37E2,9E0,9E0,3.5E1,3.02E2,5E0,4E0,3E0,6E0,1.2E1,2.3E1,1.6E1,2.86E2,3E0,2E0,2E0,1E0,1E0,5E0,2E0,1E1,2E1,3E0,5E0,1.1E1,1.63E2,1.23E2],"tree_param":{"num_deleted":"0","num_feature":"8","num_nodes":"29","size_leaf_vector":"1"}},{"base_weights":[-1.3572822E-3,3.5783906E-2,-1.0525914E-1,-7.374428E-2,1.01283945E-1,-4.8693073E-1,-2.6626177E-2,-2.0545994E-1,-4.773429E-3,1.1545358E-1,-2.1070825E-1,-5.769097E-1,-7.5971163E-3,1.9330315E-1,-9.060102E-2,-9.236092E-2,2.133316E-2,-8.3241634E-2,1.2945658E-2,4.0506045E-3,5.7613842E-2,1.3663378E-1,-1.0617893E-1,-5.3928524E-2,4.16214E-2],"categories":[],"categories_nodes":[],"categories_segments":[],"categories_sizes":[],"default_left":[0,0,0,0,0,0,0,0,0,0,0,0,0,0,0,0,0,0,0,0,0,0,0,0,0],"id":16,"left_children":[1,3,5,7,9,11,13,15,17,19,-1,-1,21,-1,23,-1,-1,-1,-1,-1,-1,-1,-1,-1,-1],"loss_changes":[1.3775843E0,1.8942578E0,2.8081603E0,8.9838874E-1,1.9600028E0,1.0999338E1,3.4494689E0,9.848926E-1,8.745443E-1,1.27023E0,0E0,0E0,2.2459657E0,0E0,1.5176461E0,0E0,0E0,0E0,0E0,0E0,0E0,0E0,0E0,0E0,0E0],"parents":[2147483647,0,0,1,1,2,2,3,3,4,4,5,5,6,6,7,7,8,8,9,9,12,12,14,14],"right_children":[2,4,6,8,10,12,14,16,18,20,-1,-1,22,-1,24,-1,-1,-1,-1,-1,-1,-1,-1,-1,-1],"split_conditions":[7.818315E-1,-2.5881904E-1,2.448E1,-2.2252093E-1,3.6246E1,2.4161722E1,2.3741922E1,1.3645E2,2.858E1,2.53E1,-2.1070825E-1,-5.769097E-1,2.369E1,1.9330315E-1,4.4423E2,-9.236092E-2,2.133316E-2,-8.3241634E-2,1.2945658E-2,4.0506045E-3,5.7613842E-2,1.3663378E-1,-1.0617893E-1,-5.3928524E-2,4.16214E-2],"split_indices":[3,1,0,4,7,7,7,6,0,0,0,0,0,0,5,0,0,0,0,0,0,0,0,0,0],"split_type":[0,0,0,0,0,0,0,0,0,0,0,0,0,0,0,0,0,0,0,0,0,0,0,0,0],"sum_hessian":[3.55E2,2.62E2,9.3E1,9.8E1,1.64E2,1.5E1,7.8E1,3.3E1,6.5E1,1.62E2,2E0,3E0,1.2E1,6E0,7.2E1,2.4E1,9E0,9E0,5.6E1,7E1,9.2E1,5E0,7E0,5.2E1,2E1],"tree_param":{"num_deleted":"0","num_feature":"8","num_nodes":"25","size_leaf_vector":"1"}},{"base_weights":[-2.7922513E-3,3.0639322E-2,-1.14876285E-1,-4.4645965E-3,2.7147946E-1,-3.796067E-1,-6.407098E-2,1.1960756E-2,-5.5524933E-1,5.781547E-1,1.2565327E-2,1.09174736E-1,-5.478758E-1,-3.9214435E-1,3.7417654E-3,2.3784244E-2,-2.3914238E-2,3.9185338E-2,-2.5671592E-1,2.3195486E-1,3.7273217E-2,1.282774E-1,-1.3356595E-1,-1.94784E-1,6.992483E-2,-5.559168E-2,-1.9339725E-1,1.2188809E-1,-1.7478375E-2],"categories":[],"categories_nodes":[],"categories_segments":[],"categories_sizes":[],"default_left":[0,0,0,0,0,0,0,0,0,0,0,0,0,0,0,0,0,0,0,0,0,0,0,0,0,0,0,0,0],"id":17,"left_children":[1,3,5,7,9,11,13,15,17,19,21,-1,23,25,27,-1,-1,-1,-1,-1,-1,-1,-1,-1,-1,-1,-1,-1,-1],"loss_changes":[1.3375034E0,2.326181E0,1.0785543E0,2.1869283E0,2.7718246E0,1.8258352E0,1.5587962E0,1.456636E0,1.5543516E0,1.3203416E0,3.9902265E0,0E0,1.0224526E0,5.072956E-1,1.4962775E0,0E0,0E0,0E0,0E0,0E0,0E0,0E0,0E0,0E0,0E0,0E0,0E0,0E0,0E0],"parents":[2147483647,0,0,1,1,2,2,3,3,4,4,5,5,6,6,7,7,8,8,9,9,10,10,12,12,13,13,14,14],"right_children":[2,4,6,8,10,12,14,16,18,20,22,-1,24,26,28,-1,-1,-1,-1,-1,-1,-1,-1,-1,-1,-1,-1,-1,-1],"split_conditions":[3.419E1,5.9362E2,3.4824615E1,5.5088E2,6.8414E2,2.768E1,3.267E1,4.3388373E-1,-5E-1,3.362E1,-2.2252093E-1,1.09174736E-1,8.9002E2,-2.5881904E-1,3.466E1,2.3784244E-2,-2.3914238E-2,3.9185338E-2,-2.5671592E-1,2.3195486E-1,3.7273217E-2,1.282774E-1,-1.3356595E-1,-1.94784E-1,6.992483E-2,-5.559168E-2,-1.9339725E-1,1.2188809E-1,-1.7478375E-2],"split_indices":[7,5,7,5,5,0,0,3,2,0,4,0,5,1,0,0,0,0,0,0,0,0,0,0,0,0,0,0,0],"split_type":[0,0,0,0,0,0,0,0,0,0,0,0,0,0,0,0,0,0,0,0,0,0,0,0,0,0,0,0,0],"sum_hessian":[3.55E2,2.74E2,8.1E1,2.4E2,3.4E1,1.2E1,6.9E1,2.34E2,6E0,1.5E1,1.9E1,2E0,1E1,1.1E1,5.8E1,1.35E2,9.9E1,2E0,4E0,1E1,5E0,1E1,9E0,9E0,1E0,7E0,4E0,7E0,5.1E1],"tree_param":{"num_deleted":"0","num_feature":"8","num_nodes":"29","size_leaf_vector":"1"}},{"base_weights":[-2.2747705E-3,-2.5363743E-2,1.4640789E-1,2.7864614E-1,-4.2915978E-2,3.402306E-2,9.274311E-1,2.3820242E-2,7.418569E-1,-8.418657E-1,-8.765931E-3,1.6026285E-1,-5.3830886E-1,3.3154267E-1,5.831337E-3,-4.559269E-2,5.1329862E-2,2.9756424E-1,-7.62394E-2,8.985462E-2,-3.3002806E-1,8.5678674E-2,-8.618166E-3,-1.5737525E-1,9.4415516E-2,-6.045227E-2,-4.343877E-1],"categories":[],"categories_nodes":[],"categories_segments":[],"categories_sizes":[],"default_left":[0,0,0,0,0,0,0,0,0,0,0,0,0,0,0,0,0,0,0,0,0,0,0,0,0,0,0],"id":18,"left_children":[1,3,5,7,9,11,13,15,17,19,21,23,25,-1,-1,-1,-1,-1,-1,-1,-1,-1,-1,-1,-1,-1,-1],"loss_changes":[1.2258364E0,1.6607984E0,4.1816535E0,1.9889764E0,7.9868817E0,3.1930664E0,9.466815E-1,3.3669606E-1,1.7461932E0,3.866331E0,1.6651897E0,3.9731185E0,2.1591957E0,0E0,0E0,0E0,0E0,0E0,0E0,0E0,0E0,0E0,0E0,0E0,0E0,0E0,0E0],"parents":[2147483647,0,0,1,1,2,2,3,3,4,4,5,5,6,6,7,7,8,8,9,9,10,10,11,11,12,12],"right_children":[2,4,6,8,10,12,14,16,18,20,22,24,26,-1,-1,-1,-1,-1,-1,-1,-1,-1,-1,-1,-1,-1,-1],"split_conditions":[9.659258E-1,2.393E1,2.522E1,2.38E1,2.435E1,2.476E1,1E0,-2.4492937E-16,8.660254E-1,-2.4492937E-16,2.4230001E1,2.3656668E1,1E0,3.3154267E-1,5.831337E-3,-4.559269E-2,5.1329862E-2,2.9756424E-1,-7.62394E-2,8.985462E-2,-3.3002806E-1,8.5678674E-2,-8.618166E-3,-1.5737525E-1,9.4415516E-2,-6.045227E-2,-4.343877E-1],"split_indices":[1,0,0,0,0,0,4,3,1,3,7,7,4,0,0,0,0,0,0,0,0,0,0,0,0,0,0],"split_type":[0,0,0,0,0,0,0,0,0,0,0,0,0,0,0,0,0,0,0,0,0,0,0,0,0,0,0],"sum_hessian":[3.55E2,3.08E2,4.7E1,1.6E1,2.92E2,4.2E1,5E0,1.1E1,5E0,1.1E1,2.81E2,3.5E1,7E0,4E0,1E0,5E0,6E0,4E0,1E0,2E0,9E0,1.7E1,2.64E2,6E0,2.9E1,6E0,1E0],"tree_param":{"num_deleted":"0","num_feature":"8","num_nodes":"27","size_leaf_vector":"1"}},{"base_weights":[-2.0323175E-3,1.8696435E-1,-1.5647596E-2,-1.0941584E-1,7.934017E-1,-1.2250961E0,2.780642E-3,2.7566832E-1,-5.770941E-1,1.1440802E0,3.541786E-1,-1.5291605E0,-1.3257981E-3,7.848406E-1,-1.6658055E-2,1.920803E-1,-6.509537E-2,-3.8031694E-1,2.7248384E-2,5.1731303E-2,4.2314455E-1,1.2433119E-1,1.6971588E-2,-5.685654E-2,-5.7375985E-1,3.1404403E-1,-2.155304E-4,-7.778252E-2,2.472039E-3],"categories":[],"categories_nodes":[],"categories_segments":[],"categories_sizes":[],"default_left":[0,0,0,0,0,0,0,0,0,0,0,0,0,0,0,0,0,0,0,0,0,0,0,0,0,0,0,0,0],"id":19,"left_children":[1,3,5,7,9,11,13,15,17,19,21,23,-1,25,27,-1,-1,-1,-1,-1,-1,-1,-1,-1,-1,-1,-1,-1,-1],"loss_changes":[9.1899985E-1,4.4004755E0,7.425313E0,3.22071E0,8.2700014E-1,1.8490639E0,5.014606E0,1.9351373E0,3.8054354E0,7.9216814E-1,6.622136E-2,1.6918554E0,0E0,1.6471124E0,1.9472493E0,0E0,0E0,0E0,0E0,0E0,0E0,0E0,0E0,0E0,0E0,0E0,0E0,0E0,0E0],"parents":[2147483647,0,0,1,1,2,2,3,3,4,4,5,5,6,6,7,7,8,8,9,9,10,10,11,11,13,13,14,14],"right_children":[2,4,6,8,10,12,14,16,18,20,22,24,-1,26,28,-1,-1,-1,-1,-1,-1,-1,-1,-1,-1,-1,-1,-1,-1],"split_conditions":[2.3768333E1,2.3711668E1,2.3808E1,2.3652224E1,2.393E1,2.405E1,2.3896553E1,6.234898E-1,2.3656668E1,-7.818315E-1,2.456E1,2.364E1,-1.3257981E-3,2.48E1,2.443E1,1.920803E-1,-6.509537E-2,-3.8031694E-1,2.7248384E-2,5.1731303E-2,4.2314455E-1,1.2433119E-1,1.6971588E-2,-5.685654E-2,-5.7375985E-1,3.1404403E-1,-2.155304E-4,-7.778252E-2,2.472039E-3],"split_indices":[7,7,7,7,0,0,7,4,7,3,0,0,0,0,7,0,0,0,0,0,0,0,0,0,0,0,0,0,0],"split_type":[0,0,0,0,0,0,0,0,0,0,0,0,0,0,0,0,0,0,0,0,0,0,0,0,0,0,0,0,0],"sum_hessian":[3.55E2,2.3E1,3.32E2,1.6E1,7E0,4E0,3.28E2,9E0,7E0,3E0,4E0,3E0,1E0,7E0,3.21E2,5E0,4E0,3E0,4E0,1E0,2E0,3E0,1E0,1E0,2E0,5E0,2E0,2.9E1,2.92E2],"tree_param":{"num_deleted":"0","num_feature":"8","num_nodes":"29","size_leaf_vector":"1"}},{"base_weights":[-1.4319848E-3,5.898331E-2,-4.2747013E-2,3.0742407E-2,4.3716127E-1,-6.7594045E-1,-1.3757038E-3,-2.6721647E-2,1.7964238E-1,2.7628404E-1,2.0109653E-1,-1.2940598E-1,-1.125912E0,5.0972974E-1,-2.812795E-2,-4.169524E-4,-1.8840137E-1,1.7720678E-1,2.5233615E-2,-2.6563644E-2,2.1400453E-1,-2.5840226E-1,1.0069085E-1,-3.6213943E-1,-9.578934E-2,1.2145943E-2,3.6104193E-1,-9.2644066E-2,1.0387328E-2],"categories":[],"categories_nodes":[],"categories_segments":[],"categories_sizes":[],"default_left":[0,0,0,0,0,0,0,0,0,0,0,0,0,0,0,0,0,0,0,0,0,0,0,0,0,0,0,0,0],"id":20,"left_children":[1,3,5,7,9,11,13,15,17,-1,19,21,23,25,27,-1,-1,-1,-1,-1,-1,-1,-1,-1,-1,-1,-1,-1,-1],"loss_changes":[8.911186E-1,1.5351734E0,5.552631E0,1.1684701E0,9.5684767E-1,3.0513234E0,2.7489812E0,1.5070537E0,1.4424788E0,0E0,1.2501211E0,2.6717606E0,7.31554E-2,3.2066197E0,3.3749068E0,0E0,0E0,0E0,0E0,0E0,0E0,0E0,0E0,0E0,0E0,0E0,0E0,0E0,0E0],"parents":[2147483647,0,0,1,1,2,2,3,3,4,4,5,5,6,6,7,7,8,8,10,10,11,11,12,12,13,13,14,14],"right_children":[2,4,6,8,10,12,14,16,18,-1,20,22,24,26,28,-1,-1,-1,-1,-1,-1,-1,-1,-1,-1,-1,-1,-1,-1],"split_conditions":[2.7218569E1,6.056E1,2.681E1,2.555E1,6.58E1,2.8532726E1,2.729E1,2.546E1,2.599E1,2.7628404E-1,4.3388373E-1,-2.4492937E-16,8.660254E-1,8.34E1,2.925E1,-4.169524E-4,-1.8840137E-1,1.7720678E-1,2.5233615E-2,-2.6563644E-2,2.1400453E-1,-2.5840226E-1,1.0069085E-1,-3.6213943E-1,-9.578934E-2,1.2145943E-2,3.6104193E-1,-9.2644066E-2,1.0387328E-2],"split_indices":[7,6,0,0,6,7,0,0,0,0,3,3,2,6,0,0,0,0,0,0,0,0,0,0,0,0,0,0,0],"split_type":[0,0,0,0,0,0,0,0,0,0,0,0,0,0,0,0,0,0,0,0,0,0,0,0,0,0,0,0,0],"sum_hessian":[3.55E2,1.44E2,2.11E2,1.35E2,9E0,1.2E1,1.99E2,9.8E1,3.7E1,2E0,7E0,6E0,6E0,9E0,1.9E2,9.5E1,3E0,6E0,3.1E1,5E0,2E0,2E0,4E0,5E0,1E0,6E0,3E0,3.4E1,1.56E2],"tree_param":{"num_deleted":"0","num_feature":"8","num_nodes":"29","size_leaf_vector":"1"}},{"base_weights":[-5.7396194E-4,1.1255458E-2,-1.8067767E-1,4.1157375E-3,2.4000378E-1,-6.7660797E-1,4.7584176E-2,1.4752705E-1,-7.000351E-3,-2.6010236E-1,-1.3373883E-1,1.5955925E-1,-2.0158768E-2,-4.1423418E-2,1.6835462E-1,-2.950866E-1,2.694119E-3,-2.5013925E-3,-5.7681087E-2,-4.4842243E-2,1.7833902E-2],"categories":[],"categories_nodes":[],"categories_segments":[],"categories_sizes":[],"default_left":[0,0,0,0,0,0,0,0,0,0,0,0,0,0,0,0,0,0,0,0,0],"id":21,"left_children":[1,3,5,7,-1,9,11,13,15,-1,17,-1,19,-1,-1,-1,-1,-1,-1,-1,-1],"loss_changes":[7.6049954E-1,1.8832617E0,2.5226388E0,5.318923E-1,0E0,6.0758305E-1,5.356266E-1,2.9128942E0,4.847048E0,0E0,2.0416532E-2,0E0,1.6329816E-1,0E0,0E0,0E0,0E0,0E0,0E0,0E0,0E0],"parents":[2147483647,0,0,1,1,2,2,3,3,5,5,6,6,7,7,8,8,10,10,12,12],"right_children":[2,4,6,8,-1,10,12,14,16,-1,18,-1,20,-1,-1,-1,-1,-1,-1,-1,-1],"split_conditions":[2.8652E2,2.782E2,3.1105E2,2.3768333E1,2.4000378E-1,1E0,-7.818315E-1,2.3660002E1,2.3808E1,-2.6010236E-1,3.175E1,1.5955925E-1,3.09E1,-4.1423418E-2,1.6835462E-1,-2.950866E-1,2.694119E-3,-2.5013925E-3,-5.7681087E-2,-4.4842243E-2,1.7833902E-2],"split_indices":[6,6,6,7,0,4,3,7,7,0,0,0,0,0,0,0,0,0,0,0,0],"split_type":[0,0,0,0,0,0,0,0,0,0,0,0,0,0,0,0,0,0,0,0,0],"sum_hessian":[3.55E2,3.34E2,2.1E1,3.32E2,2E0,6E0,1.5E1,2.3E1,3.09E2,4E0,2E0,1E0,1.4E1,1.4E1,9E0,4E0,3.05E2,1E0,1E0,5E0,9E0],"tree_param":{"num_deleted":"0","num_feature":"8","num_nodes":"21","size_leaf_vector":"1"}},{"base_weights":[-7.1889366E-4,2.4332085E-1,-7.7496674E-3,5.1506615E-1,-1.3143769E-1,-9.5110416E-1,3.242099E-3,-1.17445625E-1,2.5820506E-1,1.0021464E-1,-9.578323E-2,-3.863434E-1,8.852578E-3,3.313837E-1,-8.59256E-3,-7.82238E-2,2.5373269E-2,-5.74379E-3,5.084038E-2,2.0105144E-2,1.7537422E-1,-2.2426598E-1,7.991889E-4],"categories":[],"categories_nodes":[],"categories_segments":[],"categories_sizes":[],"default_left":[0,0,0,0,0,0,0,0,0,0,0,0,0,0,0,0,0,0,0,0,0,0,0],"id":22,"left_children":[1,3,5,7,9,11,13,15,-1,17,-1,-1,-1,19,21,-1,-1,-1,-1,-1,-1,-1,-1],"loss_changes":[6.1270624E-1,1.0860877E0,3.6011724E0,1.4127256E0,2.4956387E-1,1.3587186E0,1.3387522E0,1.0890326E-1,0E0,2.804297E-2,0E0,0E0,0E0,7.64065E-1,2.771928E0,0E0,0E0,0E0,0E0,0E0,0E0,0E0,0E0],"parents":[2147483647,0,0,1,1,2,2,3,3,4,4,5,5,6,6,7,7,9,9,13,13,14,14],"right_children":[2,4,6,8,10,12,14,16,-1,18,-1,-1,-1,20,22,-1,-1,-1,-1,-1,-1,-1,-1],"split_conditions":[2.3652224E1,6.234898E-1,2.3656668E1,9.659258E-1,2.354E1,2.384E1,2.3768333E1,2.222E1,2.5820506E-1,2.351E1,-9.578323E-2,-3.863434E-1,8.852578E-3,2.3718891E1,2.3808E1,-7.82238E-2,2.5373269E-2,-5.74379E-3,5.084038E-2,2.0105144E-2,1.7537422E-1,-2.2426598E-1,7.991889E-4],"split_indices":[7,4,7,1,0,0,7,0,0,0,0,0,0,7,7,0,0,0,0,0,0,0,0],"split_type":[0,0,0,0,0,0,0,0,0,0,0,0,0,0,0,0,0,0,0,0,0,0,0],"sum_hessian":[3.55E2,9E0,3.46E2,5E0,4E0,3E0,3.43E2,2E0,3E0,2E0,2E0,2E0,1E0,1.1E1,3.32E2,1E0,1E0,1E0,1E0,6E0,5E0,4E0,3.28E2],"tree_param":{"num_deleted":"0","num_feature":"8","num_nodes":"23","size_leaf_vector":"1"}},{"base_weights":[-1.2083E-3,2.0625763E-2,-7.4417554E-2,5.8972915E-3,3.7357295E-1,-9.3251385E-2,3.1615496E-1,2.2218835E-2,-2.4949539E-1,-2.3238058E-1,5.658506E-1,-2.7301386E-1,-3.9558224E-2,7.612864E-2,1.5543509E-1,-2.3087868E-3,4.6515517E-2,-1.314679E-1,-4.5019865E-2,7.274332E-2,2.522184E-1,-1.3073516E-2,-1.2451698E-1,5.030892E-3,-7.594828E-2,2.9911997E-3,3.126669E-2],"categories":[],"categories_nodes":[],"categories_segments":[],"categories_sizes":[],"default_left":[0,0,0,0,0,0,0,0,0,0,0,0,0,0,0,0,0,0,0,0,0,0,0,0,0,0,0],"id":23,"left_children":[1,3,5,7,9,11,13,15,17,-1,19,21,23,25,-1,-1,-1,-1,-1,-1,-1,-1,-1,-1,-1,-1,-1],"loss_changes":[5.705851E-1,1.4273494E0,6.3267195E-1,1.1101701E0,2.8667617E0,7.517091E-1,1.5446123E-1,9.946103E-1,2.3448288E-1,0E0,6.8502116E-1,5.6852615E-1,7.50216E-1,4.536692E-3,0E0,0E0,0E0,0E0,0E0,0E0,0E0,0E0,0E0,0E0,0E0,0E0,0E0],"parents":[2147483647,0,0,1,1,2,2,3,3,4,4,5,5,6,6,7,7,8,8,10,10,11,11,12,12,13,13],"right_children":[2,4,6,8,10,12,14,16,18,-1,20,22,24,26,-1,-1,-1,-1,-1,-1,-1,-1,-1,-1,-1,-1,-1],"split_conditions":[3.419E1,3.387E1,3.951E1,3.2878002E1,2.737E1,1.2998E2,-7.0710677E-1,9.118E1,3.309941E1,-2.3238058E-1,1.7285E2,3.625E1,1E0,4.032E1,1.5543509E-1,-2.3087868E-3,4.6515517E-2,-1.314679E-1,-4.5019865E-2,7.274332E-2,2.522184E-1,-1.3073516E-2,-1.2451698E-1,5.030892E-3,-7.594828E-2,2.9911997E-3,3.126669E-2],"split_indices":[7,7,0,7,0,6,1,6,7,0,6,0,4,0,0,0,0,0,0,0,0,0,0,0,0,0,0],"split_type":[0,0,0,0,0,0,0,0,0,0,0,0,0,0,0,0,0,0,0,0,0,0,0,0,0,0,0],"sum_hessian":[3.55E2,2.74E2,8.1E1,2.64E2,1E1,7.8E1,3E0,2.49E2,1.5E1,1E0,9E0,1.7E1,6.1E1,2E0,1E0,2.04E2,4.5E1,4E0,1.1E1,5E0,4E0,7E0,1E1,4.9E1,1.2E1,1E0,1E0],"tree_param":{"num_deleted":"0","num_feature":"8","num_nodes":"27","size_leaf_vector":"1"}},{"base_weights":[-1.0108948E-3,4.5034457E-2,-3.6742557E-2,5.872355E-2,-1.4694959E-1,-7.2477365E-1,-4.4678305E-3,3.2366827E-2,3.9602244E-1,-8.934901E-1,9.374371E-2,-2.5319252E-2,2.861918E-1,4.7439665E-2,-6.988083E-3,2.1544099E-1,3.2809887E-2,-1.2078152E-1,-3.8511717E-1,-8.0081545E-2,5.632778E-3,-3.4085084E-2,1.429526E-1],"categories":[],"categories_nodes":[],"categories_segments":[],"categories_sizes":[],"default_left":[0,0,0,0,0,0,0,0,0,0,0,0,0,0,0,0,0,0,0,0,0,0,0],"id":24,"left_children":[1,3,5,7,-1,9,11,13,15,17,-1,19,21,-1,-1,-1,-1,-1,-1,-1,-1,-1,-1],"loss_changes":[5.8737326E-1,1.170971E0,4.4601703E0,1.3473663E0,0E0,1.8542113E0,1.1769547E0,1.0047057E0,9.371562E-1,1.0156455E0,0E0,1.9334301E0,1.0433139E0,0E0,0E0,0E0,0E0,0E0,0E0,0E0,0E0,0E0,0E0],"parents":[2147483647,0,0,1,1,2,2,3,3,5,5,6,6,7,7,8,8,9,9,11,11,12,12],"right_children":[2,4,6,8,-1,10,12,14,16,18,-1,20,22,-1,-1,-1,-1,-1,-1,-1,-1,-1,-1],"split_conditions":[2.7971666E1,3.2381E2,2.663E1,5.232E1,-1.4694959E-1,9.809E1,8.660254E-1,-2.2252093E-1,1.8099E2,7.539E1,9.374371E-2,2.925E1,2.701E1,4.7439665E-2,-6.988083E-3,2.1544099E-1,3.2809887E-2,-1.2078152E-1,-3.8511717E-1,-8.0081545E-2,5.632778E-3,-3.4085084E-2,1.429526E-1],"split_indices":[7,5,0,5,0,6,1,4,5,6,0,0,0,0,0,0,0,0,0,0,0,0,0],"split_type":[0,0,0,0,0,0,0,0,0,0,0,0,0,0,0,0,0,0,0,0,0,0,0],"sum_hessian":[3.55E2,1.55E2,2E2,1.52E2,3E0,8E0,1.92E2,1.42E2,1E1,7E0,1E0,1.8E2,1.2E1,4.3E1,9.9E1,4E0,6E0,4E0,3E0,2.7E1,1.53E2,4E0,8E0],"tree_param":{"num_deleted":"0","num_feature":"8","num_nodes":"23","size_leaf_vector":"1"}},{"base_weights":[-1.3703282E-3,9.309973E-2,-1.4302947E-2,-4.7787108E-2,3.592743E-1,-4.249512E-1,-5.2974992E-3,7.242187E-2,-5.206585E-1,7.8358844E-2,7.6758766E-1,-2.608183E-1,3.9963173E-3,-1.3966551E-2,1.3113366E-1,-2.1873026E-1,7.823296E-2,-4.899178E-2,1.0580544E-1,8.310128E-3,2.730075E-1,6.324667E-2,-4.7664014E-1,1.5393715E-1,-1.880395E-3],"categories":[],"categories_nodes":[],"categories_segments":[],"categories_sizes":[],"default_left":[0,0,0,0,0,0,0,0,0,0,0,0,0,0,0,0,0,0,0,0,0,0,0,0,0],"id":25,"left_children":[1,3,5,7,9,-1,11,13,15,17,19,21,23,-1,-1,-1,-1,-1,-1,-1,-1,-1,-1,-1,-1],"loss_changes":[4.362729E-1,1.6296898E0,3.957514E0,1.6861652E0,1.6603757E0,0E0,7.443433E-1,1.0617043E0,1.1674371E0,7.205447E-1,6.071172E-1,7.2245865E0,1.586645E0,0E0,0E0,0E0,0E0,0E0,0E0,0E0,0E0,0E0,0E0,0E0,0E0],"parents":[2147483647,0,0,1,1,2,2,3,3,4,4,6,6,7,7,8,8,9,9,10,10,11,11,12,12],"right_children":[2,4,6,8,10,-1,12,14,16,18,20,22,24,-1,-1,-1,-1,-1,-1,-1,-1,-1,-1,-1,-1],"split_conditions":[2.404158E1,2.383E1,2.4043892E1,2.3768333E1,-2.4492937E-16,-4.249512E-1,2.4317501E1,2.3718891E1,2.405E1,8.660254E-1,2.35E1,8.660254E-1,2.4365E1,-1.3966551E-2,1.3113366E-1,-2.1873026E-1,7.823296E-2,-4.899178E-2,1.0580544E-1,8.310128E-3,2.730075E-1,6.324667E-2,-4.7664014E-1,1.5393715E-1,-1.880395E-3],"split_indices":[7,7,7,7,3,0,7,7,0,1,0,1,7,0,0,0,0,0,0,0,0,0,0,0,0],"split_type":[0,0,0,0,0,0,0,0,0,0,0,0,0,0,0,0,0,0,0,0,0,0,0,0,0],"sum_hessian":[3.55E2,4.2E1,3.13E2,2.8E1,1.4E1,1E0,3.12E2,2.3E1,5E0,9E0,5E0,1E1,3.02E2,1.8E1,5E0,4E0,1E0,5E0,4E0,1E0,4E0,8E0,2E0,5E0,2.97E2],"tree_param":{"num_deleted":"0","num_feature":"8","num_nodes":"25","size_leaf_vector":"1"}},{"base_weights":[-2.0025661E-3,1.4940743E-1,-1.0507855E-2,-1.2780666E-1,2.09373E-1,-5.191644E-1,-1.3113165E-3,-1.7653656E-1,2.757454E-3,2.792069E-1,-1.02996826E-4,-3.0457815E-2,-7.5590324E-1,-1.6468083E-2,4.8989907E-1,-6.300087E-2,-1.6440583E-2,9.73294E-2,-3.273926E-2,-6.977387E-2,6.972237E-2,-2.194462E-2,8.238602E-3,-3.218116E-1,-8.782025E-2,-1.6410153E-1,-2.438094E-3,3.609205E-2,3.0426323E-1],"categories":[],"categories_nodes":[],"categories_segments":[],"categories_sizes":[],"default_left":[0,0,0,0,0,0,0,0,0,0,0,0,0,0,0,0,0,0,0,0,0,0,0,0,0,0,0,0,0],"id":26,"left_children":[1,3,5,7,9,11,13,15,-1,17,19,21,23,25,27,-1,-1,-1,-1,-1,-1,-1,-1,-1,-1,-1,-1,-1,-1],"loss_changes":[4.6002173E-1,3.4260193E-1,1.5804423E0,2.8326258E-2,2.340852E-1,6.71152E-1,2.487306E0,7.1347505E-4,0E0,2.4615371E-1,3.2431996E-1,9.4267605E-3,2.7291417E-1,1.42934E0,1.8157985E0,0E0,0E0,0E0,0E0,0E0,0E0,0E0,0E0,0E0,0E0,0E0,0E0,0E0,0E0],"parents":[2147483647,0,0,1,1,2,2,3,3,4,4,5,5,6,6,7,7,9,9,10,10,11,11,12,12,13,13,14,14],"right_children":[2,4,6,8,10,12,14,16,-1,18,20,22,24,26,28,-1,-1,-1,-1,-1,-1,-1,-1,-1,-1,-1,-1,-1,-1],"split_conditions":[2.364E1,2.242E1,2.375E1,2.222E1,1E0,8.660254E-1,1E0,9.659258E-1,2.757454E-3,6.874E1,-2.4492937E-16,2.366E1,2.369E1,2.377E1,4.3388373E-1,-6.300087E-2,-1.6440583E-2,9.73294E-2,-3.273926E-2,-6.977387E-2,6.972237E-2,-2.194462E-2,8.238602E-3,-3.218116E-1,-8.782025E-2,-1.6410153E-1,-2.438094E-3,3.609205E-2,3.0426323E-1],"split_indices":[0,0,0,0,1,1,1,1,0,6,3,0,0,0,3,0,0,0,0,0,0,0,0,0,0,0,0,0,0],"split_type":[0,0,0,0,0,0,0,0,0,0,0,0,0,0,0,0,0,0,0,0,0,0,0,0,0,0,0,0,0],"sum_hessian":[3.55E2,1.8E1,3.37E2,3E0,1.5E1,5E0,3.32E2,2E0,1E0,1.1E1,4E0,2E0,3E0,3.23E2,9E0,1E0,1E0,1E1,1E0,2E0,2E0,1E0,1E0,1E0,2E0,4E0,3.19E2,6E0,3E0],"tree_param":{"num_deleted":"0","num_feature":"8","num_nodes":"29","size_leaf_vector":"1"}},{"base_weights":[-2.1372216E-3,1.1282987E-2,-8.08108E-2,-2.079355E-3,3.1158167E-1,-3.7672782E-1,4.9337387E-2,-4.1057587E-2,3.194674E-2,2.5041428E-1,1.4058356E-1,1.2861902E-1,-4.59007E-1,9.9676676E-2,-1.6632006E-1,1.3662961E-2,-3.2739058E-2,-3.852753E-2,2.636171E-2,-4.0480044E-2,7.823074E-2,-1.8920055E-1,-2.8921034E-2,2.1232797E-1,1.8292625E-2],"categories":[],"categories_nodes":[],"categories_segments":[],"categories_sizes":[],"default_left":[0,0,0,0,0,0,0,0,0,0,0,0,0,0,0,0,0,0,0,0,0,0,0,0,0],"id":27,"left_children":[1,3,5,7,9,11,13,15,17,-1,19,-1,21,23,-1,-1,-1,-1,-1,-1,-1,-1,-1,-1,-1],"loss_changes":[3.767822E-1,1.2245195E0,2.021266E0,3.8991088E-1,1.0455637E0,1.257149E0,1.1797544E0,8.1260455E-1,1.4194015E0,0E0,3.9943138E-1,0E0,8.728771E-1,7.805196E-1,0E0,0E0,0E0,0E0,0E0,0E0,0E0,0E0,0E0,0E0,0E0],"parents":[2147483647,0,0,1,1,2,2,3,3,4,4,5,5,6,6,7,7,8,8,10,10,12,12,13,13],"right_children":[2,4,6,8,10,12,14,16,18,-1,20,-1,22,24,-1,-1,-1,-1,-1,-1,-1,-1,-1,-1,-1],"split_conditions":[1.9981E2,1.8089E2,3.148E1,-2.4492937E-16,1.877E2,2.961E1,6.5687E2,2.7105715E1,2.443E1,2.5041428E-1,1.9212E2,1.2861902E-1,3.1105E2,3.2160477E1,-1.6632006E-1,1.3662961E-2,-3.2739058E-2,-3.852753E-2,2.636171E-2,-4.0480044E-2,7.823074E-2,-1.8920055E-1,-2.8921034E-2,2.1232797E-1,1.8292625E-2],"split_indices":[6,6,0,3,6,7,5,7,7,0,6,0,6,7,0,0,0,0,0,0,0,0,0,0,0],"split_type":[0,0,0,0,0,0,0,0,0,0,0,0,0,0,0,0,0,0,0,0,0,0,0,0,0],"sum_hessian":[3.55E2,3.04E2,5.1E1,2.92E2,1.2E1,1.5E1,3.6E1,1.36E2,1.56E2,2E0,1E1,1E0,1.4E1,3.4E1,2E0,6E1,7.6E1,4E1,1.16E2,3E0,7E0,9E0,5E0,1E0,3.3E1],"tree_param":{"num_deleted":"0","num_feature":"8","num_nodes":"25","size_leaf_vector":"1"}},{"base_weights":[-8.4528764E-4,9.8295376E-2,-1.1618822E-2,1.5989015E-2,9.7090024E-1,-1.8425897E-1,6.097299E-3,-1.6454518E-1,1.9558267E-1,4.3908522E-1,-2.1800995E-3,4.4183603E-1,-3.2715142E-1,2.2326165E-1,1.0208823E-3,5.3942874E-3,-3.0669823E-1,6.8492174E-2,-4.9201585E-2,-1.4972306E-2,2.1005546E-1,-2.874931E-1,-4.8389055E-2,-3.6971122E-2,6.5426948E-3],"categories":[],"categories_nodes":[],"categories_segments":[],"categories_sizes":[],"default_left":[0,0,0,0,0,0,0,0,0,0,0,0,0,0,0,0,0,0,0,0,0,0,0,0,0],"id":28,"left_children":[1,3,5,7,9,11,13,15,17,-1,-1,19,21,-1,23,-1,-1,-1,-1,-1,-1,-1,-1,-1,-1],"loss_changes":[3.81384E-1,2.4982088E0,9.8596483E-1,1.1021343E0,1.4565151E0,2.828475E0,1.097095E0,2.680033E0,2.374888E-1,0E0,0E0,7.9719293E-1,2.4624422E0,0E0,7.5694895E-1,0E0,0E0,0E0,0E0,0E0,0E0,0E0,0E0,0E0,0E0],"parents":[2147483647,0,0,1,1,2,2,3,3,4,4,5,5,6,6,7,7,8,8,11,11,12,12,14,14],"right_children":[2,4,6,8,10,12,14,16,18,-1,-1,20,22,-1,24,-1,-1,-1,-1,-1,-1,-1,-1,-1,-1],"split_conditions":[2.3896553E1,2.3863462E1,2.443E1,2.405E1,2.4E1,2.385E1,2.4449644E1,2.393E1,1E0,4.3908522E-1,-2.1800995E-3,2.404158E1,2.435E1,2.2326165E-1,2.511E1,5.3942874E-3,-3.0669823E-1,6.8492174E-2,-4.9201585E-2,-1.4972306E-2,2.1005546E-1,-2.874931E-1,-4.8389055E-2,-3.6971122E-2,6.5426948E-3],"split_indices":[7,7,7,0,0,0,7,0,4,0,0,7,0,0,0,0,0,0,0,0,0,0,0,0,0],"split_type":[0,0,0,0,0,0,0,0,0,0,0,0,0,0,0,0,0,0,0,0,0,0,0,0,0],"sum_hessian":[3.55E2,3.4E1,3.21E2,3.2E1,2E0,2.9E1,2.92E2,1.6E1,1.6E1,1E0,1E0,5E0,2.4E1,1E0,2.91E2,1.4E1,2E0,1.5E1,1E0,2E0,3E0,4E0,2E1,4.1E1,2.5E2],"tree_param":{"num_deleted":"0","num_feature":"8","num_nodes":"25","size_leaf_vector":"1"}},{"base_weights":[-1.0002865E-5,-3.2666777E-3,2.8739405E-1,3.2963898E-2,-3.1795483E-2,8.1298195E-2,1.3585225E-1,4.299326E-2,-1.07670024E-1,-5.574752E-1,-6.72752E-3,6.275082E-3,3.0309105E-2,-7.097488E-3,3.866973E-2,-2.0699646E-1,7.539425E-2,-9.705463E-3,4.0993664E-2],"categories":[],"categories_nodes":[],"categories_segments":[],"categories_sizes":[],"default_left":[0,0,0,0,0,0,0,0,0,0,0,0,0,0,0,0,0,0,0],"id":29,"left_children":[1,3,5,7,9,11,-1,13,-1,15,17,-1,-1,-1,-1,-1,-1,-1,-1],"loss_changes":[3.3414826E-1,3.659142E-1,9.957641E-2,6.285328E-1,2.605438E0,1.4611129E-3,0E0,8.7909055E-1,0E0,1.1379793E0,7.024417E-1,0E0,0E0,0E0,0E0,0E0,0E0,0E0,0E0],"parents":[2147483647,0,0,1,1,2,2,3,3,4,4,5,5,7,7,9,9,10,10],"right_children":[2,4,6,8,10,12,-1,14,-1,16,18,-1,-1,-1,-1,-1,-1,-1,-1],"split_conditions":[3.951E1,2.7971666E1,-7.0710677E-1,3.2381E2,2.663E1,4.032E1,1.3585225E-1,2.4764229E1,-1.07670024E-1,9.809E1,7.0710677E-1,6.275082E-3,3.0309105E-2,-7.097488E-3,3.866973E-2,-2.0699646E-1,7.539425E-2,-9.705463E-3,4.0993664E-2],"split_indices":[0,7,1,5,0,0,0,7,0,6,1,0,0,0,0,0,0,0,0],"split_type":[0,0,0,0,0,0,0,0,0,0,0,0,0,0,0,0,0,0,0],"sum_hessian":[3.55E2,3.52E2,3E0,1.55E2,1.97E2,2E0,1E0,1.52E2,3E0,8E0,1.89E2,1E0,1E0,8.6E1,6.6E1,7E0,1E0,1.61E2,2.8E1],"tree_param":{"num_deleted":"0","num_feature":"8","num_nodes":"19","size_leaf_vector":"1"}},{"base_weights":[-1.8141243E-5,8.212502E-2,-1.1266988E-2,-1.8985486E-2,2.7213034E-1,-3.1087506E-1,-4.681578E-3,5.4405652E-2,-4.912815E-1,4.36738E-1,-2.897253E-1,3.243061E-1,-9.989853E-3,-3.00782E-2,7.296143E-2,-2.3880196E-1,6.3434035E-2,-1.0557938E-2,1.6039306E-1,-1.4993992E-1,-1.5930176E-2,2.2167093E-1,-5.9517864E-2,-1.5162459E-1,-5.3657357E-5],"categories":[],"categories_nodes":[],"categories_segments":[],"categories_sizes":[],"default_left":[0,0,0,0,0,0,0,0,0,0,0,0,0,0,0,0,0,0,0,0,0,0,0,0,0],"id":30,"left_children":[1,3,5,7,9,-1,11,13,15,17,19,21,23,-1,-1,-1,-1,-1,-1,-1,-1,-1,-1,-1,-1],"loss_changes":[3.298749E-1,8.3126247E-1,2.1146278E0,1.0319364E0,1.5138203E0,0E0,5.4984945E-1,7.836063E-1,1.0248685E0,5.73272E-1,1.7229554E-1,1.2301401E0,1.5018401E0,0E0,0E0,0E0,0E0,0E0,0E0,0E0,0E0,0E0,0E0,0E0,0E0],"parents":[2147483647,0,0,1,1,2,2,3,3,4,4,6,6,7,7,8,8,9,9,10,10,11,11,12,12],"right_children":[2,4,6,8,10,-1,12,14,16,18,20,22,24,-1,-1,-1,-1,-1,-1,-1,-1,-1,-1,-1,-1],"split_conditions":[2.404158E1,2.383E1,2.4043892E1,2.3771578E1,2.51E1,-3.1087506E-1,2.4230001E1,2.3660002E1,2.4E1,2.366E1,2.53E1,7.818315E-1,2.4315E1,-3.00782E-2,7.296143E-2,-2.3880196E-1,6.3434035E-2,-1.0557938E-2,1.6039306E-1,-1.4993992E-1,-1.5930176E-2,2.2167093E-1,-5.9517864E-2,-1.5162459E-1,-5.3657357E-5],"split_indices":[7,7,7,7,0,0,7,7,0,0,0,3,7,0,0,0,0,0,0,0,0,0,0,0,0],"split_type":[0,0,0,0,0,0,0,0,0,0,0,0,0,0,0,0,0,0,0,0,0,0,0,0,0],"sum_hessian":[3.55E2,4.2E1,3.13E2,2.8E1,1.4E1,1E0,3.12E2,2.5E1,3E0,1.1E1,3E0,4E0,3.08E2,1.4E1,1.1E1,2E0,1E0,2E0,9E0,1E0,2E0,2E0,2E0,5E0,3.03E2],"tree_param":{"num_deleted":"0","num_feature":"8","num_nodes":"25","size_leaf_vector":"1"}},{"base_weights":[-1.2738678E-3,1.9155006E-1,-6.8270825E-3,4.1023E-1,-1.09175876E-1,-6.9015217E-1,1.1384044E-3,-5.406316E-2,1.9676772E-1,-2.0755482E-1,4.2650986E-2,-2.7914926E-1,4.6325685E-3,1.20166376E-1,-1.3598408E-2,-5.0832942E-2,2.6504518E-2,-1.3274003E-2,-7.417259E-2,-2.2872489E-2,1.02789946E-1,-9.5585175E-2,9.484566E-4],"categories":[],"categories_nodes":[],"categories_segments":[],"categories_sizes":[],"default_left":[0,0,0,0,0,0,0,0,0,0,0,0,0,0,0,0,0,0,0,0,0,0,0],"id":31,"left_children":[1,3,5,7,9,11,13,15,-1,17,-1,-1,-1,19,21,-1,-1,-1,-1,-1,-1,-1,-1],"loss_changes":[3.8250992E-1,7.024145E-1,1.8895125E0,7.1981573E-1,1.5314375E-1,6.927135E-1,6.0504204E-1,6.426435E-2,0E0,1.4985308E-2,0E0,0E0,0E0,1.6865044E0,1.5704201E0,0E0,0E0,0E0,0E0,0E0,0E0,0E0,0E0],"parents":[2147483647,0,0,1,1,2,2,3,3,4,4,5,5,6,6,7,7,9,9,13,13,14,14],"right_children":[2,4,6,8,10,12,14,16,-1,18,-1,-1,-1,20,22,-1,-1,-1,-1,-1,-1,-1,-1],"split_conditions":[2.3652224E1,6.234898E-1,2.3656668E1,9.659258E-1,-4.3388373E-1,2.384E1,2.414E1,2.222E1,1.9676772E-1,2.351E1,4.2650986E-2,-2.7914926E-1,4.6325685E-3,2.376E1,2.454E1,-5.0832942E-2,2.6504518E-2,-1.3274003E-2,-7.417259E-2,-2.2872489E-2,1.02789946E-1,-9.5585175E-2,9.484566E-4],"split_indices":[7,4,7,1,3,0,0,0,0,0,0,0,0,0,0,0,0,0,0,0,0,0,0],"split_type":[0,0,0,0,0,0,0,0,0,0,0,0,0,0,0,0,0,0,0,0,0,0,0],"sum_hessian":[3.55E2,9E0,3.46E2,5E0,4E0,3E0,3.43E2,2E0,3E0,3E0,1E0,2E0,1E0,3.7E1,3.06E2,1E0,1E0,1E0,2E0,2E1,1.7E1,1.5E1,2.91E2],"tree_param":{"num_deleted":"0","num_feature":"8","num_nodes":"23","size_leaf_vector":"1"}},{"base_weights":[-1.345688E-3,1.2825955E-1,-8.627209E-3,-7.934761E-2,1.7214513E-1,-4.0753618E-1,-1.413752E-3,-4.3207742E-2,-9.7796125E-3,1.9548543E-1,-2.6693918E-2,-1.36528015E-2,-6.010647E-1,-1.238996E-2,3.5435677E-1,-5.974388E-3,1.5735627E-3,1.6699964E-1,3.8977515E-2,-1.2376786E-2,6.233025E-3,-2.6744473E-1,-6.2129404E-2,-1.2316807E-1,-1.8389494E-3,1.9014522E-2,2.3249216E-1],"categories":[],"categories_nodes":[],"categories_segments":[],"categories_sizes":[],"default_left":[0,0,0,0,0,0,0,0,0,0,0,0,0,0,0,0,0,0,0,0,0,0,0,0,0,0,0],"id":32,"left_children":[1,3,5,7,9,11,13,-1,15,17,-1,19,21,23,25,-1,-1,-1,-1,-1,-1,-1,-1,-1,-1,-1,-1],"loss_changes":[3.37072E-1,1.8676752E-1,9.720231E-1,1.6589612E-2,1.1491004E-1,4.4915968E-1,1.3047591E0,0E0,5.612867E-4,2.828617E-1,0E0,3.7082566E-3,2.730354E-1,8.050848E-1,1.1747717E0,0E0,0E0,0E0,0E0,0E0,0E0,0E0,0E0,0E0,0E0,0E0,0E0],"parents":[2147483647,0,0,1,1,2,2,3,3,4,4,5,5,6,6,8,8,9,9,11,11,12,12,13,13,14,14],"right_children":[2,4,6,8,10,12,14,-1,16,18,-1,20,22,24,26,-1,-1,-1,-1,-1,-1,-1,-1,-1,-1,-1,-1],"split_conditions":[2.364E1,2.242E1,2.375E1,9.659258E-1,6.874E1,8.660254E-1,1E0,-4.3207742E-2,2.222E1,-7.818315E-1,-2.6693918E-2,2.366E1,2.369E1,2.377E1,4.3388373E-1,-5.974388E-3,1.5735627E-3,1.6699964E-1,3.8977515E-2,-1.2376786E-2,6.233025E-3,-2.6744473E-1,-6.2129404E-2,-1.2316807E-1,-1.8389494E-3,1.9014522E-2,2.3249216E-1],"split_indices":[0,0,0,1,6,1,1,0,0,3,0,0,0,0,3,0,0,0,0,0,0,0,0,0,0,0,0],"split_type":[0,0,0,0,0,0,0,0,0,0,0,0,0,0,0,0,0,0,0,0,0,0,0,0,0,0,0],"sum_hessian":[3.55E2,1.8E1,3.37E2,3E0,1.5E1,5E0,3.32E2,1E0,2E0,1.4E1,1E0,2E0,3E0,3.23E2,9E0,1E0,1E0,1E0,1.3E1,1E0,1E0,1E0,2E0,4E0,3.19E2,6E0,3E0],"tree_param":{"num_deleted":"0","num_feature":"8","num_nodes":"27","size_leaf_vector":"1"}},{"base_weights":[-1.1600752E-3,2.4800096E-3,-2.139117E-1,-4.1841366E-3,1.3365701E-1,6.556664E-2,-3.441162E-1,4.359194E-3,-1.4650264E-1,-6.974656E-2,2.50945E-1,-2.5030233E-2,-1.1652847E-1,-3.8089875E-5,1.066299E-1,7.749619E-2,-8.150307E-2,-7.834625E-2,1.7714197E-2,2.576666E-2,1.122531E-1],"categories":[],"categories_nodes":[],"categories_segments":[],"categories_sizes":[],"default_left":[0,0,0,0,0,0,0,0,0,0,0,0,0,0,0,0,0,0,0,0,0],"id":33,"left_children":[1,3,5,7,9,-1,11,13,15,17,19,-1,-1,-1,-1,-1,-1,-1,-1,-1,-1],"loss_changes":[2.76229E-1,3.0739737E-1,4.130635E-1,4.0795645E-1,4.230681E-1,0E0,2.5348604E-2,4.993117E-1,1.0329752E0,1.8798536E-1,1.916045E-1,0E0,0E0,0E0,0E0,0E0,0E0,0E0,0E0,0E0,0E0],"parents":[2147483647,0,0,1,1,2,2,3,3,4,4,6,6,7,7,8,8,9,9,10,10],"right_children":[2,4,6,8,10,-1,12,14,16,18,20,-1,-1,-1,-1,-1,-1,-1,-1,-1,-1],"split_conditions":[8.8423E2,3.742E1,-7.818315E-1,7.577E2,7.4635E2,6.556664E-2,3.28E1,7.4086E2,1.087E2,1.0206E2,-7.818315E-1,-2.5030233E-2,-1.1652847E-1,-3.8089875E-5,1.066299E-1,7.749619E-2,-8.150307E-2,-7.834625E-2,1.7714197E-2,2.576666E-2,1.122531E-1],"split_indices":[5,0,3,5,5,0,0,5,6,6,3,0,0,0,0,0,0,0,0,0,0],"split_type":[0,0,0,0,0,0,0,0,0,0,0,0,0,0,0,0,0,0,0,0,0],"sum_hessian":[3.55E2,3.5E2,5E0,3.34E2,1.6E1,1E0,4E0,3.16E2,1.8E1,6E0,1E1,1E0,3E0,3.13E2,3E0,4E0,1.4E1,2E0,4E0,5E0,5E0],"tree_param":{"num_deleted":"0","num_feature":"8","num_nodes":"21","size_leaf_vector":"1"}},{"base_weights":[-5.1989715E-4,9.6747346E-2,-5.986044E-3,-4.880905E-3,1.8870087E-1,-3.4119606E-1,7.175182E-5,-1.4288941E-1,1.1093966E-1,-5.363846E-3,2.1364085E-1,-1.1578877E-2,-5.0310993E-1,-8.359409E-3,2.732342E-1,-5.0725937E-3,-5.1047232E-2,-3.394394E-2,7.53808E-2,2.2115422E-2,8.139478E-2,-1.0514259E-2,5.3037647E-3,-2.273223E-1,-4.969578E-2,-9.3598366E-2,-1.076696E-3,2.5988847E-1,3.332507E-2],"categories":[],"categories_nodes":[],"categories_segments":[],"categories_sizes":[],"default_left":[0,0,0,0,0,0,0,0,0,0,0,0,0,0,0,0,0,0,0,0,0,0,0,0,0,0,0,0,0],"id":34,"left_children":[1,3,5,7,9,11,13,15,17,-1,19,21,23,25,27,-1,-1,-1,-1,-1,-1,-1,-1,-1,-1,-1,-1,-1,-1],"loss_changes":[1.8985616E-1,1.7847748E-1,6.863787E-1,1.7569432E-1,5.5340886E-2,3.143922E-1,7.6920843E-1,1.4299095E-2,2.1710584E-1,0E0,5.262959E-2,2.679557E-3,2.1818662E-1,4.6818385E-1,8.6542034E-1,0E0,0E0,0E0,0E0,0E0,0E0,0E0,0E0,0E0,0E0,0E0,0E0,0E0,0E0],"parents":[2147483647,0,0,1,1,2,2,3,3,4,4,5,5,6,6,7,7,8,8,10,10,11,11,12,12,13,13,14,14],"right_children":[2,4,6,8,10,12,14,16,18,-1,20,22,24,26,28,-1,-1,-1,-1,-1,-1,-1,-1,-1,-1,-1,-1,-1,-1],"split_conditions":[2.364E1,-2.4492937E-16,2.375E1,2.5881904E-1,7.0710677E-1,8.660254E-1,1E0,2.222E1,2.308E1,-5.363846E-3,-2.2252093E-1,2.366E1,2.369E1,2.377E1,2.377E1,-5.0725937E-3,-5.1047232E-2,-3.394394E-2,7.53808E-2,2.2115422E-2,8.139478E-2,-1.0514259E-2,5.3037647E-3,-2.273223E-1,-4.969578E-2,-9.3598366E-2,-1.076696E-3,2.5988847E-1,3.332507E-2],"split_indices":[0,3,0,2,1,1,1,0,0,0,4,0,0,0,0,0,0,0,0,0,0,0,0,0,0,0,0,0,0],"split_type":[0,0,0,0,0,0,0,0,0,0,0,0,0,0,0,0,0,0,0,0,0,0,0,0,0,0,0,0,0],"sum_hessian":[3.55E2,1.8E1,3.37E2,9E0,9E0,5E0,3.32E2,4E0,5E0,1E0,8E0,2E0,3E0,3.23E2,9E0,1E0,3E0,2E0,3E0,3E0,5E0,1E0,1E0,1E0,2E0,4E0,3.19E2,1E0,8E0],"tree_param":{"num_deleted":"0","num_feature":"8","num_nodes":"29","size_leaf_vector":"1"}},{"base_weights":[-3.654073E-4,5.4238904E-3,-8.850401E-2,-2.8017138E-3,2.7303618E-1,-3.8873237E-1,4.8377395E-2,6.824221E-3,-2.5524902E-1,1.416238E-1,-2.0422745E-2,-4.612856E-1,6.988049E-3,1.2285566E-1,-1.4004593E-1,-2.805517E-3,3.1226313E-2,-1.2459085E-1,-7.793427E-3,-6.8029694E-2,2.6356317E-2,-1.5009704E-1,-3.9914418E-2,-2.0809222E-2,5.839081E-2,2.1565247E-2,-6.329985E-2],"categories":[],"categories_nodes":[],"categories_segments":[],"categories_sizes":[],"default_left":[0,0,0,0,0,0,0,0,0,0,0,0,0,0,0,0,0,0,0,0,0,0,0,0,0,0,0],"id":35,"left_children":[1,3,5,7,9,11,13,15,17,-1,19,21,-1,23,25,-1,-1,-1,-1,-1,-1,-1,-1,-1,-1,-1,-1],"loss_changes":[1.8213281E-1,7.3819137E-1,9.229107E-1,7.9393536E-1,5.937509E-1,2.2000158E-1,2.4174052E-1,4.965719E-1,4.2955953E-1,0E0,1.3163343E-1,1.031518E-2,0E0,1.7907198E-1,9.035348E-2,0E0,0E0,0E0,0E0,0E0,0E0,0E0,0E0,0E0,0E0,0E0,0E0],"parents":[2147483647,0,0,1,1,2,2,3,3,4,4,5,5,6,6,7,7,8,8,10,10,11,11,13,13,14,14],"right_children":[2,4,6,8,10,12,14,16,18,-1,20,22,-1,24,26,-1,-1,-1,-1,-1,-1,-1,-1,-1,-1,-1,-1],"split_conditions":[2.8652E2,2.6558E2,3.1105E2,2.2965E2,7.818315E-1,3.6030624E1,3.9646E2,1.4529E2,3.5215454E1,1.416238E-1,2.968E1,3.645E1,6.988049E-3,3.2887E2,-9.659258E-1,-2.805517E-3,3.1226313E-2,-1.2459085E-1,-7.793427E-3,-6.8029694E-2,2.6356317E-2,-1.5009704E-1,-3.9914418E-2,-2.0809222E-2,5.839081E-2,2.1565247E-2,-6.329985E-2],"split_indices":[6,6,6,6,3,7,6,6,7,0,0,0,0,6,2,0,0,0,0,0,0,0,0,0,0,0,0],"split_type":[0,0,0,0,0,0,0,0,0,0,0,0,0,0,0,0,0,0,0,0,0,0,0,0,0,0,0],"sum_hessian":[3.55E2,3.34E2,2.1E1,3.25E2,9E0,6E0,1.5E1,3.14E2,1.1E1,5E0,4E0,5E0,1E0,1.1E1,4E0,2.7E2,4.4E1,6E0,5E0,1E0,3E0,4E0,1E0,3E0,8E0,1E0,3E0],"tree_param":{"num_deleted":"0","num_feature":"8","num_nodes":"27","size_leaf_vector":"1"}},{"base_weights":[-7.934463E-4,-1.2187099E-2,4.9454227E-2,-5.2077908E-2,1.4935329E-2,3.7678677E-1,-2.191412E-3,-5.791671E-1,-1.3620325E-2,1.4186038E-1,-2.6524616E-2,1.299715E-2,1.6695462E-1,-5.3996533E-1,5.873E-2,-2.0288348E-1,1.509161E-2,-1.5301006E-2,9.925862E-2,2.3157857E-2,1.5833339E-1,-4.9922053E-2,2.8067986E-3,-2.4170114E-2,4.405346E-2,-7.632065E-3,-2.3726036E-1,1.5913506E-1,-4.3756963E-4],"categories":[],"categories_nodes":[],"categories_segments":[],"categories_sizes":[],"default_left":[0,0,0,0,0,0,0,0,0,0,0,0,0,0,0,0,0,0,0,0,0,0,0,0,0,0,0,0,0],"id":36,"left_children":[1,3,5,7,9,11,13,15,17,19,21,23,-1,25,27,-1,-1,-1,-1,-1,-1,-1,-1,-1,-1,-1,-1,-1,-1],"loss_changes":[2.0441432E-1,3.1562105E-1,1.1165754E0,2.3840396E0,9.1940403E-1,5.812175E-1,1.9319049E0,5.2305055E-1,1.44631E0,1.0323818E0,6.640728E-1,6.1924268E-2,0E0,7.54454E-1,1.5055583E0,0E0,0E0,0E0,0E0,0E0,0E0,0E0,0E0,0E0,0E0,0E0,0E0,0E0,0E0],"parents":[2147483647,0,0,1,1,2,2,3,3,4,4,5,5,6,6,7,7,8,8,9,9,10,10,11,11,13,13,14,14],"right_children":[2,4,6,8,10,12,14,16,18,20,22,24,-1,26,28,-1,-1,-1,-1,-1,-1,-1,-1,-1,-1,-1,-1,-1,-1],"split_conditions":[8.660254E-1,1.4076E2,2.4365E1,-2.5881904E-1,3.0619999E1,2.429E1,2.443E1,2.829E1,1.13E1,5.528E2,3.098E1,2.519E1,1.6695462E-1,4.3388373E-1,2.4601429E1,-2.0288348E-1,1.509161E-2,-1.5301006E-2,9.925862E-2,2.3157857E-2,1.5833339E-1,-4.9922053E-2,2.8067986E-3,-2.4170114E-2,4.405346E-2,-7.632065E-3,-2.3726036E-1,1.5913506E-1,-4.3756963E-4],"split_indices":[2,5,7,2,7,7,7,0,6,5,0,0,0,3,7,0,0,0,0,0,0,0,0,0,0,0,0,0,0],"split_type":[0,0,0,0,0,0,0,0,0,0,0,0,0,0,0,0,0,0,0,0,0,0,0,0,0,0,0,0,0],"sum_hessian":[3.55E2,2.9E2,6.5E1,1.17E2,1.73E2,8E0,5.7E1,7E0,1.1E2,4.2E1,1.31E2,3E0,5E0,5E0,5.2E1,6E0,1E0,1E2,1E1,3.7E1,5E0,2.6E1,1.05E2,2E0,1E0,2E0,3E0,5E0,4.7E1],"tree_param":{"num_deleted":"0","num_feature":"8","num_nodes":"29","size_leaf_vector":"1"}},{"base_weights":[-1.8728984E-4,7.170793E-2,-1.0032216E-2,-1.4270033E-2,2.176876E-1,-2.4674721E-1,-4.8087365E-3,5.3918473E-2,-6.004804E-1,3.3844465E-1,-2.2919464E-1,2.625988E-1,-9.120157E-3,-1.7302515E-2,5.667515E-2,-3.2715112E-1,5.693493E-2,4.448762E-2,1.6067219E-1,-1.02393344E-1,1.6073227E-2,1.7117387E-1,-3.9874457E-2,-1.7178747E-1,-1.0751669E-3],"categories":[],"categories_nodes":[],"categories_segments":[],"categories_sizes":[],"default_left":[0,0,0,0,0,0,0,0,0,0,0,0,0,0,0,0,0,0,0,0,0,0,0,0,0],"id":37,"left_children":[1,3,5,7,9,-1,11,13,15,17,19,21,23,-1,-1,-1,-1,-1,-1,-1,-1,-1,-1,-1,-1],"loss_changes":[2.5269732E-1,5.428009E-1,1.3286171E0,1.1516156E0,9.4099647E-1,0E0,3.632546E-1,4.025852E-1,1.3687017E0,4.07879E-1,1.4510024E-1,6.848914E-1,9.619391E-1,0E0,0E0,0E0,0E0,0E0,0E0,0E0,0E0,0E0,0E0,0E0,0E0],"parents":[2147483647,0,0,1,1,2,2,3,3,4,4,6,6,7,7,8,8,9,9,10,10,11,11,12,12],"right_children":[2,4,6,8,10,-1,12,14,16,18,20,22,24,-1,-1,-1,-1,-1,-1,-1,-1,-1,-1,-1,-1],"split_conditions":[2.404158E1,2.3808E1,2.4043892E1,2.3771578E1,2.51E1,-2.4674721E-1,2.4230001E1,2.3660002E1,2.4E1,-2.4492937E-16,2.541E1,7.818315E-1,2.4283333E1,-1.7302515E-2,5.667515E-2,-3.2715112E-1,5.693493E-2,4.448762E-2,1.6067219E-1,-1.02393344E-1,1.6073227E-2,1.7117387E-1,-3.9874457E-2,-1.7178747E-1,-1.0751669E-3],"split_indices":[7,7,7,7,0,0,7,7,0,3,0,3,7,0,0,0,0,0,0,0,0,0,0,0,0],"split_type":[0,0,0,0,0,0,0,0,0,0,0,0,0,0,0,0,0,0,0,0,0,0,0,0,0],"sum_hessian":[3.55E2,4.2E1,3.13E2,2.7E1,1.5E1,1E0,3.12E2,2.5E1,2E0,1.2E1,3E0,4E0,3.08E2,1.4E1,1.1E1,1E0,1E0,7E0,5E0,2E0,1E0,2E0,2E0,2E0,3.06E2],"tree_param":{"num_deleted":"0","num_feature":"8","num_nodes":"25","size_leaf_vector":"1"}},{"base_weights":[-1.2550086E-3,1.4021263E-1,-5.328269E-3,3.1935945E-1,-1.0280609E-1,-4.6950006E-1,8.456651E-5,4.3665566E-3,1.4272928E-1,-1.676979E-1,2.3514176E-2,-1.9426137E-1,9.692002E-3,8.592902E-2,-9.917003E-3,-2.6317978E-2,2.828293E-2,-1.0942841E-2,-5.978394E-2,-1.6160313E-2,7.92125E-2,-6.0559336E-2,5.8480096E-4],"categories":[],"categories_nodes":[],"categories_segments":[],"categories_sizes":[],"default_left":[0,0,0,0,0,0,0,0,0,0,0,0,0,0,0,0,0,0,0,0,0,0,0],"id":38,"left_children":[1,3,5,7,9,11,13,15,-1,17,-1,-1,-1,19,21,-1,-1,-1,-1,-1,-1,-1,-1],"loss_changes":[2.0588659E-1,4.681925E-1,8.718722E-1,2.93521E-1,7.193191E-2,3.7828207E-1,2.9620343E-1,3.31108E-2,0E0,9.307966E-3,0E0,0E0,0E0,9.106076E-1,7.0420706E-1,0E0,0E0,0E0,0E0,0E0,0E0,0E0,0E0],"parents":[2147483647,0,0,1,1,2,2,3,3,4,4,5,5,6,6,7,7,9,9,13,13,14,14],"right_children":[2,4,6,8,10,12,14,16,-1,18,-1,-1,-1,20,22,-1,-1,-1,-1,-1,-1,-1,-1],"split_conditions":[2.3652224E1,6.234898E-1,2.3656668E1,9.659258E-1,-4.3388373E-1,2.384E1,2.4E1,2.222E1,1.4272928E-1,9.659258E-1,2.3514176E-2,-1.9426137E-1,9.692002E-3,2.376E1,2.454E1,-2.6317978E-2,2.828293E-2,-1.0942841E-2,-5.978394E-2,-1.6160313E-2,7.92125E-2,-6.0559336E-2,5.8480096E-4],"split_indices":[7,4,7,1,3,0,0,0,0,1,0,0,0,0,0,0,0,0,0,0,0,0,0],"split_type":[0,0,0,0,0,0,0,0,0,0,0,0,0,0,0,0,0,0,0,0,0,0,0],"sum_hessian":[3.55E2,9E0,3.46E2,5E0,4E0,3E0,3.43E2,2E0,3E0,3E0,1E0,2E0,1E0,3.5E1,3.08E2,1E0,1E0,1E0,2E0,2E1,1.5E1,1.7E1,2.91E2],"tree_param":{"num_deleted":"0","num_feature":"8","num_nodes":"23","size_leaf_vector":"1"}},{"base_weights":[-1.1146684E-3,-2.2630464E-2,2.9276654E-2,-6.957579E-2,3.1252258E-2,-1.5188182E-2,1.4971142E-1,-3.5106957E-2,-4.1764718E-1,2.6021203E-1,-3.079143E-2,-2.569191E-1,3.8698558E-2,1.839459E-2,5.9998107E-1,-6.869922E-3,-1.9203645E-1,-4.4986725E-2,-1.7133465E-1,3.4514025E-2,1.8118525E-1,-1.2118416E-1,9.0212365E-5,-8.113653E-3,-1.4522645E-1,-2.6158774E-3,9.6069194E-2,-5.8167968E-2,2.9170824E-2,1.1368046E-1,2.3446657E-1],"categories":[],"categories_nodes":[],"categories_segments":[],"categories_sizes":[],"default_left":[0,0,0,0,0,0,0,0,0,0,0,0,0,0,0,0,0,0,0,0,0,0,0,0,0,0,0,0,0,0,0],"id":39,"left_children":[1,3,5,7,9,11,13,15,17,19,21,23,25,27,29,-1,-1,-1,-1,-1,-1,-1,-1,-1,-1,-1,-1,-1,-1,-1,-1],"loss_changes":[2.3344862E-1,5.308486E-1,7.9483044E-1,1.3290704E0,1.4001522E0,1.4297863E0,2.354083E0,7.4605227E-1,3.2517946E-1,9.783951E-1,9.0509385E-1,1.0313108E0,1.204268E0,5.544402E-1,6.506801E-2,0E0,0E0,0E0,0E0,0E0,0E0,0E0,0E0,0E0,0E0,0E0,0E0,0E0,0E0,0E0,0E0],"parents":[2147483647,0,0,1,1,2,2,3,3,4,4,5,5,6,6,7,7,8,8,9,9,10,10,11,11,12,12,13,13,14,14],"right_children":[2,4,6,8,10,12,14,16,18,20,22,24,26,28,30,-1,-1,-1,-1,-1,-1,-1,-1,-1,-1,-1,-1,-1,-1,-1,-1],"split_conditions":[4.3388373E-1,2.977E1,4.0523E2,4.1962E2,3.2160477E1,-2.5881904E-1,7.0710677E-1,2.944E1,8.345E1,-4.3388373E-1,3.098E1,-2.4492937E-16,6.466E1,-7.0710677E-1,3.0564615E1,-6.869922E-3,-1.9203645E-1,-4.4986725E-2,-1.7133465E-1,3.4514025E-2,1.8118525E-1,-1.2118416E-1,9.0212365E-5,-8.113653E-3,-1.4522645E-1,-2.6158774E-3,9.6069194E-2,-5.8167968E-2,2.9170824E-2,1.1368046E-1,2.3446657E-1],"split_indices":[3,0,5,5,7,2,1,0,6,3,0,1,6,1,7,0,0,0,0,0,0,0,0,0,0,0,0,0,0,0,0],"split_type":[0,0,0,0,0,0,0,0,0,0,0,0,0,0,0,0,0,0,0,0,0,0,0,0,0,0,0,0,0,0,0],"sum_hessian":[3.55E2,2.08E2,1.47E2,1.11E2,9.7E1,1.08E2,3.9E1,1.02E2,9E0,2E1,7.7E1,1.9E1,8.9E1,3.1E1,8E0,1.01E2,1E0,4E0,5E0,1.5E1,5E0,5E0,7.2E1,1E1,9E0,7.7E1,1.2E1,8E0,2.3E1,5E0,3E0],"tree_param":{"num_deleted":"0","num_feature":"8","num_nodes":"31","size_leaf_vector":"1"}},{"base_weights":[-9.5254387E-4,2.0375808E-3,-1.7571609E-1,-1.7426403E-2,2.9810043E-2,5.5952743E-2,-2.8546295E-1,-5.2410193E-2,2.3569545E-2,2.3059696E-3,2.2373846E-1,-3.5515595E-2,-1.0721588E-1,-5.011309E-3,-7.968035E-2,5.7726018E-2,-7.018993E-3,9.1384165E-3,-5.900574E-2,-4.0275194E-2,7.580812E-2],"categories":[],"categories_nodes":[],"categories_segments":[],"categories_sizes":[],"default_left":[0,0,0,0,0,0,0,0,0,0,0,0,0,0,0,0,0,0,0,0,0],"id":40,"left_children":[1,3,5,7,9,-1,11,13,15,17,19,-1,-1,-1,-1,-1,-1,-1,-1,-1,-1],"loss_changes":[1.863911E-1,1.9025701E-1,2.9175997E-1,2.9811335E-1,7.7288824E-1,0E0,1.7774642E-2,8.481253E-1,7.658074E-1,7.231364E-1,2.2050643E-1,0E0,0E0,0E0,0E0,0E0,0E0,0E0,0E0,0E0,0E0],"parents":[2147483647,0,0,1,1,2,2,3,3,4,4,6,6,7,7,8,8,9,9,10,10],"right_children":[2,4,6,8,10,-1,12,14,16,18,20,-1,-1,-1,-1,-1,-1,-1,-1,-1,-1],"split_conditions":[8.8423E2,4.3388373E-1,-7.818315E-1,2.977E1,6.3957E2,5.5952743E-2,8.8693E2,3.2381E2,3.2160477E1,3.41E1,3.0564615E1,-3.5515595E-2,-1.0721588E-1,-5.011309E-3,-7.968035E-2,5.7726018E-2,-7.018993E-3,9.1384165E-3,-5.900574E-2,-4.0275194E-2,7.580812E-2],"split_indices":[5,3,3,0,5,0,5,5,7,0,7,0,0,0,0,0,0,0,0,0,0],"split_type":[0,0,0,0,0,0,0,0,0,0,0,0,0,0,0,0,0,0,0,0,0],"sum_hessian":[3.55E2,3.5E2,5E0,2.06E2,1.44E2,1E0,4E0,1.11E2,9.5E1,1.27E2,1.7E1,2E0,2E0,9.6E1,1.5E1,2E1,7.5E1,1.12E2,1.5E1,1E0,1.6E1],"tree_param":{"num_deleted":"0","num_feature":"8","num_nodes":"21","size_leaf_vector":"1"}},{"base_weights":[-1.0462182E-3,-1.6864458E-2,2.6919713E-2,1.7811652E-2,-9.0735815E-2,3.4042427E-1,-2.2859173E-3,9.813151E-2,-1.6668754E-2,-1.8732452E-1,5.3952154E-2,-4.6074487E-2,4.0518302E-1,-2.3577781E-2,1.3625407E-1,-4.4551402E-2,4.575941E-2,-8.69859E-3,7.439633E-2,-1.2866952E-1,-1.8088035E-2,-5.804942E-2,7.636832E-2,1.344987E-1,4.6519853E-2,1.1624198E-2,-2.999639E-2,-2.4260141E-2,5.1914286E-2],"categories":[],"categories_nodes":[],"categories_segments":[],"categories_sizes":[],"default_left":[0,0,0,0,0,0,0,0,0,0,0,0,0,0,0,0,0,0,0,0,0,0,0,0,0,0,0,0,0],"id":41,"left_children":[1,3,5,7,9,11,13,15,17,19,21,-1,23,25,27,-1,-1,-1,-1,-1,-1,-1,-1,-1,-1,-1,-1,-1,-1],"loss_changes":[1.5793836E-1,5.856544E-1,1.1819149E0,4.3367165E-1,1.030298E0,4.1413176E-1,3.5423577E-1,6.5324926E-1,3.6604348E-1,1.3243852E0,1.5384784E0,0E0,3.839469E-2,4.9915063E-1,1.4181238E-1,0E0,0E0,0E0,0E0,0E0,0E0,0E0,0E0,0E0,0E0,0E0,0E0,0E0,0E0],"parents":[2147483647,0,0,1,1,2,2,3,3,4,4,5,5,6,6,7,7,8,8,9,9,10,10,12,12,13,13,14,14],"right_children":[2,4,6,8,10,12,14,16,18,20,22,-1,24,26,28,-1,-1,-1,-1,-1,-1,-1,-1,-1,-1,-1,-1,-1,-1],"split_conditions":[1.0448E2,2.7971666E1,3.0600002E1,-2.2252093E-1,6.234898E-1,2.8445E1,3.6307858E1,2.369E1,2.76545E1,5.744E1,2.925E1,-4.6074487E-2,7.818315E-1,6.234898E-1,1.1527E2,-4.4551402E-2,4.575941E-2,-8.69859E-3,7.439633E-2,-1.2866952E-1,-1.8088035E-2,-5.804942E-2,7.636832E-2,1.344987E-1,4.6519853E-2,1.1624198E-2,-2.999639E-2,-2.4260141E-2,5.1914286E-2],"split_indices":[6,7,7,4,4,7,7,0,7,6,0,0,3,4,6,0,0,0,0,0,0,0,0,0,0,0,0,0,0],"split_type":[0,0,0,0,0,0,0,0,0,0,0,0,0,0,0,0,0,0,0,0,0,0,0,0,0,0,0,0,0],"sum_hessian":[3.55E2,2.27E2,1.28E2,1.55E2,7.2E1,1E1,1.18E2,4.6E1,1.09E2,4.3E1,2.9E1,1E0,9E0,1.03E2,1.5E1,8E0,3.8E1,1.05E2,4E0,1.4E1,2.9E1,1.3E1,1.6E1,7E0,2E0,5.7E1,4.6E1,2E0,1.3E1],"tree_param":{"num_deleted":"0","num_feature":"8","num_nodes":"29","size_leaf_vector":"1"}},{"base_weights":[-5.00095E-4,9.2189185E-2,-5.70896E-3,-3.407669E-2,1.1799383E-1,-2.4966271E-1,-1.2962525E-3,-1.9283295E-2,-2.5838215E-3,1.364479E-1,-2.3822594E-2,1.3113022E-2,-3.8432884E-1,-7.96072E-3,2.1476212E-1,4.076386E-3,-5.2391053E-3,1.1763669E-1,2.7053015E-2,-2.005577E-3,7.906437E-3,-1.8221827E-1,-3.2252695E-2,-2.128016E-2,2.4351683E-3,5.8162147E-3,1.5089321E-1],"categories":[],"categories_nodes":[],"categories_segments":[],"categories_sizes":[],"default_left":[0,0,0,0,0,0,0,0,0,0,0,0,0,0,0,0,0,0,0,0,0,0,0,0,0,0,0],"id":42,"left_children":[1,3,5,7,9,11,13,-1,15,17,-1,19,21,23,25,-1,-1,-1,-1,-1,-1,-1,-1,-1,-1,-1,-1],"loss_changes":[1.7240523E-1,6.5927505E-2,3.6353222E-1,3.638377E-3,6.912124E-2,2.1736166E-1,4.81201E-1,0E0,9.59197E-4,1.4209503E-1,0E0,9.626812E-4,1.816954E-1,3.286189E-1,5.533483E-1,0E0,0E0,0E0,0E0,0E0,0E0,0E0,0E0,0E0,0E0,0E0,0E0],"parents":[2147483647,0,0,1,1,2,2,3,3,4,4,5,5,6,6,8,8,9,9,11,11,12,12,13,13,14,14],"right_children":[2,4,6,8,10,12,14,-1,16,18,-1,20,22,24,26,-1,-1,-1,-1,-1,-1,-1,-1,-1,-1,-1,-1],"split_conditions":[2.364E1,2.242E1,2.375E1,9.659258E-1,6.874E1,8.660254E-1,1E0,-1.9283295E-2,2.222E1,-7.818315E-1,-2.3822594E-2,2.366E1,2.369E1,2.53E1,4.3388373E-1,4.076386E-3,-5.2391053E-3,1.1763669E-1,2.7053015E-2,-2.005577E-3,7.906437E-3,-1.8221827E-1,-3.2252695E-2,-2.128016E-2,2.4351683E-3,5.8162147E-3,1.5089321E-1],"split_indices":[0,0,0,1,6,1,1,0,0,3,0,0,0,0,3,0,0,0,0,0,0,0,0,0,0,0,0],"split_type":[0,0,0,0,0,0,0,0,0,0,0,0,0,0,0,0,0,0,0,0,0,0,0,0,0,0,0],"sum_hessian":[3.55E2,1.8E1,3.37E2,3E0,1.5E1,5E0,3.32E2,1E0,2E0,1.4E1,1E0,2E0,3E0,3.23E2,9E0,1E0,1E0,1E0,1.3E1,1E0,1E0,1E0,2E0,6.5E1,2.58E2,6E0,3E0],"tree_param":{"num_deleted":"0","num_feature":"8","num_nodes":"27","size_leaf_vector":"1"}},{"base_weights":[-2.6688416E-4,6.376723E-2,-9.035038E-3,-5.9138616E-3,2.0852907E-1,-2.053013E-1,-4.6911393E-3,5.2476004E-2,-3.0835837E-1,5.223923E-1,3.0744553E-2,2.0818329E-1,-8.1205275E-3,-9.174386E-3,4.5577385E-2,-1.9288273E-1,3.870354E-2,-1.4405442E-2,2.756016E-1,4.1893553E-2,-5.0255302E-2,1.2767373E-1,-2.3582079E-2,-1.3462086E-1,-1.1365158E-3],"categories":[],"categories_nodes":[],"categories_segments":[],"categories_sizes":[],"default_left":[0,0,0,0,0,0,0,0,0,0,0,0,0,0,0,0,0,0,0,0,0,0,0,0,0],"id":43,"left_children":[1,3,5,7,9,-1,11,13,15,17,19,21,23,-1,-1,-1,-1,-1,-1,-1,-1,-1,-1,-1,-1],"loss_changes":[2.0045623E-1,4.3498126E-1,9.178917E-1,5.459722E-1,7.6513946E-1,0E0,2.3018968E-1,2.1940425E-1,8.146325E-1,1.1743232E0,2.3930182E-1,3.451884E-1,5.881222E-1,0E0,0E0,0E0,0E0,0E0,0E0,0E0,0E0,0E0,0E0,0E0,0E0],"parents":[2147483647,0,0,1,1,2,2,3,3,4,4,6,6,7,7,8,8,9,9,10,10,11,11,12,12],"right_children":[2,4,6,8,10,-1,12,14,16,18,20,22,24,-1,-1,-1,-1,-1,-1,-1,-1,-1,-1,-1,-1],"split_conditions":[2.404158E1,2.385E1,2.4043892E1,2.3771578E1,2.419E1,-2.053013E-1,2.4230001E1,2.3660002E1,2.4E1,2.366E1,2.51E1,7.818315E-1,2.4283333E1,-9.174386E-3,4.5577385E-2,-1.9288273E-1,3.870354E-2,-1.4405442E-2,2.756016E-1,4.1893553E-2,-5.0255302E-2,1.2767373E-1,-2.3582079E-2,-1.3462086E-1,-1.1365158E-3],"split_indices":[7,7,7,7,0,0,7,7,0,0,0,3,7,0,0,0,0,0,0,0,0,0,0,0,0],"split_type":[0,0,0,0,0,0,0,0,0,0,0,0,0,0,0,0,0,0,0,0,0,0,0,0,0],"sum_hessian":[3.55E2,4.2E1,3.13E2,2.9E1,1.3E1,1E0,3.12E2,2.5E1,4E0,4E0,9E0,4E0,3.08E2,1.4E1,1.1E1,2E0,2E0,2E0,2E0,6E0,3E0,2E0,2E0,2E0,3.06E2],"tree_param":{"num_deleted":"0","num_feature":"8","num_nodes":"25","size_leaf_vector":"1"}},{"base_weights":[-4.7287243E-4,1.0535695E-1,-4.4708806E-3,2.006588E-1,2.0710945E-2,-1.5625682E-2,4.364935E-2,-1.5014649E-2,2.6081008E-1,-3.2409124E-2,5.8882717E-2,-6.0093015E-2,1.2224594E-2,3.3896276E-1,-3.7448616E-3,2.5755692E-2,1.0464936E-1,6.2750247E-3,-3.314476E-2,-8.247128E-3,-6.340907E-2,-4.742404E-5,8.029111E-2,2.8705502E-2,1.3339625E-1,-1.2621747E-1,1.333207E-2],"categories":[],"categories_nodes":[],"categories_segments":[],"categories_sizes":[],"default_left":[0,0,0,0,0,0,0,0,0,0,0,0,0,0,0,0,0,0,0,0,0,0,0,0,0,0,0],"id":44,"left_children":[1,3,5,7,9,11,13,-1,15,17,-1,19,21,23,25,-1,-1,-1,-1,-1,-1,-1,-1,-1,-1,-1,-1],"loss_changes":[1.5109767E-1,1.0071413E-1,1.8533148E-1,1.0353558E-1,8.096922E-2,3.474943E-1,9.11019E-1,0E0,4.7051907E-2,3.145426E-2,0E0,5.268251E-1,5.471875E-1,1.8886447E-1,1.1639535E0,0E0,0E0,0E0,0E0,0E0,0E0,0E0,0E0,0E0,0E0,0E0,0E0],"parents":[2147483647,0,0,1,1,2,2,3,3,4,4,5,5,6,6,8,8,9,9,11,11,12,12,13,13,14,14],"right_children":[2,4,6,8,10,12,14,-1,16,18,-1,20,22,24,26,-1,-1,-1,-1,-1,-1,-1,-1,-1,-1,-1,-1],"split_conditions":[2.341E1,2.4340868E1,8.660254E-1,2.222E1,1E0,6.624E1,2.4365E1,-1.5014649E-2,-2.2252093E-1,2.329E1,5.8882717E-2,2.870083E1,6.123234E-17,2.429E1,2.443E1,2.5755692E-2,1.0464936E-1,6.2750247E-3,-3.314476E-2,-8.247128E-3,-6.340907E-2,-4.742404E-5,8.029111E-2,2.8705502E-2,1.3339625E-1,-1.2621747E-1,1.333207E-2],"split_indices":[0,7,2,0,4,6,7,0,4,0,0,7,2,7,7,0,0,0,0,0,0,0,0,0,0,0,0],"split_type":[0,0,0,0,0,0,0,0,0,0,0,0,0,0,0,0,0,0,0,0,0,0,0,0,0,0,0],"sum_hessian":[3.55E2,1.2E1,3.43E2,5E0,7E0,2.79E2,6.4E1,1E0,4E0,6E0,1E0,1.07E2,1.72E2,8E0,5.6E1,2E0,2E0,4E0,2E0,8.9E1,1.8E1,1.65E2,7E0,3E0,5E0,5E0,5.1E1],"tree_param":{"num_deleted":"0","num_feature":"8","num_nodes":"27","size_leaf_vector":"1"}},{"base_weights":[2.4529253E-4,5.900102E-2,-6.344899E-3,-5.897967E-3,3.2871082E-1,-9.750715E-2,2.6996403E-3,5.234933E-2,-2.0476042E-1,2.572317E-1,9.768295E-2,-4.585724E-3,-5.4261285E-1,2.5293943E-1,-5.212141E-3,4.398823E-3,9.338036E-2,-1.0556672E-1,3.261223E-2,-2.1672439E-2,6.0211662E-2,2.6679326E-2,-9.466324E-2,1.5602495E-2,-2.8690892E-1,-9.959794E-3,1.2046262E-1,-6.2572815E-2,1.1139988E-3],"categories":[],"categories_nodes":[],"categories_segments":[],"categories_sizes":[],"default_left":[0,0,0,0,0,0,0,0,0,0,0,0,0,0,0,0,0,0,0,0,0,0,0,0,0,0,0,0,0],"id":45,"left_children":[1,3,5,7,9,11,13,15,17,-1,19,21,23,25,27,-1,-1,-1,-1,-1,-1,-1,-1,-1,-1,-1,-1,-1,-1],"loss_changes":[1.3822167E-1,6.320789E-1,2.6493433E-1,3.5821506E-1,7.7129954E-1,1.1969475E0,5.8141226E-1,2.296221E-1,3.6109358E-1,0E0,1.19535565E-1,7.5505763E-1,1.2798619E0,3.9601952E-1,5.1808333E-1,0E0,0E0,0E0,0E0,0E0,0E0,0E0,0E0,0E0,0E0,0E0,0E0,0E0,0E0],"parents":[2147483647,0,0,1,1,2,2,3,3,4,4,5,5,6,6,7,7,8,8,10,10,11,11,12,12,13,13,14,14],"right_children":[2,4,6,8,10,12,14,16,18,-1,20,22,24,26,28,-1,-1,-1,-1,-1,-1,-1,-1,-1,-1,-1,-1,-1,-1],"split_conditions":[2.3902E1,2.385E1,2.443E1,2.3768333E1,2.4E1,8.660254E-1,2.4601429E1,2.3741922E1,2.405E1,2.572317E-1,8.660254E-1,2.4365E1,2.35E1,-4.3388373E-1,2.4727999E1,4.398823E-3,9.338036E-2,-1.0556672E-1,3.261223E-2,-2.1672439E-2,6.0211662E-2,2.6679326E-2,-9.466324E-2,1.5602495E-2,-2.8690892E-1,-9.959794E-3,1.2046262E-1,-6.2572815E-2,1.1139988E-3],"split_indices":[7,7,7,7,0,1,7,7,0,0,1,7,0,3,7,0,0,0,0,0,0,0,0,0,0,0,0,0,0],"split_type":[0,0,0,0,0,0,0,0,0,0,0,0,0,0,0,0,0,0,0,0,0,0,0,0,0,0,0,0,0],"sum_hessian":[3.55E2,3.5E1,3.2E2,2.9E1,6E0,2.8E1,2.92E2,2.3E1,6E0,1E0,5E0,2.4E1,4E0,8E0,2.84E2,2.1E1,2E0,4E0,2E0,2E0,3E0,1.9E1,5E0,2E0,2E0,3E0,5E0,1.1E1,2.73E2],"tree_param":{"num_deleted":"0","num_feature":"8","num_nodes":"29","size_leaf_vector":"1"}},{"base_weights":[2.5700452E-4,8.470776E-2,-4.490988E-3,9.690963E-2,-2.0238876E-2,-2.1755664E-1,-6.3848065E-4,-1.1222839E-2,1.1928431E-1,5.367279E-3,-3.303604E-1,-6.5991967E-3,1.9255257E-1,-1.3422203E-2,4.4589997E-3,4.71971E-2,3.5222627E-3,-2.3088455E-3,4.724121E-3,-1.2972261E-1,-3.6323548E-3,-2.6426768E-2,1.5565336E-3,1.826643E-1,2.3592124E-2],"categories":[],"categories_nodes":[],"categories_segments":[],"categories_sizes":[],"default_left":[0,0,0,0,0,0,0,0,0,0,0,0,0,0,0,0,0,0,0,0,0,0,0,0,0],"id":46,"left_children":[1,3,5,7,-1,9,11,13,15,17,19,21,23,-1,-1,-1,-1,-1,-1,-1,-1,-1,-1,-1,-1],"loss_changes":[1.4312631E-1,4.181637E-2,2.77304E-1,4.4888422E-2,0E0,1.526531E-1,3.8473916E-1,4.1624038E-3,5.9516117E-2,5.279789E-4,1.2467292E-1,3.1168342E-1,4.2636603E-1,0E0,0E0,0E0,0E0,0E0,0E0,0E0,0E0,0E0,0E0,0E0,0E0],"parents":[2147483647,0,0,1,1,2,2,3,3,5,5,6,6,7,7,8,8,9,9,10,10,11,11,12,12],"right_children":[2,4,6,8,-1,10,12,14,16,18,20,22,24,-1,-1,-1,-1,-1,-1,-1,-1,-1,-1,-1,-1],"split_conditions":[2.364E1,6.874E1,2.375E1,2.242E1,-2.0238876E-2,8.660254E-1,1E0,9.659258E-1,6.234898E-1,2.366E1,9.749279E-1,2.474E1,2.377E1,-1.3422203E-2,4.4589997E-3,4.71971E-2,3.5222627E-3,-2.3088455E-3,4.724121E-3,-1.2972261E-1,-3.6323548E-3,-2.6426768E-2,1.5565336E-3,1.826643E-1,2.3592124E-2],"split_indices":[0,6,0,0,0,1,1,1,4,0,3,0,0,0,0,0,0,0,0,0,0,0,0,0,0],"split_type":[0,0,0,0,0,0,0,0,0,0,0,0,0,0,0,0,0,0,0,0,0,0,0,0,0],"sum_hessian":[3.55E2,1.8E1,3.37E2,1.7E1,1E0,5E0,3.32E2,3E0,1.4E1,2E0,3E0,3.23E2,9E0,1E0,2E0,1E1,4E0,1E0,1E0,2E0,1E0,4E1,2.83E2,1E0,8E0],"tree_param":{"num_deleted":"0","num_feature":"8","num_nodes":"25","size_leaf_vector":"1"}},{"base_weights":[3.8224124E-4,2.327356E-2,-1.9514833E-2,9.512331E-3,2.9386878E-1,-1.7052561E-1,8.570589E-3,1.5970144E-2,-3.3161736E-1,-8.032036E-3,3.434996E-1,-9.790595E-2,-3.5799146E-1,1.991227E-1,-9.391157E-3,-1.3133339E-3,4.66717E-2,-1.4572334E-1,-3.5044672E-3,1.15625E-1,1.3799572E-2,-4.664555E-2,8.847213E-3,-1.4727218E-1,-3.0704642E-2,7.3582083E-3,1.5254666E-1,-9.707096E-2,4.522074E-4],"categories":[],"categories_nodes":[],"categories_segments":[],"categories_sizes":[],"default_left":[0,0,0,0,0,0,0,0,0,0,0,0,0,0,0,0,0,0,0,0,0,0,0,0,0,0,0,0,0],"id":47,"left_children":[1,3,5,7,9,11,13,15,17,-1,19,21,23,25,27,-1,-1,-1,-1,-1,-1,-1,-1,-1,-1,-1,-1,-1,-1],"loss_changes":[1.6260159E-1,6.1534256E-1,8.11531E-1,3.5556534E-1,1.3650656E-1,3.7336165E-1,5.56339E-1,4.466576E-1,1.4225811E-1,0E0,6.9563985E-2,1.7329954E-1,2.215879E-1,7.437225E-1,5.1067585E-1,0E0,0E0,0E0,0E0,0E0,0E0,0E0,0E0,0E0,0E0,0E0,0E0,0E0,0E0],"parents":[2147483647,0,0,1,1,2,2,3,3,4,4,5,5,6,6,7,7,8,8,10,10,11,11,12,12,13,13,14,14],"right_children":[2,4,6,8,10,12,14,16,18,-1,20,22,24,26,28,-1,-1,-1,-1,-1,-1,-1,-1,-1,-1,-1,-1,-1,-1],"split_conditions":[2.8E1,2.767E1,2.904E1,2.763E1,-4.3388373E-1,2.87E1,2.958E1,2.684E1,-7.0710677E-1,-8.032036E-3,1E0,2.849E1,2.888E1,4.3388373E-1,2.983E1,-1.3133339E-3,4.66717E-2,-1.4572334E-1,-3.5044672E-3,1.15625E-1,1.3799572E-2,-4.664555E-2,8.847213E-3,-1.4727218E-1,-3.0704642E-2,7.3582083E-3,1.5254666E-1,-9.707096E-2,4.522074E-4],"split_indices":[0,0,0,0,3,0,0,0,1,0,4,0,0,3,0,0,0,0,0,0,0,0,0,0,0,0,0,0,0],"split_type":[0,0,0,0,0,0,0,0,0,0,0,0,0,0,0,0,0,0,0,0,0,0,0,0,0,0,0,0,0],"sum_hessian":[3.55E2,1.65E2,1.9E2,1.58E2,7E0,2.9E1,1.61E2,1.56E2,2E0,1E0,6E0,2.2E1,7E0,1.3E1,1.48E2,1.37E2,1.9E1,1E0,1E0,5E0,1E0,1.5E1,7E0,4E0,3E0,9E0,4E0,4E0,1.44E2],"tree_param":{"num_deleted":"0","num_feature":"8","num_nodes":"29","size_leaf_vector":"1"}},{"base_weights":[-1.1171384E-4,1.1429825E-1,-3.408509E-3,2.2934787E-1,-4.6620943E-2,-3.4263754E-1,5.459231E-4,-1.1211777E-2,2.9016647E-1,5.2734375E-2,-3.9130785E-2,-1.4801084E-1,1.6433716E-2,8.2313E-2,-7.815395E-3,9.585314E-2,2.591858E-2,2.0638276E-2,3.0921937E-3,-4.019138E-3,7.28839E-2,-3.499351E-2,1.2325915E-4],"categories":[],"categories_nodes":[],"categories_segments":[],"categories_sizes":[],"default_left":[0,0,0,0,0,0,0,0,0,0,0,0,0,0,0,0,0,0,0,0,0,0,0],"id":48,"left_children":[1,3,5,7,9,11,13,-1,15,17,-1,-1,-1,19,21,-1,-1,-1,-1,-1,-1,-1,-1],"loss_changes":[1.3466787E-1,1.9582933E-1,4.6567303E-1,1.081737E-1,4.851579E-2,2.666397E-1,2.358294E-1,0E0,2.29308E-3,1.335036E-3,0E0,0E0,0E0,4.9523032E-1,2.8026453E-1,0E0,0E0,0E0,0E0,0E0,0E0,0E0,0E0],"parents":[2147483647,0,0,1,1,2,2,3,3,4,4,5,5,6,6,8,8,9,9,13,13,14,14],"right_children":[2,4,6,8,10,12,14,-1,16,18,-1,-1,-1,20,22,-1,-1,-1,-1,-1,-1,-1,-1],"split_conditions":[2.3652224E1,6.234898E-1,2.3656668E1,2.222E1,9.659258E-1,2.384E1,2.393E1,-1.1211777E-2,2.523E1,2.354E1,-3.9130785E-2,-1.4801084E-1,1.6433716E-2,2.376E1,2.454E1,9.585314E-2,2.591858E-2,2.0638276E-2,3.0921937E-3,-4.019138E-3,7.28839E-2,-3.499351E-2,1.2325915E-4],"split_indices":[7,4,7,0,1,0,0,0,0,0,0,0,0,0,0,0,0,0,0,0,0,0,0],"split_type":[0,0,0,0,0,0,0,0,0,0,0,0,0,0,0,0,0,0,0,0,0,0,0],"sum_hessian":[3.55E2,9E0,3.46E2,5E0,4E0,3E0,3.43E2,1E0,4E0,2E0,2E0,2E0,1E0,3.1E1,3.12E2,3E0,1E0,1E0,1E0,2E1,1.1E1,2.1E1,2.91E2],"tree_param":{"num_deleted":"0","num_feature":"8","num_nodes":"23","size_leaf_vector":"1"}},{"base_weights":[-8.50431E-5,5.869892E-2,-6.677372E-3,2.7569453E-3,2.9006466E-1,-1.9299062E-2,2.8036539E-2,4.4273376E-2,-2.1367988E-1,2.2805673E-1,8.5012436E-2,-5.254665E-2,9.16411E-3,1.6927323E-1,-3.2622322E-2,5.158441E-2,-7.8792573E-4,-1.3362867E-1,2.6788713E-2,-1.7411424E-2,5.1314164E-2,-1.0314113E-2,-1.2705873E-1,-3.6022868E-2,1.0262797E-2,-5.2605155E-3,9.22305E-2,5.2094394E-3,-4.8906665E-2],"categories":[],"categories_nodes":[],"categories_segments":[],"categories_sizes":[],"default_left":[0,0,0,0,0,0,0,0,0,0,0,0,0,0,0,0,0,0,0,0,0,0,0,0,0,0,0,0,0],"id":49,"left_children":[1,3,5,7,9,11,13,15,17,-1,19,21,23,25,27,-1,-1,-1,-1,-1,-1,-1,-1,-1,-1,-1,-1,-1,-1],"loss_changes":[1.3835022E-1,4.651504E-1,1.4118667E-1,2.790309E-1,6.1017495E-1,2.2381584E-1,7.423062E-1,1.5613738E-1,3.9084628E-1,0E0,8.3771154E-2,7.2002995E-1,4.1842476E-1,6.764446E-1,4.0044802E-1,0E0,0E0,0E0,0E0,0E0,0E0,0E0,0E0,0E0,0E0,0E0,0E0,0E0,0E0],"parents":[2147483647,0,0,1,1,2,2,3,3,4,4,5,5,6,6,7,7,8,8,10,10,11,11,12,12,13,13,14,14],"right_children":[2,4,6,8,10,12,14,16,18,-1,20,22,24,26,28,-1,-1,-1,-1,-1,-1,-1,-1,-1,-1,-1,-1,-1,-1],"split_conditions":[2.3902E1,2.385E1,1.4529E2,2.3771578E1,2.4E1,-2.4492937E-16,-4.3388373E-1,-2.2252093E-1,2.3808E1,2.2805673E-1,8.660254E-1,1.285E2,2.443E1,2.5881904E-1,2.5881904E-1,5.158441E-2,-7.8792573E-4,-1.3362867E-1,2.6788713E-2,-1.7411424E-2,5.1314164E-2,-1.0314113E-2,-1.2705873E-1,-3.6022868E-2,1.0262797E-2,-5.2605155E-3,9.22305E-2,5.2094394E-3,-4.8906665E-2],"split_indices":[7,7,6,7,0,3,3,4,7,0,1,6,7,1,1,0,0,0,0,0,0,0,0,0,0,0,0,0,0],"split_type":[0,0,0,0,0,0,0,0,0,0,0,0,0,0,0,0,0,0,0,0,0,0,0,0,0,0,0,0,0],"sum_hessian":[3.55E2,3.5E1,3.2E2,2.9E1,6E0,2.35E2,8.5E1,2.5E1,4E0,1E0,5E0,1.08E2,1.27E2,2.5E1,6E1,6E0,1.9E1,2E0,2E0,2E0,3E0,1.04E2,4E0,2E1,1.07E2,1.1E1,1.4E1,4.4E1,1.6E1],"tree_param":{"num_deleted":"0","num_feature":"8","num_nodes":"29","size_leaf_vector":"1"}},{"base_weights":[1.8244112E-4,2.6393249E-3,-1.4357567E-1,-1.7555407E-3,8.9088775E-2,5.114565E-2,-2.40485E-1,5.530482E-3,-1.00832485E-1,6.847572E-2,-3.1151008E-2,-2.7747346E-2,-9.249516E-2,4.5774505E-4,5.411208E-2,3.3184245E-2,-6.629349E-2,-3.6552E-2,6.632099E-2],"categories":[],"categories_nodes":[],"categories_segments":[],"categories_sizes":[],"default_left":[0,0,0,0,0,0,0,0,0,0,0,0,0,0,0,0,0,0,0],"id":50,"left_children":[1,3,5,7,9,-1,11,13,15,-1,17,-1,-1,-1,-1,-1,-1,-1,-1],"loss_changes":[1.2611707E-1,1.3351314E-1,2.2361198E-1,2.423864E-1,2.9157138E-1,0E0,2.1677077E-2,2.188837E-1,6.0874516E-1,0E0,2.5567183E-1,0E0,0E0,0E0,0E0,0E0,0E0,0E0,0E0],"parents":[2147483647,0,0,1,1,2,2,3,3,4,4,6,6,7,7,8,8,10,10],"right_children":[2,4,6,8,10,-1,12,14,16,-1,18,-1,-1,-1,-1,-1,-1,-1,-1],"split_conditions":[8.8423E2,3.742E1,-7.818315E-1,3.626E1,3.576E1,5.114565E-2,8.8693E2,3.6E1,6.1081E2,6.847572E-2,8.5289E2,-2.7747346E-2,-9.249516E-2,4.5774505E-4,5.411208E-2,3.3184245E-2,-6.629349E-2,-3.6552E-2,6.632099E-2],"split_indices":[5,0,3,0,7,0,5,0,5,0,5,0,0,0,0,0,0,0,0],"split_type":[0,0,0,0,0,0,0,0,0,0,0,0,0,0,0,0,0,0,0],"sum_hessian":[3.55E2,3.5E2,5E0,3.34E2,1.6E1,1E0,4E0,3.12E2,2.2E1,7E0,9E0,2E0,2E0,3.06E2,6E0,8E0,1.4E1,7E0,2E0],"tree_param":{"num_deleted":"0","num_feature":"8","num_nodes":"19","size_leaf_vector":"1"}},{"base_weights":[2.6988983E-4,-1.6639213E-3,1.7086124E-1,4.4618063E-3,-6.7766316E-2,4.2949677E-2,8.31894E-2,-1.300717E-3,7.993226E-2,-1.1535988E-1,-1.8328067E-2,-1.0073662E-3,2.033472E-2,1.2313069E-3,-6.8901695E-2,2.397154E-1,3.277354E-3,1.0280972E-1,-1.3618338E-2],"categories":[],"categories_nodes":[],"categories_segments":[],"categories_sizes":[],"default_left":[0,0,0,0,0,0,0,0,0,0,0,0,0,0,0,0,0,0,0],"id":51,"left_children":[1,3,5,7,9,11,-1,13,15,-1,17,-1,-1,-1,-1,-1,-1,-1,-1],"loss_changes":[1.1772566E-1,1.4324099E-1,4.254809E-2,1.4101166E-1,4.627639E-1,3.6774348E-3,0E0,3.7372094E-1,1.1326406E0,0E0,2.7939254E-1,0E0,0E0,0E0,0E0,0E0,0E0,0E0,0E0],"parents":[2147483647,0,0,1,1,2,2,3,3,4,4,5,5,7,7,8,8,10,10],"right_children":[2,4,6,8,10,12,-1,14,16,-1,18,-1,-1,-1,-1,-1,-1,-1,-1],"split_conditions":[3.951E1,7.577E2,-7.0710677E-1,6.7079E2,3.206E1,4.032E1,8.31894E-2,6.5951E2,6.733E2,-1.1535988E-1,3.262E1,-1.0073662E-3,2.033472E-2,1.2313069E-3,-6.8901695E-2,2.397154E-1,3.277354E-3,1.0280972E-1,-1.3618338E-2],"split_indices":[0,5,1,5,0,0,0,5,5,0,0,0,0,0,0,0,0,0,0],"split_type":[0,0,0,0,0,0,0,0,0,0,0,0,0,0,0,0,0,0,0],"sum_hessian":[3.55E2,3.52E2,3E0,3.23E2,2.9E1,2E0,1E0,3.01E2,2.2E1,3E0,2.6E1,1E0,1E0,2.95E2,6E0,1E0,2.1E1,1E0,2.5E1],"tree_param":{"num_deleted":"0","num_feature":"8","num_nodes":"19","size_leaf_vector":"1"}},{"base_weights":[8.952001E-4,-1.2239502E-2,1.943748E-2,-6.4654043E-3,-1.7793982E-1,-6.644905E-3,9.002604E-2,-1.9067362E-2,5.9031572E-2,-1.048987E-1,3.8267612E-2,-1.57518E-1,2.6956283E-2,1.6676366E-2,1.02246605E-1,-1.7149774E-2,6.045584E-3,4.8379805E-2,-1.7901493E-2,-4.7071554E-2,4.6688084E-2,-7.917047E-2,2.3325512E-2,1.2790989E-2,-9.624911E-2,-3.049683E-2,3.0897303E-2],"categories":[],"categories_nodes":[],"categories_segments":[],"categories_sizes":[],"default_left":[0,0,0,0,0,0,0,0,0,0,0,0,0,0,0,0,0,0,0,0,0,0,0,0,0,0,0],"id":52,"left_children":[1,3,5,7,9,11,13,15,17,-1,19,21,23,25,-1,-1,-1,-1,-1,-1,-1,-1,-1,-1,-1,-1,-1],"loss_changes":[8.694076E-2,1.9881442E-1,2.730837E-1,1.6867979E-1,2.7327448E-1,5.568232E-1,7.3014843E-1,2.5665998E-1,4.1009632E-1,0E0,1.1604005E-1,5.2109545E-1,5.0448644E-1,3.37312E-1,0E0,0E0,0E0,0E0,0E0,0E0,0E0,0E0,0E0,0E0,0E0,0E0,0E0],"parents":[2147483647,0,0,1,1,2,2,3,3,4,4,5,5,6,6,7,7,8,8,10,10,11,11,12,12,13,13],"right_children":[2,4,6,8,10,12,14,16,18,-1,20,22,24,26,-1,-1,-1,-1,-1,-1,-1,-1,-1,-1,-1,-1,-1],"split_conditions":[4.3388373E-1,1E0,4.0523E2,8.660254E-1,2.54075E1,-2.5881904E-1,7.0710677E-1,3.098E1,2.6164001E1,-1.048987E-1,-4.3388373E-1,3.2887E2,2.8367E2,1.3027E2,1.02246605E-1,-1.7149774E-2,6.045584E-3,4.8379805E-2,-1.7901493E-2,-4.7071554E-2,4.6688084E-2,-7.917047E-2,2.3325512E-2,1.2790989E-2,-9.624911E-2,-3.049683E-2,3.0897303E-2],"split_indices":[3,2,5,2,7,2,1,0,7,0,3,6,5,6,0,0,0,0,0,0,0,0,0,0,0,0,0],"split_type":[0,0,0,0,0,0,0,0,0,0,0,0,0,0,0,0,0,0,0,0,0,0,0,0,0,0,0],"sum_hessian":[3.55E2,2.08E2,1.47E2,2.02E2,6E0,1.08E2,3.9E1,1.7E2,3.2E1,3E0,3E0,1.9E1,8.9E1,3.1E1,8E0,8.6E1,8.4E1,1.7E1,1.5E1,1E0,2E0,1.3E1,6E0,8.6E1,3E0,1.3E1,1.8E1],"tree_param":{"num_deleted":"0","num_feature":"8","num_nodes":"27","size_leaf_vector":"1"}},{"base_weights":[2.825501E-4,4.4931635E-2,-5.8327145E-3,-7.649013E-3,1.3413954E-1,-1.6462956E-1,-2.3448628E-3,3.3992987E-2,-3.659967E-1,2.0878953E-1,-1.4200783E-1,1.6586189E-1,-5.059066E-3,6.844749E-2,2.4917843E-3,-2.2132388E-1,5.662537E-2,9.714833E-2,2.8923655E-2,-9.42976E-2,6.061936E-3,1.2267609E-1,8.6016656E-4,-7.274981E-2,-5.8162166E-4],"categories":[],"categories_nodes":[],"categories_segments":[],"categories_sizes":[],"default_left":[0,0,0,0,0,0,0,0,0,0,0,0,0,0,0,0,0,0,0,0,0,0,0,0,0],"id":53,"left_children":[1,3,5,7,9,-1,11,13,15,17,19,21,23,-1,-1,-1,-1,-1,-1,-1,-1,-1,-1,-1,-1],"loss_changes":[9.746465E-2,2.0272222E-1,5.9332496E-1,4.302661E-1,3.594801E-1,0E0,1.4373845E-1,1.2778078E-1,7.579323E-1,1.3683903E-1,1.1816084E-1,1.9691364E-1,2.284653E-1,0E0,0E0,0E0,0E0,0E0,0E0,0E0,0E0,0E0,0E0,0E0,0E0],"parents":[2147483647,0,0,1,1,2,2,3,3,4,4,6,6,7,7,8,8,9,9,10,10,11,11,12,12],"right_children":[2,4,6,8,10,-1,12,14,16,18,20,22,24,-1,-1,-1,-1,-1,-1,-1,-1,-1,-1,-1,-1],"split_conditions":[2.404158E1,2.3808E1,2.4043892E1,2.3771578E1,2.51E1,-1.6462956E-1,2.4230001E1,8.660254E-1,2.4E1,2.419E1,2.53E1,2.385E1,2.429E1,6.844749E-2,2.4917843E-3,-2.2132388E-1,5.662537E-2,9.714833E-2,2.8923655E-2,-9.42976E-2,6.061936E-3,1.2267609E-1,8.6016656E-4,-7.274981E-2,-5.8162166E-4],"split_indices":[7,7,7,7,0,0,7,1,0,0,0,0,7,0,0,0,0,0,0,0,0,0,0,0,0],"split_type":[0,0,0,0,0,0,0,0,0,0,0,0,0,0,0,0,0,0,0,0,0,0,0,0,0],"sum_hessian":[3.55E2,4.2E1,3.13E2,2.7E1,1.5E1,1E0,3.12E2,2.5E1,2E0,1.2E1,3E0,4E0,3.08E2,2E0,2.3E1,1E0,1E0,5E0,7E0,1E0,2E0,1E0,3E0,3E0,3.05E2],"tree_param":{"num_deleted":"0","num_feature":"8","num_nodes":"25","size_leaf_vector":"1"}},{"base_weights":[-2.810339E-4,-6.22995E-3,3.802097E-2,-5.358584E-2,2.0450535E-3,1.4409289E-2,1.721655E-1,3.2951046E-2,-2.1790195E-1,4.286396E-1,-6.1665536E-3,5.250021E-2,-1.522524E-1,-8.674071E-3,1.08128935E-1,2.3402883E-2,-1.3701694E-1,2.7795412E-2,1.4684215E-1,-6.79349E-2,-2.8777178E-4,-9.795243E-3,7.4043274E-2,-6.690207E-2,-2.4172785E-3],"categories":[],"categories_nodes":[],"categories_segments":[],"categories_sizes":[],"default_left":[0,0,0,0,0,0,0,0,0,0,0,0,0,0,0,0,0,0,0,0,0,0,0,0,0],"id":54,"left_children":[1,3,5,7,9,11,-1,13,15,17,19,21,23,-1,-1,-1,-1,-1,-1,-1,-1,-1,-1,-1,-1],"loss_changes":[8.135339E-2,1.2119748E-1,5.9905785E-1,6.612727E-1,9.274423E-1,3.0636325E-1,0E0,6.38461E-1,1.166348E0,5.6847453E-2,2.9802442E-1,6.533431E-1,9.002495E-2,0E0,0E0,0E0,0E0,0E0,0E0,0E0,0E0,0E0,0E0,0E0,0E0],"parents":[2147483647,0,0,1,1,2,2,3,3,4,4,5,5,7,7,8,8,9,9,10,10,11,11,12,12],"right_children":[2,4,6,8,10,12,-1,14,16,18,20,22,24,-1,-1,-1,-1,-1,-1,-1,-1,-1,-1,-1,-1],"split_conditions":[9.659258E-1,2.504E1,2.68E1,2.4375E1,2.52E1,2.6419544E1,1.721655E-1,2.429E1,1.2246469E-16,-2.4492937E-16,2.53E1,2.4764229E1,2.511E1,-8.674071E-3,1.08128935E-1,2.3402883E-2,-1.3701694E-1,2.7795412E-2,1.4684215E-1,-6.79349E-2,-2.8777178E-4,-9.795243E-3,7.4043274E-2,-6.690207E-2,-2.4172785E-3],"split_indices":[1,0,7,7,0,7,0,7,1,3,0,7,0,0,0,0,0,0,0,0,0,0,0,0,0],"split_type":[0,0,0,0,0,0,0,0,0,0,0,0,0,0,0,0,0,0,0,0,0,0,0,0,0],"sum_hessian":[3.55E2,3.08E2,4.7E1,4.5E1,2.63E2,4.6E1,1E0,3E1,1.5E1,4E0,2.59E2,3.8E1,8E0,2.6E1,4E0,7E0,8E0,1E0,3E0,5E0,2.54E2,2.7E1,1.1E1,5E0,3E0],"tree_param":{"num_deleted":"0","num_feature":"8","num_nodes":"25","size_leaf_vector":"1"}},{"base_weights":[5.3174846E-4,9.52179E-2,-2.1984915E-3,1.7312877E-1,-1.7318726E-2,-2.8341913E-1,1.077907E-3,-6.1649326E-3,2.1597442E-1,1.7934037E-2,-8.864466E-2,-1.2492352E-1,1.7333794E-2,7.597542E-2,-4.5252647E-3,7.116709E-2,1.9646645E-2,-4.0981295E-3,-3.579197E-2,7.380829E-2,5.482804E-3,-3.42961E-2,-4.0612815E-4],"categories":[],"categories_nodes":[],"categories_segments":[],"categories_sizes":[],"default_left":[0,0,0,0,0,0,0,0,0,0,0,0,0,0,0,0,0,0,0,0,0,0,0],"id":55,"left_children":[1,3,5,7,9,11,13,-1,15,-1,17,-1,-1,19,21,-1,-1,-1,-1,-1,-1,-1,-1],"loss_changes":[9.224099E-2,9.0676636E-2,3.2002813E-1,5.422795E-2,3.2794926E-2,2.0556742E-1,1.4470808E-1,0E0,4.529804E-4,0E0,5.2676983E-3,0E0,0E0,2.3098949E-1,1.1162242E-1,0E0,0E0,0E0,0E0,0E0,0E0,0E0,0E0],"parents":[2147483647,0,0,1,1,2,2,3,3,4,4,5,5,6,6,8,8,10,10,13,13,14,14],"right_children":[2,4,6,8,10,12,14,-1,16,-1,18,-1,-1,20,22,-1,-1,-1,-1,-1,-1,-1,-1],"split_conditions":[2.3652224E1,6.234898E-1,2.3656668E1,2.222E1,9.659258E-1,2.384E1,2.3902E1,-6.1649326E-3,2.523E1,1.7934037E-2,2.351E1,-1.2492352E-1,1.7333794E-2,2.378E1,2.4043892E1,7.116709E-2,1.9646645E-2,-4.0981295E-3,-3.579197E-2,7.380829E-2,5.482804E-3,-3.42961E-2,-4.0612815E-4],"split_indices":[7,4,7,0,1,0,7,0,0,0,0,0,0,0,7,0,0,0,0,0,0,0,0],"split_type":[0,0,0,0,0,0,0,0,0,0,0,0,0,0,0,0,0,0,0,0,0,0,0],"sum_hessian":[3.55E2,9E0,3.46E2,5E0,4E0,3E0,3.43E2,1E0,4E0,2E0,2E0,2E0,1E0,2.3E1,3.2E2,3E0,1E0,1E0,1E0,5E0,1.8E1,8E0,3.12E2],"tree_param":{"num_deleted":"0","num_feature":"8","num_nodes":"23","size_leaf_vector":"1"}},{"base_weights":[3.7107576E-4,-1.2309207E-3,1.4165449E-1,6.992531E-3,-3.8474202E-2,3.3327103E-2,6.99955E-2,2.7042563E-4,2.4391294E-1,6.708043E-2,-6.937111E-2,-1.5718461E-3,1.6569043E-2,2.5122135E-3,-4.680989E-2,1.0187188E-1,-8.613396E-3,-5.360881E-3,7.216633E-2,-1.14297636E-1,-1.0197358E-2],"categories":[],"categories_nodes":[],"categories_segments":[],"categories_sizes":[],"default_left":[0,0,0,0,0,0,0,0,0,0,0,0,0,0,0,0,0,0,0,0,0],"id":56,"left_children":[1,3,5,7,9,11,-1,13,15,17,19,-1,-1,-1,-1,-1,-1,-1,-1,-1,-1],"loss_changes":[8.074982E-2,1.0838175E-1,3.1942993E-2,4.6178913E-1,2.1337742E-1,2.8235537E-3,0E0,3.59761E-1,2.1838337E-1,2.2534797E-1,5.383059E-1,0E0,0E0,0E0,0E0,0E0,0E0,0E0,0E0,0E0,0E0],"parents":[2147483647,0,0,1,1,2,2,3,3,4,4,5,5,7,7,8,8,9,9,10,10],"right_children":[2,4,6,8,10,12,-1,14,16,18,20,-1,-1,-1,-1,-1,-1,-1,-1,-1,-1],"split_conditions":[3.951E1,3.512E1,-7.0710677E-1,3.451E1,3.4633335E1,4.032E1,6.99955E-2,3.401E1,-2.4492937E-16,3.656E1,3.4824615E1,-1.5718461E-3,1.6569043E-2,2.5122135E-3,-4.680989E-2,1.0187188E-1,-8.613396E-3,-5.360881E-3,7.216633E-2,-1.14297636E-1,-1.0197358E-2],"split_indices":[0,0,1,0,7,0,0,0,3,0,7,0,0,0,0,0,0,0,0,0,0],"split_type":[0,0,0,0,0,0,0,0,0,0,0,0,0,0,0,0,0,0,0,0,0],"sum_hessian":[3.55E2,3.52E2,3E0,2.89E2,6.3E1,2E0,1E0,2.82E2,7E0,1.4E1,4.9E1,1E0,1E0,2.69E2,1.3E1,5E0,2E0,1E1,4E0,4E0,4.5E1],"tree_param":{"num_deleted":"0","num_feature":"8","num_nodes":"21","size_leaf_vector":"1"}},{"base_weights":[4.733975E-4,-4.3236027E-3,5.0904E-2,2.9294998E-3,-1.0468145E-1,1.3205452E-1,8.878577E-3,-7.30344E-3,9.04575E-2,3.7042778E-2,-2.497732E-1,1.0656853E-1,-1.617779E-2,-1.0952564E-2,5.1248516E-3,7.0478484E-2,-6.2266705E-3,4.9814336E-2,-3.589106E-2,6.261521E-2,-9.49482E-2,-3.7012555E-2,7.6289047E-3],"categories":[],"categories_nodes":[],"categories_segments":[],"categories_sizes":[],"default_left":[0,0,0,0,0,0,0,0,0,0,0,0,0,0,0,0,0,0,0,0,0,0,0],"id":57,"left_children":[1,3,5,7,9,-1,11,13,15,17,19,-1,21,-1,-1,-1,-1,-1,-1,-1,-1,-1,-1],"loss_changes":[8.634204E-2,2.3760393E-1,5.0323814E-1,