{"learner":{"attributes":{"scikit_learn":"{\"_estimator_type\": \"regressor\"}"},"feature_names":["non_shiftable_load","cyc_hour1","cyc_hour2","cyc_day_type1","cyc_day_type2","exp_load","occupancy","annual_estimate"],"feature_types":["float","float","float","float","float","float","float","float"],"gradient_booster":{"model":{"gbtree_model_param":{"num_parallel_tree":"1","num_trees":"55"},"iteration_indptr":[0,1,2,3,4,5,6,7,8,9,10,11,12,13,14,15,16,17,18,19,20,21,22,23,24,25,26,27,28,29,30,31,32,33,34,35,36,37,38,39,40,41,42,43,44,45,46,47,48,49,50,51,52,53,54,55],"tree_info":[0,0,0,0,0,0,0,0,0,0,0,0,0,0,0,0,0,0,0,0,0,0,0,0,0,0,0,0,0,0,0,0,0,0,0,0,0,0,0,0,0,0,0,0,0,0,0,0,0,0,0,0,0,0,0],"trees":[{"base_weights":[2.3408168E-8,-1.1975944E-1,2.4120095E-1,-2.4785565E-1,3.72615E-2,1.3324076E-1,6.371959E-1,-1.07433535E-1,-4.123864E-2,2.2359255E-4,1.5405817E-1,1.0142059E-1,-6.4577297E-3,1.19783126E-1,2.7134788E-1],"categories":[],"categories_nodes":[],"categories_segments":[],"categories_sizes":[],"default_left":[0,0,0,0,0,0,0,0,0,0,0,0,0,0,0],"id":0,"left_children":[1,3,5,7,9,11,13,-1,-1,-1,-1,-1,-1,-1,-1],"loss_changes":[3.099478E1,1.443082E1,1.5134701E1,4.758541E0,5.6170425E0,8.915117E0,4.4720783E0,0E0,0E0,0E0,0E0,0E0,0E0,0E0,0E0],"parents":[2147483647,0,0,1,1,2,2,3,3,4,4,5,5,6,6],"right_children":[2,4,6,8,10,12,14,-1,-1,-1,-1,-1,-1,-1,-1],"split_conditions":[6.3176215E2,2.5881904E-1,8.660254E-1,4.5044507E2,8.4246135E-1,-2.5881904E-1,6.234898E-1,-1.07433535E-1,-4.123864E-2,2.2359255E-4,1.5405817E-1,1.0142059E-1,-6.4577297E-3,1.19783126E-1,2.7134788E-1],"split_indices":[7,1,1,7,5,2,4,0,0,0,0,0,0,0,0],"split_type":[0,0,0,0,0,0,0,0,0,0,0,0,0,0,0],"sum_hessian":[1.071E3,7.16E2,3.55E2,3.94E2,3.22E2,2.8E2,7.5E1,1.96E2,1.98E2,3E2,2.2E1,1.2E2,1.6E2,4.1E1,3.4E1],"tree_param":{"num_deleted":"0","num_feature":"8","num_nodes":"15","size_leaf_vector":"1"}},{"base_weights":[4.5871185E-4,-1.10446416E-1,1.3191763E-1,4.6927E-2,-2.1869113E-1,2.6560716E-2,3.3249965E-1,-1.879469E-2,9.32413E-2,-9.3567066E-2,-5.17659E-2,-4.7483505E-3,9.554919E-2,3.6250582E-1,8.7853946E-2],"categories":[],"categories_nodes":[],"categories_segments":[],"categories_sizes":[],"default_left":[0,0,0,0,0,0,0,0,0,0,0,0,0,0,0],"id":1,"left_children":[1,3,5,7,9,11,13,-1,-1,-1,-1,-1,-1,-1,-1],"loss_changes":[1.5643758E1,9.9245405E0,1.0367326E1,6.9011483E0,1.4296932E0,4.0020914E0,5.5155716E0,0E0,0E0,0E0,0E0,0E0,0E0,0E0,0E0],"parents":[2147483647,0,0,1,1,2,2,3,3,4,4,5,5,6,6],"right_children":[2,4,6,8,10,12,14,-1,-1,-1,-1,-1,-1,-1,-1],"split_conditions":[2.5881904E-1,-2.5881904E-1,6.3176215E2,6.3176215E2,4.5044507E2,9.749279E-1,4.1866732E-1,-1.879469E-2,9.32413E-2,-9.3567066E-2,-5.17659E-2,-4.7483505E-3,9.554919E-2,3.6250582E-1,8.7853946E-2],"split_indices":[1,2,7,7,7,3,5,0,0,0,0,0,0,0,0],"split_type":[0,0,0,0,0,0,0,0,0,0,0,0,0,0,0],"sum_hessian":[1.071E3,5.81E2,4.9E2,2.37E2,3.44E2,3.22E2,1.68E2,1.68E2,6.9E1,1.12E2,2.32E2,2.82E2,4E1,6E0,1.62E2],"tree_param":{"num_deleted":"0","num_feature":"8","num_nodes":"15","size_leaf_vector":"1"}},{"base_weights":[7.597912E-4,-4.698218E-2,1.8692821E-1,-1.0277637E-1,7.023456E-2,3.8371254E-2,3.6660966E-1,-4.0283706E-2,1.8357703E-2,1.6217399E-1,6.9883806E-3,-1.355098E-2,5.897512E-2,4.4524753E-1,8.7413E-2],"categories":[],"categories_nodes":[],"categories_segments":[],"categories_sizes":[],"default_left":[0,0,0,0,0,0,0,0,0,0,0,0,0,0,0],"id":2,"left_children":[1,3,5,7,9,11,13,-1,-1,-1,-1,-1,-1,-1,-1],"loss_changes":[9.536769E0,5.5923896E0,5.8316846E0,2.999011E0,6.0809336E0,1.6081678E0,7.8911295E0,0E0,0E0,0E0,0E0,0E0,0E0,0E0,0E0],"parents":[2147483647,0,0,1,1,2,2,3,3,4,4,5,5,6,6],"right_children":[2,4,6,8,10,12,14,-1,-1,-1,-1,-1,-1,-1,-1],"split_conditions":[8.660254E-1,8.3108896E-1,6.234898E-1,6.3176215E2,8.576125E-1,6.3176215E2,1.8901224E-1,-4.0283706E-2,1.8357703E-2,1.6217399E-1,6.9883806E-3,-1.355098E-2,5.897512E-2,4.4524753E-1,8.7413E-2],"split_indices":[1,5,4,7,5,7,0,0,0,0,0,0,0,0,0],"split_type":[0,0,0,0,0,0,0,0,0,0,0,0,0,0,0],"sum_hessian":[1.071E3,8.53E2,2.18E2,5.78E2,2.75E2,1.2E2,9.8E1,4.85E2,9.3E1,2.4E1,2.51E2,7.9E1,4.1E1,5E0,9.3E1],"tree_param":{"num_deleted":"0","num_feature":"8","num_nodes":"15","size_leaf_vector":"1"}},{"base_weights":[1.2084537E-3,-4.4350453E-2,1.13848574E-1,-1.3878654E-1,4.641946E-3,3.9460916E-2,2.559357E-1,4.571465E-2,-4.7909223E-2,3.469007E-2,-2.3904437E-2,4.45193E-2,-1.939926E-2,5.5409905E-2,2.132596E-1],"categories":[],"categories_nodes":[],"categories_segments":[],"categories_sizes":[],"default_left":[0,0,0,0,0,0,0,0,0,0,0,0,0,0,0],"id":3,"left_children":[1,3,5,7,9,11,13,-1,-1,-1,-1,-1,-1,-1,-1],"loss_changes":[5.5062966E0,3.5354056E0,3.2558846E0,1.6134567E0,4.726246E0,2.3235784E0,3.3038845E0,0E0,0E0,0E0,0E0,0E0,0E0,0E0,0E0],"parents":[2147483647,0,0,1,1,2,2,3,3,4,4,5,5,6,6],"right_children":[2,4,6,8,10,12,14,-1,-1,-1,-1,-1,-1,-1,-1],"split_conditions":[7.0710677E-1,4.5044507E2,6.3176215E2,1.8733284E-1,-2.5881904E-1,3.487769E-1,1E0,4.571465E-2,-4.7909223E-2,3.469007E-2,-2.3904437E-2,4.45193E-2,-1.939926E-2,5.5409905E-2,2.132596E-1],"split_indices":[1,7,7,0,2,0,4,0,0,0,0,0,0,0,0],"split_type":[0,0,0,0,0,0,0,0,0,0,0,0,0,0,0],"sum_hessian":[1.071E3,7.63E2,3.08E2,2.6E2,5.03E2,2.03E2,1.05E2,1.7E1,2.43E2,2.17E2,2.86E2,9.9E1,1.04E2,9.2E1,1.3E1],"tree_param":{"num_deleted":"0","num_feature":"8","num_nodes":"15","size_leaf_vector":"1"}},{"base_weights":[1.1279891E-3,-4.759E-2,5.887288E-2,2.7635723E-2,-1.1647285E-1,1.2187916E-2,1.4775081E-1,-7.6899375E-3,4.612082E-2,-4.070074E-2,-6.250711E-3,-6.257742E-3,7.199878E-2,2.6731715E-1,3.447697E-2],"categories":[],"categories_nodes":[],"categories_segments":[],"categories_sizes":[],"default_left":[0,0,0,0,0,0,0,0,0,0,0,0,0,0,0],"id":4,"left_children":[1,3,5,7,9,11,13,-1,-1,-1,-1,-1,-1,-1,-1],"loss_changes":[3.018568E0,3.0190043E0,2.0354872E0,1.8780448E0,5.5527973E-1,2.4366744E0,4.021357E0,0E0,0E0,0E0,0E0,0E0,0E0,0E0,0E0],"parents":[2147483647,0,0,1,1,2,2,3,3,4,4,5,5,6,6],"right_children":[2,4,6,8,10,12,14,-1,-1,-1,-1,-1,-1,-1,-1],"split_conditions":[2.5881904E-1,-1.8369701E-16,6.3176215E2,6.3176215E2,-2.4492937E-16,9.749279E-1,4.1866732E-1,-7.6899375E-3,4.612082E-2,-4.070074E-2,-6.250711E-3,-6.257742E-3,7.199878E-2,2.6731715E-1,3.447697E-2],"split_indices":[1,2,7,7,1,3,5,0,0,0,0,0,0,0,0],"split_type":[0,0,0,0,0,0,0,0,0,0,0,0,0,0,0],"sum_hessian":[1.071E3,5.81E2,4.9E2,2.78E2,3.03E2,3.22E2,1.68E2,1.96E2,8.2E1,2.52E2,5.1E1,2.82E2,4E1,6E0,1.62E2],"tree_param":{"num_deleted":"0","num_feature":"8","num_nodes":"15","size_leaf_vector":"1"}},{"base_weights":[1.1244818E-3,-2.5302729E-2,6.6461906E-2,-6.004924E-2,3.0141888E-2,2.0705509E-1,-5.8734394E-3,-3.920752E-2,-1.3434842E-2,1.6713709E-1,5.181999E-3,-1.0997442E-2,1.3137227E-1,-1.0944818E-2,9.424495E-2],"categories":[],"categories_nodes":[],"categories_segments":[],"categories_sizes":[],"default_left":[0,0,0,0,0,0,0,0,0,0,0,0,0,0,0],"id":5,"left_children":[1,3,5,7,9,11,13,-1,-1,-1,-1,-1,-1,-1,-1],"loss_changes":[1.8526889E0,1.4736612E0,3.143702E0,5.0102293E-1,1.9909178E0,5.923541E0,2.019576E0,0E0,0E0,0E0,0E0,0E0,0E0,0E0,0E0],"parents":[2147483647,0,0,1,1,2,2,3,3,4,4,5,5,6,6],"right_children":[2,4,6,8,10,12,14,-1,-1,-1,-1,-1,-1,-1,-1],"split_conditions":[7.0710677E-1,4.3388373E-1,-4.3388373E-1,3.4902412E-1,1.8733284E-1,-7.818315E-1,1.0703775E0,-3.920752E-2,-1.3434842E-2,1.6713709E-1,5.181999E-3,-1.0997442E-2,1.3137227E-1,-1.0944818E-2,9.424495E-2],"split_indices":[1,3,3,5,0,3,5,0,0,0,0,0,0,0,0],"split_type":[0,0,0,0,0,0,0,0,0,0,0,0,0,0,0],"sum_hessian":[1.071E3,7.63E2,3.08E2,4.69E2,2.94E2,1.04E2,2.04E2,8.2E1,3.87E2,6E0,2.88E2,5.1E1,5.3E1,1.87E2,1.7E1],"tree_param":{"num_deleted":"0","num_feature":"8","num_nodes":"15","size_leaf_vector":"1"}},{"base_weights":[1.0887674E-3,-1.9772848E-2,5.409984E-2,-3.7724756E-2,3.7605103E-2,5.199802E-1,2.4589539E-2,-1.6073987E-2,1.2876266E-2,1.3176802E-1,5.8401E-4,-4.5550346E-2,4.136184E-1,2.9229438E-2,-2.1408195E-2],"categories":[],"categories_nodes":[],"categories_segments":[],"categories_sizes":[],"default_left":[0,0,0,0,0,0,0,0,0,0,0,0,0,0,0],"id":6,"left_children":[1,3,5,7,9,11,13,-1,-1,-1,-1,-1,-1,-1,-1],"loss_changes":[1.1865909E0,7.9455227E-1,4.15294E0,7.5286883E-1,2.634243E0,1.0593885E1,2.005863E0,0E0,0E0,0E0,0E0,0E0,0E0,0E0,0E0],"parents":[2147483647,0,0,1,1,2,2,3,3,4,4,5,5,6,6],"right_children":[2,4,6,8,10,12,14,-1,-1,-1,-1,-1,-1,-1,-1],"split_conditions":[8.4246135E-1,8.660254E-1,8.576125E-1,6.3176215E2,2.0989029E-1,7.818315E-1,1.1096694E0,-1.6073987E-2,1.2876266E-2,1.3176802E-1,5.8401E-4,-4.5550346E-2,4.136184E-1,2.9229438E-2,-2.1408195E-2],"split_indices":[5,1,5,7,5,3,5,0,0,0,0,0,0,0,0],"split_type":[0,0,0,0,0,0,0,0,0,0,0,0,0,0,0],"sum_hessian":[1.071E3,7.69E2,3.02E2,5.86E2,1.83E2,1.7E1,2.85E2,4.9E2,9.6E1,1.4E1,1.69E2,1E1,7E0,1.62E2,1.23E2],"tree_param":{"num_deleted":"0","num_feature":"8","num_nodes":"15","size_leaf_vector":"1"}},{"base_weights":[1.2332613E-3,4.2915385E-2,-2.6427487E-2,-2.4051212E-3,2.3709589E-1,-7.335627E-2,1.2843791E-2,-6.0442514E-3,5.3902496E-2,2.0594982E-2,2.0571508E-1,-1.7143326E-2,-3.5255402E-2,1.0961473E-2,-3.163337E-2],"categories":[],"categories_nodes":[],"categories_segments":[],"categories_sizes":[],"default_left":[0,0,0,0,0,0,0,0,0,0,0,0,0,0,0],"id":7,"left_children":[1,3,5,7,9,11,13,-1,-1,-1,-1,-1,-1,-1,-1],"loss_changes":[1.237106E0,3.767124E0,1.189647E0,1.1278461E0,6.073965E0,2.0377207E-1,9.9043036E-1,0E0,0E0,0E0,0E0,0E0,0E0,0E0,0E0],"parents":[2147483647,0,0,1,1,2,2,3,3,4,4,5,5,6,6],"right_children":[2,4,6,8,10,12,14,-1,-1,-1,-1,-1,-1,-1,-1],"split_conditions":[-2.5881904E-1,-5E-1,-2.4492937E-16,1.3639702E0,9.864493E-1,8.481714E-1,5.864953E-1,-6.0442514E-3,5.3902496E-2,2.0594982E-2,2.0571508E-1,-1.7143326E-2,-3.5255402E-2,1.0961473E-2,-3.163337E-2],"split_indices":[2,2,1,0,5,5,5,0,0,0,0,0,0,0,0],"split_type":[0,0,0,0,0,0,0,0,0,0,0,0,0,0,0],"sum_hessian":[1.071E3,4.27E2,6.44E2,3.47E2,8E1,2.93E2,3.51E2,3.17E2,3E1,5.9E1,2.1E1,2.16E2,7.7E1,2.93E2,5.8E1],"tree_param":{"num_deleted":"0","num_feature":"8","num_nodes":"15","size_leaf_vector":"1"}},{"base_weights":[1.0508797E-3,-1.8014265E-2,3.9445985E-2,-9.014718E-3,-1.35361E-1,6.473366E-1,2.717547E-2,-6.3211224E-3,3.3920243E-1,-2.8750775E-2,-1.0074865E-1,9.900386E-1,-1.0344504E-1,-1.141232E-3,4.1674517E-2],"categories":[],"categories_nodes":[],"categories_segments":[],"categories_sizes":[],"default_left":[0,0,0,0,0,0,0,0,0,0,0,0,0,0,0],"id":8,"left_children":[1,3,5,7,9,11,13,-1,-1,-1,-1,-1,-1,-1,-1],"loss_changes":[7.854234E-1,7.559801E-1,2.637859E0,9.188231E0,3.719144E-1,1.9561775E1,1.2121041E0,0E0,0E0,0E0,0E0,0E0,0E0,0E0,0E0],"parents":[2147483647,0,0,1,1,2,2,3,3,4,4,5,5,6,6],"right_children":[2,4,6,8,10,12,14,-1,-1,-1,-1,-1,-1,-1,-1],"split_conditions":[6.3176215E2,1.0026563E0,4.1866732E-1,9.681966E-1,2.5881904E-1,5E-1,8.660254E-1,-6.3211224E-3,3.3920243E-1,-2.8750775E-2,-1.0074865E-1,9.900386E-1,-1.0344504E-1,-1.141232E-3,4.1674517E-2],"split_indices":[7,5,5,5,1,1,1,0,0,0,0,0,0,0,0],"split_type":[0,0,0,0,0,0,0,0,0,0,0,0,0,0,0],"sum_hessian":[1.071E3,7.16E2,3.55E2,6.66E2,5E1,6E0,3.49E2,6.6E2,6E0,4.3E1,7E0,1E0,5E0,2.74E2,7.5E1],"tree_param":{"num_deleted":"0","num_feature":"8","num_nodes":"15","size_leaf_vector":"1"}},{"base_weights":[1.7902046E-3,3.2473803E-2,-1.8573161E-2,-6.29869E-3,1.533256E-1,7.8172685E-4,-6.492714E-2,1.0624665E-2,-2.9749226E-2,2.0589072E-2,1.8445823E-1,-3.464734E-3,1.1727267E-1,-5.6303155E-2,-1.406929E-2],"categories":[],"categories_nodes":[],"categories_segments":[],"categories_sizes":[],"default_left":[0,0,0,0,0,0,0,0,0,0,0,0,0,0,0],"id":9,"left_children":[1,3,5,7,9,11,13,-1,-1,-1,-1,-1,-1,-1,-1],"loss_changes":[6.7041165E-1,2.0064564E0,5.7872933E-1,1.2624998E0,4.0231495E0,2.1981459E0,4.1169167E-1,0E0,0E0,0E0,0E0,0E0,0E0,0E0,0E0],"parents":[2147483647,0,0,1,1,2,2,3,3,4,4,5,5,6,6],"right_children":[2,4,6,8,10,12,14,-1,-1,-1,-1,-1,-1,-1,-1],"split_conditions":[-2.5881904E-1,2E0,5.958756E-1,9.728313E-1,8.660254E-1,5.561253E-1,3.5007867E-1,1.0624665E-2,-2.9749226E-2,2.0589072E-2,1.8445823E-1,-3.464734E-3,1.1727267E-1,-5.6303155E-2,-1.406929E-2],"split_indices":[2,6,5,5,1,5,0,0,0,0,0,0,0,0,0],"split_type":[0,0,0,0,0,0,0,0,0,0,0,0,0,0,0],"sum_hessian":[1.071E3,4.27E2,6.44E2,3.24E2,1.03E2,4.55E2,1.89E2,2.24E2,1E2,8.8E1,1.5E1,4.42E2,1.3E1,2.3E1,1.66E2],"tree_param":{"num_deleted":"0","num_feature":"8","num_nodes":"15","size_leaf_vector":"1"}},{"base_weights":[1.4671012E-3,-1.5412338E-2,3.545893E-2,-2.3926453E-1,-1.2228815E-2,5.827615E-1,2.4411565E-2,-4.207895E-2,-9.3063995E-2,1.302464E-1,-5.3851684E-3,8.4205246E-1,-7.67176E-2,2.540245E-2,-8.938336E-3],"categories":[],"categories_nodes":[],"categories_segments":[],"categories_sizes":[],"default_left":[0,0,0,0,0,0,0,0,0,0,0,0,0,0,0],"id":10,"left_children":[1,3,5,7,9,11,13,-1,-1,-1,-1,-1,-1,-1,-1],"loss_changes":[6.1562043E-1,5.08036E-1,2.1382391E0,2.672875E-2,1.816091E0,1.3771812E1,1.145844E0,0E0,0E0,0E0,0E0,0E0,0E0,0E0,0E0],"parents":[2147483647,0,0,1,1,2,2,3,3,4,4,5,5,6,6],"right_children":[2,4,6,8,10,12,14,-1,-1,-1,-1,-1,-1,-1,-1],"split_conditions":[6.3176215E2,1.8347795E-1,4.1866732E-1,4.3388373E-1,1.8457589E-1,5E-1,-1.8369701E-16,-4.207895E-2,-9.3063995E-2,1.302464E-1,-5.3851684E-3,8.4205246E-1,-7.67176E-2,2.540245E-2,-8.938336E-3],"split_indices":[7,5,5,3,5,1,2,0,0,0,0,0,0,0,0],"split_type":[0,0,0,0,0,0,0,0,0,0,0,0,0,0,0],"sum_hessian":[1.071E3,7.16E2,3.55E2,9E0,7.07E2,6E0,3.49E2,5E0,4E0,8E0,6.99E2,1E0,5E0,1.65E2,1.84E2],"tree_param":{"num_deleted":"0","num_feature":"8","num_nodes":"15","size_leaf_vector":"1"}},{"base_weights":[1.7466666E-3,-1.9597939E-1,4.3589594E-3,-7.0518844E-2,-7.8616664E-2,7.5982744E-1,7.744085E-4,-2.9379282E-2,-2.039373E-4,-6.946635E-2,7.088033E-1,-2.9305333E-2,2.1377436E-3],"categories":[],"categories_nodes":[],"categories_segments":[],"categories_sizes":[],"default_left":[0,0,0,0,0,0,0,0,0,0,0,0,0],"id":11,"left_children":[1,3,5,-1,7,9,11,-1,-1,-1,-1,-1,-1],"loss_changes":[5.54562E-1,4.5737267E-2,2.8672E0,0E0,7.4598957E-3,8.492271E0,6.6044235E-1,0E0,0E0,0E0,0E0,0E0,0E0],"parents":[2147483647,0,0,1,1,2,2,4,4,5,5,6,6],"right_children":[2,4,6,-1,8,10,12,-1,-1,-1,-1,-1,-1],"split_conditions":[1.8373084E-1,1E0,1.8457589E-1,-7.0518844E-2,1.8347795E-1,-2.4492937E-16,2.0805341E-1,-2.9379282E-2,-2.039373E-4,-6.946635E-2,7.088033E-1,-2.9305333E-2,2.1377436E-3],"split_indices":[5,4,5,0,5,3,5,0,0,0,0,0,0],"split_type":[0,0,0,0,0,0,0,0,0,0,0,0,0],"sum_hessian":[1.071E3,1.3E1,1.058E3,9E0,4E0,4E0,1.054E3,3E0,1E0,3E0,1E0,6.3E1,9.91E2],"tree_param":{"num_deleted":"0","num_feature":"8","num_nodes":"13","size_leaf_vector":"1"}},{"base_weights":[1.7003482E-3,-4.9462747E-2,1.09957345E-2,-2.3795167E-2,-1.2406554E-1,-4.6759965E-3,5.5385638E-2,-9.19782E-3,3.4893397E-2,-6.1232336E-2,-2.0087548E-2,6.8919645E-3,-1.2553935E-2,3.9380774E-2,-2.0341264E-2],"categories":[],"categories_nodes":[],"categories_segments":[],"categories_sizes":[],"default_left":[0,0,0,0,0,0,0,0,0,0,0,0,0,0,0],"id":12,"left_children":[1,3,5,7,9,11,13,-1,-1,-1,-1,-1,-1,-1,-1],"loss_changes":[5.1036644E-1,3.1300196E-1,6.3192433E-1,1.2281976E-1,1.7831427E-1,6.915983E-1,2.2243984E0,0E0,0E0,0E0,0E0,0E0,0E0,0E0,0E0],"parents":[2147483647,0,0,1,1,2,2,3,3,4,4,5,5,6,6],"right_children":[2,4,6,8,10,12,14,-1,-1,-1,-1,-1,-1,-1,-1],"split_conditions":[1E0,2.5881904E-1,8.4246135E-1,1.4082537E0,5E-1,4.2674518E-1,-1.8369701E-16,-9.19782E-3,3.4893397E-2,-6.1232336E-2,-2.0087548E-2,6.8919645E-3,-1.2553935E-2,3.9380774E-2,-2.0341264E-2],"split_indices":[6,1,5,5,1,0,2,0,0,0,0,0,0,0,0],"split_type":[0,0,0,0,0,0,0,0,0,0,0,0,0,0,0],"sum_hessian":[1.071E3,1.64E2,9.07E2,1.23E2,4.1E1,6.71E2,2.36E2,1.18E2,5E0,1.6E1,2.5E1,3.85E2,2.86E2,1.46E2,9E1],"tree_param":{"num_deleted":"0","num_feature":"8","num_nodes":"15","size_leaf_vector":"1"}},{"base_weights":[1.1508341E-3,8.2583325E-3,-5.3253733E-2,2.0508927E-3,1.1798127E0,-1.13524415E-1,-3.2810703E-2,1.8274296E-3,-3.191728E-2,9.682729E-1,-4.1706666E-2,-4.2914957E-2,-1.4051183E-2,4.6933502E-2,-1.2888105E-2],"categories":[],"categories_nodes":[],"categories_segments":[],"categories_sizes":[],"default_left":[0,0,0,0,0,0,0,0,0,0,0,0,0,0,0],"id":13,"left_children":[1,3,5,7,9,11,13,-1,-1,-1,-1,-1,-1,-1,-1],"loss_changes":[4.1496113E-1,6.899043E0,1.4905751E-1,4.1471252E-1,1.3952016E1,5.433789E-2,1.8728343E-1,0E0,0E0,0E0,0E0,0E0,0E0,0E0,0E0],"parents":[2147483647,0,0,1,1,2,2,3,3,4,4,5,5,6,6],"right_children":[2,4,6,8,10,12,14,-1,-1,-1,-1,-1,-1,-1,-1],"split_conditions":[1.1096694E0,1.1032522E0,1.1516324E0,1.0026563E0,6.2408745E-1,2E0,1.1606803E0,1.8274296E-3,-3.191728E-2,9.682729E-1,-4.1706666E-2,-4.2914957E-2,-1.4051183E-2,4.6933502E-2,-1.2888105E-2],"split_indices":[5,5,5,5,0,6,5,0,0,0,0,0,0,0,0],"split_type":[0,0,0,0,0,0,0,0,0,0,0,0,0,0,0],"sum_hessian":[1.071E3,9.48E2,1.23E2,9.44E2,4E0,3E1,9.3E1,9.11E2,3.3E1,1E0,3E0,2E1,1E1,4E0,8.9E1],"tree_param":{"num_deleted":"0","num_feature":"8","num_nodes":"15","size_leaf_vector":"1"}},{"base_weights":[1.6204717E-3,-1.5243228E-1,3.6555217E-3,-9.065445E-2,-6.59081E-2,6.527711E-1,5.756797E-4,-1.236603E-2,-3.2550484E-2,-5.579828E-2,6.011749E-1,-2.3150625E-2,1.6772609E-3],"categories":[],"categories_nodes":[],"categories_segments":[],"categories_sizes":[],"default_left":[0,0,0,0,0,0,0,0,0,0,0,0,0],"id":14,"left_children":[1,3,5,7,-1,9,11,-1,-1,-1,-1,-1,-1],"loss_changes":[3.3663464E-1,3.825748E-2,2.1167486E0,3.4679174E-3,0E0,6.0391855E0,4.1177914E-1,0E0,0E0,0E0,0E0,0E0,0E0],"parents":[2147483647,0,0,1,1,2,2,3,3,5,5,6,6],"right_children":[2,4,6,8,-1,10,12,-1,-1,-1,-1,-1,-1],"split_conditions":[1.8373084E-1,4.3388373E-1,1.8457589E-1,1.8256311E-1,-6.59081E-2,-2.4492937E-16,2.0805341E-1,-1.236603E-2,-3.2550484E-2,-5.579828E-2,6.011749E-1,-2.3150625E-2,1.6772609E-3],"split_indices":[5,3,5,5,0,3,5,0,0,0,0,0,0],"split_type":[0,0,0,0,0,0,0,0,0,0,0,0,0],"sum_hessian":[1.071E3,1.3E1,1.058E3,8E0,5E0,4E0,1.054E3,3E0,5E0,3E0,1E0,6.3E1,9.91E2],"tree_param":{"num_deleted":"0","num_feature":"8","num_nodes":"13","size_leaf_vector":"1"}},{"base_weights":[1.5196525E-3,7.021702E-2,-2.6947458E-3,-4.205843E-2,9.5838964E-1,-1.7416276E-2,2.4440138E-2,-2.6592933E-2,7.4558996E-2,7.372305E-1,-3.981464E-2,-6.788531E-3,1.9025013E-2,1.5362366E-1,4.385261E-3],"categories":[],"categories_nodes":[],"categories_segments":[],"categories_sizes":[],"default_left":[0,0,0,0,0,0,0,0,0,0,0,0,0,0,0],"id":15,"left_children":[1,3,5,7,9,11,13,-1,-1,-1,-1,-1,-1,-1,-1],"loss_changes":[3.105526E-1,6.222947E0,4.0428677E-1,7.801005E-1,1.1775452E1,2.778173E-1,1.6977123E0,0E0,0E0,0E0,0E0,0E0,0E0,0E0,0E0],"parents":[2147483647,0,0,1,1,2,2,3,3,4,4,5,5,6,6],"right_children":[2,4,6,8,10,12,14,-1,-1,-1,-1,-1,-1,-1,-1],"split_conditions":[1.8901224E-1,2.0805341E-1,6.3176215E2,9.749279E-1,-4.3388373E-1,1.336626E0,4.1866732E-1,-2.6592933E-2,7.4558996E-2,7.372305E-1,-3.981464E-2,-6.788531E-3,1.9025013E-2,1.5362366E-1,4.385261E-3],"split_indices":[0,5,7,3,3,0,5,0,0,0,0,0,0,0,0],"split_type":[0,0,0,0,0,0,0,0,0,0,0,0,0,0,0],"sum_hessian":[1.071E3,6.1E1,1.01E3,5.5E1,6E0,6.55E2,3.55E2,4.8E1,7E0,2E0,4E0,6.16E2,3.9E1,6E0,3.49E2],"tree_param":{"num_deleted":"0","num_feature":"8","num_nodes":"15","size_leaf_vector":"1"}},{"base_weights":[1.9178964E-3,5.0516995E-3,-9.107655E-2,1.002353E-3,4.6791562E-1,-5.376226E-2,-7.392392E-2,-1.3316623E-2,2.4047268E-3,-1.8423455E-2,7.0537996E-1,-2.777023E-2,-2.6258794E-3],"categories":[],"categories_nodes":[],"categories_segments":[],"categories_sizes":[],"default_left":[0,0,0,0,0,0,0,0,0,0,0,0,0],"id":16,"left_children":[1,3,5,7,9,-1,11,-1,-1,-1,-1,-1,-1],"loss_changes":[3.1286907E-1,1.9450508E0,3.966099E-2,3.2825223E-1,9.116573E0,0E0,3.685525E-2,0E0,0E0,0E0,0E0,0E0,0E0],"parents":[2147483647,0,0,1,1,2,2,3,3,4,4,6,6],"right_children":[2,4,6,8,10,-1,12,-1,-1,-1,-1,-1,-1],"split_conditions":[1.4641792E0,1.4172889E0,1.4907396E0,-8.660254E-1,9.749279E-1,-5.376226E-2,9.2448133E-1,-1.3316623E-2,2.4047268E-3,-1.8423455E-2,7.0537996E-1,-2.777023E-2,-2.6258794E-3],"split_indices":[0,0,0,2,3,0,5,0,0,0,0,0,0],"split_type":[0,0,0,0,0,0,0,0,0,0,0,0,0],"sum_hessian":[1.071E3,1.037E3,3.4E1,1.029E3,8E0,4E0,3E1,1.37E2,8.92E2,7E0,1E0,2.3E1,7E0],"tree_param":{"num_deleted":"0","num_feature":"8","num_nodes":"13","size_leaf_vector":"1"}},{"base_weights":[1.8946584E-3,-3.1856257E-2,8.9239655E-3,-1.382648E-2,-7.8957506E-2,6.313012E-2,-3.5340502E-3,-6.568162E-3,4.1045777E-2,-3.7252795E-2,-2.5339692E-3,1.1890203E-1,-4.7481863E-4,7.77698E-3,-7.1346024E-3],"categories":[],"categories_nodes":[],"categories_segments":[],"categories_sizes":[],"default_left":[0,0,0,0,0,0,0,0,0,0,0,0,0,0,0],"id":17,"left_children":[1,3,5,7,9,11,13,-1,-1,-1,-1,-1,-1,-1,-1],"loss_changes":[2.5461152E-1,1.5601493E-1,5.9989053E-1,1.6706347E-1,1.6155934E-1,3.5800793E0,4.318502E-1,0E0,0E0,0E0,0E0,0E0,0E0,0E0,0E0],"parents":[2147483647,0,0,1,1,2,2,3,3,4,4,5,5,6,6],"right_children":[2,4,6,8,10,12,14,-1,-1,-1,-1,-1,-1,-1,-1],"split_conditions":[-7.818315E-1,8.2684505E-1,-4.3388373E-1,7.9678035E-1,-1.8369701E-16,3.487769E-1,-2.5881904E-1,-6.568162E-3,4.1045777E-2,-3.7252795E-2,-2.5339692E-3,1.1890203E-1,-4.7481863E-4,7.77698E-3,-7.1346024E-3],"split_indices":[3,5,3,5,2,0,2,0,0,0,0,0,0,0,0],"split_type":[0,0,0,0,0,0,0,0,0,0,0,0,0,0,0],"sum_hessian":[1.071E3,1.84E2,8.87E2,1.34E2,5E1,1.65E2,7.22E2,1.28E2,6E0,3E1,2E1,2.6E1,1.39E2,2.94E2,4.28E2],"tree_param":{"num_deleted":"0","num_feature":"8","num_nodes":"15","size_leaf_vector":"1"}},{"base_weights":[1.432382E-3,-8.362521E-3,2.1155734E-2,2.2344103E-2,-2.0367125E-2,3.8350412E-1,1.38483215E-2,2.4020864E-4,7.702199E-2,-1.119805E-3,-4.197523E-2,6.9153035E-1,-9.6283674E-2,-5.4486725E-3,1.7453082E-2],"categories":[],"categories_nodes":[],"categories_segments":[],"categories_sizes":[],"default_left":[0,0,0,0,0,0,0,0,0,0,0,0,0,0,0],"id":18,"left_children":[1,3,5,7,9,11,13,-1,-1,-1,-1,-1,-1,-1,-1],"loss_changes":[2.072748E-1,2.6475626E-1,9.3731636E-1,1.019831E0,1.0256226E0,1.0215491E1,4.9770102E-1,0E0,0E0,0E0,0E0,0E0,0E0,0E0,0E0],"parents":[2147483647,0,0,1,1,2,2,3,3,4,4,5,5,6,6],"right_children":[2,4,6,8,10,12,14,-1,-1,-1,-1,-1,-1,-1,-1],"split_conditions":[6.3176215E2,3.487769E-1,4.1866732E-1,3.4860697E-1,8.660254E-1,5E-1,6.234898E-1,2.4020864E-4,7.702199E-2,-1.119805E-3,-4.197523E-2,6.9153035E-1,-9.6283674E-2,-5.4486725E-3,1.7453082E-2],"split_indices":[7,0,5,0,1,1,4,0,0,0,0,0,0,0,0],"split_type":[0,0,0,0,0,0,0,0,0,0,0,0,0,0,0],"sum_hessian":[1.071E3,7.16E2,3.55E2,2.01E2,5.15E2,6E0,3.49E2,1.85E2,1.6E1,4.53E2,6.2E1,1E0,5E0,2.03E2,1.46E2],"tree_param":{"num_deleted":"0","num_feature":"8","num_nodes":"15","size_leaf_vector":"1"}},{"base_weights":[1.6010057E-3,6.890554E-3,-3.8894013E-2,1.5574233E-3,1.0134741E0,-5.1447257E-2,5.5756047E-2,-1.9637975E-3,1.0953518E-2,8.1797737E-1,-2.8935865E-2,-1.9024177E-5,-2.17581E-2,2.4233473E-2,-9.974867E-3],"categories":[],"categories_nodes":[],"categories_segments":[],"categories_sizes":[],"default_left":[0,0,0,0,0,0,0,0,0,0,0,0,0,0,0],"id":19,"left_children":[1,3,5,7,9,11,13,-1,-1,-1,-1,-1,-1,-1,-1],"loss_changes":[2.2989078E-1,5.092883E0,1.50201E-1,2.679095E-1,9.770161E0,1.1914277E-1,3.6092583E-2,0E0,0E0,0E0,0E0,0E0,0E0,0E0,0E0],"parents":[2147483647,0,0,1,1,2,2,3,3,4,4,5,5,6,6],"right_children":[2,4,6,8,10,12,14,-1,-1,-1,-1,-1,-1,-1,-1],"split_conditions":[1.1096694E0,1.1032522E0,1.5771058E0,7.6065475E-1,6.2408745E-1,-4.3388373E-1,9.912532E-1,-1.9637975E-3,1.0953518E-2,8.1797737E-1,-2.8935865E-2,-1.9024177E-5,-2.17581E-2,2.4233473E-2,-9.974867E-3],"split_indices":[5,5,5,0,0,3,0,0,0,0,0,0,0,0,0],"split_type":[0,0,0,0,0,0,0,0,0,0,0,0,0,0,0],"sum_hessian":[1.071E3,9.48E2,1.23E2,9.44E2,4E0,1.09E2,1.4E1,7.67E2,1.77E2,1E0,3E0,3.2E1,7.7E1,1.1E1,3E0],"tree_param":{"num_deleted":"0","num_feature":"8","num_nodes":"15","size_leaf_vector":"1"}},{"base_weights":[1.8581196E-3,4.189556E-3,-6.733871E-2,7.8930345E-4,3.9286408E-1,-9.671776E-2,-1.6361741E-2,1.9389332E-3,-1.0000831E-2,-1.664121E-2,5.9693134E-1,1.1254929E-2,-3.146891E-2,-2.0426663E-2,9.283415E-3],"categories":[],"categories_nodes":[],"categories_segments":[],"categories_sizes":[],"default_left":[0,0,0,0,0,0,0,0,0,0,0,0,0,0,0],"id":20,"left_children":[1,3,5,7,9,11,13,-1,-1,-1,-1,-1,-1,-1,-1],"loss_changes":[1.7322576E-1,1.3715019E0,5.0835446E-2,1.9964506E-1,6.5539145E0,2.8087988E-2,3.6365375E-2,0E0,0E0,0E0,0E0,0E0,0E0,0E0,0E0],"parents":[2147483647,0,0,1,1,2,2,3,3,4,4,5,5,6,6],"right_children":[2,4,6,8,10,12,14,-1,-1,-1,-1,-1,-1,-1,-1],"split_conditions":[1.4641792E0,1.4172889E0,-2.5881904E-1,8.884564E-1,9.749279E-1,1E0,6.1006594E-1,1.9389332E-3,-1.0000831E-2,-1.664121E-2,5.9693134E-1,1.1254929E-2,-3.146891E-2,-2.0426663E-2,9.283415E-3],"split_indices":[0,0,2,0,3,6,5,0,0,0,0,0,0,0,0],"split_type":[0,0,0,0,0,0,0,0,0,0,0,0,0,0,0],"sum_hessian":[1.071E3,1.037E3,3.4E1,1.029E3,8E0,2.1E1,1.3E1,8.83E2,1.46E2,7E0,1E0,1E0,2E1,6E0,7E0],"tree_param":{"num_deleted":"0","num_feature":"8","num_nodes":"15","size_leaf_vector":"1"}},{"base_weights":[1.8052227E-3,-6.3910233E-3,2.262801E-2,6.6430545E-3,-4.8236087E-2,3.4690005E-1,2.1401597E-3,8.0807945E-3,-6.3278526E-3,1.23430036E-1,-1.9037873E-2,-4.763121E-2,2.9965046E-1,-1.3246387E-2,2.0243855E-2],"categories":[],"categories_nodes":[],"categories_segments":[],"categories_sizes":[],"default_left":[0,0,0,0,0,0,0,0,0,0,0,0,0,0,0],"id":21,"left_children":[1,3,5,7,9,11,13,-1,-1,-1,-1,-1,-1,-1,-1],"loss_changes":[1.8310145E-1,4.2028752E-1,2.0122793E0,3.315195E-1,1.306702E0,6.0925436E0,8.680927E-1,0E0,0E0,0E0,0E0,0E0,0E0,0E0,0E0],"parents":[2147483647,0,0,1,1,2,2,3,3,4,4,5,5,6,6],"right_children":[2,4,6,8,10,12,14,-1,-1,-1,-1,-1,-1,-1,-1],"split_conditions":[8.4246135E-1,7.818315E-1,8.576125E-1,4.359811E-1,1.8457589E-1,7.818315E-1,2E0,8.0807945E-3,-6.3278526E-3,1.23430036E-1,-1.9037873E-2,-4.763121E-2,2.9965046E-1,-1.3246387E-2,2.0243855E-2],"split_indices":[5,3,5,0,5,3,6,0,0,0,0,0,0,0,0],"split_type":[0,0,0,0,0,0,0,0,0,0,0,0,0,0,0],"sum_hessian":[1.071E3,7.69E2,3.02E2,5.87E2,1.82E2,1.7E1,2.85E2,3.39E2,2.48E2,5E0,1.77E2,1E1,7E0,1.67E2,1.18E2],"tree_param":{"num_deleted":"0","num_feature":"8","num_nodes":"15","size_leaf_vector":"1"}},{"base_weights":[1.6042938E-3,-1.4250235E-1,3.5078714E-3,-6.3329995E-2,-8.1703976E-2,5.158156E-1,1.0765478E-3,-4.445149E-3,-2.4601342E-2,-4.755791E-2,4.8197752E-1,-3.607651E-2,9.182175E-4],"categories":[],"categories_nodes":[],"categories_segments":[],"categories_sizes":[],"default_left":[0,0,0,0,0,0,0,0,0,0,0,0,0],"id":22,"left_children":[1,3,5,7,-1,9,11,-1,-1,-1,-1,-1,-1],"loss_changes":[2.9456893E-1,1.2667331E-1,1.3185203E0,7.844444E-3,0E0,3.9324677E0,2.543523E-1,0E0,0E0,0E0,0E0,0E0,0E0],"parents":[2147483647,0,0,1,1,2,2,3,3,5,5,6,6],"right_children":[2,4,6,8,-1,10,12,-1,-1,-1,-1,-1,-1],"split_conditions":[1.8373084E-1,7.818315E-1,1.8457589E-1,1.8256311E-1,-8.1703976E-2,-2.4492937E-16,1.8733284E-1,-4.445149E-3,-2.4601342E-2,-4.755791E-2,4.8197752E-1,-3.607651E-2,9.182175E-4],"split_indices":[5,3,5,5,0,3,5,0,0,0,0,0,0],"split_type":[0,0,0,0,0,0,0,0,0,0,0,0,0],"sum_hessian":[1.071E3,1.3E1,1.058E3,9E0,4E0,4E0,1.054E3,3E0,6E0,3E0,1E0,1.6E1,1.038E3],"tree_param":{"num_deleted":"0","num_feature":"8","num_nodes":"13","size_leaf_vector":"1"}},{"base_weights":[1.3921395E-3,-1.07662395E-1,2.832528E-3,-4.7235653E-2,-6.2095024E-2,4.4795483E-1,7.2025857E-4,-2.0655544E-2,-3.554739E-3,-3.685738E-2,4.096809E-1,4.973597E-3,-3.0266524E-3],"categories":[],"categories_nodes":[],"categories_segments":[],"categories_sizes":[],"default_left":[0,0,0,0,0,0,0,0,0,0,0,0,0],"id":23,"left_children":[1,3,5,7,-1,9,11,-1,-1,-1,-1,-1,-1],"loss_changes":[1.6869566E-1,7.4246064E-2,9.953684E-1,6.8333726E-3,0E0,2.7868018E0,1.8101008E-1,0E0,0E0,0E0,0E0,0E0,0E0],"parents":[2147483647,0,0,1,1,2,2,3,3,5,5,6,6],"right_children":[2,4,6,8,-1,10,12,-1,-1,-1,-1,-1,-1],"split_conditions":[1.8373084E-1,7.818315E-1,1.8457589E-1,1E0,-6.2095024E-2,-2.4492937E-16,-2.5881904E-1,-2.0655544E-2,-3.554739E-3,-3.685738E-2,4.096809E-1,4.973597E-3,-3.0266524E-3],"split_indices":[5,3,5,4,0,3,2,0,0,0,0,0,0],"split_type":[0,0,0,0,0,0,0,0,0,0,0,0,0],"sum_hessian":[1.071E3,1.3E1,1.058E3,9E0,4E0,4E0,1.054E3,5E0,4E0,3E0,1E0,4.27E2,6.27E2],"tree_param":{"num_deleted":"0","num_feature":"8","num_nodes":"13","size_leaf_vector":"1"}},{"base_weights":[1.2435905E-3,4.9571134E-2,-1.7213466E-3,-4.0466435E-2,7.6279014E-1,-3.9430007E-2,4.1847196E-3,8.160321E-3,-3.7638657E-2,-5.2356035E-2,6.2121314E-1,-6.3796877E-3,-4.9919482E-2,2.0129059E-2,2.796392E-4],"categories":[],"categories_nodes":[],"categories_segments":[],"categories_sizes":[],"default_left":[0,0,0,0,0,0,0,0,0,0,0,0,0,0,0],"id":24,"left_children":[1,3,5,7,9,11,13,-1,-1,-1,-1,-1,-1,-1,-1],"loss_changes":[1.5369019E-1,4.012291E0,2.2532468E-1,3.254939E-1,8.942871E0,3.1242457E-1,1.7898637E-1,0E0,0E0,0E0,0E0,0E0,0E0,0E0,0E0],"parents":[2147483647,0,0,1,1,2,2,3,3,4,4,5,5,6,6],"right_children":[2,4,6,8,10,12,14,-1,-1,-1,-1,-1,-1,-1,-1],"split_conditions":[1.8901224E-1,2.0805341E-1,3.487225E-1,1.8733284E-1,6.234898E-1,2E0,3.6137322E-1,8.160321E-3,-3.7638657E-2,-5.2356035E-2,6.2121314E-1,-6.3796877E-3,-4.9919482E-2,2.0129059E-2,2.796392E-4],"split_indices":[0,5,5,0,4,6,5,0,0,0,0,0,0,0,0],"split_type":[0,0,0,0,0,0,0,0,0,0,0,0,0,0,0],"sum_hessian":[1.071E3,6.1E1,1.01E3,5.5E1,6E0,1.36E2,8.74E2,3.1E1,2.4E1,4E0,2E0,1.2E2,1.6E1,4.2E1,8.32E2],"tree_param":{"num_deleted":"0","num_feature":"8","num_nodes":"15","size_leaf_vector":"1"}},{"base_weights":[1.340174E-3,4.3399464E-2,-1.2404553E-3,-2.8852893E-2,6.152184E-1,-1.0642879E-2,1.6088843E-2,8.5497E-3,-2.7452579E-2,5.199468E-1,-5.357635E-2,-1.7637621E-3,-2.0111347E-2,1.06842436E-1,2.772547E-3],"categories":[],"categories_nodes":[],"categories_segments":[],"categories_sizes":[],"default_left":[0,0,0,0,0,0,0,0,0,0,0,0,0,0,0],"id":25,"left_children":[1,3,5,7,9,11,13,-1,-1,-1,-1,-1,-1,-1,-1],"loss_changes":[1.16408125E-1,2.5792973E0,1.6490093E-1,2.0383954E-1,6.5215006E0,1.7583832E-1,8.256001E-1,0E0,0E0,0E0,0E0,0E0,0E0,0E0,0E0],"parents":[2147483647,0,0,1,1,2,2,3,3,4,4,5,5,6,6],"right_children":[2,4,6,8,10,12,14,-1,-1,-1,-1,-1,-1,-1,-1],"split_conditions":[1.8901224E-1,2.0805341E-1,6.3176215E2,6.234898E-1,-4.3388373E-1,1.0026563E0,4.1866732E-1,8.5497E-3,-2.7452579E-2,5.199468E-1,-5.357635E-2,-1.7637621E-3,-2.0111347E-2,1.06842436E-1,2.772547E-3],"split_indices":[0,5,7,4,3,5,5,0,0,0,0,0,0,0,0],"split_type":[0,0,0,0,0,0,0,0,0,0,0,0,0,0,0],"sum_hessian":[1.071E3,6.1E1,1.01E3,5.5E1,6E0,6.55E2,3.55E2,2.9E1,2.6E1,2E0,4E0,6.05E2,5E1,6E0,3.49E2],"tree_param":{"num_deleted":"0","num_feature":"8","num_nodes":"15","size_leaf_vector":"1"}},{"base_weights":[1.4373771E-3,-1.9830577E-2,5.8665825E-3,-9.894268E-2,-1.4260602E-2,6.89866E-2,2.0181483E-3,2.6169373E-3,-1.9249E-1,6.666138E-4,-1.4709473E-2,-8.12537E-3,2.3821035E-1,-8.202482E-3,3.3794066E-3],"categories":[],"categories_nodes":[],"categories_segments":[],"categories_sizes":[],"default_left":[0,0,0,0,0,0,0,0,0,0,0,0,0,0,0],"id":26,"left_children":[1,3,5,7,9,11,13,-1,-1,-1,-1,-1,-1,-1,-1],"loss_changes":[1.0109889E-1,8.010972E-2,2.1556774E-1,7.0674765E-1,9.983144E-2,3.5739722E0,2.2780499E-1,0E0,0E0,0E0,0E0,0E0,0E0,0E0,0E0],"parents":[2147483647,0,0,1,1,2,2,3,3,4,4,5,5,6,6],"right_children":[2,4,6,8,10,12,14,-1,-1,-1,-1,-1,-1,-1,-1],"split_conditions":[-7.818315E-1,1.8901224E-1,1.8901224E-1,2.0805341E-1,7.9834527E-1,2.0805341E-1,4.1695592E-1,2.6169373E-3,-1.9249E-1,6.666138E-4,-1.4709473E-2,-8.12537E-3,2.3821035E-1,-8.202482E-3,3.3794066E-3],"split_indices":[3,0,0,5,5,5,5,0,0,0,0,0,0,0,0],"split_type":[0,0,0,0,0,0,0,0,0,0,0,0,0,0,0],"sum_hessian":[1.071E3,1.84E2,8.87E2,1.1E1,1.73E2,5E1,8.37E2,1E1,1E0,1.18E2,5.5E1,4.5E1,5E0,2E2,6.37E2],"tree_param":{"num_deleted":"0","num_feature":"8","num_nodes":"15","size_leaf_vector":"1"}},{"base_weights":[1.0260728E-3,-3.3915371E-3,2.0911383E-2,-3.5055552E-4,-1.03028685E-1,2.4901783E-1,-8.049844E-3,-5.6632655E-4,7.8220814E-2,-1.6854534E-2,-8.65648E-2,2.986175E-2,5.0821054E-1,-1.08768426E-1,7.272958E-4],"categories":[],"categories_nodes":[],"categories_segments":[],"categories_sizes":[],"default_left":[0,0,0,0,0,0,0,0,0,0,0,0,0,0,0],"id":27,"left_children":[1,3,5,7,9,11,13,-1,-1,-1,-1,-1,-1,-1,-1],"loss_changes":[9.424135E-2,2.6599327E-1,1.2902219E0,3.4283713E-1,2.0975655E-1,4.5833607E0,6.4697784E-1,0E0,0E0,0E0,0E0,0E0,0E0,0E0,0E0],"parents":[2147483647,0,0,1,1,2,2,3,3,4,4,5,5,6,6],"right_children":[2,4,6,8,10,12,14,-1,-1,-1,-1,-1,-1,-1,-1],"split_conditions":[9.627441E-1,9.3327165E-1,9.875659E-1,9.2969424E-1,2.5881904E-1,1.2003145E0,9.939339E-1,-5.6632655E-4,7.8220814E-2,-1.6854534E-2,-8.65648E-2,2.986175E-2,5.0821054E-1,-1.08768426E-1,7.272958E-4],"split_indices":[5,5,5,5,1,0,5,0,0,0,0,0,0,0,0],"split_type":[0,0,0,0,0,0,0,0,0,0,0,0,0,0,0],"sum_hessian":[1.071E3,8.77E2,1.94E2,8.52E2,2.5E1,2.1E1,1.73E2,8.48E2,4E0,2.1E1,4E0,2E1,1E0,4E0,1.69E2],"tree_param":{"num_deleted":"0","num_feature":"8","num_nodes":"15","size_leaf_vector":"1"}},{"base_weights":[1.0953615E-3,5.685397E-3,-2.0379173E-2,-1.6987917E-4,8.6253583E-1,-6.1292514E-2,1.43765565E-2,3.3339406E-3,-9.90457E-3,-5.190224E-2,5.8672446E-1,-3.1180286E-3,-2.5207164E-2,-4.7636754E-3,6.2354747E-2],"categories":[],"categories_nodes":[],"categories_segments":[],"categories_sizes":[],"default_left":[0,0,0,0,0,0,0,0,0,0,0,0,0,0,0],"id":28,"left_children":[1,3,5,7,9,11,13,-1,-1,-1,-1,-1,-1,-1,-1],"loss_changes":[1.057817E-1,4.4352593E0,2.6963407E-1,3.2611954E-1,7.1307716E0,9.978622E-2,6.062218E-1,0E0,0E0,0E0,0E0,0E0,0E0,0E0,0E0],"parents":[2147483647,0,0,1,1,2,2,3,3,4,4,5,5,6,6],"right_children":[2,4,6,8,10,12,14,-1,-1,-1,-1,-1,-1,-1,-1],"split_conditions":[8.884564E-1,8.7865835E-1,-2.5881904E-1,7.818315E-1,4.3388373E-1,8.513043E-1,9.749279E-1,3.3339406E-3,-9.90457E-3,-5.190224E-2,5.8672446E-1,-3.1180286E-3,-2.5207164E-2,-4.7636754E-3,6.2354747E-2],"split_indices":[0,0,1,3,3,5,3,0,0,0,0,0,0,0,0],"split_type":[0,0,0,0,0,0,0,0,0,0,0,0,0,0,0],"sum_hessian":[1.071E3,8.83E2,1.88E2,8.78E2,5E0,8.6E1,1.02E2,6.54E2,2.24E2,3E0,2E0,2.7E1,5.9E1,8.9E1,1.3E1],"tree_param":{"num_deleted":"0","num_feature":"8","num_nodes":"15","size_leaf_vector":"1"}},{"base_weights":[1.2868318E-3,-2.1848839E-2,5.4895836E-3,-6.4585027E-3,-6.676676E-2,-1.190666E-3,3.95265E-2,-7.6493057E-3,8.621305E-3,-2.5928263E-2,8.278496E-3,1.2473254E-3,-2.0946976E-2,8.600421E-2,1.0133925E-3],"categories":[],"categories_nodes":[],"categories_segments":[],"categories_sizes":[],"default_left":[0,0,0,0,0,0,0,0,0,0,0,0,0,0,0],"id":29,"left_children":[1,3,5,7,9,11,13,-1,-1,-1,-1,-1,-1,-1,-1],"loss_changes":[1.0435424E-1,1.1363361E-1,2.0650364E-1,8.382595E-2,8.030443E-2,2.7926785E-1,1.3302362E0,0E0,0E0,0E0,0E0,0E0,0E0,0E0,0E0],"parents":[2147483647,0,0,1,1,2,2,3,3,4,4,5,5,6,6],"right_children":[2,4,6,8,10,12,14,-1,-1,-1,-1,-1,-1,-1,-1],"split_conditions":[1E0,2.5881904E-1,9.627441E-1,7.818315E-1,1.1739028E0,8.873864E-1,9.875659E-1,-7.6493057E-3,8.621305E-3,-2.5928263E-2,8.278496E-3,1.2473254E-3,-2.0946976E-2,8.600421E-2,1.0133925E-3],"split_indices":[6,1,5,3,5,5,5,0,0,0,0,0,0,0,0],"split_type":[0,0,0,0,0,0,0,0,0,0,0,0,0,0,0],"sum_hessian":[1.071E3,1.64E2,9.07E2,1.23E2,4.1E1,7.59E2,1.48E2,8E1,4.3E1,3.4E1,7E0,7.05E2,5.4E1,1.8E1,1.3E2],"tree_param":{"num_deleted":"0","num_feature":"8","num_nodes":"15","size_leaf_vector":"1"}},{"base_weights":[9.480166E-4,4.234231E-3,-2.420977E-2,-3.86461E-4,8.766982E-1,1.7281363E-2,-4.072068E-2,6.041499E-4,-1.9427836E-2,6.8934363E-1,-1.5909985E-2,-3.567015E-2,1.29245045E-2,-6.6803503E-3,-3.5269212E-2],"categories":[],"categories_nodes":[],"categories_segments":[],"categories_sizes":[],"default_left":[0,0,0,0,0,0,0,0,0,0,0,0,0,0,0],"id":30,"left_children":[1,3,5,7,9,11,13,-1,-1,-1,-1,-1,-1,-1,-1],"loss_changes":[8.872891E-2,3.8261254E0,8.565069E-2,1.4614621E-1,6.7281322E0,1.316097E-1,1.23582184E-1,0E0,0E0,0E0,0E0,0E0,0E0,0E0,0E0],"parents":[2147483647,0,0,1,1,2,2,3,3,4,4,5,5,6,6],"right_children":[2,4,6,8,10,12,14,-1,-1,-1,-1,-1,-1,-1,-1],"split_conditions":[1.1096694E0,1.1032522E0,-4.3388373E-1,1.0026563E0,6.2408745E-1,-5E-1,7.0710677E-1,6.041499E-4,-1.9427836E-2,6.8934363E-1,-1.5909985E-2,-3.567015E-2,1.29245045E-2,-6.6803503E-3,-3.5269212E-2],"split_indices":[5,5,3,5,0,1,1,0,0,0,0,0,0,0,0],"split_type":[0,0,0,0,0,0,0,0,0,0,0,0,0,0,0],"sum_hessian":[1.071E3,9.48E2,1.23E2,9.44E2,4E0,3.5E1,8.8E1,9.11E2,3.3E1,1E0,3E0,5E0,3E1,7.2E1,1.6E1],"tree_param":{"num_deleted":"0","num_feature":"8","num_nodes":"15","size_leaf_vector":"1"}},{"base_weights":[1.2139055E-3,-2.7852112E-3,2.1315003E-2,-1.6693966E-4,-2.6052094E-1,7.58206E-1,1.7474438E-5,-6.652384E-4,1.08596586E-1,-9.02798E-2,-4.043193E-2,6.2603617E-1,-2.8690832E-2,-6.1434563E-2,3.7288351E-3],"categories":[],"categories_nodes":[],"categories_segments":[],"categories_sizes":[],"default_left":[0,0,0,0,0,0,0,0,0,0,0,0,0,0,0],"id":31,"left_children":[1,3,5,7,9,11,13,-1,-1,-1,-1,-1,-1,-1,-1],"loss_changes":[8.623384E-2,6.039223E-1,2.7935112E0,6.5949583E-1,5.177498E-3,5.871565E0,4.4484717E-1,0E0,0E0,0E0,0E0,0E0,0E0,0E0,0E0],"parents":[2147483647,0,0,1,1,2,2,3,3,4,4,5,5,6,6],"right_children":[2,4,6,8,10,12,14,-1,-1,-1,-1,-1,-1,-1,-1],"split_conditions":[9.864493E-1,9.728313E-1,9.875659E-1,9.681966E-1,2E0,-4.3388373E-1,9.9725705E-1,-6.652384E-4,1.08596586E-1,-9.02798E-2,-4.043193E-2,6.2603617E-1,-2.8690832E-2,-6.1434563E-2,3.7288351E-3],"split_indices":[5,5,5,5,6,3,5,0,0,0,0,0,0,0,0],"split_type":[0,0,0,0,0,0,0,0,0,0,0,0,0,0,0],"sum_hessian":[1.071E3,8.94E2,1.77E2,8.86E2,8E0,4E0,1.73E2,8.82E2,4E0,5E0,3E0,1E0,3E0,9E0,1.64E2],"tree_param":{"num_deleted":"0","num_feature":"8","num_nodes":"15","size_leaf_vector":"1"}},{"base_weights":[1.3318807E-3,1.9259209E-2,-2.8273067E-3,-8.89168E-4,2.252698E-1,-1.6729395E-1,1.4328033E-3,3.1493127E-3,-2.8606737E-2,7.591669E-1,-1.7757462E-2,-3.4484375E-2,-5.6698624E-2,-3.940566E-3,3.8720109E-3],"categories":[],"categories_nodes":[],"categories_segments":[],"categories_sizes":[],"default_left":[0,0,0,0,0,0,0,0,0,0,0,0,0,0,0],"id":32,"left_children":[1,3,5,7,9,11,13,-1,-1,-1,-1,-1,-1,-1,-1],"loss_changes":[7.998611E-2,8.386577E-1,6.1050236E-1,2.0000176E-1,1.1953554E1,3.2670498E-3,1.4224875E-1,0E0,0E0,0E0,0E0,0E0,0E0,0E0,0E0],"parents":[2147483647,0,0,1,1,2,2,3,3,4,4,5,5,6,6],"right_children":[2,4,6,8,10,12,14,-1,-1,-1,-1,-1,-1,-1,-1],"split_conditions":[3.487769E-1,5.561253E-1,3.514371E-1,3.3876896E-1,5.5933297E-1,6.234898E-1,6.5482944E-1,3.1493127E-3,-2.8606737E-2,7.591669E-1,-1.7757462E-2,-3.4484375E-2,-5.6698624E-2,-3.940566E-3,3.8720109E-3],"split_indices":[0,5,0,0,5,4,5,0,0,0,0,0,0,0,0],"split_type":[0,0,0,0,0,0,0,0,0,0,0,0,0,0,0],"sum_hessian":[1.071E3,2.01E2,8.7E2,1.84E2,1.7E1,2.1E1,8.49E2,1.65E2,1.9E1,1E0,1.6E1,8E0,1.3E1,3.74E2,4.75E2],"tree_param":{"num_deleted":"0","num_feature":"8","num_nodes":"15","size_leaf_vector":"1"}},{"base_weights":[1.5150544E-3,4.9562864E-3,-2.4833692E-2,1.0497799E-3,7.422948E-1,-3.54896E-2,3.5922103E-2,1.5995512E-3,-6.6695833E-3,5.84802E-1,-1.404043E-2,-5.083151E-2,-6.847814E-3,6.1949543E-3,1.3545583E-2],"categories":[],"categories_nodes":[],"categories_segments":[],"categories_sizes":[],"default_left":[0,0,0,0,0,0,0,0,0,0,0,0,0,0,0],"id":33,"left_children":[1,3,5,7,9,11,13,-1,-1,-1,-1,-1,-1,-1,-1],"loss_changes":[9.732363E-2,2.7327375E0,8.155349E-2,9.432905E-2,4.8536053E0,1.7593674E-1,1.7458685E-3,0E0,0E0,0E0,0E0,0E0,0E0,0E0,0E0],"parents":[2147483647,0,0,1,1,2,2,3,3,4,4,5,5,6,6],"right_children":[2,4,6,8,10,12,14,-1,-1,-1,-1,-1,-1,-1,-1],"split_conditions":[1.1096694E0,1.1032522E0,2.5881904E-1,1E0,6.2408745E-1,-5E-1,8.463095E-1,1.5995512E-3,-6.6695833E-3,5.84802E-1,-1.404043E-2,-5.083151E-2,-6.847814E-3,6.1949543E-3,1.3545583E-2],"split_indices":[5,5,2,4,0,1,0,0,0,0,0,0,0,0,0],"split_type":[0,0,0,0,0,0,0,0,0,0,0,0,0,0,0],"sum_hessian":[1.071E3,9.48E2,1.23E2,9.44E2,4E0,1.05E2,1.8E1,7.98E2,1.46E2,1E0,3E0,8E0,9.7E1,8E0,1E1],"tree_param":{"num_deleted":"0","num_feature":"8","num_nodes":"15","size_leaf_vector":"1"}},{"base_weights":[1.5528457E-3,3.0437815E-3,-4.270841E-2,8.2497695E-4,2.5663543E-1,-6.708405E-2,-1.3532384E-3,-7.983722E-3,1.5192289E-3,-1.1516601E-2,3.9252424E-1,-3.2126617E-2,-7.4468316E-3,-1.1353265E-2,1.2163217E-2],"categories":[],"categories_nodes":[],"categories_segments":[],"categories_sizes":[],"default_left":[0,0,0,0,0,0,0,0,0,0,0,0,0,0,0],"id":34,"left_children":[1,3,5,7,9,11,13,-1,-1,-1,-1,-1,-1,-1,-1],"loss_changes":[7.087201E-2,5.8384E-1,3.5191275E-2,1.1993442E-1,2.842929E0,3.4536034E-2,2.2938583E-2,0E0,0E0,0E0,0E0,0E0,0E0,0E0,0E0],"parents":[2147483647,0,0,1,1,2,2,3,3,4,4,5,5,6,6],"right_children":[2,4,6,8,10,12,14,-1,-1,-1,-1,-1,-1,-1,-1],"split_conditions":[1.4641792E0,1.4172889E0,-2.5881904E-1,-8.660254E-1,9.749279E-1,2.2717915E0,6.1794794E-1,-7.983722E-3,1.5192289E-3,-1.1516601E-2,3.9252424E-1,-3.2126617E-2,-7.4468316E-3,-1.1353265E-2,1.2163217E-2],"split_indices":[0,0,2,2,3,0,5,0,0,0,0,0,0,0,0],"split_type":[0,0,0,0,0,0,0,0,0,0,0,0,0,0,0],"sum_hessian":[1.071E3,1.037E3,3.4E1,1.029E3,8E0,2.1E1,1.3E1,1.37E2,8.92E2,7E0,1E0,1E1,1.1E1,7E0,6E0],"tree_param":{"num_deleted":"0","num_feature":"8","num_nodes":"15","size_leaf_vector":"1"}},{"base_weights":[1.4002312E-3,-7.053705E-2,2.3499213E-3,-1.0901505E-1,2.0526344E-2,3.807875E-1,5.541507E-4,-8.698744E-3,-3.761862E-2,2.4815128E-4,1.4898456E-2,-3.0901449E-2,3.4739354E-1,3.283448E-3,-1.9584827E-3],"categories":[],"categories_nodes":[],"categories_segments":[],"categories_sizes":[],"default_left":[0,0,0,0,0,0,0,0,0,0,0,0,0,0,0],"id":35,"left_children":[1,3,5,7,9,11,13,-1,-1,-1,-1,-1,-1,-1,-1],"loss_changes":[7.3402785E-2,5.1292792E-2,7.1947163E-1,9.4714835E-3,2.8286153E-3,1.9992723E0,7.771015E-2,0E0,0E0,0E0,0E0,0E0,0E0,0E0,0E0],"parents":[2147483647,0,0,1,1,2,2,3,3,4,4,5,5,6,6],"right_children":[2,4,6,8,10,12,14,-1,-1,-1,-1,-1,-1,-1,-1],"split_conditions":[1.8373084E-1,1E0,1.8457589E-1,-7.818315E-1,1.8347795E-1,-2.4492937E-16,-2.5881904E-1,-8.698744E-3,-3.761862E-2,2.4815128E-4,1.4898456E-2,-3.0901449E-2,3.4739354E-1,3.283448E-3,-1.9584827E-3],"split_indices":[5,4,5,3,5,3,2,0,0,0,0,0,0,0,0],"split_type":[0,0,0,0,0,0,0,0,0,0,0,0,0,0,0],"sum_hessian":[1.071E3,1.3E1,1.058E3,9E0,4E0,4E0,1.054E3,2E0,7E0,3E0,1E0,3E0,1E0,4.27E2,6.27E2],"tree_param":{"num_deleted":"0","num_feature":"8","num_nodes":"15","size_leaf_vector":"1"}},{"base_weights":[1.247559E-3,1.7150585E-2,-2.4420607E-3,-6.5217493E-4,1.9917057E-1,-1.1972689E-1,5.964196E-4,2.2263331E-3,-2.0288348E-2,6.451179E-1,-1.2630268E-2,-4.09429E-2,-2.2006758E-2,-1.339641E-3,6.0439105E-3],"categories":[],"categories_nodes":[],"categories_segments":[],"categories_sizes":[],"default_left":[0,0,0,0,0,0,0,0,0,0,0,0,0,0,0],"id":36,"left_children":[1,3,5,7,9,11,13,-1,-1,-1,-1,-1,-1,-1,-1],"loss_changes":[6.294268E-2,6.547024E-1,3.1046763E-1,1.0053387E-1,8.564469E0,7.0758164E-3,8.4205694E-2,0E0,0E0,0E0,0E0,0E0,0E0,0E0,0E0],"parents":[2147483647,0,0,1,1,2,2,3,3,4,4,5,5,6,6],"right_children":[2,4,6,8,10,12,14,-1,-1,-1,-1,-1,-1,-1,-1],"split_conditions":[3.487769E-1,5.561253E-1,3.514371E-1,3.3876896E-1,5.5933297E-1,7.13493E-1,9.864493E-1,2.2263331E-3,-2.0288348E-2,6.451179E-1,-1.2630268E-2,-4.09429E-2,-2.2006758E-2,-1.339641E-3,6.0439105E-3],"split_indices":[0,5,0,0,5,5,5,0,0,0,0,0,0,0,0],"split_type":[0,0,0,0,0,0,0,0,0,0,0,0,0,0,0],"sum_hessian":[1.071E3,2.01E2,8.7E2,1.84E2,1.7E1,2.1E1,8.49E2,1.65E2,1.9E1,1E0,1.6E1,1.4E1,7E0,6.75E2,1.74E2],"tree_param":{"num_deleted":"0","num_feature":"8","num_nodes":"15","size_leaf_vector":"1"}},{"base_weights":[1.3921112E-3,4.4911355E-3,-2.2336649E-2,1.1726686E-3,6.3078314E-1,-2.95762E-2,5.4722033E-2,9.6493034E-4,-1.6104849E-2,4.9545467E-1,-1.1183649E-2,-1.15803145E-2,6.210252E-3,2.6415842E-2,-7.6860045E-3],"categories":[],"categories_nodes":[],"categories_segments":[],"categories_sizes":[],"default_left":[0,0,0,0,0,0,0,0,0,0,0,0,0,0,0],"id":37,"left_children":[1,3,5,7,9,11,13,-1,-1,-1,-1,-1,-1,-1,-1],"loss_changes":[7.8930914E-2,1.9715947E0,7.079439E-2,1.06118314E-1,3.471129E0,5.2525744E-2,3.1712398E-2,0E0,0E0,0E0,0E0,0E0,0E0,0E0,0E0],"parents":[2147483647,0,0,1,1,2,2,3,3,4,4,5,5,6,6],"right_children":[2,4,6,8,10,12,14,-1,-1,-1,-1,-1,-1,-1,-1],"split_conditions":[1.1096694E0,1.1032522E0,1.7312521E0,1.0026563E0,6.2408745E-1,2.5881904E-1,9.912532E-1,9.6493034E-4,-1.6104849E-2,4.9545467E-1,-1.1183649E-2,-1.15803145E-2,6.210252E-3,2.6415842E-2,-7.6860045E-3],"split_indices":[5,5,5,5,0,2,0,0,0,0,0,0,0,0,0],"split_type":[0,0,0,0,0,0,0,0,0,0,0,0,0,0,0],"sum_hessian":[1.071E3,9.48E2,1.23E2,9.44E2,4E0,1.13E2,1E1,9.11E2,3.3E1,1E0,3E0,9.6E1,1.7E1,7E0,3E0],"tree_param":{"num_deleted":"0","num_feature":"8","num_nodes":"15","size_leaf_vector":"1"}},{"base_weights":[1.4245602E-3,-3.327078E-2,2.9419395E-3,-1.885911E-2,-1.4479232E-1,-1.3135162E-2,6.2556886E-3,2.5681491E-5,-1.5510699E-2,1.3869032E-3,-5.499057E-2,-2.7614243E-2,-2.1949434E-3,1.0473497E-2,-6.242219E-5],"categories":[],"categories_nodes":[],"categories_segments":[],"categories_sizes":[],"default_left":[0,0,0,0,0,0,0,0,0,0,0,0,0,0,0],"id":38,"left_children":[1,3,5,7,9,11,13,-1,-1,-1,-1,-1,-1,-1,-1],"loss_changes":[5.653438E-2,6.9593854E-2,5.4849356E-2,2.5514845E-2,2.9617026E-2,8.013973E-2,1.5800449E-1,0E0,0E0,0E0,0E0,0E0,0E0,0E0,0E0],"parents":[2147483647,0,0,1,1,2,2,3,3,4,4,5,5,6,6],"right_children":[2,4,6,8,10,12,14,-1,-1,-1,-1,-1,-1,-1,-1],"split_conditions":[-9.659258E-1,9.627441E-1,-7.818315E-1,6.234898E-1,-7.818315E-1,1.8901224E-1,-4.3388373E-1,2.5681491E-5,-1.5510699E-2,1.3869032E-3,-5.499057E-2,-2.7614243E-2,-2.1949434E-3,1.0473497E-2,-6.242219E-5],"split_indices":[1,5,3,4,3,0,3,0,0,0,0,0,0,0,0],"split_type":[0,0,0,0,0,0,0,0,0,0,0,0,0,0,0],"sum_hessian":[1.071E3,4.4E1,1.027E3,4E1,4E0,1.75E2,8.52E2,2.6E1,1.4E1,1E0,3E0,1.1E1,1.64E2,1.56E2,6.96E2],"tree_param":{"num_deleted":"0","num_feature":"8","num_nodes":"15","size_leaf_vector":"1"}},{"base_weights":[9.1465027E-4,-2.1148673E-3,1.6142199E-2,-7.235937E-5,-2.0318037E-1,6.380801E-1,-1.8223529E-3,-3.6516364E-4,6.0636934E-2,-3.593042E-2,-7.378699E-2,5.279673E-1,-2.4703572E-2,-7.22682E-2,1.5659656E-3],"categories":[],"categories_nodes":[],"categories_segments":[],"categories_sizes":[],"default_left":[0,0,0,0,0,0,0,0,0,0,0,0,0,0,0],"id":39,"left_children":[1,3,5,7,9,11,13,-1,-1,-1,-1,-1,-1,-1,-1],"loss_changes":[4.9487773E-2,3.67542E-1,1.9899276E0,2.0557235E-1,2.6548207E-3,4.185823E0,2.9420373E-1,0E0,0E0,0E0,0E0,0E0,0E0,0E0,0E0],"parents":[2147483647,0,0,1,1,2,2,3,3,4,4,5,5,6,6],"right_children":[2,4,6,8,10,12,14,-1,-1,-1,-1,-1,-1,-1,-1],"split_conditions":[9.864493E-1,9.728313E-1,9.875659E-1,9.681966E-1,-2.2252093E-1,-4.3388373E-1,9.939339E-1,-3.6516364E-4,6.0636934E-2,-3.593042E-2,-7.378699E-2,5.279673E-1,-2.4703572E-2,-7.22682E-2,1.5659656E-3],"split_indices":[5,5,5,5,4,3,5,0,0,0,0,0,0,0,0],"split_type":[0,0,0,0,0,0,0,0,0,0,0,0,0,0,0],"sum_hessian":[1.071E3,8.94E2,1.77E2,8.86E2,8E0,4E0,1.73E2,8.82E2,4E0,4E0,4E0,1E0,3E0,4E0,1.69E2],"tree_param":{"num_deleted":"0","num_feature":"8","num_nodes":"15","size_leaf_vector":"1"}},{"base_weights":[9.976287E-4,1.5247589E-2,-2.3083298E-3,-4.3411744E-3,1.5410969E-1,-5.941917E-2,1.3161483E-3,1.1544975E-3,-7.192446E-2,1.4527503E-1,-1.8557975E-2,-1.0028621E-2,-5.9456386E-2,1.8672645E-1,-2.8900598E-4],"categories":[],"categories_nodes":[],"categories_segments":[],"categories_sizes":[],"default_left":[0,0,0,0,0,0,0,0,0,0,0,0,0,0,0],"id":40,"left_children":[1,3,5,7,9,11,13,-1,-1,-1,-1,-1,-1,-1,-1],"loss_changes":[5.053688E-2,5.501366E-1,1.8037258E-1,3.4408274E-1,1.8124629E0,1.8092115E-1,1.1615642E0,0E0,0E0,0E0,0E0,0E0,0E0,0E0,0E0],"parents":[2147483647,0,0,1,1,2,2,3,3,4,4,5,5,6,6],"right_children":[2,4,6,8,10,12,14,-1,-1,-1,-1,-1,-1,-1,-1],"split_conditions":[3.487769E-1,5.3656304E-1,3.546071E-1,3.4501207E-1,5.864953E-1,9.749279E-1,3.5467458E-1,1.1544975E-3,-7.192446E-2,1.4527503E-1,-1.8557975E-2,-1.0028621E-2,-5.9456386E-2,1.8672645E-1,-2.8900598E-4],"split_indices":[0,5,0,0,5,3,0,0,0,0,0,0,0,0,0],"split_type":[0,0,0,0,0,0,0,0,0,0,0,0,0,0,0],"sum_hessian":[1.071E3,2.01E2,8.7E2,1.77E2,2.4E1,5.1E1,8.19E2,1.72E2,5E0,9E0,1.5E1,4.4E1,7E0,2E0,8.17E2],"tree_param":{"num_deleted":"0","num_feature":"8","num_nodes":"15","size_leaf_vector":"1"}},{"base_weights":[8.596241E-4,5.1210504E-2,-2.5781128E-7,-4.6589267E-2,5.557391E-1,-2.7043384E-2,1.7444602E-3,-2.15499E-3,-2.5529196E-2,-4.4614207E-2,2.946968E-1,-2.974601E-3,-3.5562992E-2,1.5654445E-1,-2.6677214E-4],"categories":[],"categories_nodes":[],"categories_segments":[],"categories_sizes":[],"default_left":[0,0,0,0,0,0,0,0,0,0,0,0,0,0,0],"id":41,"left_children":[1,3,5,7,9,11,13,-1,-1,-1,-1,-1,-1,-1,-1],"loss_changes":[4.6413127E-2,9.140616E-1,4.982485E-2,2.3667876E-2,1.0476096E0,9.9126354E-2,1.3592161E0,0E0,0E0,0E0,0E0,0E0,0E0,0E0,0E0],"parents":[2147483647,0,0,1,1,2,2,3,3,4,4,5,5,6,6],"right_children":[2,4,6,8,10,12,14,-1,-1,-1,-1,-1,-1,-1,-1],"split_conditions":[1.8457589E-1,9.749279E-1,2.0805341E-1,1.8347795E-1,1.8256311E-1,2.0126623E-1,2.0989029E-1,-2.15499E-3,-2.5529196E-2,-4.4614207E-2,2.946968E-1,-2.974601E-3,-3.5562992E-2,1.5654445E-1,-2.6677214E-4],"split_indices":[5,3,5,5,5,5,5,0,0,0,0,0,0,0,0],"split_type":[0,0,0,0,0,0,0,0,0,0,0,0,0,0,0],"sum_hessian":[1.071E3,1.7E1,1.054E3,1.5E1,2E0,6.3E1,9.91E2,8E0,7E0,1E0,1E0,5.4E1,9E0,4E0,9.87E2],"tree_param":{"num_deleted":"0","num_feature":"8","num_nodes":"15","size_leaf_vector":"1"}},{"base_weights":[9.1903575E-4,3.2366363E-3,-1.6825495E-2,4.1455083E-4,5.359634E-1,-7.682497E-2,-9.1064125E-3,-5.345677E-4,1.1685555E-2,4.2099425E-1,-9.510827E-3,-6.3447184E-3,-3.1621844E-2,-1.0630236E-3,-2.408614E-2],"categories":[],"categories_nodes":[],"categories_segments":[],"categories_sizes":[],"default_left":[0,0,0,0,0,0,0,0,0,0,0,0,0,0,0],"id":42,"left_children":[1,3,5,7,9,11,13,-1,-1,-1,-1,-1,-1,-1,-1],"loss_changes":[4.414017E-2,1.4265049E0,5.672987E-2,8.005891E-2,2.5063171E0,2.0048723E-2,4.3669112E-2,0E0,0E0,0E0,0E0,0E0,0E0,0E0,0E0],"parents":[2147483647,0,0,1,1,2,2,3,3,4,4,5,5,6,6],"right_children":[2,4,6,8,10,12,14,-1,-1,-1,-1,-1,-1,-1,-1],"split_conditions":[1.1096694E0,1.1032522E0,1.1249479E0,9.864493E-1,6.2408745E-1,-4.3388373E-1,3E0,-5.345677E-4,1.1685555E-2,4.2099425E-1,-9.510827E-3,-6.3447184E-3,-3.1621844E-2,-1.0630236E-3,-2.408614E-2],"split_indices":[5,5,5,5,0,3,6,0,0,0,0,0,0,0,0],"split_type":[0,0,0,0,0,0,0,0,0,0,0,0,0,0,0],"sum_hessian":[1.071E3,9.48E2,1.23E2,9.44E2,4E0,1.3E1,1.1E2,8.94E2,5E1,1E0,3E0,5E0,8E0,1.03E2,7E0],"tree_param":{"num_deleted":"0","num_feature":"8","num_nodes":"15","size_leaf_vector":"1"}},{"base_weights":[9.78703E-4,4.8707694E-2,1.6344184E-4,-3.3841588E-2,4.7273463E-1,3.956139E-3,-1.0878127E-2,-1.6172847E-2,6.3269055E-3,-3.784189E-2,2.5057247E-1,3.0171562E-2,-4.322165E-5,9.507425E-3,-1.883389E-2],"categories":[],"categories_nodes":[],"categories_segments":[],"categories_sizes":[],"default_left":[0,0,0,0,0,0,0,0,0,0,0,0,0,0,0],"id":43,"left_children":[1,3,5,7,9,11,13,-1,-1,-1,-1,-1,-1,-1,-1],"loss_changes":[4.1705266E-2,6.460542E-1,4.422362E-2,1.877462E-2,7.5664526E-1,3.113844E-1,5.9853387E-1,0E0,0E0,0E0,0E0,0E0,0E0,0E0,0E0],"parents":[2147483647,0,0,1,1,2,2,3,3,4,4,5,5,6,6],"right_children":[2,4,6,8,10,12,14,-1,-1,-1,-1,-1,-1,-1,-1],"split_conditions":[1.8457589E-1,9.749279E-1,7.818315E-1,1E0,1.8256311E-1,1.8901224E-1,2.5881904E-1,-1.6172847E-2,6.3269055E-3,-3.784189E-2,2.5057247E-1,3.0171562E-2,-4.322165E-5,9.507425E-3,-1.883389E-2],"split_indices":[5,3,3,4,5,0,1,0,0,0,0,0,0,0,0],"split_type":[0,0,0,0,0,0,0,0,0,0,0,0,0,0,0],"sum_hessian":[1.071E3,1.7E1,1.054E3,1.5E1,2E0,7.85E2,2.69E2,1.1E1,4E0,1E0,1E0,3.1E1,7.54E2,1.48E2,1.21E2],"tree_param":{"num_deleted":"0","num_feature":"8","num_nodes":"15","size_leaf_vector":"1"}},{"base_weights":[8.937536E-4,-1.6242898E-3,1.8090796E-2,-1.0678606E-2,8.389976E-3,4.3277998E-2,-1.5941063E-2,8.2206744E-4,-2.3341855E-2,6.446769E-3,-1.2225543E-2,-5.394005E-4,2.6667076E-1,2.2893716E-2,-3.420214E-2],"categories":[],"categories_nodes":[],"categories_segments":[],"categories_sizes":[],"default_left":[0,0,0,0,0,0,0,0,0,0,0,0,0,0,0],"id":44,"left_children":[1,3,5,7,9,11,13,-1,-1,-1,-1,-1,-1,-1,-1],"loss_changes":[4.645009E-2,8.4958896E-2,1.1812182E-1,4.4339377E-1,2.8733143E-1,3.0128703E0,5.4246914E-1,0E0,0E0,0E0,0E0,0E0,0E0,0E0,0E0],"parents":[2147483647,0,0,1,1,2,2,3,3,4,4,5,5,6,6],"right_children":[2,4,6,8,10,12,14,-1,-1,-1,-1,-1,-1,-1,-1],"split_conditions":[9.659258E-1,6.5482944E-1,5.864953E-1,5.189015E-1,-1.8369701E-16,5.498245E-1,6.234898E-1,8.2206744E-4,-2.3341855E-2,6.446769E-3,-1.2225543E-2,-5.394005E-4,2.6667076E-1,2.2893716E-2,-3.420214E-2],"split_indices":[1,5,5,5,2,5,4,0,0,0,0,0,0,0,0],"split_type":[0,0,0,0,0,0,0,0,0,0,0,0,0,0,0],"sum_hessian":[1.071E3,9.35E2,1.36E2,4.91E2,4.44E2,7.8E1,5.8E1,4.1E2,8.1E1,3.51E2,9.3E1,7.5E1,3E0,3E1,2.8E1],"tree_param":{"num_deleted":"0","num_feature":"8","num_nodes":"15","size_leaf_vector":"1"}},{"base_weights":[8.3693844E-4,-1.3073588E-2,4.8868908E-3,-2.2469494E-2,4.367863E-1,-2.8879195E-4,4.804021E-2,-9.355028E-3,2.3883374E-2,2.1183482E-1,6.558335E-3,1.1311535E-3,-5.5490717E-2,1.6335277E-1,5.481292E-3],"categories":[],"categories_nodes":[],"categories_segments":[],"categories_sizes":[],"default_left":[0,0,0,0,0,0,0,0,0,0,0,0,0,0,0],"id":45,"left_children":[1,3,5,7,9,11,13,-1,-1,-1,-1,-1,-1,-1,-1],"loss_changes":[6.045712E-2,1.0327101E0,1.8561597E-1,2.1418937E-1,5.4332197E-1,5.577047E-1,1.3054271E0,0E0,0E0,0E0,0E0,0E0,0E0,0E0,0E0],"parents":[2147483647,0,0,1,1,2,2,3,3,4,4,5,5,6,6],"right_children":[2,4,6,8,10,12,14,-1,-1,-1,-1,-1,-1,-1,-1],"split_conditions":[-7.0710677E-1,3E0,9.864493E-1,1.4007384E0,4.910332E-1,9.554367E-1,9.875659E-1,-9.355028E-3,2.3883374E-2,2.1183482E-1,6.558335E-3,1.1311535E-3,-5.5490717E-2,1.6335277E-1,5.481292E-3],"split_indices":[2,6,5,0,0,5,5,0,0,0,0,0,0,0,0],"split_type":[0,0,0,0,0,0,0,0,0,0,0,0,0,0,0],"sum_hessian":[1.071E3,2.41E2,8.3E2,2.37E2,4E0,7.42E2,8.8E1,2.19E2,1.8E1,2E0,2E0,7.27E2,1.5E1,4E0,8.4E1],"tree_param":{"num_deleted":"0","num_feature":"8","num_nodes":"15","size_leaf_vector":"1"}},{"base_weights":[9.0991374E-4,2.3725494E-3,-4.2493682E-2,6.463849E-4,1.9965889E-1,-7.071282E-2,4.8859417E-3,4.0243266E-4,-3.0336874E-2,-1.3255688E-2,3.2256225E-1,-3.1668723E-3,-2.6335495E-2,1.5057567E-2,-5.4766876E-3],"categories":[],"categories_nodes":[],"categories_segments":[],"categories_sizes":[],"default_left":[0,0,0,0,0,0,0,0,0,0,0,0,0,0,0],"id":46,"left_children":[1,3,5,7,9,11,13,-1,-1,-1,-1,-1,-1,-1,-1],"loss_changes":[6.8155296E-2,3.5336047E-1,4.714092E-2,7.2993204E-2,1.9689882E0,2.1667354E-2,1.559459E-2,0E0,0E0,0E0,0E0,0E0,0E0,0E0,0E0],"parents":[2147483647,0,0,1,1,2,2,3,3,4,4,5,5,6,6],"right_children":[2,4,6,8,10,12,14,-1,-1,-1,-1,-1,-1,-1,-1],"split_conditions":[1.4641792E0,1.4172889E0,-2.5881904E-1,1.367735E0,9.749279E-1,4.5044507E2,4.3388373E-1,4.0243266E-4,-3.0336874E-2,-1.3255688E-2,3.2256225E-1,-3.1668723E-3,-2.6335495E-2,1.5057567E-2,-5.4766876E-3],"split_indices":[0,0,2,0,3,7,3,0,0,0,0,0,0,0,0],"split_type":[0,0,0,0,0,0,0,0,0,0,0,0,0,0,0],"sum_hessian":[1.071E3,1.037E3,3.4E1,1.029E3,8E0,2.1E1,1.3E1,1.023E3,6E0,7E0,1E0,5E0,1.6E1,4E0,9E0],"tree_param":{"num_deleted":"0","num_feature":"8","num_nodes":"15","size_leaf_vector":"1"}},{"base_weights":[8.789586E-4,-4.402943E-2,1.1538498E-3,2.2148408E-3,-3.031477E-2,-5.441666E-5,3.544661E-2,-1.5252001E-2,1.2313523E-3],"categories":[],"categories_nodes":[],"categories_segments":[],"categories_sizes":[],"default_left":[0,0,0,0,0,0,0,0,0],"id":47,"left_children":[1,-1,3,5,7,-1,-1,-1,-1],"loss_changes":[4.367749E-2,0E0,3.5825614E-2,2.8812093E-1,2.4934907E-2,0E0,0E0,0E0,0E0],"parents":[2147483647,0,0,2,2,3,3,4,4],"right_children":[2,-1,4,6,8,-1,-1,-1,-1],"split_conditions":[1.8461598E-1,-4.402943E-2,1.4641792E0,1.3639702E0,-2.5881904E-1,-5.441666E-5,3.544661E-2,-1.5252001E-2,1.2313523E-3],"split_indices":[0,0,0,0,2,0,0,0,0],"split_type":[0,0,0,0,0,0,0,0,0],"sum_hessian":[1.071E3,1E0,1.07E3,1.036E3,3.4E1,1.016E3,2E1,2.1E1,1.3E1],"tree_param":{"num_deleted":"0","num_feature":"8","num_nodes":"9","size_leaf_vector":"1"}},{"base_weights":[5.9413025E-4,-1.1357714E-2,3.2979827E-3,2.4283167E-3,-5.0111346E-2,6.660997E-2,2.5817828E-5,-7.7999425E-3,3.0426731E-2,5.026779E-2,-2.3049869E-2,9.553333E-3,7.2256476E-2,-1.229669E-2,1.0825685E-3],"categories":[],"categories_nodes":[],"categories_segments":[],"categories_sizes":[],"default_left":[0,0,0,0,0,0,0,0,0,0,0,0,0,0,0],"id":48,"left_children":[1,3,5,7,9,11,13,-1,-1,-1,-1,-1,-1,-1,-1],"loss_changes":[3.4680236E-2,1.05904914E-1,1.8126963E-1,4.1632685E-1,3.1533182E-1,2.5281197E-1,1.22553475E-1,0E0,0E0,0E0,0E0,0E0,0E0,0E0,0E0],"parents":[2147483647,0,0,1,1,2,2,3,3,4,4,5,5,6,6],"right_children":[2,4,6,8,10,12,14,-1,-1,-1,-1,-1,-1,-1,-1],"split_conditions":[3.487225E-1,7.818315E-1,3.6137322E-1,8.660254E-1,1.8457589E-1,3.561344E-1,4.1695592E-1,-7.7999425E-3,3.0426731E-2,5.026779E-2,-2.3049869E-2,9.553333E-3,7.2256476E-2,-1.229669E-2,1.0825685E-3],"split_indices":[5,3,5,1,5,5,5,0,0,0,0,0,0,0,0],"split_type":[0,0,0,0,0,0,0,0,0,0,0,0,0,0,0],"sum_hessian":[1.071E3,1.97E2,8.74E2,1.46E2,5.1E1,4.2E1,8.32E2,1.14E2,3.2E1,5E0,4.6E1,3.6E1,6E0,6.6E1,7.66E2],"tree_param":{"num_deleted":"0","num_feature":"8","num_nodes":"15","size_leaf_vector":"1"}},{"base_weights":[5.282543E-4,3.4207613E-3,-1.3268423E-2,-1.1738064E-3,4.5177677E-1,-1.9375363E-2,2.116779E-1,1.4203679E-3,-5.51055E-3,-5.244851E-2,5.28979E-1,-1.5003179E-2,1.7065924E-3,1.2791348E-1,-2.207452E-2],"categories":[],"categories_nodes":[],"categories_segments":[],"categories_sizes":[],"default_left":[0,0,0,0,0,0,0,0,0,0,0,0,0,0,0],"id":49,"left_children":[1,3,5,7,9,11,13,-1,-1,-1,-1,-1,-1,-1,-1],"loss_changes":[4.2825677E-2,1.8277521E0,2.5961584E-1,8.93868E-2,7.704326E0,1.4003165E-1,3.3760032E-1,0E0,0E0,0E0,0E0,0E0,0E0,0E0,0E0],"parents":[2147483647,0,0,1,1,2,2,3,3,4,4,5,5,6,6],"right_children":[2,4,6,8,10,12,14,-1,-1,-1,-1,-1,-1,-1,-1],"split_conditions":[9.364479E-1,8.7865835E-1,1E0,7.818315E-1,6.234898E-1,9.422996E-1,1.3666495E0,1.4203679E-3,-5.51055E-3,-5.244851E-2,5.28979E-1,-1.5003179E-2,1.7065924E-3,1.2791348E-1,-2.207452E-2],"split_indices":[0,0,1,3,4,5,0,0,0,0,0,0,0,0,0],"split_type":[0,0,0,0,0,0,0,0,0,0,0,0,0,0,0],"sum_hessian":[1.071E3,8.86E2,1.85E2,8.78E2,8E0,1.81E2,4E0,6.54E2,2.24E2,6E0,2E0,8.1E1,1E2,2E0,2E0],"tree_param":{"num_deleted":"0","num_feature":"8","num_nodes":"15","size_leaf_vector":"1"}},{"base_weights":[8.968107E-4,-8.913428E-3,3.7526242E-3,-1.630242E-2,3.445853E-1,1.6294209E-6,3.5024945E-2,-1.0931467E-3,-1.9900039E-2,1.6889766E-1,3.3949914E-3,7.2254916E-4,-5.2998785E-2,1.2386256E-1,3.7159207E-3],"categories":[],"categories_nodes":[],"categories_segments":[],"categories_sizes":[],"default_left":[0,0,0,0,0,0,0,0,0,0,0,0,0,0,0],"id":50,"left_children":[1,3,5,7,9,11,13,-1,-1,-1,-1,-1,-1,-1,-1],"loss_changes":[3.0066825E-2,6.3772136E-1,9.747815E-2,1.504891E-1,3.575697E-1,3.163546E-1,7.5619006E-1,0E0,0E0,0E0,0E0,0E0,0E0,0E0,0E0],"parents":[2147483647,0,0,1,1,2,2,3,3,4,4,5,5,6,6],"right_children":[2,4,6,8,10,12,14,-1,-1,-1,-1,-1,-1,-1,-1],"split_conditions":[-7.0710677E-1,3E0,9.864493E-1,2E0,4.910332E-1,9.681966E-1,9.875659E-1,-1.0931467E-3,-1.9900039E-2,1.6889766E-1,3.3949914E-3,7.2254916E-4,-5.2998785E-2,1.2386256E-1,3.7159207E-3],"split_indices":[2,6,5,6,0,5,5,0,0,0,0,0,0,0,0],"split_type":[0,0,0,0,0,0,0,0,0,0,0,0,0,0,0],"sum_hessian":[1.071E3,2.41E2,8.3E2,2.37E2,4E0,7.42E2,8.8E1,1.9E2,4.7E1,2E0,2E0,7.33E2,9E0,4E0,8.4E1],"tree_param":{"num_deleted":"0","num_feature":"8","num_nodes":"15","size_leaf_vector":"1"}},{"base_weights":[8.391553E-4,-4.896827E-4,2.5419481E-2,1.4024625E-3,-4.240677E-2,1.0218628E-1,7.0982785E-3,-4.219008E-4,8.052279E-3,-1.7477928E-2,5.1958067E-3,-8.387473E-3,4.819115E-2],"categories":[],"categories_nodes":[],"categories_segments":[],"categories_sizes":[],"default_left":[0,0,0,0,0,0,0,0,0,0,0,0,0],"id":51,"left_children":[1,3,5,7,9,-1,11,-1,-1,-1,-1,-1,-1],"loss_changes":[3.5027478E-2,8.080033E-2,3.1519997E-1,6.970298E-2,4.2669855E-2,0E0,2.8976572E-1,0E0,0E0,0E0,0E0,0E0,0E0],"parents":[2147483647,0,0,1,1,2,2,3,3,4,4,6,6],"right_children":[2,4,6,8,10,-1,12,-1,-1,-1,-1,-1,-1],"split_conditions":[1.3639702E0,1.1637992E0,1.3666495E0,8.7865835E-1,1.1964922E0,1.0218628E-1,9.749279E-1,-4.219008E-4,8.052279E-3,-1.7477928E-2,5.1958067E-3,-8.387473E-3,4.819115E-2],"split_indices":[0,0,0,0,5,0,3,0,0,0,0,0,0],"split_type":[0,0,0,0,0,0,0,0,0,0,0,0,0],"sum_hessian":[1.071E3,1.017E3,5.4E1,9.74E2,4.3E1,2E0,5.2E1,8.78E2,9.6E1,3.4E1,9E0,4.3E1,9E0],"tree_param":{"num_deleted":"0","num_feature":"8","num_nodes":"13","size_leaf_vector":"1"}},{"base_weights":[7.1551674E-4,-3.651318E-2,9.434688E-4,9.204807E-3,-2.480019E-3,-1.1176943E-3,1.2079897E-1,6.0879777E-4,-2.0766906E-2],"categories":[],"categories_nodes":[],"categories_segments":[],"categories_sizes":[],"default_left":[0,0,0,0,0,0,0,0,0],"id":52,"left_children":[1,-1,3,5,7,-1,-1,-1,-1],"loss_changes":[3.0031446E-2,0E0,3.0313483E-2,1.5990051E0,2.282736E-1,0E0,0E0,0E0,0E0],"parents":[2147483647,0,0,2,2,3,3,4,4],"right_children":[2,-1,4,6,8,-1,-1,-1,-1],"split_conditions":[1.8461598E-1,-3.651318E-2,4.1912657E-1,4.1695592E-1,9.659258E-1,-1.1176943E-3,1.2079897E-1,6.0879777E-4,-2.0766906E-2],"split_indices":[0,0,5,5,2,0,0,0,0],"split_type":[0,0,0,0,0,0,0,0,0],"sum_hessian":[1.071E3,1E0,1.07E3,3.13E2,7.57E2,3.04E2,9E0,7.1E2,4.7E1],"tree_param":{"num_deleted":"0","num_feature":"8","num_nodes":"9","size_leaf_vector":"1"}},{"base_weights":[5.596399E-4,2.3901472E-3,-1.3454159E-2,-2.9911645E-5,4.5930323E-1,1.5541669E-2,-2.5031637E-2,5.8493036E-4,-1.5939306E-2,3.550493E-1,-5.285937E-3,3.0447815E-2,-4.786085E-4,-3.506462E-3,-2.4257237E-2],"categories":[],"categories_nodes":[],"categories_segments":[],"categories_sizes":[],"default_left":[0,0,0,0,0,0,0,0,0,0,0,0,0,0,0],"id":53,"left_children":[1,3,5,7,9,11,13,-1,-1,-1,-1,-1,-1,-1,-1],"loss_changes":[2.7531488E-2,1.0493767E0,4.2015657E-2,9.944501E-2,1.747778E0,5.318796E-2,6.535173E-2,0E0,0E0,0E0,0E0,0E0,0E0,0E0,0E0],"parents":[2147483647,0,0,1,1,2,2,3,3,4,4,5,5,6,6],"right_children":[2,4,6,8,10,12,14,-1,-1,-1,-1,-1,-1,-1,-1],"split_conditions":[1.1096694E0,1.1032522E0,-4.3388373E-1,1.0026563E0,6.2408745E-1,1E0,7.0710677E-1,5.8493036E-4,-1.5939306E-2,3.550493E-1,-5.285937E-3,3.0447815E-2,-4.786085E-4,-3.506462E-3,-2.4257237E-2],"split_indices":[5,5,3,5,0,6,1,0,0,0,0,0,0,0,0],"split_type":[0,0,0,0,0,0,0,0,0,0,0,0,0,0,0],"sum_hessian":[1.071E3,9.48E2,1.23E2,9.44E2,4E0,3.5E1,8.8E1,9.11E2,3.3E1,1E0,3E0,5E0,3E1,7.2E1,1.6E1],"tree_param":{"num_deleted":"0","num_feature":"8","num_nodes":"15","size_leaf_vector":"1"}},{"base_weights":[7.0574146E-4,-4.1166547E-4,2.1375095E-2,2.2639919E-3,-2.1236725E-2,8.168291E-2,6.7698336E-3,-3.7561895E-4,3.773938E-2,-3.599705E-2,-2.6065037E-3,-1.1335203E-2,3.1002522E-2],"categories":[],"categories_nodes":[],"categories_segments":[],"categories_sizes":[],"default_left":[0,0,0,0,0,0,0,0,0,0,0,0,0],"id":54,"left_children":[1,3,5,7,9,-1,11,-1,-1,-1,-1,-1,-1],"loss_changes":[2.4767796E-2,5.6771778E-2,1.9970305E-1,3.9237744E-1,1.4270419E-1,0E0,2.319451E-1,0E0,0E0,0E0,0E0,0E0,0E0],"parents":[2147483647,0,0,1,1,2,2,3,3,4,4,6,6],"right_children":[2,4,6,8,10,-1,12,-1,-1,-1,-1,-1,-1],"split_conditions":[1.3639702E0,9.7793716E-1,1.3666495E0,8.7865835E-1,9.9097216E-1,8.168291E-2,9.3327165E-1,-3.7561895E-4,3.773938E-2,-3.599705E-2,-2.6065037E-3,-1.1335203E-2,3.1002522E-2],"split_indices":[0,0,0,0,0,0,5,0,0,0,0,0,0],"split_type":[0,0,0,0,0,0,0,0,0,0,0,0,0],"sum_hessian":[1.071E3,1.017E3,5.4E1,9.02E2,1.15E2,2E0,5.2E1,8.78E2,2.4E1,1.2E1,1.03E2,3.6E1,1.6E1],"tree_param":{"num_deleted":"0","num_feature":"8","num_nodes":"13","size_leaf_vector":"1"}}]},"name":"gbtree"},"learner_model_param":{"base_score":"6.259925E-1","boost_from_average":"1","num_class":"0","num_feature":"8","num_target":"1"},"objective":{"name":"reg:squarederror","reg_loss_param":{"scale_pos_weight":"1"}}},"version":[2,0,0]}