{"learner":{"attributes":{"scikit_learn":"{\"_estimator_type\": \"regressor\"}"},"feature_names":["solar_generation","cyc_hour1","cyc_hour2","exp_solar","direct_solar","diffuse_solar","direct_solar_6h","diffuse_solar_6h","direct_solar_12h","diffuse_solar_12h","direct_solar_24h","diffuse_solar_24h"],"feature_types":["float","float","float","float","float","float","float","float","float","float","float","float"],"gradient_booster":{"model":{"gbtree_model_param":{"num_parallel_tree":"1","num_trees":"89"},"iteration_indptr":[0,1,2,3,4,5,6,7,8,9,10,11,12,13,14,15,16,17,18,19,20,21,22,23,24,25,26,27,28,29,30,31,32,33,34,35,36,37,38,39,40,41,42,43,44,45,46,47,48,49,50,51,52,53,54,55,56,57,58,59,60,61,62,63,64,65,66,67,68,69,70,71,72,73,74,75,76,77,78,79,80,81,82,83,84,85,86,87,88,89],"tree_info":[0,0,0,0,0,0,0,0,0,0,0,0,0,0,0,0,0,0,0,0,0,0,0,0,0,0,0,0,0,0,0,0,0,0,0,0,0,0,0,0,0,0,0,0,0,0,0,0,0,0,0,0,0,0,0,0,0,0,0,0,0,0,0,0,0,0,0,0,0,0,0,0,0,0,0,0,0,0,0,0,0,0,0,0,0,0,0,0,0],"trees":[{"base_weights":[-8.9469754E-10,-1.1759558E-2,6.498703E-1,-5.1390314E-3,7.409899E-2,-4.7767875E-3,6.2852263E-1,8.358466E-3,4.0926296E-1,4.9297073E-1,-5.0555393E-3,-2.5721164E-3,2.2440895E-1],"categories":[],"categories_nodes":[],"categories_segments":[],"categories_sizes":[],"default_left":[0,0,0,0,0,0,0,0,0,0,0,0,0],"id":0,"left_children":[1,3,5,-1,7,-1,-1,9,-1,11,-1,-1,-1],"loss_changes":[8.1694975E0,4.8543197E-1,1.8315296E1,0E0,5.2469754E0,0E0,0E0,7.413396E-1,0E0,3.901838E-1,0E0,0E0,0E0],"parents":[2147483647,0,0,1,1,2,2,4,4,7,7,9,9],"right_children":[2,4,6,-1,8,-1,-1,10,-1,12,-1,-1,-1],"split_conditions":[6.040274E-2,8.250973E2,-1.8369701E-16,-5.1390314E-3,1.9685556E2,-4.7767875E-3,6.2852263E-1,8.387533E2,4.0926296E-1,-5E-1,-5.0555393E-3,-2.5721164E-3,2.2440895E-1],"split_indices":[0,8,2,0,7,0,0,8,0,1,0,0,0],"split_type":[0,0,0,0,0,0,0,0,0,0,0,0,0],"sum_hessian":[1.067E3,1.049E3,1.8E1,9.88E2,6.1E1,1.3E1,5E0,5.9E1,2E0,2E0,5.7E1,1E0,1E0],"tree_param":{"num_deleted":"0","num_feature":"12","num_nodes":"13","size_leaf_vector":"1"}},{"base_weights":[1.165403E-3,-7.640352E-3,4.8773792E-1,-3.598881E-3,6.1966777E-2,-3.4461112E-3,4.7139195E-1,9.463948E-3,3.2741034E-1,4.1902512E-1,-3.5650267E-3,-2.186299E-3,1.907476E-1],"categories":[],"categories_nodes":[],"categories_segments":[],"categories_sizes":[],"default_left":[0,0,0,0,0,0,0,0,0,0,0,0,0],"id":1,"left_children":[1,3,5,-1,7,-1,-1,9,-1,11,-1,-1,-1],"loss_changes":[4.57972E0,3.191064E-1,1.0295996E1,0E0,3.340552E0,0E0,0E0,5.295627E-1,0E0,2.819078E-1,0E0,0E0,0E0],"parents":[2147483647,0,0,1,1,2,2,4,4,7,7,9,9],"right_children":[2,4,6,-1,8,-1,-1,10,-1,12,-1,-1,-1],"split_conditions":[6.040274E-2,8.250973E2,-1.8369701E-16,-3.598881E-3,1.9685556E2,-3.4461112E-3,4.7139195E-1,8.387533E2,3.2741034E-1,-5E-1,-3.5650267E-3,-2.186299E-3,1.907476E-1],"split_indices":[0,8,2,0,7,0,0,8,0,1,0,0,0],"split_type":[0,0,0,0,0,0,0,0,0,0,0,0,0],"sum_hessian":[1.067E3,1.049E3,1.8E1,9.88E2,6.1E1,1.3E1,5E0,5.9E1,2E0,2E0,5.7E1,1E0,1E0],"tree_param":{"num_deleted":"0","num_feature":"12","num_nodes":"13","size_leaf_vector":"1"}},{"base_weights":[1.7303459E-3,-4.8636673E-3,3.6604527E-1,-2.5203081E-3,5.1641367E-2,-2.4861232E-3,1.1784799E0,9.708035E-3,2.6192826E-1,3.9204645E-1,8.051579E-2,3.5617134E-1,-2.5139586E-3,-1.8583541E-3,1.6213547E-1],"categories":[],"categories_nodes":[],"categories_segments":[],"categories_sizes":[],"default_left":[0,0,0,0,0,0,0,0,0,0,0,0,0,0,0],"id":2,"left_children":[1,3,5,-1,7,-1,9,11,-1,-1,-1,13,-1,-1,-1],"loss_changes":[2.567434E0,2.1030638E-1,5.7880564E0,0E0,2.1271918E0,0E0,3.5008526E-1,3.789922E-1,0E0,0E0,0E0,2.036784E-1,0E0,0E0,0E0],"parents":[2147483647,0,0,1,1,2,2,4,4,6,6,7,7,11,11],"right_children":[2,4,6,-1,8,-1,10,12,-1,-1,-1,14,-1,-1,-1],"split_conditions":[6.040274E-2,8.250973E2,-1.8369701E-16,-2.5203081E-3,1.9685556E2,-2.4861232E-3,1.4696382E0,8.387533E2,2.6192826E-1,3.9204645E-1,8.051579E-2,-5E-1,-2.5139586E-3,-1.8583541E-3,1.6213547E-1],"split_indices":[0,8,2,0,7,0,0,8,0,0,0,1,0,0,0],"split_type":[0,0,0,0,0,0,0,0,0,0,0,0,0,0,0],"sum_hessian":[1.067E3,1.049E3,1.8E1,9.88E2,6.1E1,1.3E1,5E0,5.9E1,2E0,4E0,1E0,2E0,5.7E1,1E0,1E0],"tree_param":{"num_deleted":"0","num_feature":"12","num_nodes":"15","size_leaf_vector":"1"}},{"base_weights":[2.0419979E-3,-3.0072615E-3,2.8097254E-1,-1.7649803E-3,4.2918175E-2,-1.7935601E-3,9.036963E-1,9.4250105E-3,2.0954263E-1,2.979553E-1,6.8438426E-2,3.0274564E-1,-1.7727742E-3,-1.579601E-3,1.3781515E-1],"categories":[],"categories_nodes":[],"categories_segments":[],"categories_sizes":[],"default_left":[0,0,0,0,0,0,0,0,0,0,0,0,0,0,0],"id":3,"left_children":[1,3,5,-1,7,-1,9,11,-1,-1,-1,13,-1,-1,-1],"loss_changes":[1.5050085E0,1.3893843E-1,3.4005363E0,0E0,1.3547313E0,0E0,1.3615847E-1,2.7166024E-1,0E0,0E0,0E0,1.4715767E-1,0E0,0E0,0E0],"parents":[2147483647,0,0,1,1,2,2,4,4,6,6,7,7,11,11],"right_children":[2,4,6,-1,8,-1,10,12,-1,-1,-1,14,-1,-1,-1],"split_conditions":[6.040274E-2,8.250973E2,-1.8369701E-16,-1.7649803E-3,1.9685556E2,-1.7935601E-3,1.4696382E0,8.387533E2,2.0954263E-1,2.979553E-1,6.8438426E-2,-5E-1,-1.7727742E-3,-1.579601E-3,1.3781515E-1],"split_indices":[0,8,2,0,7,0,0,8,0,0,0,1,0,0,0],"split_type":[0,0,0,0,0,0,0,0,0,0,0,0,0,0,0],"sum_hessian":[1.067E3,1.049E3,1.8E1,9.88E2,6.1E1,1.3E1,5E0,5.9E1,2E0,4E0,1E0,2E0,5.7E1,1E0,1E0],"tree_param":{"num_deleted":"0","num_feature":"12","num_nodes":"15","size_leaf_vector":"1"}},{"base_weights":[2.0912343E-3,-1.7791399E-3,2.1587026E-1,-1.2360216E-3,3.5591196E-2,-1.2939255E-3,6.9365305E-1,8.838553E-3,1.676341E-1,2.2644605E-1,5.817266E-2,2.573338E-1,-1.2501115E-3,-1.3426607E-3,1.1714287E-1],"categories":[],"categories_nodes":[],"categories_segments":[],"categories_sizes":[],"default_left":[0,0,0,0,0,0,0,0,0,0,0,0,0,0,0],"id":4,"left_children":[1,3,5,-1,7,-1,9,11,-1,-1,-1,13,-1,-1,-1],"loss_changes":[8.8405246E-1,9.2002116E-2,2.0017881E0,0E0,8.6285603E-1,0E0,3.704071E-2,1.9498196E-1,0E0,0E0,0E0,1.06321365E-1,0E0,0E0,0E0],"parents":[2147483647,0,0,1,1,2,2,4,4,6,6,7,7,11,11],"right_children":[2,4,6,-1,8,-1,10,12,-1,-1,-1,14,-1,-1,-1],"split_conditions":[6.040274E-2,8.250973E2,-1.8369701E-16,-1.2360216E-3,1.9685556E2,-1.2939255E-3,1.4696382E0,8.387533E2,1.676341E-1,2.2644605E-1,5.817266E-2,-5E-1,-1.2501115E-3,-1.3426607E-3,1.1714287E-1],"split_indices":[0,8,2,0,7,0,0,8,0,0,0,1,0,0,0],"split_type":[0,0,0,0,0,0,0,0,0,0,0,0,0,0,0],"sum_hessian":[1.067E3,1.049E3,1.8E1,9.88E2,6.1E1,1.3E1,5E0,5.9E1,2E0,4E0,1E0,2E0,5.7E1,1E0,1E0],"tree_param":{"num_deleted":"0","num_feature":"12","num_nodes":"15","size_leaf_vector":"1"}},{"base_weights":[1.9922093E-3,-9.778283E-4,1.6602102E-1,-8.6559E-4,2.9465193E-2,-9.334748E-4,5.3299356E-1,8.096156E-3,1.3410728E-1,6.359865E-2,1.9214813E-1,2.1873373E-1,-8.8154414E-4,-1.1412617E-3,9.9571444E-2],"categories":[],"categories_nodes":[],"categories_segments":[],"categories_sizes":[],"default_left":[0,0,0,0,0,0,0,0,0,0,0,0,0,0,0],"id":5,"left_children":[1,3,5,-1,7,-1,9,11,-1,-1,-1,13,-1,-1,-1],"loss_changes":[5.204618E-1,6.1057683E-2,1.1809318E0,0E0,5.4959667E-1,0E0,7.126236E-2,1.4010128E-1,0E0,0E0,0E0,7.68172E-2,0E0,0E0,0E0],"parents":[2147483647,0,0,1,1,2,2,4,4,6,6,7,7,11,11],"right_children":[2,4,6,-1,8,-1,10,12,-1,-1,-1,14,-1,-1,-1],"split_conditions":[6.040274E-2,8.250973E2,-1.8369701E-16,-8.6559E-4,1.9685556E2,-9.334748E-4,8.387533E2,8.387533E2,1.3410728E-1,6.359865E-2,1.9214813E-1,-5E-1,-8.8154414E-4,-1.1412617E-3,9.9571444E-2],"split_indices":[0,8,2,0,7,0,8,8,0,0,0,1,0,0,0],"split_type":[0,0,0,0,0,0,0,0,0,0,0,0,0,0,0],"sum_hessian":[1.067E3,1.049E3,1.8E1,9.88E2,6.1E1,1.3E1,5E0,5.9E1,2E0,2E0,3E0,2E0,5.7E1,1E0,1E0],"tree_param":{"num_deleted":"0","num_feature":"12","num_nodes":"15","size_leaf_vector":"1"}},{"base_weights":[1.8492314E-3,-4.646794E-4,1.2962593E-1,-6.0617557E-4,2.4362022E-2,-6.734353E-4,4.1571993E-1,7.293119E-3,1.0728583E-1,5.087892E-2,1.4891478E-1,1.8592367E-1,-6.216406E-4,-9.700724E-4,8.463572E-2],"categories":[],"categories_nodes":[],"categories_segments":[],"categories_sizes":[],"default_left":[0,0,0,0,0,0,0,0,0,0,0,0,0,0,0],"id":6,"left_children":[1,3,5,-1,7,-1,9,11,-1,-1,-1,13,-1,-1,-1],"loss_changes":[3.1582928E-1,4.0608633E-2,7.177541E-1,0E0,3.5006878E-1,0E0,3.493321E-2,1.0076048E-1,0E0,0E0,0E0,5.5500425E-2,0E0,0E0,0E0],"parents":[2147483647,0,0,1,1,2,2,4,4,6,6,7,7,11,11],"right_children":[2,4,6,-1,8,-1,10,12,-1,-1,-1,14,-1,-1,-1],"split_conditions":[6.040274E-2,8.250973E2,-1.8369701E-16,-6.0617557E-4,1.9685556E2,-6.734353E-4,8.387533E2,8.387533E2,1.0728583E-1,5.087892E-2,1.4891478E-1,-5E-1,-6.216406E-4,-9.700724E-4,8.463572E-2],"split_indices":[0,8,2,0,7,0,8,8,0,0,0,1,0,0,0],"split_type":[0,0,0,0,0,0,0,0,0,0,0,0,0,0,0],"sum_hessian":[1.067E3,1.049E3,1.8E1,9.88E2,6.1E1,1.3E1,5E0,5.9E1,2E0,2E0,3E0,2E0,5.7E1,1E0,1E0],"tree_param":{"num_deleted":"0","num_feature":"12","num_nodes":"15","size_leaf_vector":"1"}},{"base_weights":[1.6585479E-3,-1.4458646E-4,1.0121816E-1,-4.2450678E-4,2.012325E-2,-4.8583548E-4,3.2430288E-1,6.489251E-3,8.5828654E-2,4.0703133E-2,1.1540895E-1,1.5803513E-1,-4.383638E-4,-8.245615E-4,7.194037E-2],"categories":[],"categories_nodes":[],"categories_segments":[],"categories_sizes":[],"default_left":[0,0,0,0,0,0,0,0,0,0,0,0,0,0,0],"id":7,"left_children":[1,3,5,-1,7,-1,9,11,-1,-1,-1,13,-1,-1,-1],"loss_changes":[1.9174129E-1,2.7064916E-2,4.3641368E-1,0E0,2.2297192E-1,0E0,1.6156256E-2,7.252251E-2,0E0,0E0,0E0,4.0099062E-2,0E0,0E0,0E0],"parents":[2147483647,0,0,1,1,2,2,4,4,6,6,7,7,11,11],"right_children":[2,4,6,-1,8,-1,10,12,-1,-1,-1,14,-1,-1,-1],"split_conditions":[6.040274E-2,8.250973E2,-1.8369701E-16,-4.2450678E-4,1.9685556E2,-4.8583548E-4,8.387533E2,8.387533E2,8.5828654E-2,4.0703133E-2,1.1540895E-1,-5E-1,-4.383638E-4,-8.245615E-4,7.194037E-2],"split_indices":[0,8,2,0,7,0,8,8,0,0,0,1,0,0,0],"split_type":[0,0,0,0,0,0,0,0,0,0,0,0,0,0,0],"sum_hessian":[1.067E3,1.049E3,1.8E1,9.88E2,6.1E1,1.3E1,5E0,5.9E1,2E0,2E0,3E0,2E0,5.7E1,1E0,1E0],"tree_param":{"num_deleted":"0","num_feature":"12","num_nodes":"15","size_leaf_vector":"1"}},{"base_weights":[1.4528449E-3,4.7438596E-5,7.904357E-2,-2.972835E-4,1.6610567E-2,-3.5049563E-4,2.5303072E-1,5.720432E-3,2.288764E-1,3.256251E-2,8.944195E-2,1.3432984E-1,-3.0912206E-4,1.4917517E-2,8.807686E-2,-7.008773E-4,6.1149307E-2],"categories":[],"categories_nodes":[],"categories_segments":[],"categories_sizes":[],"default_left":[0,0,0,0,0,0,0,0,0,0,0,0,0,0,0,0,0],"id":8,"left_children":[1,3,5,-1,7,-1,9,11,13,-1,-1,15,-1,-1,-1,-1,-1],"loss_changes":[1.1645791E-1,1.8075282E-2,2.6545653E-1,0E0,1.4201014E-1,0E0,6.746024E-3,5.22317E-2,2.0181581E-2,0E0,0E0,2.897156E-2,0E0,0E0,0E0,0E0,0E0],"parents":[2147483647,0,0,1,1,2,2,4,4,6,6,7,7,8,8,11,11],"right_children":[2,4,6,-1,8,-1,10,12,14,-1,-1,16,-1,-1,-1,-1,-1],"split_conditions":[6.040274E-2,8.250973E2,-1.8369701E-16,-2.972835E-4,1.9685556E2,-3.5049563E-4,8.387533E2,8.387533E2,8.660254E-1,3.256251E-2,8.944195E-2,-5E-1,-3.0912206E-4,1.4917517E-2,8.807686E-2,-7.008773E-4,6.1149307E-2],"split_indices":[0,8,2,0,7,0,8,8,1,0,0,1,0,0,0,0,0],"split_type":[0,0,0,0,0,0,0,0,0,0,0,0,0,0,0,0,0],"sum_hessian":[1.067E3,1.049E3,1.8E1,9.88E2,6.1E1,1.3E1,5E0,5.9E1,2E0,2E0,3E0,2E0,5.7E1,1E0,1E0,1E0,1E0],"tree_param":{"num_deleted":"0","num_feature":"12","num_nodes":"17","size_leaf_vector":"1"}},{"base_weights":[1.283368E-3,1.8828933E-4,6.1733328E-2,-2.0818862E-4,1.4258585E-2,-2.5285754E-4,1.9745554E-1,5.0066235E-3,1.9454496E-1,2.6050009E-2,6.931749E-2,1.1418035E-1,-2.1798436E-4,1.26798935E-2,7.486534E-2,-5.9574575E-4,5.1976904E-2],"categories":[],"categories_nodes":[],"categories_segments":[],"categories_sizes":[],"default_left":[0,0,0,0,0,0,0,0,0,0,0,0,0,0,0,0,0],"id":9,"left_children":[1,3,5,-1,7,-1,9,11,13,-1,-1,15,-1,-1,-1,-1,-1],"loss_changes":[7.068727E-2,1.3044109E-2,1.6153301E-1,0E0,1.0244214E-1,0E0,2.2396892E-3,3.7638098E-2,1.4581189E-2,0E0,0E0,2.0931948E-2,0E0,0E0,0E0,0E0,0E0],"parents":[2147483647,0,0,1,1,2,2,4,4,6,6,7,7,8,8,11,11],"right_children":[2,4,6,-1,8,-1,10,12,14,-1,-1,16,-1,-1,-1,-1,-1],"split_conditions":[6.040274E-2,8.250973E2,-1.8369701E-16,-2.0818862E-4,1.9685556E2,-2.5285754E-4,8.387533E2,8.387533E2,8.660254E-1,2.6050009E-2,6.931749E-2,-5E-1,-2.1798436E-4,1.26798935E-2,7.486534E-2,-5.9574575E-4,5.1976904E-2],"split_indices":[0,8,2,0,7,0,8,8,1,0,0,1,0,0,0,0,0],"split_type":[0,0,0,0,0,0,0,0,0,0,0,0,0,0,0,0,0],"sum_hessian":[1.067E3,1.049E3,1.8E1,9.88E2,6.1E1,1.3E1,5E0,5.9E1,2E0,2E0,3E0,2E0,5.7E1,1E0,1E0,1E0,1E0],"tree_param":{"num_deleted":"0","num_feature":"12","num_nodes":"17","size_leaf_vector":"1"}},{"base_weights":[1.1170978E-3,2.6370742E-4,4.821935E-2,-1.4579519E-4,1.2218241E-2,-1.8241866E-4,1.5411341E-1,4.3573556E-3,1.653632E-1,2.0840002E-2,5.3721037E-2,9.705329E-2,-1.5371654E-4,1.0777903E-2,6.3635536E-2,-5.063839E-4,4.4180363E-2],"categories":[],"categories_nodes":[],"categories_segments":[],"categories_sizes":[],"default_left":[0,0,0,0,0,0,0,0,0,0,0,0,0,0,0,0,0],"id":10,"left_children":[1,3,5,-1,7,-1,9,11,13,-1,-1,15,-1,-1,-1,-1,-1],"loss_changes":[4.2917263E-2,9.416259E-3,9.833382E-2,0E0,7.3918454E-2,0E0,2.3561716E-4,2.7134057E-2,1.053492E-2,0E0,0E0,1.5123332E-2,0E0,0E0,0E0,0E0,0E0],"parents":[2147483647,0,0,1,1,2,2,4,4,6,6,7,7,8,8,11,11],"right_children":[2,4,6,-1,8,-1,10,12,14,-1,-1,16,-1,-1,-1,-1,-1],"split_conditions":[6.040274E-2,8.250973E2,-1.8369701E-16,-1.4579519E-4,1.9685556E2,-1.8241866E-4,8.387533E2,8.387533E2,8.660254E-1,2.0840002E-2,5.3721037E-2,-5E-1,-1.5371654E-4,1.0777903E-2,6.3635536E-2,-5.063839E-4,4.4180363E-2],"split_indices":[0,8,2,0,7,0,8,8,1,0,0,1,0,0,0,0,0],"split_type":[0,0,0,0,0,0,0,0,0,0,0,0,0,0,0,0,0],"sum_hessian":[1.067E3,1.049E3,1.8E1,9.88E2,6.1E1,1.3E1,5E0,5.9E1,2E0,2E0,3E0,2E0,5.7E1,1E0,1E0,1E0,1E0],"tree_param":{"num_deleted":"0","num_feature":"12","num_nodes":"17","size_leaf_vector":"1"}},{"base_weights":[9.6189976E-4,-1.0261495E-4,2.0448402E-2,7.749038E-3,1.763707E-1,8.284118E-2,1.2539576E-3,9.161211E-3,6.1558407E-2,-4.3042633E-4,3.1280655E-2,-1.0839666E-4,1.4241029E-2],"categories":[],"categories_nodes":[],"categories_segments":[],"categories_sizes":[],"default_left":[0,0,0,0,0,0,0,0,0,0,0,0,0],"id":11,"left_children":[1,-1,3,5,7,9,11,-1,-1,-1,-1,-1,-1],"loss_changes":[2.7144248E-2,0E0,1.3130093E-1,3.0623075E-2,1.475139E-2,9.178784E-3,4.421619E-3,0E0,0E0,0E0,0E0,0E0,0E0],"parents":[2147483647,0,0,2,2,3,3,4,4,5,5,6,6],"right_children":[2,-1,4,6,8,10,12,-1,-1,-1,-1,-1,-1],"split_conditions":[8.250973E2,-1.0261495E-4,1.9685556E2,8.387533E2,8.660254E-1,-5E-1,6.040274E-2,9.161211E-3,6.1558407E-2,-4.3042633E-4,3.1280655E-2,-1.0839666E-4,1.4241029E-2],"split_indices":[8,0,7,8,1,1,0,0,0,0,0,0,0],"split_type":[0,0,0,0,0,0,0,0,0,0,0,0,0],"sum_hessian":[1.067E3,1.001E3,6.6E1,6.2E1,4E0,4E0,5.8E1,1E0,3E0,1E0,3E0,5.7E1,1E0],"tree_param":{"num_deleted":"0","num_feature":"12","num_nodes":"13","size_leaf_vector":"1"}},{"base_weights":[7.815693E-4,-7.1861185E-5,1.6040782E-2,6.1383396E-3,1.3760337E-1,6.415886E-2,1.1173072E-3,7.787025E-3,4.7707755E-2,-3.6586236E-4,8.080834E-2,-7.643833E-5,1.2104881E-2,3.286121E-2,1.0415864E-2],"categories":[],"categories_nodes":[],"categories_segments":[],"categories_sizes":[],"default_left":[0,0,0,0,0,0,0,0,0,0,0,0,0,0,0],"id":12,"left_children":[1,-1,3,5,7,9,11,-1,-1,-1,13,-1,-1,-1,-1],"loss_changes":[1.6644651E-2,0E0,7.980769E-2,1.8281657E-2,7.83094E-3,5.5411346E-3,3.186292E-3,0E0,0E0,0E0,1.4932547E-3,0E0,0E0,0E0,0E0],"parents":[2147483647,0,0,2,2,3,3,4,4,5,5,6,6,10,10],"right_children":[2,-1,4,6,8,10,12,-1,-1,-1,14,-1,-1,-1,-1],"split_conditions":[8.250973E2,-7.1861185E-5,1.9685556E2,8.387533E2,8.660254E-1,-5E-1,6.040274E-2,7.787025E-3,4.7707755E-2,-3.6586236E-4,6.040274E-2,-7.643833E-5,1.2104881E-2,3.286121E-2,1.0415864E-2],"split_indices":[8,0,7,8,1,1,0,0,0,0,0,0,0,0,0],"split_type":[0,0,0,0,0,0,0,0,0,0,0,0,0,0,0],"sum_hessian":[1.067E3,1.001E3,6.6E1,6.2E1,4E0,4E0,5.8E1,1E0,3E0,1E0,3E0,5.7E1,1E0,1E0,2E0],"tree_param":{"num_deleted":"0","num_feature":"12","num_nodes":"15","size_leaf_vector":"1"}},{"base_weights":[6.5043406E-4,-5.0324343E-5,1.2876819E-2,5.1688943E-3,1.074213E-1,5.349344E-2,9.859852E-4,6.618977E-3,3.6973502E-2,-3.10983E-4,6.738511E-2,-5.3902204E-5,1.0289133E-2,2.7932025E-2,8.332694E-3],"categories":[],"categories_nodes":[],"categories_segments":[],"categories_sizes":[],"default_left":[0,0,0,0,0,0,0,0,0,0,0,0,0,0,0],"id":13,"left_children":[1,-1,3,5,7,9,11,-1,-1,-1,13,-1,-1,-1,-1],"loss_changes":[1.0685798E-2,0E0,4.827045E-2,1.26819E-2,4.0342137E-3,3.857418E-3,2.2970978E-3,0E0,0E0,0E0,1.4891811E-3,0E0,0E0,0E0,0E0],"parents":[2147483647,0,0,2,2,3,3,4,4,5,5,6,6,10,10],"right_children":[2,-1,4,6,8,10,12,-1,-1,-1,14,-1,-1,-1,-1],"split_conditions":[8.250973E2,-5.0324343E-5,1.9685556E2,8.387533E2,8.660254E-1,-5E-1,6.040274E-2,6.618977E-3,3.6973502E-2,-3.10983E-4,6.040274E-2,-5.3902204E-5,1.0289133E-2,2.7932025E-2,8.332694E-3],"split_indices":[8,0,7,8,1,1,0,0,0,0,0,0,0,0,0],"split_type":[0,0,0,0,0,0,0,0,0,0,0,0,0,0,0],"sum_hessian":[1.067E3,1.001E3,6.6E1,6.2E1,4E0,4E0,5.8E1,1E0,3E0,1E0,3E0,5.7E1,1E0,1E0,2E0],"tree_param":{"num_deleted":"0","num_feature":"12","num_nodes":"15","size_leaf_vector":"1"}},{"base_weights":[5.393216E-4,-3.5242105E-5,1.0353793E-2,4.3513817E-3,8.391342E-2,4.4636138E-2,8.6366705E-4,5.6261304E-3,2.865447E-2,-2.6433554E-4,5.623573E-2,-3.801035E-5,8.745754E-3,2.3742218E-2,6.666148E-3],"categories":[],"categories_nodes":[],"categories_segments":[],"categories_sizes":[],"default_left":[0,0,0,0,0,0,0,0,0,0,0,0,0,0,0],"id":14,"left_children":[1,-1,3,5,7,9,11,-1,-1,-1,13,-1,-1,-1,-1],"loss_changes":[6.8856506E-3,0E0,2.9217714E-2,8.813058E-3,1.9884817E-3,2.6894584E-3,1.6566598E-3,0E0,0E0,0E0,1.3579298E-3,0E0,0E0,0E0,0E0],"parents":[2147483647,0,0,2,2,3,3,4,4,5,5,6,6,10,10],"right_children":[2,-1,4,6,8,10,12,-1,-1,-1,14,-1,-1,-1,-1],"split_conditions":[8.250973E2,-3.5242105E-5,1.9685556E2,8.387533E2,8.660254E-1,-5E-1,6.040274E-2,5.6261304E-3,2.865447E-2,-2.6433554E-4,6.040274E-2,-3.801035E-5,8.745754E-3,2.3742218E-2,6.666148E-3],"split_indices":[8,0,7,8,1,1,0,0,0,0,0,0,0,0,0],"split_type":[0,0,0,0,0,0,0,0,0,0,0,0,0,0,0],"sum_hessian":[1.067E3,1.001E3,6.6E1,6.2E1,4E0,4E0,5.8E1,1E0,3E0,1E0,3E0,5.7E1,1E0,1E0,2E0],"tree_param":{"num_deleted":"0","num_feature":"12","num_nodes":"15","size_leaf_vector":"1"}},{"base_weights":[4.4596792E-4,-2.4680026E-5,8.33918E-3,3.6626623E-3,6.559546E-2,3.7274092E-2,7.5215724E-4,4.782218E-3,2.220719E-2,-2.2468522E-4,4.696709E-2,-2.6803851E-5,7.4339034E-3,2.0180888E-2,5.3329114E-3],"categories":[],"categories_nodes":[],"categories_segments":[],"categories_sizes":[],"default_left":[0,0,0,0,0,0,0,0,0,0,0,0,0,0,0],"id":15,"left_children":[1,-1,3,5,7,9,11,-1,-1,-1,13,-1,-1,-1,-1],"loss_changes":[4.453678E-3,0E0,1.7699664E-2,6.135017E-3,9.125788E-4,1.8779621E-3,1.1951491E-3,0E0,0E0,0E0,1.1747731E-3,0E0,0E0,0E0,0E0],"parents":[2147483647,0,0,2,2,3,3,4,4,5,5,6,6,10,10],"right_children":[2,-1,4,6,8,10,12,-1,-1,-1,14,-1,-1,-1,-1],"split_conditions":[8.250973E2,-2.4680026E-5,1.9685556E2,8.387533E2,8.660254E-1,-5E-1,6.040274E-2,4.782218E-3,2.220719E-2,-2.2468522E-4,6.040274E-2,-2.6803851E-5,7.4339034E-3,2.0180888E-2,5.3329114E-3],"split_indices":[8,0,7,8,1,1,0,0,0,0,0,0,0,0,0],"split_type":[0,0,0,0,0,0,0,0,0,0,0,0,0,0,0],"sum_hessian":[1.067E3,1.001E3,6.6E1,6.2E1,4E0,4E0,5.8E1,1E0,3E0,1E0,3E0,5.7E1,1E0,1E0,2E0],"tree_param":{"num_deleted":"0","num_feature":"12","num_nodes":"15","size_leaf_vector":"1"}},{"base_weights":[3.6803956E-4,-1.7283406E-5,6.728251E-3,3.0828493E-3,5.1314663E-2,3.1149661E-2,6.520543E-4,2.672121E-2,2.2453273E-2,-1.9098244E-4,3.925538E-2,-1.8901337E-5,6.3188197E-3,6.353303E-2,-1.2557138E-2,1.7153747E-2,4.2663217E-3,4.0648878E-3,2.4524976E-2],"categories":[],"categories_nodes":[],"categories_segments":[],"categories_sizes":[],"default_left":[0,0,0,0,0,0,0,0,0,0,0,0,0,0,0,0,0,0,0],"id":16,"left_children":[1,-1,3,5,7,9,11,13,-1,-1,15,-1,-1,17,-1,-1,-1,-1,-1],"loss_changes":[2.8917093E-3,0E0,1.0731675E-2,4.2778426E-3,8.934401E-4,1.3132435E-3,8.624223E-4,1.2757283E-2,0E0,0E0,9.81688E-4,0E0,0E0,1.6239462E-3,0E0,0E0,0E0,0E0,0E0],"parents":[2147483647,0,0,2,2,3,3,4,4,5,5,6,6,7,7,10,10,13,13],"right_children":[2,-1,4,6,8,10,12,14,-1,-1,16,-1,-1,18,-1,-1,-1,-1,-1],"split_conditions":[8.250973E2,-1.7283406E-5,1.9685556E2,8.387533E2,2.2139712E-1,-5E-1,6.040274E-2,6.040274E-2,2.2453273E-2,-1.9098244E-4,6.040274E-2,-1.8901337E-5,6.3188197E-3,8.660254E-1,-1.2557138E-2,1.7153747E-2,4.2663217E-3,4.0648878E-3,2.4524976E-2],"split_indices":[8,0,7,8,0,1,0,0,0,0,0,0,0,1,0,0,0,0,0],"split_type":[0,0,0,0,0,0,0,0,0,0,0,0,0,0,0,0,0,0,0],"sum_hessian":[1.067E3,1.001E3,6.6E1,6.2E1,4E0,4E0,5.8E1,3E0,1E0,1E0,3E0,5.7E1,1E0,2E0,1E0,1E0,2E0,1E0,1E0],"tree_param":{"num_deleted":"0","num_feature":"12","num_nodes":"19","size_leaf_vector":"1"}},{"base_weights":[3.194232E-4,-1.2103559E-5,5.695073E-3,2.5949632E-3,4.361744E-2,2.605058E-2,5.632165E-4,2.2713006E-2,1.9085277E-2,-1.6233507E-4,3.2833785E-2,-1.3328701E-5,5.3709988E-3,5.400308E-2,-1.0673583E-2,1.4580686E-2,3.4130574E-3,3.4551502E-3,2.0846236E-2],"categories":[],"categories_nodes":[],"categories_segments":[],"categories_sizes":[],"default_left":[0,0,0,0,0,0,0,0,0,0,0,0,0,0,0,0,0,0,0],"id":17,"left_children":[1,-1,3,5,7,9,11,13,-1,-1,15,-1,-1,17,-1,-1,-1,-1,-1],"loss_changes":[2.0657298E-3,0E0,7.7635683E-3,2.987648E-3,6.455118E-4,9.196517E-4,6.2245724E-4,9.2171505E-3,0E0,0E0,8.0043264E-4,0E0,0E0,1.1733044E-3,0E0,0E0,0E0,0E0,0E0],"parents":[2147483647,0,0,2,2,3,3,4,4,5,5,6,6,7,7,10,10,13,13],"right_children":[2,-1,4,6,8,10,12,14,-1,-1,16,-1,-1,18,-1,-1,-1,-1,-1],"split_conditions":[8.250973E2,-1.2103559E-5,1.9685556E2,8.387533E2,2.2139712E-1,-5E-1,6.040274E-2,6.040274E-2,1.9085277E-2,-1.6233507E-4,6.040274E-2,-1.3328701E-5,5.3709988E-3,8.660254E-1,-1.0673583E-2,1.4580686E-2,3.4130574E-3,3.4551502E-3,2.0846236E-2],"split_indices":[8,0,7,8,0,1,0,0,0,0,0,0,0,1,0,0,0,0,0],"split_type":[0,0,0,0,0,0,0,0,0,0,0,0,0,0,0,0,0,0,0],"sum_hessian":[1.067E3,1.001E3,6.6E1,6.2E1,4E0,4E0,5.8E1,3E0,1E0,1E0,3E0,5.7E1,1E0,2E0,1E0,1E0,2E0,1E0,1E0],"tree_param":{"num_deleted":"0","num_feature":"12","num_nodes":"19","size_leaf_vector":"1"}},{"base_weights":[2.7592783E-4,-8.476115E-6,4.8209126E-3,2.1845538E-3,3.7074853E-2,2.1801693E-2,4.850579E-4,1.9306064E-2,1.6222501E-2,-1.3798481E-4,2.7482092E-2,-9.399031E-6,4.5653344E-3,4.590265E-2,-9.072554E-3,1.2393576E-2,2.7304532E-3,2.936876E-3,1.7719317E-2],"categories":[],"categories_nodes":[],"categories_segments":[],"categories_sizes":[],"default_left":[0,0,0,0,0,0,0,0,0,0,0,0,0,0,0,0,0,0,0],"id":18,"left_children":[1,-1,3,5,7,9,11,13,-1,-1,15,-1,-1,17,-1,-1,-1,-1,-1],"loss_changes":[1.4766468E-3,0E0,5.6162165E-3,2.0897978E-3,4.6638446E-4,6.449153E-4,4.4933707E-4,6.6594016E-3,0E0,0E0,6.408002E-4,0E0,0E0,8.477159E-4,0E0,0E0,0E0,0E0,0E0],"parents":[2147483647,0,0,2,2,3,3,4,4,5,5,6,6,7,7,10,10,13,13],"right_children":[2,-1,4,6,8,10,12,14,-1,-1,16,-1,-1,18,-1,-1,-1,-1,-1],"split_conditions":[8.250973E2,-8.476115E-6,1.9685556E2,8.387533E2,2.2139712E-1,-5E-1,6.040274E-2,6.040274E-2,1.6222501E-2,-1.3798481E-4,6.040274E-2,-9.399031E-6,4.5653344E-3,8.660254E-1,-9.072554E-3,1.2393576E-2,2.7304532E-3,2.936876E-3,1.7719317E-2],"split_indices":[8,0,7,8,0,1,0,0,0,0,0,0,0,1,0,0,0,0,0],"split_type":[0,0,0,0,0,0,0,0,0,0,0,0,0,0,0,0,0,0,0],"sum_hessian":[1.067E3,1.001E3,6.6E1,6.2E1,4E0,4E0,5.8E1,3E0,1E0,1E0,3E0,5.7E1,1E0,2E0,1E0,1E0,2E0,1E0,1E0],"tree_param":{"num_deleted":"0","num_feature":"12","num_nodes":"19","size_leaf_vector":"1"}},{"base_weights":[2.374752E-4,1.095057E-4,8.14256E-3,1.5937234E-4,-1.7380318E-2,-4.1738866E-5,3.509283E-2,-5.4229986E-6,2.9873995E-3,-7.711673E-3,-1.094699E-4,4.8443796E-3,1.3789129E-2,1.1361155E-3,3.901728E-2,6.9448333E-3,-6.627937E-6,2.4963499E-3,1.5061427E-2],"categories":[],"categories_nodes":[],"categories_segments":[],"categories_sizes":[],"default_left":[0,0,0,0,0,0,0,0,0,0,0,0,0,0,0,0,0,0,0],"id":19,"left_children":[1,3,5,7,9,-1,11,-1,13,-1,-1,-1,-1,15,17,-1,-1,-1,-1],"loss_changes":[1.0795074E-3,9.202807E-4,3.7991768E-3,5.2697613E-4,4.155934E-4,0E0,8.157501E-5,0E0,4.0911674E-3,0E0,0E0,0E0,0E0,1.5302731E-3,6.124736E-4,0E0,0E0,0E0,0E0],"parents":[2147483647,0,0,1,1,2,2,3,3,4,4,6,6,8,8,13,13,14,14],"right_children":[2,4,6,8,10,-1,12,-1,14,-1,-1,-1,-1,16,18,-1,-1,-1,-1],"split_conditions":[5.579055E-1,6.040274E-2,-1.8369701E-16,8.250973E2,2.2139712E-1,-4.1738866E-5,7.0710677E-1,-5.4229986E-6,1.9685556E2,-7.711673E-3,-1.094699E-4,4.8443796E-3,1.3789129E-2,8.387533E2,8.660254E-1,6.9448333E-3,-6.627937E-6,2.4963499E-3,1.5061427E-2],"split_indices":[0,0,2,8,0,0,1,0,7,0,0,0,0,8,1,0,0,0,0],"split_type":[0,0,0,0,0,0,0,0,0,0,0,0,0,0,0,0,0,0,0],"sum_hessian":[1.067E3,1.051E3,1.6E1,1.049E3,2E0,1.3E1,3E0,9.88E2,6.1E1,1E0,1E0,2E0,1E0,5.9E1,2E0,2E0,5.7E1,1E0,1E0],"tree_param":{"num_deleted":"0","num_feature":"12","num_nodes":"19","size_leaf_vector":"1"}},{"base_weights":[1.9924862E-4,9.2499475E-5,6.7934166E-3,1.3488506E-4,-1.477329E-2,-3.0111612E-5,2.9223323E-2,-3.7977438E-6,2.4862776E-3,-6.554926E-3,-9.3054776E-5,3.875494E-3,1.1720753E-2,9.109186E-4,3.31647E-2,5.555873E-3,-4.6738387E-6,2.1218956E-3,1.280222E-2],"categories":[],"categories_nodes":[],"categories_segments":[],"categories_sizes":[],"default_left":[0,0,0,0,0,0,0,0,0,0,0,0,0,0,0,0,0,0,0],"id":20,"left_children":[1,3,5,7,9,-1,11,-1,13,-1,-1,-1,-1,15,17,-1,-1,-1,-1],"loss_changes":[7.5116014E-4,6.648529E-4,2.6315928E-3,3.6431255E-4,3.0026544E-4,0E0,1.37439E-4,0E0,2.9662205E-3,0E0,0E0,0E0,0E0,9.791516E-4,4.4251396E-4,0E0,0E0,0E0,0E0],"parents":[2147483647,0,0,1,1,2,2,3,3,4,4,6,6,8,8,13,13,14,14],"right_children":[2,4,6,8,10,-1,12,-1,14,-1,-1,-1,-1,16,18,-1,-1,-1,-1],"split_conditions":[5.579055E-1,6.040274E-2,-1.8369701E-16,8.250973E2,2.2139712E-1,-3.0111612E-5,7.0710677E-1,-3.7977438E-6,1.9685556E2,-6.554926E-3,-9.3054776E-5,3.875494E-3,1.1720753E-2,8.387533E2,8.660254E-1,5.555873E-3,-4.6738387E-6,2.1218956E-3,1.280222E-2],"split_indices":[0,0,2,8,0,0,1,0,7,0,0,0,0,8,1,0,0,0,0],"split_type":[0,0,0,0,0,0,0,0,0,0,0,0,0,0,0,0,0,0,0],"sum_hessian":[1.067E3,1.051E3,1.6E1,1.049E3,2E0,1.3E1,3E0,9.88E2,6.1E1,1E0,1E0,2E0,1E0,5.9E1,2E0,2E0,5.7E1,1E0,1E0],"tree_param":{"num_deleted":"0","num_feature":"12","num_nodes":"19","size_leaf_vector":"1"}},{"base_weights":[1.6699247E-4,7.7889796E-5,5.6710523E-3,1.1391629E-4,-1.2557347E-2,-2.172338E-5,2.4355412E-2,-2.6595726E-6,2.0706425E-3,-5.5716992E-3,-7.910729E-5,3.1003954E-3,9.962655E-3,7.3016307E-4,2.8190017E-2,4.4446983E-3,-3.2958621E-6,1.8036069E-3,1.0881901E-2],"categories":[],"categories_nodes":[],"categories_segments":[],"categories_sizes":[],"default_left":[0,0,0,0,0,0,0,0,0,0,0,0,0,0,0,0,0,0,0],"id":21,"left_children":[1,3,5,7,9,-1,11,-1,13,-1,-1,-1,-1,15,17,-1,-1,-1,-1],"loss_changes":[5.233337E-4,4.8030444E-4,1.8260834E-3,2.5228068E-4,2.1694103E-4,0E0,1.5332573E-4,0E0,2.1501908E-3,0E0,0E0,0E0,0E0,6.265301E-4,3.1971908E-4,0E0,0E0,0E0,0E0],"parents":[2147483647,0,0,1,1,2,2,3,3,4,4,6,6,8,8,13,13,14,14],"right_children":[2,4,6,8,10,-1,12,-1,14,-1,-1,-1,-1,16,18,-1,-1,-1,-1],"split_conditions":[5.579055E-1,6.040274E-2,-1.8369701E-16,8.250973E2,2.2139712E-1,-2.172338E-5,7.0710677E-1,-2.6595726E-6,1.9685556E2,-5.5716992E-3,-7.910729E-5,3.1003954E-3,9.962655E-3,8.387533E2,8.660254E-1,4.4446983E-3,-3.2958621E-6,1.8036069E-3,1.0881901E-2],"split_indices":[0,0,2,8,0,0,1,0,7,0,0,0,0,8,1,0,0,0,0],"split_type":[0,0,0,0,0,0,0,0,0,0,0,0,0,0,0,0,0,0,0],"sum_hessian":[1.067E3,1.051E3,1.6E1,1.049E3,2E0,1.3E1,3E0,9.88E2,6.1E1,1E0,1E0,2E0,1E0,5.9E1,2E0,2E0,5.7E1,1E0,1E0],"tree_param":{"num_deleted":"0","num_feature":"12","num_nodes":"19","size_leaf_vector":"1"}},{"base_weights":[1.3984863E-4,6.542908E-5,4.736879E-3,9.605017E-5,-1.0673761E-2,6.6812005E-4,2.3501715E-2,-1.8625075E-6,1.7256894E-3,-4.7359588E-3,-6.723404E-5,-1.5671865E-5,1.6129733E-3,2.107501E-3,8.46827E-3,5.8513717E-4,2.3961505E-2,3.5557568E-3,-2.324151E-6,1.5330614E-3,9.249616E-3],"categories":[],"categories_nodes":[],"categories_segments":[],"categories_sizes":[],"default_left":[0,0,0,0,0,0,0,0,0,0,0,0,0,0,0,0,0,0,0,0,0],"id":22,"left_children":[1,3,5,7,9,11,13,-1,15,-1,-1,-1,-1,-1,-1,17,19,-1,-1,-1,-1],"loss_changes":[3.650624E-4,3.469709E-4,1.2822412E-3,1.7498745E-4,1.5674185E-4,5.115761E-5,3.5300734E-5,0E0,1.558368E-3,0E0,0E0,0E0,0E0,0E0,0E0,4.0090719E-4,2.3099827E-4,0E0,0E0,0E0,0E0],"parents":[2147483647,0,0,1,1,2,2,3,3,4,4,5,5,6,6,8,8,15,15,16,16],"right_children":[2,4,6,8,10,12,14,-1,16,-1,-1,-1,-1,-1,-1,18,20,-1,-1,-1,-1],"split_conditions":[5.579055E-1,6.040274E-2,8.387533E2,8.250973E2,2.2139712E-1,-1.8369701E-16,5.6920165E-1,-1.8625075E-6,1.9685556E2,-4.7359588E-3,-6.723404E-5,-1.5671865E-5,1.6129733E-3,2.107501E-3,8.46827E-3,8.387533E2,8.660254E-1,3.5557568E-3,-2.324151E-6,1.5330614E-3,9.249616E-3],"split_indices":[0,0,8,8,0,2,0,0,7,0,0,0,0,0,0,8,1,0,0,0,0],"split_type":[0,0,0,0,0,0,0,0,0,0,0,0,0,0,0,0,0,0,0,0,0],"sum_hessian":[1.067E3,1.051E3,1.6E1,1.049E3,2E0,1.4E1,2E0,9.88E2,6.1E1,1E0,1E0,1.3E1,1E0,1E0,1E0,5.9E1,2E0,2E0,5.7E1,1E0,1E0],"tree_param":{"num_deleted":"0","num_feature":"12","num_nodes":"21","size_leaf_vector":"1"}},{"base_weights":[1.18215925E-4,5.4860226E-5,4.0318617E-3,8.0886726E-5,-9.072701E-3,5.7416764E-4,1.9976377E-2,-1.3043202E-6,1.4392092E-3,-4.025567E-3,-5.7148936E-5,-1.1306132E-5,1.3710201E-3,1.7913581E-3,7.198012E-3,4.688196E-4,2.0367265E-2,2.8446037E-3,-1.6389271E-6,1.3031065E-3,7.862163E-3],"categories":[],"categories_nodes":[],"categories_segments":[],"categories_sizes":[],"default_left":[0,0,0,0,0,0,0,0,0,0,0,0,0,0,0,0,0,0,0,0,0],"id":23,"left_children":[1,3,5,7,9,11,13,-1,15,-1,-1,-1,-1,-1,-1,17,19,-1,-1,-1,-1],"loss_changes":[2.6459128E-4,2.5064536E-4,9.2576153E-4,1.21570934E-4,1.1324612E-4,3.6845882E-5,2.5507179E-5,0E0,1.1292419E-3,0E0,0E0,0E0,0E0,0E0,0E0,2.5653988E-4,1.668944E-4,0E0,0E0,0E0,0E0],"parents":[2147483647,0,0,1,1,2,2,3,3,4,4,5,5,6,6,8,8,15,15,16,16],"right_children":[2,4,6,8,10,12,14,-1,16,-1,-1,-1,-1,-1,-1,18,20,-1,-1,-1,-1],"split_conditions":[5.579055E-1,6.040274E-2,8.387533E2,8.250973E2,2.2139712E-1,-1.8369701E-16,5.6920165E-1,-1.3043202E-6,1.9685556E2,-4.025567E-3,-5.7148936E-5,-1.1306132E-5,1.3710201E-3,1.7913581E-3,7.198012E-3,8.387533E2,8.660254E-1,2.8446037E-3,-1.6389271E-6,1.3031065E-3,7.862163E-3],"split_indices":[0,0,8,8,0,2,0,0,7,0,0,0,0,0,0,8,1,0,0,0,0],"split_type":[0,0,0,0,0,0,0,0,0,0,0,0,0,0,0,0,0,0,0,0,0],"sum_hessian":[1.067E3,1.051E3,1.6E1,1.049E3,2E0,1.4E1,2E0,9.88E2,6.1E1,1E0,1E0,1.3E1,1E0,1E0,1E0,5.9E1,2E0,2E0,5.7E1,1E0,1E0],"tree_param":{"num_deleted":"0","num_feature":"12","num_nodes":"21","size_leaf_vector":"1"}},{"base_weights":[9.9860874E-5,4.5934772E-5,3.4310606E-3,6.8056004E-5,-7.7118077E-3,4.925645E-4,1.6979853E-2,-9.134198E-7,1.2011298E-3,-3.4217478E-3,-4.8565867E-5,-8.156567E-6,1.1653663E-3,1.5226365E-3,6.118298E-3,3.75557E-4,1.7312208E-2,-1.8101638E-3,2.45626E-4,1.1076451E-3,6.682849E-3],"categories":[],"categories_nodes":[],"categories_segments":[],"categories_sizes":[],"default_left":[0,0,0,0,0,0,0,0,0,0,0,0,0,0,0,0,0,0,0,0,0],"id":24,"left_children":[1,3,5,7,9,11,13,-1,15,-1,-1,-1,-1,-1,-1,17,19,-1,-1,-1,-1],"loss_changes":[1.9169641E-4,1.8105944E-4,6.6845864E-4,8.4594154E-5,8.1822174E-5,2.655057E-5,1.8431223E-5,0E0,8.181521E-4,0E0,0E0,0E0,0E0,0E0,0E0,1.7537856E-4,1.2058113E-4,0E0,0E0,0E0,0E0],"parents":[2147483647,0,0,1,1,2,2,3,3,4,4,5,5,6,6,8,8,15,15,16,16],"right_children":[2,4,6,8,10,12,14,-1,16,-1,-1,-1,-1,-1,-1,18,20,-1,-1,-1,-1],"split_conditions":[5.579055E-1,6.040274E-2,8.387533E2,8.250973E2,2.2139712E-1,-1.8369701E-16,5.6920165E-1,-9.134198E-7,1.9685556E2,-3.4217478E-3,-4.8565867E-5,-8.156567E-6,1.1653663E-3,1.5226365E-3,6.118298E-3,-5E-1,8.660254E-1,-1.8101638E-3,2.45626E-4,1.1076451E-3,6.682849E-3],"split_indices":[0,0,8,8,0,2,0,0,7,0,0,0,0,0,0,1,1,0,0,0,0],"split_type":[0,0,0,0,0,0,0,0,0,0,0,0,0,0,0,0,0,0,0,0,0],"sum_hessian":[1.067E3,1.051E3,1.6E1,1.049E3,2E0,1.4E1,2E0,9.88E2,6.1E1,1E0,1E0,1.3E1,1E0,1E0,1E0,5.9E1,2E0,3E0,5.6E1,1E0,1E0],"tree_param":{"num_deleted":"0","num_feature":"12","num_nodes":"21","size_leaf_vector":"1"}},{"base_weights":[8.0720056E-5,3.477299E-5,2.9192844E-3,5.3567797E-5,-6.555001E-3,4.219409E-4,1.4432907E-2,-6.396709E-7,9.412092E-4,-2.9084804E-3,-4.1270257E-5,-5.8843802E-6,9.905577E-4,1.2942553E-3,5.200553E-3,2.3681516E-4,1.4715354E-2,2.4321454E-3,-5.230625E-5,9.4149116E-4,5.680418E-3],"categories":[],"categories_nodes":[],"categories_segments":[],"categories_sizes":[],"default_left":[0,0,0,0,0,0,0,0,0,0,0,0,0,0,0,0,0,0,0,0,0],"id":25,"left_children":[1,3,5,7,9,11,13,-1,15,-1,-1,-1,-1,-1,-1,17,19,-1,-1,-1,-1],"loss_changes":[1.39191E-4,1.3064506E-4,4.8271916E-4,5.1915747E-5,5.911723E-5,1.913942E-5,1.3314653E-5,0E0,5.9806556E-4,0E0,0E0,0E0,0E0,0E0,0E0,1.9557597E-4,8.7120745E-5,0E0,0E0,0E0,0E0],"parents":[2147483647,0,0,1,1,2,2,3,3,4,4,5,5,6,6,8,8,15,15,16,16],"right_children":[2,4,6,8,10,12,14,-1,16,-1,-1,-1,-1,-1,-1,18,20,-1,-1,-1,-1],"split_conditions":[5.579055E-1,6.040274E-2,8.387533E2,8.250973E2,2.2139712E-1,-1.8369701E-16,5.6920165E-1,-6.396709E-7,1.9685556E2,-2.9084804E-3,-4.1270257E-5,-5.8843802E-6,9.905577E-4,1.2942553E-3,5.200553E-3,8.387533E2,8.660254E-1,2.4321454E-3,-5.230625E-5,9.4149116E-4,5.680418E-3],"split_indices":[0,0,8,8,0,2,0,0,7,0,0,0,0,0,0,8,1,0,0,0,0],"split_type":[0,0,0,0,0,0,0,0,0,0,0,0,0,0,0,0,0,0,0,0,0],"sum_hessian":[1.067E3,1.051E3,1.6E1,1.049E3,2E0,1.4E1,2E0,9.88E2,6.1E1,1E0,1E0,1.3E1,1E0,1E0,1E0,5.9E1,2E0,2E0,5.7E1,1E0,1E0],"tree_param":{"num_deleted":"0","num_feature":"12","num_nodes":"21","size_leaf_vector":"1"}},{"base_weights":[6.9173526E-5,3.0093404E-5,2.483474E-3,4.6070047E-5,-5.5717626E-3,3.6100668E-4,1.2267987E-2,-4.4796369E-7,8.0403767E-4,-2.47221E-3,-3.5083296E-5,-4.2451597E-6,8.419812E-4,1.1001349E-3,4.4204593E-3,2.0543521E-4,1.2508075E-2,-1.5774419E-3,1.7557196E-4,8.002639E-4,4.8283697E-3],"categories":[],"categories_nodes":[],"categories_segments":[],"categories_sizes":[],"default_left":[0,0,0,0,0,0,0,0,0,0,0,0,0,0,0,0,0,0,0,0,0],"id":26,"left_children":[1,3,5,7,9,11,13,-1,15,-1,-1,-1,-1,-1,-1,17,19,-1,-1,-1,-1],"loss_changes":[1.006923E-4,9.4409486E-5,3.4861543E-4,3.785518E-5,4.2712003E-5,1.3801966E-5,9.617419E-6,0E0,4.3180643E-4,0E0,0E0,0E0,0E0,0E0,0E0,1.2758274E-4,6.294591E-5,0E0,0E0,0E0,0E0],"parents":[2147483647,0,0,1,1,2,2,3,3,4,4,5,5,6,6,8,8,15,15,16,16],"right_children":[2,4,6,8,10,12,14,-1,16,-1,-1,-1,-1,-1,-1,18,20,-1,-1,-1,-1],"split_conditions":[5.579055E-1,6.040274E-2,8.387533E2,8.250973E2,2.2139712E-1,-1.8369701E-16,5.6920165E-1,-4.4796369E-7,1.9685556E2,-2.47221E-3,-3.5083296E-5,-4.2451597E-6,8.419812E-4,1.1001349E-3,4.4204593E-3,-5E-1,8.660254E-1,-1.5774419E-3,1.7557196E-4,8.002639E-4,4.8283697E-3],"split_indices":[0,0,8,8,0,2,0,0,7,0,0,0,0,0,0,1,1,0,0,0,0],"split_type":[0,0,0,0,0,0,0,0,0,0,0,0,0,0,0,0,0,0,0,0,0],"sum_hessian":[1.067E3,1.051E3,1.6E1,1.049E3,2E0,1.4E1,2E0,9.88E2,6.1E1,1E0,1E0,1.3E1,1E0,1E0,1E0,5.9E1,2E0,3E0,5.6E1,1E0,1E0],"tree_param":{"num_deleted":"0","num_feature":"12","num_nodes":"21","size_leaf_vector":"1"}},{"base_weights":[5.598438E-5,2.2699267E-5,2.1124524E-3,3.6274007E-5,-4.7360263E-3,3.0855415E-4,1.0427793E-2,-3.1371047E-7,6.3099846E-4,-2.1013857E-3,-2.9826166E-5,-3.0625797E-6,7.156849E-4,9.351254E-4,3.7573816E-3,6.7932606E-3,-2.7680324E-4,-8.522928E-4,7.1391943E-3,-1.09772336E-4,6.8022613E-4],"categories":[],"categories_nodes":[],"categories_segments":[],"categories_sizes":[],"default_left":[0,0,0,0,0,0,0,0,0,0,0,0,0,0,0,0,0,0,0,0,0],"id":27,"left_children":[1,3,5,7,9,11,13,-1,15,-1,-1,-1,-1,-1,-1,17,19,-1,-1,-1,-1],"loss_changes":[7.305641E-5,6.8129375E-5,2.5178294E-4,2.3305352E-5,3.08593E-5,9.955704E-6,6.947288E-6,0E0,3.4871532E-4,0E0,0E0,0E0,0E0,0E0,0E0,1.3781762E-3,1.3298266E-5,0E0,0E0,0E0,0E0],"parents":[2147483647,0,0,1,1,2,2,3,3,4,4,5,5,6,6,8,8,15,15,16,16],"right_children":[2,4,6,8,10,12,14,-1,16,-1,-1,-1,-1,-1,-1,18,20,-1,-1,-1,-1],"split_conditions":[5.579055E-1,6.040274E-2,8.387533E2,8.250973E2,2.2139712E-1,-1.8369701E-16,5.6920165E-1,-3.1371047E-7,8.5470795E2,-2.1013857E-3,-2.9826166E-5,-3.0625797E-6,7.156849E-4,9.351254E-4,3.7573816E-3,5E-1,1.9685556E2,-8.522928E-4,7.1391943E-3,-1.09772336E-4,6.8022613E-4],"split_indices":[0,0,8,8,0,2,0,0,8,0,0,0,0,0,0,1,7,0,0,0,0],"split_type":[0,0,0,0,0,0,0,0,0,0,0,0,0,0,0,0,0,0,0,0,0],"sum_hessian":[1.067E3,1.051E3,1.6E1,1.049E3,2E0,1.4E1,2E0,9.88E2,6.1E1,1E0,1E0,1.3E1,1E0,1E0,1E0,7E0,5.4E1,5E0,2E0,5.3E1,1E0],"tree_param":{"num_deleted":"0","num_feature":"12","num_nodes":"21","size_leaf_vector":"1"}},{"base_weights":[4.8674898E-5,2.0381725E-5,1.7966599E-3,3.1922315E-5,-4.025618E-3,2.6349287E-4,8.863608E-3,-2.196925E-7,5.5230135E-4,-1.7861725E-3,-2.5355817E-5,-2.2094325E-6,6.08325E-4,7.9486374E-4,3.19376E-3,5.541142E-3,-1.8339005E-4,-6.3921965E-4,5.711353E-3,-7.745047E-5,5.7819486E-4],"categories":[],"categories_nodes":[],"categories_segments":[],"categories_sizes":[],"default_left":[0,0,0,0,0,0,0,0,0,0,0,0,0,0,0,0,0,0,0,0,0],"id":28,"left_children":[1,3,5,7,9,11,13,-1,15,-1,-1,-1,-1,-1,-1,17,19,-1,-1,-1,-1],"loss_changes":[5.278243E-5,4.924978E-5,1.8185629E-4,1.7842824E-5,2.2295517E-5,7.182872E-6,5.01849E-6,0E0,2.285715E-4,0E0,0E0,0E0,0E0,0E0,0E0,8.6892454E-4,9.178486E-6,0E0,0E0,0E0,0E0],"parents":[2147483647,0,0,1,1,2,2,3,3,4,4,5,5,6,6,8,8,15,15,16,16],"right_children":[2,4,6,8,10,12,14,-1,16,-1,-1,-1,-1,-1,-1,18,20,-1,-1,-1,-1],"split_conditions":[5.579055E-1,6.040274E-2,8.387533E2,8.250973E2,2.2139712E-1,-1.8369701E-16,5.6920165E-1,-2.196925E-7,8.5470795E2,-1.7861725E-3,-2.5355817E-5,-2.2094325E-6,6.08325E-4,7.9486374E-4,3.19376E-3,5E-1,1.9685556E2,-6.3921965E-4,5.711353E-3,-7.745047E-5,5.7819486E-4],"split_indices":[0,0,8,8,0,2,0,0,8,0,0,0,0,0,0,1,7,0,0,0,0],"split_type":[0,0,0,0,0,0,0,0,0,0,0,0,0,0,0,0,0,0,0,0,0],"sum_hessian":[1.067E3,1.051E3,1.6E1,1.049E3,2E0,1.4E1,2E0,9.88E2,6.1E1,1E0,1E0,1.3E1,1E0,1E0,1E0,7E0,5.4E1,5E0,2E0,5.3E1,1E0],"tree_param":{"num_deleted":"0","num_feature":"12","num_nodes":"21","size_leaf_vector":"1"}},{"base_weights":[4.1896237E-5,1.78425E-5,1.5279336E-3,2.765301E-5,-3.4217834E-3,2.2485272E-4,7.534027E-3,-1.5385137E-7,4.764977E-4,-1.5182376E-3,-2.1564962E-5,-1.5939476E-6,5.170763E-4,6.756306E-4,2.7146817E-3,4.512825E-3,-1.1926805E-4,-4.7941477E-4,4.5690895E-3,-5.4645614E-5,4.914701E-4],"categories":[],"categories_nodes":[],"categories_segments":[],"categories_sizes":[],"default_left":[0,0,0,0,0,0,0,0,0,0,0,0,0,0,0,0,0,0,0,0,0],"id":29,"left_children":[1,3,5,7,9,11,13,-1,15,-1,-1,-1,-1,-1,-1,17,19,-1,-1,-1,-1],"loss_changes":[3.8148133E-5,3.559382E-5,1.313552E-4,1.3274439E-5,1.6107759E-5,5.183522E-6,3.6258134E-6,0E0,1.4962998E-4,0E0,0E0,0E0,0E0,0E0,0E0,5.482838E-4,6.376937E-6,0E0,0E0,0E0,0E0],"parents":[2147483647,0,0,1,1,2,2,3,3,4,4,5,5,6,6,8,8,15,15,16,16],"right_children":[2,4,6,8,10,12,14,-1,16,-1,-1,-1,-1,-1,-1,18,20,-1,-1,-1,-1],"split_conditions":[5.579055E-1,6.040274E-2,8.387533E2,8.250973E2,2.2139712E-1,-1.8369701E-16,5.6920165E-1,-1.5385137E-7,8.5470795E2,-1.5182376E-3,-2.1564962E-5,-1.5939476E-6,5.170763E-4,6.756306E-4,2.7146817E-3,5E-1,1.9685556E2,-4.7941477E-4,4.5690895E-3,-5.4645614E-5,4.914701E-4],"split_indices":[0,0,8,8,0,2,0,0,8,0,0,0,0,0,0,1,7,0,0,0,0],"split_type":[0,0,0,0,0,0,0,0,0,0,0,0,0,0,0,0,0,0,0,0,0],"sum_hessian":[1.067E3,1.051E3,1.6E1,1.049E3,2E0,1.4E1,2E0,9.88E2,6.1E1,1E0,1E0,1.3E1,1E0,1E0,1E0,7E0,5.4E1,5E0,2E0,5.3E1,1E0],"tree_param":{"num_deleted":"0","num_feature":"12","num_nodes":"21","size_leaf_vector":"1"}},{"base_weights":[3.5780766E-5,1.5328618E-5,1.299303E-3,2.3667952E-5,-2.9085476E-3,1.9175881E-4,6.403923E-3,-1.0774264E-7,4.065571E-4,-1.2905002E-3,-1.834631E-5,-1.1499194E-6,4.3950678E-4,5.742789E-4,2.3074867E-3,3.6701956E-3,-7.554591E-5,-3.5956106E-4,3.6552788E-3,-3.8555518E-5,4.1774512E-4],"categories":[],"categories_nodes":[],"categories_segments":[],"categories_sizes":[],"default_left":[0,0,0,0,0,0,0,0,0,0,0,0,0,0,0,0,0,0,0,0,0],"id":30,"left_children":[1,3,5,7,9,11,13,-1,15,-1,-1,-1,-1,-1,-1,17,19,-1,-1,-1,-1],"loss_changes":[2.7579064E-5,2.5719946E-5,9.488307E-5,9.659845E-6,1.1637212E-5,3.741216E-6,2.6202033E-6,0E0,9.782869E-5,0E0,0E0,0E0,0E0,0E0,0E0,3.46225E-4,4.456043E-6,0E0,0E0,0E0,0E0],"parents":[2147483647,0,0,1,1,2,2,3,3,4,4,5,5,6,6,8,8,15,15,16,16],"right_children":[2,4,6,8,10,12,14,-1,16,-1,-1,-1,-1,-1,-1,18,20,-1,-1,-1,-1],"split_conditions":[5.579055E-1,6.040274E-2,8.387533E2,8.250973E2,2.2139712E-1,-1.8369701E-16,5.6920165E-1,-1.0774264E-7,8.5470795E2,-1.2905002E-3,-1.834631E-5,-1.1499194E-6,4.3950678E-4,5.742789E-4,2.3074867E-3,5E-1,1.9685556E2,-3.5956106E-4,3.6552788E-3,-3.8555518E-5,4.1774512E-4],"split_indices":[0,0,8,8,0,2,0,0,8,0,0,0,0,0,0,1,7,0,0,0,0],"split_type":[0,0,0,0,0,0,0,0,0,0,0,0,0,0,0,0,0,0,0,0,0],"sum_hessian":[1.067E3,1.051E3,1.6E1,1.049E3,2E0,1.4E1,2E0,9.88E2,6.1E1,1E0,1E0,1.3E1,1E0,1E0,1E0,7E0,5.4E1,5E0,2E0,5.3E1,1E0],"tree_param":{"num_deleted":"0","num_feature":"12","num_nodes":"21","size_leaf_vector":"1"}},{"base_weights":[3.0370706E-5,1.2979185E-5,1.1048124E-3,2.0067455E-5,-2.4722416E-3,1.6345376E-4,5.4433346E-3,-7.545253E-8,3.4386403E-4,-1.0969163E-3,-1.5592575E-5,-8.295846E-7,3.7357808E-4,4.881263E-4,1.9613744E-3,2.9811077E-3,-4.5987126E-5,-2.6967077E-4,2.9242279E-3,-2.7203057E-5,3.5508873E-4],"categories":[],"categories_nodes":[],"categories_segments":[],"categories_sizes":[],"default_left":[0,0,0,0,0,0,0,0,0,0,0,0,0,0,0,0,0,0,0,0,0],"id":31,"left_children":[1,3,5,7,9,11,13,-1,15,-1,-1,-1,-1,-1,-1,17,19,-1,-1,-1,-1],"loss_changes":[1.9942494E-5,1.8581557E-5,6.854006E-5,6.9082585E-6,8.407802E-6,2.700696E-6,1.8938008E-6,0E0,6.388131E-5,0E0,0E0,0E0,0E0,0E0,0E0,2.1878903E-4,3.1296443E-6,0E0,0E0,0E0,0E0],"parents":[2147483647,0,0,1,1,2,2,3,3,4,4,5,5,6,6,8,8,15,15,16,16],"right_children":[2,4,6,8,10,12,14,-1,16,-1,-1,-1,-1,-1,-1,18,20,-1,-1,-1,-1],"split_conditions":[5.579055E-1,6.040274E-2,8.387533E2,8.250973E2,2.2139712E-1,-1.8369701E-16,5.6920165E-1,-7.545253E-8,8.5470795E2,-1.0969163E-3,-1.5592575E-5,-8.295846E-7,3.7357808E-4,4.881263E-4,1.9613744E-3,5E-1,1.9685556E2,-2.6967077E-4,2.9242279E-3,-2.7203057E-5,3.5508873E-4],"split_indices":[0,0,8,8,0,2,0,0,8,0,0,0,0,0,0,1,7,0,0,0,0],"split_type":[0,0,0,0,0,0,0,0,0,0,0,0,0,0,0,0,0,0,0,0,0],"sum_hessian":[1.067E3,1.051E3,1.6E1,1.049E3,2E0,1.4E1,2E0,9.88E2,6.1E1,1E0,1E0,1.3E1,1E0,1E0,1E0,7E0,5.4E1,5E0,2E0,5.3E1,1E0],"tree_param":{"num_deleted":"0","num_feature":"12","num_nodes":"21","size_leaf_vector":"1"}},{"base_weights":[2.5652786E-5,1.0862827E-5,9.393812E-4,1.688758E-5,-2.1014214E-3,1.3926595E-4,4.6268306E-3,-7.205713E-7,3.0743406E-4,-9.3237165E-4,-1.3267994E-5,-5.9848605E-7,3.175378E-4,4.1491986E-4,1.6671539E-3,-2.5141973E-5,1.1906488E-4,9.944349E-4,-2.623008E-5,-5.2828874E-8,-3.085809E-3,-5.2576414E-8,3.0048252E-3,-1.9193267E-5,3.0182005E-4],"categories":[],"categories_nodes":[],"categories_segments":[],"categories_sizes":[],"default_left":[0,0,0,0,0,0,0,0,0,0,0,0,0,0,0,0,0,0,0,0,0,0,0,0,0],"id":32,"left_children":[1,3,5,7,9,11,13,15,17,-1,-1,-1,-1,-1,-1,19,21,-1,23,-1,-1,-1,-1,-1,-1],"loss_changes":[1.4422752E-5,1.3423229E-5,4.951217E-5,5.3720078E-6,6.0741486E-6,1.9498027E-6,1.3675453E-6,2.901994E-6,6.0293623E-5,0E0,0E0,0E0,0E0,0E0,0E0,2.1108396E-4,1.9826222E-4,0E0,2.2075287E-6,0E0,0E0,0E0,0E0,0E0,0E0],"parents":[2147483647,0,0,1,1,2,2,3,3,4,4,5,5,6,6,7,7,8,8,15,15,16,16,18,18],"right_children":[2,4,6,8,10,12,14,16,18,-1,-1,-1,-1,-1,-1,20,22,-1,24,-1,-1,-1,-1,-1,-1],"split_conditions":[5.579055E-1,6.040274E-2,8.387533E2,8.387533E2,2.2139712E-1,-1.8369701E-16,5.6920165E-1,8.660254E-1,8.5470795E2,-9.3237165E-4,-1.3267994E-5,-5.9848605E-7,3.175378E-4,4.1491986E-4,1.6671539E-3,8.0900775E2,8.250973E2,9.944349E-4,1.9685556E2,-5.2828874E-8,-3.085809E-3,-5.2576414E-8,3.0048252E-3,-1.9193267E-5,3.0182005E-4],"split_indices":[0,0,8,8,0,2,0,2,8,0,0,0,0,0,0,8,8,0,7,0,0,0,0,0,0],"split_type":[0,0,0,0,0,0,0,0,0,0,0,0,0,0,0,0,0,0,0,0,0,0,0,0,0],"sum_hessian":[1.067E3,1.051E3,1.6E1,1.049E3,2E0,1.4E1,2E0,9.9E2,5.9E1,1E0,1E0,1.3E1,1E0,1E0,1E0,8.23E2,1.67E2,5E0,5.4E1,8.22E2,1E0,1.66E2,1E0,5.3E1,1E0],"tree_param":{"num_deleted":"0","num_feature":"12","num_nodes":"25","size_leaf_vector":"1"}},{"base_weights":[2.0437708E-5,7.842105E-6,7.9868105E-4,1.2960336E-5,-1.7861525E-3,1.1861307E-4,1.1798383E-3,-5.8618934E-7,2.3648777E-4,-7.925034E-4,-1.1265278E-5,-4.3176493E-7,2.6990176E-4,-2.134436E-5,1.0123118E-4,2.486086E-3,-1.32227115E-5,-3.6999467E-8,-2.6229376E-3,-3.689794E-8,2.5541068E-3,9.338018E-4,2.465825E-4,-1.3541916E-5,2.5654436E-4],"categories":[],"categories_nodes":[],"categories_segments":[],"categories_sizes":[],"default_left":[0,0,0,0,0,0,0,0,0,0,0,0,0,0,0,0,0,0,0,0,0,0,0,0,0],"id":33,"left_children":[1,3,5,7,9,11,-1,13,15,-1,-1,-1,-1,17,19,21,23,-1,-1,-1,-1,-1,-1,-1,-1],"loss_changes":[1.0462747E-5,9.682695E-6,3.5767487E-5,3.1795598E-6,4.388721E-6,1.4078144E-6,0E0,2.0966809E-6,3.3737764E-5,0E0,0E0,0E0,0E0,1.5250909E-4,1.4324418E-4,3.697951E-6,1.5629696E-6,0E0,0E0,0E0,0E0,0E0,0E0,0E0,0E0],"parents":[2147483647,0,0,1,1,2,2,3,3,4,4,5,5,7,7,8,8,13,13,14,14,15,15,16,16],"right_children":[2,4,6,8,10,12,-1,14,16,-1,-1,-1,-1,18,20,22,24,-1,-1,-1,-1,-1,-1,-1,-1],"split_conditions":[5.579055E-1,6.040274E-2,8.387533E2,8.387533E2,2.2139712E-1,-1.8369701E-16,1.1798383E-3,8.660254E-1,8.5470795E2,-7.925034E-4,-1.1265278E-5,-4.3176493E-7,2.6990176E-4,8.0900775E2,8.250973E2,8.660254E-1,1.9685556E2,-3.6999467E-8,-2.6229376E-3,-3.689794E-8,2.5541068E-3,9.338018E-4,2.465825E-4,-1.3541916E-5,2.5654436E-4],"split_indices":[0,0,8,8,0,2,0,2,8,0,0,0,0,8,8,2,7,0,0,0,0,0,0,0,0],"split_type":[0,0,0,0,0,0,0,0,0,0,0,0,0,0,0,0,0,0,0,0,0,0,0,0,0],"sum_hessian":[1.067E3,1.051E3,1.6E1,1.049E3,2E0,1.4E1,2E0,9.9E2,5.9E1,1E0,1E0,1.3E1,1E0,8.23E2,1.67E2,5E0,5.4E1,8.22E2,1E0,1.66E2,1E0,3E0,2E0,5.3E1,1E0],"tree_param":{"num_deleted":"0","num_feature":"12","num_nodes":"25","size_leaf_vector":"1"}},{"base_weights":[1.6178825E-5,6.0128805E-6,6.4431963E-4,1.036219E-5,-1.5182495E-3,1.6789185E-4,1.2400746E-3,-4.798146E-7,1.8926326E-4,-6.736279E-4,-9.584427E-6,-3.114875E-7,2.7008058E-4,-1.8124272E-5,8.606491E-5,8.215829E-4,5.4137352E-5,-2.5913112E-8,-2.2294968E-3,-2.5894842E-8,2.170998E-3,2.5545244E-4,-1.4512697E-6],"categories":[],"categories_nodes":[],"categories_segments":[],"categories_sizes":[],"default_left":[0,0,0,0,0,0,0,0,0,0,0,0,0,0,0,0,0,0,0,0,0,0,0],"id":34,"left_children":[1,3,5,7,9,11,-1,13,15,-1,-1,-1,-1,17,19,-1,21,-1,-1,-1,-1,-1,-1],"loss_changes":[6.8159934E-6,6.989954E-6,2.7566493E-5,2.036719E-6,3.1706732E-6,1.9804627E-6,0E0,1.5148513E-6,2.0520703E-5,0E0,0E0,0E0,0E0,1.1018836E-4,1.0349407E-4,0E0,2.7315618E-6,0E0,0E0,0E0,0E0,0E0,0E0],"parents":[2147483647,0,0,1,1,2,2,3,3,4,4,5,5,7,7,8,8,13,13,14,14,16,16],"right_children":[2,4,6,8,10,12,-1,14,16,-1,-1,-1,-1,18,20,-1,22,-1,-1,-1,-1,-1,-1],"split_conditions":[5.579055E-1,6.040274E-2,1.3493042E2,8.387533E2,2.2139712E-1,-1.8369701E-16,1.2400746E-3,8.660254E-1,-5E-1,-6.736279E-4,-9.584427E-6,-3.114875E-7,2.7008058E-4,8.0900775E2,8.250973E2,8.215829E-4,8.5470795E2,-2.5913112E-8,-2.2294968E-3,-2.5894842E-8,2.170998E-3,2.5545244E-4,-1.4512697E-6],"split_indices":[0,0,7,8,0,2,0,2,1,0,0,0,0,8,8,0,8,0,0,0,0,0,0],"split_type":[0,0,0,0,0,0,0,0,0,0,0,0,0,0,0,0,0,0,0,0,0,0,0],"sum_hessian":[1.067E3,1.051E3,1.6E1,1.049E3,2E0,1.5E1,1E0,9.9E2,5.9E1,1E0,1E0,1.3E1,2E0,8.23E2,1.67E2,2E0,5.7E1,8.22E2,1E0,1.66E2,1E0,3E0,5.4E1],"tree_param":{"num_deleted":"0","num_feature":"12","num_nodes":"23","size_leaf_vector":"1"}},{"base_weights":[1.3051328E-5,4.526242E-6,5.3983595E-4,8.222177E-6,-1.2905598E-3,1.343789E-4,1.0540724E-3,-3.9499486E-7,1.504121E-4,-5.72598E-4,-8.153916E-6,-2.24716E-7,2.1605493E-4,-1.5392723E-5,7.316764E-5,6.5726636E-4,4.2276948E-5,-1.8148624E-8,-1.8950724E-3,-1.8172905E-8,1.845342E-3,-9.704521E-7,2.6332142E-4],"categories":[],"categories_nodes":[],"categories_segments":[],"categories_sizes":[],"default_left":[0,0,0,0,0,0,0,0,0,0,0,0,0,0,0,0,0,0,0,0,0,0,0],"id":35,"left_children":[1,3,5,7,9,11,-1,13,15,-1,-1,-1,-1,17,19,-1,21,-1,-1,-1,-1,-1,-1],"loss_changes":[4.793821E-6,5.0460653E-6,2.0025147E-5,1.2865981E-6,2.2908098E-6,1.2670756E-6,0E0,1.0944691E-6,1.3146203E-5,0E0,0E0,0E0,0E0,7.961141E-5,7.477365E-5,0E0,2.2081922E-6,0E0,0E0,0E0,0E0,0E0,0E0],"parents":[2147483647,0,0,1,1,2,2,3,3,4,4,5,5,7,7,8,8,13,13,14,14,16,16],"right_children":[2,4,6,8,10,12,-1,14,16,-1,-1,-1,-1,18,20,-1,22,-1,-1,-1,-1,-1,-1],"split_conditions":[5.579055E-1,6.040274E-2,1.3493042E2,8.387533E2,2.2139712E-1,-1.8369701E-16,1.0540724E-3,8.660254E-1,-5E-1,-5.72598E-4,-8.153916E-6,-2.24716E-7,2.1605493E-4,8.0900775E2,8.250973E2,6.5726636E-4,1.9685556E2,-1.8148624E-8,-1.8950724E-3,-1.8172905E-8,1.845342E-3,-9.704521E-7,2.6332142E-4],"split_indices":[0,0,7,8,0,2,0,2,1,0,0,0,0,8,8,0,7,0,0,0,0,0,0],"split_type":[0,0,0,0,0,0,0,0,0,0,0,0,0,0,0,0,0,0,0,0,0,0,0],"sum_hessian":[1.067E3,1.051E3,1.6E1,1.049E3,2E0,1.5E1,1E0,9.9E2,5.9E1,1E0,1E0,1.3E1,2E0,8.23E2,1.67E2,2E0,5.7E1,8.22E2,1E0,1.66E2,1E0,5.5E1,2E0],"tree_param":{"num_deleted":"0","num_feature":"12","num_nodes":"23","size_leaf_vector":"1"}},{"base_weights":[1.0595885E-5,4.081883E-6,5.007156E-4,1.9752079E-6,-4.3447342E-4,8.9596515E-4,2.3928884E-5,-4.866958E-4,3.8267874E-5],"categories":[],"categories_nodes":[],"categories_segments":[],"categories_sizes":[],"default_left":[0,0,0,0,0,0,0,0,0],"id":36,"left_children":[1,3,5,-1,7,-1,-1,-1,-1],"loss_changes":[3.4076968E-6,1.1605417E-6,1.44116475E-5,0E0,4.2125935E-6,0E0,0E0,0E0,0E0],"parents":[2147483647,0,0,1,1,2,2,4,4],"right_children":[2,4,6,-1,8,-1,-1,-1,-1],"split_conditions":[1.3373424E0,6.040274E-2,1.4696382E0,1.9752079E-6,2.2139712E-1,8.9596515E-4,2.3928884E-5,-4.866958E-4,3.8267874E-5],"split_indices":[0,0,0,0,0,0,0,0,0],"split_type":[0,0,0,0,0,0,0,0,0],"sum_hessian":[1.067E3,1.054E3,1.3E1,1.049E3,5E0,1E0,1.2E1,1E0,4E0],"tree_param":{"num_deleted":"0","num_feature":"12","num_nodes":"9","size_leaf_vector":"1"}},{"base_weights":[7.860045E-6,7.301417E-7,4.162045E-4,7.615686E-4,1.7301678E-5],"categories":[],"categories_nodes":[],"categories_segments":[],"categories_sizes":[],"default_left":[0,0,0,0,0],"id":37,"left_children":[1,-1,3,-1,-1],"loss_changes":[2.3654343E-6,0E0,1.0506665E-5,0E0,0E0],"parents":[2147483647,0,0,2,2],"right_children":[2,-1,4,-1,-1],"split_conditions":[1.3373424E0,7.301417E-7,1.4696382E0,7.615686E-4,1.7301678E-5],"split_indices":[0,0,0,0,0],"split_type":[0,0,0,0,0],"sum_hessian":[1.067E3,1.054E3,1.3E1,1E0,1.2E1],"tree_param":{"num_deleted":"0","num_feature":"12","num_nodes":"5","size_leaf_vector":"1"}},{"base_weights":[6.2321487E-6,1.170371E-6,3.1910028E-4,1.1643788E-6,-9.480317E-4,2.0795436E-5,6.4734224E-4,-4.138112E-4,-1.2803078E-5],"categories":[],"categories_nodes":[],"categories_segments":[],"categories_sizes":[],"default_left":[0,0,0,0,0,0,0,0,0],"id":38,"left_children":[1,3,5,-1,7,-1,-1,-1,-1],"loss_changes":[1.690985E-6,2.710669E-6,7.65812E-6,0E0,1.1126772E-6,0E0,0E0,0E0,0E0],"parents":[2147483647,0,0,1,1,2,2,4,4],"right_children":[2,4,6,-1,8,-1,-1,-1,-1],"split_conditions":[5.579055E-1,6.040274E-2,1.3493042E2,1.1643788E-6,2.2139712E-1,2.0795436E-5,6.4734224E-4,-4.138112E-4,-1.2803078E-5],"split_indices":[0,0,7,0,0,0,0,0,0],"split_type":[0,0,0,0,0,0,0,0,0],"sum_hessian":[1.067E3,1.051E3,1.6E1,1.049E3,2E0,1.5E1,1E0,1E0,1E0],"tree_param":{"num_deleted":"0","num_feature":"12","num_nodes":"9","size_leaf_vector":"1"}},{"base_weights":[4.58994E-6,-1.3996105E-6,1.4293664E-4,-1.3730556E-3,2.3545277E-4,-1.611392E-3,5.250391E-4,2.8404593E-3,6.077279E-5,1.5679479E-3,9.0885165E-5,6.47197E-7,5.502463E-4,9.09469E-6,-1.7194748E-4],"categories":[],"categories_nodes":[],"categories_segments":[],"categories_sizes":[],"default_left":[0,0,0,0,0,0,0,0,0,0,0,0,0,0,0],"id":39,"left_children":[1,-1,3,5,7,-1,-1,9,11,-1,-1,13,-1,-1,-1],"loss_changes":[1.3681783E-6,0E0,9.72029E-6,5.934961E-5,2.8950097E-5,0E0,0E0,2.2634955E-5,6.5029744E-6,0E0,0E0,1.0388102E-6,0E0,0E0,0E0],"parents":[2147483647,0,0,2,2,3,3,4,4,7,7,8,8,11,11],"right_children":[2,-1,4,6,8,-1,-1,10,12,-1,-1,14,-1,-1,-1],"split_conditions":[8.250973E2,-1.3996105E-6,-5E-1,8.387533E2,8.387533E2,-1.611392E-3,5.250391E-4,6.040274E-2,5.6920165E-1,1.5679479E-3,9.0885165E-5,6.040274E-2,5.502463E-4,9.09469E-6,-1.7194748E-4],"split_indices":[8,0,1,8,8,0,0,0,0,0,0,0,0,0,0],"split_type":[0,0,0,0,0,0,0,0,0,0,0,0,0,0,0],"sum_hessian":[1.067E3,1.001E3,6.6E1,3E0,6.3E1,1E0,2E0,3E0,6E1,1E0,2E0,5.9E1,1E0,5.7E1,2E0],"tree_param":{"num_deleted":"0","num_feature":"12","num_nodes":"15","size_leaf_vector":"1"}},{"base_weights":[4.110437E-6],"categories":[],"categories_nodes":[],"categories_segments":[],"categories_sizes":[],"default_left":[0],"id":40,"left_children":[-1],"loss_changes":[0E0],"parents":[2147483647],"right_children":[-1],"split_conditions":[1.2331312E-6],"split_indices":[0],"split_type":[0],"sum_hessian":[1.067E3],"tree_param":{"num_deleted":"0","num_feature":"12","num_nodes":"1","size_leaf_vector":"1"}},{"base_weights":[2.878768E-6],"categories":[],"categories_nodes":[],"categories_segments":[],"categories_sizes":[],"default_left":[0],"id":41,"left_children":[-1],"loss_changes":[0E0],"parents":[2147483647],"right_children":[-1],"split_conditions":[8.636305E-7],"split_indices":[0],"split_type":[0],"sum_hessian":[1.067E3],"tree_param":{"num_deleted":"0","num_feature":"12","num_nodes":"1","size_leaf_vector":"1"}},{"base_weights":[2.015607E-6],"categories":[],"categories_nodes":[],"categories_segments":[],"categories_sizes":[],"default_left":[0],"id":42,"left_children":[-1],"loss_changes":[0E0],"parents":[2147483647],"right_children":[-1],"split_conditions":[6.046821E-7],"split_indices":[0],"split_type":[0],"sum_hessian":[1.067E3],"tree_param":{"num_deleted":"0","num_feature":"12","num_nodes":"1","size_leaf_vector":"1"}},{"base_weights":[1.4109978E-6],"categories":[],"categories_nodes":[],"categories_segments":[],"categories_sizes":[],"default_left":[0],"id":43,"left_children":[-1],"loss_changes":[0E0],"parents":[2147483647],"right_children":[-1],"split_conditions":[4.2329935E-7],"split_indices":[0],"split_type":[0],"sum_hessian":[1.067E3],"tree_param":{"num_deleted":"0","num_feature":"12","num_nodes":"1","size_leaf_vector":"1"}},{"base_weights":[9.876934E-7],"categories":[],"categories_nodes":[],"categories_segments":[],"categories_sizes":[],"default_left":[0],"id":44,"left_children":[-1],"loss_changes":[0E0],"parents":[2147483647],"right_children":[-1],"split_conditions":[2.9630803E-7],"split_indices":[0],"split_type":[0],"sum_hessian":[1.067E3],"tree_param":{"num_deleted":"0","num_feature":"12","num_nodes":"1","size_leaf_vector":"1"}},{"base_weights":[6.9209636E-7],"categories":[],"categories_nodes":[],"categories_segments":[],"categories_sizes":[],"default_left":[0],"id":45,"left_children":[-1],"loss_changes":[0E0],"parents":[2147483647],"right_children":[-1],"split_conditions":[2.0762891E-7],"split_indices":[0],"split_type":[0],"sum_hessian":[1.067E3],"tree_param":{"num_deleted":"0","num_feature":"12","num_nodes":"1","size_leaf_vector":"1"}},{"base_weights":[4.84431E-7],"categories":[],"categories_nodes":[],"categories_segments":[],"categories_sizes":[],"default_left":[0],"id":46,"left_children":[-1],"loss_changes":[0E0],"parents":[2147483647],"right_children":[-1],"split_conditions":[1.453293E-7],"split_indices":[0],"split_type":[0],"sum_hessian":[1.067E3],"tree_param":{"num_deleted":"0","num_feature":"12","num_nodes":"1","size_leaf_vector":"1"}},{"base_weights":[3.3887557E-7],"categories":[],"categories_nodes":[],"categories_segments":[],"categories_sizes":[],"default_left":[0],"id":47,"left_children":[-1],"loss_changes":[0E0],"parents":[2147483647],"right_children":[-1],"split_conditions":[1.0166267E-7],"split_indices":[0],"split_type":[0],"sum_hessian":[1.067E3],"tree_param":{"num_deleted":"0","num_feature":"12","num_nodes":"1","size_leaf_vector":"1"}},{"base_weights":[2.377345E-7],"categories":[],"categories_nodes":[],"categories_segments":[],"categories_sizes":[],"default_left":[0],"id":48,"left_children":[-1],"loss_changes":[0E0],"parents":[2147483647],"right_children":[-1],"split_conditions":[7.132035E-8],"split_indices":[0],"split_type":[0],"sum_hessian":[1.067E3],"tree_param":{"num_deleted":"0","num_feature":"12","num_nodes":"1","size_leaf_vector":"1"}},{"base_weights":[1.6668024E-7],"categories":[],"categories_nodes":[],"categories_segments":[],"categories_sizes":[],"default_left":[0],"id":49,"left_children":[-1],"loss_changes":[0E0],"parents":[2147483647],"right_children":[-1],"split_conditions":[5.0004072E-8],"split_indices":[0],"split_type":[0],"sum_hessian":[1.067E3],"tree_param":{"num_deleted":"0","num_feature":"12","num_nodes":"1","size_leaf_vector":"1"}},{"base_weights":[1.17097194E-7],"categories":[],"categories_nodes":[],"categories_segments":[],"categories_sizes":[],"default_left":[0],"id":50,"left_children":[-1],"loss_changes":[0E0],"parents":[2147483647],"right_children":[-1],"split_conditions":[3.512916E-8],"split_indices":[0],"split_type":[0],"sum_hessian":[1.067E3],"tree_param":{"num_deleted":"0","num_feature":"12","num_nodes":"1","size_leaf_vector":"1"}},{"base_weights":[8.22637E-8],"categories":[],"categories_nodes":[],"categories_segments":[],"categories_sizes":[],"default_left":[0],"id":51,"left_children":[-1],"loss_changes":[0E0],"parents":[2147483647],"right_children":[-1],"split_conditions":[2.4679112E-8],"split_indices":[0],"split_type":[0],"sum_hessian":[1.067E3],"tree_param":{"num_deleted":"0","num_feature":"12","num_nodes":"1","size_leaf_vector":"1"}},{"base_weights":[5.779291E-8],"categories":[],"categories_nodes":[],"categories_segments":[],"categories_sizes":[],"default_left":[0],"id":52,"left_children":[-1],"loss_changes":[0E0],"parents":[2147483647],"right_children":[-1],"split_conditions":[1.7337873E-8],"split_indices":[0],"split_type":[0],"sum_hessian":[1.067E3],"tree_param":{"num_deleted":"0","num_feature":"12","num_nodes":"1","size_leaf_vector":"1"}},{"base_weights":[4.0601115E-8],"categories":[],"categories_nodes":[],"categories_segments":[],"categories_sizes":[],"default_left":[0],"id":53,"left_children":[-1],"loss_changes":[0E0],"parents":[2147483647],"right_children":[-1],"split_conditions":[1.2180335E-8],"split_indices":[0],"split_type":[0],"sum_hessian":[1.067E3],"tree_param":{"num_deleted":"0","num_feature":"12","num_nodes":"1","size_leaf_vector":"1"}},{"base_weights":[2.8523612E-8],"categories":[],"categories_nodes":[],"categories_segments":[],"categories_sizes":[],"default_left":[0],"id":54,"left_children":[-1],"loss_changes":[0E0],"parents":[2147483647],"right_children":[-1],"split_conditions":[8.557084E-9],"split_indices":[0],"split_type":[0],"sum_hessian":[1.067E3],"tree_param":{"num_deleted":"0","num_feature":"12","num_nodes":"1","size_leaf_vector":"1"}},{"base_weights":[2.0038826E-8],"categories":[],"categories_nodes":[],"categories_segments":[],"categories_sizes":[],"default_left":[0],"id":55,"left_children":[-1],"loss_changes":[0E0],"parents":[2147483647],"right_children":[-1],"split_conditions":[6.011648E-9],"split_indices":[0],"split_type":[0],"sum_hessian":[1.067E3],"tree_param":{"num_deleted":"0","num_feature":"12","num_nodes":"1","size_leaf_vector":"1"}},{"base_weights":[1.40781875E-8],"categories":[],"categories_nodes":[],"categories_segments":[],"categories_sizes":[],"default_left":[0],"id":56,"left_children":[-1],"loss_changes":[0E0],"parents":[2147483647],"right_children":[-1],"split_conditions":[4.2234563E-9],"split_indices":[0],"split_type":[0],"sum_hessian":[1.067E3],"tree_param":{"num_deleted":"0","num_feature":"12","num_nodes":"1","size_leaf_vector":"1"}},{"base_weights":[9.890161E-9],"categories":[],"categories_nodes":[],"categories_segments":[],"categories_sizes":[],"default_left":[0],"id":57,"left_children":[-1],"loss_changes":[0E0],"parents":[2147483647],"right_children":[-1],"split_conditions":[2.9670484E-9],"split_indices":[0],"split_type":[0],"sum_hessian":[1.067E3],"tree_param":{"num_deleted":"0","num_feature":"12","num_nodes":"1","size_leaf_vector":"1"}},{"base_weights":[6.9479027E-9],"categories":[],"categories_nodes":[],"categories_segments":[],"categories_sizes":[],"default_left":[0],"id":58,"left_children":[-1],"loss_changes":[0E0],"parents":[2147483647],"right_children":[-1],"split_conditions":[2.084371E-9],"split_indices":[0],"split_type":[0],"sum_hessian":[1.067E3],"tree_param":{"num_deleted":"0","num_feature":"12","num_nodes":"1","size_leaf_vector":"1"}},{"base_weights":[4.8811186E-9],"categories":[],"categories_nodes":[],"categories_segments":[],"categories_sizes":[],"default_left":[0],"id":59,"left_children":[-1],"loss_changes":[0E0],"parents":[2147483647],"right_children":[-1],"split_conditions":[1.4643357E-9],"split_indices":[0],"split_type":[0],"sum_hessian":[1.067E3],"tree_param":{"num_deleted":"0","num_feature":"12","num_nodes":"1","size_leaf_vector":"1"}},{"base_weights":[3.4288734E-9],"categories":[],"categories_nodes":[],"categories_segments":[],"categories_sizes":[],"default_left":[0],"id":60,"left_children":[-1],"loss_changes":[0E0],"parents":[2147483647],"right_children":[-1],"split_conditions":[1.028662E-9],"split_indices":[0],"split_type":[0],"sum_hessian":[1.067E3],"tree_param":{"num_deleted":"0","num_feature":"12","num_nodes":"1","size_leaf_vector":"1"}},{"base_weights":[2.409129E-9],"categories":[],"categories_nodes":[],"categories_segments":[],"categories_sizes":[],"default_left":[0],"id":61,"left_children":[-1],"loss_changes":[0E0],"parents":[2147483647],"right_children":[-1],"split_conditions":[7.227387E-10],"split_indices":[0],"split_type":[0],"sum_hessian":[1.067E3],"tree_param":{"num_deleted":"0","num_feature":"12","num_nodes":"1","size_leaf_vector":"1"}},{"base_weights":[1.6924794E-9],"categories":[],"categories_nodes":[],"categories_segments":[],"categories_sizes":[],"default_left":[0],"id":62,"left_children":[-1],"loss_changes":[0E0],"parents":[2147483647],"right_children":[-1],"split_conditions":[5.0774385E-10],"split_indices":[0],"split_type":[0],"sum_hessian":[1.067E3],"tree_param":{"num_deleted":"0","num_feature":"12","num_nodes":"1","size_leaf_vector":"1"}},{"base_weights":[1.1883757E-9],"categories":[],"categories_nodes":[],"categories_segments":[],"categories_sizes":[],"default_left":[0],"id":63,"left_children":[-1],"loss_changes":[0E0],"parents":[2147483647],"right_children":[-1],"split_conditions":[3.5651274E-10],"split_indices":[0],"split_type":[0],"sum_hessian":[1.067E3],"tree_param":{"num_deleted":"0","num_feature":"12","num_nodes":"1","size_leaf_vector":"1"}},{"base_weights":[8.350013E-10],"categories":[],"categories_nodes":[],"categories_segments":[],"categories_sizes":[],"default_left":[0],"id":64,"left_children":[-1],"loss_changes":[0E0],"parents":[2147483647],"right_children":[-1],"split_conditions":[2.505004E-10],"split_indices":[0],"split_type":[0],"sum_hessian":[1.067E3],"tree_param":{"num_deleted":"0","num_feature":"12","num_nodes":"1","size_leaf_vector":"1"}},{"base_weights":[5.868642E-10],"categories":[],"categories_nodes":[],"categories_segments":[],"categories_sizes":[],"default_left":[0],"id":65,"left_children":[-1],"loss_changes":[0E0],"parents":[2147483647],"right_children":[-1],"split_conditions":[1.7605928E-10],"split_indices":[0],"split_type":[0],"sum_hessian":[1.067E3],"tree_param":{"num_deleted":"0","num_feature":"12","num_nodes":"1","size_leaf_vector":"1"}},{"base_weights":[4.1250525E-10],"categories":[],"categories_nodes":[],"categories_segments":[],"categories_sizes":[],"default_left":[0],"id":66,"left_children":[-1],"loss_changes":[0E0],"parents":[2147483647],"right_children":[-1],"split_conditions":[1.2375158E-10],"split_indices":[0],"split_type":[0],"sum_hessian":[1.067E3],"tree_param":{"num_deleted":"0","num_feature":"12","num_nodes":"1","size_leaf_vector":"1"}},{"base_weights":[2.8978137E-10],"categories":[],"categories_nodes":[],"categories_segments":[],"categories_sizes":[],"default_left":[0],"id":67,"left_children":[-1],"loss_changes":[0E0],"parents":[2147483647],"right_children":[-1],"split_conditions":[8.693441E-11],"split_indices":[0],"split_type":[0],"sum_hessian":[1.067E3],"tree_param":{"num_deleted":"0","num_feature":"12","num_nodes":"1","size_leaf_vector":"1"}},{"base_weights":[2.0392608E-10],"categories":[],"categories_nodes":[],"categories_segments":[],"categories_sizes":[],"default_left":[0],"id":68,"left_children":[-1],"loss_changes":[0E0],"parents":[2147483647],"right_children":[-1],"split_conditions":[6.117783E-11],"split_indices":[0],"split_type":[0],"sum_hessian":[1.067E3],"tree_param":{"num_deleted":"0","num_feature":"12","num_nodes":"1","size_leaf_vector":"1"}},{"base_weights":[1.4324712E-10],"categories":[],"categories_nodes":[],"categories_segments":[],"categories_sizes":[],"default_left":[0],"id":69,"left_children":[-1],"loss_changes":[0E0],"parents":[2147483647],"right_children":[-1],"split_conditions":[4.2974138E-11],"split_indices":[0],"split_type":[0],"sum_hessian":[1.067E3],"tree_param":{"num_deleted":"0","num_feature":"12","num_nodes":"1","size_leaf_vector":"1"}},{"base_weights":[1.0047532E-10],"categories":[],"categories_nodes":[],"categories_segments":[],"categories_sizes":[],"default_left":[0],"id":70,"left_children":[-1],"loss_changes":[0E0],"parents":[2147483647],"right_children":[-1],"split_conditions":[3.0142597E-11],"split_indices":[0],"split_type":[0],"sum_hessian":[1.067E3],"tree_param":{"num_deleted":"0","num_feature":"12","num_nodes":"1","size_leaf_vector":"1"}},{"base_weights":[7.080263E-11],"categories":[],"categories_nodes":[],"categories_segments":[],"categories_sizes":[],"default_left":[0],"id":71,"left_children":[-1],"loss_changes":[0E0],"parents":[2147483647],"right_children":[-1],"split_conditions":[2.1240789E-11],"split_indices":[0],"split_type":[0],"sum_hessian":[1.067E3],"tree_param":{"num_deleted":"0","num_feature":"12","num_nodes":"1","size_leaf_vector":"1"}},{"base_weights":[4.9681575E-11],"categories":[],"categories_nodes":[],"categories_segments":[],"categories_sizes":[],"default_left":[0],"id":72,"left_children":[-1],"loss_changes":[0E0],"parents":[2147483647],"right_children":[-1],"split_conditions":[1.4904473E-11],"split_indices":[0],"split_type":[0],"sum_hessian":[1.067E3],"tree_param":{"num_deleted":"0","num_feature":"12","num_nodes":"1","size_leaf_vector":"1"}},{"base_weights":[3.489973E-11],"categories":[],"categories_nodes":[],"categories_segments":[],"categories_sizes":[],"default_left":[0],"id":73,"left_children":[-1],"loss_changes":[0E0],"parents":[2147483647],"right_children":[-1],"split_conditions":[1.0469919E-11],"split_indices":[0],"split_type":[0],"sum_hessian":[1.067E3],"tree_param":{"num_deleted":"0","num_feature":"12","num_nodes":"1","size_leaf_vector":"1"}},{"base_weights":[2.4593827E-11],"categories":[],"categories_nodes":[],"categories_segments":[],"categories_sizes":[],"default_left":[0],"id":74,"left_children":[-1],"loss_changes":[0E0],"parents":[2147483647],"right_children":[-1],"split_conditions":[7.3781484E-12],"split_indices":[0],"split_type":[0],"sum_hessian":[1.067E3],"tree_param":{"num_deleted":"0","num_feature":"12","num_nodes":"1","size_leaf_vector":"1"}},{"base_weights":[1.7413246E-11],"categories":[],"categories_nodes":[],"categories_segments":[],"categories_sizes":[],"default_left":[0],"id":75,"left_children":[-1],"loss_changes":[0E0],"parents":[2147483647],"right_children":[-1],"split_conditions":[5.223974E-12],"split_indices":[0],"split_type":[0],"sum_hessian":[1.067E3],"tree_param":{"num_deleted":"0","num_feature":"12","num_nodes":"1","size_leaf_vector":"1"}},{"base_weights":[1.2516623E-11],"categories":[],"categories_nodes":[],"categories_segments":[],"categories_sizes":[],"default_left":[0],"id":76,"left_children":[-1],"loss_changes":[0E0],"parents":[2147483647],"right_children":[-1],"split_conditions":[3.754987E-12],"split_indices":[0],"split_type":[0],"sum_hessian":[1.067E3],"tree_param":{"num_deleted":"0","num_feature":"12","num_nodes":"1","size_leaf_vector":"1"}},{"base_weights":[8.8820505E-12],"categories":[],"categories_nodes":[],"categories_segments":[],"categories_sizes":[],"default_left":[0],"id":77,"left_children":[-1],"loss_changes":[0E0],"parents":[2147483647],"right_children":[-1],"split_conditions":[2.6646153E-12],"split_indices":[0],"split_type":[0],"sum_hessian":[1.067E3],"tree_param":{"num_deleted":"0","num_feature":"12","num_nodes":"1","size_leaf_vector":"1"}},{"base_weights":[6.1774106E-12],"categories":[],"categories_nodes":[],"categories_segments":[],"categories_sizes":[],"default_left":[0],"id":78,"left_children":[-1],"loss_changes":[0E0],"parents":[2147483647],"right_children":[-1],"split_conditions":[1.8532233E-12],"split_indices":[0],"split_type":[0],"sum_hessian":[1.067E3],"tree_param":{"num_deleted":"0","num_feature":"12","num_nodes":"1","size_leaf_vector":"1"}},{"base_weights":[4.314139E-12],"categories":[],"categories_nodes":[],"categories_segments":[],"categories_sizes":[],"default_left":[0],"id":79,"left_children":[-1],"loss_changes":[0E0],"parents":[2147483647],"right_children":[-1],"split_conditions":[1.2942417E-12],"split_indices":[0],"split_type":[0],"sum_hessian":[1.067E3],"tree_param":{"num_deleted":"0","num_feature":"12","num_nodes":"1","size_leaf_vector":"1"}},{"base_weights":[3.052087E-12],"categories":[],"categories_nodes":[],"categories_segments":[],"categories_sizes":[],"default_left":[0],"id":80,"left_children":[-1],"loss_changes":[0E0],"parents":[2147483647],"right_children":[-1],"split_conditions":[9.156262E-13],"split_indices":[0],"split_type":[0],"sum_hessian":[1.067E3],"tree_param":{"num_deleted":"0","num_feature":"12","num_nodes":"1","size_leaf_vector":"1"}},{"base_weights":[2.2107192E-12],"categories":[],"categories_nodes":[],"categories_segments":[],"categories_sizes":[],"default_left":[0],"id":81,"left_children":[-1],"loss_changes":[0E0],"parents":[2147483647],"right_children":[-1],"split_conditions":[6.632158E-13],"split_indices":[0],"split_type":[0],"sum_hessian":[1.067E3],"tree_param":{"num_deleted":"0","num_feature":"12","num_nodes":"1","size_leaf_vector":"1"}},{"base_weights":[1.7900355E-12],"categories":[],"categories_nodes":[],"categories_segments":[],"categories_sizes":[],"default_left":[0],"id":82,"left_children":[-1],"loss_changes":[0E0],"parents":[2147483647],"right_children":[-1],"split_conditions":[5.3701065E-13],"split_indices":[0],"split_type":[0],"sum_hessian":[1.067E3],"tree_param":{"num_deleted":"0","num_feature":"12","num_nodes":"1","size_leaf_vector":"1"}},{"base_weights":[1.3693516E-12],"categories":[],"categories_nodes":[],"categories_segments":[],"categories_sizes":[],"default_left":[0],"id":83,"left_children":[-1],"loss_changes":[0E0],"parents":[2147483647],"right_children":[-1],"split_conditions":[4.1080548E-13],"split_indices":[0],"split_type":[0],"sum_hessian":[1.067E3],"tree_param":{"num_deleted":"0","num_feature":"12","num_nodes":"1","size_leaf_vector":"1"}},{"base_weights":[9.486677E-13],"categories":[],"categories_nodes":[],"categories_segments":[],"categories_sizes":[],"default_left":[0],"id":84,"left_children":[-1],"loss_changes":[0E0],"parents":[2147483647],"right_children":[-1],"split_conditions":[2.846003E-13],"split_indices":[0],"split_type":[0],"sum_hessian":[1.067E3],"tree_param":{"num_deleted":"0","num_feature":"12","num_nodes":"1","size_leaf_vector":"1"}},{"base_weights":[5.279838E-13],"categories":[],"categories_nodes":[],"categories_segments":[],"categories_sizes":[],"default_left":[0],"id":85,"left_children":[-1],"loss_changes":[0E0],"parents":[2147483647],"right_children":[-1],"split_conditions":[1.5839515E-13],"split_indices":[0],"split_type":[0],"sum_hessian":[1.067E3],"tree_param":{"num_deleted":"0","num_feature":"12","num_nodes":"1","size_leaf_vector":"1"}},{"base_weights":[5.279838E-13],"categories":[],"categories_nodes":[],"categories_segments":[],"categories_sizes":[],"default_left":[0],"id":86,"left_children":[-1],"loss_changes":[0E0],"parents":[2147483647],"right_children":[-1],"split_conditions":[1.5839515E-13],"split_indices":[0],"split_type":[0],"sum_hessian":[1.067E3],"tree_param":{"num_deleted":"0","num_feature":"12","num_nodes":"1","size_leaf_vector":"1"}},{"base_weights":[5.279838E-13],"categories":[],"categories_nodes":[],"categories_segments":[],"categories_sizes":[],"default_left":[0],"id":87,"left_children":[-1],"loss_changes":[0E0],"parents":[2147483647],"right_children":[-1],"split_conditions":[1.5839515E-13],"split_indices":[0],"split_type":[0],"sum_hessian":[1.067E3],"tree_param":{"num_deleted":"0","num_feature":"12","num_nodes":"1","size_leaf_vector":"1"}},{"base_weights":[5.279838E-13],"categories":[],"categories_nodes":[],"categories_segments":[],"categories_sizes":[],"default_left":[0],"id":88,"left_children":[-1],"loss_changes":[0E0],"parents":[2147483647],"right_children":[-1],"split_conditions":[1.5839515E-13],"split_indices":[0],"split_type":[0],"sum_hessian":[1.067E3],"tree_param":{"num_deleted":"0","num_feature":"12","num_nodes":"1","size_leaf_vector":"1"}}]},"name":"gbtree"},"learner_model_param":{"base_score":"1.7147442E-2","boost_from_average":"1","num_class":"0","num_feature":"12","num_target":"1"},"objective":{"name":"reg:squarederror","reg_loss_param":{"scale_pos_weight":"1"}}},"version":[2,0,0]}